,0,1,2,3,4,5,6,7,8,9,10,11,12,13,14,15,16,17,18,19,20,21,22,23,24,25,26,27,28,29,30,31
<■1■xXinGYAKshhfMVBLbOJwuGCXPnSxPTmG>,-0.30995455,-0.8109953,-3.1163347,-0.35006535,-0.9099294,2.0609608,0.52009934,1.0216178,-2.2084405,-0.25850606,1.3699062,0.6495054,0.34224898,0.39200032,0.27191645,2.1534817,-2.1916778,0.78118366,-0.3596551,1.4604647,1.2088143,1.8411534,-0.6958516,-0.82708406,-0.3223994,-1.7310098,0.19072291,1.1619226,-0.9501343,-0.72633874,-1.5031631,-2.6224306
<■0■oguVrmLNSfMNtQDxymtAROANFdlrhFDY>,-1.3797771,1.9262717,-5.731808,-2.1296122,-0.31304577,6.71726,3.709133,0.74518144,-0.8972636,-1.0025449,-1.7330601,0.9117465,-1.2800889,0.43079466,-2.1266432,1.9071499,-2.0339408,3.4568841,-1.9767225,5.015705,2.4717753,-1.2426246,-3.6564877,3.3090992,3.9185176,2.2885218,1.7613149,0.995806,-2.5537183,-1.1118754,-0.77746534,1.6082733
<■0■YkANVFCbcPSTTniUJBGZNAwzNKAPZqrE>,0.35164925,-1.6630886,-1.0986946,-1.3819022,2.208758,1.0136433,-1.4576283,-2.170583,0.6782419,1.8395594,0.30761138,-0.8429933,-0.59226745,1.9247998,-1.3547522,1.1058117,-2.6195123,-0.8014934,-1.0282958,2.1369536,-1.2402308,-1.3212827,-2.9199722,0.8397653,0.5666436,2.731186,1.6053061,0.091613576,-1.7870507,0.15356797,1.2483284,-0.35005015
<■0■WZSugeRXatESndjnBorIQNHLNMVEMXrL>,-0.5737591,-1.3383819,-0.65147704,-0.19328447,-1.2145411,0.46255198,0.85816693,0.5583691,1.0648404,1.5897378,-1.1167394,0.3976334,1.553198,1.079139,-1.0884717,-0.59828955,1.7615929,-0.13561843,-0.40236086,1.9928901,2.3479893,1.6077472,-0.42168897,1.505732,1.6526985,0.25076663,-0.9510799,1.7064483,-0.878768,-0.03330379,1.343473,0.5405455
<■0■BmPldeGyrTKtCfLqwLxGJPIhCJARszBN>,-2.659177,4.789826,-5.978661,-6.3979273,2.3053699,10.303721,5.875228,2.281433,1.9413133,1.0079025,-2.7851343,3.8192065,-1.9403505,1.5725714,-1.5647738,7.0686226,-0.65948325,6.961843,-4.589344,10.759271,4.559228,-2.6197479,-1.9707443,2.9580047,4.4906163,3.1997876,2.4668953,0.87674415,-6.05814,0.3524362,1.3700554,2.3469906
<■1■sfpnMXWCdzNAeBufNClmvZQWzwHYXGsg>,-0.86578035,0.34709558,-4.283121,-3.2074146,0.2618967,4.5787334,3.2298117,1.3882982,1.242039,2.901231,-1.1212152,1.3996426,-0.973907,1.531038,-4.620825,2.398708,-1.3169243,4.5500426,-3.0175521,4.0618744,2.3779438,-4.0559287,-2.9350479,1.5315943,1.607804,0.5346335,1.2879223,-0.3500185,-4.0889277,-3.3367486,-2.8586712,1.4494264
<■0■rsTbBeyhGJeatTvZichqilHfydZPFkQy>,-0.8595293,1.68621,-2.7852948,-3.420037,1.2523986,6.4490895,1.060152,1.461815,2.0438259,1.3562056,-2.014584,2.0205297,-1.5663158,1.1935742,-0.96365076,2.8164,-1.3120108,1.4630954,-2.4842005,7.1380415,3.4508018,-3.689114,-2.6520672,2.8975484,2.6503527,2.703257,-0.23816337,0.7250561,-4.06309,-1.1186923,-0.30954638,1.1343391
<■1■cCFkmPxPLcHdnLvtHOglwoXvKGQvogym>,2.1777363,-0.11439844,-1.8992714,-0.18775922,-0.25881985,0.95148057,3.033154,-0.08276453,0.2554485,2.393082,0.7446006,0.3829054,-1.0393438,-0.008944548,-1.3472992,1.7500067,-0.050181635,-0.3820641,-3.4342208,1.7549365,3.0577712,-1.140258,0.25361988,0.3581795,0.042531677,-2.0979803,2.0628736,0.879923,0.8152685,1.0879514,-1.3265561,0.35058203
<■0■ZEoPDgaLXFXRLbFKUArMpriDuoiceicM>,-0.8245556,2.503301,0.38327178,-1.5609992,-0.49359122,1.128485,0.51406306,1.3625538,1.0630182,-0.5584026,-0.66557646,1.3738213,-0.09540029,-1.1660699,-1.0909554,0.78973824,2.4801443,2.110036,-0.91960144,0.35495818,-0.7909606,0.9766491,-0.8154493,1.7438557,-0.2875932,1.0253626,-2.7813914,1.7464483,-1.4230202,1.5538299,0.061689734,1.9880413
<■0■VcUWTTgVZmKKSJeQyDvPYKjCQwzJYEmU>,-0.0780428,-0.15803102,2.2084398,-0.8190325,-0.7761824,-0.76258755,2.5084152,-1.9146242,1.5813931,1.044755,-0.9920479,2.2812183,-1.0022346,-1.0364357,-1.5674133,3.296358,1.1804878,0.39524034,-0.69769514,0.7802527,1.441986,-1.1959167,-2.5672443,-0.361792,-0.7362864,1.0393587,0.59859085,0.3956254,-0.9260108,1.4303514,0.20167561,-0.9137493
<■1■GMdDMrpdmNMrXnUeeHvrVhBnNGlzIJiw>,0.44321132,-0.09478958,-0.81157285,1.2256095,0.36228988,0.34624118,1.6017329,1.3168143,0.72177416,2.1962864,-1.5663795,0.9691373,-0.9224725,-0.21441208,-2.9883623,2.9902585,-1.1565497,1.1648387,0.7400438,2.6465528,1.4604108,-0.16544677,-1.4790603,-1.0560002,1.4652513,-1.432617,0.4502209,-1.8590865,0.34522414,1.391414,-2.3250096,-0.7373877
<■1■DGDifkgEVjMSjTLqIMIUEetDQJcmwCuz>,-0.84627527,2.90124,-3.7497196,-2.0660253,0.33087745,5.571533,1.8768793,0.29884374,2.3560822,-0.5103122,-1.825634,0.7112857,-2.373206,0.3125116,-3.5502946,4.872968,0.48745275,4.404978,-0.8782291,4.862816,2.3522189,-2.517046,-3.0793695,3.7925687,3.5808587,1.6005416,1.5339171,-0.29429436,-1.4403603,-0.10445327,-0.294613,1.1929092
<■0■IbsOrKPBtJkGKqdViMlCTVQfgXTxyzvL>,-1.9353188,1.6507622,0.09581555,-0.7754098,3.025905,0.78039813,0.18734244,0.10761226,1.4451151,-2.2811978,-1.4649973,1.5161405,-0.1027981,0.7335388,2.0989478,0.42284673,-0.5642913,0.69929373,-1.6402938,3.3544285,0.8190023,-0.4484105,-0.53212583,0.6739645,-2.0046322,-1.4623384,0.26029107,-1.4023211,-0.3904455,0.7176941,0.6617968,1.5434979
<■0■ImhoRQtBCPMECReUgUHsdmgFUFFRmkBu>,0.06657567,0.7451453,-1.6996251,-0.09146859,0.53557277,1.0315738,-0.09076786,0.8475428,2.8417156,0.77929556,-0.27177843,0.6406687,1.7339731,1.9638026,-0.46089873,1.7896682,0.80985844,0.90020645,-2.7471194,0.89523864,-0.6823536,0.93529046,1.0184193,1.4074806,1.7670331,-0.78779066,0.05694544,2.1691973,-0.32993102,-1.3797377,0.044417266,2.4516098
<■0■QUavHSfKWdOpJaWpuoSGtgTBXpFHNFni>,-0.28015727,1.6309026,-4.6342173,-3.197946,-0.51185864,6.8272495,3.171304,2.53747,0.23932527,0.22641563,-0.6708149,0.330971,-0.18418352,1.5485833,-0.5493916,3.7983434,0.13130978,4.117555,-2.3807032,3.5074596,4.200268,-3.2241912,0.35006395,2.45949,2.387984,0.6913064,3.1982954,-0.20891596,-2.7633104,-1.7768586,0.7311118,0.81610215
<■0■PHVKJlGpfExZsFhTTjKLvLBxpAcESklB>,-0.050011594,1.2712735,-2.887302,-2.5406563,-0.0027789525,5.8843026,1.063712,3.1901968,1.9831887,-0.4194316,-0.90934986,1.0998738,-2.0842662,0.39022756,-2.645071,4.1630363,0.32095605,2.41367,-2.8659542,4.579467,3.8630085,-3.122117,-3.086397,2.5016541,3.6539195,2.0311007,-0.67635477,1.5010232,-4.843191,-1.6139911,1.3887057,3.1263242
<■0■nJowaAEaELfqbhCOJSPWPbxuxLddDwhM>,0.63956386,3.28526,2.035121,-0.7028176,0.13833761,1.5428511,0.9279337,0.82776713,-1.1202528,-1.2783854,-1.0719601,-0.26167327,-1.2511992,-0.38184237,-1.4488608,1.0824503,1.0309495,2.124455,-0.55645454,0.5140302,1.2986289,-1.136334,-0.2547639,-1.0989941,-0.7376507,-0.12760891,2.2396955,0.01582071,-1.3160886,0.6484946,2.2374632,0.96168417
<■1■wYOiLVawppFHvyuqKJltOFPrskSelRjP>,0.10660891,1.3560594,-1.8716975,-2.707344,-0.8672295,0.6085476,0.15429273,-0.52048254,-0.3011827,-0.3175726,-1.0086282,1.6735027,0.07371886,-1.9559764,-0.057891004,0.7261341,-2.7764993,1.3607458,-0.810061,1.023914,-0.98635,0.38336188,0.31146687,-1.5067557,1.5237837,-0.24460815,0.7882777,-0.3394798,-2.6190608,1.8151153,0.38170272,-1.2893605
<■0■tuMzfJwYSIQgIUqjmSttJLPEeJpeTVHQ>,-2.1553094,-2.0899034,-2.1670332,0.10292844,0.90013474,0.35685515,0.7156077,-0.029545294,0.43645832,0.9292613,-0.2510132,1.3643717,-1.2872112,0.28808576,-0.19034621,1.2679404,-0.24091287,2.5183477,-1.9424231,1.0461204,2.4483383,-0.9184764,1.7473853,0.8436853,-0.6636635,-1.7536273,1.4647968,1.6274335,-0.51617235,0.10719,-0.6899602,0.9517922
<■1■pfMOxeNvxHhcaWabiTAbsmLKqsscHMqs>,-0.96040684,1.0410289,-0.4068257,1.6231005,-0.82658553,1.3509837,1.1555502,-0.71892816,1.0869265,2.448086,-2.9093575,2.0246947,-1.1520987,1.4428344,-1.2724382,0.5465,-0.9899424,1.9191892,0.39478445,-0.3070492,0.706399,-1.416518,1.755722,1.7004997,0.86750036,2.1871283,1.9322193,-1.0490365,-0.9438864,1.9532037,0.61642545,-3.0427577
<■1■kvqUaeOIeIcjEJjwGeJipSPVwCXANTiE>,0.28868195,-2.7977815,1.4366723,-1.0723648,1.3564712,1.5744051,-0.1944727,1.6521412,0.2200171,-0.09048771,0.75437486,1.1540555,0.65757966,2.145127,-1.3583642,1.2762825,-0.5862162,2.164396,-0.3577956,-0.3645566,1.7606269,-1.475654,-0.1849349,1.8184707,1.0530567,-0.4536348,0.35200182,-2.0587416,-1.0565941,1.0466223,1.1432657,2.0926588
<■1■KwcvhzCbDkjISZJTfaVEaRCFueKSadhM>,-2.0596116,2.9128594,-2.379816,-2.2919748,0.76056856,6.2086263,4.159295,2.0764136,-0.93748677,-0.04709412,-1.587161,1.5570978,-0.50944614,1.0217024,-1.3484056,3.5066445,-0.51128274,4.070917,-3.0050929,4.267263,1.5920031,-2.565078,-2.52895,3.5925796,3.2693713,2.1688848,1.135796,-0.4782253,-4.7473536,-0.07707456,0.060642697,1.0451998
<■1■mfEoitWgPSxqDbKPbvuczXMDPzaJBDWZ>,-1.7895719,1.506278,-4.104116,-2.8280752,1.6361365,5.2783217,6.2877316,2.004267,1.2634851,1.1886399,-1.5147961,0.6793313,-0.2730957,3.3676293,-1.8973616,2.0272493,0.4028683,4.38569,-2.6395047,6.1944733,2.9066684,-2.7002347,-1.4525856,1.1446534,2.5121,1.8362886,1.2590866,0.27715814,-3.0818703,0.87628466,-0.42646933,2.2283788
<■0■lObpqSeyGCDwnenAbJbZgGmGjoLVHSMG>,-0.48094282,-1.7809137,-1.7056055,-2.3955295,0.8258812,0.27410054,2.8213835,3.263911,-0.6115154,0.13998029,-1.2206192,0.50396305,-2.008631,1.3778685,1.3760004,2.1765888,-0.07171516,-0.6644423,-0.3001835,1.1003927,1.0280355,-0.015327205,-0.51503164,-1.0998224,0.9051845,0.5132128,1.2262727,-1.6511585,-0.09884125,1.2279879,1.098233,0.48299095
<■0■PKfUdrLgSfkweLaWAWJeLWfyMpzrvtJF>,-1.8804678,-1.4861883,0.47156265,-0.6380825,0.9789312,2.245439,0.68413866,2.6435406,0.6178799,-0.34477246,-2.995711,0.9028331,-0.5308505,1.2194926,0.268602,0.47252256,2.056122,-0.2099696,-1.1661575,-0.4420383,0.0106052365,-1.9136264,0.19994313,0.78792375,-0.05699862,-0.189658,1.4022375,-1.4877229,-4.0013423,0.23640841,0.15891317,2.3418694
<■0■wnTEftExeMKRrjXZJqDGdzYmWHBZpmVM>,-0.026511617,0.17616501,-0.7502596,-2.9040604,0.492322,-0.6955004,-1.8650911,2.233581,-1.0076739,-1.1728581,0.97847694,1.498367,1.2378421,1.7627772,-2.008962,2.1650116,-0.6866683,1.0357581,-1.0439258,0.7758491,-1.224195,-1.4112757,0.7378219,1.5813227,1.3543351,-0.3432554,-0.24496305,0.6860458,0.072059415,-1.2884505,-2.0843341,1.6852943
<■0■oPzzQGRdUMCqpBXQLBLBraPZozocRZOB>,-2.619124,0.25278175,-0.24663946,0.3831894,3.242396,0.28685072,1.61098,1.8098793,-2.1235042,-0.98921984,-1.9034848,0.37030855,-0.49463835,0.75900733,-1.3520365,0.58111864,-1.3741432,-1.4677715,-1.2583538,0.51350904,0.87154555,-0.15385003,-0.90906364,1.4667208,-0.26812693,-0.30700222,-1.2795151,0.63364863,-1.5176313,0.40548313,-1.5909,2.2121544
<■1■ScpbJChmHKMjSBWAbdmzepcsOxTLIgKK>,-1.8054816,1.8128065,-4.341502,-3.0610464,1.9608196,4.4175563,2.5536911,1.6583735,0.012297876,0.76739645,-2.8066995,1.2805429,-1.67528,1.6834831,1.2576796,4.6049914,-1.7901963,3.9858232,-2.9020293,6.2672453,2.9489846,-2.5597098,-4.7623453,1.1927035,3.0345843,1.0974942,1.8550591,-0.19547074,-3.177308,-1.5837461,-0.040530484,1.0334569
<■0■cmEEkOaGEhVLwiBENkcCZuyyWxieYFNJ>,0.98766214,2.5822,-2.2656128,0.054880727,1.4601424,2.5009956,-0.44523785,-0.034925472,0.3000824,1.6996918,0.0061591063,0.2712429,-0.5194058,0.13856398,-1.4776449,-1.6372058,-1.1155152,0.9423766,-1.1855539,0.25858295,0.038749367,-0.009913875,-0.48981336,-1.0691656,-0.13901871,0.20223176,1.4314396,-0.40508527,0.62668514,0.96519125,1.4289032,1.0062386
<■1■lpqngXFHMYhVNGHhFDUxBBQvAPomErFd>,-0.61650276,-0.36059424,-1.7899046,-0.8670553,-1.7403065,2.8964007,0.25517753,-0.0777087,1.2982436,0.8611492,-1.6843053,-0.472112,0.07129271,2.5059536,-0.08268942,1.0968795,0.14960855,2.3069985,-0.22582343,-0.70066404,1.4141315,0.17153837,-0.14835298,0.3588889,-1.8627208,3.4749255,-0.04443134,-0.8212995,-1.5234352,-0.06460595,-0.59091634,0.71619
<■0■HeDAjVaqPlNjaRndVgsyOSLpikIodkkQ>,-1.7199004,3.5570974,-3.3902798,-1.8641343,0.55784774,4.544784,3.298384,0.7406038,0.4914349,-1.7406777,-1.9792991,1.1726387,-2.592407,1.7408257,-1.0581192,4.383206,-1.5256323,2.6068058,-3.6816957,7.493091,2.9518914,-3.8040485,-2.0398777,2.1585398,2.873617,1.3139611,0.7239993,0.742475,-2.9151719,-0.9844728,-2.3850353,2.3081338
<■0■SNxNoCbiAMCihoeEVGNTtJJZcfVdYzUE>,0.012894787,0.018758498,-0.72257215,1.1864321,0.6102729,0.60933095,0.7623578,-0.24676295,-0.119804285,1.5130355,0.84860337,0.3648198,-1.7404785,-0.3740113,-1.6385167,2.996712,-3.654118,2.5933456,-0.018439714,0.63311255,-0.05195903,-0.99060017,-1.0495569,-0.51744807,1.383472,1.0202972,-0.5871035,2.1115153,0.13551323,1.6498021,-0.610261,-2.6351678
<■0■eIbdYnXHzQctHBlPSvHdCblpzTdspTXA>,1.1181116,-0.7728755,-3.014962,-2.3569593,2.094088,0.5397652,1.0715802,1.7743196,-0.5318858,3.2265258,-0.961176,1.6419394,0.23273979,-0.29117304,0.50376403,0.9176243,-0.9819707,1.3026733,0.070671365,1.3690522,0.5623068,0.30135286,-1.2860639,-0.86691314,-0.9299422,-0.31993204,1.015675,1.1147375,-0.26528987,0.34994262,-0.7572737,0.747609
<■1■kVoSsRtViiitNUYhwanwncbuVgWPmuNO>,-1.763322,1.8373585,-4.232466,-2.1384056,2.638763,4.567941,3.0955155,3.6414838,2.144238,0.17293887,-1.9202437,2.6620831,-0.49268425,1.0951407,-1.8384694,2.6984696,-0.9369696,2.7976704,-1.5008008,5.383848,3.6082354,-3.3687456,-2.09157,1.1282715,2.7097309,2.29649,-0.26561445,1.4276282,-4.7788568,-1.4060348,-1.1707405,-0.0038048653
<■0■ROxGsxQQVnVdtkcBYdVpQeSLwmlbyjLO>,-1.255347,0.26026064,0.15017016,-1.8930956,0.42553315,1.0306951,-0.047771227,0.67775,1.1719322,0.5640257,-0.41159162,0.77342314,-2.2566717,2.8544934,-0.05516588,0.9423323,-0.5282083,-1.2035297,-0.3451863,0.709277,0.8802726,-0.96565646,0.046295263,0.21273191,2.213529,1.9833732,1.7205848,1.2851844,-1.5935454,0.21910031,-2.3772213,-0.07943183
<■0■KYQHBPSpPguYdQCYSkoqOmcuBOVvquZJ>,-4.085255,0.57729846,-1.9035587,-2.2975082,-0.9573274,1.0491006,-0.8242873,1.3464476,-0.3050259,-0.82128555,-1.717286,0.035802443,-0.43861228,-0.57617027,-0.42585197,-1.4379627,-1.1195426,1.2040411,-0.88373476,1.212112,-0.50956506,-0.7601723,-1.6355329,-0.6743558,1.0891231,-1.2969847,0.752916,0.17935763,-2.136729,2.0779696,-2.2106283,0.76744825
<■1■IZfJeEGxhNAvPoNUohPcIVkfPkWPBijr>,-0.95871735,2.8299336,-1.1521324,-1.7947645,0.6036622,1.2021279,-0.6074324,1.2912236,-0.4806922,0.4696261,-2.2945416,-2.578764,0.9056061,1.3555349,-1.349098,1.7120684,-0.8997102,-0.15982081,0.025925335,-0.14545555,0.7178529,-0.5580706,1.2941041,0.3849164,2.5791423,-0.16943653,-0.19824599,-1.5210433,-0.5395128,-0.12284076,1.2637125,0.09700156
<■0■QCXjtgDyXkRpVMwMMpMpYLwRKVMEozGb>,-3.2850847,6.1707597,-9.28507,-7.491539,2.0309207,14.429664,6.4024177,2.5756323,1.510423,0.44326124,-2.8118083,4.70518,-2.691269,3.0430934,-4.143428,8.85636,-0.55475026,9.162276,-6.1709285,12.895277,8.892692,-7.310553,-4.7504883,4.6459355,7.249435,5.812601,3.5676997,2.5396876,-8.679797,-0.32141486,1.3745222,3.5296633
<■0■BGakkoOmyOUMRAjpJncfHFZYrpvVXBlQ>,0.9300133,0.017601622,-1.721877,1.1879654,1.9297793,0.3129038,0.69286954,0.30500236,-1.2906137,-0.24387366,1.8561299,1.0577774,0.6336923,2.2789178,-1.8685287,2.17258,-0.26585642,2.1140418,1.0066142,1.9858665,0.88299394,0.7563878,0.27464488,1.7866874,-1.7140526,0.03857015,1.1345259,0.34055838,0.17979193,0.88179964,0.15288953,1.6045201
<■0■VVvPjncQhxUaUKUHWRuWVTDajQoPxHac>,-0.9021076,4.2819786,-6.051463,-5.1748033,1.432862,8.970463,5.903971,1.2537085,0.73391265,1.0728755,-2.1707065,2.6748455,-1.8365451,1.3654294,-4.2297707,5.012866,-0.7353874,6.682922,-4.465052,9.435194,8.104502,-4.8839464,-4.4932756,2.8691044,5.5903063,3.9492373,2.4363282,0.27292082,-6.300723,-0.5818249,0.7877209,1.8159096
<■1■ygMtfjsLAhCShWgMzpZZnUIwoSPFSBxA>,-2.2218068,1.4878452,-1.4865762,-1.3733726,-2.394416,0.73532015,0.67243546,1.4913055,-0.038606353,-1.0184919,-0.9678468,0.1998701,-0.67663735,-2.183763,0.22332504,0.62536895,0.41275787,1.063105,-0.9403288,1.4197297,-0.4345254,-0.71582776,-1.4398574,-1.1406447,-1.6136016,-0.23900379,2.829847,-0.99546975,-1.6010844,-0.02032553,0.6820171,-0.0067111216
<■1■tBCmdwyCQHbgYiUtRWZarCnoJQkSyiKZ>,-1.7736214,-0.9287529,-1.2152668,2.6709743,-0.20138095,0.9768171,0.62759995,-0.09481729,1.3343359,-1.2317027,-2.3383405,-0.25830778,-1.4076318,-0.3086397,-0.41666603,0.057281192,1.0073476,4.4404483,-1.2725674,0.5680195,1.1280022,-0.5744506,-0.38189608,2.7231166,0.1764573,0.23559755,1.6859007,-0.39243573,-0.3810073,1.1276469,1.6957945,1.5411041
<■1■whZnKoXcEdeIgqaLZpSqDzMVnRtZRakq>,3.508926,0.66000783,0.7637132,0.96926326,-0.28414166,3.217234,-0.03343834,0.19385104,0.94277936,1.5422591,0.36196455,2.472753,-0.5572243,-2.8048651,-0.89003474,2.2225037,0.4432085,-0.120934844,-0.041129325,2.2981453,-1.437548,-0.9527915,1.1930676,0.25911373,-0.19345845,0.20473121,1.3604221,0.0030297523,-0.985923,-0.11167378,-0.8909671,2.601231
<■0■WbNEOOxMqSUqKcumeweohlMkPLWUMAUN>,0.71157587,2.0726147,-0.50713915,-0.8804265,-0.40076506,3.2087252,-0.6846836,1.0568876,0.7814162,0.57128346,-0.893939,-0.13496839,0.28613642,-1.7300785,-0.5318038,0.124806695,-0.07059319,0.19789723,1.1882484,0.14612916,1.6148491,-2.676463,-1.9928688,1.3004358,2.6610625,0.2803578,-1.2745409,0.9889744,-1.0720978,-1.0264324,-0.123606764,-1.8029248
<■1■qvDcmLbuzyfIyeuKzNrGdBgCNNTFjDyF>,-0.5133489,3.4541159,-3.907245,-4.3261366,0.274464,4.405422,2.6910365,1.2174872,-0.44775414,-0.36664426,-2.3290193,2.127377,-1.3866801,-0.7502146,-0.31811795,3.3209167,-2.4945667,5.2074127,-1.1244285,5.812557,3.157677,-2.7347143,-0.2588414,2.009561,3.4021564,3.086842,1.2591451,0.21496975,-1.0042393,0.25873306,1.7832081,2.9815829
<■0■cGBMjqvInyjZeIfEcJyBxGSYsaQHOLwk>,-1.5483257,2.4140036,-3.7692764,-2.0556068,2.302882,5.9773,2.8837197,1.2770969,2.5001779,1.4434015,-0.25894693,0.9494711,-0.09135989,1.5270897,-1.8830303,3.9044037,-1.5671556,3.697094,-2.8734057,4.164561,3.2727318,-4.166578,-3.6863341,2.055322,2.675473,3.0798662,1.5660874,1.0140135,-1.9287384,0.7180658,0.082585044,0.6587432
<■0■hUcchjmtToAiAkRsSWQhiMnndEfQNybE>,0.52512413,-0.20708683,-3.6905863,-1.3712071,0.059650797,0.3195863,1.7131692,1.7518716,-1.173759,-1.2124245,-1.8527539,0.78485,-2.637177,1.8489938,-1.750679,-0.074618004,-0.85776716,0.69398516,0.14395642,0.494384,0.76460767,-1.2956858,-0.7843819,0.3714981,1.4272679,-0.6122268,-1.7137649,1.7416328,-1.6764636,0.9074263,-0.56194997,1.0898571
<■1■bNRfnOEPFVsJeUiLfGueShIqdWKMvKBe>,2.340381,-0.51347953,0.46490675,-1.3822529,0.6576487,0.1254263,1.9573414,-0.53455913,0.36001477,1.1948388,-0.18252902,-0.12752585,0.037952933,1.5475348,0.91475326,0.2999057,1.3096936,-0.06329554,-1.7736981,0.85654914,2.8298042,-0.4985903,-0.7347517,0.41484085,1.6893408,0.4392402,1.4292663,0.63584024,-1.184868,-1.5782962,2.0591707,0.47411335
<■1■xZKiBcqdpmLwECcpjmfcwiojGzcwzGva>,-1.1105757,1.6914958,-1.842803,-2.0449307,0.402544,-0.3608791,-1.1388024,-1.2327135,1.194259,0.10713751,-2.5137882,1.2137008,0.28893974,-0.24330106,-0.23237951,1.0136423,-0.7111127,-1.3664364,-0.42016253,1.7092811,1.9425956,1.2108867,-0.60795885,-1.7792934,0.76501137,0.40056726,1.3985118,2.3133667,-2.9410393,-1.1203784,-0.39293972,1.2537522
<■0■nyUeNTSpfRsaEcTjnLzjbWsDTnUYkiUJ>,-0.27738008,-1.4375727,1.6347067,-0.65825665,-0.273502,0.56515837,0.6402475,2.4628205,-1.8168968,0.16566177,-0.86408335,-0.6222223,-1.593526,1.3081665,-1.2976831,1.0887095,0.7387111,1.7122587,0.8031658,1.3385309,-1.445241,-0.98719233,-1.8501179,0.36136958,-0.28195903,1.3797879,-1.8738178,1.566377,-1.7141904,0.71998477,-1.4417295,0.48968562
<■1■nNzBojVkridDJnEmRxLaLbpPvtYSPwNP>,-1.2074636,2.591315,-4.5530977,-3.4914305,0.5151899,5.489356,4.486158,1.156459,-0.4078997,0.891435,-0.09049385,0.5169597,0.13258478,1.403448,-1.5256046,2.9478025,-2.6184652,4.1922145,-1.4018615,4.641437,5.1934075,-3.294141,-0.50571775,1.131728,2.964405,2.6748736,0.789268,0.76193815,-3.8244812,0.18894471,-0.38850707,1.1687555
<■0■EUbolAWNXzGLPMpExfUsubZwBjJqresv>,0.43930715,-0.14858285,-2.2607028,-0.085582316,-0.40824237,0.826652,-0.6571704,3.0370347,0.53785247,0.39091367,0.7936277,-3.8186982,-0.05217769,0.97907436,1.9044591,2.266312,-0.6295984,2.748955,-0.4411538,0.9179458,2.8049917,1.4443799,0.5516227,0.7013736,0.92582875,0.26400587,-0.13650021,-1.4716965,-0.11950078,-2.2128994,-0.4867234,1.5965046
<■0■JvHwfntesNAThYNAtYaYGKxJsYiJKMKw>,-0.051108472,-0.70469713,-1.2486204,-0.5401925,2.5284133,0.70825285,0.16368762,0.14171109,-0.65097517,0.91956323,-1.067589,-0.0896572,-1.7771119,-1.3619051,-0.52909,1.5536848,2.1176305,2.599868,-0.19547853,1.2160714,0.92528474,2.6248097,-1.5418406,0.35538086,0.9856927,-0.6239646,-1.5636482,0.75282884,-1.3990755,0.7510785,-0.8029431,-0.52219397
<■1■fPgSimlRKAWrqZJhbLBqRjiZNOiTWBQN>,-1.2783146,-0.5413254,0.29858318,0.27391165,-0.39118734,-1.0710169,2.5692358,-2.2636914,0.7451655,2.9016647,-0.058565408,2.2071989,-0.51036596,1.4318647,-0.8135876,-1.3281862,-1.1828454,1.1598669,-2.0640125,1.2977015,-0.03131472,-2.4920619,-1.0170342,1.5546843,1.1472489,0.44622314,2.2510045,0.30424836,-0.4608108,-0.54488283,0.10117539,3.2278113
<■1■NwQgevXgNtjoGfBdaUNXfRFMAOcyUHRo>,-0.7834735,0.4995003,-1.2746879,-0.57386136,-0.6134359,2.3350325,-0.76580465,1.0969776,1.5567508,-1.3900955,-0.44268912,-0.08953435,-0.526485,-1.4011132,-0.123855926,0.008333582,-1.3008406,1.170823,0.9021763,0.070344016,-0.5910779,-4.3374577,-0.44320235,0.5189039,-1.6922888,2.2007253,2.562236,0.4033848,-1.6787312,0.42735273,-1.234426,-0.24555674
<■1■XBQotIPTIUyLyJMjVdKtjYnvoFlfzokr>,-1.7675061,-0.76643604,-0.4462121,0.5925815,-0.3419793,2.6303227,0.69791824,1.1825582,-1.9427243,-1.6569842,-0.0487904,0.9055924,0.69369,3.3800628,0.31475306,1.4848168,0.17791753,-0.43029368,-1.4709283,0.91510135,1.6169333,-1.5630255,-1.6353053,-2.2939262,-0.20250513,0.88935286,-2.0577357,0.69871885,-0.2542963,-1.1047832,0.059499253,0.4157888
<■0■LwpFJxMkGvtfNtbCrRhWXEdyXSuhiUsU>,-0.3199083,0.45330712,-1.3045498,-0.09733139,2.5955377,2.0231519,0.4528082,1.091025,-2.7963235,-0.20912573,0.3618556,-0.22459655,-0.2896695,0.39764556,0.21542342,2.735796,-1.8530424,0.8551545,-0.123020105,-0.25401703,-0.71002656,-0.39946926,-0.11008779,2.4587119,2.764121,0.4468788,0.7363853,0.4736152,-0.6705924,0.87511414,0.70881647,0.9571977
<■1■cVmAeYeOFSYdyKUvViihkihkVtUzmTJm>,-0.14890578,1.086248,-2.7578664,-0.5410088,0.6777651,3.8855755,3.3326366,-0.13153213,0.041046344,-0.14578517,-3.026365,1.4290413,0.087580025,1.1991158,-2.9503922,3.6783633,-0.52734816,3.7528872,-1.9607966,5.2821145,4.766533,-1.666987,-3.4284894,1.8734581,4.5010357,2.6682725,1.3395802,0.45000115,-4.1753855,-2.7305994,-0.481249,1.4948589
<■1■XMcbUHtSnVZmVNjmGHCUVQpOsjpJmagc>,-0.33872288,1.8122538,-2.6564777,-2.6142688,1.3596371,1.8870023,1.4507678,0.7457062,1.4521314,1.5444449,-3.6385388,0.80595505,-1.7286123,1.0133201,-0.6783638,-0.32478216,-0.0032270795,3.115595,-1.276351,1.1285285,0.5065616,2.5311635,1.4953794,0.26204935,-0.23054379,-0.86626107,-0.15326655,-0.6773485,-0.3667329,-1.3624642,-0.30074847,1.8827904
<■1■RkbArJwbIFQdUCFtKemtxXdSqMRehDEE>,0.82153374,-1.3272235,-2.4765983,0.23024514,1.7612668,-0.75801027,1.2659804,2.763215,-2.457354,0.17825082,-0.18937537,1.0282432,-0.78948814,1.2218125,-2.3875606,0.38791743,0.36378166,2.8138096,-1.522369,1.0463433,-0.32991573,-2.0689025,-1.5878142,0.25157595,-0.67043465,-0.2786479,-0.85789335,-1.4134663,1.6217269,0.5802323,0.19707693,2.4214535
<■0■GueJSHfZEbehLBQSyqFhBJxlckeBgqZW>,-1.0361196,2.3522644,-2.0843122,0.66277605,-2.3104959,-1.3373946,0.8188454,0.57168055,-0.8953928,0.5447583,-0.37494108,-0.01902505,1.409782,1.1735532,1.8738416,0.9050076,1.5833015,1.4061311,-0.7414803,2.0348375,2.8834834,-0.45605737,-0.4826845,-0.10336013,-0.5663464,1.2640256,0.9003417,-0.6580969,-1.251089,1.4443866,-0.16865271,1.5703222
<■1■FZgkYjrtIlTOGmQuecluYpegVgCatRuL>,-1.4601722,0.49704933,-0.8361787,-1.4036261,-1.8965636,1.3336997,2.0603476,-1.063747,0.764064,0.10211104,-1.8302029,0.36957455,-0.007952446,-0.7706486,-1.5217553,2.0819693,0.920364,-0.5065624,-2.5868924,0.642577,0.5027017,1.8408862,-0.26235914,1.7429452,-0.23748446,0.12836634,2.1563094,1.242124,1.4033735,1.2913084,-0.41708553,0.64728194
<■0■NWFwTqfWSnYojLASMngUwRtDjwZbosbP>,1.3489244,0.4899997,-1.6768149,-1.0985737,2.1033037,0.05108472,0.16243581,0.36245486,-0.8855639,-0.6149157,-0.9901824,-1.07567,1.5804845,-1.0022693,2.7993314,1.3489463,-0.5717943,3.2171812,-1.0849383,0.42693347,0.41313732,-0.7454286,-1.7129345,1.6340225,0.917908,0.97492903,-0.92882925,1.6903133,-2.170934,-1.7055969,-0.10914668,-0.5112626
<■1■jzNfkpMxFCnlsfhbryLvhPRDoHkJaNvF>,-1.2930194,1.9776243,-4.5878944,-1.9675002,-0.1272212,6.507267,3.7689376,1.9340899,0.5075949,0.55235267,-1.1021099,2.0050504,-0.07329597,1.508716,-0.6107735,4.4139414,0.053162113,3.2663794,-2.1188564,4.208095,3.4738975,-2.8702939,-2.9989023,1.4382612,3.236962,3.0474937,0.11055795,-1.2736727,-3.6666791,2.0102766,-2.0501857,0.06064074
<■0■aHnyIUvXgNIFDDzUEYdndobAjILTSujv>,-0.48127186,-0.6984946,-2.10574,1.4480388,3.0186152,1.3031151,-0.6823611,1.4770229,-0.3261458,-0.39804304,-0.024343036,0.12135774,0.60385233,0.56090045,-2.0920162,1.0501703,-0.16755274,0.33702648,-1.4735354,2.1598854,1.6114097,0.36532804,-0.27663922,4.287012,-0.56510156,-0.21493839,-0.9006695,0.61575025,-1.7570486,-0.7637507,0.4928556,0.2613721
<■0■SdhljmlwhWDpSriyOAorHuEhTDkDZnMs>,-3.6800208,-0.7679568,-0.33264723,-1.4768567,0.82809794,0.9025509,0.3537672,0.30098057,-0.72150236,3.3101687,-1.8452127,0.8288277,0.34608257,-0.55676967,0.4287703,0.47695148,0.23382229,1.1830367,-0.8884521,-0.22967371,1.4639702,-2.5021732,-1.0575407,-0.689347,-2.9427955,0.38325492,0.2876003,1.1487317,-2.91901,1.439846,-0.3963637,-1.107872
<■0■xSyzyhiQNvzuFTBYkoyjMalGzFuZUPps>,-2.1306822,0.3479047,-1.1084938,-0.25887766,-0.8068302,0.5978012,0.05569571,0.4993917,-1.2600048,0.30389476,0.62472916,-1.2411522,2.747041,0.8482977,0.102279864,-0.9629325,-1.3208821,0.60542667,-0.122424036,1.6640732,2.636963,-0.13021661,1.1740419,3.4026809,2.1034038,0.21869129,-0.9005004,0.3687858,-4.0268283,-1.2207887,-1.0621034,1.3540623
<■1■NAeZtgFkdwurtCBItXTUHAmOTCCVXhbZ>,-1.3963531,2.2516668,-0.5070372,-0.30809405,0.1957777,0.70923185,1.3201002,-1.1548103,-1.5011106,-2.5401447,0.55457604,1.6948624,1.5734457,1.1903052,0.3042734,0.42935216,1.0413264,-0.5893981,-1.955349,1.851233,2.42386,0.32754353,-0.5403183,0.17348361,1.2725877,0.032891337,1.4636499,-1.7979271,-2.6598246,0.4898938,0.0551957,-1.0900342
<■0■mJojsvAlaCRViMUNAVxTmBCmQFjXJnKJ>,0.6760503,0.927605,0.38101968,0.28294006,-1.025967,1.4317533,0.18364727,-0.43113312,1.9425569,-0.88830036,-2.4587245,1.5367006,-1.2623115,-0.52617234,-0.57018614,1.3735113,-0.49526632,0.742997,2.741225,0.6689523,3.042292,-2.6425633,1.5828242,1.023081,0.8124261,-1.6969035,-1.4872085,1.1844779,-1.048077,-0.6131459,-1.9893737,1.5103503
<■1■tpVPlAAzzutBYZrgEOjIzGvRHfTNNtmA>,-0.800152,-0.13157809,-3.2206275,1.4843701,1.6609457,-1.1371017,-1.9942273,-0.020755282,0.23440422,1.4719943,-0.5695235,-0.72174454,-2.6546032,1.5619618,-0.47815734,1.0807312,-1.7354648,0.8926684,-1.5935943,0.102847226,2.468177,-2.871235,-2.0896254,-0.6537194,0.90408087,2.1624107,2.4533587,-0.85217416,-1.0647371,1.030112,0.3474211,0.19713026
<■1■FuCznlwQrllUrltTIeTiGWXufKUqtfIh>,-2.030038,0.79532397,1.0054835,1.2466164,-0.8976714,1.4892207,-0.27405497,1.0874966,-0.030303463,0.016019015,0.0021141267,3.4107785,-2.1181886,1.0367912,-1.5752559,1.4300888,0.20748203,2.0402632,-1.700927,1.6746284,1.1942054,0.22301914,-0.6687626,-0.88221043,-0.026841018,1.2455704,1.5549352,-1.8481752,-2.1812828,1.9482325,-0.34400487,-2.0044887
<■0■SRxlRyWhxiXFglpaCHhCqZvfVmMNzPFJ>,-1.3455046,0.076812446,-3.3097074,-1.2185924,0.717695,-0.30185455,2.6708627,-0.5635477,-1.3655808,0.69019943,0.2296788,1.196766,1.939938,-1.3012506,-1.0344647,0.607936,-1.4697261,-0.6762791,0.25963074,1.6984683,1.1716588,-1.4737272,-2.4377704,-1.670051,0.8550261,0.7836562,-0.35610104,-0.309182,0.9124758,-1.4101926,-0.9197761,-2.5533621
<■1■xzwtQyltfcjGUlTQDIuFSzzyrpUdmqCz>,-0.6030742,-0.21843462,1.5957563,-2.4276335,1.3415704,0.7553219,0.97304523,0.05982792,1.1047919,-0.19372496,-1.6642532,3.245197,-1.9816025,-0.40522662,1.8283974,0.87454844,0.8535698,2.0534885,-0.11355788,3.3639414,-0.40551952,1.2241226,-0.6679542,1.983465,-0.11172916,-0.28617805,-0.42412403,1.1701255,-0.9284698,1.8948586,1.0968535,-0.4118044
<■0■ZvLUfJrhEIVWPPDwXvVnQLnbZctXQawQ>,-0.5713777,0.17972498,-1.4105713,0.88256764,-0.009177115,0.43077266,1.0068125,2.4033582,0.5931182,-0.19293995,1.6106942,2.0315893,-0.88691694,-2.229925,-0.5432239,0.4502276,-0.6494563,-2.4070363,-0.08116449,2.418505,3.5007157,-0.0917415,0.22317666,1.6181632,0.6979377,1.8513482,-0.1240754,0.5718706,-2.4277358,-0.58461916,-0.039437626,1.2143914
<■0■JsHvsxYNVEZuGGrGwrZKuWSAIsYqumPh>,-1.1174762,0.8609744,-0.37629834,0.605065,2.6338298,0.44514182,2.0342872,-0.26499066,-1.0907482,-1.044351,0.11388599,0.4857904,-1.7116239,0.79881024,-2.0549264,1.2107232,0.5927898,1.4556257,-1.7310265,3.0079162,1.0918661,-0.70540494,0.33673054,-0.5758749,0.6417129,-2.1666324,0.82638663,-1.7625761,-0.46943223,1.3799086,1.2057605,-1.8712265
<■1■guHDgAtZmTriFcoQswcBKAoLQkSLzkoz>,-0.6537386,-0.38774243,0.82352984,-1.6685009,0.90832794,2.9724805,-0.88903123,3.546485,2.716589,-1.6528565,2.585764,0.22841977,0.32869774,0.6184134,-1.0664045,0.8356841,1.1528559,-0.40579635,1.0489366,1.2666019,1.4891363,0.47012535,-0.5104865,-0.64287966,0.8650392,-0.85867274,-0.09293165,-1.5965904,-2.5894578,-0.7482162,1.4748231,0.66098404
<■1■xeiuKRiZbugCJPyyAFCMdRRAFIvJXQPq>,-0.9458051,1.2924666,-3.801655,-1.8213862,2.4127479,7.204085,3.261093,2.6622846,-0.2711384,-0.4470095,-0.62841,2.3831651,-0.5960385,-0.3505369,-0.57653296,4.504963,0.016820742,4.0828505,-2.9811249,4.5774827,3.266088,-1.9845608,-1.1935523,3.1585605,2.5183423,1.7253442,1.5708811,-0.4712268,-2.193019,-1.0860604,0.27369392,1.757332
<■1■HuYixoMJZxcdcxGPkSSCdpFxcfkxwVKD>,-2.8327405,2.5291474,-4.0878305,-2.175351,0.6557426,6.980288,1.0217,1.5536188,0.58988005,0.1070869,0.12125734,2.3990004,1.2389002,2.2141743,-0.20093922,3.033948,0.80466586,2.9687572,-2.6977057,6.045084,4.7446594,-2.4024475,-2.7646325,3.1670372,1.5795379,1.6003597,1.12136,0.4501269,-2.1347973,-0.67465544,0.92228574,2.050023
<■0■RCvyzVJwjQibuaDmOOqBuJwaIPewHXxe>,0.050311916,0.9769908,-3.5676947,-0.3411259,0.9867017,1.28366,-0.039480016,0.15700872,1.223361,-1.143193,0.3789601,-1.344965,1.65104,-0.09351366,0.5673349,2.5785992,-1.2194717,0.27820334,0.28278813,-1.09172,1.444759,0.39790145,-0.098381095,1.7757462,0.8379031,1.214314,0.9823738,1.2635612,-2.641376,1.4468293,-1.0134972,1.0910358
<■0■gcCUxymEYOxFjOIfCbgrTdgsRBeeSSHR>,-0.38002893,2.1737573,-2.7657576,-0.1473279,3.5405214,0.8945824,0.53780323,3.231426,2.8593106,-0.86497563,0.2505519,1.5285472,1.2660955,0.9980483,0.13095345,0.4784481,0.7170419,2.2663476,-0.5556558,0.9968509,0.9771899,-1.2807335,0.90976053,-1.3863432,1.093349,0.56060505,-0.29167143,-0.70448095,-0.68170387,0.55042475,-1.457771,0.18545856
<■0■PTdoLJQBoKjwDxmjxPzgwXxGmQJNzeyz>,1.1218972,3.0243037,0.12705564,1.3344758,1.5930003,2.503955,-0.38342586,-0.6479923,0.8141249,1.2311709,-1.9890878,3.537925,0.0877602,-0.42544466,-1.0830172,0.12258991,-0.4077902,-0.55761397,-0.7369273,4.5119276,-0.23120812,-0.47004762,-0.21881075,1.844744,-0.5239957,-0.74930465,0.43598264,0.32012182,-0.63261837,-0.3081283,0.86971927,-1.4596931
<■0■bSWenVKdeQtBZYocTxFodyapgnijKPQT>,-1.2214694,-1.5092996,-0.23203707,0.37902126,0.0983775,0.05655141,0.81096244,0.1890525,1.2575423,-0.19425125,2.0723705,0.42882836,-1.134239,-0.6469975,-2.0238032,2.865583,-1.3869848,1.2181098,-2.5290582,2.317539,0.5788243,1.1604962,-0.36065906,-0.6293557,2.7551005,0.14390105,0.6806275,-1.5352396,0.56994677,-1.4932374,-0.7803986,-0.5307058
<■1■WxhQJbhGYzDCCbExypeDcTcmvzuMetFs>,-1.5887861,3.702508,-6.321892,-3.6965945,0.7964143,9.953439,5.894332,3.1750286,1.4703479,-0.46386278,-2.539365,4.367715,-2.221948,1.3186966,-2.9913592,7.4390435,1.3364689,6.499256,-3.7478776,8.654362,7.1222906,-5.997505,-3.6727822,3.7795773,4.191947,3.7335367,2.3104696,1.159703,-5.9388466,-0.16844961,0.80363226,1.7029804
<■1■KPIstRdEVhKgOMneqlAhxGKGcxlHvykm>,-3.273909,2.6824975,-6.292764,-3.378173,1.8921918,10.212877,4.5529065,1.9445391,0.09818424,-0.18251452,-1.188725,2.6476045,-1.8151832,1.4765639,-1.6758896,6.4251895,0.20189153,5.8301888,-4.496619,9.616383,6.28987,-5.9269342,-3.9470623,3.4111876,4.6051097,3.2381957,3.0366256,0.73116934,-5.784827,-1.3521985,-0.6777899,3.5457811
<■0■LMgPwbpPvMeRioQEMZbGNOZVCxdascuB>,1.2666495,2.622579,-0.3958255,-0.31521165,0.16042647,1.0594717,1.8552318,-0.41245887,0.13202637,1.2927425,-0.10854467,-1.7281351,2.0259519,-0.048927147,0.7225409,0.19569263,0.13028239,2.0869763,-0.22437261,1.2117815,0.5599587,-0.7592663,0.40357846,0.38530245,1.7588378,-0.2960082,-0.12863816,2.1913419,-1.2258035,-0.7438333,1.1270736,-1.6038772
<■1■bYTSfPVVWnEkVSPArVCJysJLFqqbcTgf>,0.61755097,1.270244,-1.8766391,-1.5457724,-0.10561897,1.0172051,0.025649587,1.2384485,-0.35571474,-2.3567245,0.3622998,2.1246967,-0.12406403,-0.021520857,-2.5671916,2.0767994,1.7057303,-1.60291,-0.9091233,3.1635222,-1.9543808,-0.7386779,-1.0607321,-0.42103752,0.38951468,0.8525854,-0.52857566,0.7066347,0.11333052,1.4243754,-1.4427882,1.1745945
<■1■TJeihsfxYingNNxUAFFfMcbiAvlBJMiZ>,-0.036663443,2.243025,-1.1803902,0.19961111,2.311557,1.9628731,1.1882515,2.0301723,2.0683317,0.92184716,0.1602473,3.0625873,-0.48664165,0.91185284,1.0178785,2.089788,-1.0286095,0.51422846,0.4932954,0.69208527,-0.7724176,0.8815524,0.8090347,0.7601818,1.3662434,2.3179827,0.8460397,-2.4500718,-1.0491167,-0.24116632,-0.89389807,-0.8628777
<■0■bFYdNVBJLtZjOsLqRdfCdDcYrKTgKpvc>,-1.2664453,-0.6184554,-0.13920225,-1.105362,1.756703,1.5467329,-2.0195756,0.56969976,-1.1110635,1.3071741,0.41083878,-0.7808486,0.52491,1.1111438,-0.18116166,1.5956221,1.485902,0.39618206,0.05509143,3.771868,-0.29762545,0.3131549,-1.4776912,0.9368812,-1.0909773,0.88295037,-0.14783895,-0.29583177,-0.26480928,-1.0817509,1.3090146,3.133647
<■0■BVXBCqzpWAZbHiOVhisovLgaCKKquLfS>,0.8879215,-0.4090046,1.8918959,0.6851479,0.9847316,3.4449544,1.328481,0.82249814,-0.4555185,-0.3667927,-0.069538586,1.1439445,-1.4325527,-0.71907234,-2.8773074,2.1797276,-0.8817721,-1.3707407,-0.77769464,1.542752,-0.97801256,-2.095922,0.36011583,0.14877506,-0.0094199795,1.0382392,-1.0932794,-1.7640576,-0.87891585,0.82946455,2.10362,-0.8486971
<■0■LDFDgVQVxCbIetAXfOvZVKlyDsEowCeV>,-2.7836685,2.632365,-3.3860104,-2.6509285,2.2026622,4.4348183,2.2686775,1.6310499,2.2718544,-1.4620444,-2.4450886,2.1788652,-0.6685848,1.3649869,-2.0884175,2.6573293,0.045695227,4.464334,-4.2238655,6.165117,3.971025,-3.359927,-1.2582592,2.012623,1.8105524,1.1069928,1.1478941,-1.0472041,-2.6938903,-2.06588,-0.19666505,-0.47669515
<■1■YTGyfnxdPDjidHigbQbedLzsdTUjMjKU>,-0.12326885,0.71754783,-2.3729212,-0.76508075,-1.7564315,1.3376749,2.4976845,0.50739306,-1.559721,0.15881965,-3.0949605,1.6866403,1.3901769,-0.46780226,0.4502486,0.23547068,-1.364801,0.025916982,-2.423273,-0.6777103,0.03704837,0.417723,-1.2620296,0.9614324,1.5894711,1.4868585,-2.810222,0.48372388,-0.73077184,-0.86033607,-1.5387797,-0.78357375
<■1■yXiGpndYAlElsUPIlqLZzJVQeDNaqotU>,1.0908506,1.0513557,-2.3153617,1.6994699,-0.07286852,2.0678546,2.5706763,1.2714854,0.5045625,-1.4493439,-1.4640578,0.8778464,-1.0095712,1.7759867,0.9218299,1.8863069,0.75584227,1.0348846,-0.7181762,-0.36082786,-0.69697624,-0.6420089,-2.7507167,0.17911835,0.43310213,2.2044039,-0.32062492,1.045632,-0.49564865,0.93317425,0.0069020516,1.0869614
<■0■zJJzkeNBHCUbTIcfsttkUNFSYEYMairU>,1.3733835,2.4374807,-1.6953028,-0.928384,0.0045601083,2.435335,0.011852418,0.8833446,-1.7347348,-0.7244144,0.28739226,0.29033706,-0.6558209,-0.77006185,-1.3217318,-0.47437906,1.2171803,0.4947977,-2.533549,2.221143,1.6538614,-1.0397806,-0.44301072,-0.2253666,0.52534086,-2.0956168,-2.5407543,1.233941,-0.65656894,-0.6633016,0.8212247,0.057024352
<■1■nBbhWkMiptWLzdamEewqUoAentQaEiGi>,-1.6115181,1.1029279,-1.382644,0.14177887,-1.2955863,0.5540199,0.8536916,-1.1279733,-1.91543,-0.12142427,-0.093570516,-0.22737952,-1.4163126,2.251015,-1.5818913,0.32188,0.73810947,1.6708944,0.89865416,2.3182027,-0.019231113,-0.43962598,-2.750404,1.0913361,0.8521082,2.7877262,-0.30764595,-0.02526553,0.095540866,-1.0622299,-0.570157,0.54311925
<■0■poFiXOOClxOhtWmIgVtPlAaWTsxOvaDN>,1.7865871,1.0263481,-0.59641594,0.017065536,2.6779082,4.081294,2.5888069,0.019589359,-2.579064,0.73917395,-0.48562187,1.3087976,3.147329,-0.25897294,0.97005284,2.1210787,0.63538027,-0.53774834,-0.44377887,2.6142104,-2.8060858,0.2760106,0.56883675,2.0382016,1.1859112,-0.20266843,1.2777954,1.2636632,0.8985625,1.2131792,1.0606207,0.046167575
<■0■EXzxRAyXRGgGgzaUTkcieVheYsxfOncP>,-0.015306825,0.868516,-2.5085523,1.3866694,-0.96561646,1.5361737,3.8149195,-1.1648692,0.5087456,-0.31213245,1.6572444,-0.35498035,-1.0418961,1.8911778,0.23925972,0.67759186,-1.1266603,0.3716871,-0.11504247,1.6629138,0.14043619,-2.1508107,1.7934803,0.25860813,0.19053726,0.4995729,-0.8545072,-0.2852976,-1.143395,-1.6319879,0.554467,0.7859338
<■1■ESliKFWaTdQfuMFHLbjbaPvUnMumECRW>,-1.164474,1.9452101,-4.4584026,-3.0636106,0.89172727,6.755009,4.0059757,2.516923,1.1989044,1.6100607,-3.4864163,2.984039,-2.1735768,1.6567855,-1.8410499,4.0002227,-0.21325694,4.6062603,-1.9257189,3.1982532,2.359006,-1.3434227,-0.75179654,3.0576322,3.4144723,2.7096992,0.82762563,-1.1069876,-3.8499134,-0.45958143,0.5532874,0.26119155
<■1■WYbrdMYBmxWMeDkdnGGuZTHGtcrfFKrB>,-1.7398041,-0.19593826,0.04495729,-1.654965,-0.5808252,0.72141826,1.8496155,0.9536973,1.3722255,-0.4740602,-0.8018646,1.3736888,-2.6049733,-0.28743488,-1.1965314,0.88919395,1.8067102,0.75850695,-2.1127996,2.302194,-2.1617103,0.55998236,-0.9663602,0.9776494,2.727796,1.3191555,-0.30174807,0.15981753,-1.4634001,0.5118278,0.0025672764,0.0349229
<■1■eGlyyNkzyCgZnGFBAUEPWCfQiFJSHDdz>,0.7556833,1.518341,-1.3249575,1.1812003,1.0174994,2.3889713,-0.0022424713,1.8035344,-0.7525445,-2.6309357,-0.7140083,-0.5429237,0.16722411,0.8512299,0.49929726,1.2598712,-1.0091745,1.095814,0.71201926,3.160037,0.7305932,-1.2642831,0.8564803,-2.0201228,0.8907156,2.4710789,-1.2267641,0.28127128,1.5900236,1.7890633,0.07842975,2.121526
<■1■GWPRfFwFIPhKrSAoaCuQbVVXewxXzwpR>,-1.038537,-0.33263797,-1.8427927,1.845921,-0.9989208,-0.039476942,1.101874,-2.0537164,-1.8209913,1.4249206,-2.2302718,-0.8465882,-0.003363046,-1.029713,0.38690758,0.24823101,0.12867266,1.8272159,-1.2054539,0.531439,1.1696897,-0.43834877,-0.5834791,0.45305932,2.6735094,0.35298583,0.52952945,-0.22223972,-0.6678687,-1.4517369,-0.75892097,1.9916841
<■0■JreCEIVrDCcxQSRBdCIAYiipLBCmRSFj>,-0.28446162,1.3807013,-2.6596832,-0.7197482,-1.3979946,0.6169841,-0.003993989,-1.0670848,-0.5846329,1.1195791,-0.37499717,0.6222882,1.6770775,-0.89169043,1.2791481,-0.606641,-0.86051935,0.8437669,-0.7194836,1.7104306,1.5557826,0.59522474,1.9432214,-0.509568,1.7919692,0.45573705,-0.45188987,-0.7936235,-1.183082,0.5680671,-0.857711,-0.6854494
<■0■CmQfyBCDfcvJfQJgdEWfKBfrOhZKxDBy>,-0.44855842,-1.3609807,0.44125023,2.4856808,0.26940852,1.9665208,-0.16031161,-1.7405969,2.470821,0.019795923,-1.1949846,1.3475882,-1.6495532,-0.2289017,-1.0451992,0.94186085,-0.66054726,-0.051267046,-2.072657,1.5940297,0.42565784,0.18305685,-0.011146105,0.72005105,0.94012445,-0.83455145,0.67310643,-0.41152936,-0.39750126,1.2964523,4.1989226,1.4467826
<■0■vxFviceHZhQCHGHQAAAIgsXhHuvArWDf>,-2.8922896,3.7849922,-4.0856977,-3.6205766,1.3160967,10.361434,5.0135546,1.7315023,2.712681,2.343626,-2.594471,3.2191854,-2.744453,1.2035387,-3.071941,5.018348,-1.2048944,7.1785474,-4.0305805,7.914282,6.3028483,-5.469003,-4.0962477,3.4210722,6.2687187,4.0825963,2.7831054,-0.22369668,-4.2620792,-0.6558296,1.1640556,3.421617
<■1■XsfHhOSlqLUkXgOAvcHvdvgyLoeALfpU>,-2.5882862,3.3629959,-5.44334,-5.1390734,0.62022763,10.196596,6.101968,4.5562572,0.049136728,0.9378896,-2.3277142,2.5100193,-1.1219112,2.2731514,-3.227835,6.0170813,-0.76818013,6.5325513,-4.9434476,10.090885,5.910346,-4.49125,-2.8305829,3.0757298,5.5118175,5.202165,1.8519439,2.2806869,-5.59035,0.06788518,-1.4843016,2.2425292
<■0■nzJNODPulomwYsIdmYrLzJoQsXsbSaYh>,-0.22881535,-0.37083933,-0.90224224,-0.56897485,0.8291372,3.3339634,-0.7481751,1.4852608,-1.014455,0.08866546,-0.90449107,2.52737,-0.46553707,-0.16805047,-1.2324967,0.50507176,-0.5183147,0.8616341,-0.84862363,-0.5099346,3.6081848,-0.0039802263,-0.93842,-1.1380367,2.0108156,-0.124445006,-2.4537618,1.2386656,-0.14034346,-0.19410042,1.1384636,-2.6341827
<■1■AKYaIPlnNaHjAXwwgeremAVdVsyTXfvm>,-3.592781,1.3725322,0.70739233,-3.083207,-1.1673163,-0.316066,1.9240482,-1.3022145,0.54539764,0.11236474,0.08465547,-0.10115084,0.3720601,1.4872606e-05,0.91642934,2.0579667,1.2455771,0.91892326,0.97757494,0.8920629,-0.19637716,-2.2770622,-0.45706472,-0.41805422,1.735427,0.3440191,1.0611088,-0.5037362,0.10546105,-1.0698214,-0.14245927,0.36972794
<■0■CUjjmLaIRgfreMVqpPeZBcRPuJAzJeJC>,-1.4904059,3.042735,-2.463339,-1.1667877,0.7997666,7.426643,2.1915803,1.8946466,0.4132867,0.29244074,-1.3307862,2.9859564,0.48744568,1.0235895,-1.6044437,3.3057127,-1.6080457,4.680628,-1.146953,4.8329573,2.8975546,-3.5941103,-1.391695,1.4294046,1.7397112,1.5228323,1.6408774,0.4086479,-4.4695377,0.2933564,0.7863624,-0.6761195
<■1■OQAyhUfojCmXgHptEqRgFNzDjSJGGwxh>,-2.8538587,5.6071672,-9.358831,-5.4066424,2.2238708,14.965264,8.883982,4.363093,2.350429,0.9008994,-3.3305008,3.693814,-1.8410252,3.7799184,-2.1504214,8.912684,-0.90140563,9.636048,-6.2145867,13.389869,7.935718,-7.540525,-4.716192,4.4072266,6.422966,5.9391227,3.1358678,1.6597289,-6.558838,-1.3523297,-0.7593793,5.0699034
<■1■bhLUBuIRlVKapMAfzOAqqUpRHEJhQmJs>,0.30135053,1.1690619,-3.8977754,0.78775334,1.4335579,0.33406788,0.5962431,0.752424,0.6307397,0.40255776,-1.3926466,0.47130498,0.052220415,0.07875134,3.8631473,-0.5912527,-0.37336513,-0.20378053,-0.739412,1.7904204,0.9280736,-1.5291932,-2.5242028,-0.09625182,1.8480986,-0.005223039,-0.03946359,0.682432,-0.056262035,0.8885913,-0.06767624,-0.5257447
<■0■AiegjUePKgOXXAUidbyFlwyCILHPtaoo>,0.0964794,3.177789,-4.854492,-2.783365,2.0354657,10.162758,5.9027047,4.0328135,2.5098944,0.37363854,-2.4981494,2.5513973,-1.4436427,2.1911495,-0.99525744,7.630516,-1.1412127,5.464656,-5.765324,8.117617,5.0562086,-5.706481,-2.9101024,3.6527393,6.1552095,2.4389274,3.592088,1.0673469,-5.477515,-1.1422137,0.8768705,2.3883913
<■0■IWdMZDIlnLJHGOlwLNcEkrXobMWDLqwc>,-1.3555734,1.035915,1.3046274,0.490783,-0.4008579,3.9575758,2.029966,-0.73017514,-0.34617454,-1.3080436,-1.2037913,2.1874993,0.8242165,-1.6256031,-1.8272204,-0.45486405,-0.9744619,2.1013477,0.0061821984,-0.31328842,0.25291398,-0.0010218445,-2.6863918,0.32228935,-1.4343712,0.64251286,0.8674543,-0.5408539,-1.6608212,-0.57978404,-1.6767951,-2.4073653
<■0■BsSKPDWmVrSCUzhksKQpgXVaECIbQEfe>,-0.013753344,1.4750465,-0.22259459,-2.442389,-1.678584,2.504305,1.4232215,2.0286634,-1.9204576,-1.4509057,0.9814072,-2.0012977,1.2290723,2.4441996,-1.1182705,-0.72133344,-0.2891039,-0.18229166,-0.057314575,0.46437725,2.493078,-2.5062425,-2.2598364,-0.5941631,-0.47329012,0.6684468,0.13841783,0.57717127,-1.5894527,0.22206424,-0.7406268,1.2559706
<■0■DvpOWEEmMCXhHntjjtcjqWHtyKQuSJTv>,-0.84770465,-0.67892915,-0.8949565,-1.1383021,-0.7061249,1.6979216,0.36755183,-0.909707,2.110727,0.9754792,0.5226312,-1.3803991,1.2647675,1.7343705,1.44186,0.981,-0.035584457,1.2537054,-2.065722,2.0570009,0.29957902,-0.5975743,-1.2465761,-0.63101286,0.23142605,2.06597,-2.5124087,1.7522211,-0.5959228,1.6965808,0.26477614,0.6736428
<■1■CnuakUVRZzrtYNrqfKQieHMHyuRJAnkQ>,0.5244401,0.40537697,1.2935846,-1.0727829,-1.0916178,0.1759886,1.6776028,0.15106478,0.5758683,1.3077772,2.087453,2.5203803,0.5953405,1.3645592,-0.9732263,0.89931476,-0.9628332,1.1587614,-0.056069985,-0.8652859,2.0939105,-2.704755,-1.1436201,0.18909162,0.0015614429,0.92321134,-0.38135082,0.46545795,-0.41268337,-2.0586274,-1.6616436,2.346069
<■1■nWzGdpcTSkrqJjghMJHRZNGUzDwjspNs>,1.6599569,-2.255432,0.9380064,-1.3818761,1.5248286,2.083748,-0.55144656,0.88937557,-1.2424123,0.29216275,0.7509643,0.85401654,1.9902891,-2.1204972,-1.2716099,2.3739488,0.71112406,1.6554301,-0.24739434,0.8919134,2.6444747,-0.25400203,-0.08094897,-0.5837881,0.42701226,1.1735356,0.87393606,1.4998786,-1.0796825,-0.36533353,-2.7973516,0.4839622
<■1■ZdvxGGsRJZgICfYfDrhkpDooEunMNMsz>,0.8149011,-2.653499,-0.92670393,-1.4661775,-0.3954226,0.5471129,0.34326452,1.915161,-0.7663085,1.7030877,1.0304978,-1.5229192,1.4605762,0.95319796,-0.3019598,1.4922324,2.9701877,1.4782937,-2.8500981,4.2787385,-0.3802097,-1.2008165,-0.019596446,0.69668686,2.9482107,0.05580401,1.0802959,-0.45370027,-0.3100713,0.99441636,0.28431267,2.49331
<■1■wkNbJHDhtbNSedpKiyNgIkmCDhFmEMHZ>,-1.6076472,1.3909882,-2.8193138,0.20711745,0.20430349,0.82287824,0.09066354,2.275564,1.3385096,-0.05768018,1.1071398,-1.8388637,-1.9736056,1.0100106,-3.0570045,0.44746935,-1.149105,0.38474917,0.62637293,0.030428918,1.8589122,-1.3453679,-2.6665826,-0.28519022,-0.4405688,3.0347593,2.9495983,-0.21712948,-1.8699185,-0.24618821,3.725478,-1.858442
<■1■sKNjaNzgyxTLBftcuUQCtSBuipZSQggG>,-0.83013195,0.010303859,-1.5977832,-1.7095902,0.070138246,3.783799,0.20237248,0.96728516,-0.50546515,0.46814704,0.10677319,-0.3910039,0.7190049,-1.4802418,-0.1938287,0.35039967,0.47906443,1.6842613,-1.4730104,-1.0748159,0.13126858,0.3106728,0.9770813,2.0950034,2.3133218,1.4281298,-1.7921637,-0.44369486,-0.21047993,-0.8573533,0.55408984,-1.4209403
<■0■xXinGYAKshhfMVBLbOJwuGCXPnSxPTmG>,-0.2830127,-0.74285537,-2.9351494,-0.49819437,-1.0200421,2.1616898,0.70619714,1.0267261,-2.0658255,-0.40309596,1.4578565,0.645911,0.42572856,0.44153506,0.29036602,2.199394,-2.365537,0.87467253,-0.38188916,1.3853806,1.3438437,1.7754385,-0.80693686,-1.0674523,-0.43961635,-1.8271852,0.22312374,1.2133198,-1.0394624,-0.7037203,-1.2717137,-2.6738424
<■1■UtnAaKDHsveKzrxogngJdmnUDiovDeHt>,0.7932709,1.7503183,-1.4870065,0.30738077,0.7037766,0.041975122,-0.8094241,-0.04362898,-0.3355275,-0.15542041,-2.9523225,0.6421648,1.100661,-2.8745258,1.708324,1.1168414,1.0431626,0.6279922,-0.67274916,3.3770514,1.3010875,-2.8000574,-1.4855112,1.2181656,-0.17163292,-0.13752368,-0.5009943,1.3902177,-1.6096509,0.5437852,-0.10850106,0.5318651
<■1■YTAEUaanedjrQNCMocLjNPFYOiYnjbgw>,0.040873304,-1.277412,-0.012918102,-2.4404848,-1.5277152,2.967165,1.4921701,0.4625239,-0.27554402,0.04717431,-1.1484059,-0.52433366,0.8377074,-0.5638406,-1.2033912,1.1146636,-2.3464692,0.9904688,-1.2133418,1.1148884,-0.08090425,-2.5378861,-0.56485885,0.8045732,0.20861529,-2.226896,-1.0036364,-0.4321814,-1.4237809,-1.6157734,-0.40800625,0.4437021
<■1■DDwjUORbBMJyAmJzWWBqMXkQjwNRofKQ>,-1.827834,-0.25014275,-1.5475768,-0.3154173,1.1172469,0.5035625,0.7880614,-0.5453136,0.19821307,0.7272295,-1.431582,0.30714253,1.9561708,-0.7901788,-0.6558764,2.6708477,-0.29341704,2.4614718,0.2652888,0.9794785,0.8421279,-0.21152975,0.13013463,0.35502192,-0.28946358,0.8958657,-1.0028698,-0.04660324,-4.1634603,-1.8470908,-2.1221123,1.6863283
<■0■sfpnMXWCdzNAeBufNClmvZQWzwHYXGsg>,-0.9241751,0.39965546,-4.362462,-3.2214577,0.0923144,4.5387597,3.1939297,1.2970114,1.2478787,2.867641,-1.1148396,1.3090898,-0.93351305,1.5468639,-4.567556,2.319241,-1.2351216,4.6238112,-2.9678211,4.1385446,2.4730785,-4.0943813,-2.9477737,1.5970011,1.6523584,0.5338875,1.1875241,-0.2534818,-4.0669246,-3.3316224,-2.7708333,1.3160741
<■0■cCFkmPxPLcHdnLvtHOglwoXvKGQvogym>,2.052421,0.0007718498,-1.9585066,-0.2238086,-0.19808365,0.8598155,3.2613964,0.04710146,0.24838151,2.3638196,0.85564965,0.46515703,-1.0170256,0.09670969,-1.3397715,1.7104282,-0.12091386,-0.48479643,-3.4088166,1.7434552,3.029214,-1.1381161,0.33909562,0.1891518,0.046521664,-2.272813,2.2001936,1.046196,0.6709936,1.1852478,-1.4142294,0.2938287
<■1■zINZdDuUMtnKWiYbFVUGLUzFBzUDUSdA>,-1.161176,-0.20363641,-3.8649082,-2.4529088,1.692659,4.805664,3.551976,2.2103765,1.0359335,0.27995536,-1.7745837,1.872998,-1.0799289,2.2267423,-1.3674076,3.0844898,0.46580666,5.5318437,-2.3573594,4.669774,2.7550027,-3.6130612,-4.22209,1.7729114,4.9032483,2.028225,1.0396727,0.6947814,-3.066333,-1.5463755,-0.2679969,2.2544951
<■0■GMdDMrpdmNMrXnUeeHvrVhBnNGlzIJiw>,0.4387482,0.012279882,-0.6518248,1.1298987,0.39653614,0.36639148,1.6541888,1.3608007,0.5876934,2.207156,-1.5314815,0.9362687,-0.871634,-0.27454522,-3.1111195,3.0481968,-1.272809,1.2087151,0.7176974,2.6044362,1.391585,-0.1661854,-1.4992754,-1.0934833,1.4895471,-1.4766135,0.4340849,-1.8495284,0.352634,1.349318,-2.2421951,-0.6220658
<■0■DGDifkgEVjMSjTLqIMIUEetDQJcmwCuz>,-0.80430967,2.8879964,-3.6133604,-2.1583085,0.26081684,5.6030326,1.8637122,0.45400086,2.3984632,-0.5642157,-1.9537796,0.72362614,-2.2634814,0.33708018,-3.515485,4.6844454,0.59840316,4.4466953,-1.0323076,4.9848,2.4684875,-2.6243913,-3.1590896,3.8545623,3.515076,1.485008,1.4305168,-0.25728768,-1.4461044,-0.05092406,-0.21206033,1.0931624
<■1■meNpBIdLNTCBwEvXujqctHnoKcZyugJK>,-0.046261568,0.60812426,-3.1289372,-0.032667607,0.49917147,5.7728333,3.742874,0.9885766,-0.7917342,1.7508371,-1.6679156,0.027100481,-0.31918004,0.29633832,-1.0617355,4.0013433,-0.76534164,3.2937272,-2.7692735,5.557457,4.092375,-1.1206237,-1.4339595,4.3421574,2.071171,1.1028845,2.0201545,1.3902576,-3.882613,0.5547646,-0.679281,3.7537844
<■1■JgQZgVHXOPlPXuEVgOYMjTPgrWyaRUrD>,0.38735983,0.045652866,-3.1139884,-1.8779149,-1.5438197,-0.39018685,2.1220188,2.357989,-0.7476085,0.36255506,-1.834928,-0.41684693,1.1573824,1.529793,-1.0655215,0.09184958,-0.7750302,-0.656949,-0.24435352,3.1721487,1.8176502,-0.3095173,1.3698317,0.7086184,-0.61301154,-1.8922681,0.6066732,-0.41220167,-0.472568,0.7351391,-1.4324615,-0.029364109
<■1■ekyTLhkGDNfHKKsbWWVBUHbSXgeBdPTm>,-0.7884401,1.0205107,-3.663976,-1.9313321,0.06949205,7.329187,2.1555307,3.0415883,0.99635774,-0.33229566,-1.0278754,3.691017,-0.8745806,0.6727622,-0.63505626,4.0158176,-0.9896977,3.3117435,-2.983238,5.0165653,4.3538737,-2.3293102,-1.9311745,1.1133819,1.5804808,2.099772,1.2485595,2.0072987,-3.042653,0.4956677,-0.71401364,-0.77609503
<■1■JZVwuaycISxhjXCyLfwHgwQhxefRGbNo>,-1.704512,1.5222204,-2.917642,-2.943661,0.06181723,6.3149242,3.3450913,1.133597,-0.30335644,-1.7162558,-1.7318199,1.8951808,-0.87165755,-0.205191,-1.2008452,4.547463,-0.30437928,3.5391793,-3.2307668,5.25141,4.373514,-3.6748435,-2.7378778,0.86334914,2.1263518,2.4938695,0.4752349,-0.42463675,-4.132231,-1.9375551,-0.31052607,1.398803
<■0■wYOiLVawppFHvyuqKJltOFPrskSelRjP>,0.2957233,1.4755976,-1.9345882,-2.8148308,-0.77415144,0.58330077,0.09215533,-0.5519039,-0.31545597,-0.18167928,-1.1597757,1.6090379,0.14076574,-2.0479662,-0.24025823,0.65715724,-2.7267084,1.4704605,-0.8087719,1.0959839,-0.9816066,0.5052324,0.34254044,-1.6041095,1.5454221,-0.24402691,0.77030057,-0.35798725,-2.6562712,1.9144708,0.4926995,-1.1907599
<■1■fvPszPXGlYvlMlBDExIFzEICgXCqbAzG>,1.3550631,1.1096976,0.14568251,0.16130078,1.594043,0.6259454,-0.9518192,0.62881935,0.6922619,0.2519854,0.9385181,1.5800538,-0.6823172,2.206971,-0.90525734,1.851584,0.88912517,3.523232,-1.6482397,-0.05902429,2.0161028,1.6827018,-2.546948,0.01744768,-1.2399396,0.90533113,-1.046357,0.91711193,-0.39236873,-2.036295,0.9510543,2.377966
<■1■ObYLbbxSPQHJuQZvQWlFdWzsOIVmIhYA>,-0.2442945,0.034038357,-1.4396896,-0.24089006,0.31082976,0.28591785,0.65841824,1.2451653,0.59742755,1.6125847,-0.22857714,-1.2882478,-2.75922,-1.997806,-0.80253667,0.1210641,1.7040755,-0.7991913,-0.9056519,2.629311,1.8558112,-1.8998709,-0.26055014,-0.7066591,0.8611156,0.85829145,0.9937048,1.0757973,0.2532256,-0.22881882,1.2000865,1.6149764
<■1■lyRkytcOEudLgXUEPkkIrzGhDRwVPWRh>,-0.94513714,1.5850368,-0.58147854,-0.06850099,-0.64787644,3.2140696,1.4126369,0.21219324,-1.3373563,-1.7730756,-0.39764708,1.2188829,-0.8743873,0.3758653,-0.59143406,0.7468021,-0.51720756,0.1430672,-2.7451773,-0.78517616,-1.8172967,-1.5131932,0.8011586,1.7617005,0.98785746,-0.5456931,0.38465184,0.25219792,-2.1728165,1.3618863,-0.2696778,-0.06390369
<■0■pfMOxeNvxHhcaWabiTAbsmLKqsscHMqs>,-0.936308,1.068446,-0.36212137,1.5970334,-0.9258327,1.4130744,1.1956486,-0.69593745,1.1389343,2.4734395,-2.9412544,2.1124213,-1.1916963,1.6199088,-1.3942552,0.60756004,-0.890055,1.8705341,0.41188902,-0.31580645,0.5792608,-1.2610422,1.7495368,1.6899966,1.0403509,2.2180905,1.8477854,-1.1243187,-0.9355886,2.042888,0.64331114,-3.0609465
<■1■BxngfMnQdmSKjtKIUfTqoRyXWEGjxIry>,-0.1507018,0.98697865,0.31166652,-4.0322304,-0.03285231,2.4385478,-0.87810695,-0.8395762,-1.2627352,-0.40492326,0.064309955,-2.760635,1.4053994,-0.3669212,0.3464116,-1.3079176,-0.8595763,1.7995487,-2.4845362,-0.14494522,-0.88432115,-0.35069674,-0.56386364,1.8028573,0.34734845,-0.049964037,0.451466,-0.26318827,-3.6007485,-0.14868003,0.10416027,-0.21010225
<■0■kvqUaeOIeIcjEJjwGeJipSPVwCXANTiE>,-0.0038736179,-2.981426,1.5605589,-1.1327013,1.2233106,1.658537,-0.19373378,1.6680354,0.35132605,-0.19633025,0.54818493,1.2370018,0.5625259,1.9990289,-1.3878874,1.2664739,-0.50811374,2.1036897,-0.29360175,-0.4258083,1.7420931,-1.6241049,-0.05924095,1.869449,1.2381927,-0.5165577,0.37463823,-2.073726,-1.1557634,1.1783724,1.1246856,2.042479
<■0■KwcvhzCbDkjISZJTfaVEaRCFueKSadhM>,-2.0045652,2.988727,-2.1869886,-2.3394284,0.704457,6.214591,4.230683,1.8535953,-0.85021716,-0.119487315,-1.645729,1.5455023,-0.70560956,1.0304465,-1.4274942,3.47374,-0.3722742,4.132982,-2.900325,4.2782774,1.5115199,-2.5700364,-2.5667384,3.6759071,3.1537247,2.1668725,1.214273,-0.44506735,-4.605438,-0.059246153,0.214999,0.88033664
<■1■ccTyvzmVzgFeXIgWncSShAmxCzAMgmPa>,0.8110826,-0.05579122,-1.7766052,-0.27474293,0.45280713,3.2042232,2.8223433,0.17188929,0.46697077,2.2880075,-0.34148145,0.5294087,-0.44012788,0.68000436,-0.75723296,2.150869,0.38157183,0.15216145,0.4928279,-0.14248845,-2.370229,-0.83289313,-2.8529134,-1.260025,1.4303149,-1.4272096,1.7609186,-0.93366945,-0.8672531,0.9143277,1.4881507,-1.0693382
<■1■SrrcriBArwUvfbSitWEHldzGqapnDyfV>,-1.699771,1.2224557,0.28193295,-1.5477747,0.32024702,1.1529081,0.64094627,-1.3449149,2.0700862,-1.9520586,1.6233599,-0.0144822495,-1.3274294,0.84653556,-0.13860399,2.7671404,0.67268175,1.2941611,1.6006466,2.5226452,0.045695078,1.4618387,0.32184127,-0.14836334,0.3967659,0.77212095,-1.5379913,-0.6689747,-2.4800823,-1.3275706,-1.5850508,0.25313094
<■1■bGCbAJMWndkxVnKhHzLhWSdVSqxNMilb>,-1.480773,-0.6243392,-1.4902248,-0.8597097,0.1482227,1.5817978,2.2452195,-1.6068603,0.7707441,2.056088,-0.81086177,0.49413356,1.1057436,-1.0356345,1.7370026,0.7383739,1.3700432,1.2156141,0.069174446,1.882537,0.5518899,-1.5479909,0.24227422,-2.6380312,1.0455911,-0.028872773,0.29628646,1.0885422,-1.5225825,-0.26749122,-1.4885969,-0.57325137
<■0■mfEoitWgPSxqDbKPbvuczXMDPzaJBDWZ>,-1.6644089,1.4081917,-4.0567904,-2.9027867,1.8649364,5.323167,6.392216,2.0316942,1.2683333,1.2635423,-1.5280188,0.65606433,-0.3351716,3.3332896,-1.8984382,2.1062286,0.38853344,4.3334064,-2.644878,6.088006,2.9072545,-2.702222,-1.5296612,1.29475,2.5005345,1.690401,1.3054187,0.29238147,-3.1540902,0.9215379,-0.31015226,2.2736573
<■1■jUIGLsRvLoCKekhFODdDwqsFnZtgydAD>,-0.43962938,2.1460552,-0.11004807,-2.63683,-1.4618623,0.69399464,1.3071898,1.7808744,2.6789737,0.04802141,1.2544472,-0.040035803,-0.33879358,-0.48558322,1.194529,0.6344037,-0.11876326,1.0455285,0.77828324,-0.25252482,1.4836786,-0.71084017,-0.3619161,0.118586496,-0.11512912,1.6648601,1.3699827,1.8928831,-2.0118701,-0.4832227,-0.09356095,-1.4778748
<■0■ScpbJChmHKMjSBWAbdmzepcsOxTLIgKK>,-1.6412371,1.9651579,-4.285181,-3.0089297,1.8910162,4.455718,2.624828,1.6627424,0.046210464,0.8056019,-2.835853,1.244176,-1.6541698,1.6279345,1.1951133,4.646368,-1.7163776,3.9737756,-2.9671743,6.1917543,2.8867192,-2.667275,-4.6331234,1.1307402,2.9596472,1.0847853,1.8376977,-0.2517385,-3.0850372,-1.518956,-0.14389163,1.0911696
<■1■zXCZQtRskXBmTLuPfeOLIkNoatXWfaCw>,-3.104608,0.857053,-1.252098,0.4366706,-1.7018378,1.7742069,1.3276376,2.4439318,-0.55864584,0.26934394,-1.3444179,0.20427825,1.3090944,0.7773344,0.14371864,-1.1712384,0.4145503,1.184787,-0.72047454,0.44630158,-0.16987336,-1.0282713,-1.5073073,0.21885426,1.4679568,1.6412754,-1.3065578,-1.380596,-0.73077536,-0.96640295,-1.5964367,1.6365875
<■1■vyOzXwXHLCCLjKZCPzFXnQxCJOMQvBYo>,1.8828146,1.2020906,-1.8808144,-1.7284406,3.4818258,-0.25355592,0.77759975,1.2995547,-0.6822224,0.011714132,-0.9380843,-1.994565,-0.99795365,0.48175344,-1.4340205,1.0361476,-1.7021718,1.5547862,0.014935591,0.8044319,2.085778,-0.3080871,1.4095085,-1.2389858,0.43817466,0.5977132,0.5989624,0.19401313,-1.6515334,0.91840667,0.21309833,1.6173398
<■0■lpqngXFHMYhVNGHhFDUxBBQvAPomErFd>,-0.6868584,-0.38875723,-1.946121,-0.9424544,-1.6379118,2.8201363,0.31886935,-0.23203671,1.2537404,1.0384763,-1.7414558,-0.43015304,-0.03151465,2.423682,0.08952955,1.027387,0.27632985,2.1753154,-0.23143525,-0.64748085,1.4684979,0.11692672,-0.16697589,0.25513515,-1.9227204,3.4704492,-0.036351155,-0.8409269,-1.5926516,-0.025169346,-0.6296642,0.7079239
<■0■kVoSsRtViiitNUYhwanwncbuVgWPmuNO>,-1.7222415,1.8870839,-4.312175,-2.1325536,2.616679,4.591235,3.099899,3.6110337,2.1707067,0.0555942,-1.9430369,2.7064486,-0.4303147,1.1044159,-1.8136832,2.7721293,-0.81195164,2.820016,-1.534156,5.371607,3.545515,-3.2976425,-2.1323886,1.2001368,2.742894,2.2355652,-0.20788272,1.3630409,-4.759218,-1.2730758,-1.1275419,0.04902188
<■0■IZfJeEGxhNAvPoNUohPcIVkfPkWPBijr>,-0.8691266,2.8230636,-1.132208,-1.8266945,0.73406714,1.2728872,-0.6055048,1.2919264,-0.39027792,0.46317843,-2.409171,-2.5809317,0.9165574,1.2845974,-1.4183828,1.7124091,-0.9548285,-0.22824351,-0.08798846,-0.16017152,0.64061785,-0.564846,1.2143373,0.37735128,2.688348,-0.12502435,-0.27200857,-1.5355833,-0.5507378,-0.11836655,1.2339531,0.12118263
<■1■nGVnDMEQsOPeJopdCsufceZogcZpQPBj>,-1.4552491,0.97334284,-0.3038378,0.7086999,0.38850138,-1.1367089,1.9357919,-1.1553869,-0.20241277,1.0849456,0.3993895,0.12566526,-2.763965,-0.0045450544,1.1399155,0.70930386,-0.11827497,0.6216579,1.4327056,1.843591,3.118051,-2.5418293,1.5900214,1.9566249,0.44270077,0.0692559,0.515329,0.20811473,0.71963066,-0.53803766,-0.5251815,0.13234825
<■0■ygMtfjsLAhCShWgMzpZZnUIwoSPFSBxA>,-2.2909558,1.3914292,-1.4126625,-1.2530704,-2.4050567,0.7016591,0.5383302,1.4346131,-0.021855969,-1.0213804,-0.86530364,0.2719455,-0.63627386,-2.2931297,0.262973,0.81178445,0.46007437,1.0314789,-0.79041696,1.3679236,-0.45735022,-0.7470319,-1.4810529,-1.1737998,-1.6783204,-0.28134805,2.7936692,-0.92207,-1.6985755,-0.056052085,0.607766,0.089931354
<■0■tBCmdwyCQHbgYiUtRWZarCnoJQkSyiKZ>,-1.8427798,-1.0345396,-1.0155705,2.5048308,-0.24178535,1.0530639,0.6944215,-0.17261204,1.4357264,-1.3262106,-2.2135892,-0.36321774,-1.3889325,-0.3685896,-0.236647,0.2073633,0.8581125,4.3270507,-1.3557813,0.54906076,1.1961495,-0.5877387,-0.19962591,2.7465324,0.26125944,0.37246382,1.6490334,-0.3023463,-0.21490502,1.1587161,1.6548154,1.6141837
<■0■whZnKoXcEdeIgqaLZpSqDzMVnRtZRakq>,3.454837,0.60062045,0.820512,1.117288,-0.4021279,3.3982956,0.2167628,0.17434755,0.9590147,1.3636312,0.35707554,2.5384662,-0.5208748,-2.8171308,-0.8383478,2.4099205,0.3737138,-0.05088039,-0.1742852,2.328846,-1.4862691,-0.85373324,1.154981,0.45873106,-0.21248206,0.09422724,1.1586477,-0.048434135,-0.9797675,-0.016543228,-0.865975,2.3153236
<■1■VZcgmSNqweamKIaAStxBKsEPTAFjtSxV>,2.8339615,1.0182825,-1.3517783,0.47509053,-1.0698773,0.96739477,1.2696326,-2.533557,-1.4036963,1.1098207,-0.09046388,-0.45032224,1.5979227,0.10534698,-0.5361201,1.5905398,0.46576738,1.9395857,0.0995026,2.593017,0.12844919,-0.28838992,-0.48657098,1.4633074,-0.32236284,2.3251636,0.715617,0.5885131,-0.72079265,0.342809,-1.0471174,1.3828987
<■1■bLMDSltiPfwAFPHpOBZiIxQioOjYyHqB>,-1.3226501,0.33404818,0.32197163,-0.7177601,1.1999358,2.6170974,3.7895532,-0.6881715,2.0490878,0.7504266,0.4857999,0.09311888,1.1599501,0.7152948,1.6936158,2.394445,1.2164155,1.3581319,-1.5317451,3.1627421,-0.20871496,2.1833365,-0.65677667,0.2894541,1.6306036,2.1286137,-0.29947653,-0.66924787,1.1219442,0.45527694,-0.15989512,-1.9041361
<■1■CBvGAjOywPxiqIvtHntYDPxcoDClnKnI>,0.176753,-1.1485754,-0.0533261,-0.8266259,0.54947585,2.0762465,1.2215257,1.8754212,1.7435893,-0.6663296,0.86146665,0.47373688,0.7993426,-0.18624619,2.8192933,1.2430148,0.04911055,-0.8890576,-2.1949332,2.6593957,0.5185578,0.25936967,-0.56012213,0.85643345,1.1766965,0.8710115,2.462356,2.3825605,-0.702742,0.7106795,-0.45362106,-1.9506687
<■0■qvDcmLbuzyfIyeuKzNrGdBgCNNTFjDyF>,-0.55655164,3.4734752,-3.8572013,-4.4418335,0.15554883,4.3685503,2.6482685,1.2232168,-0.43348095,-0.2878084,-2.3868015,2.0818598,-1.3638976,-0.6936671,-0.28971487,3.4452467,-2.499441,5.268456,-1.173399,5.7113285,3.061536,-2.718772,-0.2525065,2.142576,3.4034736,3.1214306,1.3684106,0.2278451,-1.0466081,0.24757777,1.8066334,3.0218072
<■1■lhAHcnPpKBYXAHzbgiZpSpRwjwIymMXi>,-2.4653316,2.7526014,-6.2764597,-5.631137,0.56341887,9.369165,5.5117183,2.144302,1.4538424,0.56207883,-2.96253,4.207115,-1.5790302,2.7111194,-4.055198,5.74328,-0.9779496,8.031945,-4.1191144,9.0523205,5.8079762,-5.185566,-3.6482105,4.215201,5.50744,2.9710376,2.052543,1.929213,-4.1877,-0.83725715,1.0702208,3.0650592
<■1■FgOjlmZccjLHsaYDbOMssrWPNuosrKmi>,-2.4383957,-0.19378826,-2.1673932,-0.59627014,2.1524086,1.3901176,-0.48254067,0.70801294,0.8481384,-1.280586,-1.4546053,-0.28905278,0.49933723,2.2873552,0.69621336,-0.21442762,-1.1661673,0.93743086,0.50191945,2.7959352,-1.6798272,-1.9395769,-3.54794,0.23372203,1.7085068,-0.6146524,-0.1035281,-0.04109785,-0.5851136,-0.45919216,-0.42161137,-0.66162145
<■1■ujHdFytCABKIjbADrJhTbmYMwsYVRpND>,-0.015835956,-0.40011624,-1.2909322,-0.62428594,1.5043492,2.0914729,-0.16548386,0.6068795,-0.28678825,-0.9877013,1.3654537,0.5990136,0.052190308,2.9837632,0.69242316,0.27922916,1.8076409,1.8187755,0.042863194,1.6833475,-1.0217911,1.3239071,0.215214,1.1353582,0.8500117,-2.2540116,1.8956796,0.3772376,-3.4098606,0.7224524,-0.90822554,-0.83012885
<■1■dtsacYqsRgsaJVicDVmNQICwmFuqWgPQ>,-0.51338696,-2.8637106,-1.9319615,-1.588647,-1.195186,1.5047255,-0.7760408,-1.0338278,-1.1497694,-1.5818185,-0.87960666,-0.43130046,-1.9251021,0.7975349,0.82731676,0.24432229,-1.7479477,1.2181461,-2.2646382,1.8689036,3.1103566,-0.8026112,0.41184875,0.4991827,-0.033262692,3.120019,-0.88061464,-0.67970294,-1.5657268,-0.48096144,0.6345804,0.65725815
<■0■xZKiBcqdpmLwECcpjmfcwiojGzcwzGva>,-1.1129421,1.6919025,-1.6497018,-1.8873137,0.40242216,-0.3112514,-1.3066727,-1.2386146,1.2401619,0.110207826,-2.564125,1.2127662,0.38676694,-0.26274168,-0.20668374,0.88847834,-0.7658449,-1.4457166,-0.4696226,1.843554,1.9163935,1.3010132,-0.6641322,-1.826502,0.7712913,0.5172237,1.42493,2.3018668,-2.909505,-1.2993063,-0.26499465,1.2329936
<■0■bNRfnOEPFVsJeUiLfGueShIqdWKMvKBe>,2.3159323,-0.5258201,0.41637596,-1.4991368,0.61411995,0.07585939,2.0468094,-0.5131825,0.47018218,1.346956,-0.12965083,-0.2102444,0.049010694,1.6323193,0.8329062,0.5406826,1.4976526,-0.19288908,-1.8004262,0.85272336,2.720783,-0.46142498,-0.81195754,0.31389728,1.5923887,0.4024635,1.6523858,0.6445242,-1.2701819,-1.7009468,1.9307722,0.43462127
<■1■wgrtMSYwBNBocYkjrJysVXpxvhbqHTAr>,-2.1788304,1.1418327,-2.3728282,-3.5323095,2.1678736,7.321988,2.2616153,1.4501766,0.21709397,0.3065314,-1.7874944,1.5396714,0.59591335,1.486851,-1.9719194,3.2282877,-0.009821747,3.683275,-0.67013454,6.6189046,2.0973825,-3.7645566,-3.2192054,-0.0052717905,2.3123386,2.4620888,0.7117874,1.8882823,-2.6019025,-0.6515885,0.94547373,1.3510549
<■0■nNzBojVkridDJnEmRxLaLbpPvtYSPwNP>,-1.0673473,2.4710736,-4.6103992,-3.4698987,0.499454,5.6015267,4.4854374,1.1348513,-0.59273934,1.012589,-0.07601993,0.51705784,0.19511731,1.4396176,-1.5783302,3.0627935,-2.69218,4.2215614,-1.5287358,4.65715,5.0781527,-3.2451153,-0.40127593,1.1171618,2.9017158,2.633352,0.8018824,0.79167855,-3.8760123,0.29868585,-0.3391251,1.0702178
<■0■jSuKzZovLmdVlFxyqRsHiswkwOZybiJu>,-0.4394768,2.3861334,-3.4556115,-1.8234076,-0.95627135,5.307674,4.2143745,2.7683122,0.9641419,1.3775129,-1.6681075,1.8855797,0.34131423,1.0051976,-0.7548825,2.644472,0.60394204,3.3624408,-2.7948368,4.71024,3.2916174,-4.7699766,-2.3868253,2.832586,3.5401785,3.468377,1.5575136,2.5194337,-1.3756003,-0.57464707,-3.5916173,1.6486009
<■1■foBXvOSIcbqqtqeFgBCobJEjewIJBaEK>,1.0919735,2.0331845,-0.65730137,0.27221143,-0.64384705,-0.4171395,0.9045872,1.906688,-0.19337748,-1.0871096,0.7248606,-0.35258877,1.6719563,3.0057976,-0.152957,1.5578928,-0.69755256,3.9561403,0.10286424,-0.26612622,1.0057232,-1.1988715,-1.5790813,1.2421334,-1.0972133,-1.6329585,-0.7531542,-0.5300125,-0.6430898,0.5090864,2.1501088,-1.2426373
<■1■ZGdarNQhvxLrUhdkErYqDprJRNUZzGVf>,-2.0848353,-2.1270504,-2.1942267,-1.4375999,-1.2344844,2.1590312,0.122395895,-0.7937685,-0.3123343,-0.34295648,-1.5574288,0.7706233,-0.14567156,0.05994793,0.70455194,-1.4274039,-1.9141091,-0.41259477,-0.6406042,3.559913,-0.15557013,-0.40889627,-0.3433927,1.8874992,-0.48106045,0.46051717,0.42942038,0.76595813,-0.7625141,1.3492684,-0.080517404,1.6279699
<■0■fPgSimlRKAWrqZJhbLBqRjiZNOiTWBQN>,-1.3437457,-0.5499013,0.31568336,0.2803137,-0.33987698,-1.1332273,2.7072968,-2.1443899,0.61538404,2.9601805,-0.064419344,2.2627394,-0.5093824,1.4118338,-0.8916676,-1.3917887,-1.2096897,1.2180085,-1.9894913,1.2034876,0.00813923,-2.5448728,-1.0450836,1.4902847,1.1042889,0.38513124,2.2750776,0.24056832,-0.38177514,-0.51291436,0.03206806,3.2074118
<■1■amPZmROiIjokmZBXSQpCLkmggxlrpxva>,-1.794342,2.2266006,-2.7762072,-4.770586,1.6181768,5.7309804,3.8834248,1.0238484,0.9514276,0.80102533,-0.607237,2.584473,-2.2970524,-0.25805348,-3.268658,3.9515924,-1.4745069,0.919481,-0.32361126,6.1109996,3.6374454,-3.0934386,-0.98435754,2.9221447,3.0199707,1.4696416,1.8340173,1.0105429,-3.5838094,0.6785746,-0.7160764,2.5097315
<■0■NwQgevXgNtjoGfBdaUNXfRFMAOcyUHRo>,-0.7245107,0.49775505,-1.3567849,-0.55895215,-0.5832639,2.262326,-0.72829986,1.1350442,1.5622598,-1.4146703,-0.4545929,0.067717105,-0.57553035,-1.3681588,-0.08738784,0.012538414,-1.3499112,1.234499,1.0217235,0.11929769,-0.62530273,-4.1947694,-0.489335,0.471489,-1.6761844,2.0791612,2.5480268,0.36329722,-1.7269349,0.3228003,-1.1851165,-0.17651466
<■0■XBQotIPTIUyLyJMjVdKtjYnvoFlfzokr>,-1.7174054,-0.86189896,-0.5436166,0.5429527,-0.31228212,2.767137,0.6771418,1.1839217,-1.8968555,-1.6589518,-0.24955541,0.9418799,0.6751464,3.4144962,0.3078424,1.4117368,0.15338576,-0.4895531,-1.4653436,0.85706097,1.6866809,-1.5244808,-1.6124103,-2.2456677,-0.14139166,0.792303,-2.0339851,0.69124955,-0.26065934,-1.1184899,0.13292411,0.42884853
<■0■cVmAeYeOFSYdyKUvViihkihkVtUzmTJm>,-0.279397,1.1652707,-2.6184654,-0.53511876,0.73754394,3.7255492,3.4593024,-0.14660726,0.083943,-0.20503302,-3.1038077,1.6258448,0.123756774,1.1383232,-3.0369155,3.5657833,-0.54899734,3.7518613,-1.9897461,5.307291,4.7157197,-1.7904034,-3.659679,1.7282735,4.4504714,2.8786068,1.5349046,0.4873961,-4.014324,-2.6597207,-0.6643994,1.4773282
<■0■XMcbUHtSnVZmVNjmGHCUVQpOsjpJmagc>,-0.33510777,1.9441978,-2.619358,-2.607583,1.3445079,1.9025275,1.4460242,0.6938404,1.4731135,1.4779738,-3.629466,0.73965687,-1.8217814,1.0785167,-0.75129634,-0.35711253,-0.06902708,3.1265826,-1.2599714,1.1664768,0.5549087,2.599281,1.4498945,0.17649627,-0.15373127,-0.81066024,-0.21458574,-0.6734375,-0.37878278,-1.3203604,-0.22022352,1.9665276
<■0■RkbArJwbIFQdUCFtKemtxXdSqMRehDEE>,0.7735068,-1.3415552,-2.4765508,0.2853072,1.6774007,-0.6644426,1.2508446,2.7376513,-2.4965625,0.1963316,-0.29550263,0.97711444,-0.9832663,1.2717977,-2.4035115,0.22892652,0.3919384,2.7621922,-1.5161909,0.94843775,-0.21499382,-1.9634199,-1.5956436,0.18819948,-0.68652153,-0.21440603,-0.74161077,-1.4402952,1.504245,0.71193683,0.28728428,2.4814246
<■0■FZgkYjrtIlTOGmQuecluYpegVgCatRuL>,-1.5196394,0.604952,-0.9324319,-1.4671236,-1.9742473,1.3049269,1.9774415,-1.2074732,0.83751756,0.11930489,-1.9201819,0.3630895,0.144395,-0.84877235,-1.5762948,2.1820266,0.97666436,-0.54498905,-2.6741192,0.5096377,0.5355723,1.9379373,-0.2585581,1.7977341,-0.14959437,0.17023861,2.0351293,1.1876253,1.4180688,1.3161347,-0.37802717,0.7307441
<■0■jzNfkpMxFCnlsfhbryLvhPRDoHkJaNvF>,-1.3454171,2.0600457,-4.52415,-1.8976777,-0.22505145,6.538078,3.655651,1.9735955,0.54142016,0.53138644,-1.1342078,2.0103981,-0.10357748,1.5130379,-0.5315966,4.5496683,0.08280623,3.2542877,-2.1836066,4.142619,3.604096,-2.8118181,-2.9313908,1.5377684,3.1837876,3.0770562,0.21293977,-1.2397673,-3.6061492,2.001163,-2.034966,-0.04290006
<■0■DVpBSxyQHuueKsVYNYImBoqjlHdjfHDn>,-1.3878926,1.2366933,-2.0999734,-1.4815087,-1.3651674,6.0205035,2.9455614,0.44335058,-1.3798604,-0.679054,-1.0873095,2.7832973,-0.60657704,2.016558,-3.0260234,5.138512,-0.5353305,4.36334,-3.3235059,6.330635,4.406925,-3.8040361,-0.4625764,1.8268394,2.193676,0.96367794,2.0846899,0.45252827,-2.331874,-0.71254915,-1.602008,1.4826431
<■1■GMMOPCwYbedIwoSOmgRnrRyqJBBDsgMO>,-1.3328608,2.5768979,-3.9167325,-2.9733648,0.32587802,5.657166,5.6071334,3.6589134,1.0057771,-0.008359097,-1.4619181,2.5180101,-0.27462023,0.6055088,-2.1512153,3.086407,0.0981621,3.7878902,-1.7757281,5.6937275,3.9544847,-3.4215186,-1.3192388,0.40259835,1.9829795,2.4743063,2.01154,1.9828995,-3.2862628,0.2645886,0.5298883,0.7996018
<■1■UIiJPbwQeAUkJqXDNKlplYEBqdyZTUcx>,0.5365949,0.58186156,-1.8295215,-0.70654404,1.5510088,2.079592,3.3033638,0.23445705,-0.6340967,-0.79995775,-0.60117704,-0.76823956,-0.04862958,-0.5800766,0.75764376,0.47612584,-0.49181625,2.1921535,-0.54593146,1.0571365,-1.0373433,0.026549375,0.67520833,-1.1236142,-0.29619864,0.33426997,-0.3374031,0.76592284,-1.3933135,1.8637664,-0.1574678,2.4548078
<■0■NAeZtgFkdwurtCBItXTUHAmOTCCVXhbZ>,-1.4945616,2.2135243,-0.5574226,-0.27481723,0.07972925,0.6230513,1.3678126,-1.3292533,-1.4876224,-2.4594173,0.5521036,1.7319937,1.4960124,1.3419465,0.3014623,0.3570165,0.9929667,-0.730173,-1.9940221,1.7728156,2.3270028,0.13404517,-0.69415104,0.10265875,1.4182365,0.0047937944,1.4443375,-1.801671,-2.753759,0.5427763,0.11432524,-0.91150546
<■0■tpVPlAAzzutBYZrgEOjIzGvRHfTNNtmA>,-0.90352964,-0.0824554,-3.1860552,1.4836442,1.6484932,-1.0619348,-1.975451,-0.13856342,0.2798534,1.4527783,-0.58479476,-0.7769142,-2.6751897,1.4774208,-0.3627942,1.0305974,-1.7601047,0.82797486,-1.5518755,0.23678277,2.4054859,-2.7699814,-2.0581367,-0.60911846,0.9306338,2.1407478,2.4963427,-0.84844047,-1.0762657,0.9574955,0.2294582,0.118775174
<■0■FuCznlwQrllUrltTIeTiGWXufKUqtfIh>,-2.1113591,0.9680922,0.9708685,1.2245609,-0.7506472,1.3877068,-0.37491122,1.1576189,0.05589371,-0.06446998,0.11076937,3.4219465,-2.1826863,0.9383969,-1.5370524,1.5915997,0.10334003,1.917204,-1.714364,1.7375771,1.2764224,0.25980648,-0.69106853,-0.8477138,0.038127556,1.1957176,1.4305414,-1.7811389,-2.2520177,1.7423228,-0.38787183,-1.998576
<■1■venXCBiRKjUxRnzOJTsKdHycIfZNlBNq>,-1.7789145,0.6682111,-0.2973151,-0.90248054,0.40791515,2.121216,-0.43288928,0.8134743,0.43473682,0.2238944,0.88133097,-0.3294373,0.7920046,2.6447358,-0.48538825,-0.5138594,0.83840615,3.402546,-0.67366177,2.7822533,1.5714006,1.2797596,0.5331541,0.5438187,0.14999929,-1.474671,1.7148868,-0.8054775,-0.011242896,1.2495743,-1.4540207,1.4494048
<■1■XaUClpgkIMJZxARAzRLWLELMfEipoidA>,-0.9885645,0.48690763,-0.4612539,-1.8150916,0.42952606,3.4980423,-1.0739335,-1.2652684,0.77163357,0.21773444,1.393107,1.814111,1.4139793,0.09199191,2.1014502,1.3501372,0.6771926,-0.2077753,-3.1163065,-0.80425835,2.1661916,-0.56633157,-0.13947318,-0.13181165,2.3205855,-0.747925,2.7599115,-0.0866981,-1.7280333,1.0707358,-1.0682653,-0.06316146
<■1■RSiErjkdiDqyruImEgefDtguoOVylHEr>,0.7084692,1.5981116,2.8068452,0.86013377,0.2899792,2.0024004,0.2962783,1.5928913,0.89788723,-0.8161743,-0.5718128,-0.68381184,-1.7989864,-2.080305,-2.042825,0.6664432,0.12922153,-0.6372969,-2.6658058,1.8271453,0.2614369,-0.04628664,-1.3661221,0.32279047,2.1452153,-1.4445348,-0.46575567,0.8346106,-1.3795909,-1.6403166,0.72559047,0.23476158
<■0■xzwtQyltfcjGUlTQDIuFSzzyrpUdmqCz>,-0.60695034,-0.09892666,1.6262685,-2.4361386,1.4537551,0.70179904,0.82190454,0.103106104,1.2162316,-0.18919602,-1.6606339,3.2596679,-2.1630378,-0.41159302,1.78523,0.76023567,0.86819535,2.1007264,-0.18862495,3.2730248,-0.5428806,1.0989273,-0.76095665,1.9215213,-0.15633202,-0.15511271,-0.37280512,1.0752115,-0.876102,1.9950469,1.181622,-0.43170962
<■0■guHDgAtZmTriFcoQswcBKAoLQkSLzkoz>,-0.71535635,-0.3164122,0.93709356,-1.7381669,0.81242025,3.0307462,-0.8258791,3.6315236,2.7723942,-1.6528264,2.4705942,0.1892933,0.34532383,0.62310207,-0.9690194,0.7518537,1.1459464,-0.38981193,1.0838432,1.291088,1.5795527,0.4390764,-0.42979205,-0.70436215,0.82587075,-0.86507595,-0.1476964,-1.5406524,-2.5534215,-0.6223723,1.43363,0.60107714
<■1■uLlsHWQuvWsvstpVjGgRyOqJSDKlvSQv>,-2.645396,2.1314483,1.0789216,-0.5433147,1.2333775,2.8488305,0.8135178,-1.4390686,0.8030348,-0.19882421,-1.6122721,1.5875615,0.26608908,-0.9505986,-0.83915186,1.5083919,0.049616054,-1.417812,-0.7317821,0.977969,-0.022052541,-0.9296663,-0.54822195,0.7229795,1.6153122,-0.58280945,-0.44944248,-0.3157694,-0.5113245,0.49062896,-1.6052231,-1.4455379
<■0■xeiuKRiZbugCJPyyAFCMdRRAFIvJXQPq>,-0.9752957,1.1664932,-3.796307,-1.791153,2.404788,7.127267,3.2097058,2.770632,-0.1073983,-0.3704649,-0.75332004,2.327509,-0.61348295,-0.43834174,-0.5718836,4.562048,0.085470386,4.0679045,-2.9835,4.621796,3.361506,-1.9687444,-1.1608288,3.0932178,2.487825,1.8443146,1.5938913,-0.51132953,-2.1470158,-1.0884928,0.23757538,1.7231562
<■0■HuYixoMJZxcdcxGPkSSCdpFxcfkxwVKD>,-2.919597,2.4638,-3.974436,-2.1975994,0.77549994,6.8750668,0.82411754,1.577223,0.66714406,0.15120815,0.16858253,2.447673,1.1455514,2.1670563,-0.249225,3.0259287,0.7881721,3.1436965,-2.5450106,6.2082996,4.653785,-2.5429924,-2.847904,3.132362,1.4559205,1.7351758,1.1968771,0.47901538,-2.0245354,-0.68457407,0.77749467,2.0935404
<■0■PEBkkuCxnOHvjbkWIClzWQaPgwEdjZgD>,-0.83406913,1.2609878,-0.24120048,-2.2932134,-0.056874704,1.1272516,0.79609466,0.19950803,-2.3683214,-0.40835905,-2.444694,1.0301627,0.1241773,0.7414436,-0.22484879,2.2034264,-1.0103629,0.4814538,-1.6953545,0.1450628,-0.31101853,-2.2802894,0.1021689,-1.4737204,-0.07885446,-0.84483844,1.2001795,1.0942402,-0.65564054,0.3587601,1.967755,2.9506798
<■0■WxhQJbhGYzDCCbExypeDcTcmvzuMetFs>,-1.6105329,3.7497637,-6.170836,-3.847982,0.80194587,10.087318,6.003517,3.2930465,1.4672215,-0.56961787,-2.3612142,4.259916,-2.183626,1.2429742,-3.0323122,7.514136,1.3384886,6.4843626,-3.6998963,8.619467,7.1323323,-6.0268536,-3.6791697,3.6833763,4.293121,3.6796904,2.252245,1.026296,-5.914753,-0.1750338,0.8019392,1.5761304
<■0■KPIstRdEVhKgOMneqlAhxGKGcxlHvykm>,-3.250628,2.6216214,-6.302424,-3.385331,1.9341018,10.327978,4.488178,1.9897588,0.117198884,-0.24104264,-1.1640571,2.714266,-1.7852108,1.5086205,-1.6370718,6.4716315,0.13870037,5.8435636,-4.4506392,9.57315,6.3884444,-5.8799434,-3.8757586,3.5226808,4.5536942,3.1613004,2.9265468,0.7470711,-5.865454,-1.4024742,-0.67534304,3.456751
<■1■jwJgWpfrRFIaOBPHcQwXKrFBOyzYYqku>,-0.57390267,1.9476677,-1.0579879,-0.47424,-1.4122213,1.936819,1.4100976,1.7366133,1.4247888,0.36627293,-1.826306,-0.047847804,-3.42641,0.009261789,0.14897364,1.9017215,2.9364805,1.2945561,1.2023602,-0.11383447,-0.9644916,-0.5576634,-1.0806236,0.073607884,0.9905189,0.16446204,1.6854304,0.60694426,-1.018944,0.33274534,0.6783193,1.3917168
<■0■yKpqiWLrXMSThiSSsZvbteEFUldhFKWV>,-0.90738225,-0.079843275,2.025277,2.2420683,-1.4075513,2.6573298,1.6993525,-0.53811365,1.574674,-0.2772548,-1.5300606,-0.8919373,0.07361447,-0.5164411,-0.7954637,-0.30062386,0.94784653,1.2943693,-1.8773887,0.11535169,1.9065603,-1.3030415,0.18938744,1.5860823,0.29167002,-0.40818405,-0.28607288,1.0570697,-3.3573892,-0.69969434,-1.6969439,0.71492225
<■0■bYTSfPVVWnEkVSPArVCJysJLFqqbcTgf>,0.72436243,1.2054164,-1.724341,-1.4915988,0.0022546963,1.0254304,0.19898374,1.2542589,-0.28615472,-2.3200748,0.42111447,2.2233953,-0.10578426,0.009977751,-2.5901108,2.0171545,1.6476818,-1.5587606,-0.95480144,3.2330008,-1.8826052,-0.6293323,-1.0562745,-0.45754716,0.32479134,0.7657786,-0.48669782,0.7736383,0.10962052,1.3493226,-1.3588003,1.2391683
<■0■TJeihsfxYingNNxUAFFfMcbiAvlBJMiZ>,0.021529904,2.213299,-1.2043374,0.16529843,2.4404612,1.7926046,1.2063899,2.0793335,2.2203593,0.9762002,0.26218525,3.0845518,-0.5507503,0.97108847,0.9723174,2.038428,-0.94977725,0.43309018,0.3671175,0.70015925,-0.7199139,0.8931797,0.77084774,0.7271425,1.4497911,2.344968,0.849769,-2.2649844,-1.0116876,-0.24630466,-1.036683,-0.8490647
<■1■OETZaCGpUSybwstZNAgyDKhftGHCyCnW>,-0.26875275,1.3601241,0.4066853,-2.6616013,0.84259146,1.3993331,0.4938497,-0.06503493,-1.3251202,2.4342213,0.5170943,-0.55862516,3.0670047,-0.5286547,-3.254182,0.9561438,0.9006659,1.0517193,-0.6601844,-0.037916414,1.1754278,-0.5503814,-0.085858636,0.22160618,1.6895475,2.0810704,2.6321597,1.3250571,-2.5064445,0.3197866,-0.32093704,-0.45880148
<■1■PtJkIwglHyainoNDFrpICsJeygHQYRGy>,-1.549431,1.688225,-0.94693273,-1.7955667,-1.9807081,-0.055157494,-0.20979574,-0.40607342,-1.0580478,-0.24498992,-1.0749358,-0.27387857,-1.5390338,-0.0001992205,1.7042232,1.210811,1.2929584,0.017679406,-0.21588667,2.3636296,1.3838558,-1.746486,-1.0294791,0.27143648,0.83359265,-0.05218863,-1.5227605,0.55121136,0.68830395,-1.5981549,1.7587565,2.3938942
<■1■fylrJSHcPCTlMKswASweRnGNSYIxUjjT>,-0.4429188,1.8760979,-6.015764,-1.2663583,0.4327962,5.9066405,2.459565,2.6813483,1.0056688,0.27954653,-2.3058338,0.54572403,-0.80224913,1.3014305,-0.434436,3.2156627,-3.11457,2.6453826,-2.0292082,5.952816,4.410874,-3.4765275,-2.2542293,0.8170872,1.0038881,0.88263714,1.5169401,-0.5483336,-2.7250502,-0.111272655,1.2645701,0.05041573
<■0■YTGyfnxdPDjidHigbQbedLzsdTUjMjKU>,0.03162478,0.644187,-2.1984398,-0.7227189,-1.7122843,1.3272848,2.601202,0.44803905,-1.4862976,0.18656647,-3.1895192,1.7516006,1.3907948,-0.42350796,0.3427651,0.20315859,-1.4436835,0.11894413,-2.4170992,-0.8161364,0.09339743,0.5237165,-1.1844356,0.84941095,1.7051886,1.6023092,-2.7743766,0.53656113,-0.8341411,-0.9304889,-1.6919504,-0.74308366
<■0■yXiGpndYAlElsUPIlqLZzJVQeDNaqotU>,0.97822386,0.9916665,-2.4422607,1.7216239,-0.059610907,2.091158,2.4564085,1.4523411,0.4274999,-1.4887122,-1.4238436,0.8982471,-0.9092735,1.7754577,0.8827486,1.8484567,0.5885468,1.1119691,-0.6698686,-0.3048139,-0.73587763,-0.6214645,-2.743308,0.15716687,0.40988973,2.080175,-0.2571491,0.8883895,-0.57169104,0.95261365,-0.05060526,0.92335266
<■0■nBbhWkMiptWLzdamEewqUoAentQaEiGi>,-1.7343876,1.1203122,-1.2608331,0.11666725,-1.2937423,0.3917867,0.76267314,-1.028617,-1.8028415,-0.041372944,-0.11029949,-0.07082069,-1.4282367,2.302955,-1.5234199,0.14675672,0.7413977,1.6446028,0.7965069,2.353003,0.028441735,-0.4541869,-2.6605875,1.0545824,0.86522055,2.715413,-0.15387164,0.1420739,0.1710526,-1.0921534,-0.5653212,0.66344994
<■0■ESliKFWaTdQfuMFHLbjbaPvUnMumECRW>,-1.2728796,1.9626735,-4.460483,-3.1157353,0.7955283,6.7675347,4.1077976,2.5298913,1.2881166,1.510662,-3.591099,2.9448678,-2.0338569,1.7416767,-1.7467453,4.1193433,-0.18267946,4.589645,-1.8668458,3.2423272,2.275391,-1.270981,-0.86679995,2.9759796,3.4088411,2.6915202,0.86174935,-1.0483453,-3.8882935,-0.47965994,0.47859156,0.2580367
<■0■WYbrdMYBmxWMeDkdnGGuZTHGtcrfFKrB>,-1.7836115,-0.16163538,0.0022006743,-1.5453564,-0.70579576,0.73376304,1.9482658,0.7331668,1.3647124,-0.51482433,-0.87942654,1.3576994,-2.743182,-0.25902694,-1.2068121,0.86077553,1.7409307,0.6809109,-2.121182,2.3371677,-2.128754,0.5825695,-0.9492416,0.89010847,2.7883198,1.3696222,-0.18458046,0.13721459,-1.3506763,0.36933142,0.056978643,0.05928154
<■0■eGlyyNkzyCgZnGFBAUEPWCfQiFJSHDdz>,0.7924077,1.5061172,-1.4642311,1.1606318,0.9716458,2.3449285,0.027764143,1.5987202,-0.85514265,-2.6312208,-0.7022341,-0.5076636,0.014466527,0.88256824,0.5076808,1.2455649,-1.0826604,1.0744073,0.86566556,3.2660458,0.6693935,-1.297489,0.84340036,-1.9782863,0.76327825,2.441148,-1.1759017,0.24567698,1.7120758,1.7603354,0.18800619,2.2614098
<■0■GWPRfFwFIPhKrSAoaCuQbVVXewxXzwpR>,-0.9368755,-0.48964053,-1.8421233,1.6911378,-0.92430115,0.024973573,1.0696884,-2.050354,-1.790934,1.4197559,-2.1268473,-0.7703645,-0.06309801,-1.0308435,0.37269434,0.29666373,0.1797922,1.8505859,-1.1764222,0.43820727,1.1535575,-0.3556259,-0.6498157,0.43154165,2.6459963,0.37476227,0.4593721,-0.26444632,-0.71875155,-1.3750932,-0.6962826,1.8990136
<■1■GCKJbBRPXIZZpYJIfOKSCEKzsKyEyftV>,-1.591667,2.4583879,-1.2757517,-0.6327152,1.4697233,6.5164757,3.0952773,2.5605438,3.148057,1.1726104,-1.7802231,2.339648,-3.080863,1.3154776,-1.7489922,3.9545782,1.0759463,4.962787,-1.5560855,4.417303,5.365368,-2.2499566,-2.3235605,2.8941119,2.9541035,1.413464,1.5559906,-0.95481676,-2.2836485,0.22820017,1.2760516,0.3018804
<■1■McumBcvoaBqhnXyMPctKIggPOuPUNRYf>,-0.39156577,0.15573555,-0.27556962,0.33545768,-1.8808347,2.2585676,0.45674613,0.7468011,1.9061733,0.46257204,2.3088727,1.0821048,-2.4173086,2.1395285,-1.9102012,1.5703487,1.6669044,2.0947127,1.0089036,0.56155586,1.544773,-0.963209,-0.8519722,0.054660406,0.19883248,0.4052641,2.2876122,-0.8978283,1.1741731,1.2529289,-0.5972534,1.4351524
<■1■QIElTFJoDhRYlhEtWBMxQyluuMbJWbdk>,0.82117975,-0.6546468,0.8309771,-0.10579453,-0.07414728,0.94695735,0.6692172,-0.19362505,2.0566874,-0.18265682,0.73583895,1.830832,0.540087,-2.1247187,-0.15634005,1.8411561,1.9841918,1.5788567,0.5531066,1.4655205,0.85159147,1.0002003,-1.814807,1.3662653,0.7395093,1.5223765,0.5780205,-0.69412965,-2.4283383,-1.0794669,1.0624495,-1.8891093
<■0■XsfHhOSlqLUkXgOAvcHvdvgyLoeALfpU>,-2.645803,3.366904,-5.475397,-5.121591,0.5886799,10.38907,6.0164227,4.5810413,0.059021495,0.7472897,-2.3883185,2.548242,-1.1185035,2.2125454,-3.2844868,6.115084,-0.8740112,6.439221,-5.114875,10.038246,5.891013,-4.3264184,-2.8741856,3.0384793,5.5162315,5.073096,1.8119148,2.311582,-5.5474043,-0.13286643,-1.5443736,2.1551008
<■1■eShERmzbjFRkRxswADpUtzlUntyQABum>,-0.7053824,2.215406,-4.291253,-3.758715,2.4254668,4.8617263,3.3493369,1.878167,-0.21895178,1.9228061,-3.4295132,3.5737188,-2.8275778,2.362872,-2.3331282,2.0220232,-0.8591938,3.211591,-1.2074829,4.703946,4.239393,-2.1453376,-3.7466993,1.3372171,2.4264104,3.4229248,2.762327,0.92490625,-2.006836,0.28261688,-0.793021,1.4494556
<■0■AKYaIPlnNaHjAXwwgeremAVdVsyTXfvm>,-3.4517303,1.4521991,0.70995784,-3.014528,-1.0591438,-0.30081868,1.9603173,-1.2810283,0.60382855,0.14663926,0.022262722,-0.036028933,0.4433104,-0.05251938,0.93791246,2.1929052,1.3132306,0.88312054,1.0595549,0.7980871,-0.08654622,-2.2885206,-0.40006548,-0.51129663,1.7249045,0.40812808,1.1360348,-0.48851356,0.15053579,-1.1256711,0.0077542383,0.20855993
<■0■OQAyhUfojCmXgHptEqRgFNzDjSJGGwxh>,-2.6738489,5.4327965,-9.368325,-5.1891313,2.1876745,15.00324,8.779517,4.2975454,2.2243288,0.9028055,-3.357467,3.664653,-1.9020287,3.788515,-2.2886388,9.002224,-0.95332617,9.517767,-6.146009,13.5222645,8.107508,-7.3522663,-4.6810427,4.549961,6.587877,6.098158,3.1222546,1.5165204,-6.6007495,-1.3902675,-0.69208044,4.9324174
<■1■OXzyjyAVeKKcFjCVXdQgtgKMOoJADiQK>,-3.2083805,-2.5993612,0.76114374,-1.4630482,-1.5952032,1.2116556,-0.5826526,0.69515127,0.7383949,-0.78316855,-0.10598533,1.3912104,0.54753685,0.35227624,0.10745262,0.17366512,-0.44520217,0.9985874,-1.2526072,0.19515127,3.1844537,-0.87345606,-0.98644614,1.6335666,1.8932885,1.9478985,0.80794376,1.1260453,-0.82039285,-2.2633185,1.4108472,-0.1940603
<■1■yrjtwpJIkskyBYHNQrxagFPBvcLCAlAM>,-1.311582,3.6510127,-0.16761646,-0.8208604,1.374561,-0.56240577,0.77802837,-0.045820672,0.7886265,1.0126425,-1.7695588,-0.62937045,-0.76659983,-0.01709119,-1.0843852,-0.73465663,-0.4157233,1.5662661,-0.7243224,1.0408859,0.8109693,-2.7667837,-1.0183315,-0.60861933,-0.25110796,-0.28017807,1.061978,1.9120183,-1.0682123,0.29095823,1.6886563,1.8843957
<■1■MTEJDCZTKFoWqOHxqROcUTxKMqPztDsJ>,0.37625054,-1.2425385,-1.6668184,1.3791355,1.7712768,1.4083983,-1.7279488,-0.9751779,1.5201107,-0.19429429,-0.62391245,0.72574836,-0.84295684,-1.0939413,-2.712582,0.6071281,1.539225,2.9421422,-0.9785832,2.0468378,-0.6387257,-2.6047645,0.7015401,1.3009382,1.6200718,-0.5922975,-0.31513575,1.7874614,-0.49633297,-0.472449,-0.4578607,0.4759086
<■0■bhLUBuIRlVKapMAfzOAqqUpRHEJhQmJs>,0.3006361,1.2207146,-3.8641255,0.82163656,1.5700319,0.29765695,0.5655745,0.7733398,0.54152083,0.48251876,-1.4949566,0.4180945,-0.036527824,0.06539047,3.820784,-0.6134265,-0.20043546,-0.06902482,-0.6960007,1.8120958,0.9113519,-1.4492016,-2.4602623,0.06535074,1.9546746,-0.054790508,0.090782724,0.6165259,-0.05600563,0.9557553,-0.055367477,-0.40588415
<■1■wgVfTkgkSzmupcZIVIhsUfYOXsDvbeQO>,-1.0195122,2.2844174,-3.1779096,-3.216573,0.10646477,5.724713,3.20916,0.03768663,1.3919669,0.59428513,-4.21492,2.540093,-1.831074,1.1267767,-1.5891701,4.824337,-0.74233794,1.9109027,-1.680045,5.3964853,3.5800157,-3.1241133,-2.04373,4.0739555,3.0292614,0.68942505,3.3948798,-0.008640331,-1.1616555,-0.995388,0.37821293,-1.0672303
<■1■QsHXZPGnpYbIzzTuvnOVhoLqbMgCDclO>,-1.9882538,0.824095,-1.257874,-2.469489,2.0490134,-1.2340714,0.74601084,-0.8374721,1.825468,0.20215039,-0.04816805,-0.0059736073,0.19798274,-1.5847502,-1.5785632,1.1172967,-0.2999241,0.019988468,-0.5584948,1.26208,2.8430414,-0.4242903,-0.9580752,-1.4040443,-0.10002801,-0.07045214,1.571156,-1.059209,0.009577705,-0.7223227,0.35925478,0.27620155
<■1■TifwxBGwDtWyRLuLgbBiCtVwpNDySYKA>,0.08321515,-0.37088093,-0.115399934,-1.1378872,2.1063416,2.1039891,0.97116274,-1.8551847,-1.129265,0.6870633,1.1030022,2.7825131,0.3782663,-0.95278805,-0.19791949,1.227899,0.99562514,1.9231632,1.7628912,2.5593078,-1.840976,0.62107253,0.74552613,-0.39075214,0.44169214,0.8094996,1.285193,-0.4269277,-2.0359404,1.2431512,-1.6907737,1.5763355
<■1■KKSrTiRsbMfNQKSxqydjgFSQvqEhIsiW>,-1.6827995,2.70279,-3.3873978,-2.1408455,0.09540464,6.983286,2.9735155,-0.11389995,0.62229186,0.83585817,-1.0289167,2.2098262,-0.5319422,-0.6642978,-2.1633427,3.227456,0.7544755,4.806143,-2.7796905,5.5158067,3.9252915,-3.4935892,-3.616353,1.3695425,2.1712394,2.1327453,-1.2821044,3.6996942,-2.668466,0.043367244,0.24392809,-0.9347155
<■1■IuuuBwYZBroWfOSOgQFYkcVppdIKILlU>,0.0014121112,0.66209173,-0.30090913,-1.7739645,-0.23944743,-0.34264266,-0.47198996,0.61416006,0.2221166,-2.2458425,1.4741244,0.27532363,-1.1911794,-1.8797247,-0.910167,2.197404,0.21987045,0.9966919,-1.3999106,0.6726623,-0.009651349,-2.2209792,-1.6593889,0.3137553,1.1573895,1.9402109,-2.778306,-1.2823282,-0.15428129,-2.833556,-0.54470795,0.8890435
<■0■CnuakUVRZzrtYNrqfKQieHMHyuRJAnkQ>,0.6437889,0.39325717,1.2980095,-1.0522645,-1.0085526,0.26045743,1.6656514,0.09551274,0.668695,1.2815692,2.1449683,2.4960244,0.55599576,1.2194216,-0.99944675,0.7979646,-0.9620168,1.048019,-0.15513761,-0.8048697,2.0093384,-2.597636,-1.1574497,0.18837953,0.078647576,0.8388644,-0.31161878,0.4647786,-0.38339597,-2.107405,-1.5442506,2.3672752
<■1■daGJmYxSmIaliByCSdYNKUALESZEtmZG>,-0.3232702,-0.9489508,-2.6229692,-0.14277215,0.23549679,1.3969188,-1.0732102,0.9845128,-1.6591057,-1.1519494,-0.4255449,1.3261967,-0.8857425,-1.1006628,-0.16376054,1.0132276,0.0118236,2.4820073,-0.37810552,3.2311282,0.22832468,0.050790336,-1.3549389,2.089027,-0.68779695,0.7409198,0.2490021,-0.0012556501,0.10906499,1.6046602,-2.5208967,-0.2255565
<■0■nWzGdpcTSkrqJjghMJHRZNGUzDwjspNs>,1.6469259,-2.3061512,0.9021303,-1.3486469,1.6643105,2.07349,-0.5464164,0.93990976,-1.186384,0.3890693,0.63024014,0.7665271,2.0029633,-2.0532777,-1.208978,2.3105812,0.7020523,1.6579182,-0.21256392,0.858983,2.6037016,-0.21995051,-0.03990373,-0.58182454,0.49283603,1.0429542,0.96421313,1.4936827,-1.1607313,-0.3900677,-2.6273396,0.5222037
<■1■QfBXrpEqnJkITBJeKffKSFBnQzVoCHLH>,2.5869887,0.65825176,0.4790074,-2.0990803,-0.07088374,2.023782,0.6993611,0.20018065,1.1793748,1.0902909,-1.031246,2.3588958,0.27082962,-1.530966,-0.43021366,1.6875151,-1.3205866,1.7747966,0.32849774,0.22528225,2.088969,0.6468949,0.051736057,2.0343838,-0.06743181,0.54547364,-0.3425332,0.4155905,1.0545474,2.305174,0.27775124,1.3810166
<■1■hYpaJTCGohyVYikxfnnBLunEUMTXOfAf>,-2.0355334,1.5626342,0.012607047,-1.088739,0.9659059,-0.3217626,-0.44939533,0.54257154,-0.70847356,0.83090603,-0.09776311,-0.099737145,0.76293474,-0.7053651,1.238495,1.5543756,-0.8018226,1.576815,-1.849782,0.7770925,-0.64254797,-2.0143893,-0.2837955,2.2951715,-0.06606078,-1.7657583,0.063334264,1.0984532,-2.7772162,1.0113257,-1.2470548,1.2943863
<■0■ZdvxGGsRJZgICfYfDrhkpDooEunMNMsz>,0.7595286,-2.5882766,-0.7929547,-1.5488888,-0.39928028,0.550779,0.38056773,1.8450671,-0.7812723,1.671755,1.0022738,-1.5153888,1.4930948,1.1105022,-0.30607396,1.4822856,2.9811695,1.5405676,-2.757821,4.2097464,-0.4915364,-1.13502,-0.008253833,0.78516144,3.0780358,0.13340585,1.0380548,-0.3705362,-0.38276115,1.0968418,0.2741018,2.5429525
<■0■sKNjaNzgyxTLBftcuUQCtSBuipZSQggG>,-1.0043724,-0.023417607,-1.5798438,-1.7069423,0.004898345,3.710583,0.27917686,0.93701184,-0.470682,0.4588464,0.058160547,-0.4163232,0.6057983,-1.5086564,-0.08492756,0.4104742,0.3987061,1.7159419,-1.5752221,-0.98286444,0.21925607,0.32164314,0.9198756,2.137211,2.2862206,1.4713231,-1.8549132,-0.60444206,-0.31904048,-0.8605707,0.44687733,-1.434271
<■0■UtnAaKDHsveKzrxogngJdmnUDiovDeHt>,0.77304614,1.8096046,-1.4193531,0.39162213,0.6632489,0.06452203,-0.89181894,0.00082549907,-0.31997064,-0.16940616,-2.9898248,0.69250643,0.8699911,-2.7675378,1.7218338,1.0813814,1.0723455,0.5081962,-0.83805996,3.3860514,1.3791333,-2.8490772,-1.5680829,1.238017,-0.0930484,-0.33579907,-0.5913676,1.163453,-1.5639672,0.55485284,-0.060672615,0.47093484
<■0■YTAEUaanedjrQNCMocLjNPFYOiYnjbgw>,0.014760712,-1.303117,0.23970528,-2.5159144,-1.6482774,2.8978913,1.5323519,0.5820855,-0.4490855,-0.040475346,-1.2567042,-0.3529548,0.7849002,-0.6399807,-1.3453747,0.79015595,-2.4685116,0.9152606,-1.2064855,1.096381,-0.15781532,-2.4498024,-0.43867448,0.8809763,0.31455085,-2.1286304,-1.1317941,-0.43593603,-1.4326835,-1.3976744,-0.2945679,0.4680382
<■1■ZyhPKqSVBBnKylofJKkXjacGYrJbRRcR>,0.82838964,2.0671856,0.9906442,0.5675431,1.2981381,-0.17498542,3.3252485,0.5923946,2.1833699,0.8051039,-0.43788838,1.319117,0.26635438,-2.2477028,-2.5949974,0.46774855,0.69229424,0.79058504,-1.348588,2.612391,0.61896265,-1.5557454,1.4138607,1.1794157,0.56564033,-0.0006597098,1.6673133,1.438383,-2.154757,2.5705729,-0.8286195,1.7837709
<■0■DDwjUORbBMJyAmJzWWBqMXkQjwNRofKQ>,-1.842512,-0.29074833,-1.4694971,-0.3389334,1.1216072,0.50834453,0.75635433,-0.55838567,0.17625268,0.70268184,-1.3695867,0.37614438,2.0356522,-0.8673138,-0.6322153,2.7770758,-0.3245594,2.4439123,0.3180743,0.9331736,0.86242396,-0.2068609,0.21676368,0.42742556,-0.1716677,0.92257375,-1.0284568,-0.026165195,-4.1616716,-1.7957351,-2.0696263,1.7294427
<■1■edrvalDxCXNJRMUtxwywJqSfzYacMCUV>,-1.4619521,1.6370653,-1.184163,-1.1889939,0.2869715,3.0234642,-1.13356,1.0768096,0.70153266,0.48988664,-3.5320997,0.789838,-0.8040372,2.0221226,-0.8897648,-0.51169693,-0.37785596,1.5100142,-0.32111183,0.6512083,0.15864788,-1.3114021,0.25037226,-1.3394554,-0.20713432,2.0521188,1.8789644,-1.2897916,1.2785565,0.22410122,-1.3198674,1.3751465
<■0■zINZdDuUMtnKWiYbFVUGLUzFBzUDUSdA>,-0.9490679,-0.15888876,-3.9120178,-2.2777662,1.6520524,4.8689137,3.6483095,2.3126647,1.09484,0.2806352,-1.7801583,1.8538519,-1.1097178,2.159393,-1.456795,3.165598,0.5671175,5.4407654,-2.3138475,4.7214007,2.803083,-3.4683752,-4.158788,1.5065011,4.8049273,2.1670287,0.87139326,0.8432357,-3.1160073,-1.3250006,-0.44156227,2.3074462
<■1■YGlWvhyLVXpxjjtxDATfcRgmtauJPNko>,-1.1227162,3.7612348,-3.816825,-4.787238,2.0892658,4.982703,2.24598,2.1532767,1.1805499,-0.2545828,-0.9649835,0.8020655,-0.23206863,2.4208312,-0.3729183,2.4393656,-1.5517612,3.5149143,-1.480345,5.034753,3.921745,-2.8486967,-2.3059475,3.1984708,4.5880365,2.7759829,1.9268994,0.84357744,-3.0685396,-0.25386247,0.17275433,2.3306623
<■0■JgQZgVHXOPlPXuEVgOYMjTPgrWyaRUrD>,0.33028576,0.13786978,-3.1158762,-1.9192506,-1.5545939,-0.35473964,2.0398707,2.4296944,-0.71524686,0.51766837,-1.9122462,-0.3160402,1.131644,1.5817584,-0.96044225,0.034203753,-0.8501483,-0.66521436,-0.16929778,3.0896976,1.8213465,-0.33175546,1.2360376,0.774257,-0.65841734,-1.991256,0.6687645,-0.3277699,-0.4336004,0.67149687,-1.4467607,0.15749376
<■0■meNpBIdLNTCBwEvXujqctHnoKcZyugJK>,0.13337478,0.4641288,-3.1791408,-0.086813375,0.3110464,5.742838,3.797505,1.0223981,-0.9437295,1.746248,-1.7522804,-0.15298828,-0.5046095,0.3826434,-1.2993654,3.9168186,-0.66992164,3.4267936,-2.6792176,5.605913,4.1573176,-1.0486617,-1.5155945,4.303149,1.999545,1.2600678,1.942906,1.4071051,-3.9619296,0.5717053,-0.6197812,3.6873658
<■1■NuQjvgYRkzBUvNREnwYLkvuWJiAnxSxQ>,0.8622445,2.5704381,-2.6231792,-1.4552692,0.05722033,4.6904473,4.4273257,-0.9435641,2.1320512,1.7808518,-2.2211308,2.929667,-0.43678743,2.4834707,-1.55948,4.4112253,-0.5115265,3.4759207,-2.972143,6.967697,3.2431958,-3.7470064,-1.4837062,2.3286455,2.0461187,2.5390663,2.088801,1.2251484,-2.8781993,1.3636779,-1.6998771,2.0074286
<■0■ekyTLhkGDNfHKKsbWWVBUHbSXgeBdPTm>,-0.47509587,1.2134207,-3.6485023,-2.046179,0.14730431,7.1645474,2.157152,3.0185766,1.0700209,-0.2529275,-0.91655695,3.4901483,-0.88922065,0.54347384,-0.77795666,4.168847,-0.93693864,3.1334426,-2.8792133,4.990411,4.364103,-2.4920952,-1.7390041,1.0865241,1.6415732,1.8885492,1.4456843,2.0387244,-3.026667,0.36693352,-0.8308586,-0.55006206
<■0■JZVwuaycISxhjXCyLfwHgwQhxefRGbNo>,-1.5675008,1.6726336,-2.937626,-2.9283962,0.13747658,6.38037,3.3634975,1.1166102,-0.2518972,-1.636747,-1.7343628,1.887081,-0.8053744,-0.20420355,-1.3198986,4.4161386,-0.22682756,3.5096846,-3.1543574,5.3117847,4.2831616,-3.7100608,-2.7005072,0.94004273,2.2413764,2.3873553,0.50591046,-0.31422913,-3.974952,-2.0884871,-0.31950644,1.3412149
<■1■nupQKWLQCTlulpLIyWrBgdwBxVTDlGTx>,-3.555931,3.014987,-5.9575357,-5.25919,3.3074107,10.011185,5.694239,3.1937687,1.6556418,0.8744825,-3.1881766,3.166737,0.14932548,1.9562508,-3.1994069,5.495835,-0.67211217,6.1371946,-4.0329766,10.264913,5.954932,-4.699216,-4.922139,2.7734075,5.9115086,3.7653403,1.1359147,0.5188547,-6.0018935,-1.4384524,-0.593345,2.8886533
<■1■JuQwihyQNgrYtWPhmyvTkCrDiHmMcPvO>,0.50285643,-0.35356426,1.1984848,-0.42224157,0.29943088,1.6608278,2.713921,-0.7491535,0.88466734,1.4035956,-0.03434233,0.14354791,1.3118608,2.6215594,0.49480844,3.034578,0.52539796,1.864579,-0.16305853,-0.4708338,1.3762137,-0.67714906,1.2289977,0.34271112,1.7032264,2.6238706,0.64173347,-0.2203976,-1.8999863,-0.95813656,1.0219393,-0.29334047
<■1■aOCVKheoRVPTkRQBHMRcvQRnlOvDbwJW>,-1.6664392,1.3242494,-0.45954958,-2.202396,-0.33052567,0.9916458,1.1142108,-1.6079806,-0.8119492,0.92812145,-3.0614994,1.8963794,0.26888055,-1.728976,-0.27787268,1.6250784,0.36681047,0.49284858,-0.6189447,-1.1215388,2.4728806,-0.60620224,1.0707837,2.1914492,-0.7105917,-0.74434865,1.3013538,-1.7579427,-1.3543446,-2.0018973,-1.2372711,-1.9392931
<■0■fvPszPXGlYvlMlBDExIFzEICgXCqbAzG>,1.4576437,1.1026644,0.1825234,0.18219332,1.7154068,0.8341944,-0.8993068,0.57600665,0.7132635,0.196254,0.9685773,1.6279389,-0.7037818,2.0966318,-0.82335603,1.8254284,1.0103168,3.5398955,-1.5763491,-0.1350587,2.0814898,1.7625425,-2.5372686,0.022234632,-1.1876379,0.87628907,-1.0456161,0.7592458,-0.44056547,-1.9607375,0.96006435,2.3955774
<■1■TIbGLguzoETqTMdijRNzShtAcBlVcFeM>,1.0875584,1.5083436,-1.5185255,0.5109201,1.3348312,-0.008048277,2.132773,-0.8574907,2.2009804,0.37873888,0.354394,0.6732327,-0.033310544,-0.13258521,2.15868,2.5907962,-1.7389933,0.6113996,-0.7880489,-0.05475508,2.274452,-0.6758728,-1.0518479,-0.6515378,1.0725037,0.24609606,-1.9040254,-0.64009035,-1.740456,-0.584916,-2.9273317,2.6375403
<■0■ObYLbbxSPQHJuQZvQWlFdWzsOIVmIhYA>,-0.32881805,0.07750298,-1.3688284,-0.24860519,0.38020393,0.48424128,0.6422075,1.3268569,0.5954798,1.5390335,-0.1628701,-1.4134892,-2.7262821,-2.0313466,-0.7020899,0.22886682,1.7053457,-0.9130617,-0.853791,2.6462257,1.8046322,-1.9110676,-0.16177097,-0.6539354,0.8880017,0.95271885,1.0599566,0.97950673,0.39025164,-0.17734437,1.2870933,1.6035478
<■0■lyRkytcOEudLgXUEPkkIrzGhDRwVPWRh>,-0.8030603,1.5335811,-0.56846935,-0.017006423,-0.63202965,3.1674857,1.4656336,0.20240492,-1.2901919,-1.751305,-0.4726729,1.2718216,-0.85061574,0.36703777,-0.68797135,0.65837044,-0.4927386,0.108538456,-2.836267,-0.7948849,-1.8779624,-1.5284122,0.7370558,1.766454,0.9943683,-0.6280325,0.3206736,0.2949343,-2.1655817,1.2562877,-0.21549137,-0.097239636
<■0■BxngfMnQdmSKjtKIUfTqoRyXWEGjxIry>,-0.13681638,0.9652591,0.316646,-4.1028285,0.13577259,2.5130322,-0.94540673,-0.8791128,-1.3688875,-0.39316872,0.110277146,-2.9338691,1.5152112,-0.37677583,0.3034472,-1.2810692,-0.8497421,1.7349669,-2.5598698,-0.19796646,-0.90857774,-0.31325245,-0.5883155,1.9648286,0.20977744,-0.043100853,0.32805207,-0.29608104,-3.6736083,-0.18822181,0.08338418,-0.19246414
<■1■oprJKzffwoKasgIgoBKFXqvvELPZwoOC>,1.0839934,1.0480967,1.5787848,-2.9923136,-1.1746453,0.40908206,2.361211,2.0417829,1.713203,-1.3399078,1.0510174,-0.21570548,0.85579485,-0.52125883,-2.5316188,0.6805025,-0.5759106,2.0764477,-0.52549213,0.62193733,0.18662284,-0.6635594,-1.3683724,1.4157457,1.277749,2.2204072,0.5830163,1.9161701,-1.1449504,0.017152026,-1.824965,-0.6665173
<■1■hjKeGZEFzPDiFnUkIxisjMUnhWlMPVNG>,-0.8907722,0.9213824,-0.66116405,1.038404,-1.6108316,3.3209884,0.71692735,-0.30058104,0.061387766,-0.2584539,-0.20085184,0.19184269,-3.4709773,-0.52104676,0.9316002,1.4004953,-1.1056485,-0.03340036,0.19219461,-0.38375995,0.26279002,-0.8522842,-0.07223278,0.99669236,3.4210105,0.93804353,0.3665325,-1.304724,-0.7550295,0.18217729,1.1370375,-1.633729
<■1■aCXfHEXuhPlECjUsbNTgoiahAjchzPAc>,-0.9394002,-1.5235904,0.06950904,-2.154134,0.261374,1.3461801,1.1652097,-0.50996,-1.4390572,1.5851463,-2.9730496,2.3545299,0.03893612,-0.2713276,-0.23627247,-0.98195827,1.9795595,0.8016803,-1.30205,0.37131223,1.8910563,-3.265576,-0.23178884,0.9340868,1.0345038,0.8889291,0.33617714,2.23273,-1.2850711,-2.494781,-2.0119944,1.8163277
<■0■ccTyvzmVzgFeXIgWncSShAmxCzAMgmPa>,0.66986936,0.010013527,-1.6193228,-0.37756598,0.44981438,3.202241,2.680257,0.3352684,0.4711326,2.2566946,-0.30753028,0.6271792,-0.25496978,0.5799094,-0.67898536,2.1632087,0.45375013,0.16635947,0.49302337,-0.1887457,-2.4557688,-0.8641725,-2.8313959,-1.1933335,1.418592,-1.4313699,1.6240304,-0.98567265,-1.0709718,0.9819158,1.4357793,-1.0440034
<■0■SrrcriBArwUvfbSitWEHldzGqapnDyfV>,-1.5481658,1.3297579,0.34660333,-1.4984071,0.22189319,1.2660934,0.7097185,-1.2610521,1.900403,-2.0303054,1.6476564,-0.06759728,-1.3728281,0.9023245,-0.07587946,2.8415868,0.5071431,1.1858362,1.5624357,2.4158287,0.041696,1.3801515,0.26720533,-0.26835817,0.3377959,0.9226417,-1.5416809,-0.6937865,-2.3888836,-1.2667115,-1.3887854,0.4591022
<■0■bGCbAJMWndkxVnKhHzLhWSdVSqxNMilb>,-1.4144907,-0.5038243,-1.4649476,-0.8890343,0.12951037,1.6210766,2.313986,-1.6148876,0.8043709,1.9364663,-0.7229478,0.36643553,1.0138936,-0.94549024,1.7088323,0.83185685,1.3904977,1.1754746,0.118620254,1.8096255,0.5679849,-1.5119245,0.2316301,-2.5766852,0.983966,-0.19855374,0.23921466,1.2094972,-1.6281664,-0.35676563,-1.4691377,-0.5728699
<■1■CqHGFQTXSTqwwGkjDOPoxpsamBJilSSF>,-0.9686215,0.66219735,-1.1781942,-1.254366,0.7943089,-1.0786995,0.08864901,-0.9250149,-0.45733804,0.23772864,0.38765332,0.49349314,0.92871237,2.6597075,-2.239378,-0.8481131,0.122307226,2.554649,-0.7049758,0.066058785,-0.9273167,-2.107436,-1.8833691,0.94267696,0.6598648,-1.8191514,1.2026496,0.56530744,-2.746052,-2.6629267,-0.32890537,0.09667475
<■1■HbQzLCRsqrEpMPCJkBzoQFOlUKtcMvUd>,-1.1200464,-1.2632636,-1.681682,-1.0288969,-1.5323175,-0.28331053,0.5340453,-1.343494,1.052268,2.7623937,-0.99209195,-0.9373331,0.2050352,-0.3874323,-1.4889553,0.27801475,-1.6278985,0.7591555,-0.7931389,2.0680313,2.5720754,-1.0252681,-0.76282936,0.8742552,0.36201498,2.4281883,1.589043,-0.2508404,-0.29404652,1.1097975,-1.4028921,-1.4284607
<■1■pfBCLDdbFHQhqKjtXbRVsuSlHRgqENil>,-1.3266745,0.9676662,-3.0442548,-0.8198767,0.39680862,2.2936616,1.9457526,1.2714319,-1.9223597,-0.19859342,-0.1364015,-1.0842628,-1.600882,-0.539308,-0.9289001,-1.0389,-2.764541,-1.2065231,2.1648993,1.9558611,0.4452799,-0.044843264,-1.4977161,1.6810392,0.84278095,0.19931726,2.3610458,-0.17457822,1.3228115,-1.9695773,-0.09978941,0.30682835
<■0■jUIGLsRvLoCKekhFODdDwqsFnZtgydAD>,-0.45713824,2.1897018,-0.32416147,-2.6089919,-1.5298315,0.5542836,1.2800676,1.7940494,2.725685,0.034109555,1.1531492,-0.2093255,-0.4759361,-0.48491773,1.2402731,0.7347536,-0.1220426,1.1407168,0.7618525,-0.18418609,1.4578695,-0.7391199,-0.27104712,0.051526427,-0.024025684,1.6604555,1.3194969,1.7270623,-1.9543202,-0.56682205,-0.29028302,-1.5622393
<■1■EUVFqTKeGAJbByvGEavsBNwOymDBiKiR>,-0.63750905,0.34510273,-3.1055548,-1.365332,-0.4499061,2.9949417,1.0719771,0.9792374,1.2113943,-1.4690274,0.019960403,-0.7107649,0.085605934,1.2871565,-0.7068078,0.09659398,1.9480603,1.577045,1.2101495,1.5156069,-0.7807854,-1.0469899,1.3659798,1.35306,0.1813883,0.3978812,0.97223306,0.28527436,0.52813685,-2.9769113,1.1713823,-0.65981114
<■1■netpWRXrXhQCldPreWXbmCygWNaLWIAz>,-0.40404123,-0.98549044,-1.7624192,-1.4979583,-1.4731082,1.3222198,1.0047214,0.87293494,0.19922647,0.9571599,-0.72743386,1.0242281,-1.1968545,-0.8037249,-1.1344851,1.8012892,0.5633603,-0.9455071,0.6275841,1.4119325,1.8073468,-0.89602983,-3.2904758,1.2826047,-0.79081684,-0.62169296,0.6146095,1.6108786,0.69737977,-0.75119483,0.4359222,0.70602465
