,0,1,2,3,4,5,6,7,8,9,10,11,12,13,14,15,16,17,18,19,20,21,22,23,24,25,26,27,28,29,30,31
<http://prop.org/NQ>,4.3399897,1.506511,-1.3778635,5.7092605,-4.4486136,0.5149464,-1.248242,-1.088091,0.034169566,-0.020962315,-3.465719,0.38116685,2.8445241,0.10252968,-0.85640126,-0.5687537,-4.6785774,0.82576644,-0.7616565,-2.600612,0.9429289,-0.03432251,0.99810314,-1.4656626,-1.6822076,-2.540372,1.4955618,0.94492155,0.33629727,5.0501413,0.7391885,-3.6329217
<http://prop.org/yk>,4.416431,-1.5411907,-2.5465906,1.1115115,-3.3201137,0.021122988,-0.80901855,3.2065856,-1.389466,1.1354656,1.2897552,3.6797354,1.8399717,-0.6685871,1.2718062,-2.7617273,0.6274264,-2.1626694,1.610653,-0.06831264,0.2148774,3.0842352,3.2311456,2.3594031,2.1728823,5.3532677,1.731143,-6.248999,1.015073,5.1971564,-0.07361019,-1.6676491
<http://prop.org/Yj>,-1.1087357,-3.482169,0.5199222,1.4828941,-0.66462547,1.284661,-1.5531567,1.1825405,0.7687717,-0.4870327,-1.2793922,-0.1899232,4.3522506,0.7264968,1.8826251,0.8756345,0.22911254,-1.7683364,-1.9090312,-0.36929366,0.22327115,-0.91069895,1.9187295,1.6914535,-0.90920204,0.81989384,-1.172836,0.53812826,-0.110736,-0.70736814,-0.5569216,-0.8076662
<http://prop.org/PC>,-0.9113245,0.5056175,2.0478437,-2.1455696,-0.28536823,0.5374467,1.5774329,-1.9933993,-2.3311236,1.5155746,-0.023190005,0.6605772,1.9469106,-1.036937,-0.9954624,-2.3447273,1.1146708,1.7574763,0.21751851,0.23286268,-1.0768096,-1.9436983,0.81988496,-2.1275845,2.685339,0.91524523,-1.2649181,-0.32482636,-4.103976,-1.4129509,2.833748,1.1975187
<http://prop.org/hL>,0.529855,-0.3117402,2.1206756,1.6078106,-0.014921013,-4.8268466,-2.5488608,0.4873654,2.59815,-3.1268566,-3.1578143,0.2366984,-4.478154,-1.7904831,2.192735,-3.9166737,-1.8103578,3.4301758,-0.9600534,0.9972566,4.2995143,-2.7241092,1.826119,2.731517,-3.0348365,-0.055468973,-0.6385943,-1.1105144,1.7309586,-0.3414512,-0.38875836,-3.4391487
<http://prop.org/nd>,0.88987046,-1.3206581,1.4720645,4.872059,0.3922976,-2.882737,1.6379412,2.8044748,-2.9813282,3.3229623,-0.7405358,-1.021621,0.48853198,2.4476936,1.4734477,0.1883127,-0.6859123,0.19138467,-1.3044106,-0.42763853,0.05217217,0.14315046,2.6692948,2.5469062,0.29843014,2.004833,-0.767506,-1.6397424,-4.3598847,-2.2249105,-1.0223227,1.899605
<http://prop.org/Tr>,0.18158442,-1.109947,-0.8254905,0.62876505,-1.6985786,1.6330644,-1.7439601,2.9428372,2.9936142,-1.6807956,-0.44825217,-0.39368865,4.2582684,0.4110803,-0.38743198,-5.288527,0.4336101,-2.1603072,-1.2981861,2.3147218,2.6689618,-0.14766072,-1.1165296,4.364667,0.4716485,-3.3092341,-0.16728918,0.53400093,2.078351,-0.8696138,2.899825,-2.7735636
<http://prop.org/VD>,0.89098,-0.021277161,1.4243888,4.5230007,0.27072743,1.7917088,-0.44845793,0.48808733,1.5515517,3.8588688,1.3182985,-1.5623164,-1.1592696,3.1880298,2.621359,-3.3849552,0.18051626,3.7734575,1.6193805,-4.2912397,3.8821785,-2.9393446,2.7784266,-0.04325412,3.1072056,-1.5904496,0.8017925,-1.9296237,1.9155347,1.1157465,0.7171696,2.217202
<http://prop.org/zW>,-0.46646562,-2.2162735,0.25594255,-0.33666402,0.46804407,1.1983578,2.5460324,1.2082839,2.177399,-0.36241093,-2.651094,3.3247492,0.23195726,2.0587704,-1.0301077,-1.1645031,-1.32187,-1.4571122,-1.748311,0.61569715,-1.6215203,-1.2135168,-0.98051465,-0.6065189,-0.72329146,-1.5158414,-1.7082994,-1.0291793,0.19163929,2.0093617,0.6925163,0.5250183
<http://prop.org/pJ>,-1.7380095,1.7522752,2.2065477,2.9018886,-6.5292435,1.3550861,-0.4941185,-1.0848498,4.749646,-2.8915002,-3.9504678,-1.8805972,-3.9202797,-1.8230622,2.74162,-0.2847407,-0.6826641,1.7452989,-0.23780277,-0.6721485,-0.50487673,-0.76997906,-0.61715126,0.042122707,4.670078,-0.47363767,-1.2095994,-3.96727,-0.90736717,3.6402276,0.2721077,-0.14834246
<http://prop.org/Mo>,1.1399293,0.570183,-0.8721255,0.19815768,1.4801447,2.7550676,-1.108076,-1.4924992,1.7662485,-1.808862,-1.7361174,0.87187266,3.9181416,1.9533561,0.6930912,3.7601748,-2.34877,0.8117177,-2.8768237,-1.6932297,0.6803909,-2.9974253,0.6726285,-2.068817,-2.6464283,0.36690387,-3.2325506,1.5328016,1.7919338,1.1683483,0.9268298,-2.6614032
<http://prop.org/kC>,0.15280065,1.3612854,1.0684057,2.6355073,-2.075205,2.9498959,1.2700096,-1.8365383,-0.89010286,2.8339813,-2.1695082,0.0911279,1.7627292,-0.039835725,1.79404,1.3078121,-2.1914337,4.447181,0.056259006,-0.53988284,-0.76421916,1.2563664,-1.0199584,-3.5212054,2.75992,3.0324824,-1.9580088,1.2293463,-3.5217187,-1.9876992,1.8099989,-2.0856664
<http://prop.org/DG>,1.9102638,-2.653056,3.745266,3.980424,-5.1235695,-1.1860596,-2.4845517,-0.12169323,2.2410657,1.2386149,-0.5270807,0.8271259,-3.4685633,-1.8506219,0.041238382,-3.862168,-2.8394735,-0.9929244,0.17126483,-4.561724,-4.196089,3.8605604,-2.9719255,-1.223629,-0.33702433,1.1113888,-2.980992,4.5841155,-4.136221,0.31273884,2.9317412,-1.7434903
<http://prop.org/jz>,0.59830433,0.9339265,0.43623543,-0.23683926,-1.8596145,0.6856393,-0.76911664,2.5951734,-0.0131715685,-0.42278594,-1.3009816,1.6420499,-1.0416832,-2.288797,0.7711338,-2.0104935,-3.8619921,-2.5116758,1.374227,-3.1356168,0.15690088,3.2611072,-2.7520502,-1.1353229,0.37628478,2.213929,2.7662694,-1.9566263,-1.3022271,0.587513,-2.0458887,0.05659277
<http://prop.org/jg>,0.17412443,-3.062542,1.72088,-0.1932387,-4.7224393,-2.6120498,2.307647,1.5535364,-2.0476773,2.8130672,-0.3171251,-2.4811168,2.9080334,3.1467862,3.2053976,0.14683002,-0.04817592,1.8485836,-4.027684,3.2840774,-4.03951,0.43883476,0.4593336,0.9867775,1.5487787,0.75190336,-0.4147978,2.2967768,0.30227408,0.10633016,-0.87972116,-2.7306728
<http://prop.org/iR>,-1.5718225,-2.5694702,0.04661244,-4.0296226,-1.9013901,-1.3030074,2.0904105,1.3756843,0.069874965,1.7199419,0.22878712,-3.8694122,4.0623784,1.7432666,0.91483,2.9780478,0.48665425,-0.758223,-3.420642,2.2858257,-0.938476,-3.3874028,0.19743326,1.6641164,1.653123,-0.4591848,0.5645247,0.9041759,3.1177766,-0.57069516,-3.062104,-2.4174051
<http://prop.org/gY>,2.247938,0.035347655,1.9518819,-0.80421734,1.4641128,-0.91774565,-3.2258945,0.77311504,1.6587242,1.8584406,-0.7184926,2.1819515,2.4365041,-0.5641279,-1.8022271,1.6044451,-1.2996241,-1.7584807,0.27427948,0.2686713,1.4629769,-1.6784964,0.6930985,-1.2134947,1.9121118,-2.1628165,2.0004494,-1.599524,0.4146131,0.6599791,-3.7513258,-0.23751575
<http://prop.org/xk>,-1.19667,-0.5965568,-3.6281805,-5.174932,-2.7394733,4.2509394,-0.17762439,0.5172826,-3.181999,-4.023077,1.7440178,-1.7948354,3.8687947,2.2257624,-0.9954718,-1.4939305,1.3395883,-2.7842443,-3.118097,-2.1105561,4.5930643,0.41119903,-2.3172815,-1.2203318,2.7950137,-1.8208016,1.369022,-2.0718777,1.1338874,-4.6931887,-0.38520715,2.023063
<http://prop.org/DD>,-2.1848137,1.9545734,-1.223384,-1.221098,1.3600911,4.8215966,0.7768337,-2.5235767,0.4643856,1.4958593,-1.4558548,0.33727938,2.5766335,-1.8538908,-0.13827932,4.3257093,-1.6738594,2.2096443,1.5467215,-2.0587513,1.5476155,-3.03658,-1.2751558,-2.0968766,3.6577282,0.97325283,-1.7949784,-0.46364802,-0.70659703,-2.9060931,0.44430235,-1.5289911
<http://prop.org/xT>,-0.9772716,1.7574254,-1.5799897,0.18758038,-3.921967,5.438509,-0.6224096,-1.7768786,2.484173,-4.4648595,-0.9416882,2.2077236,1.6336995,-2.1345592,-5.124957,-0.5182531,-0.90092665,-1.3706845,-2.8481283,-0.4560618,2.976096,-1.3329232,3.0272963,3.1454809,0.55515975,1.0638636,3.0289137,-6.25567,3.7813716,1.357733,-0.64417166,-0.96008015
<http://prop.org/iu>,1.9556645,0.6652815,1.8637284,0.3964266,-0.89052737,2.315375,-1.7661393,-0.35223067,1.1804893,-1.533901,-0.0891281,-3.0930161,1.2183753,-2.3992593,-0.6389796,-1.6424962,-0.10972644,-1.7013029,-1.6347034,0.6427525,1.5192246,-2.1457105,-0.20788902,-1.0414077,-0.43307072,-1.999001,-0.28300133,0.29892135,-2.7921293,-0.11462671,-3.9451745,-0.4198411
<http://prop.org/xu>,1.2119728,0.65180445,-3.6058896,-2.9928184,1.6604266,1.865584,-2.3839853,0.804442,2.8368852,-1.1555767,-3.151519,-3.3228862,4.4718714,-0.27686727,-1.2668408,-0.5215317,-0.64992017,-4.311923,0.30141264,-5.473658,5.818495,-0.05984614,1.0806361,0.7117263,1.2718195,0.31435248,0.19835016,-2.260948,-0.15959996,0.5764517,-2.3636453,-2.9263613
<http://prop.org/Un>,-2.3930125,1.5150162,-1.0383246,-1.0686693,1.4149129,5.1196837,0.1823746,-1.9424903,-0.12016956,2.571545,-1.3285818,0.7809169,1.5189682,-2.125356,-0.1226517,4.2717495,-1.4128313,1.7234808,1.2104844,-2.7370389,1.5008733,-2.424913,-1.0587288,-2.3440833,3.5001092,1.1672456,-2.4587524,-0.24784023,-0.45554727,-3.39769,0.6487265,-2.9047072
<http://prop.org/Bw>,1.8918843,-1.1262686,0.56605685,-2.830953,2.134949,1.0565375,0.16751072,0.93265206,1.3299395,1.2161589,2.2505987,3.4643815,0.33406413,1.2766747,-0.14664178,0.5025132,2.4612873,-4.279603,-0.081802346,-0.37993485,-0.23391947,-0.42780256,1.8922391,0.3856486,-1.026873,0.75253624,-2.47138,-3.4600627,3.147674,2.0325963,-5.162091,-1.0199075
<http://prop.org/gM>,-1.7122831,1.6043391,-3.3659558,-1.7464063,-0.8048345,2.3242896,-0.46826386,-0.6912371,2.8627453,-0.16150498,-3.6470091,2.5829391,0.4046095,-0.82684416,-2.1905818,-0.3631826,-3.2846467,-1.0313348,-3.7215366,-4.608038,4.601307,-3.9448707,2.7818158,6.392998,1.1585878,1.0733415,-0.44587144,-2.516443,0.3575012,3.514846,-1.5169387,-0.47526985
<http://prop.org/Va>,-1.4437226,1.5507667,-0.4785252,-4.7520294,2.1833882,2.246596,-0.20118888,2.1154215,1.9298934,-1.5304118,-1.1237379,0.11125783,0.40072262,-2.2266352,-0.8058017,0.8572299,-3.9538429,-5.5415025,1.3404918,-3.9873788,3.2265866,-0.79212016,-3.0221062,-1.8192079,0.014787279,0.509887,4.287194,-3.4040158,2.397378,-0.39895234,-3.899646,0.1735376
<http://prop.org/zz>,0.5044149,1.5359768,1.2994646,-4.646302,1.6041334,1.4803689,-0.8027889,3.59944,3.8357098,1.3403407,-0.27416298,2.560495,-4.4356914,0.099439226,3.0786772,-1.3528764,1.1502743,1.8302572,2.1266532,-2.2344131,5.2969418,-4.078441,-0.7291941,0.2991015,-0.30922684,1.6686155,-3.4117992,-1.2175269,4.6655493,0.5107145,1.8327886,2.4676745
<http://prop.org/LB>,1.4227164,1.7457427,-0.23060618,1.1019651,1.0291034,-0.16188747,0.07061696,0.41492668,0.5698624,-2.278911,-0.4266899,-0.79749,1.4701673,1.702354,-1.3854084,-0.80510205,-0.8994857,-1.5001968,-0.59409404,-2.9620118,-2.6079175,-3.937459,-0.8124383,0.8604763,1.6465696,2.9934409,0.24493402,0.5632317,-0.77018225,2.1214335,-2.1122913,-2.9543233
<http://prop.org/YD>,1.7720032,0.31647858,-2.1729403,-0.48569822,-1.038897,2.7869608,-3.233284,-1.3883042,2.4605126,1.9278138,1.5263925,-2.2310007,-2.421294,-0.53419685,-2.855356,3.1375053,1.6914897,-3.8127635,1.3814281,0.48467243,-0.071661204,0.61605513,0.30499128,3.2873805,2.6446102,-3.2884138,3.7765758,-3.0091622,2.1601038,-0.7621317,2.9837852,-2.9649484
<http://prop.org/Fn>,-2.4838428,1.7177243,0.30448428,-4.320594,-0.38776758,-1.4602957,-4.159088,0.7084702,3.6234596,1.7820933,-2.1292114,0.20737968,-2.1241195,-0.16734685,-2.6014652,-0.6277892,-2.9987051,-5.8352513,3.1735785,-1.6347364,3.1962972,-3.9973834,-1.9126455,-3.5427723,4.068291,0.8829312,-1.1364447,-2.0656042,-1.2319465,-2.8829126,1.2897207,0.05180249
<http://prop.org/Xz>,0.16013567,-2.1920555,2.098527,0.022714444,-2.1767008,0.3756152,-2.7421558,-0.31711507,4.266396,0.14400937,0.28162363,-0.51457417,-2.2882886,-3.2782195,-2.325661,-1.0267735,-2.29425,-3.6016917,0.71732223,-5.5306606,-1.094782,0.051012598,-3.2280958,-0.57876414,-0.29827186,-0.120451696,-2.0327644,3.1966736,-1.373154,-0.5506136,0.7620517,-1.3967793
<http://prop.org/BK>,-2.903177,-2.1005924,0.8780692,-0.8843366,-0.61000633,2.3523655,-0.3001108,-2.146942,3.8493896,0.36769804,3.1398735,-4.9842625,2.5866725,-1.9957048,-3.445055,-2.5041409,1.4186597,-1.956815,5.415326,-2.3856432,3.5629656,-1.6022413,-4.2901754,4.562082,-0.3313752,1.5599593,-1.2343966,-1.049202,4.400021,-0.8995011,-0.41008994,-4.655234
<http://prop.org/ib>,-0.8773473,0.4171326,-0.91266346,0.041372135,1.3426917,0.5852088,1.4276664,2.9104135,0.3283558,0.56869286,-2.9838407,0.5566921,0.246506,-3.27513,1.060315,1.0419981,1.3657784,2.480834,1.7412702,-2.8442786,-1.6881573,-3.3684478,1.0270876,0.762177,-0.62678653,-0.5146544,1.8306041,-3.9964485,2.6743608,0.75279945,-1.4528332,-1.7678431
<http://prop.org/GM>,-2.1914408,-2.1290083,0.06957961,0.20731544,0.56945544,-1.0062599,-1.3647193,2.1766512,-1.0484161,0.94163746,-2.9577491,2.411815,-0.7469794,-0.20123698,-0.9441728,2.4102745,-3.0679946,0.21541934,2.275308,-2.5986633,2.185138,3.8262641,-1.2927601,1.0693611,2.2295072,-1.4261998,0.3060804,-2.1621609,-1.496663,1.9315404,-0.96118295,-0.9176038
<http://prop.org/zZ>,-1.3386402,-0.93939555,0.3829104,-0.8993232,0.9358197,0.008999643,-0.16649248,2.1761343,-0.3428576,1.5452536,-1.4939991,0.027951486,1.5876555,0.26587898,2.1616797,-1.4706409,0.22694077,-2.7891266,1.932686,-0.7860064,0.3890035,-1.9732473,1.5011672,0.246047,2.5622382,-1.6267381,-3.3626213,1.2761103,-2.4461439,-3.3091724,0.2255947,-0.842086
<http://prop.org/Ml>,-1.6189665,1.0352938,-0.6744553,0.9288191,-1.7998147,0.52822506,-0.25817248,1.3590087,0.80535793,-1.2615087,-2.0954916,0.46958065,1.0289859,-1.74669,-2.1622202,-0.8364693,-0.33208692,0.7644144,0.3143784,-1.0671859,-3.2084925,2.0505939,-1.5869015,-1.5829624,2.2045302,-3.5072935,1.3624763,-2.426977,3.3069491,-2.076179,-2.764063,1.5238472
<http://prop.org/TS>,-0.15321815,-1.5518651,0.33499,1.9114999,0.46054286,1.5679665,-1.0627631,1.3707007,-2.305038,-0.8887683,0.033050478,-0.75494313,2.279463,2.2809196,0.74354386,0.18000586,0.37833926,0.2434985,2.3050964,-1.4310198,-3.1683016,4.035976,0.8017831,4.814627,2.7053952,-1.9997231,-3.072185,-1.4961313,1.2183887,0.89463663,-3.3455815,-0.14921217
<http://prop.org/Gq>,0.8558281,-0.35721266,-0.073693894,-0.9497169,1.7605673,2.149825,-2.2926512,-0.2463193,0.18165794,1.0758905,-2.8885672,3.0412998,2.9366465,1.7936108,1.1565983,3.1141922,0.30175793,-0.2277111,-0.1672144,-3.114175,1.211871,-0.5851542,-0.39012504,-0.3694704,2.605729,-3.5403275,-4.6108108,0.6769184,0.4858169,-1.2760317,-1.0619898,-1.8724694
<http://prop.org/Yk>,2.774567,0.22373249,-0.30715075,-0.8998486,-0.30800164,-1.8711551,-3.9824903,0.78179395,0.67970026,-0.93886274,-3.1434898,1.1348343,1.5963296,-1.7301282,1.1711723,-1.4717969,-2.3435612,0.35472128,0.39965,-4.217206,-3.716495,1.8308582,-4.173771,2.0894825,3.867779,-1.7743973,-2.0516768,0.9897593,0.46953595,-1.2521032,-1.2784224,1.1853335
<http://prop.org/vc>,0.41473454,-1.7657909,-2.0519955,0.021220407,-2.9566956,-1.7577537,0.24980266,0.6579078,0.7379893,-3.1474535,-1.7649952,-0.57453686,4.07794,-2.983736,2.4449444,-1.5807654,3.686268,2.0988638,-0.1799209,-0.9847961,-1.8979859,0.51557,-3.8574903,-0.12284803,3.0865726,-4.2921486,-1.2624241,-0.1969111,-1.9765774,-1.2444748,-0.015387066,0.71913064
<http://prop.org/of>,2.6140966,-3.241647,-1.0128024,0.57394135,2.1270478,1.5358562,-2.501992,2.0846117,-0.8956053,1.4703455,-2.2043438,1.3936089,0.33426103,-0.17122059,-2.659705,2.3208108,1.3311858,-0.6210063,0.233276,-0.9898866,0.30819413,1.062875,-1.3355645,-1.4065368,2.135905,-2.1035607,0.75310004,-1.1891562,-0.13735612,0.73468393,-2.9684377,-0.8485968
<http://prop.org/AQ>,1.4132979,0.06845495,-0.39924604,2.217001,0.83586705,-3.3239806,-0.35330448,1.5780276,1.1108096,0.6876476,-1.7254516,-3.7996233,0.73133934,0.87508076,-0.41147777,0.042712536,-1.6110493,1.6033959,1.2044034,-0.45956567,1.6229355,1.014709,-0.48180392,-1.0890495,3.8749514,-2.2237813,-0.32948694,1.1526995,-1.7532607,0.57709813,-0.76569283,-2.0825377
<http://prop.org/Xx>,0.41764972,-1.7060906,-2.0409935,0.040552452,-2.9533634,-1.7560481,0.24049063,0.6496704,0.72115856,-3.2081065,-1.7729,-0.6539247,4.0867767,-3.0488908,2.4432118,-1.5123756,3.677884,2.0910087,-0.17909479,-0.97880304,-1.882284,0.5198198,-3.8943572,-0.079369746,3.1596568,-4.2860093,-1.2624618,-0.20707402,-1.9935471,-1.2329193,-0.017045064,0.7222488
<http://prop.org/dA>,-0.94051254,-1.1479942,-0.4796785,-1.3897833,-2.681289,0.52414095,-3.8484,2.3791518,3.2734733,-0.7661295,-3.8089705,0.77593434,2.5442257,-2.2481446,0.6153571,0.16500413,1.522493,0.41441175,0.17367046,-3.3274624,-1.0277646,-0.65223116,1.1395212,-0.6748869,0.9146184,-1.1278298,2.32779,-0.36318785,1.5850322,-2.4834948,1.2497679,0.037474353
<http://prop.org/Xd>,0.7671304,-2.5376372,-0.49513805,-0.11238373,2.336143,1.2418866,-1.9590403,2.1131437,-0.93100804,1.1320487,-1.0020055,1.7209936,-0.71680456,-0.8847116,-1.8241181,1.2141422,2.251296,-0.707191,0.14485885,-0.5237931,0.43902653,2.1546147,-0.016900785,-1.3675773,1.579037,-2.5005305,1.6700249,-0.69036806,-2.586064,0.7491643,-3.845111,-0.56533647
<http://prop.org/zm>,-1.7864491,-1.7356561,1.4639056,-0.29000708,-0.542866,0.26076904,0.10493279,-1.985088,-1.6027597,1.6321583,-4.405417,-1.6260844,2.6139102,0.40531105,-1.5688474,1.3838755,0.19824916,2.44491,3.6933973,-3.2134821,-0.32193244,2.0526705,1.7785237,0.45657304,4.7979827,-2.1109471,-0.7218477,2.561635,0.85324216,0.4612802,1.2273037,-0.61327666
<http://prop.org/sz>,-0.15703087,-1.5725372,0.34367707,1.9157286,0.46891093,1.5756464,-1.0626491,1.3446407,-2.3146248,-0.9235589,0.030048199,-0.7446315,2.3184838,2.2912953,0.74364704,0.128746,0.3743415,0.23777276,2.2870553,-1.4354838,-3.162142,3.9764662,0.7858521,4.789509,2.6114326,-2.0040307,-3.0803978,-1.5178095,1.2256407,0.88249195,-3.384322,-0.1475716
<http://prop.org/lQ>,-2.1870625,-2.1344266,0.06112246,0.21158364,0.55959713,-1.0114775,-1.371827,2.1740484,-1.0276232,0.95348084,-2.9897313,2.4008238,-0.7249167,-0.14325443,-0.94773734,2.4651692,-3.0808072,0.23069505,2.277308,-2.5902815,2.1957734,3.785899,-1.2951888,1.0652047,2.1980271,-1.4315501,0.2947456,-2.1612978,-1.4997684,1.9235525,-0.9757145,-0.89211595
<http://prop.org/ch>,3.0845096,-1.4309375,1.2727439,-1.4104774,-2.4228215,-2.246976,-1.1375946,1.8226763,2.7410288,-0.6546024,-0.08251786,-1.7381233,-0.87942916,-1.5262622,0.25771043,2.3659801,1.239434,0.36609098,0.10703433,-2.2181005,-2.5708055,-1.9212801,-0.72952676,0.75166076,1.9788986,-1.0472407,-3.559975,-2.5082674,0.52727294,0.54535097,-3.2785704,0.061695855
<http://prop.org/rB>,-1.9749783,-1.0110283,1.050775,1.3382542,0.6905064,2.5156786,-1.2662829,1.0627699,-2.052738,-0.98212284,-1.6065792,-1.0069644,2.0011065,-1.4224309,1.4220117,0.46927503,0.98110664,0.049918022,1.396363,-1.5393819,0.4321862,-2.3615036,0.039429672,0.2093176,2.470522,-1.4687943,-2.4000504,-0.5645412,0.9817364,-1.7790428,0.6799595,-1.4911735
<http://prop.org/xY>,0.3290813,-2.0207362,1.068209,1.4384221,0.20172642,2.4496584,-5.1897864,-0.9852167,2.5491476,-0.8608259,-1.3161907,4.5794153,1.118645,-2.479219,-0.5668302,-0.9170942,1.525151,1.1016617,0.92481405,-2.2144392,-0.36190438,-2.1043265,-0.7072488,1.7764627,2.18982,-3.2701225,-1.0345596,-0.7056098,0.48697552,-0.37810925,1.0326055,-0.76483804
<http://prop.org/Ac>,-1.0630593,-2.0452182,1.2755058,1.3504411,2.4648438,-0.8044296,-1.3139316,3.3125868,-0.52956206,1.7435063,-2.4017358,-1.0807341,1.1599466,-0.8279405,-0.99912375,2.0290458,-1.9244092,3.5630155,-0.13920715,-2.328543,-1.7264928,0.75426567,-0.15162508,3.1907222,5.3842874,-1.2613336,2.521133,0.9319912,-1.38471,-1.412818,-2.8330495,-0.77100915
<http://prop.org/He>,0.4054281,-0.9613005,0.6012147,-0.31178522,0.27396265,-2.6606138,2.1169727,0.4821986,0.24753714,-1.2396909,0.37213245,1.7352474,1.0991857,0.4780223,0.15677683,0.12483296,1.7006403,-2.9604952,-0.73721373,-0.11688995,-0.4574508,0.61161566,3.2585232,-1.5868655,1.3293456,0.28502825,-0.57121277,-2.5615036,-0.27970448,0.6579495,-4.353388,0.06734938
<http://prop.org/jQ>,-1.3367306,-3.6433332,-0.5794595,0.5402976,1.7558272,-1.2806863,0.7285173,0.8725995,2.5836208,-3.2667296,-4.2290783,1.0853859,-1.1869017,-0.8309684,-0.5321876,-2.3375647,-1.9303486,-1.2886237,0.23342857,0.97971725,-0.65156794,-1.8509903,-0.3022533,0.6941704,2.850085,-2.4977016,0.93289095,2.4085803,-0.023653775,-2.3332264,-2.2355478,-1.7088081
<http://prop.org/HI>,1.6823387,-0.29168844,2.2334902,1.0475937,-0.7326035,-1.4721301,-2.7262754,1.1584802,-0.029198859,1.8122917,-1.6532376,1.4090654,4.340546,1.1260945,3.0971434,-0.8263651,-1.9970964,-2.35756,0.4738415,-4.3347373,-0.43008724,0.5408476,-4.3641243,1.6583976,3.1419573,-3.3061085,-2.5472786,-0.6091238,2.2609928,-3.1409898,-0.07985055,-1.1047205
<http://prop.org/GJ>,-0.016617907,-1.9650465,0.11945749,-0.5041075,0.3477058,-2.911391,1.6937178,0.1624662,0.7357863,-0.9517023,0.32109144,2.1288435,1.4072014,0.62481457,-0.48922113,0.6106955,1.8284032,-4.1717963,-1.6098622,-0.77027404,-0.30692846,-0.610598,2.425946,-1.3184192,1.5102671,0.15903588,-1.5475168,-1.733038,-0.29538628,0.15342344,-4.0027823,-0.5741054
<http://prop.org/gL>,-0.59564,-0.88965935,-3.1963139,1.2195835,-0.90018094,2.4914858,-0.18814985,-1.1215717,-3.5924952,-1.1361463,-2.5576148,-2.1125302,0.10455617,-2.68779,1.7770236,-0.19327056,-4.0946875,3.02408,-5.4273577,-3.6353936,-4.5581713,0.077510655,1.7543246,3.4042337,-1.5905472,-1.792701,-3.478187,-2.0008159,2.7033498,-3.9033217,1.8343748,-1.2534373
<http://prop.org/zE>,-3.3841188,-1.1202099,-2.152518,4.4001884,-2.8025343,1.8599268,-0.29486737,4.9758067,-1.7065085,-1.7418634,-3.4155726,-1.6470928,1.0015912,-1.0053276,2.1240878,-0.18400215,0.3987785,-0.010697458,-0.70657295,-1.6702652,-1.1066386,1.2508041,-0.2625257,4.4090376,-0.9435605,0.71642435,0.38792762,-0.42174172,0.4273619,-1.7363588,5.4848742,0.04370583
<http://prop.org/dp>,-0.2332199,1.4086444,-0.68343097,1.3554119,0.16401288,0.27839082,-0.0833031,3.5017729,-2.8554778,2.0438864,-3.966775,1.0095422,-0.5418555,-2.9784942,2.4856555,4.9487686,0.34407207,0.6796325,-0.395312,-2.7969756,2.1822262,-4.1365056,2.2624555,3.3240411,3.7237153,-1.2647367,-1.1662815,-0.60448843,-4.612422,0.117173724,-0.013622413,-0.978887
<http://prop.org/DI>,1.8311214,-0.76061445,0.8599757,-2.5508552,-2.6692111,1.4361143,0.16032751,2.6138625,2.9064212,2.7879608,-2.9726121,1.0080943,1.7857744,1.5703778,-1.5396146,1.7756796,-1.5023792,-0.711746,-2.2158906,-2.4759662,0.7267784,-0.38250235,2.2453017,1.8543166,-0.062344644,4.034147,0.91735446,2.605502,2.5263224,-0.63867587,-0.09608776,-1.3518162
<http://prop.org/mW>,-2.016192,-1.2528275,0.0741101,-0.9046852,1.4682993,-3.1371224,-1.9754364,2.3547528,-1.4564924,1.8706295,-6.66867,1.1685114,-0.76088774,1.1777302,2.5582588,4.0500526,0.18701679,1.1511846,-3.0888755,-2.6439013,2.8672593,-2.068148,-1.6912836,4.197466,0.130649,-0.77052784,0.13535212,0.9000422,1.8314776,-1.2446586,-1.3666329,-1.286068
<http://prop.org/Km>,-0.52038383,2.2113132,2.22416,-1.6661232,1.1541771,2.0546393,2.0358074,1.5797849,-0.73648155,-3.1157691,-1.2380431,3.117123,1.5831226,-0.95095336,1.3331385,0.047400437,-1.8376641,-1.539386,-0.8670359,-0.6774146,-0.32458127,1.5472312,0.37966093,-1.2604105,-2.2030911,-0.35028085,2.145256,-2.655497,0.14755546,0.9682297,-1.606329,-0.5611067
<http://prop.org/SK>,-3.2588522,3.6664689,-1.1436619,3.9813328,1.3374418,5.846119,-3.513338,-2.5838065,0.22962417,-4.4392424,-2.9155982,4.1944165,0.30034807,-1.558757,5.1581635,-0.7678374,-2.4206598,1.6600718,-2.869903,-0.56893057,2.1578052,-1.2712659,1.1133589,4.8369026,-1.4875519,-0.75040305,-0.27703178,2.931015,1.7831446,-2.0014074,3.0990915,-2.0423973
<http://prop.org/jS>,1.4480155,1.1550066,-3.5263422,1.0794344,0.6088958,-3.4448993,3.8418324,1.4964937,-2.908414,-2.3000593,-3.6930568,0.13132447,3.0870793,1.3996375,3.238453,1.7141368,0.5071769,0.91518515,-0.8119818,-1.2609104,2.4274852,1.6063522,2.5233202,0.01453997,-0.9226002,1.4294796,-0.6550036,-1.050696,-1.1139463,-0.5487913,-1.031901,0.69801426
<http://prop.org/Wi>,-2.5479355,2.6378865,-0.6249601,0.894381,0.22879462,1.1804334,1.9198018,-3.2677953,-2.764802,1.0465266,-5.426736,2.7940786,3.423974,-1.0545913,1.1232512,-0.33057138,-0.3108697,3.288191,-2.4346132,-1.0480382,-0.5959802,-3.0189896,3.469638,0.07979491,0.3688251,-1.4191359,-1.2758647,0.6511957,-5.4780736,0.9284812,6.6202097,-0.67287093
<http://prop.org/YP>,0.037568796,-0.5467618,-1.0018687,-1.740268,-0.76899755,-0.34817505,2.6526642,-1.2790414,-0.96989125,0.5530972,-2.8537674,-2.574314,0.76452214,-1.7713065,1.1853607,-0.5511623,-2.4648714,-1.5003066,-5.040158,-1.9771147,-0.4746673,-1.7595837,2.2690656,0.9868757,2.6355321,-0.9883235,1.0599376,0.33026448,-0.120460495,-2.4654813,0.08188712,-2.906359
<http://prop.org/Nu>,-1.9826554,-0.45818728,2.1486752,4.937608,-2.1575482,-1.5252692,-1.8579737,0.22373143,0.11369011,-2.1147118,-2.0249677,-0.0675356,4.016178,-1.2433274,-1.2006819,0.54122174,-3.2160974,1.98099,1.1047843,1.898698,-0.6369828,-1.6900724,1.3113092,2.3392146,-1.8867927,-1.5411575,-2.6365316,-4.392124,0.7375592,-0.60338664,0.7777232,1.154547
<http://prop.org/uE>,-3.6095915,1.1102364,-0.51906854,3.8187873,1.9130636,1.0013347,-0.119386286,2.9271517,-2.940309,-2.9479191,0.33685198,-3.0244563,-1.4318017,-1.5831767,4.8607407,-0.72904205,-4.350199,3.8604498,-2.8419762,-1.6009712,2.127947,-0.14870867,-3.6668763,4.333061,-3.6685843,1.4159101,1.1418169,3.2699888,-2.594019,-1.8036759,3.0046015,1.1000203
<http://prop.org/mE>,0.8104527,0.49378657,-0.18247235,0.22486015,-2.6359057,0.7334437,3.6944914,3.0737514,-0.502265,0.68143946,-2.662837,-0.08821949,1.1383423,-0.005957352,-2.9044626,2.6303177,-1.5038359,2.0520751,-2.6601923,-2.0742404,-2.6813436,0.71306235,2.322503,1.8979659,1.9295453,2.170467,1.0223955,-0.76333,4.202209,-3.19562,-0.46942613,1.5100609
<http://prop.org/En>,-0.5538491,2.2054918,0.61196345,3.6371615,-0.64109725,3.3123205,1.4129254,-1.4008031,-1.7104557,-2.504835,-2.0759473,0.7556041,-2.1289468,-0.4216149,-0.9801747,3.8330731,-2.070956,0.34135383,-4.3645244,-4.3492393,-0.539129,-1.9327029,0.7010591,2.2519743,3.4737706,-0.033759166,-0.4492635,0.10652214,-0.5908913,1.2913852,2.8308144,-3.1718128
<http://prop.org/zj>,-0.7641216,0.11683844,2.9015737,2.0955064,-1.3307114,2.7422597,0.71104383,-0.1251705,-0.7524749,-2.1741052,1.1132448,0.9355009,-2.026565,-0.47259665,-4.0974517,4.137028,-2.8974645,0.3891414,-1.9161497,-1.7412628,-0.043780502,0.79901373,1.2476516,-1.0021868,-0.18896206,0.72772986,1.4456863,-0.075334884,1.2129809,-0.7231248,2.4893267,-0.25051427
<http://prop.org/mu>,-1.04246,-0.27295727,-0.3047349,-1.0942056,2.2890682,1.6372985,-0.19444221,3.1784494,1.9908036,-1.3287815,-1.5344157,2.3686266,-0.25065628,-0.6997231,-3.789853,-1.9804795,-1.7596816,-1.804577,-1.789944,-0.96503145,2.5326757,-0.54573077,0.51620305,-0.258471,-2.190285,-0.3722062,-0.33023977,-2.6651032,0.58624405,1.1548852,0.56681895,2.3600938
<http://prop.org/cQ>,1.3620806,0.8702463,0.36261496,0.5251642,1.2076573,-0.7869713,-1.3206029,1.6231574,1.3342012,-1.0155444,-2.9176943,0.57031524,3.472663,1.8235216,-1.0452951,0.4856902,0.8849455,-2.417815,-2.9003246,-0.35885707,-2.7369516,-0.37211442,0.87605816,-1.9056807,-0.460319,0.4071581,2.113988,0.5601945,-1.2852519,2.2995632,0.55646986,0.79135394
<http://prop.org/su>,-0.19414076,-1.0762802,3.9706786,-0.5313453,1.0950938,0.59256065,-2.4521015,2.6344168,-2.334367,0.8881999,-2.1570106,1.3994551,-2.0983274,-0.41721976,0.20908906,-1.6313745,1.2450413,0.11660064,1.1643258,-2.2600133,1.2362428,1.9852535,2.3150163,-0.06435544,2.4184844,-2.1945271,1.1831657,-2.1620328,-2.2064853,-1.5274684,0.004353765,1.9452295
<http://prop.org/jj>,-2.6084695,-3.8554914,0.45995015,1.3188323,3.0691767,2.7725713,-1.6711777,-0.34861574,-0.9671367,-3.0503767,-0.99846125,1.3949815,2.9113376,1.9142996,1.1861763,-0.016261483,-1.6009812,1.5309848,-1.0283629,-2.1839836,-0.4060282,-0.035884622,1.869624,1.4244151,-2.2284288,0.7527722,1.7431346,0.23003328,0.8749681,-0.64795506,0.75213486,-0.20881052
<http://prop.org/BL>,-0.020065581,2.0083237,-0.09473433,2.0973954,2.5491297,-1.0929102,-0.9894622,0.3266186,-1.7155659,-1.2889336,-2.1168401,-0.35819995,1.0270616,1.0202643,1.433475,0.5792926,-2.1035106,-0.33032688,-0.45460665,-4.481063,0.4243712,-1.9015368,-0.092689455,0.652953,1.4390388,-1.156497,0.13256088,-1.6371706,0.22021951,-1.0026003,0.86826694,1.3530992
<http://prop.org/yZ>,1.1586454,-1.4516068,1.3145133,1.1430062,1.8255419,1.2286243,-0.92719644,-0.05666663,-1.3699082,-2.1035569,0.6895176,1.3641139,0.3316063,0.6110109,-1.7760098,2.9543304,-0.9762383,0.41876465,-1.8986531,-1.3453764,0.25631747,2.4972854,1.389245,-3.1252038,-0.30137867,0.008310014,2.9151733,-0.22356823,-0.55221295,-1.9644568,1.3307933,0.78023404
<http://prop.org/ut>,0.90584433,0.12902226,2.976837,-0.95711595,4.9661627,-0.6864422,-4.0170026,-1.4088551,0.20103122,-0.6044302,-1.0619398,3.2446527,0.12320973,0.35269564,-2.2455091,0.28734958,-3.781326,2.1846135,0.27275386,-1.8253361,1.5080001,-0.7564159,0.7530907,-1.7454443,0.20566726,-1.4257163,4.928518,-1.4083134,-0.58956194,0.05610362,-1.7308307,-0.5452153
<http://prop.org/nY>,-1.5911964,1.2527592,-0.090426065,0.7145278,3.617229,0.13357173,-2.700317,1.1192825,-0.5079019,-4.8710637,-1.399229,-0.64913166,-0.19040416,0.1280735,-1.7268368,-1.9411113,-1.6494286,1.0570728,1.6084216,-1.9644948,-0.6623896,-0.4648456,0.8714011,1.6756026,-2.006636,-3.6022089,0.7685556,-1.0661591,-1.9731761,1.1366398,1.8309039,3.326734
<http://prop.org/Tt>,-0.5035006,1.6925275,1.5384613,2.0622263,2.839502,1.232239,-1.8718749,-0.0153632695,-0.9556902,-1.8992983,-0.32096085,-1.5829147,-1.2464594,2.1478531,-1.4513565,-0.56677943,-0.28207853,0.06887656,2.9251778,-1.3528479,-0.35998157,-3.449515,2.0804138,0.69523424,2.0413017,-0.50671494,1.3707906,-2.540282,-1.6756965,3.4352868,-0.86046416,0.85505897
<http://prop.org/jx>,-1.5646157,1.2146473,-0.31087133,0.72119945,3.6018825,0.20117167,-2.7270815,1.1047348,-0.50464725,-4.8598647,-1.6611756,-0.66977227,-0.3939484,0.17166686,-1.7022727,-1.9301275,-1.851245,1.0685587,1.6024153,-2.06329,-0.66344494,-0.4701652,0.90371066,1.6710464,-1.9999799,-3.584702,0.9765798,-1.0687119,-1.9400733,1.2977029,1.8993429,3.2944548
<http://prop.org/UE>,-0.43042964,1.0172225,3.1211421,1.0511551,1.906157,1.1778274,-1.1697651,0.54028624,-0.9997046,-2.6826985,-0.62825525,0.19343656,-1.4541298,0.6411883,-1.7505628,0.067484334,-1.713238,0.7396854,-2.1342294,0.18929619,0.8827991,-1.1757436,3.4331136,-1.7113179,-4.3733788,2.3882627,2.6084807,-1.6455958,-1.0569838,0.9144937,2.4964948,0.663209
<http://prop.org/Po>,-0.95087457,1.6990473,-0.0028667133,2.396316,1.8241,-2.0459645,-0.38700992,0.9203689,-1.3330703,-0.9476492,-2.6800017,0.3752885,0.72659534,2.0155952,0.973638,0.74601734,-2.6216106,1.1495823,-1.0785892,-3.761727,-0.44600135,-2.3334553,0.09013972,0.7763081,1.6995368,-1.4712299,1.300282,-2.6165907,1.6633677,-1.5928942,1.8062145,0.99763405
<http://prop.org/df>,0.276946,-0.75243336,1.8558692,-0.11366419,0.70819557,-1.6481277,0.59344816,0.9144477,-0.83512104,-4.265136,1.4370077,0.45086458,0.52978396,0.40080008,-0.28048307,-0.894326,-0.6683828,-1.7332463,-1.3716915,-1.2612842,-0.014109232,0.30124116,0.6463265,-1.8328031,0.8782117,-0.7317503,2.106718,-1.949913,-3.6108143,1.7156929,2.505333,1.0140523
<http://prop.org/Qc>,-0.4922599,1.6906761,1.6035798,2.088496,2.859388,1.2298887,-1.7739882,-0.01101805,-0.95124245,-1.8851835,-0.29571044,-1.567507,-1.2327791,2.1427987,-1.4577624,-0.553218,-0.30299383,0.064755104,2.963753,-1.3874539,-0.3560511,-3.4330301,2.083197,0.69591194,2.0358968,-0.5148765,1.4540629,-2.5320609,-1.6846688,3.4490807,-0.8825904,0.83224946
<http://prop.org/gB>,-0.5053139,1.6977258,1.6595639,2.0387502,2.7674758,1.2351105,-1.8788862,-0.013945606,-0.9449492,-1.8623626,-0.27463832,-1.5725322,-1.2142198,2.1481414,-1.4758648,-0.5432468,-0.31738743,0.06456248,2.9441848,-1.3617935,-0.34744304,-3.4519272,2.0690746,0.7023021,2.0368187,-0.43260857,1.3949999,-2.5315473,-1.6412843,3.4435434,-0.88870555,0.8779619
<http://prop.org/Yo>,-1.7606647,-0.064050294,4.4103584,1.9441388,-0.52761143,-0.7633624,-2.8883631,-2.0137718,1.1554807,-4.36478,-2.1589472,4.5252542,-1.0168166,-1.8285973,-1.834584,-0.4497686,-1.8888955,1.5653096,0.18528278,-0.31277338,-0.6472182,-1.1153225,1.8432927,-2.2334926,0.32797173,-0.36937097,3.1709554,-2.8940103,-0.367077,2.3458798,2.6412654,1.0476017
<http://prop.org/xW>,-0.91624576,1.702037,-0.015262335,2.40702,1.8937476,-2.0418265,-0.38385704,0.93898886,-1.3294239,-0.97484875,-2.67617,0.44369254,0.7194913,2.0765605,0.96720004,0.7050556,-2.6181736,1.0487139,-1.0313362,-3.756897,-0.4398029,-2.334494,0.085292734,0.78384167,1.6958895,-1.4032938,1.2898897,-2.720161,1.7182845,-1.5861897,1.7992058,0.9661808
<http://prop.org/SQ>,1.1440899,-1.9842119,1.3660971,0.2401478,0.51186335,3.0398602,-2.2620976,-2.4432964,-0.044038776,-5.482432,-1.5462487,-1.583732,1.0331373,0.5169959,-0.38742214,-0.048654318,-2.5185618,1.5282911,0.5520743,-2.5499268,1.6291922,-1.3439335,0.2275802,2.681275,2.0912004,-1.1379703,2.5125558,-1.1331264,0.6989017,-0.6767563,1.3061994,-0.42617974
<http://prop.org/FD>,1.1147462,-1.9883535,1.3618022,0.23987915,0.5129046,3.0539749,-2.261092,-2.4393141,-0.123837344,-5.4513984,-1.576942,-1.6140797,1.023933,0.5231193,-0.37125868,0.021640798,-2.5188167,1.5332003,0.61951005,-2.392446,1.6228724,-1.3280715,0.21132492,2.6588154,2.0963395,-1.1023468,2.492487,-1.1238586,0.6986739,-0.60496926,1.3161966,-0.4711915
<http://prop.org/aR>,-0.066250175,-2.8465447,3.5725746,0.49099466,-0.5247403,2.1113265,-3.637419,0.093488276,-0.1149761,-1.1093041,-1.7136712,2.271899,-0.24575356,0.13476056,-1.9324536,0.764269,0.06612507,-0.18102528,0.38938498,1.1111157,-1.9761317,0.5989676,-0.36680165,1.3448715,-0.9140181,0.337402,0.50329775,-0.15482508,-0.014296712,-0.5214536,1.867983,-0.9857251
<http://prop.org/ZU>,0.9044911,-1.1076014,2.0976133,-0.01975046,2.2152286,0.05484149,-1.5057493,0.35832193,-1.6466267,-2.9570293,0.18921544,-0.92738426,1.3525319,1.4004065,-2.456495,1.4806464,-0.8886295,0.046275433,-1.6016977,-1.0800893,-0.3003647,2.6727757,1.1644886,-2.6309464,-3.0792189,-0.9157105,1.0335697,-0.7206143,-0.29985124,-2.434297,0.37801433,1.3313553
<http://prop.org/XZ>,4.747772,1.6595929,3.7110229,1.689446,0.076399915,-1.0471771,-4.8825307,0.32652682,-1.496557,5.06849,1.2376944,3.0220191,4.9689207,1.9225757,-0.8518004,3.4676359,0.6078205,-0.16364364,2.1360035,-0.42428127,-1.4423201,2.9795606,0.9105724,-2.4895778,1.8259906,-2.6362367,0.14478305,-1.8669919,-0.0797191,2.7439547,-2.801867,0.9583348
<http://prop.org/RH>,1.1111394,0.72472626,-0.44780818,-0.28676978,-2.1822925,3.0105903,1.0884565,-1.1817586,-5.360459,2.7433398,1.5288788,-4.5082316,4.2048707,1.1937553,2.5213346,1.6234417,-0.644083,-0.8367862,-3.0767848,-4.052181,-2.9110074,3.7032568,3.630209,4.2170773,2.4484003,-1.0085334,-2.635184,-3.2519872,0.70230323,0.12456088,0.3069721,-1.442009
<http://prop.org/xO>,0.44101924,0.17175627,-2.260858,2.1152906,0.7086125,-1.982374,-5.832436,2.417021,-2.6958969,0.0026143584,2.0338628,1.8610821,3.3812022,-3.8498824,-0.08041662,4.0733128,1.0864129,1.520954,1.9584814,-2.2953587,-4.3891225,3.4838898,-4.3742375,-0.24872667,0.39446512,-3.306453,-1.1590879,-1.6860241,0.05274486,4.09556,5.7844267,-0.5950463
<http://prop.org/Bz>,0.84509355,1.9701272,1.693384,1.6563417,0.10547313,0.73084563,-1.691133,0.8101303,-2.359431,-0.7513568,1.2309551,-4.9962115,-0.46721113,1.3768052,-0.45906517,-2.538111,2.1307049,0.72454566,-0.087176785,-1.9441856,2.197085,1.0389972,1.7564682,5.9124,1.3263711,0.42633802,-3.473974,-2.4941008,-0.012341803,3.729916,0.23381652,-1.5097781
<http://prop.org/Ax>,0.15232691,-1.1253442,-0.4538135,-3.6590712,0.66865504,-0.5423766,0.4171699,-3.0180557,2.37935,-0.6896424,4.192657,-1.1090311,3.5711906,0.72710425,-2.7519736,1.3619734,1.3463856,-1.0664673,0.19129531,-4.9838343,2.9016654,3.995115,-3.3995242,2.1139536,-2.7706552,-3.0101993,-3.2660143,-0.5230376,-0.48442823,-1.406589,-1.3433782,1.130919
<http://prop.org/qo>,2.30723,4.6804876,1.5380647,-3.8304129,-0.5581531,5.05345,-7.2432795,-0.9628202,-0.59134614,4.2601404,-2.7014048,1.8024788,2.6064503,2.9243996,1.1551178,2.9041626,1.5543149,0.88739944,-4.3075933,-2.9575012,-0.6492866,5.1956677,-1.7209848,1.250586,-3.1839128,2.6005414,0.61065197,-2.8466651,0.8140046,2.5445325,0.38331082,-0.4472304
<http://prop.org/Bl>,3.7862425,-0.97570354,2.4692671,-3.271478,0.9753763,-1.8039765,-3.5574782,-3.668129,-4.0580854,4.302809,4.5431585,1.8842208,0.3146327,-2.3747969,4.322359,1.7072251,1.0359267,-1.5315617,-2.4345145,-5.164373,-2.5774891,0.56306654,1.1604862,-3.1244433,2.1048741,-0.18241939,-1.0780263,0.8326566,0.8127356,-0.7920501,1.1025033,1.2891349
<http://prop.org/VO>,0.37799442,-0.25978845,1.2762619,-0.72706515,-0.93575907,-1.4639599,-4.098111,2.9960158,-4.4191785,-0.66695637,3.8250108,1.0433697,1.9196155,-1.0377424,-1.0259199,3.1777775,-1.057748,-2.5162315,0.7625273,3.1340795,-1.0145377,-0.978617,-0.31279832,0.7195885,1.9567573,4.6503067,1.2718464,1.1424538,3.012862,-2.193559,-0.65664613,-1.3523691
<http://prop.org/wM>,1.5185394,0.8764134,3.6375415,-1.9366813,-2.9978833,0.42253426,0.6081802,-1.0459379,-0.03558724,1.3412447,-0.23473378,1.0833377,3.0138166,-0.60960066,0.8641511,0.5381116,4.3541393,-0.3681402,2.0253713,-2.6007838,-2.677924,1.4520954,-1.0468695,-3.141374,-2.9778328,-1.9745333,-2.0298445,-4.38297,3.7012649,4.2271147,-0.148115,-0.45986545
<http://prop.org/fC>,0.2211387,0.22159678,-0.81069237,-2.1193674,2.3442242,1.8315657,0.46902034,0.46041748,1.1369864,2.2549338,-1.982839,3.018773,4.449793,2.92698,-1.1500762,1.6888072,-0.6834304,-0.52592915,-0.4883176,-2.3322628,-2.264304,0.47553384,-3.7117894,-1.4459597,-0.8293024,-2.284609,-0.54100823,-1.1802577,1.2410915,2.2148128,-0.5086633,0.30779892
<http://prop.org/Vi>,-3.3671732,-0.38888434,0.49941736,0.8450605,0.1621354,1.4052173,0.19631343,1.0529157,0.25480726,-0.4621217,0.8420438,-1.7985381,2.3159137,1.2609391,0.6278478,4.5876775,1.4194993,1.4695501,0.2402697,-3.0811589,1.684026,-1.2110617,0.547743,2.048839,-1.2885486,-2.48677,-2.2134361,-0.514485,1.4992901,-1.1152954,2.5158894,-0.39276102
<http://prop.org/PY>,3.4994974,1.5480129,4.473543,2.455531,0.12257305,-1.4549974,2.465439,-4.244676,-0.5919768,2.4956968,3.3697557,-4.794284,0.7052347,-1.0179447,-1.8802987,0.7863336,0.43828022,1.0172455,1.9465659,-4.280428,1.4398605,4.1218767,-1.5825844,-0.84162486,-0.58041507,0.17509755,-4.448411,1.7964184,0.5911558,4.4497933,2.0154674,-0.49109557
<http://prop.org/mi>,-3.0435066,1.541901,1.8201333,-1.809527,-0.53925025,5.9387565,-1.7439133,0.2250845,-1.8794236,-0.7946665,1.0455449,-2.3907304,2.5865614,0.5127335,5.173066,1.32706,-1.0194116,1.3423762,1.9028008,-2.8623018,-0.19268072,3.117111,-2.6692548,1.8298663,-0.11809729,1.1212269,-2.6099312,-1.14107,-0.7376035,-1.164738,-0.5631624,-0.6053857
<http://prop.org/Rw>,-1.3976822,1.2453442,0.6242083,0.72800696,-0.6535539,-0.25048614,-2.876022,0.002397194,2.0777888,0.7329271,-3.6246927,-3.8618286,1.3335965,-1.5673416,-3.6087763,-1.82191,-0.17470372,-1.0881559,0.21204954,-1.4729122,0.21056761,-2.2684908,0.62452644,3.2386096,1.5070435,-3.851873,-0.091014974,-0.9407762,0.65410316,2.4438736,-1.1726661,1.3597444
<http://prop.org/xt>,1.614097,0.14722729,1.45743,1.83287,2.8956168,0.97128373,-0.6393005,2.370051,-1.7059734,-1.8970153,-1.7877719,0.57661337,-0.21068715,0.82178414,0.47087422,-2.2319696,-1.8848764,1.4759591,-0.112829134,-0.5993805,1.8497508,-3.113185,1.7697723,0.5979354,-0.6817739,-1.2868642,0.5016768,2.1410248,-1.8506906,-1.1458092,1.207351,-2.3748727
<http://prop.org/ks>,-2.284905,0.9053974,0.096670255,-0.6511429,-2.8797846,0.5425223,-3.629562,2.4678655,3.5484414,-1.1022367,-5.020692,1.1435777,0.3971972,-2.1248002,1.2248203,-1.539253,0.75560707,0.99067545,-0.5747333,-2.692659,-0.50749314,-3.5232239,2.5549765,0.20526366,-1.265098,0.249407,2.8533545,-1.4652494,1.362834,0.14246288,2.933452,-0.32413897
<http://prop.org/wX>,0.020282092,1.9519185,-1.8692266,-0.39171064,-0.9439433,-1.0866691,0.27693796,2.9127247,-0.5555869,0.35743153,-1.9782003,2.857096,0.4829412,-0.060462452,1.616446,-3.3656135,-0.3736585,0.034558248,1.5240891,0.098274745,-1.9573668,-2.1070824,2.2715037,0.7596446,3.8001313,-2.1105115,0.42685813,-4.4818153,2.0306523,4.9100804,-0.53173226,-3.0701714
<http://prop.org/nX>,-0.5886509,-0.6251291,1.7741643,1.0897024,0.010278044,-1.1862364,-4.5313945,-0.49509856,2.261194,-1.8670301,-3.4084826,1.5304124,1.7659836,0.13259193,0.05182018,-4.2538486,-1.4703008,-0.16570556,3.9708607,0.28705996,-0.7843398,-1.7620857,2.1960971,2.682826,-1.6514078,-0.58628416,1.0097471,-2.5644743,-2.2702503,3.5569952,-0.4836387,1.743284
<http://prop.org/aK>,-1.3181958,-0.91553205,-2.158783,1.4977552,1.8954545,-1.6164964,-0.2856997,0.62166375,-0.6257504,-1.6088066,-1.7688946,2.2778032,1.6772892,0.003014573,-0.13620673,2.0383954,1.0350814,0.87146074,-3.1774836,-0.75689524,-1.4177784,-2.2988746,0.13948064,-1.3860983,0.8078909,-0.37798432,1.8731751,-1.1586655,-1.2295622,0.5837632,-1.497185,-0.12634803
<http://prop.org/my>,1.9497161,1.3604134,-0.36865774,-0.48444226,-0.31770092,-2.253006,-3.510371,0.76508164,0.53186166,-2.153244,-3.6017394,1.3297359,-0.88255185,-2.2168195,0.91799587,-2.655961,-2.572075,2.3138087,-1.205786,-2.890624,-3.6615522,-1.374854,-1.3852296,1.7333609,1.8164486,-0.41187498,-1.5373508,0.94132394,0.5916624,0.8544745,-0.60180384,0.74252003
<http://prop.org/jk>,0.43824804,-0.33130032,2.260068,-1.1803323,2.436856,-1.7106197,-1.0499154,3.9864905,3.1908422,-1.5661805,-2.5768473,2.1094058,-2.7674673,1.6188776,1.8325584,-1.6894486,0.98289555,0.26970273,-0.4428674,-2.4773917,1.1547033,-6.7353244,1.4243587,3.6657844,0.4478314,-2.48784,-0.5068581,-1.2047924,1.9485501,1.1479961,-0.45584548,-2.090866
<http://prop.org/UU>,-0.91259587,1.1092235,0.95009255,1.3582287,1.3997291,1.3062682,-3.7611425,0.116657,-1.1887565,-2.3213627,-3.2784595,-0.9546722,0.5621597,-1.7618067,1.4749794,-0.527787,-0.69592214,0.09849401,2.1901069,-2.8228776,-0.712785,-1.6953149,-1.5777863,3.35273,2.0847042,-0.20748478,-0.9625001,0.3467928,-0.8631541,0.7546593,-0.27389467,0.009545602
<http://prop.org/tu>,-2.148933,-0.17209126,-1.9313195,1.9297903,1.7017776,-2.014333,-0.5827848,3.171504,-1.6610564,1.7010703,-3.8128629,3.5750637,-1.3596293,-0.09663009,1.8448892,-0.06507479,1.948979,0.9546877,0.031790305,-1.8049805,-0.8294781,-2.1510477,-0.38416493,1.1495761,3.773007,-4.1037803,2.2512276,-2.5210454,-1.6893587,1.0427803,-2.4805253,0.27505234
<http://prop.org/bl>,-0.15585995,-0.6995945,-0.59829223,1.8192623,-0.21870781,1.0786277,-5.084233,2.1956048,-0.24093786,-1.1448474,-2.9513958,1.0338051,1.5970784,-0.8550651,0.7265391,0.9990029,0.80448264,-0.12498887,-0.6640075,-2.2643166,-1.3592976,-0.19142382,-0.17182769,2.0257208,-1.0440125,-2.1262991,-0.3192653,-0.693289,0.46459135,0.25673342,-0.872459,-3.0258164
<http://prop.org/Pr>,-3.0785165,-1.7819544,1.7869548,1.4090176,0.53640634,-0.7986381,-2.9018698,-0.63130885,1.9818563,-2.5604386,-4.6126757,-1.2039677,2.9918034,-1.6605312,3.4708452,-3.9455476,-0.10069774,-0.4039858,1.9308177,-2.348318,0.3971541,-2.3213832,-0.34124842,3.7999117,3.284764,-3.071771,0.30979368,1.0387856,-0.16490877,0.6587125,2.5711129,-2.0604992
<http://prop.org/GO>,1.1774619,-0.86558527,-2.0868976,1.3999137,1.1359555,-1.4083709,0.55732983,2.9204721,-0.9370326,-0.8622307,-4.966932,-1.9386902,1.887533,0.016344918,-0.28374767,-1.2412661,0.06933152,-0.54439247,0.7245308,-3.0882812,0.4594346,-3.7134056,-0.9290114,-0.512404,2.6212397,-4.486755,-2.7408936,-2.2776725,2.8189209,2.4023046,0.8576687,1.1184363
<http://prop.org/nD>,1.1080389,-0.001279083,0.66796935,-0.4267466,2.5993643,1.7326356,-2.426317,1.815726,1.5368499,2.5896132,-2.288958,3.6412878,-1.9241117,1.9431839,0.24306865,-1.4582894,0.809957,-0.28870165,2.0474224,-0.37331524,-3.3145506,-1.4450517,-2.7033367,1.973453,-0.60238117,-0.96643925,-2.4979405,1.007768,1.153217,3.3007388,0.67616373,-1.5678322
<http://prop.org/Op>,0.630752,-1.2508888,2.9364,-0.98055416,-0.047019556,-1.1521065,-1.7887403,1.8676858,-0.19770893,-0.22628559,-1.3023895,1.2443099,-0.1464922,0.3352356,0.16036768,-2.219566,1.0304788,-2.7999911,1.4666545,-1.1770098,-0.83346057,-0.45258373,1.2586273,-2.7391407,3.4230797,-1.1962718,0.4535407,-0.8129015,0.10842943,1.460121,-0.37495103,0.6839428
<http://prop.org/Ld>,-3.425613,2.145408,-0.40008575,1.2703449,-0.76314795,0.0414768,0.36727038,1.5028735,1.405449,-0.7108203,-2.748709,1.003098,-1.0584891,-1.8018346,-0.58665514,-2.154395,-1.1373253,0.55901474,-0.90810525,0.25795937,-2.9963334,-1.3045925,-0.2930336,-1.1265621,-0.06359219,-2.687691,1.6897821,-3.1774216,3.4303484,0.6940671,-0.7590165,0.48366216
<http://prop.org/gR>,-1.0590298,0.00725471,2.0091467,3.6355624,0.77952427,-2.284984,-0.57545096,1.0921037,-0.92242897,-0.4849115,-4.1249213,1.6207879,-0.47525692,1.8699075,1.3265141,-1.5426512,-0.23943892,2.5159092,1.135388,1.2045506,-4.4501243,0.96898496,0.3147327,0.25160807,0.8013429,-1.6469804,0.14873068,1.731786,-2.298214,2.0563452,1.2323707,-0.25741848
<http://prop.org/tM>,-0.015248738,1.9441335,-1.8414854,-0.393575,-0.93308234,-1.0938677,0.19925356,2.86939,-0.55660135,0.35458666,-1.9404166,2.8411572,0.47156018,-0.04661958,1.6242019,-3.3596745,-0.37683645,0.034243487,1.4875648,0.1025221,-1.9417306,-2.1113148,2.2510562,0.7761929,3.7869992,-2.211702,0.44764882,-4.5143533,2.0154953,5.185857,-0.5313331,-3.0576754
<http://prop.org/PN>,1.0630563,2.0971682,1.7950956,-1.5892127,1.2877963,0.40215987,-2.5804164,-2.537809,-0.84184194,-2.6858149,3.6504514,-2.1007624,0.6440235,-0.66367906,-1.9331324,-3.1811364,3.6186037,-3.331765,-2.4030554,0.07199082,1.7168537,-1.9444673,-4.479471,-1.2924592,-1.0261121,2.5094836,2.2455904,-0.40219483,0.4653363,-4.603953,1.3711168,2.9579155
<http://prop.org/wd>,-1.123704,-1.5351136,1.3454592,-4.191636,-3.2780015,2.0732274,1.3530486,-0.21021613,1.9465973,0.17447573,-3.157786,-4.8904305,-0.117995456,0.023244902,0.41617146,1.0561255,2.2694638,0.26741603,-1.0347061,2.341083,-2.7245812,-2.1086872,-0.94951814,-2.2452092,-1.5453845,4.611079,0.64788216,2.1329012,3.042839,-1.525008,-0.019093838,0.44567996
<http://prop.org/tG>,-1.4391063,3.1811981,-0.24553873,-1.7167295,-3.5190392,3.4381576,-2.8174856,3.6240141,0.42216244,0.08961221,-0.75290257,-1.6049277,0.6032719,-2.429365,-0.89314944,-0.803328,-2.206603,0.7578062,1.0994008,-3.8355095,-0.3698378,0.18806006,-4.4335513,1.5239323,-1.7032498,4.044956,-1.3727543,-4.528971,2.8747947,-4.5098033,-0.69499797,0.699382
<http://prop.org/Zy>,1.1867328,-0.34701148,0.9629871,0.18712007,-3.9281664,1.0760981,0.6940095,-0.58992755,0.28727132,1.7202678,-0.18350004,-2.0991938,4.135704,2.7646792,2.2241662,0.5919894,0.3186613,-3.4276383,0.19309597,0.22932997,1.4990823,1.6088501,-0.43402588,3.1303456,2.4245305,2.7015474,-5.040724,1.3748034,-4.3668237,-0.4891645,-1.1778632,-0.3781273
<http://prop.org/gK>,2.048569,3.2154572,4.771732,-2.14521,-2.3406756,-1.5132935,1.8017563,-0.706466,-3.2101295,2.5424783,-0.25053933,-4.052773,-3.1471899,0.25527146,-3.3533509,-0.60310316,2.3781307,1.5866752,3.8466392,-3.020776,-0.42832083,-0.99887997,1.8469548,0.6405157,4.194027,1.0681385,-3.562406,-0.97954684,-0.97586745,0.3962394,-1.5516554,-0.78551835
<http://prop.org/Oq>,-2.9806464,0.72020483,1.9156226,1.3584323,-4.661082,0.3792396,0.27742264,1.7739862,-0.50002056,-3.5007637,1.7877101,-1.0659003,1.3680431,-1.9160397,-2.0206933,1.0567365,0.024599448,1.7820567,-1.463653,0.9881296,-3.4703948,1.892065,-3.2344012,-1.3836539,0.37318718,0.8167715,1.1760112,-5.1429515,3.040421,-4.2984457,-2.1830802,-3.5472693
<http://prop.org/eQ>,-0.5211349,-1.3829406,-4.8482037,3.095881,-2.6145315,1.7031902,1.3085673,-0.045442663,0.8555937,-3.4999504,2.685046,-4.132845,-1.2506219,-0.39858463,-1.7599759,-2.722839,-2.0696313,0.8844002,1.1186042,-0.38072476,0.35186058,0.7796481,-4.264713,-5.155076,-0.9269199,0.23635474,0.9606794,-3.4127264,3.28,-4.8107867,-1.6454262,1.2965174
<http://prop.org/sS>,-1.138978,-1.5088645,1.3412547,-4.1583667,-3.2728336,2.187824,1.3458508,-0.21271306,1.945246,0.19549899,-3.1549914,-4.895342,-0.11954712,0.027749887,0.42398068,1.0538446,2.2732236,0.26439786,-1.0252934,2.3407543,-2.7294347,-2.1087384,-0.9420124,-2.2463615,-1.5102326,4.587761,0.6577482,2.1388574,3.0641155,-1.5320199,-0.03914901,0.44006324
<http://prop.org/mF>,0.12731653,-1.8897938,-3.995486,0.14313902,0.8502639,-0.9040953,-2.608699,-3.255734,1.2897161,-0.9018655,4.498995,-6.2033715,-0.9296958,-4.8461795,-2.9841623,-2.2892447,-0.5532893,-0.1862603,-0.1626616,-1.015259,1.8881707,-0.47142932,3.3652072,0.5927265,-1.1445746,1.4243166,0.35195416,-1.7694997,-3.9426713,-0.56114525,-1.8843163,2.8313415
<http://prop.org/CR>,-3.9752738,1.4162465,-2.8548014,-2.6739764,2.389819,-2.66757,3.0759745,-2.5277474,-1.3592496,-1.6791495,-0.1390984,-3.7628818,-3.2717109,-0.10252091,1.8615463,2.7426107,-2.8171253,-0.13684072,3.4314864,-2.5751321,0.119163096,-0.71365684,-4.0137386,3.0945253,1.4017546,1.9283686,0.75378245,-1.0227748,-1.4968926,1.7158821,1.9014735,-0.791318
<http://prop.org/iz>,-0.7165837,1.234638,2.1649015,-1.3306084,-1.2350225,-1.2957342,4.542171,-0.39028475,-2.273541,-3.3069189,0.66817963,1.5283432,0.93101895,-0.81661326,1.3173238,2.9905984,-1.648255,-2.823836,-1.4587442,0.8041469,-1.2736145,0.21833803,-0.33027443,-1.5612924,-1.086949,0.82008386,2.6937506,-3.3827097,2.1183414,-1.1323843,0.5769609,2.1216743
<http://prop.org/YL>,2.103409,0.5381253,3.6556714,1.3394054,1.2848177,-1.0711801,-1.966929,0.03579163,0.06275996,2.1542702,2.0380797,1.8261421,1.1501272,1.6257199,-2.4307566,0.70302767,-1.7316214,-0.89023083,2.2222183,2.4961722,-0.05837133,0.45511395,0.8081129,-0.4045649,0.75025326,-0.009893789,-0.68794966,-2.1617393,1.6861246,-1.6114427,-3.993036,0.23449904
<http://prop.org/Nx>,3.863317,0.5337474,1.3886563,1.1985064,2.2307205,-1.5108664,0.6221482,1.8947203,-1.6381997,2.982181,3.4740222,-2.5696428,1.9299871,1.9358221,-3.5538337,0.79734313,-1.4634899,-1.188275,2.617887,1.3853923,1.7298168,-1.2635632,-1.7265285,-1.3582152,1.9139923,-0.8584153,-3.9572928,-4.4050426,5.5028467,-4.3749466,-5.353612,2.0304496
<http://prop.org/WY>,-2.0797205,-3.1160903,-1.61697,1.2752345,0.44880268,0.8063374,-0.6873644,3.4144762,-1.3082597,-1.763677,0.35407513,-0.20030998,4.5286255,0.6248231,0.99681574,2.4459474,1.2718073,-0.15702266,-1.6866447,0.70608014,-1.6434548,0.20047331,-0.25308558,1.4123639,0.79569936,-0.02901468,-0.25637564,-0.46899584,0.75621545,0.107850805,-0.9296655,0.70092887
<http://prop.org/lC>,-0.77983516,0.5036223,1.6383438,-2.022118,1.8589381,-1.4846773,1.9607612,0.33958563,1.20183,1.0252225,-0.8812823,-0.47280243,1.0387744,1.4038796,-4.0704846,-0.2123135,2.0739803,-0.92120385,0.37037563,1.775728,-1.5329806,-1.0465696,-0.19697961,-2.757703,0.53282285,0.87282,1.9640107,-1.0448084,-2.8568196,0.81035644,0.41979504,2.4163013
<http://prop.org/Dz>,-0.96208,0.7960919,0.8725392,-3.0762553,0.15458553,2.417104,1.2281374,2.330866,-0.1916174,-1.2792197,-2.121521,-1.3765419,1.0213889,1.6046977,-1.7059656,-2.4948664,0.55109924,-2.2424552,-1.5426347,0.12628286,-0.64293396,-0.14794849,-1.6951345,0.9084274,-1.5564561,2.228402,-1.6507126,-1.2416768,-0.14617151,-2.936338,0.46499345,0.93999195
<http://prop.org/xN>,-0.57344586,-1.2756668,-1.2959342,-3.4681082,-3.6951346,0.26915944,2.842151,-1.166595,2.2153134,-0.087274306,3.4786391,0.2644063,-1.7487025,-1.1246048,-0.1678958,2.0988467,2.6786516,-2.545226,-1.4874103,0.025412329,-3.6989255,-3.9045823,-0.1727614,-0.21034454,0.11351851,1.6961852,-3.3983,-0.005407891,-0.51170516,1.6788696,-0.14372236,-0.5766106
<http://prop.org/Tp>,-0.9881451,0.7723331,-1.5999908,-1.5634325,-0.45436773,0.1654112,1.17206,-2.389526,-1.1252047,-2.0297785,-0.062314995,-2.2045941,0.14985655,-3.0004504,-1.3823639,-0.9339435,-0.054559108,2.4804919,2.175671,-4.7163982,0.19024193,-0.48964036,1.5700178,-0.6299254,2.8103437,0.5374039,-2.3175957,0.04993331,-1.5524611,-1.321562,1.8649453,-2.8299756
<http://prop.org/pb>,-3.5273426,1.9845424,2.9669192,3.321761,3.0881193,-0.26652044,-1.634484,-0.87152565,-4.045202,-1.3454508,2.1428616,-3.2045557,0.40177143,-1.3775789,1.9499869,2.638022,2.3541317,0.5950256,0.3404946,-1.6784698,-0.52756083,-3.579665,-0.43355498,-0.41747513,-3.8914847,-0.4521233,-1.5587767,0.10753523,-0.43996748,-2.0479157,-1.5996745,0.6970196
<http://prop.org/Lo>,-0.5603403,1.4493965,2.2044795,-1.2880633,-1.1453717,-0.9371177,4.4994073,-0.3265809,-0.9593759,-3.5129902,0.2556461,1.6854826,1.1265876,-1.3231636,1.404442,2.7914853,-2.1781592,-2.94569,-1.4606841,0.18271022,-1.616174,0.6506683,-0.7810565,-2.2209332,-1.2356975,0.86544937,2.1809537,-3.330854,2.0805311,-1.0634625,0.3135628,1.7990028
<http://prop.org/nF>,-0.8664424,-0.29875362,3.5918798,2.6965382,2.1820843,-0.9385145,0.7222238,3.153078,-4.5108647,1.18874,0.4560689,0.9380433,-0.22927697,0.18743902,-0.2996159,1.732493,-2.3311484,3.3271685,1.7237856,0.8024198,-0.008072294,-0.9506111,0.42849934,0.39482924,1.5325814,-1.7746422,1.9714682,-2.0685742,0.5023388,0.4618105,-1.067004,0.043165527
<http://prop.org/pV>,3.4683528,-0.428205,-1.3321387,2.8429708,3.6007078,-0.625889,1.5955229,2.2952068,-1.5417824,-1.6231622,1.7180364,-5.2707453,-1.1035188,1.0495025,-0.74275076,-0.52992386,-0.24847549,2.4775383,2.3818436,1.8643098,-1.0527961,0.23202598,-2.306004,-1.2689368,1.0888885,-2.6445339,-4.9243174,-1.3906509,-0.97877,-1.9207194,-2.0476575,-1.1299661
<http://prop.org/gG>,-1.177161,1.031002,-0.11882078,1.8767623,-3.7975729,4.480696,0.626502,-1.5673484,0.30134672,-4.5127134,1.3684963,0.640242,0.7719591,-0.9041788,-5.522462,-0.39878747,-0.18762167,1.1235746,-1.617292,2.4095452,0.120039105,1.345115,1.1703055,3.2954164,0.15239783,2.4959648,1.6894957,-5.051653,2.7490492,-0.9355621,-1.2924385,-0.08750296
<http://prop.org/xr>,0.51586473,2.0191803,0.98969454,-1.2356935,-1.3686872,2.3702116,-1.6979748,3.8656733,-0.08991106,2.5688994,-1.578151,3.793917,-2.300572,0.2964704,1.241949,-2.8183794,-1.1776425,-3.4595056,1.8914154,0.68391275,3.9540212,-1.3616389,-0.14939138,0.6310954,0.6918493,-0.6451038,-5.151042,-2.35712,-1.0420794,-3.9691415,-2.0047088,1.464778
<http://prop.org/Nd>,-0.9650402,-3.5314257,-0.18752243,2.0719814,-2.5278084,1.4867631,-3.1049306,5.1543045,-1.0782421,-1.475815,-1.6428454,0.32246724,-0.7314033,0.41359666,-0.3958822,-3.1846151,2.5336564,-3.4361928,1.237857,1.7865962,0.15404049,3.164393,2.168521,1.7838345,0.6440381,0.4672553,1.9356396,1.7391675,-0.26858374,-3.9502928,1.6000272,2.2665627
<http://prop.org/Ia>,0.80824465,-0.82429355,-1.482144,-1.6130152,5.0463166,3.048581,-2.3692784,-1.2489204,2.6309865,-1.9965062,-1.9898586,1.9958671,3.3499,2.82774,-1.4827652,5.4818,0.128665,-0.32762522,-1.766137,1.5402617,2.576747,-3.3050785,1.790867,-2.919435,-2.72943,-2.2120328,-1.4579138,3.9096584,2.2077823,-0.60472614,-2.6642904,-0.86320245
<http://prop.org/lY>,-2.8066213,0.9943116,-3.2740462,-2.1689372,3.7638206,-2.6895978,0.6628967,-3.0533829,-0.7267717,-0.70199805,-3.4217672,1.6672187,-4.4527354,1.6320773,1.1961435,2.2970126,-1.2577536,-1.6102294,2.6332657,-0.77340305,2.0936923,0.1605402,-1.1602254,1.6742724,1.4072218,-1.0394477,2.616378,1.1967992,-2.9504414,2.5635686,1.0973214,-0.4642663
<http://prop.org/FK>,0.6936263,1.1773552,1.9643523,-1.5944244,0.3909488,-1.0277699,0.6648558,0.13177665,3.0112495,0.26687837,-0.562502,-4.418262,-0.5338677,-0.24658363,1.0752997,-1.2227901,0.83194065,-2.546775,-4.2115064,1.9266906,3.6709654,-0.8487029,-0.0045364457,-3.4013352,-2.379196,-0.7408186,0.25066236,-0.4219826,-3.1308613,-0.37219292,-2.0327106,-2.167338
<http://prop.org/Pw>,-2.5647523,0.6111224,-0.22601493,1.9773548,1.572383,-3.5752747,-2.5193574,-2.2083013,1.0453752,-3.0791829,-3.6016026,-1.0780971,-1.409172,-2.9163857,-0.22083595,-0.778149,-2.4858825,3.0608852,0.55796194,2.9682407,2.787285,0.27047426,0.07051636,0.25534973,-2.7637732,-0.21559854,0.7452694,0.07375605,0.62159926,-0.1521558,-1.2485448,-1.4892251
<http://prop.org/iL>,-0.73739225,-2.2460694,2.5119061,-0.7156755,1.7870456,1.3036368,-4.359071,1.4090266,2.766438,3.7458723,-2.6661,0.6305282,-1.3797606,1.0224589,-4.546856,-0.1844606,-0.981532,0.8783202,-1.8390183,0.20683748,2.844336,0.15692082,0.7943467,1.5257894,2.3173168,-0.26652515,4.6685443,3.2618747,-0.31254092,-1.2242069,-5.5570765,-0.6328661
<http://prop.org/qn>,0.5504878,-1.8585894,-1.2161512,-0.14562576,0.14790449,2.6115532,1.3954296,-1.5586658,-3.4883432,0.7697483,-0.8349705,-0.7457842,-0.50252557,1.9736972,0.23369032,-1.0062214,-0.7886725,-2.697163,-4.124576,1.0471942,0.09948779,2.0989153,5.5745683,4.0445523,1.924087,-2.0072734,-0.9829247,0.0012322211,0.07706841,-2.932652,-2.5730107,-1.8386483
<http://prop.org/fl>,-2.0507197,-2.352116,0.09580668,-1.0565131,-1.5497162,-1.6057198,-2.3799891,0.32803434,-2.7587955,2.5525558,-4.268618,-1.1915821,1.655952,-0.15132068,0.19660434,1.7374178,-0.116065264,-0.8251086,-0.5667275,-1.2428212,-0.32305938,2.7169015,-2.1076295,-0.6978878,2.0724475,0.38804623,1.2460064,2.1253524,-0.15960926,-0.5034011,-1.8421888,1.4430294
<http://prop.org/KX>,2.0559099,1.4547743,1.1353459,-2.937086,4.1677675,-2.3021224,0.33243644,2.536218,2.2503014,1.9979122,0.38695344,0.6912822,-0.2907833,-0.84940845,-1.2155558,-1.589155,3.6212718,1.1574231,-4.0340953,0.061721027,0.4778889,1.6228373,-2.6132545,-3.2835045,-1.8153383,1.8802164,-0.8705519,-2.3885195,-0.5775189,-3.5661054,-3.5359094,-1.1821653
<http://prop.org/ay>,-2.1443048,3.5914176,2.36657,0.7156248,2.5433013,-3.1954942,-1.3005394,0.80458546,1.707078,3.0766501,1.9788103,0.18735974,1.9729077,-2.1515036,-0.76100075,2.4692848,2.9598224,2.9859817,-1.7828761,0.5312999,3.4511235,1.519982,0.2368646,0.67252696,0.6373558,-4.1127696,-1.7102494,4.270524,0.60520583,-2.6544967,-0.85919046,-0.8869049
<http://prop.org/Sr>,0.8089172,-1.657065,-1.8638531,-0.9208078,-2.2973456,2.8383,2.7365212,-0.774084,-1.1279781,0.7861217,0.37455967,0.14827837,1.8621778,-0.33066222,-2.5860362,0.2652604,7.5608096,0.8336241,-1.0576923,1.4979986,-0.0040821754,-0.8456359,0.5204616,1.375096,-0.7005169,1.5817161,0.20745693,1.4826182,-1.4705964,-2.4817686,-0.5305161,2.0756986
<http://prop.org/Ee>,0.9333613,0.5222818,3.3825643,-1.6955495,0.851965,-1.401357,-0.28635922,-1.0547384,3.0531943,0.42065114,-2.3314881,0.9272366,2.0039473,2.5454314,-3.9530041,-2.0045602,0.4874631,-2.3073416,0.25151476,1.724459,-2.3211646,-0.05800993,1.2840971,-3.1059957,0.76381445,0.028214326,0.76406306,1.9976386,-0.124919355,2.3553836,3.799352,1.395868
<http://prop.org/pN>,-1.9533846,2.0319476,-1.2278502,2.3265016,1.7789495,-2.630602,0.40583357,1.5005069,2.1824837,1.8085498,-1.9654949,0.83809096,-3.9576046,0.34243256,-1.8171799,-2.2025328,-0.96841514,0.3419797,-1.6184269,4.7394066,1.1213473,-0.74118644,1.2601547,-3.4317925,0.19254804,-4.133362,2.0557513,-0.7076996,1.8242991,0.22488584,-2.1981857,-0.82957256
<http://prop.org/nZ>,-0.60242635,-1.0231777,0.28196806,-1.7860112,0.2899845,2.0222628,-1.6840442,-0.19934158,4.904894,0.5958893,-1.8691666,3.3621714,0.43701157,0.138679,-2.8846447,-1.636431,1.732077,-2.1974914,-0.35374624,-1.8024999,6.664881,-0.5805459,2.647437,-3.244158,-3.265328,-1.897486,-1.2890062,-2.8609543,-1.1261184,-0.99347955,-2.425147,2.0747738
<http://prop.org/dz>,1.2114428,-1.5972376,2.4516072,1.9174457,2.201182,-2.6857183,-3.2453194,-0.828469,-2.7836452,-4.256443,2.1530695,1.8649398,1.4070858,-1.5468321,-1.2923936,-1.7687824,3.4331455,-2.7366529,-1.4414871,2.1345456,3.6488655,-1.9361243,-1.0540619,0.8067997,4.844415,-1.4066099,2.3239837,-0.3977879,0.055418566,-4.0918074,-1.707111,1.8128841
<http://prop.org/qN>,-1.3285513,-1.2779665,1.8021138,2.3124251,1.1122134,0.62701976,-1.7472278,-0.39041817,0.36131427,-4.160403,-3.050824,1.3161371,-4.6348896,-0.39259392,-0.6836495,0.01916483,-0.7445088,0.39955312,-0.1198801,1.6454802,2.695098,-0.03047935,1.1334423,-1.0090338,1.9383585,-4.859665,1.4642959,0.5026089,-2.6769977,0.90565795,1.6002789,-2.0766861
<http://prop.org/vT>,-1.2274652,-0.38888672,-0.0121846665,-0.9626562,2.3843124,5.109706,-4.8025665,-3.347035,0.6009125,3.37316,-1.2624594,5.129567,0.47856796,-1.0788523,-2.348459,1.6020758,-0.1529139,-0.12324073,3.9173973,0.4518468,3.7418845,-0.7539321,2.1793096,-1.7600116,0.9032666,0.7405579,-1.9464362,-0.4050809,-2.6655114,-4.0004053,-2.067425,-1.4021698
<http://prop.org/JY>,-2.123946,-0.5944266,0.047206547,1.6444808,-2.2345986,-1.6210169,-0.13789622,1.2599777,-1.7591825,1.9016116,-2.2987945,-0.6878391,-3.4656396,-0.23428988,-5.7028155,0.4295981,0.05263495,0.45796475,-1.4223009,0.55208063,-2.1443794,0.5998665,-0.88324845,-3.51711,4.571647,-2.721151,-2.2897856,-2.5282316,0.24122702,-2.6480951,-3.413017,-1.9558651
<http://prop.org/rM>,0.6046184,-1.8065431,1.2710887,4.777247,1.1126102,-1.9909889,1.6600711,-0.8080022,0.88890296,-0.8870213,-0.7200754,0.10419836,-2.0418565,-0.26488683,-0.5876111,-0.4426166,0.25410283,1.9909129,3.044535,-0.18218431,3.7097309,3.4359546,-3.0424602,2.5234156,0.4090396,1.4530431,0.115575545,3.0078926,0.18820336,0.46831247,1.4749776,0.24532911
<http://prop.org/tx>,2.1243622,-0.8662647,-2.360124,2.1508286,2.3119397,-0.69815964,-0.57704425,3.4546561,-0.6295468,1.394905,-0.28594035,1.6488768,-0.45890504,1.6204078,0.3781639,1.2337322,2.8189816,-0.17218493,-0.65092635,0.43934533,-1.6378518,2.6599228,2.5783806,-0.68442965,1.615232,-1.5595994,0.98072743,0.72708464,-3.449169,-0.85328877,-5.659739,2.689204
<http://prop.org/hs>,0.5803415,-1.6715164,1.2834847,4.8236313,1.171591,-1.9370017,1.6057032,-0.8146495,0.8870994,-0.9077862,-0.76638114,0.1897288,-2.0671277,-0.26711676,-0.54935646,-0.39163905,0.22673552,1.9784715,3.0179298,-0.2342277,3.7562368,3.4956098,-3.1446924,2.4750373,0.38634747,1.4205543,0.11032275,3.2146697,0.21865585,0.46056247,1.4761524,0.23871683
<http://prop.org/gX>,-2.0762975,-4.3205237,-1.8837471,0.36751986,1.0688144,0.4862253,-0.013812855,0.7844588,-1.3838576,-0.69519866,0.950483,0.6880561,0.45605245,-3.353988,-2.6620831,0.5361533,-2.7947211,0.7285152,-0.9341523,-1.8863206,1.2334988,3.4019535,-0.51244897,0.5057062,-2.0212722,4.9213896,3.9211667,1.799365,2.266936,1.3999486,-0.38994288,1.7265837
<http://prop.org/AK>,-0.37279356,1.6410148,0.083638564,0.54237604,0.5845242,-5.299929,-2.8214662,-0.29704416,2.3069675,-1.2219921,-2.398049,-5.48604,-5.121733,-1.283392,-1.1382669,-0.3733773,-1.2660582,-2.09169,-0.102230914,-2.3338556,-3.6000912,-0.6679441,-5.4485526,-3.0361342,2.4384887,-1.9868523,2.150297,-0.4201695,-1.5455217,-2.0921414,-0.18902245,2.966861
<http://prop.org/eF>,2.248479,1.4312173,2.5156627,1.9955016,-1.6173813,0.8462333,1.1582063,2.2907376,-2.249205,-3.7396512,-1.0143198,-0.0069788825,3.2072377,-1.888947,-1.6863385,-1.9559308,-4.4255233,-1.3394928,1.2060239,-0.48384362,-1.4238474,2.6685627,0.53170484,0.36624297,0.10599099,-1.0592539,4.979126,-1.7497538,0.41103566,2.9889452,-3.6116657,1.0893126
<http://prop.org/tT>,0.088219404,0.22814876,-0.34733936,2.3669672,-0.9206031,-2.8351672,2.6219118,1.7676353,1.8645889,-0.74991786,-2.289196,-2.7751112,0.35175523,-2.0803647,1.5661048,-1.4496357,-1.5777066,-2.203146,0.010335043,0.96369094,-0.3941465,-1.3684897,1.70384,-1.8795108,-3.7092993,-2.4355917,2.656183,0.112053044,-2.921109,1.2628077,2.4397304,-2.3789945
<http://prop.org/ln>,-0.19430196,-2.8875294,-0.25095302,1.8622062,-0.8521912,0.017300904,0.4058824,2.6012125,1.2441771,-1.70343,0.37262946,0.450434,0.802702,-0.6210034,0.03358424,-1.0716467,2.2373123,-3.0207782,-0.8367639,1.5342367,-3.8821702,0.2727635,-0.6342136,-0.0983982,-2.2944374,-2.2549734,-0.93182266,-0.36117962,0.1947491,3.5168033,-0.1601156,2.2778144
<http://prop.org/Nb>,1.9268215,0.765302,-0.12691045,0.049503207,-0.12623444,-1.8406807,-4.5458245,3.6442726,3.2831948,-2.8282857,-0.95114595,-1.3681931,-1.1081886,-0.23840949,0.88002104,0.2403223,1.7107998,-0.6748097,0.38265032,0.80492955,3.594743,-2.424286,-1.02421,2.6988833,-0.74474084,2.489935,1.9724033,-0.51630574,0.26289722,0.6268607,0.3265279,-1.467849
<http://prop.org/rn>,-2.0348766,-1.001954,-0.46479252,-0.28821737,-0.57373893,-1.7990566,-2.0476937,3.463424,-0.26716083,0.57575405,-1.3722683,-2.5560784,1.8180442,-2.2282517,2.0201573,-1.2076222,-1.7546617,-2.8618858,0.23499478,-2.5785267,-3.7905283,1.0198933,-5.7339377,1.3776021,-0.5528931,-0.00074760115,1.8513098,-1.2779534,-1.5958536,1.3215045,-0.8142182,0.8648359
<http://prop.org/wi>,1.8769848,-3.820638,2.008624,-2.0270607,1.0832303,-4.811861,-0.79775065,-2.7703867,-1.7870373,0.3437253,3.2273417,0.25071114,-3.5149794,-4.47296,2.8040411,-2.9871812,-1.0168209,-2.5029445,-2.3016353,-1.4190363,-4.080292,-0.68696105,1.364996,-2.3374324,2.050841,0.70979303,3.5531173,2.407087,0.42687377,-1.7608187,0.15667903,1.3861383
<http://prop.org/mP>,-1.9490336,-1.8996882,2.8335066,-1.28856,-1.3103716,-6.1954913,-2.7744408,1.7823067,2.685545,-3.8588586,-0.8397857,1.3413289,-1.96737,0.95320356,-0.3284227,-2.5431936,0.86434287,-1.3463278,0.57465965,-1.2474264,-3.8557432,-1.531093,2.5766015,1.4915788,-1.1719776,-2.0737703,-0.38021767,-3.3209689,-0.36145282,-0.9967969,0.7831882,4.077907
<http://prop.org/Si>,-1.9455036,-1.9262437,2.7801864,-1.2312412,-1.3310213,-6.0898166,-2.7917883,1.7700468,2.6801987,-3.815083,-0.84494495,1.4096941,-1.973988,1.0028912,-0.24311154,-2.524623,0.84557205,-1.2917093,0.5545047,-1.268026,-3.8506577,-1.535818,2.6718507,1.6208866,-1.1635543,-2.0737383,-0.4690233,-3.2728083,-0.37492782,-0.95874465,0.82574886,4.0716414
<http://prop.org/RD>,0.23094717,0.66006875,1.3904996,-0.8517228,1.8042645,-4.980296,-0.3932922,1.7488856,-3.6736603,-1.1116284,0.69229746,-2.3405995,0.67659676,1.2252852,-2.5415874,-3.1819344,-0.16796847,-2.7903166,1.8721042,-0.17321123,-3.9048302,-0.7414894,-0.16441259,-2.8674073,1.1717002,0.7233063,3.6720169,0.4692588,-4.440857,-1.1176639,-4.018164,0.5783831
<http://prop.org/SB>,-1.8562433,-3.8715348,1.5446824,1.2648064,0.2803545,-0.8798413,-1.0760313,0.11486298,2.2536652,-1.4576818,-1.0087202,-2.3286364,4.0624213,-0.04701493,-0.375495,0.668955,-0.43311095,-3.0416663,-0.38514206,1.0216067,0.35613617,-0.6171577,1.8191943,2.1751478,-1.1007048,2.1864636,2.5484765,1.214908,-1.3540101,-0.95664585,-1.5047036,0.24204677
<http://prop.org/ea>,-2.9840891,-2.8920267,3.1747108,1.3550913,-1.7347915,0.6440938,-3.0223484,1.9546896,-2.354097,0.61497456,-3.508568,-3.5065851,2.9556127,-2.2496943,-0.35102493,-0.91902286,-0.4069257,0.26949352,0.8699333,0.44242498,0.21136543,-0.6678412,-0.2857436,-0.5497256,0.056932967,0.58985114,2.014531,1.3672991,0.40035045,-2.3648102,-1.4916964,1.1107175
<http://prop.org/cH>,1.3371432,-0.822272,3.8724437,1.1798575,-1.8845997,-0.58225286,2.232416,2.6750958,2.4769328,1.2639961,-0.6987577,-2.3080256,-0.76951575,0.07995768,1.8891429,-1.7128865,-0.7053886,4.1348605,-0.7303547,-0.039884206,-0.0578017,-0.8058294,-1.1108078,-1.7132447,0.512874,3.3190284,1.9003012,1.450822,-1.4768231,-1.7721834,0.22801262,-1.366992
<http://prop.org/TV>,-4.3152437,-0.23998915,0.93379045,0.77351075,-1.8211948,-0.034107305,0.7790945,0.8020581,0.6323896,-0.42156538,1.0061916,-0.55322534,0.6040565,-1.7754073,-0.50107086,0.15369792,2.1924798,-0.13279428,3.223843,-1.3376065,-0.48726726,-1.0063874,2.730196,1.5803473,0.8097597,-1.6444864,-1.9309319,-0.21598615,-1.235188,-1.2431213,3.1090193,1.3142791
<http://prop.org/WP>,-4.412833,-2.4747376,-1.6827092,-3.0394337,-2.3328173,-0.248187,2.4378407,1.242318,1.2632993,-0.86044014,-3.0892518,-3.8818448,-2.3058548,-1.6239551,-4.418849,-6.1880918,4.1017337,0.42487487,3.2032018,1.500097,-0.7650741,-0.27318054,4.499932,1.8201698,-3.0500205,1.7835222,2.906518,-1.7559651,-2.3741288,2.4379911,-0.18487628,2.0880558
<http://prop.org/BC>,0.26271194,-0.3196518,0.58498824,0.81095886,-2.8146405,-0.75787216,-1.0485044,3.5875983,0.37142336,1.6545243,-0.46353668,-0.40702486,-4.350916,-2.6449661,-4.465134,-3.3757992,-2.5489624,-3.3016315,1.1395777,-0.5313144,2.7193897,4.370104,1.8160892,2.4521146,-1.5131906,2.2751253,2.8966463,-1.4945682,-2.6221852,4.561519,-1.5644087,0.3756696
<http://prop.org/On>,-1.4347969,-0.62505347,-0.929943,-1.7359484,0.6585966,0.18939157,1.1167092,3.2580154,1.8961426,1.810655,-1.8634683,0.011035493,2.6614015,0.26998088,0.911026,-2.7268934,-1.114111,-1.8294089,0.19078088,-1.3912637,-2.1806424,-0.15912953,-2.9497323,-0.9977194,-1.4322666,-1.7576208,-0.09103165,-0.9211342,-1.1197609,0.9608009,0.5706666,-0.49512872
<http://prop.org/ja>,3.5857058,-3.318505,0.28080934,-0.48775485,2.7889712,1.6553967,2.7256196,3.7835467,-2.7750976,-3.8798108,0.38664314,-3.333252,0.76710606,-2.4382837,-4.874827,-3.8907812,0.38655826,-0.57499206,1.7576685,-0.825737,0.3024599,0.15772046,-0.16748363,-2.5237393,-0.5786994,-2.4720318,1.7882955,3.0009696,-1.3970728,1.8362279,0.7351777,0.86573035
<http://prop.org/Gk>,-0.5426473,1.3523424,0.71714246,-1.2374324,-0.6403689,1.767266,-2.7470508,-1.4661278,4.695078,-2.0088818,-1.2467492,-1.2315434,1.8545957,0.6322854,-3.2368495,-0.91817683,-2.664987,-2.155224,-2.3066268,0.45172665,0.35715893,-2.4423687,-1.043456,-3.093599,-5.129289,2.3549078,2.1194005,1.7882617,2.747856,2.9463937,0.12033954,-2.6782312
<http://prop.org/qC>,-3.1684327,1.3768826,2.023928,1.6888784,-0.119267605,-0.16994032,0.12530288,1.1048845,-1.0979744,-0.49787897,0.5036209,-1.2429839,0.38026482,-0.12985736,-3.5509067,2.9648595,-1.8103858,0.03833747,-0.16614276,0.033878967,-2.9237592,-4.6901155,-0.31233403,1.2772142,-0.93844134,0.2796797,-0.29543296,-0.8021769,0.7920644,0.52789617,-2.7526217,-0.7793775
<http://prop.org/QR>,-0.32915214,0.08335008,-0.39912802,3.1807601,1.0004711,1.9889326,-0.015242309,-0.64045733,-1.1060857,-3.7957726,1.3248369,-1.6896373,2.959927,3.1999962,-0.87457764,1.5189383,-2.050923,0.75934225,-0.4067259,0.41732585,-3.4408677,1.5959929,1.5107268,3.325232,-2.7919104,1.7409518,-1.980634,-1.0205419,2.2760987,2.83699,-1.4819881,-1.2555703
<http://prop.org/vw>,0.24844503,0.5859109,1.1640943,1.840388,-2.5830503,-0.28918722,-0.68466544,-4.3078218,4.5437217,-2.483894,-0.7218652,-1.1902733,5.3503036,0.8000743,1.4642503,1.9466225,-0.03329099,0.36598706,-0.94976383,-3.0337586,0.8069016,-2.643911,-0.17094834,-2.7521825,-2.8082404,0.29020727,-0.9361614,-0.020430157,-0.4088469,1.5704226,-0.7226309,-2.5522676
<http://prop.org/Rm>,-1.483835,-1.4078728,-1.1516696,0.5489879,-0.18197913,2.2829657,0.7887172,-0.8716084,2.6362758,-1.7560383,1.0457883,-3.5757384,1.006248,-0.30201116,-3.4156456,0.72267103,-3.1184258,0.24079922,1.4903163,-0.9726489,0.121667445,-1.5417013,-2.0608273,-1.7992859,-3.6152859,1.2528207,-1.8957134,-2.4363837,0.5560569,0.074679635,-0.81399435,-1.9634778
<http://prop.org/PQ>,0.041153144,1.2472844,-1.0721238,1.0373324,0.16349338,-0.37415037,-2.6648402,-1.0931715,3.185773,-1.9340341,-1.2729377,-4.875876,3.5836787,-1.6371607,-5.921526,0.7423153,-2.339288,-1.5011894,-2.4198337,-0.65798396,-0.59923905,-1.2751623,-0.014478946,0.7958737,-1.6003128,-1.828885,0.33155894,-0.20141248,-0.40621603,1.9061264,-1.6857799,0.3004294
<http://prop.org/sP>,0.04480266,1.2420791,-1.0630468,1.0372887,0.16647488,-0.3700702,-2.6551898,-1.0950724,3.193722,-1.9349458,-1.2911303,-4.8610306,3.699301,-1.6178182,-5.9467187,0.7466162,-2.3457148,-1.5065511,-2.4322512,-0.65773016,-0.6037049,-1.2562712,-0.020367725,0.79171294,-1.5664867,-1.8207424,0.32897234,-0.20122476,-0.4200519,1.9343107,-1.6659133,0.32300958
<http://prop.org/ws>,-1.852687,-2.8513737,1.6210598,1.5126251,-2.210071,0.012966653,-0.73413163,0.875469,0.013057465,-3.4355881,-0.80213076,-3.5992293,5.257015,-1.2997783,-1.4555972,-0.5559715,-2.7519293,-0.8149924,-1.3781238,1.6790625,-0.40188855,-3.0574913,-1.2170371,-2.460263,-2.1951554,1.404082,1.8709351,1.6216706,-0.47583532,0.048780583,0.6090182,1.3115315
<http://prop.org/Tw>,-1.9385746,-0.09001259,0.72296935,0.9778511,0.03833563,0.6684087,1.2070918,-3.9405303,-0.45425412,-1.3084166,-3.1092925,-2.6677892,3.2649972,1.287343,-3.1865826,2.732515,-2.2254293,2.954178,0.98960763,-1.3491324,-0.63880885,-0.27438375,2.5456445,-1.0498453,-0.7170717,1.7114968,0.40396872,3.039056,1.8731911,2.4041648,3.1475816,-1.7129892
<http://prop.org/pq>,0.533291,-1.3729205,-2.6646461,2.2871237,1.2451712,-2.6223438,-0.06376034,-0.26053208,-1.6005515,-4.4377565,-1.6338769,-3.6849337,4.989471,3.3246257,1.8043656,2.0655065,-2.5262823,2.624647,-0.83771354,-0.85965955,-0.67663056,0.0073739276,-0.83456796,-0.5343733,-2.7464216,0.79370934,1.1751461,3.6367993,-0.20046493,-0.5310055,1.3454623,-0.15528175
<http://prop.org/AT>,1.4067688,-1.129401,-2.0520248,1.0765148,-1.8669388,0.26270083,-1.3251724,-0.8457597,2.1982846,-3.469587,0.14240193,0.81156546,0.96156436,-1.7701974,-1.5448731,1.70257,-1.6233845,-1.8314185,-2.021716,-2.0496364,-1.0112776,1.8385471,1.1100585,-1.2295884,-2.3258727,2.4385803,0.5309823,2.4370928,-2.0656953,0.80905455,1.3279777,-2.963948
<http://prop.org/wj>,0.7332959,0.7419434,-1.0342512,1.9317044,1.0532887,-0.43893343,-0.16568881,-0.9846612,2.256166,-1.7576287,-3.8727028,1.0837864,2.6532164,0.4895964,-0.046935014,1.8587856,-2.0533016,-0.31458667,-1.9666641,-1.092936,-1.099819,-1.1753184,0.69210845,-2.527561,-3.2913492,-1.9603994,2.342947,0.71292174,-0.024100555,3.7215447,2.0077777,-2.8291817
<http://prop.org/fN>,-0.9275511,0.49907547,-1.227173,1.285326,2.1362326,1.6105008,1.0789225,0.3874016,5.142154,-3.7107978,-1.2502451,2.6240237,0.90203553,0.6366802,-3.0699785,-0.08786163,-2.5760481,1.6492128,-3.2970345,-1.0670118,-0.024498008,-5.0622797,-0.020543773,-0.95767033,-3.464565,-0.9421311,-0.14936848,-2.3762765,0.29867786,4.0306206,-0.8909468,-0.09528508
<http://prop.org/Jt>,-2.6494083,-1.0881184,0.985738,-0.12216882,1.856271,-0.59892505,1.8594036,-0.7799257,2.4550626,-2.3739114,-1.1417022,-1.4048333,2.008417,1.1818471,0.5182941,0.7710686,-0.92605054,-1.889171,-0.82300955,0.98986226,1.0064688,-4.289608,2.6092658,-0.84993,-1.1301001,-0.060739126,-1.6508446,1.0495551,-0.098812014,-1.4340008,0.4524703,-1.1500021
<http://prop.org/ju>,1.2399067,1.8363457,-1.1329358,3.5242817,1.4256531,-2.9448981,0.7156907,-0.3877269,2.3150325,-2.3079488,-0.30963457,-4.7660317,1.331208,1.8306456,-2.0621455,1.4435115,-3.9582493,2.1244066,-1.515006,1.3697529,1.350882,-1.4675297,0.29342574,-2.6110535,-1.6056591,1.5981393,0.8359691,1.5906492,-0.678646,2.5601225,1.1176854,-3.2161064
<http://prop.org/qj>,1.5410625,-3.217765,1.4117371,-1.9889789,-0.78100675,-4.210808,0.11073706,-1.4522226,-1.7938368,0.5812012,0.033026874,-1.4499743,0.59978706,-2.3373594,0.71418047,-2.3121839,-3.4404762,-3.8536592,-2.2838664,-1.743199,-0.21704797,1.3474853,3.2673562,-1.7307072,4.61303,-1.6755494,2.5551405,1.4469744,0.8255642,-1.3964573,-0.012852653,-1.4379332
<http://prop.org/Lj>,-3.332733,-1.2489156,3.0214097,1.4477355,1.5642337,-2.2935853,-1.5230372,1.1596364,0.41736728,0.5179568,-3.1626246,0.79783666,2.4223456,-2.483392,0.97705805,-2.1933944,0.8160606,-0.6141594,-0.1689011,-0.8167041,0.13596421,-0.27288356,0.64877295,-1.6254548,0.79369015,-1.862918,0.35847974,0.45192474,-0.99400574,-0.0982936,1.0102439,-0.49983922
<http://prop.org/ze>,-3.0746331,0.4441358,1.6316338,3.0507588,-2.541843,-1.6315466,-1.9777527,-1.6142416,3.5233884,-3.9191856,-3.1007762,-1.6365935,-3.2722523,-2.505876,0.5043868,2.5137134,-1.567389,0.6823668,1.1146941,0.246504,-0.034049727,0.20478263,-0.29160336,-0.6908881,4.0441184,-2.6046462,0.641383,-3.0235054,0.5362126,5.064863,1.1458263,0.3185034
<http://prop.org/or>,-1.4350384,-2.0220792,1.0883701,0.5153953,-0.93295527,-4.2235312,-0.7484132,-0.014364045,-3.993304,1.1193122,4.169124,1.293194,-2.7818897,-1.3574842,0.71065986,-3.0412312,-0.032736614,-1.8401105,4.238969,-2.557529,2.9728262,3.2566085,-1.6263416,-4.4156685,-3.2799668,0.15539534,-0.3979008,-2.7845778,-1.2071395,-0.35611913,-3.0540583,-4.0168214
<http://prop.org/Xp>,-0.638345,-3.5111659,0.26260334,3.0061736,-0.13519059,0.04042617,-5.5038776,3.6298828,-1.3646625,-0.21156107,1.6084638,3.228795,-0.9298056,-4.845465,-0.27213883,1.5101883,0.066404775,3.1503575,-0.5629184,-0.27521688,-0.11772976,1.1820418,0.7423993,3.898811,1.3678958,0.07997978,-0.13221708,0.90076274,-0.8369317,1.4120586,2.297466,0.7003912
<http://prop.org/Xk>,-0.08201515,-0.26824668,-2.9734824,-0.7913676,4.153547,-3.3634286,-1.9798976,-4.6965666,-3.0278163,0.4803723,-2.5821657,1.3011316,0.20241168,0.38701484,-0.48380348,-0.5836078,-2.034205,0.029346414,3.3016427,-2.9022546,-0.63026243,0.7991994,2.573572,-3.3382025,3.4976068,-2.142826,1.3167075,2.7069771,-1.2672236,2.155027,6.0236793,-1.4585392
<http://prop.org/Cb>,-1.3076136,-2.5159452,-1.5957152,2.420684,-0.35540757,1.4788281,0.5634979,-0.21643806,-2.528398,2.4153268,-0.52840036,2.5984826,-0.6146067,-3.7454956,-3.5614097,2.72151,1.0035123,1.5466845,-1.0338355,-2.7617354,1.6507655,0.0873963,0.24837506,0.21134019,-2.2183764,-1.5727885,-1.0935749,-1.664614,-1.0590152,3.04098,1.170996,2.099368
<http://prop.org/Nf>,2.9788368,-1.3171436,1.1410354,-0.6345071,1.1992773,-0.66788393,-2.6274426,3.1359403,-0.27399358,3.064611,0.7069653,2.8268974,-0.6752585,-0.08836028,-2.780448,2.508214,1.7563397,-2.1623814,2.3433483,1.0252501,-1.7629081,2.0746548,-1.5169523,-1.5141102,-5.0503864,1.7706982,0.6240513,0.4114434,0.33126846,3.270551,3.7708402,2.3448074
<http://prop.org/Lg>,-1.9597476,-0.7390888,0.014582525,0.5810014,0.11084887,1.3519533,-0.82932264,3.2604163,-0.9253984,0.42921704,-0.5345198,-1.3241326,-0.6956331,-1.4026428,-1.262721,3.1572297,-2.1568034,1.1139741,-0.81272864,0.4285143,0.7637217,3.0130365,-0.74029356,3.2758915,-1.3395406,0.45571813,-0.46899265,-1.7150582,-2.0681968,0.6812872,-1.1585656,0.6515666
<http://prop.org/Of>,-3.3653438,-3.8671222,2.2710557,4.606333,0.18154933,0.40835828,-4.2010202,-0.7044265,0.019920113,-0.59758055,0.3825942,3.6608548,1.6290973,0.7051078,-2.6463723,-3.0522223,2.0180962,-3.5804646,3.5609465,-0.73184687,-0.3355851,4.734951,-1.2420304,-0.82808155,-0.14903292,-2.3698552,0.53143954,-2.1675968,-2.294744,1.3451853,-1.2437677,-1.1489017
<http://prop.org/hN>,-1.6821647,1.2162108,3.7893646,0.21687447,-0.5728327,-0.010678124,-2.787453,4.3645396,-0.5887917,0.31819728,2.2527318,3.9641054,-1.4021991,-1.0120552,-1.8506658,0.7825747,-2.6493218,-2.1533191,2.4827042,2.0197637,-0.765072,-1.8255123,-1.1037006,2.5785499,0.80012,1.5845493,-0.28161228,-0.56983453,2.930086,1.9787316,-1.3078719,-0.6081927
<http://prop.org/Ad>,-0.010192318,-4.0781603,0.32761857,3.6944969,0.9576284,-0.27830702,-6.27259,0.96869093,-2.692175,-3.5975153,-1.451506,2.6330907,-2.947222,-1.8389262,-0.34726402,2.4806783,-1.0914041,-1.5829401,-0.17059693,0.5677287,3.472198,3.433655,1.8001233,0.4840178,-0.14593427,-6.5082817,1.8722458,1.3392382,-1.1079248,2.3816385,2.2350597,-3.2562115
<http://prop.org/vm>,-0.7745401,-4.126487,-1.6424571,-1.6229626,2.7290757,-3.9859102,0.547079,-3.7221415,2.6633215,-3.1984189,3.0417032,0.9618893,0.75922924,-0.9077796,-3.7919762,-0.07555924,-2.1920302,-2.7370555,0.15530239,-2.18858,4.861694,3.941086,-1.6847304,1.6162777,-3.4053483,-3.77419,-1.0177352,1.8238254,0.8215379,-0.970551,-0.5357021,0.09800607
<http://prop.org/yc>,1.5301489,-1.6810365,-0.9026105,0.2431005,2.354768,-3.5499215,-3.141984,0.059121776,-0.42711306,-3.3127925,1.2248232,0.8554965,1.0276645,-3.729719,-1.8802363,1.4843137,-0.84409887,-2.1371787,0.48368898,1.2690958,-4.6381893,1.2647829,-2.034845,-2.3715482,0.50776315,-2.598983,-1.5017492,1.6471587,-0.8907384,4.026342,2.6740081,-0.1399902
<http://prop.org/zv>,2.0623105,0.73826224,-0.83512014,1.1849866,-0.9718475,0.16054153,-4.08841,1.2727401,-1.6974169,1.0911144,-0.62661123,5.494726,-0.29765308,-3.2761662,0.60331863,1.2239853,-4.6379495,-2.7281525,1.8067764,-4.1090746,3.602812,4.55091,-1.3312178,-1.27571,0.1624587,1.0587169,-0.13034458,-1.0847045,-0.49817967,2.1541278,-0.6277863,-0.75356627
<http://prop.org/uR>,-0.35247427,-1.8076537,-1.9014058,1.055536,-2.5013423,0.9880595,2.2245839,-0.8472525,-3.4842768,1.3307794,0.45641837,-1.3392324,2.5903063,-2.5764925,-1.520768,2.0553195,3.5635872,1.1012243,-0.42563897,-1.167323,-1.1628698,0.4268426,0.15734532,0.97709846,-1.0257775,1.6355546,0.11142337,0.45976222,-0.24758251,0.223705,2.0969942,1.3325644
<http://prop.org/pg>,0.7223344,0.7218649,1.4982646,-0.9771144,-0.04275991,-3.9949844,0.025692038,0.24924111,1.0457035,0.20597978,0.07151538,-5.732209,1.1667209,-1.9556645,2.4027896,0.50555885,-2.9066162,-2.9986176,-3.2218142,-0.48222747,3.819823,1.2602301,-0.43176553,-3.5381825,-3.454613,-0.6737389,1.1490387,-1.7484943,-0.4749393,2.877008,1.5732497,-2.5439742
<http://prop.org/KE>,2.3570428,-0.14458597,1.4858571,4.0920963,1.5937124,-1.0013491,-2.0064578,-0.2550103,-1.8244776,-2.0078976,0.353353,-0.37748048,0.80029607,-1.0647227,0.0076216958,-2.1423059,-2.0978584,0.46765563,0.5733459,3.6036189,-0.75211596,0.96687293,0.70351255,-2.4559433,-1.3444885,-1.6525558,1.2949489,2.4515631,-3.615625,2.107019,-1.0833129,0.6442456
<http://prop.org/Vs>,2.5265684,-1.6236513,1.2787684,-0.05271103,0.76044023,-3.2844515,-0.8176542,0.7084463,0.5735691,-2.736204,1.9518274,1.0822666,2.7990806,1.3739892,-1.049657,-1.3296777,0.2559602,-5.233661,-1.0155702,0.695656,-1.9812388,0.70823705,0.4997972,-4.744638,0.8665356,-0.15860586,2.271787,0.15571922,-0.81812936,4.781727,1.8412191,1.5361779
<http://prop.org/Rx>,2.4688673,-0.38913548,2.3353982,2.390443,-0.17514837,-1.8040409,0.56395966,0.9077333,0.57289267,2.552382,-0.6639285,-0.876448,-0.118040174,0.96082306,0.77406955,1.7605124,-1.9091314,2.335724,-1.3586481,0.2081137,2.9950292,0.16943179,1.1590477,-3.4619527,1.6150936,2.245514,0.08272326,1.0806297,-0.66232044,-0.21054547,0.7269451,-3.4909892
<http://prop.org/OG>,1.0203277,-0.5509841,3.2650294,0.19088168,-0.91656375,0.45317224,-3.191564,-0.24607557,-0.3117985,-0.64483553,-1.1486542,0.6299299,2.9133458,-0.77486444,1.1286925,0.24132334,-0.30911714,-2.322204,-1.0047553,-2.0990493,1.2633692,1.9251411,-1.5844505,-0.28504467,-1.5298877,0.33990887,-0.89648193,0.7226029,-0.2365429,-1.6114634,0.83365184,-0.32791442
<http://prop.org/Ub>,2.182622,-0.487457,0.68463075,0.4508617,4.3212066,2.1288836,-0.53040534,3.0163765,-4.7398477,-1.6896621,-0.19725461,1.1520923,1.8980527,0.8854268,-2.456641,-1.935092,-2.3519325,-2.6084068,-1.5343986,0.7506216,2.786993,1.6127483,0.16917425,-0.76648396,-2.4335747,0.8048488,1.5662667,2.916261,-0.9304333,-3.404528,3.0831702,-1.1884947
<http://prop.org/Nj>,0.47776067,0.01909223,-1.0185857,0.3333998,0.013094527,-1.2835618,-3.9974635,3.0171432,-2.4664068,-4.431251,-1.4392473,1.7764482,2.19471,-1.2285221,-0.12318285,-0.79966265,0.5999976,-4.540658,-2.8793793,-0.94864595,-0.96988183,3.2039618,-2.743242,1.1210525,-0.32685313,-0.9485285,0.63756293,-1.693256,-0.6112749,-0.57181686,2.6593223,-2.5216458
<http://prop.org/wB>,2.0573971,2.0326974,-1.6945317,0.4294723,0.8792607,-0.15887736,-0.49233994,1.5872314,-2.2811632,-0.7242868,-1.4805496,0.0024817325,3.3791761,1.1843685,-0.81817013,-1.0279623,-2.180016,-5.3580594,-3.1642396,0.45577824,1.6155683,3.610405,0.590792,4.110044,1.8075329,2.5111651,0.75543207,2.0225575,-1.689614,1.2739092,2.6943326,-0.03289848
<http://prop.org/Sa>,3.586357,0.9542156,-0.17336111,-1.6959991,0.5342863,-2.0788236,-4.2782125,1.7085054,-2.1910062,-2.765009,-1.5110579,1.3545194,0.4235661,-2.3148856,-1.846544,-1.9916171,-3.1144352,-1.4559634,-2.8705482,-0.9689016,-2.537778,3.3171449,-2.615897,0.7666584,0.5549234,2.2742054,-0.7470098,1.9312716,1.6824691,-1.7439063,0.99300176,2.566456
<http://prop.org/sp>,-1.4988173,0.03944295,1.3921378,-1.020732,1.1541586,-0.47114453,-0.13409744,3.6747408,-1.8538622,0.26033804,-0.90979683,-0.3658636,0.10350362,0.10960993,1.2712224,-2.76924,-0.6218301,-6.1020646,-1.0137904,1.8785344,3.0367332,-0.514776,1.984009,0.3143224,-0.347182,0.9536028,-2.3105912,0.20527653,-0.52268165,-3.3326747,2.977623,0.9456172
<http://prop.org/cq>,-2.5867674,1.1469659,2.5544972,0.02042321,-0.48772934,-0.12393479,-0.30748475,4.690725,-3.8655815,0.96146196,0.2880569,0.6482619,-1.2001147,-1.4197441,-5.4800444,0.90018237,-0.597154,-3.1502016,0.24129923,0.05787235,-0.09477112,0.17684785,-1.0463618,3.477767,-0.03143659,0.4417405,-0.30553275,-1.6034783,1.1381596,-1.2698486,-1.6225163,1.4079499
<http://prop.org/pO>,1.7636263,2.8375046,2.0194745,1.4951501,1.0675378,-0.9050675,-3.1768434,-0.18682957,-2.0368786,-1.4377341,-1.9580672,-1.1280037,-0.7562923,-1.8015144,0.22293015,0.92975724,-0.30884632,-2.6631117,-0.43041182,-2.271682,-0.7883656,-0.42931917,-2.448577,0.6765022,0.7796564,-0.9674213,-0.8650112,0.19445884,-1.449768,-0.48812237,0.9142778,1.6076938
<http://prop.org/IK>,1.1457359,1.2843785,0.6933734,-1.3259063,2.359127,2.3309946,-2.8223114,0.8155667,-2.3081632,0.26791534,-1.9222873,3.321981,2.1382563,1.9495127,-0.98251325,2.0490098,-1.0068674,-3.356219,-2.6177883,-0.55048144,3.1488261,1.2112069,-0.08657989,-0.43421522,-1.0696353,0.68264806,-3.3725002,0.570468,1.4056075,-1.1493777,1.9637746,-0.45762137
<http://prop.org/KW>,1.4360418,0.17632529,1.1221448,-0.24527816,-1.5238779,1.3651527,-2.3287768,1.6106639,0.257121,1.1206653,-0.5351632,0.036326636,-0.4644601,-1.679774,-2.790898,-2.7280214,0.94900143,-3.580806,0.41193146,-0.6022057,1.6964995,0.6403401,2.4929063,2.0252929,-0.8350944,0.29556322,-0.3382688,0.8440447,-0.78555274,1.5355898,-0.5320307,0.16591033
<http://prop.org/Vn>,-0.12458799,0.723128,1.216281,0.0009905094,-0.8050964,-1.912764,-0.0799648,1.919644,-0.71818465,-2.376047,-0.31526777,-2.7814717,3.5481634,-1.5845062,0.07530005,-0.92967606,-3.0865653,-2.681796,-1.8173795,-1.8230989,-2.4347868,0.16603148,-1.9337242,-0.0142772235,0.65373635,1.4405628,0.14609654,-1.3506936,0.9226358,0.6167837,3.755965,0.603232
<http://prop.org/Zl>,2.5656936,0.99318093,0.60223454,-2.548088,0.70539176,-1.9108399,-3.6662927,1.3653991,-1.5611072,-1.649348,-2.0565212,1.1883789,1.2440305,-0.9951085,-2.300496,-2.8767908,-2.7793996,-2.2091444,-3.7656276,-0.7229827,-2.873046,3.6982968,-2.9039304,0.22737968,0.8027006,2.6571953,-0.019924577,2.343385,1.651981,-1.065723,1.3177211,2.6350698
<http://prop.org/wW>,2.5805013,-0.033477683,1.2082763,-0.50306445,-0.8716307,-2.2602184,-0.75741506,2.6761034,0.38781407,-0.3428539,1.198609,0.09619369,-0.28779882,-0.61122906,-0.98323613,1.5707908,-0.11876077,-1.5167161,-1.848873,0.42814004,-0.77870697,0.25853527,0.12129839,0.49594805,-0.9897231,3.0703254,-0.7360426,-2.729169,0.9921027,2.6215534,-0.40027246,1.8023098
<http://prop.org/Kl>,-1.477442,-1.0262884,0.65339166,-1.0300165,0.8094693,0.5311224,-0.7232353,1.9009666,-0.5346077,0.53920764,-0.6093539,-0.88788706,0.6151495,0.1979528,-2.9103446,0.8175342,-2.3603735,-2.1951,0.23144716,-0.9636756,1.2256593,3.3182771,-2.1080177,-0.31673354,-1.6130819,3.12685,-1.0759095,-3.1419926,-0.8664546,0.6647033,-0.2881568,0.09797077
<http://prop.org/gV>,1.6729097,-1.1866555,2.187509,-2.0256708,2.0346859,-0.45419148,-2.935555,3.8256714,0.6689619,-2.1463346,-0.45362043,1.3824247,-1.7761219,0.09458026,-1.3059741,-1.2875943,1.2031498,-3.5098605,-2.1282008,-0.7818807,2.456477,-2.3044724,0.19668838,3.3119874,-1.3250989,0.2129589,0.3338612,-0.359118,2.5481625,-1.0318158,0.72986805,-0.8515205
<http://prop.org/ni>,0.4295267,0.441309,3.2719429,-0.7114105,-0.8817099,-0.6142024,-1.4704188,1.1566541,-2.2627435,-4.599849,-1.9058597,-1.4458362,0.28508192,-0.096925095,-3.008276,-3.4848683,-1.50936,-3.3353434,-0.5847468,-0.45113853,0.065041974,3.009645,-0.5742275,2.2551856,-2.5280623,-0.32672703,-2.8415844,-1.6553787,2.1738777,-1.2066202,4.548622,1.9082265
<http://prop.org/EM>,-0.005764695,-2.1173651,2.4619462,1.1398726,-1.6339351,-2.430686,-2.9229963,3.4337437,-2.4277625,-2.2247653,1.157335,0.36775443,2.6750855,-1.6062053,-2.4376993,-0.36480558,-3.8848076,-1.3535619,-0.28767166,3.0996976,1.0859177,1.6065722,-1.9775894,1.2201492,2.0971353,-0.03843868,0.28230545,-1.4377255,4.251296,-0.4118696,-0.7812098,-0.7447644
<http://prop.org/LL>,-0.13028452,-2.2977462,0.025106201,-0.060047537,1.979172,1.1872617,-3.0683277,3.340259,-1.6677158,-1.4414731,1.2344369,-2.5051205,-0.26733807,-0.4701821,-2.5697663,-0.06125312,-0.6224877,-3.565667,2.598377,3.039601,1.7094219,0.122859955,-3.1464791,2.019929,0.1439953,-0.15052986,-1.6866889,0.4622867,1.967318,-2.4553342,1.2662536,-1.5744493
<http://prop.org/uv>,1.1829902,-0.621127,0.4210943,1.2847062,-1.0735346,-3.383577,-0.33853132,-0.065571345,-0.12663157,-1.4482483,-2.9021828,1.8251129,1.5186737,-0.6742136,-1.0606117,1.9075937,-2.3430545,-5.48653,-2.4000232,0.4689202,-1.5684444,1.837865,-1.2751684,-2.0662882,0.7410202,1.0802922,1.4073521,0.5211059,2.1589346,0.04987873,4.9821963,2.8709917
<http://prop.org/WQ>,-0.48574027,-0.1297609,0.4352833,-1.1136565,4.6651073,-0.31239158,-1.552653,1.9057802,-1.4035258,-2.0249474,0.7282659,1.0949141,1.5728087,-0.19331113,-3.6595857,2.7285025,0.64597774,-3.450411,-0.5384403,2.540673,0.30611992,1.0862713,-2.3070264,-0.18271402,-0.8257088,0.1601781,1.6199205,0.34856188,2.4588957,-1.1845983,0.51673174,1.9344357
<http://prop.org/eU>,-2.7704055,0.1064828,3.7509737,-0.33002344,0.7408781,0.5710139,4.466704,-0.9623027,0.71299523,-4.473265,-0.7464085,2.2877069,-1.255428,-0.6210236,-1.0383562,3.402585,-1.6127574,-1.1792324,-4.0993567,-0.8076871,1.4795791,-3.2102294,-1.1732942,-0.34155503,-4.421381,-0.15076725,1.9501497,-2.8515155,-0.50777805,-1.6946223,0.43539733,5.6172595
<http://prop.org/yu>,0.7347725,2.739781,0.73106456,-1.716259,1.8148811,-2.3697708,-0.45487192,-1.4897454,-2.0857198,-2.0442867,0.28271547,-3.4103818,1.8916513,0.9882467,-0.7258738,-2.0560007,1.9720438,-4.5215473,-2.9545672,0.2384242,-0.35793456,0.9479433,-3.3657143,-3.5905828,-0.5120357,0.84567916,4.183972,1.3942789,-0.4834703,-3.1699162,0.817635,3.2398412
<http://prop.org/qZ>,2.5081306,-1.0510801,0.5450913,1.6331483,-1.6182029,0.8995598,-0.7226525,-2.751651,-2.0014577,-0.45883465,-3.5216634,-5.8641534,1.1653278,-2.6206598,-2.7308433,2.0851505,-4.0777326,-0.4334577,-3.9067745,-2.5038886,2.2248185,-1.5292431,0.684606,2.7636375,1.9731295,-1.7920554,0.5906754,4.788058,-0.9502862,-3.594164,-2.6866229,-0.3225991
<http://prop.org/vX>,-2.0923393,3.0491784,-2.6530747,-0.05871402,0.41615465,1.9303643,-0.123308145,-4.2506356,0.49113867,-2.3982613,0.514421,-3.4416425,0.6866483,-1.1524955,-1.7110494,2.641078,3.1459322,-0.19018699,-1.8998314,0.15192913,3.7306616,-1.9794586,-0.14521132,1.1258849,0.7899326,-3.5439587,-4.3957887,0.42717668,1.2487786,-4.14552,0.5063067,-0.13263287
<http://prop.org/Zq>,0.90977854,0.14327864,2.4163187,-0.93604976,-2.3099422,-1.1496086,2.6482685,0.6254229,2.33959,-2.067679,-2.2199755,-3.56724,2.000318,-0.40373054,1.4300747,-3.5915601,0.1262018,-1.3185158,0.33038926,2.3978345,2.6323051,0.24112207,3.109133,-1.2430923,-0.44557363,1.9562255,0.026573682,1.3429965,-5.1713953,-0.00905025,1.2398077,1.3920376
<http://prop.org/iQ>,-0.26335073,0.12572215,-0.35601303,2.4383564,2.475169,-2.69828,1.2649614,2.435127,-0.12033368,-3.371681,-3.302003,-2.1721551,1.5923055,-4.09413,0.6179856,0.16830121,0.7386958,4.012308,-1.5557672,-2.2905455,-0.6525725,1.326373,-1.1775805,-0.82290065,1.7586277,-2.8839707,-0.2324946,2.8290591,-3.6127706,-4.4369044,1.4132838,1.8198124
<http://prop.org/qW>,-2.7062688,0.48302162,6.0428257,2.4368253,2.8111129,2.1989596,-0.3804828,-1.2968662,2.6963909,3.504713,-5.8389935,-0.3953277,1.1605343,-0.9391155,-1.2799009,-1.2156668,-1.511016,-1.1684561,-4.108456,-2.9937553,1.7700661,-2.7946546,1.0662272,1.8414981,2.2037249,1.5463377,1.632254,3.2394521,-3.4924443,-1.5272532,-0.7469456,-1.3535237
<http://prop.org/qD>,-1.7673542,-1.8074247,0.060857967,1.6002097,-2.1278696,0.6943795,-3.975676,3.1761012,3.0957608,1.5406357,0.2843051,-1.2359113,0.94762474,-3.7775104,-0.72474146,3.7712212,2.0816576,-0.6526873,-3.7309337,-0.13684453,0.5862234,0.87806004,-1.4864951,1.6014936,-4.2966337,3.9621558,-0.25852156,2.2177277,-0.4598366,0.1203922,3.356691,2.4473684
<http://prop.org/TA>,-0.31730732,0.39659938,0.49600303,1.68459,2.401066,5.2910786,-3.8372808,-1.2865567,5.4132414,-0.015440482,-2.2965262,1.7177278,-0.2640027,-0.5151851,-4.156228,2.2331996,-0.82671684,0.5545583,-1.3385582,-3.4892457,2.8553777,-1.2426577,0.40029946,-0.6292603,-2.8349407,2.337923,-1.4877753,-0.23255272,-3.7865634,-0.7821259,0.25942555,0.14666201
<http://prop.org/bs>,2.044407,0.2558795,0.38841012,5.24153,0.053298563,1.0788565,-2.438725,-2.760765,1.7254797,-1.9538642,-4.7341466,-2.1928604,3.2267096,0.25073507,-3.295302,3.7111182,-3.900219,0.45701194,-0.6076185,-2.6386151,1.9226426,-1.2497011,-0.9240278,-1.2155292,-4.176342,-3.311719,2.1276317,4.6915526,-0.66545475,1.6481824,0.16700418,-0.85692376
<http://prop.org/aF>,1.8023353,-2.1915843,-0.48043442,0.72191715,0.8143892,0.40009093,-1.0669429,2.0292163,0.36089635,-0.46269855,0.37278226,1.3194093,2.0532808,-0.03216149,-1.5216355,1.8218307,0.79790074,-2.236564,1.3331954,0.009974892,0.6148516,1.4366412,1.5509768,2.465225,-0.9176006,4.3779535,1.9183326,-2.5644581,-0.0903139,2.0691597,-1.0115074,0.5682891
<http://prop.org/dC>,-1.3693905,-2.2225804,0.6378793,-1.5855814,-2.3799126,0.5206715,0.7902612,-2.8365874,4.1110563,-0.7812933,-0.8189854,0.48799092,-1.4075774,-0.8043799,0.117963135,3.3953834,2.169535,-2.8172345,-3.045692,-1.8806491,-3.0369427,-3.819378,-0.103591844,-0.77035725,-2.2018878,0.66963255,-2.3343647,4.2977924,-3.369247,1.2267691,2.061049,0.9477421
<http://prop.org/os>,0.96515876,-1.5432644,-0.81056553,-2.2649064,1.162871,-1.1502051,0.5356389,2.0222633,2.1105986,-2.3807514,0.5815872,-0.61921686,0.5126323,-1.5077947,-2.763139,-0.42090112,0.12168914,-1.5515175,-1.1351796,1.902906,-6.083382,-0.1313532,-1.5144094,-2.233536,0.32549876,-0.61256576,-0.8143574,0.8989855,-1.023939,3.1105232,2.3050432,0.5133626
<http://prop.org/eM>,-3.8361578,0.6288083,0.9662273,-1.0397987,4.5752473,-1.8681672,0.19100541,3.0984783,-0.82099694,0.8748017,-0.655866,1.352301,-0.025170734,0.01537254,-4.0824547,3.4742455,1.7993939,-1.1981266,0.73105866,1.8455285,-2.0786004,-0.6869436,1.9612914,-3.4640863,-2.2023551,-1.5714031,1.3239948,0.42914027,-1.542364,-0.55361307,-3.0200324,1.2899904
<http://prop.org/kF>,2.2807903,0.5897343,-1.0590452,1.300448,3.8837447,-1.2499813,1.4392354,1.2532655,-0.3402334,1.7867198,-0.0010764288,-1.0201772,0.09108402,1.3382914,-5.464512,1.5404538,0.2054348,0.0917752,2.9751074,2.45638,0.6220959,-1.1305877,3.0781207,-3.8929312,1.9311359,-2.1973665,-0.5595999,-3.1939821,3.1496978,-0.20951463,-5.393495,1.778656
<http://prop.org/Zb>,-0.4575123,-1.7717386,-1.234074,-0.82363045,-1.5001494,0.08192819,0.15106939,-1.2132586,-2.8050885,0.15785779,-3.866521,-4.549018,-0.11815299,0.27423418,-5.286454,3.591884,-1.6302513,1.3342843,2.3892837,5.0223727,-1.1002496,-1.2707185,0.7449434,0.033306416,-0.09533658,-0.3490854,2.5759022,3.7887084,-0.1307125,4.5618105,-4.2796845,1.2098559
<http://prop.org/OW>,-3.4060576,-3.208961,1.9154376,-1.7529879,0.30260476,3.5448227,-1.7597262,2.349605,1.2293556,-1.2137015,4.093457,0.49129498,-1.2026848,-4.12132,-6.2327814,-1.8945212,1.0562173,-0.53352946,-1.3196509,1.2284569,-2.0714862,-2.1437707,5.5741177,2.7715948,-1.4568728,-2.5626762,4.156258,1.0163124,-5.0376134,1.7666963,0.996241,-1.0182992
<http://prop.org/fh>,-3.2334213,-0.7905265,-2.0411777,-3.8507586,1.1493529,1.8592285,2.6674006,1.2223588,0.5146647,-1.9847584,-4.9156837,-0.6844947,-0.46214062,1.529833,-3.0931816,-2.5281289,2.0332253,-0.040038537,-0.670636,1.1829864,-0.76642656,0.036937416,2.6410222,-1.1195185,-3.1348808,1.4323876,0.071314834,-1.1765208,-1.673767,0.6784452,1.2181349,1.092774
<http://prop.org/Mj>,-3.375187,-0.56780964,2.3591473,-1.5474182,-2.3367603,-0.3878314,-0.6890057,4.5045233,1.9138731,-1.6388963,1.7459384,0.7553842,-1.3894637,0.9287306,-2.9009047,-3.0435927,-1.1076832,3.9039805,-0.15267615,-0.7981113,1.8750061,0.020018239,3.3942642,-2.4307034,2.7493317,-0.97132957,5.7975082,2.0723991,-2.261212,1.5688661,0.1172635,1.3879901
<http://prop.org/pl>,-1.9505966,-0.24081756,-2.4647014,-3.1868346,2.6092074,2.200136,2.0755405,2.1024551,1.3488868,2.0682065,-3.408768,1.9611216,1.8105007,2.0860484,-0.090714775,-0.57152873,0.78540635,-1.5269487,-1.1954392,0.22118425,-0.5195504,-1.0707392,0.539041,-2.4463496,-0.8764191,0.06837155,0.31285727,0.1305434,-1.9568454,0.95547754,-0.5223258,-0.3755106
<http://prop.org/SF>,-0.9595862,0.6288946,0.31098664,-3.2639742,0.14313062,-0.519423,3.0344338,0.7222862,3.232389,-1.7713714,-1.0511425,-7.904523,-0.9241898,-1.999505,0.18991585,0.5296526,0.54330665,-0.6908826,-3.5478795,1.5483217,1.9223067,-0.906055,1.5217648,-4.007572,-3.2018614,0.7813084,2.1400194,-1.4612182,-3.7413409,3.0499747,-1.0993059,-2.5157816
<http://prop.org/sG>,-0.94548637,-2.8170035,-1.5712767,0.6036235,1.8674254,-2.216333,2.670279,-2.5500183,1.2389709,-0.5792295,0.86068094,-3.6040094,0.286383,2.9740453,1.5425563,1.7964253,0.29306346,-1.5074928,5.1074505,5.2337785,-3.0898707,2.731783,0.98610276,-3.3672757,-0.3200407,2.2091427,2.6376612,1.1502191,-1.8409053,4.2201767,0.43620476,2.7317672
<http://prop.org/Px>,0.3602821,-1.0532295,2.317901,-2.7147262,-1.1232604,3.1892495,-0.6345044,1.3639942,-2.3121572,-3.863153,1.8243456,-0.04471727,-0.44729748,-0.66276973,2.565667,-2.181306,0.058521137,-0.7506999,3.386015,1.6032095,0.67375356,0.15203142,1.9701324,-0.61458516,2.723584,-0.03976338,-0.9457619,-2.1780777,-1.1637201,-2.3109145,-1.2336197,-2.53544
<http://prop.org/Kk>,2.9412677,-3.595036,-0.09470936,-0.5281603,1.3785614,1.2537254,-0.32360664,2.4393187,-0.8668607,-2.0234933,-1.8146051,-2.4111998,2.1430247,-1.276839,-3.3199332,-0.10850649,1.630603,-1.4201188,0.60634977,-0.5504375,1.074564,0.21445641,0.33340955,-3.564445,-0.11765584,-2.8396685,-2.1290507,-0.26165512,0.74664456,1.7044829,-0.3846129,1.051116
<http://prop.org/UX>,-0.8090982,-3.464329,-1.1017566,-1.2397373,1.2133609,3.0529873,-0.897278,-3.1745353,-0.17523457,-4.7819614,-1.0160941,1.9021771,1.6459969,-0.85839266,-1.7121414,1.6709487,1.5781465,1.0179182,-2.7556958,0.29562446,-1.8358611,-0.5336817,0.55194014,0.7103922,0.84205395,0.5182875,2.8334572,0.28846303,-2.379702,2.1660318,-1.4476639,-0.92637444
<http://prop.org/VB>,-0.9800292,-4.389805,0.6569466,-1.9394515,-0.029572602,2.6557527,-1.286198,-0.3168634,-2.6430817,0.5295619,-2.7987742,3.1876626,2.4453073,-3.3747983,-1.2214874,1.2472445,0.40807492,-0.30159643,-1.770155,-0.11055835,3.0044835,0.94073635,2.6216757,-0.8218362,-0.14745481,0.8573796,1.1298819,2.8380249,-1.6666172,-0.90048766,-1.6740985,-0.6188265
<http://prop.org/SE>,1.0288618,-3.765497,0.6572243,-0.15039203,0.7629519,-0.31594956,-1.7488202,1.2447659,-2.4348698,-2.9889612,-1.1954379,-3.1608357,2.4639583,1.2496567,1.13382,0.1436016,0.6911508,1.7715241,1.0117639,0.42330435,0.69995904,3.5731218,1.1757972,-1.2328353,-2.1056328,0.031081278,1.0559987,4.206089,-3.4643142,-0.42420563,-0.20499207,0.5813127
<http://prop.org/yw>,2.8776062,0.05380547,0.014899071,-0.4603376,0.0020317745,1.7609361,-0.7244381,0.21337323,1.5439119,-1.300616,-0.8500791,-0.4572354,1.978624,0.25084075,-0.25385436,-0.26721013,0.5400769,-2.111619,-1.1870044,0.9551815,1.1727504,2.8411832,3.4081132,1.5638982,-0.6146874,1.5909394,-0.23092122,2.2017186,-4.129831,2.1841896,0.14114586,-1.8042456
<http://prop.org/cn>,-0.641316,-3.8002136,1.0697154,-2.2758355,2.5165884,0.8723471,-3.745478,0.7295454,1.536941,0.05846326,-1.2212005,-2.6060438,-1.2762648,0.83996534,-2.7737567,-0.06881387,-1.239655,-2.88543,2.0722215,0.64596164,0.1278274,1.7306244,-1.6965162,-3.9332669,0.058631487,0.66938424,2.9256501,2.5562515,-1.0185859,-0.48560765,-1.8264173,0.26377705
<http://prop.org/ZZ>,2.8064382,-2.8920507,0.04880536,-1.1914155,1.1888753,1.5170863,0.19429326,2.203591,-0.7967834,-2.1763773,-1.5114862,-2.0175803,1.6272446,-1.4638269,-3.4875195,-0.37036353,1.547701,-1.2714014,0.77846414,-1.2392321,0.7735475,0.053298455,-0.07884185,-3.060665,0.21746953,-2.8052342,-2.1000435,0.28962082,0.60649693,2.5810497,-0.34591842,1.2407833
<http://prop.org/LA>,-0.44941878,-2.9962254,0.01272366,-0.027868073,1.9347447,0.61888975,-1.4783769,2.6648135,-1.6113615,0.6109672,-0.63578093,3.0868194,-1.0630989,-1.3923807,-1.1510803,1.1137294,3.53073,0.07656604,-0.075061716,0.7285278,-0.32761538,1.79987,1.0606279,-1.9465557,1.0929333,-2.5182338,2.8429854,-0.40168184,-3.6451004,0.33825415,-3.6870663,0.31041715
<http://prop.org/nu>,-2.5695894,-2.3322084,2.1207619,-1.6133035,-1.3414811,0.06111322,0.05184485,0.080558844,1.06361,0.9194372,1.1106982,-1.098862,2.2005243,-1.4128228,-0.17602146,-3.0446935,-0.5268017,-1.6952603,-1.3562485,2.7228525,-0.26038286,-0.095148236,2.1555846,-2.2573717,1.2638698,-0.8060028,2.9233718,1.5790335,-3.2691908,2.2701735,-1.489926,-1.8116447
<http://prop.org/kD>,1.1020474,-0.59151816,2.8314853,1.1451415,0.65186894,2.3892362,-2.2968452,-1.3995922,-0.0069567,-3.013339,-1.246335,-0.18974872,-0.10087522,-2.4544315,0.81033754,-0.5430232,1.2781533,-0.20898643,-0.5902336,-0.12695886,-3.4103482,-0.73678213,-0.5137922,-0.9378498,-1.5266795,-2.2930033,-0.67623204,1.6765068,-3.8868268,-0.012539604,-1.9521167,0.926957
<http://prop.org/Sc>,0.14568152,-0.39017016,1.4261948,3.1360924,2.7092266,0.20426725,-1.3494471,-0.67666566,-0.99173373,3.3066616,1.9615529,-5.021263,1.2048796,3.5217953,2.3928232,0.75230575,1.2813288,1.8796557,4.370807,-2.0756636,2.3729634,-1.1274307,2.0727303,-0.42162347,3.981744,-1.4978678,2.5729134,1.4779469,3.5039568,-1.9404099,0.5354104,1.8395905
<http://prop.org/IT>,-0.6855495,-0.80832684,0.88359916,-1.4299134,-1.7527705,0.12601086,-1.1863557,-1.0674231,1.9244392,0.24458918,-1.0741042,-2.5946748,3.7985914,-1.0452725,0.14421345,0.005431862,0.20806259,-2.4778123,1.3889644,-3.233439,3.1521041,1.5929095,1.0998056,-2.9916046,-2.0370872,1.017577,-0.89759785,-1.4422837,0.19305806,-1.8111455,1.0218273,0.122579746
