,0,1,2,3,4,5,6,7,8,9,10,11,12,13,14,15,16,17,18,19,20,21,22,23,24,25,26,27,28,29,30,31
<■1■xpAShsbDJlzcWcpKpSTzLFNDeKfiyyOk>,-1.5650966,1.8757948,1.059227,0.019714555,1.8415927,2.1815019,-0.71624184,-0.20850947,-1.575116,1.8436469,-0.07002991,1.0181749,1.9476811,-0.6071345,-2.422594,-0.30250397,0.006871004,-0.37263596,0.885367,0.54751855,-0.16097215,0.32181263,-1.2055309,0.6992955,2.687732,1.3855602,1.4673388,0.4579925,2.4230564,1.4802521,0.04881366,0.67036843
<■1■CJcpFYLIzClfHwCVguMNKjuYBIVvOGbw>,0.4405466,0.717225,-0.08998091,0.41368943,-2.0612988,0.68686646,-1.8221216,0.6194681,-0.22701156,1.5971363,0.4166995,0.13954963,1.2250286,0.6506576,-1.1338315,0.5585688,-2.8214989,0.2634921,1.1034387,0.5358222,-0.26491505,-0.9062857,1.1835737,-0.2741197,-0.1613536,-0.5118181,2.1130283,2.8115091,-0.6372322,-0.36581153,1.6739066,0.050918747
<■0■ngcGvFBKkfuOubGZxfUFFWqDZDxxtMaL>,-3.2971041,-0.9370451,3.0997255,1.0001738,-1.9704762,1.5451944,-1.1865567,-2.0132408,-2.4366841,-0.6070085,-1.2967974,-0.2751853,0.19409035,-1.7953777,0.14239654,0.90931094,-0.5655091,-0.7397705,-1.023889,0.4049965,-0.73188156,-0.7670696,-1.8664851,-0.06821015,0.018516904,0.022297818,-0.42305332,0.5585149,0.86874956,-0.38789487,-0.9812578,0.9622518
<■1■LBbGYXCliFyJjcHTAFMkSVmSWaqjyZUL>,0.7183495,-1.1240473,0.2507782,-2.1571736,-2.239393,-1.4155351,-1.6501795,-0.50614524,-0.96305406,-3.137952,-0.054387107,0.5909958,-0.7070339,0.12797932,0.03903383,0.6367796,-0.9569267,-0.0895823,0.57660365,1.6276333,0.7093257,-1.7113823,-1.7463163,-2.7695448,0.1208279,-0.20301597,3.4331186,1.1784592,-0.5948114,-0.48625582,0.6721881,0.78471476
<■0■CRZrPoRcrKMBqXawMiIKOqLktiwuPpTx>,0.100078344,-0.9174502,0.65789294,-1.3267605,-0.67687404,0.8520739,1.7367792,-2.5834897,-0.7844014,0.37749088,-0.5367231,-1.3907954,0.19405986,-3.6892562,1.1525376,-0.5488429,0.4076205,0.28312045,0.47147104,-1.5757651,0.512448,2.3781102,-0.031995125,1.4471285,1.4507273,1.5768181,0.3079224,-1.0062635,-0.22271557,1.9069711,1.7611067,-1.43756
<■0■zkRKFJfHiGTBUxgaAnhNTnpmILAtZqiG>,0.12474383,1.1165242,-0.38709491,3.667716,-1.9790895,-2.0859692,-2.1531155,-1.0335702,-2.0744092,-0.21467748,0.09224965,-2.6909876,4.3518276,-0.695205,1.7161037,-2.0657067,-1.7733713,-0.7579048,2.0130944,-1.0606049,0.44733578,2.4915257,2.8677216,-2.510766,0.86487997,1.3201064,1.9712346,-0.5839326,0.99851745,-0.3681813,-0.19054726,0.5731287
<■1■bNRfnOEPFVsJeUiLfGueShIqdWKMvKBe>,-0.9423159,1.069949,2.5266745,1.6421299,-2.4110818,0.31046668,-4.0375285,-1.2476046,-2.5956903,-1.662809,-1.3033243,-1.2478423,2.917119,-0.93994045,3.9968343,0.3759559,-0.8581219,-0.04978307,2.2587578,1.4251654,-0.56412464,2.2348273,0.450171,-1.9587905,0.97607416,1.5232068,1.1028413,-0.40185127,-1.1302497,1.1518214,-1.7487824,1.6005874
<■1■GLMmusjqHywcxdGeTEZqcikXvOKGIQZU>,1.0550714,0.90460694,-1.2428943,-0.17520215,-0.38921285,0.7128642,-0.071263134,-3.8754346,0.35852528,-0.7454782,-0.76836264,1.2659,-0.7852699,-0.3652918,1.8135248,-0.9369087,-1.8846227,-0.2055717,-1.146659,0.053913053,1.5240493,-0.77505815,-0.42844078,-0.88693035,0.12863356,0.6334468,3.5503275,0.03192633,-1.6598306,2.2929933,-0.19358331,-0.045805033
<■0■QciTthgBniMgkcAQrKUEQoVQsejyhTRh>,-0.9582694,0.18689644,1.3905914,-0.9276293,-0.4801706,-1.8773755,0.21933293,1.3586539,-2.9213693,0.1723806,-0.15095584,-1.41693,-0.03588445,-1.0744283,-1.2351959,2.1039345,-0.18846875,-0.1497319,0.51144767,0.54215443,-0.074966215,2.6012864,2.3789008,0.44206417,1.8240058,-0.7570231,2.5978816,-1.0884207,-2.0537398,0.117261626,-0.41624528,-1.0977448
<■0■RNRmdDWLXeVWgLyJpGnnzcPiSjWWDeBD>,-2.949898,-1.1442487,-2.2887907,-0.26557666,0.5565306,-1.6379787,-0.11382657,0.6284402,-3.3463383,-1.280457,-0.99732894,0.2181771,0.9538921,-0.4226233,0.27239305,0.9297629,0.30044025,0.90005016,0.48106262,0.086628154,-0.05437916,2.224862,-0.000139631,-0.59909534,0.43560353,1.4859855,1.2226571,-2.6534467,-1.2885576,-0.48907235,-1.1394058,0.23100415
<■1■QfBXrpEqnJkITBJeKffKSFBnQzVoCHLH>,0.52306354,2.1839502,0.6996888,2.8853943,-3.5903244,1.2179204,-1.3173293,-2.0065863,-1.989634,0.10399465,2.6385467,-2.8303838,2.8381243,-1.5515434,2.7963545,-0.7147706,1.2655009,1.7427225,1.8303978,0.69027483,0.67478865,3.2417662,0.64452624,-1.4741234,0.46171963,1.8575519,1.4544839,-0.3299396,0.9199838,-0.71977144,2.2131367,2.2513707
<■1■qjmchUOylmDAjltTcMBfihMvvbFGBLUq>,-0.44508305,4.014903,0.42856708,1.1230308,-0.414714,0.47033453,0.038742468,1.0996265,-0.26520175,-0.2339869,0.040184233,-1.4325657,-0.17446344,-1.3909705,0.010241531,-1.0351973,-1.8807166,0.4656365,2.3139725,0.28653166,0.87302715,2.023763,0.627489,-0.8349003,-1.6392082,-1.8082651,-0.3343082,1.066495,0.99695635,-0.20224588,2.2335062,-0.7845537
<■0■UuohPoHTCdvjtGSJxbxMCplvtXIPpqht>,-0.5425103,3.7403438,1.9417846,2.0337095,-0.55945474,-0.02677658,-1.2027297,0.98381305,0.6720406,-1.0227821,-0.6700815,0.5835576,0.68750757,1.2952793,-0.021325815,0.12156953,1.2960104,0.69086295,-0.028191248,-1.2462239,0.7534677,1.476112,2.527608,-0.4507625,-1.0295181,-2.2315614,1.482585,-1.2563385,-0.7202754,1.3525165,-0.9306453,0.7465002
<■1■ULdZOdglkiBNaQEoTtjcMvgmCdCbpESz>,-0.064051755,-0.26362333,0.34593883,2.7770524,-0.14102913,-0.61515933,0.56014985,-2.6658878,0.6487681,0.86750436,1.23674,1.2651732,0.7992762,-0.0857558,-0.06290135,-1.1053005,1.1149752,-2.1882555,0.4012585,2.09791,0.8085854,0.7435957,-1.719794,0.13572027,-0.39048773,-0.025805974,1.4208548,-0.5671861,1.2193257,-2.677748,-1.0337425,1.0463574
<■1■xbYNTOewUXRWWPxXhMghfQpzaXxfxFAz>,1.0320269,0.095787324,1.730294,0.6943829,0.0038509346,0.09592135,-0.6744427,-1.3410465,1.1593714,0.5350623,0.63781637,0.20054345,0.75319815,-0.84850335,0.22252944,0.6316993,-2.938146,2.7940457,1.579821,0.12376784,0.81570673,2.1981342,-0.18513954,-2.5576448,-1.8859192,3.5489771,-0.7684529,1.3983783,0.40483013,-0.029041411,-1.774396,0.41560256
<■1■NAeZtgFkdwurtCBItXTUHAmOTCCVXhbZ>,-1.7981861,0.48483396,0.17103276,1.707174,-4.730547,-0.2899268,-1.5952219,-2.3745704,-1.6275613,0.0052477983,-0.47379115,-3.2179782,1.8031063,-2.0659173,1.1425363,-0.59058464,-0.8273023,-0.524863,1.7300917,-0.7935854,-0.11436778,4.0610085,0.28560653,-2.098932,-0.44150445,3.1280966,1.4409462,-0.20904714,-1.5507646,1.9745202,2.2317498,0.56184
<■1■nzJNODPulomwYsIdmYrLzJoQsXsbSaYh>,0.568826,1.42399,1.3507174,1.6479418,-3.1751924,-1.515214,-2.3491414,-0.5796528,-0.29622197,0.31913906,0.9823207,-1.3517665,3.0989711,-0.41151837,0.21547672,-1.2770336,-1.9783069,-2.0771704,2.2759671,0.8378451,-0.08654897,2.9997687,0.5819441,-0.49630877,3.0698094,1.0206771,5.1924253,-0.32618,1.1454291,0.2639354,-1.3495151,1.965372
<■1■HhDnegfoTPMqoVnDDaoFenmcxCEHNEZD>,-0.5071131,0.2331479,1.3973997,1.1879154,-3.9850779,0.6528309,-1.9878261,0.014775953,-1.3083755,-1.9438382,0.27860484,-1.0846422,5.5196,-0.47182098,1.4006875,-0.3286234,-1.0207494,-0.85352653,1.4684514,-0.49412593,0.23748852,1.3472984,0.7723027,-1.2796513,1.816878,0.63401747,3.7685506,-0.20396854,-3.168458,1.5133588,0.716364,2.8371937
<■0■uLlsHWQuvWsvstpVjGgRyOqJSDKlvSQv>,0.5013659,-0.2428168,-0.062129308,1.0952882,-3.3210135,0.31627798,-2.3771346,-3.5236928,-0.89269894,-1.1422658,-1.2909662,-2.8186727,2.1112416,-3.415228,1.3633573,-0.67373276,-1.1358047,-1.1816523,3.4734664,-2.123955,1.1830659,1.0231793,0.000733123,-1.4894285,1.2306969,3.4416769,3.3196836,-0.27962708,-0.27189338,1.274471,0.63725185,1.2218827
<■1■HauukBzMuHAirHPOshaDlidTZwjbgnrC>,-0.8846415,2.044403,0.494844,4.273426,0.39858654,-0.16352631,-0.29753292,1.9212247,-0.098890305,0.79136604,1.6805594,-1.321374,0.58314735,-1.4894285,0.27502307,-0.33997637,-1.6692501,1.4241369,1.0619212,0.45448092,-1.9168674,0.8042103,0.37211725,-0.072366334,1.9310628,-2.548644,0.2055894,1.3606945,-0.010475308,0.10504951,-0.28728896,-1.5030613
<■0■qLCQjxqbcGTtiufrZhFKQOTydrsruKMD>,3.117668,-0.041298427,-2.4986448,0.7883545,-0.19678791,-2.4833968,0.2261539,0.060138397,0.1986055,-1.3842827,1.371632,-0.3281382,0.14507435,0.68243724,0.33033082,0.20945717,-0.99288553,-0.08834518,-1.763506,1.7092838,-0.35079268,0.6147875,1.3663446,-1.7050723,-0.37086892,1.6653061,2.7681856,1.9872599,-2.2719371,-0.944649,0.8769521,-0.36858606
<■0■UnXvTrIoPrCyiQtNiHBFJZQJPEmoBFyi>,1.2247577,1.6447562,-1.0649405,-0.30928576,-0.46430498,0.63948214,-0.91752934,0.29043716,-0.5098216,0.50625944,-0.0063665155,-0.8394272,0.29403454,-2.697772,0.34933144,-1.9349762,-0.050398402,2.755393,1.4926786,1.4917624,1.1349835,-0.3970369,1.9460404,-0.20775646,-2.144005,2.1939304,0.4315996,-0.36190316,1.5343394,-1.4224172,0.93716145,1.7234133
<■0■UPdXDzJxHQkgEtgJBysqFPieYYgSozze>,-0.704812,-1.0298657,-0.07774911,-3.0282998,0.13913547,-0.7002844,-1.9986917,0.6801472,-1.6186938,-1.9814632,-0.265418,0.52090675,1.1770762,-0.73078847,-0.12437943,-1.4929528,0.22490223,-0.584582,-0.21963757,1.4799557,-0.44548458,0.11990158,1.3697264,-2.2777405,-1.7441325,1.118276,1.9766088,-2.059357,0.037612196,-1.3066363,1.3722274,0.9139397
<■0■CRjqjGqJlbyVIvUndLbruCqmoeHNNmzz>,-0.8148962,-0.15508355,1.2465684,1.4292173,-0.07567188,-1.2430456,0.953497,-3.0609074,-1.8746889,-1.9881881,-1.6232766,-1.8210166,0.49833944,0.7025773,-0.64341456,-1.3771878,-1.6851356,-0.10550833,-1.1942136,0.58468145,-3.1406236,1.9327312,0.82874763,1.7928963,1.0999031,0.046982676,2.5421467,-1.1367399,0.47071356,-0.82546085,-1.3905518,-1.5950494
<■1■qDTRVmcsXvSIHKndUeLldRiJQWByYWnJ>,-0.14530256,0.978752,1.7516818,1.6092772,0.42086822,1.5530171,-0.14137642,0.46818817,-0.65197223,-0.37430215,1.3231609,0.39489636,0.015909525,-2.2008321,-0.47801667,-0.7419579,0.15086797,-1.5316083,-0.78060293,-1.6298597,3.3169608,0.39093336,-0.59882116,-1.8618369,0.46348038,0.7544891,-1.4241984,0.17728534,-0.2125439,0.7959433,-0.078564025,0.0002578935
<■1■EERjAqMnhBEPobKPndczxdfNyOkeIsFs>,-0.3342408,-0.6030483,-1.7506397,1.5166569,-0.38513348,-0.8038944,-1.9031999,-1.4600477,-0.20510194,0.74801385,2.0381582,-0.040573847,1.3183674,1.7349664,2.035327,-0.26500505,0.35362053,1.2131085,-1.1373572,1.3428065,-1.7696211,-1.9276386,2.1948402,-0.2928173,0.060009602,-0.20730475,2.7532554,-2.0962222,0.59469116,1.9959525,-1.1370758,-0.0039748773
<■1■TJtuYjrSBbJWgUTiVikJtpVvgLtSwiFB>,-0.566802,0.43142632,-0.72271395,1.2468978,0.11611069,0.16633108,0.69830513,0.33856443,1.9154767,1.5842184,0.6899288,-2.1596735,0.9521854,0.15867865,1.4325328,-2.0930395,-0.055820487,-0.8880123,2.000664,-0.11372556,0.3834278,2.019025,-1.221772,1.4238871,-0.90030533,2.0701451,0.43622172,2.5705888,-0.6016825,-0.21480595,-2.007455,1.618555
<■1■rLTBkslfPjguqiWNznkCgsReHFWYEKSh>,-0.46959174,-0.39578265,-2.8774009,4.172794,-0.7914999,0.22521478,-0.9135642,-0.00927942,-0.062456246,1.052276,0.6872062,0.24078876,1.4418247,0.56506836,1.7371613,-0.82085276,-3.738389,1.8226916,1.355058,1.3998352,-0.20328471,0.08780484,0.45249805,0.3452153,0.5058377,-1.9566063,0.6080588,-1.4097805,-1.2579727,-0.8000667,2.259199,1.4573693
<■1■eShERmzbjFRkRxswADpUtzlUntyQABum>,-1.005155,3.0749316,0.53996456,2.3103077,-5.6676474,-2.5894282,-3.6126904,-3.0805273,-1.1531091,-1.164004,0.7622002,-3.983447,6.7292576,-2.9455264,3.9093385,1.3850622,-0.28369966,-2.07425,3.3913429,1.5333585,0.71532834,3.913521,1.4757396,-3.7103753,1.4548023,0.55501056,3.978949,-2.1034317,0.09555334,-0.31150538,0.97303337,2.6294823
<■0■YDbNzeCzdplpjeqzRXdzUBKLBliOsDQS>,2.3765688,0.6601074,-1.0160404,-0.78481156,-0.70656455,1.3837308,-0.2541444,-2.2066326,-0.10015877,-1.1550127,-1.1722127,-0.25929958,1.9810767,-0.5680036,-1.2916403,-0.6340784,1.0451716,0.11470914,-1.7263815,-1.2167472,-1.7437056,1.6103207,-0.8835629,-0.7467953,-1.5060517,1.2845348,2.2298684,2.3781123,0.1222261,0.9333688,-0.41443786,1.663108
<■1■EvEyYmXEkibpKeQokKQbbiZkHEpcsSbJ>,-0.87701863,1.2210745,-1.007181,0.55059063,-0.2231398,1.0081861,-1.2856467,-0.2216475,0.36258322,-0.5728177,-0.8755634,-2.9788265,1.1329646,-2.5022042,-0.58465725,-1.6688383,-0.41052747,0.8688219,2.112661,0.42953667,-1.751647,0.66606075,1.6405766,0.3667494,-2.1495776,0.47615114,-1.8933784,-3.1480846,-0.8769924,0.96420914,1.4053518,-0.40662542
<■0■javLDthItldfOWIRhhRUATgsHXbxtIdy>,0.19092263,3.2828932,0.47012094,4.9886475,-6.821905,-0.1921789,-5.685959,-4.3608046,-3.4312646,0.92162555,1.587777,-3.1594715,7.1947074,-4.0479007,4.6709547,1.3656871,-2.3275065,-2.0219185,4.223584,-1.0674006,-0.07960334,6.9426517,2.0308986,-4.804084,3.7594626,4.053305,7.076688,-1.9518726,0.102913514,-1.1781905,1.1268111,3.7088962
<■0■XaUClpgkIMJZxARAzRLWLELMfEipoidA>,0.5440875,1.7547377,-0.2612617,0.79108745,-3.7112072,0.027484082,-3.1331449,-1.9718288,0.39806303,-2.9987054,1.7123178,-2.450454,1.1749531,-0.7499911,2.283641,-0.53594893,-1.9515251,-0.70152545,1.7808564,-1.3731232,-0.1711967,4.0928345,-0.05456997,-2.0841126,2.0023293,2.438805,1.2242612,-1.0405453,0.891352,-0.3926752,1.3819419,1.4592384
<■1■TrIeMBCIcUaGFIrmXRZbpxkZMqTPzFTB>,-1.125511,-1.1321456,-0.10659207,-0.5993675,-0.3658161,1.4095194,-0.9779428,-2.2073839,-1.4261847,0.4787858,-0.8990688,1.2855258,2.640187,-1.5290112,0.095421545,-0.3917951,-1.187193,0.5487768,2.1714423,-0.08199657,-1.8304831,0.16049567,-0.45104128,0.118172824,-1.6525505,1.3072159,-0.77302295,-0.46237323,1.0916516,1.279223,-0.7188174,-0.85335004
<■0■dUGXZCzGvNdiORgFgppumjRDwOzcsHbZ>,-1.2870332,1.1565341,0.4577877,-0.7993242,-0.49567887,-1.1285062,-0.9653528,-2.1466324,-1.2871587,-0.7907439,1.0491616,0.7924528,-0.29905427,0.99075717,0.46880367,-0.42481863,-0.716068,0.8281905,0.4290832,-1.180506,-1.2419112,2.2597697,2.5437925,2.4609165,-1.5379088,-0.61607754,0.120454386,1.5204508,-2.087864,-0.38005748,2.0178149,1.4663326
<■1■cOOKvxlXHnfTufugmHTcGUZehDsXDGgQ>,0.35185602,-0.6134776,0.65943104,1.4679421,0.53133243,-0.46447685,2.1012063,-3.6629262,-0.9554397,-0.6673057,1.3817447,-0.21659103,-0.121697284,-0.9495155,0.50276124,0.24239612,1.1379112,-1.1548078,2.139016,0.08748088,-0.20525496,3.8009536,0.017210562,-2.1174464,-0.9509563,-0.34111783,-1.1080165,0.4650226,-1.7445647,0.48873204,2.2773395,0.79587406
<■1■xXinGYAKshhfMVBLbOJwuGCXPnSxPTmG>,1.0489979,2.6581297,1.0899719,3.4427812,-1.9691132,-0.89955246,-2.6718407,-1.9818189,-2.8080454,-1.2134625,0.27405283,0.047928914,1.0980705,0.80985755,2.6588056,1.6204394,-0.70365286,0.18755041,1.3538388,0.78503346,-0.11377063,3.4644666,0.7261446,-1.5109805,0.81551695,1.3320446,4.3882174,-0.43205738,-2.351037,1.0615842,0.4760626,2.6853182
<■0■urkHGIkoPqZXLVhIbjqonFEkKbJukkuo>,-2.5701387,2.041967,-0.79031086,0.8457314,-0.8670451,-1.0208246,1.3667141,-1.8060603,-0.61705023,-1.4153539,2.1339197,0.2878454,-0.47193736,-0.1683729,1.8392754,0.6135618,-1.0748583,0.9311241,-0.8789155,-1.2004268,3.210699,1.0846709,-1.8524115,-1.325023,-0.05165854,1.3252827,1.6000148,-0.04374626,-0.76432794,1.843448,-0.16932647,-0.2845306
<■1■hkJsuAKFAdCUUgxAlRiTOnFlkCYVOAjn>,0.13288122,2.798543,2.4872863,0.80912703,0.17809126,0.9035103,-0.017545402,-2.6575706,1.0401391,-0.9378406,0.1864419,-1.9561563,-0.9698481,-0.80562717,0.5306688,1.3943591,-0.038901612,-2.6498628,-0.3361552,1.0339631,0.9679024,1.2951108,0.009516118,-1.8028361,1.9563681,-2.4368668,-1.2220687,-1.506296,0.34046948,-0.17022175,1.4601132,0.48027274
<■1■gwvDgohGljznEVePaizhLokiqKKmTdpX>,0.7497995,-0.17890961,0.36495492,2.3439128,-1.6811302,0.69594777,1.1035558,0.16011244,1.4208537,0.2588765,-0.52140063,0.3747238,0.59601617,-1.5808287,0.9001758,1.3942732,-1.1320543,-0.92086554,0.8079282,-3.7099001,0.09523326,0.561857,1.3592781,1.800105,0.45706284,1.7642132,1.7684536,1.0682913,0.57932955,0.62929475,-3.487106,-0.59024894
<■0■HiGQWAYzSvZCorrwVRZTuYaVaJyPwMBs>,0.20161924,-1.8392987,2.6692986,1.0498763,0.07834613,-1.5272244,-0.88901037,-3.222484,0.40751114,-0.6876531,1.5014849,0.24301624,2.6337113,0.7778699,-0.69530225,1.4736719,0.7848849,-0.6435602,-1.1958779,-0.85866,2.48263,1.271286,1.137449,-0.64418674,-2.3901477,1.2213471,0.31318212,-0.4324791,0.1714724,0.104010694,-0.50188506,1.2192856
<■0■kZBoympLSyvzVtQpbMNcnVjyOmXbsbMH>,-0.08870597,-0.40157944,0.090936646,2.4745884,-0.0034969945,-0.5005725,-3.5610487,-1.958406,0.2539652,-0.92848,-0.6793251,1.5205019,-2.80835,-0.71893865,0.7958216,0.85007143,-1.5435271,-0.33061334,-1.1020616,0.39878458,1.0157657,1.0305536,-1.8544679,-1.8457111,-1.2322781,0.23972417,0.6219438,-0.14753158,1.1009134,0.14812408,-1.1465553,-0.5812098
<■0■xHxXylpuoPNbVuQvHUQRIWlLkIioXuFr>,0.13472536,1.6282436,-0.8207884,1.1791619,-1.3048271,-0.2890736,-0.017215654,-0.23320916,0.54199463,1.0744326,0.4155898,-1.353326,-2.1314685,-1.5489471,-0.8604427,0.19422978,-0.059886314,3.0154245,0.52049285,0.5796239,1.7495934,-1.5461448,1.8384413,-2.5484478,0.90363264,1.2573155,0.678319,0.41674224,-0.67386025,-1.8102783,2.0183573,1.2307519
<■0■vZUUcAvNaJGjpvjyoWPrtNREBrPpKKFN>,-0.34196344,-0.6486637,-0.09972394,0.21743044,0.6490975,1.4097407,1.2021393,0.26298583,1.4865693,0.33368066,-1.065668,-1.0028995,1.7676274,-0.8505041,-0.0074804327,1.9764531,0.365941,0.34710032,-0.2963918,2.1792712,0.3563498,1.9709775,-1.8312037,-1.6961677,0.5807314,-0.2238041,3.4645162,0.1847674,0.29162383,2.317027,0.6256129,1.9152396
<■0■xONoZhOLdSwkYvzTFqdGUlBDAfsCcNYG>,1.8365957,2.8187604,1.4179521,2.764963,-0.6788548,1.827861,-2.5999682,-2.99841,-1.5836333,0.008968908,2.6836638,-2.0131567,3.0890603,-0.29852188,2.6692293,-0.004326132,-1.2119355,-2.6118937,3.7113628,-1.4205898,-0.19363268,1.2780753,0.46441022,-1.2456179,0.74486893,0.9103613,2.5918634,-1.7428956,-1.2516806,-0.7270058,0.9638716,1.1009207
<■1■JENgzpPDjvESalGItdtkBAhIoahTHsTm>,0.3785804,2.1073232,1.2497159,-1.0351046,-1.6846702,-0.86796063,0.5032332,1.1528236,-0.12870623,-1.0101051,-2.34972,-0.9650202,1.4319029,0.63383424,1.4842117,0.8820835,-2.306116,1.7152314,0.26285484,0.5966545,0.07410286,-0.06553476,-1.4296947,1.3903533,0.63201857,2.133694,0.7253359,0.62576294,0.022579,0.41869074,-0.23837338,-2.0764968
<■1■EBFsvPjryFvtifhKwIwYFWMBtQpsewsr>,0.89782745,1.9205316,2.0364206,2.7926478,-3.2106433,-0.10245343,-1.4792782,-0.25337824,-1.9796741,1.0799011,-1.6013818,-3.4659624,4.057753,0.13003667,0.79722154,0.41159293,-2.0518153,0.6368019,2.8494332,-0.86978817,-0.29290646,4.084751,-0.0018995423,-1.4388988,1.6976223,-0.40709096,1.23094,0.7812984,-0.013679892,0.2393322,1.1136513,0.43774566
<■0■kVuZWlemOFTxybKZKfdHzAWALBtbzVXT>,0.72749156,0.9262635,-0.6671268,0.4760771,0.8302922,-0.89072996,-3.113863,0.86360914,1.9621884,-1.5826786,1.2189733,-0.83322763,0.3898291,0.16411573,2.1740198,-0.7856098,0.22405949,-0.60295486,-0.8001218,-1.349729,1.562551,0.6182123,-1.648648,-0.5518061,2.913124,1.816557,-0.6619236,-0.056597777,-0.9605849,0.42419124,1.9342589,0.7786006
<■0■ersGgWWmWEzmAAewTjhLJRWsDmMjSqQF>,0.2996354,0.2983983,-2.233462,2.9506886,-0.0549319,1.3898948,-1.8018466,0.4243658,-0.2709922,-1.0985876,0.12283608,0.40436748,-0.45466593,0.8153711,1.7676513,0.69103414,-0.4927442,-1.1854148,-1.3272121,0.7295509,-1.647573,-0.8618341,-0.6651241,-2.0609496,-1.055524,2.7056308,2.179095,-1.7789792,-0.13040142,-1.683568,1.3617514,0.17576231
<■0■vTedJxerhIhdUqMWargBiDWfpyVBAQtP>,-0.3106445,0.027214725,1.7375542,-0.077714,-2.7156782,-0.733847,-1.3605634,0.10521867,-1.2233863,-0.4540708,0.020500151,-1.3552489,0.62626183,1.8424218,2.686821,1.0601438,-1.4410561,-0.979484,-1.5835985,-0.9184764,0.15832476,-0.79561627,0.015203988,-1.5455601,0.98477477,0.53404516,0.4234547,0.15353316,3.05915,1.133176,-3.2655435,1.1400028
<■1■uzyzGPDlIwAYLXFRjUxpeXiwzMZUsIBe>,0.3177205,1.4237955,0.96112233,1.189437,0.45124528,0.14650877,0.8035468,0.069098644,-2.8906875,-1.5846438,-0.92568105,2.4775474,1.3003268,-0.71399856,0.72075826,-0.49393007,-2.8799992,-0.532169,1.4767158,-1.7618128,-0.365341,-0.2592221,-1.6570061,-0.04155353,0.79168975,-0.36601213,0.23506652,-0.09023761,-2.5743747,1.4888304,1.0722731,0.3144914
<■1■fkWiUTaoiAbVseBStKSnNwwBEwOunGmP>,-1.2091726,0.043772314,0.3286787,0.3115914,2.0511372,-0.8673579,-2.6797523,-1.1197875,0.7237232,-0.20149077,0.16836205,-0.003395399,-0.097154714,-0.25516805,0.7645263,0.7229127,1.8423786,-3.1586916,1.2238637,-1.1033783,-2.3061519,2.0868459,-1.9931887,0.8742381,-0.2394787,1.0920466,1.4409561,-0.124681845,0.43274865,0.40459684,-0.4218763,-0.38327718
<■0■sUCWALOFEbQVgqZAZHaVunYPKqISNbrR>,4.5366025,-1.1116797,0.45214844,-0.80595005,-1.1947699,-2.1752472,-0.089895874,-0.32993692,0.4711881,1.2237841,-2.1663635,-3.9177172,0.7004943,-0.9638974,1.1757642,0.10080982,0.25365344,0.78732646,0.3453491,-0.36138803,-0.9274684,1.040845,1.2896,-0.42653963,0.8451845,-1.427056,-0.111121535,0.2047076,-0.2609449,0.6192679,2.8611314,-0.96014833
<■1■TsbqagtIuSkkWERdTnXMYQincfIDtTTg>,0.7933804,0.8955404,-0.17073362,0.5889949,-1.0067111,1.3084518,1.2484307,-0.75985324,2.083106,0.14223145,0.74323654,-1.5890014,2.2765536,2.0646873,2.555263,-0.877522,0.52485335,-0.75308794,0.2679908,-1.8728006,1.152027,-1.12743,0.02055497,-0.82109356,-0.007289238,0.3392883,-1.6565672,0.7963251,-1.0549287,2.3203795,-0.12731013,2.199817
<■0■WuaSSjcQpWcKVqhiEejkyeFSUxKLcaMq>,-1.0236503,-0.13772453,3.1217842,-0.4322778,-1.1697607,1.5847862,-3.7373521,-1.9474876,1.1709316,1.6187785,1.0871235,-0.6678704,1.088988,-2.5066836,0.19762205,0.29542464,-0.47730806,-1.2410271,0.23257807,0.40932444,1.5159299,-1.3275975,0.9255641,-0.11259552,-1.0580407,1.4902812,-0.26813966,-1.8132994,-0.5570826,-1.3285661,0.5909158,0.070063785
<■1■ssHzbSQdiYWxwDTwVKfSTyrEvjWDmepv>,0.7039914,-0.07463863,0.34308934,1.0184067,-0.47858492,-0.6085456,-0.41428262,2.5409844,-1.4665079,-0.95983446,1.5038544,0.3078724,0.8174864,1.0721844,1.136651,0.61773044,-0.8218525,-1.3358344,-2.024336,-0.89798224,0.095362954,0.7362638,1.9593061,-0.5087648,-0.38231596,1.7049057,2.3554668,-1.7718805,-1.7323076,-3.030013,1.9650182,-0.30917957
<■0■HzFXUGEFVIcYKUoCcamFcEGSRWJKEPIY>,-1.3670334,0.04218579,-0.051763434,0.056794528,-1.5854753,-1.716213,-2.4129655,-3.0653174,0.7524897,1.6127049,-0.3641646,-1.1659254,1.1493461,2.1272252,1.1145196,-1.3457971,-0.16104954,-1.7178882,-0.30994308,-0.57175535,-0.52944744,0.8454484,-1.3840514,1.0531921,0.49819928,0.5106677,-1.0195922,0.8437845,-2.2636034,-1.6656548,-0.41439372,2.357204
<■0■ccGOQjKkPSZUhSpKYRoUxpWgnigZgrnC>,-0.6623432,-0.60716265,-1.800276,2.0872517,1.077664,2.0450644,-1.4520813,-0.46525526,-2.3386397,0.7139418,-0.9587525,0.9901317,0.3765911,-0.12107474,0.91776186,1.1702911,-0.11190726,0.96328837,0.2689331,0.79288113,0.5496817,0.49104902,0.9322477,0.0035635722,-1.2539332,-1.5901334,2.4702232,-2.3076873,0.6013789,2.1897619,0.14532642,-0.52610385
<■0■GCKJbBRPXIZZpYJIfOKSCEKzsKyEyftV>,-0.7299888,2.044538,0.35389167,3.3780258,-5.2712317,-1.0424496,-3.8524864,-3.7322943,-1.5797347,-2.0732455,1.249369,-3.2355292,3.9034722,-2.2367992,4.5419354,0.69700044,-0.88799155,-1.6914275,4.9766936,-1.1611958,-0.9196943,3.9518254,-0.5883341,-2.747652,1.9796501,3.4508798,6.0193434,-0.7161763,0.597368,0.58975536,-0.7371345,1.473141
<■1■LrhthTqLCwFVrVxzcOpUniXTDgpYbbIs>,0.80624753,1.4621667,0.6229843,2.045095,-2.5339823,0.035713147,-3.5265043,-2.5125852,-2.3224802,-0.5663503,-1.0777699,-2.369492,2.4948463,-1.6204255,1.4950793,-0.670971,2.1383748,0.1413082,3.3178527,-0.543241,-0.95575523,1.9552442,0.6785703,-0.26706555,2.8638635,0.6206236,2.2643962,-3.638601,-1.7489376,-0.4796401,1.4543751,1.638376
<■0■LcZTYgJOKjixBlbZnLBEoiiKihDYmfbG>,-1.793774,-1.1754203,1.4509945,0.6102234,-1.4320341,1.1532675,-0.37739965,-1.6420087,-0.7578833,-1.3970065,-0.1699662,1.1722006,-0.11746778,-0.84367603,0.30310664,0.3109511,-1.599277,-2.271514,-0.70846814,-1.2307864,-1.0454586,-0.66993463,-1.879896,-0.27316228,-1.3738899,-0.967638,2.6846437,0.1828845,-0.51313466,0.08011402,-0.37487483,3.95495
<■0■XsfHhOSlqLUkXgOAvcHvdvgyLoeALfpU>,0.5270109,4.4264207,0.8050641,4.2859445,-7.4514956,-0.8483566,-5.83022,-4.009047,-2.762671,-0.45248407,2.459016,-3.3072717,6.9401875,-4.405321,4.0696797,0.6886346,-1.4479101,-1.3899918,5.671139,-0.37244177,1.4304665,6.4814324,2.2763786,-4.302623,2.7032716,3.324333,6.220181,-2.4730272,-0.7133313,-0.39030498,1.9655819,4.175811
<■1■CCszKFIsSsnGrVKrpfhASPhYpxSVYlEi>,0.7767158,-0.7787023,-0.8452617,-0.07116188,-2.0406873,-0.7493214,-1.3796483,-0.7793264,0.90250826,2.095321,1.7939917,0.008312011,2.1351871,-0.43000108,-0.22583002,1.4476814,-1.5400418,0.36777157,-1.8958181,-0.1212132,0.04439257,0.04203165,-0.2538581,-1.8608098,2.6269722,-1.3293177,1.7587839,2.1709828,-1.3544325,-1.6966567,-0.7343421,0.43565086
<■0■CGYbcrXZckXbQdZgcPXcMAkpVgWtWKgt>,-1.0085558,1.2362894,0.17314927,-0.7038335,-1.7635299,-2.893609,1.9758861,1.7704743,-0.6355487,-0.9295289,-0.99515814,-0.25769097,1.3215638,-0.785043,0.82534003,0.29738757,-1.3622334,-3.2499578,-0.552451,0.57229,-3.0151112,2.3898554,0.9784045,-1.70507,0.8948375,1.3177345,0.5770409,0.3595058,0.1083508,-1.9952466,-1.5973635,-0.31321934
<■0■JvHwfntesNAThYNAtYaYGKxJsYiJKMKw>,0.17178823,0.7415178,3.5227,0.5414781,-2.7863963,0.46578714,-4.5197,-2.1328714,-0.7556966,-0.0324898,0.57570165,-2.2845132,2.27591,-1.7130526,2.5895674,0.1844637,-1.2784783,-0.61708117,3.346112,-0.8259323,-1.1779424,3.1730106,-0.37250113,0.03584618,-0.07814959,0.44363928,2.7122023,-1.9936665,0.15554842,-0.36924937,-0.57114744,2.239783
<■1■TxQKKNqPzNkWCHaIyGjMFOfkjXlXUibM>,-1.0270554,1.730871,0.5749491,1.2545109,-0.8782535,-1.7910078,-0.80788255,0.696976,-1.2123791,-0.045713227,1.8151168,0.18909991,2.110412,0.31664246,0.84120965,-0.30776045,0.488566,0.7200823,0.37190807,-2.5140479,3.208096,1.0457164,-0.8871956,0.745223,-1.0037528,1.5980337,-0.31020525,-1.4641229,-1.8297539,1.5761427,-0.9908225,0.81813425
<■0■ocijjrpOsNhVsCCHDyFSLtiTnYppmLNw>,1.7363335,-0.65597636,0.015698783,-1.2820187,-0.8895663,2.636206,-0.8875534,-0.54613817,-1.8124471,-1.9182969,1.8954383,0.17532982,0.68840224,-1.3479226,1.7128438,-1.7699935,-0.34747183,-1.6745082,1.6539418,-2.063853,-0.58773583,-0.02090244,0.4854535,1.1036552,0.73035675,1.9504921,0.2054935,-0.16983011,0.51983684,0.63864136,0.11864666,-1.3245103
<■1■zJJzkeNBHCUbTIcfsttkUNFSYEYMairU>,-1.85895,0.90651006,1.2085438,2.6240506,-1.9681523,1.4956805,-1.2720193,-2.266053,-2.8034804,0.054355107,-0.84965897,-1.2301083,2.648666,-2.3688228,2.0879858,-0.59393185,0.64878523,0.26996204,1.6393365,0.5473245,-0.14259048,2.9740286,-0.8155738,-1.7608727,-0.52770555,1.3921591,3.373645,-0.7614268,2.9758222,1.4932442,1.0641768,3.1389303
<■0■slZTDlfUrJLAKGUtYXRJdqBvIVLvPqdM>,0.9703496,2.0219276,-0.101122245,-0.50560087,-0.5238915,0.548462,0.4434128,-0.4310024,-0.6523701,1.5910424,-1.3957106,-0.40622652,0.24383667,-0.31854916,2.9169085,-1.424572,1.4138991,1.2319946,0.9069989,-1.3642366,2.5138624,1.2888265,3.098203,0.27858132,-0.85244304,1.2054642,-0.46610898,1.4456353,0.3520411,-0.7019751,-0.0063936347,0.10677271
<■1■KGkVWEXtEbwAdameRHWOAfXQUvjvuJdj>,-0.864301,-1.5907398,-0.98863053,3.1216347,1.6214489,-0.7365432,0.26761797,-2.6719275,-0.76680803,0.31925282,0.5529034,1.0540897,1.8168237,-1.2608641,0.7809974,0.9192793,-1.3911119,-1.2094599,2.1288762,0.6775937,1.2364603,1.373621,-1.8731494,2.607442,-0.59583336,1.8874505,0.13089566,1.8129026,0.07146292,-0.68242663,1.2567787,-0.65782833
<■1■fjyPlulLCdPtjVmbZHlgtxnnZgPoxGvu>,-0.53299546,-1.7293909,-0.8735605,-0.59333885,-1.8762401,-2.1794772,-1.9184202,-0.08808692,-1.404356,-0.49060175,-0.1454122,-1.3860134,0.609656,0.14092621,0.8668055,0.82224375,1.9897085,1.363307,-0.5464302,3.1960225,-1.6236604,0.48045585,0.51579326,0.52465665,1.2327892,2.7597854,0.63130146,0.74991685,-1.4241817,0.51407325,-0.08548297,-1.1224122
<■1■QWpcsMvpHRrSsMSENdiBXehtovvVdDyR>,0.23465882,-0.9581488,0.2398658,-1.8762814,-2.5426874,-0.5551742,-0.03668655,-3.1082869,-1.6059355,2.5312648,0.81123424,-1.3885986,0.3690465,-0.31870198,1.1732863,0.42499754,-1.0093796,-0.40661526,1.6353562,1.3875906,-0.3887806,0.099438965,1.5658945,0.68761384,0.15572673,0.05782939,-1.5353519,1.3663765,1.164573,-0.7967614,3.5958586,0.27313492
<■0■HeDAjVaqPlNjaRndVgsyOSLpikIodkkQ>,0.31059638,2.3658519,2.1455643,3.5070877,-6.2737103,-0.8394352,-3.5279078,-2.6194866,-3.0859659,-1.4235258,1.2976805,-3.0683339,4.512499,-2.6265488,4.121825,0.087689504,-0.26742655,-1.2816578,4.461034,0.2660828,0.33736232,4.651534,1.761819,-4.5371146,1.3718059,1.6382803,3.2020113,-2.026218,-1.5846288,-1.2217275,0.93748266,1.6639258
<■0■uVJAttVHlyVUBNSQtadzGNWzxETeijmA>,-1.966055,0.28251833,-1.4925866,-0.3085527,0.037425146,-1.0569113,-0.6148066,-2.3697445,-0.90532106,-3.4207885,-0.6520443,-0.18119234,2.1752224,1.3831407,1.0641661,0.5886372,-3.2401867,-1.690139,1.3822542,1.9381423,-0.5021807,-1.1749848,-0.036642063,-0.22940752,-0.82830405,-0.5132207,0.8591398,0.9422312,2.0728676,-1.3520166,1.0749019,-1.3629439
<■0■oPzzQGRdUMCqpBXQLBLBraPZozocRZOB>,-0.69793767,1.4464476,-0.7060233,2.873666,-4.803748,-2.1810036,-1.9014292,-2.5432374,-1.9146168,1.1946986,0.94017464,-1.9834645,2.4819357,-2.0582986,1.9238518,0.42589495,0.5006114,-0.2731964,0.9376317,0.53734887,1.5160581,3.6481555,0.65450466,-0.9650885,-0.71994007,0.22061262,2.08896,-0.77132696,0.05678818,-1.255283,-0.51200014,0.8472956
<■0■xTmSVuYIfCoWiOatfLPkJvxGccLcDGNk>,0.2984716,0.2718025,2.4149868,2.4019911,-3.28583,-0.22038874,1.1161567,-0.23492125,0.8123905,-2.2715557,-1.9396983,-0.09057626,-0.4923346,0.9824933,-0.26245922,0.35050306,0.49813363,-2.0235522,-0.42117158,2.319692,-0.5800199,1.9345076,-0.009965614,0.8051047,1.4417917,-1.462802,0.7757872,-1.4622818,0.61560035,0.70352894,2.0025961,0.42963314
<■0■nsxkmALzyPVhjEzczffrHQWglYMsSjJx>,-1.1050514,2.877717,2.01486,2.3719141,-3.2577784,0.37964138,-2.947708,-1.9637457,-1.0827817,-0.18021443,-1.6531088,-0.34068054,3.4182575,-2.6912956,0.02909006,0.53027785,-0.03584379,-0.15644976,2.928802,0.87387943,1.4503864,1.5114508,1.4536418,-3.4275959,1.0626181,2.1161244,0.57218117,-0.3381097,0.1556717,0.26870912,0.6883202,2.4600687
<■1■ObxMuFcmWgaRvxiJwWTFaAAJMtlKozdI>,0.60878235,0.31438565,1.627658,3.0055873,-1.0729694,-0.62298983,-2.1676674,1.1423603,-0.36099243,-1.0874513,1.0519123,0.4220628,-2.0258949,-0.2033923,1.0864183,1.5244044,0.509619,0.13880692,1.6715528,-0.10275933,2.8809054,-0.47487295,1.1915946,-1.1088253,-0.26728192,-0.30291215,-0.16097717,-0.8452936,-1.2940567,-2.2662625,2.5548904,-0.4692013
<■1■nMZqiOMajjOBTlGkngInwbCznFtCJKOr>,-0.13644636,0.09614751,2.8145914,0.6293923,0.033900317,0.14247827,-0.5266103,-0.22234106,0.023089308,-0.54773396,2.080496,-2.8202426,1.6717038,-0.6261018,0.4976357,-0.8735499,-0.5200181,1.6031983,0.4271243,1.5150585,0.12468178,-0.60923,-0.5459895,1.820566,2.3854868,0.652565,-0.068277806,3.0756178,-1.1869358,0.07125392,-0.4428777,1.8020706
<■0■loerPsOZUPyZxTFodDsOpzsuvBLFxWZP>,0.44556174,2.1761444,0.17131083,1.2274615,0.6357221,1.1487333,-1.6740631,1.041787,-1.2708453,-1.0534917,0.06434713,0.36602244,1.1481482,1.7228953,-1.2737414,-0.70523304,-0.30971265,0.5483528,1.9122916,-1.1166937,-0.64723337,-1.3120816,0.517506,-0.78751564,1.1311951,1.3464557,0.43932423,-1.3971845,0.8140607,2.503418,0.44727603,1.0970331
<■0■zqvcPFuFFzgzRFaKVLosFPnghmikGfCC>,-0.2742515,0.71100783,-0.52938724,0.4651869,-0.41351303,-0.45629674,-0.43241027,-0.7186425,0.39306915,-0.31485602,1.9871427,-1.49921,-0.7283702,-0.8771624,0.12444002,-1.8920029,2.3451655,0.35256267,1.5015339,0.3816306,-0.23073982,2.0310605,-1.2278079,-2.0845199,1.120244,1.0875267,1.2822101,1.4381741,3.3268573,-0.081616126,-2.490498,-0.013627418
<■0■ttQVIWxXKAwsjKCameZdjjhhqtAnEVQD>,-2.7509747,0.6264809,-2.2259173,0.49723893,-2.2171843,0.06404555,1.2326064,1.1208383,0.95027566,-0.16397136,0.059310686,-1.8601726,2.159925,-0.47413373,-1.006596,1.4553862,-1.4096469,1.2060192,2.1100872,-0.2153113,1.7626151,2.1036677,2.0725713,1.8547285,-0.7909311,1.1726105,-0.07159854,0.35140377,0.32269087,1.348716,-1.4925452,-0.1015978
<■0■NPawhPJpQenHVMDsvSMtCrLbCoTkVYgo>,-0.8391008,-0.74789625,0.20888247,-0.23373948,0.13014245,-0.2819988,0.27420127,-1.076956,-2.0253863,1.4467432,-0.11254676,-1.0802069,2.1515665,0.35429683,2.0354013,-0.7796985,1.468777,-0.9431242,-1.0702547,0.15240529,2.0270948,2.837797,-1.1072497,-2.2749074,-0.6816344,-2.439543,0.7031992,-2.0126235,0.27874082,-0.13196388,0.41031098,-0.57111794
<■1■TiqsMUPDRqaSjlIqljkeYwCwuVnuddpF>,-0.57086664,0.77897227,-1.0023903,0.14037234,-1.3501205,-1.7189063,-0.6987916,-2.1111543,-0.36976677,-2.1456375,1.7711582,0.7438957,1.4953251,-2.1863773,0.7578253,-0.78442127,0.6517009,0.90237826,1.5999653,0.77034605,-0.52969074,-0.94518363,-1.5758835,-1.287458,0.32638294,-0.7766027,-0.36047408,-0.11850318,2.5343628,0.25080967,-0.1105346,-1.902695
<■1■vjsnTKFaPOUAzUpkHxdGuNXvQnOitwjv>,0.29444003,2.3577776,-1.8357515,-0.18311352,-0.41265652,0.49736112,-0.1995171,-0.9467587,2.548109,-1.2466574,1.3830662,-1.99736,0.20877789,-0.06791181,0.72885484,1.4478316,0.48941848,-0.82573277,2.2291858,0.64220417,-0.48091635,0.3480984,-1.4669788,0.78571147,1.6983862,-1.2584866,0.09834966,-0.6662966,1.2181381,0.94706905,-0.5312073,-0.6990166
<■0■CUjjmLaIRgfreMVqpPeZBcRPuJAzJeJC>,1.1028543,3.1721246,2.4807854,4.050985,-6.6910644,-0.661492,-1.7796755,-1.7664777,-2.170543,-0.7711231,1.9290856,-2.4681416,4.882802,-2.8593702,4.6439867,0.4758141,-0.6032223,-0.86274123,2.6685126,-0.5836593,-1.0212649,3.3776555,0.88923126,-3.3776133,3.732903,2.6500065,3.9637065,-0.51420885,0.41488165,-0.57771903,1.7365781,3.740619
<■1■zcmTmjmxfmmJmUqcOGdpCKTrglMPRIoO>,-0.5069997,0.86413157,-3.2545388,0.43351388,-0.20188446,0.39405394,-0.7504935,1.0590215,0.35796946,1.3123453,-0.8179,0.37090164,1.0481632,-0.18481216,2.3477778,-0.8269934,1.1001757,0.28580663,1.533377,-0.45232758,2.2296782,2.1546655,-0.2587675,-0.6593813,0.84782064,-1.254001,0.5134715,-1.9289535,-2.2571485,-1.2812494,-0.87197536,0.88994545
<■1■RAtJOpgBHMfKpBumuSFvwMeMDouyMtWH>,0.2165646,-0.59837043,-3.4677293,-1.236175,-1.5044186,-1.0299553,-2.6334782,-0.96573454,-0.3233241,-0.71870774,-0.13305937,-0.89561534,-0.33345824,1.8149457,0.32592884,3.5540075,-1.5462114,-1.2174783,0.117865436,-0.47506833,-1.4634843,-0.07101555,-1.077669,-0.9766595,1.1946648,0.050690793,-0.55908376,-1.0689818,0.88587004,-0.4838902,1.7151504,1.5722125
<■0■ScpbJChmHKMjSBWAbdmzepcsOxTLIgKK>,-0.05531763,3.5420642,-0.003697824,4.0849752,-5.818917,-0.931371,-3.7896104,-1.8234862,-2.7872024,-0.57799953,0.5458438,-3.978366,4.4721994,-3.2810953,4.667148,1.8181732,-1.7198073,-1.5174873,2.141173,-0.73697066,-1.4931395,3.9741623,1.1312217,-2.7217007,2.4148958,3.0110466,4.3337483,-2.5119102,-0.15839957,1.1730092,-0.42935944,3.102846
<■1■oUCOjWMXCTTecsyjXrdbJtBKcDSiaxSF>,0.8046669,1.9151314,-1.8580465,1.596048,-2.9564729,-0.7122755,-2.9711456,-0.3756684,-0.40098447,0.9423897,0.11535423,-3.3585145,2.872088,-3.7536485,1.7794632,1.264552,0.9454419,-0.9129966,0.62414557,-0.12640469,-1.2228985,3.28547,0.9062489,-0.60630196,2.3047364,2.4059203,2.4865663,-0.982498,-0.5310875,1.230773,-1.7173564,0.98794174
<■0■bvQKXGtlsyUNntlCEuzEvIJutPvtVnjN>,-0.4877125,2.322933,-2.0182395,1.181705,-4.3635874,0.30437925,-0.52531636,-2.6226132,-2.5919447,0.4860522,0.9829734,-1.1151034,3.4970362,-3.7331064,2.135949,0.09209626,-1.9139357,-0.2789047,1.6465628,-0.709781,-0.5526761,2.0246363,0.27378675,-1.8504871,1.0960968,1.3243679,2.6232512,-0.7787293,1.6013207,1.2867622,-0.23501296,0.92227656
<■0■vVxFfHQbvjFHcEymugJXqPjtRxNmmczK>,-1.1672672,-0.16642116,0.8966357,0.0649877,0.27363732,-1.496527,-1.0438437,-1.2151462,0.26888227,1.4828053,0.5187654,0.5166298,2.3027482,-0.7944246,2.4389777,-1.0791104,0.91657966,-0.7554242,1.2783182,-0.8165673,0.59532547,2.5153978,0.8957555,0.4232036,1.2085154,-2.4364493,-1.2003943,1.094619,1.109476,-2.935057,-0.10045553,0.5094564
<■0■yFzMnrnhlAQFXmEyFvqTdfSfrsySynqW>,-2.6493127,0.56655514,0.8704493,0.5548806,-3.890854,0.17791261,2.8702219,0.08160339,1.0557474,-0.6559915,0.38484135,-0.24892399,-0.5416267,-1.5613642,0.16650562,-0.7626557,0.51423424,0.037708018,1.4253683,-1.9852626,-0.1360443,0.6086939,0.07916297,-1.0274107,-1.9702456,1.7764852,-0.72673,-0.35111052,-0.4328174,-0.044484824,0.9874641,2.0204341
<■1■cATNLcmSGgmrulLRCwAzcEMrzbQLoJcw>,-2.0740623,-0.8666392,-1.3500822,1.5248208,0.6543091,-0.45047325,0.6721704,0.55006355,-3.2666862,0.50792694,-0.2436491,-0.02835654,0.08573184,0.23223816,-2.1768987,0.6604484,-1.2300377,1.193527,1.5205017,0.27407336,-2.7505288,1.256864,-1.0215218,0.86604047,0.9978847,1.880812,1.0765011,0.90933466,-0.30980888,-2.3294263,-1.8934801,1.2171717
<■1■DTsLmefZblirGqzdQSZNOBroIpjgnDRg>,0.3357736,3.60378,1.3365926,1.1038367,-2.5803454,0.46918443,-4.093499,-1.9921508,-0.5352996,-0.87801856,0.9985933,-2.9917357,1.9684361,-1.4386532,-0.94387174,0.20497641,-0.60149354,-2.61164,2.3948169,-1.3402103,0.44403177,4.679019,-0.53252023,-1.2386115,0.8579077,2.3869548,2.0487866,-0.5109665,-1.1115037,1.8392453,-0.32741892,0.6957504
<■1■PoYVseAmFuImpslxFnBlRVqTmPguLzEG>,-1.1709099,-0.045271203,0.5869142,0.362043,-1.791066,-0.77012855,1.1146432,-1.5090101,1.3716103,0.5447185,-1.3501714,-0.19717105,2.7789474,0.37216505,-0.22719117,-2.1295502,-0.08841207,-1.4642884,1.005755,2.8352222,0.073686376,-0.4401761,-0.064225264,2.0749702,1.9579091,-0.9202967,1.4950944,-0.47374836,0.049584,0.37622544,-0.04036172,-1.5132298
<■1■nNRGSboQNHepHrLzHpZlVHPNAApKzJgq>,-0.7705662,1.1325452,2.1918538,1.1632541,0.32256338,-0.5591147,-2.2142959,1.0785823,-1.4692185,-1.5013694,-0.7052291,0.49474636,0.27201778,-0.3133036,-0.18452771,0.1386914,-1.184863,-1.5204217,0.83870894,1.0212125,0.686899,-0.70147914,0.31193963,-3.03676,0.644021,0.31147346,-0.055668842,1.9097006,-1.1926873,1.7320414,-0.24806722,1.0975542
<■0■HTYpSOpUiMhNTyJLBzHRlztvCgScrICd>,-0.35061377,0.94801563,1.2910894,0.090232596,-3.751461,1.1889148,0.6821451,0.80337167,0.9340493,-2.5584438,-0.8729743,0.13364188,-0.7952514,0.6731205,1.8838463,-0.06939416,-0.13477923,0.06956199,-0.5223528,-0.40339273,-0.5083155,1.3935107,0.78389454,1.4421083,0.84524304,1.2866839,2.2492328,-2.285668,-0.5964503,-2.6390011,-0.9908002,1.2307562
<■0■JoCbECzBpHPIFugeAABepxcmZkXppQsb>,-0.6901659,3.0812402,0.916406,-1.1590219,-0.09961492,0.5345358,-0.03471639,-3.5019073,1.865719,-1.2088162,-1.6355572,1.2487512,-0.5664374,0.8415198,0.765486,0.29999232,-0.007929771,-0.39875266,-1.2375757,-0.40522996,1.0192835,2.0203364,0.2618626,0.28980535,1.9696279,0.95166147,1.0746194,0.0172525,0.36640686,-1.4512001,0.95132554,1.8888464
<■1■XYjZRSZadNOLMhWUFAakBOslamjHlkHr>,-1.0644871,2.259674,1.6529672,-0.9489992,0.08069497,0.35331383,0.58364093,-3.0481598,1.482318,0.51677275,-1.2715975,-1.6410801,2.044052,-0.5335996,2.845036,-1.6471722,0.031252068,2.2484474,-1.6229587,2.309837,0.64518934,1.8100063,-2.0048165,-1.082835,-0.36528876,-0.090442695,0.05104963,-0.5056987,0.815762,0.47846526,-1.2322156,-0.27348676
<■1■NuQjvgYRkzBUvNREnwYLkvuWJiAnxSxQ>,-1.1915613,4.3085785,0.5112241,1.5438629,-6.8057604,-1.3303941,-3.0662773,-2.2835932,-1.9956279,-0.18450174,1.1365843,-3.2737653,5.61248,-2.3664138,2.8610685,-0.095799364,-2.1660411,-1.5404104,3.4260259,-0.45481616,1.3216522,3.5000682,1.5022956,-1.8580086,1.7583598,2.6367521,4.928165,-1.8182101,1.4115673,-0.6354674,0.0063613104,4.1358004
<■0■OkfLPYilnydeSLpbvOCLAHjRRxeCiDDL>,2.7476144,-1.4456666,-1.8712306,-0.6000238,-0.061833087,0.6385355,0.6259025,-1.0550122,-1.3570501,-1.8028847,-0.42556491,0.2677512,0.8183181,-1.4065309,1.7188507,-1.0815171,2.481415,-0.1517075,1.419808,-1.9255506,0.7651932,1.00481,0.261565,-1.0282696,2.9795148,2.2866232,-0.78208715,-2.867879,0.9242837,0.16723673,0.95278114,-0.16847254
<■1■fBSdMennhAoMsohrgUoBdiZOzmjJownG>,-0.64567983,-0.2649558,-0.5609575,0.19993429,1.0868801,-1.2454221,2.5371933,-1.9184816,-1.2120079,0.4546885,1.957807,-0.049447924,3.6391284,-2.634597,-2.7991529,-0.14531764,0.023198482,0.30089188,0.8538024,-0.76487523,0.051345445,0.22898424,-0.7349945,-2.3701277,-0.5635522,0.74508095,1.6375263,-2.2904117,-0.32593817,0.88521653,-1.2310188,-1.156435
<■0■iLZtjbAcFsSQwdKmxbHXjZbljIoEBIDu>,-1.0226746,0.6834789,0.21962042,-1.5501963,-1.9147736,-0.942663,-1.2779155,-0.3095372,0.4725722,1.0145817,0.6072553,-0.014625132,-0.7917203,-0.11105808,1.6925144,1.130923,-0.36560357,0.11121175,1.124056,0.5498984,-1.6575253,0.24702482,-0.79415286,-3.8666134,0.6376002,-0.859019,-0.36586332,-1.0249128,0.11991633,-2.3631482,-2.140678,0.23955892
<■1■MHXCroITrmPlDCcvBZONMZxsuOkUVuWM>,-1.3225536,0.36133552,0.62043715,1.8999327,-0.1887374,1.9047289,-1.0987009,-0.91129607,-0.28873938,0.60874975,-1.6468018,0.64603853,1.0380503,0.28544486,0.32357466,2.2307534,-2.615907,1.3909268,1.3624694,-1.0920441,-0.6550388,0.4562257,-0.5376499,0.47869554,-0.7077072,-0.7012262,0.05104679,-1.8924135,2.3531013,-2.184132,-0.53138655,0.6362856
<■1■guHDgAtZmTriFcoQswcBKAoLQkSLzkoz>,0.66835785,0.4809718,0.021484207,1.257246,-3.274551,-0.7200952,-0.20584413,-2.2683933,-3.3767025,0.3218903,0.83968973,-2.9153335,3.8865962,-0.9378115,1.3439438,-0.85138744,-1.6371802,-1.6155564,2.8859048,1.2112612,0.13575366,3.6725192,1.1776866,-2.4204547,-0.96355146,0.71373737,1.0283136,-0.7917953,-0.52036077,0.04441519,3.1208093,1.2844906
<■1■RXMWCnLmhaaDmgbBxnnVySeXwQwafSvK>,1.1616232,1.3423855,-0.6224762,0.45986682,-1.4518197,1.0581526,-0.7806665,1.2433203,-1.0300183,0.5716026,-2.0211656,-2.263789,0.9869866,0.26139346,1.1387161,4.4389553,1.2886645,-0.9819027,1.223229,1.379071,0.75022143,0.8581003,1.0724934,0.26601577,-1.7539942,0.027867733,-0.2396463,-0.9591496,0.6385954,1.8478789,1.3089603,0.101588756
<■0■aNPODFeBEqKybaKGzCCECyuQbBAUjjPN>,-0.06746538,0.40850553,1.0658824,0.59619224,-2.6157572,-1.0377289,0.89289373,2.6431673,1.9386022,-0.10462728,-0.2545509,0.005776876,0.7878817,-1.0747792,-0.84884626,-0.8759414,1.3539513,0.11373064,3.2161458,-1.0094943,-2.1602182,2.0003505,0.16576509,-1.2896565,-0.20783718,-0.123916656,2.062581,0.46182954,1.0775347,-1.2679052,-1.7287099,-1.0949777
<■1■SXvILQpbsjBqHJkgeMsBdAiHhzbWoHsP>,0.3916875,0.7679727,1.2145193,0.51959705,1.707562,0.56553984,-0.6777601,-2.3738062,-0.15220132,-0.13094686,0.90220314,-0.23374245,0.5640508,0.2542849,-0.4212866,1.512598,-0.26445335,-0.9361781,1.9096605,0.2612169,1.7100987,0.23940241,3.720438,1.9585284,0.5663154,-0.010370313,2.49877,1.849023,-1.530571,-1.1190922,0.7856912,-0.9472298
<■1■jBOtmCojJAHRSvgZdENciqNZBuMWeMyp>,1.3991311,0.52560264,0.92208356,-0.06025375,-0.39144602,0.36792722,-1.8036615,0.7421023,-3.0423996,-0.07451482,-1.0109636,0.638486,2.2048788,0.9072467,0.69474673,-0.1909537,1.7379507,-2.0659616,-1.3860878,-0.27041614,-0.36372468,0.9732542,-1.3058016,0.8350803,1.6023124,2.2676227,0.74481314,0.7287077,2.1036754,1.291642,-0.034794293,2.1274648
<■1■fPgSimlRKAWrqZJhbLBqRjiZNOiTWBQN>,-0.34480318,2.7262418,2.6598787,0.8373117,-3.4344635,-0.6741182,-2.1820304,1.3622442,-1.191088,1.4555664,0.9726136,-1.1244348,3.4407241,-1.3638713,2.2312584,0.65017545,-1.026448,-1.5921936,0.8083734,-1.3000547,-2.1296666,2.877573,0.99458337,-2.8053863,2.9638662,1.9354514,1.3622079,-1.4234556,-0.33675602,0.49159902,-1.6657323,2.3923142
<■0■qWwuEFEOJvkGEgIuvPhkLmXkbfeZKwqB>,-2.2760012,0.95354253,-0.05796204,1.0581602,0.13506463,1.5490923,-1.7580153,-0.37729788,-1.317408,-0.6966637,2.1799738,0.53311276,-0.2733814,1.1029608,-1.6874641,0.9683515,1.4635633,-0.09809308,2.5030324,-1.0985352,-3.339796,1.0937358,-1.0453665,-0.08696214,0.7070982,0.68745625,0.02241613,0.049277097,1.554574,0.13832834,-1.332273,1.2651513
<■1■PMVjrPOoaWzETvpiJsUQtUdMZofuMsHz>,1.3115187,2.4482815,1.1164461,-0.57629776,-2.7068846,0.39206654,-1.7390963,0.35235146,-1.0049026,-0.14950067,0.13793992,-0.9278224,-1.6054608,0.39988557,2.3379476,0.04055598,1.150652,1.8305429,2.5370216,0.8339265,0.10103919,1.4219747,-0.23873216,0.28923464,1.4269477,0.831331,-1.2209225,0.27221632,-0.5407418,2.5790422,-2.1539655,-0.39958203
<■1■xxmSUfFpqfSEFeaowsJuyobNRXdDtuSL>,0.11901525,1.2414374,-1.320927,1.6318562,1.0329584,-0.48386884,0.31140843,-0.54721886,-1.6658175,3.2721217,1.6881177,0.22516486,1.1173308,-1.1594623,-1.0806842,0.64203507,-1.6066253,-1.1591789,-0.9773692,-2.6254642,1.297562,0.9516592,-0.3423878,-0.22882293,1.8504329,0.5499327,1.1201149,1.0777566,0.6103476,-1.8995528,1.1412215,0.7225078
<■0■bGCbAJMWndkxVnKhHzLhWSdVSqxNMilb>,-0.49630508,-0.8274093,0.7912633,3.7295465,-2.1661382,-1.8634228,-2.0267198,-2.182358,-1.7250617,-0.84725606,2.3684714,-3.07805,3.8266964,-3.0971527,0.18026763,-0.3970501,-0.35007635,0.08452855,1.2945831,-0.07765181,-0.488765,0.35233012,1.6651467,-3.3582687,0.29574484,0.7247771,3.165395,-1.1381826,1.4327018,-0.34708965,-0.21826528,1.3235102
<■1■CCcBNZdAxwCkZdWzzBxUkbzsLOMcOSsD>,0.24510716,-0.2577596,-1.0586333,0.7640525,-0.9654743,-1.6893107,-1.8650529,-0.75056624,-0.53972167,-0.884162,0.65285915,-2.2380996,1.0326306,1.8250198,0.397696,-1.1728069,0.38936126,-2.2626488,2.800232,0.22520429,1.5156275,-0.1961392,-1.4418095,-1.9059165,-1.3565834,-0.78193474,-0.6653989,-1.8020521,2.2333305,-0.805839,-1.0581923,0.5794325
<■0■jwJgWpfrRFIaOBPHcQwXKrFBOyzYYqku>,-0.006814966,0.5634619,0.8722591,2.1927385,-3.0090554,-0.71335536,-4.009376,-2.348403,-1.4062684,-0.90116453,1.0315995,-2.021975,2.7313752,0.7093212,0.20364715,2.1986234,-1.3724118,-1.121753,1.8120341,0.22744139,1.3118798,3.0056207,-0.12640204,-1.077793,2.6958714,0.12698185,4.581133,-1.7101592,-0.9577396,1.4282148,-0.8371329,1.1770445
<■0■ZZvGDCkmCLtefmwGPFBYzJNOXLeTgvit>,0.9546333,0.6745491,0.89601797,-0.4645701,-2.8695836,-0.8597494,0.08468017,0.7437079,-0.043016493,-0.6030644,-2.172916,-1.0854766,-1.598912,0.6439726,0.30005103,0.45043513,-2.4757192,3.511847,0.2638907,1.1738447,0.84152067,0.8945668,2.088496,-1.1381528,1.1591773,1.3218056,0.6892734,-0.6774997,-1.5746303,-0.6383875,0.53475314,-0.041328043
<■0■wgrtMSYwBNBocYkjrJysVXpxvhbqHTAr>,0.65151143,3.5354085,0.3164324,3.0440433,-4.4216585,-0.26251012,-3.978398,-2.655549,-1.8411266,-1.584528,2.3272989,-2.660899,5.437418,-1.8327726,2.5903728,1.0690233,-0.49444032,-0.9593324,2.712288,1.5022076,-0.46666154,4.727005,1.5363164,-2.566434,3.4728584,1.7364413,5.7650504,-1.8800313,-0.46395186,-1.8084991,3.0871265,2.3851647
<■0■ehxSCGRGONFDdTzCeqgqmwgGflqkZRSm>,-0.17954442,-0.22195013,-0.6419431,0.15616947,-1.1812733,0.31784862,-2.605852,-0.86266834,0.848581,-1.846585,-1.9825066,-0.45654133,0.83752525,0.38643408,-0.7768001,-2.0923193,1.63116,0.20683458,-0.32826823,2.8887305,1.219046,1.0158223,-1.2991389,-1.2487551,-2.0577536,1.6327444,1.4429046,0.1404651,-1.4634721,0.50887674,-0.04457981,2.4208674
<■1■tmZCXyopOZCdqWoOCvBfEVmMwSToBiZb>,-0.26672617,0.67797357,0.5223673,0.34271887,-0.094408885,-0.79256696,-1.1748132,0.33508798,-1.1854624,0.5255773,1.699017,1.1633205,-0.535631,-1.0370669,0.33391172,0.77161753,1.2798042,2.0393302,3.841512,0.06819564,0.07427644,-1.0525553,-0.25218537,-2.4108238,-1.7957933,-0.16515106,0.9440777,-2.3546553,-2.3767555,0.2389116,-0.9365162,-0.64219147
<■0■TZrbtxCLDDtFhTygiASAhWIXEPKzVccY>,0.5867664,-0.11694125,1.2942789,1.9102981,-0.01780997,-0.00092778244,-0.6623964,-3.7769535,0.8297989,-1.1070929,-3.5100021,-1.9198763,1.0911121,0.6875119,-0.66294795,-0.37609312,1.0118946,-1.1398894,-1.9519495,2.1678298,1.6549314,0.42734414,0.4318998,-0.60643494,0.44933558,0.06492059,1.6303284,0.3644366,1.6631188,-0.59782755,0.7088408,-0.99965256
<■1■IWdMZDIlnLJHGOlwLNcEkrXobMWDLqwc>,1.8485826,1.1383257,-0.13155471,1.4392682,-4.7673793,-1.4653141,-1.9877514,-1.5043885,-0.28435358,0.35781112,-1.8348258,-2.9998786,4.1868463,-0.43584746,0.09020143,1.0905919,-0.26372302,-2.7455907,1.810464,0.05559047,-0.7162543,1.9841235,0.44506258,-1.639951,0.12520191,0.14148691,1.9414024,-0.9896111,-0.83618605,-1.1448147,1.3663688,3.5788004
<■0■vDoSjRTebCUFbydpbgyGXevcnDZXzpft>,1.1038077,4.0390124,-0.602574,3.3106408,-5.1577406,-1.6533002,-2.9539182,-3.8254852,-1.8966936,-0.53345454,0.93303263,-2.834801,5.726353,-2.5441508,3.0141013,-0.6184947,0.41291013,-0.45716208,4.860186,-0.04742591,-0.36128888,4.7521086,0.73006546,-3.1279933,2.861177,2.5858676,4.0907273,-1.825973,-0.8547428,-1.1696982,0.6870682,2.135359
<■1■ORwmTiTHZUugLxJwbeDWzAkBOYLzaUlI>,0.03479966,-0.3365614,0.7853589,0.80644614,-3.0289488,1.1510956,1.3775862,-1.0930104,-2.0155396,0.677621,0.31120113,-1.3553826,0.49254224,0.4745999,-1.0456551,-2.6554334,1.8359346,1.2113161,2.7287643,0.71703887,1.616262,-0.7689298,0.9150071,0.16937278,-0.48678264,-0.9196224,0.4106827,-1.9127479,2.3362806,-0.23197731,1.4220122,1.6150523
<■0■QEoZeuDdXoFEkVwzqdIKzlMSIInbhMGu>,1.0403087,3.5015423,1.427218,4.136084,-4.90442,-0.18474473,-4.0556393,-3.2443836,-2.859734,0.8461704,0.08910201,-2.7119436,5.0838256,-1.2833356,3.789889,1.0293322,-1.7550074,-1.3111706,3.5430763,1.7672902,-1.3057382,5.67125,-0.014092299,-2.9628143,0.35199487,1.4951625,4.4215994,-1.3209605,-1.853288,0.59834653,0.985549,2.4470077
<■0■LKSvypLTTeCTkwDXOaWjKnChMvSDMaYe>,-1.2619677,0.4031609,-0.28187403,0.27635768,0.052221555,-0.7464485,0.25525257,-1.5557725,0.86525977,0.96126366,1.6897748,-1.923953,0.6742564,-0.55825484,1.1668893,-0.18372597,0.10672987,-4.1559753,0.0022782467,-1.523036,-0.3456843,1.6139352,0.4105118,-1.3079556,0.27027532,-0.7623661,0.06628426,-1.041561,-0.7768601,-0.7737564,-2.1891596,-1.1118217
<■0■TMvWWWhyzRiGjgyocpbnrjNUhWAtgibw>,-2.8434083,-1.6779586,-1.1604794,2.1581485,-0.35626826,0.3931977,-1.8947363,0.022725398,-0.12737805,0.05157124,-1.8010817,-0.47682324,1.8333521,0.007057139,-0.018125016,-1.4013927,-1.1027747,1.141877,-1.0132767,2.7509813,-1.2341466,1.0754566,1.3314979,-0.15160409,-0.5965566,0.024475284,0.7908975,-1.1491538,-0.10297063,-1.5994247,-3.1378844,1.9307079
<■1■YGZIzhhYcfJKOlhcSckJzypPlXYBLiTG>,-0.1126287,2.9279344,1.118518,3.179114,-4.5703025,0.33550614,-2.810555,-2.9158344,-0.98304594,-1.153594,0.99765426,-3.4799514,6.9404945,-2.8618462,3.5584893,0.4457511,-0.043463707,-0.93278366,4.2137213,-1.1605726,-1.7687259,4.1053753,-0.12582336,-4.074387,1.8486418,2.5821173,6.1575894,-1.3031155,0.3893352,0.015932977,0.5580643,0.5069557
<■0■KPIstRdEVhKgOMneqlAhxGKGcxlHvykm>,0.22805083,4.3348484,0.51157606,4.2603784,-8.075706,-2.6427538,-4.4893446,-4.047671,-3.990753,-0.3827101,0.69897187,-4.195052,5.4962792,-2.8053467,4.5009675,0.8952189,-1.5717982,-1.0417494,4.3338637,-1.3533992,1.3159368,6.0004478,2.2937381,-4.509789,3.4631069,4.293265,6.5536175,-1.8090175,-1.4940636,1.0721579,1.6184653,3.971645
<■0■ilymBBwYHeGMfiOrNFvAaIANbFgVGaGz>,-1.8176892,-0.43884882,-0.046471026,-0.6880038,-2.0660179,-0.29758865,-2.5395193,-1.4856142,1.9077963,-2.2155821,0.36652762,-0.7811717,-0.22300836,-0.084257476,1.1311595,-1.730893,1.7256432,-0.7830544,-0.87348616,-0.7855979,-0.557336,3.174021,-0.45876274,0.11985913,0.41045147,-0.066059664,-1.24648,1.5149637,-1.1968621,1.0549558,-0.2862159,-1.1524078
<■1■PFOcjKpoZZfCTDWlgXXwVeyYNLzZiYpL>,-0.21786055,1.3163028,0.22692971,1.8003042,0.5059368,-2.9827645,-0.03465109,-0.30436003,-1.0893868,3.0764873,1.6667147,-0.35569337,0.3989418,1.0353057,0.6369669,-1.7911552,0.00944145,0.9421847,1.9077938,-1.4659123,0.42391792,0.59042966,-1.9540045,-1.8494738,1.9653753,-0.533004,-0.1317489,-1.2111198,1.0787696,0.46500215,-0.5277679,0.5225115
<■0■YysBTzRmcQZNrJUZllfOAKkrHrnckEsl>,-0.048406854,2.3127038,-0.8240752,-1.0014933,-1.1944002,0.039479457,-0.6880741,0.11983263,0.345885,-4.325497,-0.033574164,1.195641,0.44484943,-0.9991918,1.1124628,0.73173064,1.2507126,-0.43765894,1.9567378,0.84697473,-0.9376947,1.7851603,-3.0179021,-0.7934195,0.4422302,-0.56433624,1.6575094,0.25132677,2.3579357,-1.1323794,-0.6929403,-0.31740087
<■1■gMKXEBxgzRBiqxSPweHUDxfWLYvRkTDT>,-1.1584971,-0.37383693,-1.6236815,-0.20413004,-1.2104075,0.29216954,-1.7440284,-3.0321078,-0.50104475,1.0741975,0.33920795,-0.8799082,0.36359867,-0.7256463,-0.23250598,-2.565005,0.8148275,0.88184947,-0.06254082,-1.8822215,-1.6278819,2.2459364,0.8757774,-0.5308106,-1.1012129,0.32510984,0.9044275,-0.6221202,0.0451733,1.661169,-2.2155318,-2.3984878
<■1■NeveMtZkZtYpnJmDWRvkceGHcRvOuIbO>,-0.2144088,1.0018251,0.80703753,-1.1612748,-1.4057237,0.081819296,-1.9705588,-1.7992458,0.68318754,-0.06969636,-2.0530393,-0.10030431,0.30748144,-0.26292866,0.8500526,-1.5746131,2.07039,-0.80014545,0.668213,-0.022548048,2.0327115,-0.5595654,4.202989,-1.748033,0.0520533,1.1711565,-1.4429698,-1.2897998,1.7447847,0.018429939,1.0066029,1.5193703
<■1■KzwmKnvClHUKvsglupfGuXXGgqKVtSxY>,-1.4789009,-0.06847475,0.9291578,0.2524769,-0.67589116,-1.1600251,0.7975982,0.50277334,1.9223514,0.61505723,-1.4855163,-0.08886273,0.97990954,-2.7065778,-2.319092,-0.55693626,-1.4918267,1.5482486,1.8722903,1.2681586,-1.0731133,-0.32496238,2.0279763,1.1650757,0.8556011,1.103933,0.005741862,-0.8141985,0.5968602,-0.124727294,0.69521827,1.184652
<■1■tMHgAfiNinmwIhyojgVBwTwdRfRvGlzm>,2.4318254,-1.3635806,1.1331964,-1.5166322,-0.7129373,1.1069169,0.61447763,-1.0677382,1.4553341,1.5215138,-0.7822036,-1.5372244,-0.091329455,-1.1813431,0.8907744,0.40101954,2.2524562,-1.2187016,-0.36881912,-2.8064384,-0.64407754,1.3336015,-0.42608047,-0.5883566,-1.3300596,0.55854046,1.7609545,-0.5203393,-0.42823115,-1.7678683,-0.92408884,1.5041087
<■0■cGBMjqvInyjZeIfEcJyBxGSYsaQHOLwk>,0.55039984,2.235377,0.9593117,2.7606332,-5.3839774,-0.6273458,-5.6076474,-3.315205,-1.114201,-0.113798514,0.8858134,-2.562667,5.897421,-3.2496483,2.3733232,-1.4052125,-1.620671,0.18052368,3.5562363,0.26494816,0.06680546,5.4500685,0.030136354,-2.3680391,0.68477285,2.2346702,4.6041884,-0.30248132,-1.3529885,0.56450516,1.6150701,3.657521
<■1■smFhFgwjdJDodqaZJijOplADRBAutcge>,-0.6354316,0.86454785,-1.1820076,1.6741427,0.13616386,-1.7817112,-1.4615215,0.71383244,-0.38990092,0.35154787,-0.42057177,-1.263883,2.7308767,-2.367289,1.3184037,0.5416493,-0.37473795,1.7291584,-0.9606025,-1.8965924,-0.60325986,-1.6070055,0.63704157,-0.08602782,-1.5053595,-1.0292815,0.004068398,-0.5880998,-1.428093,-0.7861273,2.859973,0.8964998
<■0■BpzEmyjzmbyXrnBkWXleHieRbeIkmhGY>,-0.4210986,1.1744652,-0.3045513,-1.2479502,-1.3944544,-0.667411,-0.1739606,-0.57621956,-1.729682,0.8182907,-0.6410655,-1.8642453,0.6820776,-2.1540296,-1.9870794,-1.933991,-0.86077595,-2.5784214,-0.0039293384,1.2594564,-0.98941386,-0.91151917,1.9238919,-1.9108294,-0.100164115,2.2409887,-0.76174873,-0.49498346,-0.817815,-0.020623885,0.19485009,-0.41534963
<■0■qvuvsMOlwQprCadARPFLZfnlcNqvaslJ>,-0.06828977,0.6247989,-0.32385752,3.2005131,-1.063861,0.44642505,-2.1368964,-1.4691685,-1.6494263,0.104531124,0.36639744,-1.6212481,1.084605,-0.59351945,2.527238,0.53809166,0.9834304,-1.3332635,2.1937118,-0.4311296,3.2313993,4.6154237,1.3476571,-2.1842885,0.9988208,1.4680375,4.0950174,-2.6486447,1.6615736,-0.9398332,0.7521599,2.7128024
<■0■sxtmJuLCKgEiPSHYeErtzAoZlXVRQzjK>,1.4628575,0.65514284,1.1269716,3.4182613,-0.06936564,0.74114615,1.6220971,0.11125317,-1.3078599,1.0940815,-1.0528249,0.12565489,-0.50273895,-1.0946194,1.9304589,-0.46202534,-2.3870537,-0.47152,1.9035745,1.1312814,2.3480244,0.6754593,1.0726413,0.8909836,0.45725816,-0.24505459,0.39852294,0.22085002,0.6976343,0.00031414945,3.1010141,-1.4017117
<■1■foLJZLrkcIvmADmBPBqBvwnycqKCYrED>,-0.8629483,-1.8938936,-0.27839774,0.9028756,-0.72088236,2.2931101,-0.80051583,-0.61044174,0.21377367,-1.0187234,0.5817935,-1.2548971,1.5285985,-0.09613509,-0.84794164,-0.86544126,-1.0482601,-0.79485404,-0.54185456,1.4329998,1.7117436,1.3806432,0.21975997,-0.6136297,1.1782446,1.365656,1.0278304,-0.69117296,-1.0426377,0.15557808,-3.113374,-2.4288595
<■0■TcEGYdqjOnXOdMHGFckFyNBPYVHRgeFW>,-1.3018048,-0.9967833,-0.6905093,1.1715542,0.08252385,-1.1689706,-0.107327715,-1.0506573,-1.4849489,2.7804875,2.0102515,0.37687483,0.0008632808,-0.6704364,1.3379353,1.9602957,0.07810761,2.8676012,0.3166057,1.2257757,-0.49504995,0.67695874,0.6506211,-1.6196933,0.046517383,0.24201202,1.3845294,-2.9097629,0.16157581,-2.8738694,2.4134526,-0.07713684
<■1■rTdebgYSqcWzsmoNwjGJELBSdfRUVmqL>,0.107903935,0.5820655,0.11687852,0.9470457,-1.483527,-2.4249182,-1.7476125,-0.1618494,3.1317217,-0.1431884,-0.14773542,-0.79990023,-0.4679398,-1.4753275,-2.4587119,-0.06255585,0.411415,-0.16549984,0.28280956,0.5670976,-0.022546776,1.3664913,-0.13593282,0.7856043,-2.0960371,0.92559373,-1.6245215,0.03059572,0.37025324,-0.79275537,2.2171068,2.5457528
<■1■jLkLxMvwpdBTHWmboLgueFraHzyrGTGl>,-0.4597374,1.101798,-1.5623022,1.7218063,-2.4858882,0.290013,-1.1013869,-0.56565267,-1.2019999,-0.4432738,-1.3201984,-0.69950616,4.5114264,-2.3987925,1.7310545,0.21813112,-0.7811651,-1.8033332,2.3320594,-1.5528569,-0.021099066,0.9818192,-1.7541515,-2.3064196,2.3676257,2.443684,1.7646646,-1.2640603,-1.5040529,0.87295747,0.19024706,3.6700537
<■0■kICRcWYwamoNQJUkhoDMHEEhlHaTrttY>,-0.3768039,-1.0518703,-1.6080129,-0.59778595,0.22338681,0.5571849,-1.3651451,-0.28166378,0.3160895,-0.35070285,0.34396848,0.073069975,-1.1381304,-2.2481067,2.2949805,0.7096587,0.1941109,1.0539597,-0.32342073,0.30850747,-0.21577816,2.7482994,-1.315745,-2.759643,0.44057813,0.8619036,1.3529341,-0.42292064,-0.8790315,-1.4462051,3.3641517,-1.8106234
<■0■gCvTCIouNOwxdQjNQUQMKxAYYnzAyaIZ>,-1.4309399,0.45858547,-0.8915559,-0.19054073,-1.6493212,-2.5291607,-1.1582723,0.68460554,-0.06581826,1.4277055,-0.9453388,-1.250705,1.0342747,-0.53973484,1.6613935,-0.04279096,-0.3318011,0.7902612,0.79091525,-1.0734606,-2.177107,-1.7402158,-0.73979414,0.8107604,0.41581693,3.5972865,-0.08068754,-1.2404598,-1.2376841,1.5477983,0.47438893,0.4555856
<■1■OZAmzvFaxqAjgvBoggkJtozwqTfvzUEW>,-0.8645917,1.7604523,0.28958955,-1.3592492,-1.5439676,-4.367918,0.5760489,-1.9973173,0.5443302,0.49850965,0.8776923,-0.20653208,-0.32503384,-1.3178303,-0.42947197,0.5754695,0.640727,-0.98669404,-0.7504694,0.026471622,-0.5813274,-0.084728196,1.2553165,0.62029713,-1.2467465,0.90665233,4.0476885,0.048660096,0.9426635,-0.12960565,0.93334776,0.2793786
<■0■VoxZlJcqPLzWXzlCSxCOHTKTBPXUGgIs>,-0.91830367,0.12050253,0.6524055,1.0366253,-2.612669,-0.2792091,-0.1895769,-0.91838807,-0.87793726,-1.087048,1.2672548,-0.57381374,-1.970856,0.8935062,0.6444759,1.6721714,1.423514,-0.66778064,0.41325518,-0.22198647,-2.8943589,1.524217,1.1350089,0.5929712,1.1927603,1.9556717,-0.90017176,0.15421475,0.5689685,0.037624177,-1.3477067,1.5802481
<■0■dUtTfvNKXvMLxFNQfrzUuGQFBoPwerEL>,-0.20943202,-1.3177937,2.473577,0.41298428,-2.549204,0.68716854,-1.3356946,0.31222695,2.153335,0.62335825,0.81953156,1.0857757,0.98510754,-0.98292005,-1.7278665,0.16065183,-0.19971667,1.1093957,0.33869097,1.89906,-0.12076165,-0.19288906,0.9912286,-1.9807647,0.82694066,2.6572945,0.47202757,-0.5975476,1.7410203,0.9184647,0.12663727,-0.3062342
<■1■xBbaaEOXxcNyEPmSmrYlAfAWlSVsfclQ>,0.9791816,3.1528642,-0.28794086,3.3389647,-4.421892,-0.87259835,-3.2127686,-4.160111,-1.5974041,1.0122868,0.17461173,-2.5015912,3.9334657,-3.0327828,2.7577918,-0.20162068,0.4611675,-1.0866663,3.075956,0.20750767,0.941395,6.1671205,-1.0876443,-5.6027794,1.6165991,2.5475895,5.4139886,-2.2573886,0.3895162,-1.3455294,-0.40259933,2.5275466
<■1■QWwuesEPzPiMVeRGupfMwuwNbuGmWjmU>,-0.45846432,-0.7563379,0.11527778,-1.854624,-2.2528055,2.2588723,0.3218722,-1.3955388,-1.3298528,0.5696191,1.2098966,-3.125111,1.2101383,0.62439215,-0.09515097,1.1798749,-0.6436791,-1.2691474,0.64060473,-0.6119865,1.4688538,0.81109893,1.0021576,-0.36306915,-0.5199866,-0.44755122,-0.23221774,-1.4408522,0.42862552,1.3499068,-0.31343803,-0.05858352
<■0■TcVSNUSujlwVLGHMqCsEgYGisvLZdbjd>,3.1707392,2.715429,0.11979675,-0.3505327,0.027207585,0.055093884,0.23959383,-1.2775546,-0.9161088,2.9074514,-0.4822073,-0.55300117,-0.3116566,1.1461188,-1.1872709,-0.62738425,-1.0617036,-1.1461,0.5920579,-0.12125612,0.93227583,2.358357,2.6886213,-2.1558557,1.4157754,1.73971,0.55200565,0.78269035,-0.1942228,1.6019473,-0.2543775,1.6777714
<■0■CTmFenmijEBhrUgUxZLuVWYuocoawTuM>,-1.2901397,0.483095,0.59573734,1.9439987,-2.2054505,1.9978698,-0.14846645,3.5181763,0.07230925,0.45860818,-1.0973276,-0.013226248,-0.37323433,-0.6605967,1.5712473,3.3580453,-1.6808363,0.9477505,1.8801112,-0.1969566,-0.5574159,1.6271152,0.25724867,1.0081089,0.6326151,0.28293005,0.8113928,0.12990074,0.7225706,-1.5328013,0.8481515,0.6664526
<■0■vxruaktDEAbwCBZLvePjDNeVqxyLeSea>,1.4596096,-1.7601964,0.89281875,0.5054148,0.06505447,-0.5309521,-3.2136226,-0.4937578,-0.5858482,0.68682116,-1.2325046,-2.3202133,0.9929592,0.0996178,1.1899426,-1.2698791,1.1973499,-1.1594832,1.8146538,1.0131909,0.69556224,2.2639596,-1.2860553,-1.4142963,-2.379215,-0.052208513,-1.579249,1.4832824,-0.78196794,-0.29140198,-1.3443791,1.0998012
<■1■MWkXPUMqSXObhYTBrcueaLKSfYgEXgcI>,0.13775237,1.7312717,-1.853441,1.4377786,-0.41276988,2.4114323,-0.5057399,-0.32069924,1.5910206,1.0392759,-0.5478716,-0.24658875,3.0532913,0.10573265,2.4697654,2.0009289,1.1521851,-1.4115787,0.47709465,-0.34796464,-0.84651953,1.7531072,-1.5420674,-1.0204844,-0.06093721,2.091204,-1.3109827,-0.09972917,-1.4069686,-0.32907003,-0.6411651,-0.014778753
<■0■cCFkmPxPLcHdnLvtHOglwoXvKGQvogym>,-0.089639425,2.6907458,-1.0166358,1.6380833,-3.6651585,-1.6179652,-2.0066628,-0.934628,-2.3301868,0.07103713,2.49158,-0.9370414,4.2702837,0.61392653,-1.315432,1.5508912,0.21573672,0.72529626,0.94223225,0.8153346,0.36990634,2.5533528,3.3862643,-1.8710282,1.893014,1.8808337,3.390405,-0.5372602,-0.9003742,0.17528792,1.0905497,2.1717556
<■1■iADiMpinXgzQMsKrvupFXwSgmVIIDUvC>,-2.3137038,1.4817997,0.87541634,0.22333634,-1.3857217,1.6732576,0.9250805,-0.05901745,-0.24061872,-1.9157269,-2.188714,0.16328582,0.092564456,0.4570523,2.3914692,1.3305043,0.74173063,-0.76645786,-0.7590101,1.2787755,-0.44571364,0.10784723,1.7816811,-0.51161695,1.4118832,-0.017008968,0.55421984,-1.0701804,1.3451473,-1.7438573,-0.2463216,1.7973751
<■1■OmABvyaDKJmIjdjFiOruIHwAefFiCWzs>,0.59180117,1.6480204,-1.7690828,2.5511563,-2.3273585,1.2744625,-2.2755485,0.6378569,0.8988007,2.7068443,0.2852207,1.6146674,1.2259632,-0.34272927,-1.2093387,-0.23013785,0.7359166,0.45497108,-0.14753693,0.5142589,-0.72278607,-1.2731061,1.1262282,0.107985884,1.8307042,2.5555413,-0.25061476,-0.43012846,0.5457744,0.44669434,0.696067,0.48950502
<■1■PGCpIanJQYhCQuAEQTRADtoEzXVeOpVQ>,0.35596868,0.39443752,-0.90061164,1.7245885,-2.2842994,-1.4924523,1.7296939,1.8608167,1.1432203,0.35710213,0.19587801,0.3302832,-0.051509883,-2.0888095,0.40313712,0.4742359,-0.08717279,-0.5700182,-0.50343615,-1.1326666,-1.5810091,1.6995248,1.874685,1.3368644,0.32719558,-0.45612916,2.013157,-1.1632621,-1.3052993,1.3870292,-3.4226854,-0.8264837
<■1■uTZLjdosTcFLLBtcLZbnHpoFpisKiyUE>,-0.6609871,0.7281645,0.42587194,-0.79141456,-1.9668397,1.9757165,0.72937435,-0.2297749,1.13828,0.73500913,-0.6058761,-0.4471781,-0.3358445,0.040297803,2.8198655,1.3551508,-2.8667603,-2.0862432,1.0542303,-0.84413606,-1.6541375,-1.4557034,-0.35723585,-2.20907,2.2517276,0.553174,-1.2139717,-1.762472,0.35149556,1.2481968,0.04434359,-1.1897287
<■1■yWHUyuVdZTFfvPrgVDEYmcsHUVbDFbMP>,2.385036,0.05697828,-0.28793627,0.2685395,-0.117284395,1.6820179,-1.7668478,-0.27291888,0.00388449,-0.97361076,-0.9257059,-1.0191898,1.3210996,0.117528185,-1.7839153,-0.19400395,-2.3970802,1.4725819,2.4194152,-2.1169572,0.4664513,0.5294801,1.4371083,0.71623176,0.6859806,1.1647109,1.5757091,-0.40815893,4.0409284,-0.6598914,-1.0012741,0.7800722
<■1■uqhPPaANZGTCpCxtxIpFqiMvOELzpXbS>,0.8618258,1.3313309,2.5972574,-1.4323242,-0.8303294,1.190439,-2.7005484,-0.12948301,-1.0704924,2.005424,-1.6748483,0.45310208,1.0992208,0.55169314,1.0455253,1.7656357,-0.66025877,2.4068263,0.25384438,-0.24696077,1.2250875,2.1162534,-0.51080155,0.33481294,0.9310937,-1.0018641,-0.53473264,-0.8339378,0.35766435,0.23147911,-0.6574132,0.2237184
<■0■BNipWcHIEkaamJfwYBSrMVfiDkjDuKFi>,-1.2477379,0.9719241,-0.014981877,0.21861885,-0.666375,-1.1971943,0.11801591,-1.0434227,0.36293754,-1.0283642,0.69547755,-0.12556146,-1.2764266,0.7404745,0.5463361,-0.451325,1.2226746,1.4041402,-0.89800954,0.19446987,1.8487668,3.0135095,0.7588949,-2.4217322,1.7014048,0.47368494,-0.0059494674,-0.8994633,-2.503192,-2.0057955,1.260883,-1.4073411
<■0■kVDtNoRDOgWzYfczdcJpQWbxdACTqfvR>,1.1128964,1.5381386,-0.813858,1.7964079,-3.776618,-0.42509088,0.9376112,-0.36545193,-1.2063652,0.11122626,0.1479766,-0.66432995,3.431838,-2.2273135,-0.08469458,-0.21932498,-1.1333332,1.2068394,2.236086,-0.8535887,0.12942213,2.4615328,0.36759302,-0.42857,0.32858688,2.8724425,4.031943,-1.7176841,-1.8466002,0.16258653,1.3071234,3.6655288
<■0■QnPQPWIvrYpJwWZjMwNASnevrWWhzSoo>,1.3685442,0.9872769,-1.934905,-1.2325938,-1.6644146,-1.0069861,0.9843385,-1.5488448,0.3083677,-0.11432396,0.5015502,-1.323471,1.3226675,-0.8760804,2.1221611,1.3190919,0.83131766,1.8308324,-0.1983267,-0.72132695,-2.4611175,0.45288953,-2.4727728,-2.0131752,-0.99223125,0.9673617,1.8401189,-0.582448,1.4672055,-0.4449997,-2.7657359,-1.8917575
<■0■LTKLHfoDIBgIyMihhjCfCWTaqOrZuGeU>,-0.5633401,-2.540719,-1.5719413,2.121311,-0.26311255,0.6638075,-1.6286452,0.3906629,-0.61488867,-0.23890223,-0.17358698,-0.12841348,1.3045892,-1.613042,1.8040422,-2.5931487,-1.5277494,-0.46210176,-1.8338811,1.9768394,3.6555636,0.99162173,1.1014901,-1.8782698,0.19932343,-0.84073734,0.7870285,-0.35334256,-1.1353257,-0.37069154,1.7870297,-0.06564811
<■1■WrurUCEUKpUQdBTlsYYFFyPxPEJYPFAD>,-0.4822573,1.185863,-1.8353362,-0.6174152,-1.1077121,-0.57916373,-0.2335214,-1.0930138,-1.6006393,-1.011569,-2.4559462,1.3828901,1.1767782,-0.018109852,1.7148111,0.056137707,0.4460877,-1.3494105,1.012389,1.5085236,-0.30668527,-0.48564172,-0.92800635,0.29378843,1.7906675,-2.2547677,1.2205867,-1.2907535,1.630094,-1.3219355,1.0347898,-0.43869835
<■1■ESeKIxWCzGEWvSUbvxlpaqQNainJHWVC>,1.6351539,-0.95367247,-0.374478,2.7013998,-0.08423771,0.09171343,0.5037879,-0.3075506,0.5833622,-0.3678927,-1.4582322,-0.23840809,-0.22089306,0.057717893,1.2083224,1.3694725,0.6994375,1.7588117,1.9966596,2.0480208,-0.77641886,-0.23530474,-0.24910755,-1.0400121,0.6014764,1.1781284,-0.55178374,-1.4812849,0.8742097,-0.8451842,0.916414,3.068236
<■1■YjbEITVevvLJrCmzszlRQtUtkelRxJcY>,0.32742992,2.7647011,-1.2659744,0.5037168,-1.370401,-0.5012479,2.7786756,-0.98637176,0.152226,1.6619623,-1.4203857,-0.62494624,0.9684875,-0.7318957,-0.25009558,-1.2895881,-1.5511277,1.3454411,0.49176642,-2.2790534,-1.60969,2.0232782,3.0974681,0.07621513,-0.00050632766,-1.4087269,1.3284904,0.5534198,1.6411626,1.2726798,0.804072,0.20975685
<■1■ZvLUfJrhEIVWPPDwXvVnQLnbZctXQawQ>,0.13425227,-0.35885146,-0.007897901,1.8802443,-2.4829063,-1.7112081,-0.0351328,-3.1848416,-1.539643,-0.69446015,-0.45812437,0.38108164,3.5908997,-0.33131912,3.8225038,1.6888142,-1.827415,-0.06684099,1.5694673,-1.8713784,-0.0881979,3.1335723,0.9396665,-1.7551469,2.392637,1.600023,3.5797236,0.7564864,0.7342157,-0.68188024,2.197975,1.6581305
<■1■UIiJPbwQeAUkJqXDNKlplYEBqdyZTUcx>,-0.06849085,1.7644476,-1.3352493,3.002773,-2.2974682,-1.0267086,-1.6235558,-0.77119017,-1.3448721,1.4001017,0.58219016,-1.4901417,2.5174255,-1.4662772,3.0234768,1.157092,-2.5842578,0.78264576,2.062845,-0.49107158,-0.023870112,1.1380103,1.3842982,-4.0293083,0.3985316,0.48176408,2.3336976,-2.0065703,0.19795562,-0.5385848,2.3759916,2.5042164
<■1■RCvyzVJwjQibuaDmOOqBuJwaIPewHXxe>,-0.4203586,3.2113664,1.4664448,1.3245617,-3.1286328,-0.011315947,-1.8119191,-1.0662575,-0.62391555,2.0049636,1.2312552,-0.900595,4.453736,-1.4776951,0.6332618,-0.32134128,-2.0390997,1.8844384,-0.081803374,-0.101290055,0.54839224,1.9735085,1.654706,-3.4767985,1.3609623,2.837531,2.7521143,-0.41166833,0.68300515,-0.07709663,0.9908354,1.6120955
<■1■SDnfGilCvYUoSRCQHTwimRgxhEeamGNL>,2.030689,-0.7724994,1.7077512,-2.0477667,-1.1940784,-0.5556697,-3.4560146,0.5489368,0.86495286,1.3742778,-0.5272144,-1.2609999,-0.79336023,-0.97594756,3.6150491,1.101634,0.39185348,0.8740262,1.3966873,-0.364051,-1.2178068,0.5552081,-1.5199399,-1.9609543,-0.94625074,1.9290966,1.6501585,0.5011185,-0.38080817,-2.6451359,1.356016,0.31456703
<■1■jSXOQaWqiGQWCilGOKVhFHDreOcYNurh>,0.18779711,1.0534256,-0.6532049,-1.8646771,-0.78098094,-0.49802065,1.3154868,-1.3156831,1.1520144,0.6271204,1.9158299,0.16503336,1.5147665,0.52068615,-0.49287215,0.17479971,-0.9315776,-1.3514429,3.2295594,-1.954719,0.84973556,-0.5129916,0.5308897,0.3252716,-1.4207147,1.0205094,0.26888305,-2.5716867,-0.9984617,-0.97921634,-0.14831485,2.0236328
<■0■BaDOZPBQhdkyBmdOmMjguWZggKyYpJYn>,-0.8235402,0.97310317,0.31994572,-0.17545748,-0.5601671,0.7443414,-1.0090884,3.0281343,-0.27047852,2.1215968,1.8343432,-0.5679223,1.8888835,0.16014878,-1.2233198,0.36904824,1.460211,0.040072773,0.6514143,1.4059591,-2.2907448,2.26213,-0.52649903,-1.5390892,-0.72511464,1.8211464,0.500095,-0.19338669,0.75321376,-1.0811777,-0.08980446,0.19085346
<■1■cLxyEKAkDoINVKPZLthklHeppNggMQub>,-1.8440696,1.2325164,0.62544876,1.2936494,-1.5394747,-3.664784,-1.3700677,0.46497402,1.0584153,1.4799476,0.29360014,-2.0272214,2.4290714,1.1522294,1.1834822,-0.11969354,0.50960886,0.8550866,1.2873343,0.5486397,0.8205645,-0.8066813,-1.1900451,0.35949504,-1.1563013,-1.5059719,-0.550691,1.0502504,-1.1586955,0.2783375,-0.17875768,-0.024839303
<■0■cdFqdxHOGaHIYdLUFsNjALbeQojwSkGr>,2.5160298,0.46957454,0.9627184,1.8912399,2.0485222,0.9075394,-3.325846,-0.51359475,-0.53207886,-0.962172,-1.8747262,-0.5176448,1.4997292,0.95903707,-0.14671822,0.9001634,-0.047160402,-0.17096108,-0.5157305,1.8919349,0.0003260745,1.7757379,2.3799617,-1.5426193,-0.3876344,0.35619232,0.52862877,-1.0893016,-0.94797605,-1.984125,-0.2384454,-0.9437484
<■1■ARaKrEmvaBWZhJzEPVUflRURYznDHBLO>,-0.37858897,1.8274345,1.5455519,2.0114665,-1.0679945,0.5398223,1.4331996,-0.9402383,1.0797839,0.55808926,-1.6847633,0.9049269,-1.873691,-0.21773994,0.61793745,0.45475167,-0.7744053,0.96154267,3.1236048,0.7074981,-1.0702912,0.69694483,1.4412874,0.36283958,0.37248594,1.8602151,0.53050655,-0.023603113,-0.51937634,0.72694385,0.20214638,0.9765511
<■0■IrjAmGGGXfvTSbGIixFDqLtFyQXflsNI>,-0.75701225,-0.91357553,-0.49600735,0.03059307,-1.5815287,-1.3056295,0.7371993,0.5426069,-0.45788857,1.6225575,-0.21494327,-0.5769401,4.653716,-0.28424284,0.95454943,-2.1514337,-2.283275,1.3850412,0.40741965,-1.9677047,-0.41604248,-1.0079442,0.69374466,-0.24841128,0.8140838,0.2901059,-0.23217642,-1.0831312,-0.04624481,-1.823397,0.23113278,-0.19844303
<■0■kVoSsRtViiitNUYhwanwncbuVgWPmuNO>,0.75324166,2.302747,0.1592762,3.2990115,-5.789947,-0.021130458,-3.0236607,-3.8095188,-1.6261821,0.57223195,2.7715313,-1.3662312,4.862189,-3.4958866,2.9320226,1.1824886,-1.7149206,-0.46939892,4.327814,-2.3954034,0.06472688,4.9336786,1.4671085,-2.6782963,2.5755608,3.402893,4.612709,-0.7858051,-0.4411297,0.046043113,0.27561083,2.5118008
<■1■WTGWLPjlbnnbnIvjSadMBkeZNSIwJbaC>,-0.31341887,0.3590161,-0.48181543,-0.661353,-0.586051,0.58839554,-0.79932094,0.91938764,-0.8416483,1.1112838,1.2028481,-3.5707726,-0.528829,-4.206862,0.60799956,-1.4310341,-1.8389217,0.30236277,0.17570938,0.55736595,0.31612632,-1.0847104,2.4602015,0.29766023,-0.84923786,0.87794876,0.5517455,0.384304,0.8262221,-0.66963226,-0.07729605,0.80557966
<■0■YZTXbsJuITYmzbaykPnKDIURAKshEKYx>,0.591257,0.39925537,1.4643224,0.6657135,-1.6200207,0.6227273,-0.4549351,2.3009439,-1.0613025,0.8209169,1.1425966,2.0578458,2.0741997,0.92075676,1.7124382,-0.21923462,-0.37533915,-1.6419517,-0.7000426,0.42028832,-2.1461654,2.669772,0.25712216,0.5573091,-0.55937177,-1.1439382,1.6408322,2.2591023,-0.38128185,1.6700456,1.575043,0.84412664
<■0■OcdVGhvHrLXPVNkmrDEvMpLoknWelHfS>,-1.1009041,-0.058557622,1.2676753,1.3715724,1.2171501,-2.1263268,-2.7943816,-2.3259914,-0.9085219,2.3569791,0.00013109013,0.549097,2.0412102,2.2499108,0.66876477,-0.55922735,0.71938556,1.9810777,-0.14964835,-0.30511755,-0.74015373,-0.16517048,1.1715856,-2.7918758,-1.0971365,1.7855128,-0.9817363,-0.6107338,1.1949906,0.8521838,-1.7221614,0.13040128
<■1■dwxhjCTSALRMGbcuSpzIIAvKaDExabDI>,-0.69863987,4.518214,0.3471491,5.4759445,-7.0394197,-1.1737062,-4.9765625,-4.1950107,-2.3079567,-1.3439695,0.5651329,-4.299831,7.009285,-3.3062098,5.2184744,1.8035539,-2.297061,-0.047262482,4.9193573,-0.74151033,-0.8104565,5.7633214,1.5799323,-5.3273196,1.8915538,3.8555198,7.043232,-2.7285874,-0.43531767,2.4371202,0.2521375,4.11603
<■0■AiegjUePKgOXXAUidbyFlwyCILHPtaoo>,0.018264646,4.7580857,1.2968339,4.419132,-6.901693,-1.1920129,-4.493706,-4.909796,-3.8383806,-1.8493305,1.8779503,-3.5213268,7.2580814,-4.016482,3.6748981,2.6551301,-0.21435204,-0.7205124,4.9477463,-0.90335643,-0.6265246,6.6672626,0.9371621,-4.7588787,1.2209433,3.6794822,6.2112722,-1.0146406,-0.04071324,0.08425002,1.2643183,4.041125
<■1■tOPVwaRRSwovtgjHcSJWglTLUjouFoqj>,0.0321232,-0.041484434,-0.11433208,1.7393163,-0.066077895,1.1400801,0.20299688,0.08173926,1.9790815,0.38394,1.9454788,-1.6074414,-1.3961127,-0.6008331,1.9849135,0.60916096,2.3094223,-1.7889473,0.6626245,0.56831986,1.6417173,1.6196219,0.9509694,-2.6167562,-3.1444075,2.411055,2.050559,-0.37897924,-0.39691374,0.28312424,0.42536342,-0.9108182
<■1■mJXMCwVaJDpppvPFAjtioUBtzdvbYaWT>,1.0273237,1.8762878,1.1372294,0.46254274,-0.6437786,1.9526213,-1.1731818,0.22198632,-0.30379388,-3.2137287,-0.46309486,-0.071387105,1.8824091,0.8600149,-0.7049517,0.36730868,-0.9163922,-1.792276,1.2753619,1.4021937,0.032021675,2.051075,0.15836951,0.62601167,-2.1157463,-1.035389,-1.5337775,-0.60910165,-0.7289166,-0.014373534,0.5306732,0.48607457
<■1■aMQpCsukiVuTVGnDwHSzgmiSdQKBvrgF>,-0.46332964,-0.028442025,1.0044776,-0.8193025,-2.2536118,0.3244105,-1.4519973,-1.6475762,-0.09457231,-1.0297545,1.3166438,2.6810696,0.98954093,-0.6687892,0.7831677,1.4678786,-1.3993464,-2.0473006,-1.7724262,-0.05190024,-0.18123147,0.11415887,-1.5069393,-1.1206553,-4.2005167,2.1699655,1.4604292,-1.8196843,1.786824,0.59754705,0.326483,1.3252577
<■0■tpVPlAAzzutBYZrgEOjIzGvRHfTNNtmA>,-1.2323244,1.8955219,-1.8940902,3.1266665,-3.7169054,-0.11063107,-1.2922145,-1.4213127,0.18914191,0.21218489,3.2896945,-1.5899544,4.678753,-1.1734076,2.085298,-0.9572264,-0.28476122,0.65014035,4.589165,-0.26517463,-0.8167217,1.8410033,0.24817903,-2.1990314,0.72872394,0.77423936,1.1107752,0.3138894,0.17937192,1.0391588,-0.8147107,0.13406219
<■0■VAFOGDJHJyVHFmLhLsfplWYTqtVcPaLj>,1.4431404,0.92512405,-0.8557025,-0.36635378,-1.2782154,-2.335589,0.71824783,-0.5284296,-1.668595,1.2549717,-0.30534312,-2.3064017,0.37858117,2.026999,-0.8091417,-1.3970687,-0.13558045,0.75789285,1.5344759,0.531601,-1.5024502,2.448146,-1.1773844,-0.48103577,1.7104406,-1.1469678,-0.73555946,-0.9435863,-0.17056486,-2.4686673,-0.7718595,0.46501973
<■0■KLFzeJUiMrXiSOUTArMWsMfGYirStSAZ>,-1.7708932,0.8250241,1.0992292,-0.84148216,-1.4069479,0.074778676,-1.2903748,-2.1153371,-1.1917698,-0.558211,-3.313591,3.816736,2.2138085,-0.4564152,-1.218007,0.5858675,-0.19043764,1.2958134,0.95351446,1.5107259,1.611759,1.7747272,1.9666554,-1.3709825,-0.13424447,0.9917897,0.21829619,0.29449645,-1.3500422,0.33229184,-0.9298338,1.2321479
<■1■fxmSEnyEPSNWwjZrQyznKJfpSiFjjITg>,1.7151731,2.6618807,-0.28798893,1.3667648,-3.69154,-1.4251647,-2.9037855,-1.19051,-2.592271,-0.843793,-0.5748385,-2.7782753,3.521348,-0.955216,1.6077428,0.822388,0.5708013,-0.9867725,2.44384,0.95197195,-1.7238947,1.2837094,-1.440549,-2.7444708,-0.77702653,1.1157609,3.4522533,-1.202898,-0.50220984,0.84644663,0.8199463,0.6841807
<■0■ZUkbxGCjzWFCMUqjWJvzTvhKdjdREqvh>,1.2490946,0.36659488,0.0888415,0.87420523,-2.432005,0.39730707,-2.907988,-3.4163475,-2.1596513,1.0668706,2.544376,-2.19413,1.5345868,-3.6520448,2.0507674,0.75575083,-1.878831,-1.6273793,2.763968,-0.9293203,1.7743788,2.2696514,1.83913,-2.0109792,0.73219377,1.5050923,3.0542576,0.21304926,-0.13394693,-0.85929203,-1.2601609,-0.5645652
<■1■bLMDSltiPfwAFPHpOBZiIxQioOjYyHqB>,-1.6494673,1.5571504,-0.0005100555,1.2263613,-3.0595315,-0.48334184,-3.3462787,-1.3552034,-0.13369045,-1.8129936,1.7041738,-0.16304547,4.2484384,0.32975027,2.7889936,0.3435862,-1.7755234,-0.5002544,3.786175,0.31516737,0.36604992,2.1380055,1.4776967,-3.6045825,0.45987454,0.14222713,1.1901472,-0.8488404,-0.715247,0.326004,0.98414934,2.6778085
<■1■qSVNzdFDKMmouUEKiEpFpCMAVdpvFDBX>,0.33493865,0.5159511,-1.5480893,2.1755545,-0.4922066,0.65206116,-0.56341785,-1.6347865,1.311095,-0.5802525,-0.5262903,-1.4692806,0.9413998,-0.305517,-0.84255046,1.1504439,1.0290886,2.4922082,0.4303583,-0.012518306,0.8802947,2.1473155,-1.4141226,0.1540719,-0.39436388,-0.33781278,0.92345977,-0.5349398,-1.1936092,-2.294359,1.8704946,-2.3697348
<■0■BInyxuoXtUleZHifMaRTVGEJNfxYxaqB>,1.2301173,-0.7434518,-3.8118875,0.4770823,-1.8684181,0.38909823,-1.0108005,-0.91024286,-0.61506635,-0.46613425,-0.48180833,3.506151,1.3903562,0.26540002,0.8580922,1.4570448,-1.570455,1.1668065,1.3932891,1.8483413,0.4147782,-0.22698127,0.5025613,-2.2550704,-1.1202564,1.8195899,1.7363687,1.9254252,0.29741114,0.45248282,1.1859387,1.0670111
<■0■IVfBKzFHkWYLnNtrqcccMLKQcwPXklSJ>,-3.9899442,1.0352643,-1.7237595,0.7747392,-0.7617787,-0.58679366,-3.1365855,0.080831654,-0.75634414,-0.063092574,1.4640439,0.46432823,1.3364512,1.154114,-1.278123,1.5640727,-0.56547743,0.1818685,-1.170827,-0.82079375,-0.5184474,1.0613996,-1.801102,-0.6716656,0.26187307,0.75137097,0.06938923,0.8413691,1.5172479,1.9238826,1.7757399,0.09357581
<■0■WXWZdsyvxibSaBlDFzmgTxpxcuLcZKXZ>,-0.38682318,2.6560066,-0.24403639,1.5131911,-2.4945295,0.7458895,-0.5393527,-2.5948787,0.40675968,-1.1806979,0.19340923,-2.3786752,3.2614079,-0.99075127,3.739339,-1.8853608,-2.5636015,0.5475051,0.44632238,1.4970839,-0.3717576,2.6225169,0.18710734,-2.447978,3.0581381,0.9741399,3.9987156,-0.42324468,-1.8702577,0.112560734,1.3388485,0.5428288
<■0■nroNMHMRsMWrEEgGlzAzanSaoAIkpejm>,-0.04927865,1.4656973,0.8225444,-0.42400068,-1.3976853,-2.2683313,-0.89119256,-0.45248756,-1.2920892,-0.2077001,0.7431241,-0.8632789,-0.528427,-2.1135862,2.1832402,-2.5962045,0.3734575,0.35815,0.25314647,-2.296702,-1.3293189,-1.6012247,0.8141278,-0.34811825,-3.7685275,0.34017617,0.9248701,-0.5305005,1.0277492,0.76616526,-0.79110086,-0.035457473
<■1■CqHGFQTXSTqwwGkjDOPoxpsamBJilSSF>,1.0012202,1.4455271,2.0937345,1.4218898,-5.6838865,-0.30893198,-2.0527287,-2.3725433,-0.6223,0.008272448,1.4552549,-2.6037166,4.698994,-0.81016093,0.9876481,0.8144676,-2.4162915,-1.9165268,0.17609936,0.55976963,-0.5258423,2.083178,0.8420882,-0.70266026,-1.3062131,0.40039298,2.2505975,0.14288697,0.43155906,0.8108351,-0.9819496,0.49608418
<■1■OgpqfSduwvHxzeLbPkNxsVWXfSXqEqdB>,0.7795243,2.500292,-0.51138514,-0.49137124,-0.8098201,0.7466557,1.7601051,0.07747642,0.30953914,-2.618884,-0.73864424,-1.829618,2.1397424,0.2519256,-0.21708779,0.7043214,2.016723,0.22919123,-0.64832455,-1.646171,2.694174,1.3300706,2.0713816,2.3809083,0.1375263,3.0745919,0.10751088,-1.8672531,-0.35495043,-0.3847766,0.070999585,0.2923599
<■0■FkKxyRJxilqUYWMIcPejWwlWtsrcOifI>,0.9561565,-0.41445455,-0.26405334,-0.098826565,0.27515635,1.1088417,0.16242936,0.7039371,0.21246006,-1.6808634,-2.5829265,0.720451,2.6268613,-0.7719362,1.9696591,1.2893003,-0.2014879,0.019779904,0.2971837,-0.3361239,0.21054628,2.2269933,-1.9838222,-0.64929444,0.69858307,0.48488685,1.4564759,1.1559609,-1.4626077,1.5959051,1.4205251,-0.99924487
<■0■HbQzLCRsqrEpMPCJkBzoQFOlUKtcMvUd>,-0.94397163,3.090755,0.16937098,3.140037,-2.3656063,-1.0621672,-0.07835879,-0.32206047,-2.3370562,0.012535764,2.034926,-2.4025133,2.6639314,-3.1562147,1.0434426,-0.7212346,0.11085667,0.41697666,1.9095128,0.4088103,-1.2297283,2.7455988,2.899663,-1.40815,-0.3970388,2.353202,2.7225184,-2.5792055,0.37888098,1.1606097,-1.7235916,2.5395477
<■0■cTvhYZkWCmxtLCzHGOJmBobmoEPLCMkQ>,1.7863805,1.1167511,0.93512475,-1.15962,2.260599,-0.33859715,-1.1370449,-0.7392332,1.9420979,0.05627901,-0.44777712,-0.7383099,1.0340587,-1.1593428,1.9754908,1.6327006,1.7660273,-0.20558414,-0.54710704,-1.0209186,-0.022185776,2.153666,0.58061814,0.02125877,-0.3693045,1.4973676,0.86392576,0.73930913,-0.18309796,0.9768891,1.3064809,-0.19474626
<■1■xGkFsZTdJOGtuIrmURFWFiqmCzQjHtdh>,0.7062341,1.0677149,2.437554,1.0028782,-0.20060414,1.3899102,-2.0168717,0.021824678,-1.4566518,-2.2610753,0.41499692,0.6031472,-1.3998312,0.28168145,1.755402,-0.7215954,2.5787146,0.36838967,0.6167499,1.4984555,0.10572225,0.8619796,0.80456764,-0.2098225,0.44568986,1.9988134,0.20603992,1.6718271,-1.7042398,0.5512456,-0.5494354,-0.2449184
<■0■xSyzyhiQNvzuFTBYkoyjMalGzFuZUPps>,-1.1821189,2.1258945,-0.69161814,0.7150776,-2.5104282,-2.247201,-1.9495056,-3.2820518,-0.0886746,-3.1822073,0.66069263,-2.3379374,3.4857457,-1.1676302,2.8557885,-0.57231337,-0.86058545,-1.7563322,1.4382148,0.23286569,1.2342368,2.832828,1.259272,-2.3038647,-0.010002085,1.9346262,0.6254263,-2.7761364,-1.9276694,1.4467196,1.6186776,1.3186884
<■1■JXQpuLuMWLIObxBVymRsQJMAoleioSPS>,1.4849528,-0.61847216,2.5804307,0.774554,-0.9308579,2.3207896,0.18104486,0.63995755,-0.19791697,0.31402585,0.18724035,-1.5005245,0.6838056,-0.5348981,2.0681894,0.46955758,-1.476331,-0.032277804,-0.9623575,-3.0344656,1.6091405,2.6946986,-1.2249013,1.6469574,1.3481039,-0.7629822,0.60900545,-0.44208828,0.92313874,-1.6811715,0.83736783,0.9590622
<■0■tREjHQloLggCKLOUGGPSaxfAbuvjPmZH>,-1.0807563,-0.41989595,2.1024754,-1.3699234,0.718068,1.2147552,-1.3622341,-0.66266775,0.6034552,-1.7738001,0.2538343,-0.0662731,1.8240367,-0.12615082,1.1714259,1.8953019,0.015218911,-0.22446437,1.304503,1.5640341,-2.064762,2.3125722,1.0127976,0.3241853,0.802324,2.4122434,0.1578305,-0.816551,0.3041146,1.2030494,0.9114162,-2.3018305
<■0■iDqkSEHFBhUnQYnJJxykyfOyctosqXdE>,-1.4357744,0.116147876,-0.1144978,1.2597797,-0.58533317,1.0394,-2.104206,0.079922825,-2.4624016,0.4787387,-0.42222184,-1.3331785,-0.684688,-0.39950794,-0.46451092,4.118875,-0.5708562,-0.9632381,-0.76815575,1.0500379,-1.5625213,1.1469423,-1.2177817,1.0062977,0.82840776,0.10584252,1.2176466,-0.1965797,-0.9757141,1.6765075,-0.043028235,-0.50611395
<■0■gCnASFhILdhrqhhsWFQumWchzLsjKicr>,-0.03486462,0.22020537,1.0693809,-2.5550635,-0.31765306,0.50717044,-1.618714,-0.89670134,-0.6308645,0.7005246,1.2109804,-0.6921048,0.6123702,-2.1135347,-0.21471131,0.93106085,-0.27938896,-0.80705035,0.79076266,-0.20143855,-2.183142,0.23991334,3.8418322,-0.74953926,1.4994878,-1.8137201,3.4653308,0.6559889,-1.1625624,-0.15748174,1.4559052,0.29305086
<■0■JwCvCsyTBjsPYhwPpZwlnWLTqVOVjeJY>,0.53144026,2.4632664,0.27026266,-0.9995738,-2.4757578,0.32427996,-0.1609571,0.19874975,0.60230625,-0.40249625,0.17331083,-1.9778417,-0.19202709,1.9285213,0.070915714,-1.598237,-2.1680408,0.4852399,1.8836098,0.25684708,2.6535609,-1.8093635,0.64338875,-1.1022607,0.8226564,1.0054518,0.8206033,-1.5498254,-0.83007526,1.4368612,0.81235355,0.49937975
<■1■oFKqETuPEAesEfoEVEmzVoFnUZaKavMA>,1.029077,-1.0298402,1.3725358,1.8569661,0.5447473,-0.28136635,-0.63552547,-1.960991,-1.7948732,-1.6820418,-1.2050064,1.1331735,-0.49466088,1.3703798,-0.2955744,3.0097556,2.351329,0.46869537,1.1636602,0.5199756,0.64361984,0.7719485,2.079559,-1.1804377,0.670759,-0.38933796,2.1888075,0.3387931,-0.7043057,-1.9868877,-2.2010918,-0.10620285
<■1■ZsoCMoJODqSStFPRutHLdMZeguWkvSBC>,-2.952684,-0.627036,-0.88647795,-0.07481561,0.17684911,-2.7822752,-1.510701,-0.079479225,0.22374116,1.5802479,1.0860993,1.1773607,1.298839,-1.1435686,0.6289201,-1.7485269,-1.5590057,0.06048174,-0.27023643,-1.5644292,1.5290136,0.39345452,-1.6642847,0.71431744,1.3472925,-1.723014,0.7339736,-0.6149194,-1.2148125,0.0388324,0.02593674,2.2869253
<■0■fvPszPXGlYvlMlBDExIFzEICgXCqbAzG>,-0.5943529,2.8595486,0.3712667,2.379333,-2.0354805,-1.007527,-2.6042588,-2.0686026,-3.8618577,-1.6635144,2.6113918,-2.6535866,1.7549453,-0.10614262,0.9655368,0.9216772,-0.0145966085,-1.0202522,1.032343,0.017237773,-1.3241739,2.528711,1.0510938,-2.1057768,1.6274818,1.5672361,3.6954165,0.4637015,-0.6564678,0.16355458,-1.2424175,-0.56347483
<■0■URVIHTZhdvpoTFgZVPlvwSzJRnsEStxe>,1.7596405,-1.3617538,-0.1632573,-0.26558343,-1.6128621,0.575652,0.50715494,-0.013471509,-1.8805338,0.296326,2.2816153,-1.0570627,2.063173,-0.9799293,-1.1130935,0.8263489,-0.37004095,1.7361726,1.6437968,-0.5168703,-1.1840365,1.695064,0.7146483,0.24485601,-1.8987471,-1.8614527,-1.319099,-3.0930126,0.65488756,-1.1423922,0.48995653,2.0573757
<■0■lhaEXFkCboeCkrgjtNDEBywFuvyoLgoj>,-0.07631266,0.120867684,-0.24108668,1.217542,-2.645738,-2.3025658,-0.84193605,0.10430761,0.8240844,-1.8450872,-2.1953278,0.58779085,-0.18089157,-0.650697,0.6152792,2.9955623,2.1280189,-0.08295054,0.97890145,-1.5772326,-2.5193377,1.6615015,-2.1709223,-0.93027616,-1.3917984,1.1742657,0.4291977,-1.462875,-0.26337588,-0.8406876,0.20865023,0.8315465
<■1■QqIvQXGFFOWixAnfNAJxiAorXuFIvUqe>,1.4582082,2.4548903,0.40994903,2.1249268,-1.336915,-0.9470831,-3.7174747,-1.2244939,-1.0334382,0.79259485,1.9200668,-3.8189373,3.6097922,-0.6597973,2.378419,-0.028008653,-1.5032266,-0.11476055,2.2465966,2.0841954,0.67999697,2.9563172,1.8350835,-1.9687203,0.7240606,-0.11354384,1.7475826,-0.070050366,-2.4255996,1.4189191,0.81294525,1.8306811
<■1■TexBcLKCxSbkyeVAcolouAqSAblVUwxG>,0.14611806,-0.04797527,-1.2326802,-3.2069373,-0.8987121,0.979997,-0.9728107,1.6102059,0.15950032,0.7420961,0.008997734,-2.1030178,1.7319878,-0.80498827,-2.320374,-0.7698204,-0.3074182,0.45000777,2.3044822,-2.4276206,1.1649969,-0.22213031,0.0058314865,1.0224019,-0.5912993,1.9513655,2.3553114,-0.7315244,-0.77805364,-0.70112705,1.9599293,1.2734941
<■0■UHAYqhtvJFonlpExAANRMnUjDhjGwQgv>,1.5234467,-0.0072094835,-0.30661583,0.20659305,-1.5004225,1.8923182,-1.0258076,-3.4424834,-0.7590635,0.37779492,-2.6907003,1.4660593,2.2752373,-0.09361487,-0.8962835,1.3433985,0.5314988,1.2390298,0.96364367,-1.8119855,1.535551,0.035093486,-0.7342178,1.0091339,0.36724398,0.47711095,0.2873974,0.39416456,0.8827707,0.4862023,0.4890129,0.12535356
<■1■JmkalknrxnwZNpZjctyvOsPXildAneGF>,0.81361157,2.1097753,1.9667616,0.3945396,-0.93389136,-2.5103607,1.0894593,-0.26753795,-0.9018017,0.48683882,1.5749905,-0.0038412781,1.149539,-0.56068724,-0.82719445,0.75249565,-0.029349564,-1.0831764,-0.05020885,-0.59247833,0.7620696,2.8751771,-1.3520098,0.12469557,0.6112107,-2.8434436,1.5884203,0.86407673,0.55950224,1.756234,1.0931882,0.13045953
<■0■qvDcmLbuzyfIyeuKzNrGdBgCNNTFjDyF>,-0.8229096,1.6160349,1.6669825,3.701229,-5.7428694,-0.33650982,-3.9264457,-3.5772028,-2.9887064,-0.8340768,-0.5471344,-3.5650306,4.7883644,-2.2097087,1.7729845,0.75942034,-0.8625084,-1.087662,4.1650877,-0.62232226,-1.2264675,4.0076957,2.3251603,-3.1629028,3.083656,2.9570465,4.6859126,-2.285947,-0.19906917,1.0302312,0.4463967,1.3497466
<■0■ViJNyMuTLcLEYnegyDAOzyFaJwsazBZw>,1.319674,-0.4637481,1.527796,0.4287508,0.064118065,-0.8793164,0.75701994,-2.5033553,1.3136698,0.52851295,0.37568548,1.1238234,0.2618392,1.8335441,-0.292897,0.04611806,-0.7743797,-0.7011451,1.2114637,-1.7649243,-1.2549157,0.5701201,3.2484949,-1.6076883,0.29890168,-1.0702505,1.323498,1.827169,0.62695843,-1.7116942,1.2360454,3.1700156
<■1■rwoPYdHdnJYDEkCNRxpcHKlzhlfSdQxE>,1.0047863,1.2733344,0.24301991,2.792666,0.7889693,-0.42799097,-0.3787879,-0.25296554,-1.2715648,-0.27227074,-0.4430031,-1.070617,1.4642894,-1.4409027,-0.3697454,-0.9633816,0.61285126,3.2513237,0.542165,1.1996199,-2.1051686,-0.7896011,0.81760466,-0.6630063,-2.673699,1.2369788,-0.4395546,0.23732662,1.3475585,0.33863586,-2.4156108,1.5058177
<■1■dQVZLtIICvgBaJZoIEjSvnwRcbmyroSU>,1.8352754,0.5328208,-0.64018434,1.9067984,1.2362388,0.32647035,1.6971544,-1.868849,-1.4240096,0.0642698,0.15525441,0.32311887,1.9030179,-1.5995978,-0.62155896,0.95055914,-1.0573902,-0.3244653,1.6260513,-0.28861398,0.5890058,-0.41772595,-2.3630054,-1.8454607,-0.31087384,1.1872699,-0.39166397,0.22633596,1.536703,1.9074757,-1.2750877,2.0356715
<■1■BHLprflCmqPXiuyjhLufLnqDgfPVZADc>,-0.45017686,-0.015861638,-1.1347566,-0.17168482,0.7976076,2.0614276,0.20079641,-0.4737988,0.42950657,-2.6040742,1.1736931,1.757049,0.10978359,-1.8378774,-1.8077862,0.6201036,-2.6421108,-1.8354512,0.7077915,-0.8668285,0.11649255,1.924535,-1.1214416,-1.7227504,0.0284877,-0.22673365,0.48992947,-1.1664939,-0.95379955,-1.5656816,1.176267,3.6035316
<■1■MXSpVcrTadeQYmqCgYYxrPAhYyrFeuPO>,-0.8751541,0.61297596,1.4311186,1.7739382,2.2744367,-2.1763725,-1.8291322,1.3935518,-0.14393462,0.9623334,1.7719842,-0.24003555,0.9270524,-2.1655393,0.28736824,-0.058109842,-0.63139457,-1.1475595,2.613744,-0.55739796,-0.22477648,-2.91303,0.36891252,0.5048095,1.2147019,1.982332,2.8369458,-0.016770894,0.7447897,-0.39196524,-0.18909934,-0.46103767
<■0■vGOyyedPuJHXUMqbNfKMIlpGGANKCQXk>,-0.8215181,-0.6904174,-0.24400079,2.123976,0.105600476,1.5618267,-0.08878736,-2.3684647,1.0482374,1.4445091,0.2712626,-1.6214321,0.52411276,-1.694713,-1.2843869,0.8489356,2.1751435,2.6579776,-0.91468304,0.18691005,-0.94756037,1.5248275,0.26149973,-1.1577003,2.568041,0.13041323,1.482323,-0.722527,0.33942816,0.60797334,-1.1216462,-1.2582706
<■0■ZdvxGGsRJZgICfYfDrhkpDooEunMNMsz>,0.087194644,1.4497037,0.8795951,-0.17187141,-3.8680983,-0.74113464,-3.0182762,-0.8440625,-1.6086147,-1.9825361,-0.6341838,-1.3066949,1.3705344,-2.4543452,2.462511,0.97702086,0.09306877,1.6593598,2.130064,-0.7403406,-0.49312243,2.271536,0.0014371546,-3.2533872,0.16030797,2.029569,5.001577,-0.6558089,-1.7502671,0.10459936,-1.4763432,1.2217898
<■0■WKQzWZlvnzIuPKNmeAyiyWXHtJIXrgcg>,-2.2057629,2.6345403,0.3836853,0.5945025,0.21393849,-0.16186936,-1.2976706,1.6050421,-0.52535665,-1.3026257,0.69672686,-0.6982216,-0.40574265,-1.2167057,0.10640717,-1.597299,0.5581589,2.0054667,-0.6182585,-0.4757482,-0.18883878,0.037152622,-0.7102217,-1.053975,0.9930357,-0.057836194,0.97909766,-0.7779243,-3.0823517,-1.6095937,0.60292566,0.43671817
<■0■ZnYaBefLKSaDcFkNMqOXuWMMcEjSJuhT>,-1.718984,-1.3790499,-2.7912033,1.8467718,-1.2696738,0.6546757,-1.9227432,-2.1962965,-1.4515167,0.55718315,0.56557643,0.02307928,-0.55107284,-2.8051298,0.63883007,-2.0889692,-0.8823681,-1.1582192,2.2977595,-0.4514147,-1.5565336,-0.7091577,-0.01204547,-2.2631726,0.9958089,-0.08804233,-1.5307655,0.1851983,-0.47764316,-0.585286,-0.49777842,-1.3738291
<■1■ItwTTeEvJzOUMciIxdNfCKSBnETHNfuB>,-0.899405,2.5007687,0.510786,0.48805213,-1.5992802,0.9832179,-1.6940707,-1.136013,-1.1952491,0.31603444,2.3107834,-1.8428824,4.7330637,-0.37079373,0.4971439,-0.567244,-2.2569041,-0.21252118,4.868984,0.29515776,2.1848001,2.8011954,0.18929003,-1.3365636,1.786066,1.2300665,2.6469402,-0.9266723,-0.061203796,-1.3192167,1.4166324,0.5867636
<■0■FuHYWrNpWSONFbfWybKULktjfItFtjyp>,-1.9113209,1.9089572,-2.526654,0.83883226,1.4271079,-0.6147972,0.72133744,0.42047134,0.21628566,-1.1955391,-1.5941304,-1.0514976,1.1045905,-0.36612523,-1.047593,-1.4302878,-2.2375019,-0.93269956,0.6057725,-0.17345111,1.24554,-0.28313524,-0.8002158,-2.7710114,0.982855,1.7616967,1.599246,0.9803879,0.28504735,0.62604165,-0.79837215,-0.042646896
<■0■xtTPxFhkwCKUfeigjfEIaUVUeiYWrdiR>,-0.33717248,-1.7431897,-2.0421388,-1.4388322,0.04434357,0.0340532,-0.7945868,-1.2729313,1.7801588,1.8586664,-1.1812149,-0.42016625,1.3107952,-2.540921,-0.17498535,-0.45656458,-1.7517447,-0.58714336,3.1602893,-1.1846251,-0.011673705,0.12369329,-1.482772,-0.99285924,0.084399514,1.3232616,0.24269737,-0.047862176,-2.5425286,0.46634355,0.31274098,0.7668869
<■0■jHUGeRhmahxHVjvgkZoKWcpeqIwHexdo>,0.41854188,2.8878672,0.2802378,4.360895,-5.6097317,-3.1321378,-4.514213,-3.6690812,-1.9499389,0.103053436,0.39281294,-2.8355522,3.5973196,-2.2792797,2.6171782,1.4182538,-2.3613372,-1.5901917,4.252674,-1.0355668,1.4968764,4.1975207,2.4420855,-2.2448897,1.4701792,2.524421,4.1304927,-0.7208006,-0.44684714,-0.05604157,1.7814878,3.5546362
<■0■zXCZQtRskXBmTLuPfeOLIkNoatXWfaCw>,1.9093511,1.7609591,-0.467779,2.856849,-2.3194463,0.8931387,-0.23295681,-2.0408545,-1.4679065,-1.5607289,0.7009455,-1.9238858,2.880853,-1.3671005,1.0135356,0.066209175,-0.7849739,-1.5922625,3.1495678,-1.4407964,-1.4041103,2.1186123,-1.0187044,-2.276798,1.6813316,0.94027543,2.9213402,-1.7767155,0.6345089,-0.66691685,-1.6293725,3.4562309
<■0■DVpBSxyQHuueKsVYNYImBoqjlHdjfHDn>,-0.8980337,1.9575028,1.0419483,4.2601457,-5.1097913,0.2999384,-3.7770417,-1.6047716,-1.6458169,-1.509061,2.3824973,-0.65597016,6.501495,-2.619859,3.0794334,0.1633791,-0.50850177,-1.8795469,4.1013365,-0.6865284,-0.740458,3.731964,1.2623792,-3.008751,3.297118,2.937162,5.2539034,-3.0790722,1.2529497,-1.7941823,1.0929589,1.130622
<■0■dHCYSKtejDOBVFNoegUhygzzlGRYRGax>,1.567311,0.55584556,-0.8297575,0.9546773,-1.8044596,2.383994,0.9215782,-1.0960467,1.7739834,0.8111295,-0.018506981,0.74841124,-0.29384196,-1.7899848,1.1789392,0.7595571,-0.4845567,-0.8788512,-0.5127687,1.0875326,-1.6298474,-0.053637814,-0.9915886,-0.28310826,2.5689416,-1.1100205,1.3694626,-3.1768773,3.4815,0.7714365,1.3290731,2.1511562
<■0■DiGBxTMdTXtJLGCJbFHutIhSrjYDEeOW>,2.3088293,-0.37672943,0.05923132,-0.108613946,-1.5353061,-1.9701083,-0.9172298,0.9064012,-0.9606106,0.6066829,-2.0854797,-2.041295,-0.093891926,-2.7765815,3.0636983,0.22282751,0.03958209,0.69977903,-0.547679,0.7592552,0.10332863,2.088759,0.4920956,0.640144,0.2505627,-0.8488753,-1.7106699,-1.8599589,0.5010801,0.7647305,-0.3967798,0.22575554
<■0■CnuakUVRZzrtYNrqfKQieHMHyuRJAnkQ>,2.3439302,1.6621836,-0.30453765,2.6207585,-3.7926664,-2.3950462,-1.6839876,0.7129961,-0.12044316,-1.2592143,-0.047562018,-0.80357134,3.4960449,-0.35979915,3.8763847,-0.4507766,-0.678834,-0.30762148,0.9317113,-0.7384787,-0.55032355,2.8685818,-0.6040839,-2.2153757,2.2365558,0.45800364,3.9654346,0.80455196,-0.9108745,1.3680204,0.2352132,1.8199048
<■0■wEmcedazRmiYzJErlLcYLAGQqARjqqfL>,0.06065803,1.7134556,2.0746372,2.989096,-2.4735143,-2.0963645,-1.0405668,1.7829797,2.792253,1.4492829,0.8252098,-1.2513824,-0.7723635,0.5722519,-1.2679546,1.2205106,-0.24686494,0.4452056,0.13249205,-1.2532961,0.51217294,0.8015544,-0.34051913,-1.5846703,-1.3055149,0.84153974,1.5881957,0.93373597,-0.2258447,-0.73962706,-1.1986661,-0.43085375
<■1■CKCBlVwkUHyhaQbCpUngLsjhhIRpcQHu>,-0.008498758,-1.0343907,1.1262347,-0.8082942,-0.93670166,3.1217096,0.65326554,1.8553808,-0.4767442,-0.5030498,0.5116753,-1.6524049,-0.2021877,0.47237417,2.005165,-1.1000144,0.60465616,1.3257408,0.36801097,-0.14091259,1.1501513,0.8533831,0.104135714,-2.497024,1.645469,0.60291356,1.3758783,-2.661209,-2.2743077,-0.38766173,3.9421482,0.05543136
<■0■QCOrfyFoXfchZKeyJISMGzKjYeYKGret>,-0.544624,2.1618314,-1.4055023,0.34591535,0.2119314,-1.6418353,0.94819856,1.945236,0.13376456,0.69204104,0.610987,0.08125796,0.72625506,1.0073032,1.9802548,0.24388687,0.074233845,1.7471374,0.9256933,0.64119977,-1.8916059,1.3032278,1.6997058,1.1034182,0.6853253,1.7288749,2.1450791,-1.3323115,0.16371639,-1.962452,-0.23920661,-1.4833599
<■1■eUKDOTLkiKbQTjZPXPRAFkymlBHrJDjk>,2.0635056,1.7847512,1.2104311,0.13267316,-0.7414096,0.6705465,-1.3589258,0.9928812,-0.72658587,2.1001143,-0.040743537,-0.93211186,1.1941923,0.23026259,1.0551391,-2.224235,0.52029485,-1.026955,1.6416464,-1.8020691,-1.0761173,1.846425,-2.0555854,0.43854174,0.718573,-0.14979827,0.2928899,-0.23982494,-2.2280734,-1.0528303,-0.68681455,-0.16304323
<■1■pyDCKuMiJHWlKnZmJyVFfidIlfAuVoJr>,0.5026169,-2.8832521,-0.30894664,-0.8267014,1.0587121,-0.706396,-2.4361377,-2.0348558,0.102557145,0.08311559,0.42242992,-1.6383108,2.7977803,-1.2711381,0.09539061,0.21366638,2.7961214,0.41787556,1.6067047,0.6627698,0.45244458,-0.9647721,-0.11755327,-0.023106793,-0.5882926,-0.5037272,-0.4540209,-1.9934324,-1.5507735,-0.68811494,-2.5073988,2.0949688
<■1■GfTTPnmhaZrdcGTHwrJPcZRgcCJvDUwM>,-0.5134534,2.007472,-1.1729544,3.418821,-2.9658027,-1.1825653,-0.627624,-2.1074789,-1.2069604,-0.08030287,0.5005658,0.36488765,3.25489,-3.1877377,3.241644,-1.8692547,0.8889171,0.4163508,0.64991945,0.8975394,-0.36548764,3.3415203,0.50220364,-1.8878753,0.7140295,1.2537819,1.7506506,-3.2794368,0.79816884,0.27744183,0.9228856,3.0787222
<■1■RqThEErwsqTkPDSsPDbxIQzXrWUSCVNK>,0.16764356,1.6782434,0.93346107,1.7274508,-0.33430126,0.6352777,1.3371257,-1.5139602,-0.7339321,-1.0776234,-0.5634167,0.14515238,1.0878426,-0.87594336,2.8600364,1.7609537,-2.728967,-1.6294999,-1.0453342,-0.99872637,0.84559476,0.24613085,0.6592579,0.818305,2.0832312,0.11518299,-1.2441276,-1.7316918,-1.3623376,0.85279536,-0.05407005,-0.1702193
<■0■DmJNYxwIDjudBpnNnxfHaoOdLGBlJNkZ>,1.0464828,2.2267246,-0.10741251,1.3405483,-0.11821167,-2.1482587,0.9539716,-1.1795083,-2.195125,1.878995,0.77965695,-2.3492873,1.3684831,-1.6008478,-0.04399082,1.5025706,0.03877558,-0.46453083,1.1150682,1.4881264,1.3702668,0.31495857,-0.68852127,-1.8149416,-1.3841419,0.037371106,-1.3706577,-0.4277943,-2.8361216,-0.05477547,1.5813192,-0.4195994
<■0■RZPWMrLscbtSuMlWqndgYLndPQKZpUSt>,-2.0790298,-0.9773276,1.0620669,0.9671341,1.6681662,-0.31421703,-0.124150835,1.0434337,0.7820478,-0.9809891,0.528644,-1.2036492,0.76569796,-1.1626682,0.5064731,-1.0857486,1.1384506,-1.5805998,1.148996,-0.68984747,2.1152978,2.2080526,2.8936489,1.2714591,2.825468,0.05796317,1.2577126,1.2164524,0.4309713,-0.8917294,-0.2244349,0.78499204
<■1■kCXSSZyDMvjeMQBBweEdjnqPDSsPCWHm>,0.5299309,2.6990657,1.5763901,2.0501378,-1.281473,2.2014587,-2.3811674,-1.8671994,-1.9438525,-1.624158,1.7917107,-2.5494256,3.6997302,-2.5303295,1.6649941,-0.36288592,-2.0134854,-2.205608,0.6588426,-1.0003648,-0.119195186,3.1029246,0.9065938,-0.254676,2.0371625,2.507529,0.72445256,-1.8904878,-0.21673837,1.2402694,-0.06911012,1.33372
<■0■YGanbbptjtizbjdFmUkyxxbmileakSrb>,-1.3923961,5.1749988,1.7122955,4.0412717,-7.4724574,-1.2082506,-4.5950427,-4.135613,-3.0932682,-1.9918957,1.1232511,-4.547097,7.1692505,-4.600416,3.9641712,1.3375529,-1.07609,-0.91199136,5.555065,-0.6852649,1.1375649,5.460139,1.3407975,-5.40841,1.5017573,3.3151968,5.987003,-1.6559409,0.3358682,-0.18168332,0.6165675,4.247067
<■0■cmEEkOaGEhVLwiBENkcCZuyyWxieYFNJ>,-0.81627154,1.2849487,-0.13728283,2.1491892,-2.2515032,-0.43203753,-0.81530434,-3.3844674,-0.86193544,0.14484647,1.5524445,-0.8799343,3.024625,-4.932189,1.5691177,0.58830994,0.20425238,-0.9432547,1.6750796,-1.0008081,1.3189497,3.4981666,0.2873197,-0.808886,0.35887516,1.1069808,5.762643,1.2401649,0.25518924,-0.41490003,-1.2850791,-0.4967932
<■1■oUgoMkOFYjpgaFKDqpOJOJMPwMhmgepi>,0.7059639,2.4211106,-0.95055836,1.645008,-0.9269684,-0.49596795,1.4198551,-3.0370166,-0.060743097,-0.659087,0.30282503,-2.0232894,-0.80213207,0.2335674,-1.5470462,-0.21578331,0.64993775,0.17311516,0.03410784,1.7782502,0.90992856,1.1945033,1.6100876,-0.25810498,1.6045926,-0.23651618,1.6591109,2.6299427,0.5166517,-1.3893224,-1.552702,0.081330866
<■1■OJAKwqWjWXvojNPXhNWpbVKsLVNHDnxE>,0.79553986,0.5120053,-2.5119808,-2.0302835,0.64729404,1.3400865,-0.5410054,0.64803874,0.82721674,-1.374137,0.097517885,-2.2524061,1.4550122,-1.1331915,1.1605407,-0.056070834,-1.1583129,0.50700504,2.5281382,-1.8517741,-0.7825539,1.2164689,-1.1715747,-1.1391871,1.0819037,0.042731654,0.22279288,0.4959472,1.5975001,-1.3523722,-0.8743717,-2.4891157
<■1■XReNUlzJwKPdMuHFTjIraPrNkBpXXzKE>,1.1975392,1.1313827,-1.4379789,-0.6679956,0.7777729,1.156707,-0.65027624,0.8384904,-0.4993827,-2.4551406,1.5058743,0.516918,2.1269257,-0.73188305,0.80080396,-0.30367577,-0.8857811,0.5055846,4.087335,-0.7483177,2.0563822,-0.12743902,-1.3721651,-1.445157,-0.3302913,-0.97021866,-0.6434263,1.6354107,0.57536066,-0.43436724,0.72101086,-0.015477351
<■0■hlbmpWtiPEUOgYjgDjutdNorjjRYjqWY>,-0.90157944,2.7338398,2.9305067,1.2682743,-1.6690339,0.7889572,-0.22205085,-0.5731114,0.5347834,0.6807612,-1.1900029,-0.15552117,1.0378765,1.1030593,-1.3922929,-0.112696685,0.22052173,-0.5180876,-1.1188636,-0.97202516,0.5043874,-1.5060979,-0.012962563,-1.6541615,0.24959287,0.43928185,-0.32327843,-3.3548772,0.8887598,-1.5575907,1.1157641,0.5508576
<■0■aHnyIUvXgNIFDDzUEYdndobAjILTSujv>,-0.9064522,2.6004453,2.259702,1.8542484,-3.5907657,-2.7152653,-2.284711,-2.3742683,-0.6205603,-0.97341555,0.39862067,-0.80231327,3.8232336,-0.66975534,1.4439002,-0.71113324,-0.3431993,0.12657519,1.5524942,-1.3560586,-2.0925934,1.6806226,1.2324096,-2.0876248,-0.9990451,2.7589922,2.5109036,-1.3960987,0.8324621,0.05333073,3.221367,1.6981113
<■0■ZWfuXJWbKtYrifEiFDNNcRSPbQbDujTf>,-1.3509252,-1.490635,1.9643822,-1.910614,-0.98850477,-0.2909702,-1.2736863,-0.72198373,-0.64735866,-0.53786105,0.23807326,-0.7754943,0.09477755,3.6072886,2.693892,0.09423136,-0.37233257,-2.0487628,2.2982187,-0.68412334,-0.80765814,1.6891173,-0.35238189,-0.70964754,-0.16013038,-0.7640309,-0.4085681,-0.7069317,-0.7234604,-0.0015390282,0.13857894,1.7502106
<■0■SRxlRyWhxiXFglpaCHhCqZvfVmMNzPFJ>,-0.5882072,0.9566193,0.25935435,0.8200308,-3.2484272,-0.7800116,-0.34674302,-1.5160605,-1.5000744,-0.32249478,1.7546263,-2.1590738,4.195138,-2.8868556,0.6621528,2.3523686,-3.0750616,-2.0077953,2.2845724,-0.06414162,0.70222795,1.6851704,1.2357963,-0.8301593,1.347484,0.5848516,3.7090805,-0.14296561,-0.3587841,-1.2417617,1.0741017,1.3128128
<■0■rKlmgwFISIVQSfJeOCnexncNvdSzXUUH>,-1.512017,-1.4361428,1.4692761,2.2259116,-1.8806301,-0.3930654,0.6231299,1.320961,-1.062797,-0.99141014,-2.4284585,-1.8973778,-1.1592549,0.03744552,-0.71581095,0.754753,1.9758991,-0.17278345,1.9633482,-1.2001127,-0.03794712,-0.24002092,0.84313405,-0.7054429,0.5173286,-0.41012928,-0.586892,-2.3421192,-0.7364402,-0.2386784,0.735587,1.5971617
<■0■UwyMovNXkjfiqWaGdlZjzcklPithunTd>,0.06310834,-2.1505072,1.1089387,1.760973,1.2457987,0.32450375,1.1165155,-0.26820904,-2.310844,-0.6547498,0.1772285,-1.2816086,2.4786336,-1.4853033,-0.54327387,-1.2313179,-2.921695,-0.4189882,0.16946927,1.316782,-1.4673057,-1.2799792,0.78868073,-0.026571022,1.9786184,0.21360885,1.6652595,1.9840004,0.7153719,2.014397,1.3812149,0.8425567
