,0,1,2,3,4,5,6,7,8,9,10,11,12,13,14,15,16,17,18,19,20,21,22,23,24,25,26,27,28,29,30,31
<■1■RAHJmYuWWkRxNfmqgeEBEoaPezSdZSpm>,-0.4934779,-0.7920161,-0.07728669,0.3009187,-0.3777461,0.09227441,0.10463414,-1.0240936,0.3179838,-0.55662084,0.028030349,-0.14423472,-0.10207604,0.7992333,-0.30330592,-1.0080243,-0.9028777,-0.49498546,0.42964724,0.25785503,0.13044143,-0.8488279,-0.24855973,0.9670067,0.15316956,-0.07494296,0.3330068,2.1830525,-0.026628084,0.25926846,0.5453953,-0.028169636
<■0■RAHJmYuWWkRxNfmqgeEBEoaPezSdZSpm>,-0.494759,-0.79501444,-0.07677252,0.30042318,-0.3775412,0.106295824,0.10712541,-1.0223764,0.31672662,-0.5554738,0.031014416,-0.1439664,-0.10206549,0.7974061,-0.3048112,-1.0066414,-0.9020972,-0.49329466,0.43046144,0.26420158,0.13171194,-0.84759855,-0.2484473,0.9664758,0.16086133,-0.075612634,0.3322087,2.1855023,-0.024046434,0.2610658,0.54708594,-0.029064063
<http://fFlOpReZETukwwhTWXIv.org/eRrcITAcUEfyjKTXAfWa>,-1.701901,2.4789546,1.5309398,2.378932,-0.22925082,2.0358577,-0.7344124,1.5485702,-1.1641749,-3.8346589,0.76223534,0.66603714,-0.6602659,1.1520978,2.9298751,-0.1978279,3.1620476,0.24381816,-0.23026627,1.1429513,1.051246,0.22443569,0.7247114,-2.2697344,-0.064808734,1.8335036,-1.4564874,0.5019035,-1.3115801,-0.82033944,0.56173295,-0.59186023
<http://QCXjtgDyXkRpVMwMMpMp.org/YLwRKVMEozGbOQAyhUfo>,1.5851918,-0.3184869,-0.23373297,-0.83981574,-1.949174,-1.546238,-3.5269816,-0.25357273,3.1782591,2.144295,2.6079314,-0.33224803,-0.88306594,0.3340518,3.2925222,-3.6442633,-1.1955392,-2.0513167,0.5594759,-2.7456331,2.6031866,-0.3723345,-0.10632115,-0.0759383,0.22636743,0.14481619,1.8444089,0.6090479,1.7435205,0.45814097,2.3202887,1.2832549
<http://jCmXgHptEqRgFNzDjSJG.org/GwxhtNsKCwajiwsnLzXI>,-2.3828623,-1.2322224,-3.3305542,-0.4408799,1.5551977,-1.302836,2.5242276,-3.7384186,-2.719329,2.7378063,-1.1765553,-0.6516443,0.6242619,0.036900926,0.7055567,1.7068595,-1.2351509,1.3580191,-1.2425587,0.36471045,-2.1597025,-0.48121688,-3.1803844,-1.4211942,-1.1333,-0.13553375,-0.261232,-1.3338733,-0.5534146,-0.8707901,0.73327434,-0.3678125
<http://XBdXlIXxdwxhjCTSALRM.org/GbcuSpzIIAvKaDExabDI>,0.7104454,-4.5788536,0.77908653,-0.5328431,2.7024994,0.50459075,-0.16646202,1.6502556,-0.47093108,1.0042667,-2.8336668,-1.4604605,1.1956656,0.0052526337,-1.7661804,-0.59961504,-1.1727865,1.841076,-1.2383534,0.56590825,1.6545273,0.9795266,2.4492357,3.9065373,-0.3995317,0.12098279,-0.10166558,0.9370556,3.8989139,0.37218028,0.01692613,0.13473359
