,0,1,2,3,4,5,6,7,8,9,10,11,12,13,14,15,16,17,18,19,20,21,22,23,24,25,26,27,28,29,30,31
<http://linkedgeodata.org/ontology/nuclear_explosion%3Aground_zero_altitude>,0.27064583,-3.6494253,-0.35555515,-0.72461545,-1.2336464,-3.2070513,3.4315622,0.39065006,-1.9343723,-3.18137,0.26843548,4.682968,-0.98187554,2.965736,-2.6604247,-3.2766557,-7.392459,1.2784003,1.695094,2.4451516,-1.096076,0.64624244,0.20955569,-1.8936802,3.4827657,0.7743014,2.8058918,-4.943391,-0.94759244,0.74812996,1.8364193,5.6402054
<http://linkedgeodata.org/ontology/nuclear_explosion%3Apurpose>,-3.2690692,-6.906475,-2.9498563,2.5034833,3.0365674,2.8243895,-2.9395025,2.9341507,-2.8817103,3.002484,2.1251004,-3.3721476,-3.9879403,-2.9797583,1.9048742,3.41873,-4.6804013,-3.5342066,-0.7504193,-3.9970505,3.7574396,3.2829568,-3.3546422,-2.0503335,3.090616,2.9270682,2.9908266,3.115285,-3.0175653,3.655622,-2.8228455,4.4069586
<http://linkedgeodata.org/ontology/version>,-3.6392229,-1.1545454,-2.7349296,-3.5145335,-4.2670293,-4.7062106,-1.7533091,-1.2501924,-2.737187,-5.7825027,1.5461605,5.477198,2.6956198,0.45726794,-3.4161148,-3.553292,-6.58064,0.59473795,-1.0077845,0.06725349,-1.6752862,-2.8982172,-0.67987067,-4.1895432,1.9073962,0.73904604,0.96373206,-4.339857,-3.4156456,-0.5881961,1.1597809,1.9222054
<http://linkedgeodata.org/ontology/nuclear_explosion%3Acountry>,1.4607422,2.1217422,4.2725167,3.766733,3.795875,-3.6077142,3.1613677,2.8625653,-2.9594407,3.4437017,-1.0367998,-3.0192728,3.2663746,-2.615138,-3.3095658,3.45968,3.1975894,3.7477582,-2.4159656,-3.8078628,-2.9802215,3.111314,-3.5737417,-4.0313497,-3.2365997,2.8537297,3.3757286,2.535593,-2.8925962,-3.7996204,-3.7156124,-3.3019676
<http://linkedgeodata.org/ontology/gadmSameAs>,2.5487208,-3.9131837,-2.2013774,1.537892,-2.010103,3.3411138,-1.9299474,2.5318756,-0.2478491,0.8568588,1.5202253,1.8885294,2.1504772,-1.6398773,-2.9070024,-0.9725696,0.14478043,1.9491408,4.282326,-3.5667968,2.7904356,3.3135436,2.8948941,-4.275068,3.1195118,3.4527454,1.4637386,-1.8111553,-0.05640681,-1.1120737,-2.2125225,4.171332
<http://www.w3.org/1999/02/22-rdf-syntax-ns#type>,-4.120175,0.38842425,-3.4511313,1.0254606,2.0411394,2.9333222,-4.539768,3.6352024,3.0576365,-2.9196093,-4.106561,4.649088,-3.1644955,3.6979861,-2.8240745,-4.0746193,2.2931502,2.8620088,-2.9080045,3.3572397,-2.5772107,-3.2496,-4.036811,3.3386054,-2.223995,-3.7175045,-2.887299,-2.073289,-2.924,-3.4017904,-4.5181074,-2.4519076
<http://www.w3.org/2003/01/geo/wgs84_pos#lat>,-1.6910708,-4.1577344,-0.72052777,-2.293737,-1.6953523,3.3493993,3.1513736,2.9294066,1.4135439,1.562648,1.0265368,2.8052242,-2.9049404,-0.7164833,-1.1891376,3.044384,0.89207417,-2.9828203,4.1625876,-2.1968985,-0.15529494,2.4954357,-2.539568,-3.8441377,-1.6112199,-2.068223,-3.5904133,-3.5258355,-1.4223627,-1.6621811,-3.1959007,3.9893403
<http://www.w3.org/2000/01/rdf-schema#label>,-0.9853826,-4.5463057,-0.22295743,0.86867774,-2.045274,-2.158995,3.5431974,-1.5434947,-3.3279786,-4.6982336,-1.8646696,4.4740796,-0.7851494,0.15544142,1.0037994,-4.468179,-5.319477,3.4813657,0.6124208,2.1639185,0.87755364,0.9612647,1.4080955,-2.7947705,2.4636748,0.41291153,0.37057337,-4.550025,-0.5219281,-0.7236511,-0.59641725,5.747925
<http://linkedgeodata.org/ontology/nuclear_explosion%3Adate%3Autc>,-1.5532495,0.8499923,1.47728,1.3698084,0.44285253,2.6997588,-0.53259385,-2.619784,-0.86880183,1.882515,2.2201688,2.845622,1.9269001,3.7534251,-0.34104222,1.9102652,-5.05331,1.3252999,-1.9750072,0.87139976,4.090897,-2.492391,3.1419494,1.230499,-3.537282,1.5070437,-3.5462644,-2.849175,3.2829328,-0.5041314,2.0115242,5.567727
<http://linkedgeodata.org/ontology/nuclear_explosion%3Atype>,4.0359025,-4.052243,-3.034814,-2.9506557,3.202815,3.7488265,-3.533369,3.170337,-3.229997,-3.6738217,2.2975156,-1.2338293,3.2743483,-2.0383937,-3.4120038,-2.9427922,2.0619226,2.7078962,-2.6831157,3.6716044,4.096521,-4.017354,-3.1773486,-4.5149984,2.8676116,-3.7962754,3.1846495,1.278139,3.6895463,3.5938697,2.5441692,-3.8014245
<http://linkedgeodata.org/ontology/nuclear_explosion%3Aseries>,2.5691695,3.6332295,-1.680074,-2.6775281,2.6293626,3.4106557,-2.7268534,4.012761,2.8273184,-3.9428036,2.5276632,-0.1358388,-3.254283,4.8048882,-2.9509647,-2.7037003,-3.709185,2.5616138,-3.238054,1.9529405,-2.00351,3.169321,1.9219131,-2.7370706,3.4965568,1.6219103,1.8222522,2.7821026,3.2550645,-3.694861,3.2591076,-2.5090377
<http://purl.org/dc/terms/contributor>,1.3704675,-4.8094177,3.5182893,3.1534,-2.6044612,-3.152382,-3.0138812,-2.379665,-3.143887,-3.4173877,-3.3484175,4.793108,2.5474477,-1.8507253,-2.5193129,2.1353679,1.094046,-3.6857493,-2.6500876,2.9374356,3.5201595,-3.3968203,-3.5705543,0.72625935,3.089043,-2.591907,3.8492255,-3.1067128,2.6100457,-3.2141254,-3.9279242,-2.002835
<http://linkedgeodata.org/ontology/nuclear_explosion%3Asalvo>,2.1615174,-3.1122856,-4.206181,-3.4156473,2.4174407,-1.9648935,2.528491,3.0472014,4.018167,-2.5341697,3.0229378,-2.3708375,2.4241168,-3.1967614,3.534555,4.4788237,-4.9476843,3.6335015,-3.436256,3.247939,4.1292253,2.4396937,2.6599772,3.031556,-3.69896,-2.058424,2.4117942,-1.7744946,-3.3409219,-3.3304064,2.5825746,-3.5966523
<http://www.w3.org/2003/01/geo/wgs84_pos#long>,1.6119081,-6.0172815,1.9745135,0.38910228,1.2902606,3.5480776,-2.7593372,0.5336359,-3.2078283,1.0461439,2.2675455,4.278235,0.54159105,3.3360257,-3.620697,1.0539949,-3.9136856,-3.0268028,1.3329487,1.532996,-2.3336117,2.6350152,-1.3044468,0.47980037,-2.8169518,-3.6492398,-2.6622505,1.9205515,3.1722615,-0.5084958,-1.4907687,1.9161488
<http://geovocab.org/geometry#geometry>,-2.120523,-3.5148995,1.7033001,-2.3070152,1.4471892,2.0294816,-0.22486606,1.7085124,2.0158174,-3.502948,-2.8574486,2.8779562,-2.6661465,3.4407616,1.0736269,-1.8761426,-3.3415344,-2.1598077,2.5571415,-2.6721015,2.1489785,-1.3829978,-1.2660487,-3.0429301,1.3811599,-1.7303944,-2.0466592,2.0683937,2.630038,1.9292985,-1.9535388,1.2983142
<http://purl.org/dc/terms/modified>,-4.105157,0.25630534,0.49140623,2.9571326,-2.0687718,-1.9857144,-3.9680045,3.4561179,-2.6558754,-3.072231,-3.9594426,-2.1301785,3.2588913,-1.2837846,-2.2763562,2.827583,1.4686406,-0.45727605,3.7165494,-1.9333367,3.5893934,4.215669,2.3466876,1.1185266,1.3381999,-2.696225,-3.977864,-2.4734168,1.5990992,-2.4690082,-2.3382168,0.24253933
<http://linkedgeodata.org/ontology/nuclear_explosion%3Asite>,-3.3865504,2.125138,2.7971466,1.4156189,-3.2505143,-2.531784,3.7990942,-2.9448144,1.6781615,2.8910513,0.9668692,4.529625,4.253565,4.3408723,-3.760976,2.4574718,0.82985526,-2.882965,3.7152424,2.6212819,-2.0161507,-3.1347837,-3.3078985,-3.78295,-3.2341688,-3.448782,3.7615387,-3.452481,-2.9798768,-3.5333915,2.7202234,-1.6176485
<http://linkedgeodata.org/ontology/nuclear_explosion%3Atime%3Autc>,-2.5570962,-2.986303,2.4998984,2.602431,-2.6189766,-1.0394096,-1.9465026,-2.817331,-3.041968,-3.0773335,-1.4194756,3.2011614,-2.822998,3.8797352,0.9212166,2.9559648,0.7015461,2.2395194,2.9504023,-2.7867045,2.7232437,-1.4042984,-1.347365,-1.5162244,-2.2005832,-3.175439,-1.2691242,1.9612103,2.988063,-0.84516037,-4.473864,5.394638
<http://linkedgeodata.org/ontology/nuclear_explosion%3Ashot_name%3Aen>,-0.9169067,-4.7024636,-0.14582628,0.8138175,-1.9684875,-2.1795206,3.548223,-1.529583,-3.5505052,-4.4742417,-1.8029865,4.5600247,-0.48749965,0.27232617,0.86721146,-4.408654,-5.401927,3.4717066,0.38632262,2.1698823,0.6747607,0.83165264,1.6242813,-2.861688,2.3656027,0.41011712,0.4139948,-4.647565,-0.50562966,-0.54301506,-0.8568497,5.57107
<http://linkedgeodata.org/ontology/nuclear_explosion%3Ahole>,1.0120713,-2.2121892,0.7443128,1.3697437,-3.939347,-3.3023272,1.276287,-0.19679268,-2.8427997,-1.8317567,-1.5757169,1.7208415,-3.2928698,1.6856296,-0.7995273,-4.332286,-6.5684767,2.8057022,3.1394289,1.0946356,2.6609151,2.8459225,-0.6786983,-0.20781724,1.1699663,1.411401,1.877095,-3.8400848,0.98245525,2.1098385,-2.7520545,4.9297066
<http://linkedgeodata.org/ontology/changeset>,-3.3591335,1.2699015,2.67414,-2.2057123,2.6049929,2.8453088,3.874933,2.6363707,-5.1022606,1.3222693,-5.0026374,4.4284463,-2.2109003,3.0201478,2.3100352,2.036433,-3.5788271,-3.8456163,-1.6156282,2.1772614,-2.828137,-3.8775425,1.5042267,1.8624089,-1.9756477,2.5513554,3.0095904,-3.3748243,-2.8095293,-3.6669903,1.1498089,-1.1821623
<http://linkedgeodata.org/ontology/source>,3.586286,2.5371087,2.9775653,-3.3275461,-2.6284976,-1.9980778,-1.7087647,-2.6207297,1.2374016,-5.167736,2.544259,1.0409033,0.9390462,4.581094,2.7748678,-0.27887523,2.0681984,-3.218217,0.25855604,-0.6162598,2.465431,-4.126053,-1.9445232,-3.3984401,2.215244,1.6391985,-0.67511827,-4.802487,0.8590066,0.99499106,3.0327961,4.9742813
<http://linkedgeodata.org/ontology/nuclear_explosion%3Ayield>,3.4574883,-4.4699607,1.9540274,-2.1834118,2.7498229,-2.1787248,-1.6425834,3.1686072,0.9212158,-3.124894,-2.1571386,4.617955,2.6867845,-2.658786,2.587958,-2.842833,-3.852579,-2.2734182,3.6845737,3.4585948,3.4067469,-2.3871744,1.6732119,2.5865066,-1.6703861,2.0810232,-3.5963027,2.7648485,3.0664039,2.6116076,1.899323,-0.030575378
<http://linkedgeodata.org/ontology/nuclear_explosion%3Aheight_of_burst>,-0.23225987,-3.821488,-1.5869023,-1.4955975,-1.5686929,-2.2647953,2.272865,-0.6625368,-2.290644,-4.2580557,1.8478452,2.8630965,2.190971,0.1512598,-4.1298995,-2.7058587,-5.8572803,2.524978,1.9838792,1.3828076,-1.7480881,0.0033043232,-0.7034664,-2.6318872,1.2438704,-1.5630007,1.6458644,-4.323087,-0.6889584,-0.44094503,1.8347778,4.2412925
<http://linkedgeodata.org/ontology/nuclear_explosion%3Abody_wave_magnitude>,-3.1959686,0.08964129,-2.0465066,-4.0762205,3.622564,1.4370193,-1.9874303,1.3602904,3.5657504,-3.6927996,0.2954393,-0.5806433,2.2660875,2.8270528,-3.2573094,0.73889846,-0.68233776,2.7244236,-2.902892,0.7650269,-1.5426712,2.0436227,2.7657871,-4.9093637,1.4105692,2.5008214,-3.54755,-3.4156559,4.1825895,-0.9396981,-5.6591773,0.19923303
<http://linkedgeodata.org/ontology/nuclear_explosion%3Awarhead>,3.8811874,-2.064542,4.7864885,-0.45928738,-2.095449,0.31962344,1.3486592,-0.54561573,-1.4340477,-0.112698376,1.578385,-0.7099563,-3.7898982,-2.1519363,-5.0346384,-0.98826647,-4.735182,-1.2988465,3.9244428,-1.8475654,4.9003944,-2.8905613,-1.5753597,-0.1906148,0.3773881,2.3907645,3.2106776,-5.5921926,2.221964,1.2912318,1.8173506,-0.4156136
<http://linkedgeodata.org/ontology/note>,0.361859,2.8969955,-2.798542,0.48076975,-3.3168483,-3.4441526,-2.8776128,1.0031481,3.1225364,-2.5328746,1.7175815,-0.5672838,0.2555817,-0.21082117,0.16672784,-1.1656502,-1.8194647,3.0871415,0.9008557,-3.537568,-1.8130329,0.37038243,4.424556,4.8467517,0.47597954,-0.36611414,1.7106104,3.8805175,2.6542377,-0.37642258,-3.3115392,-2.0262306
<http://linkedgeodata.org/ontology/nuclear_explosion%3Adevice>,-3.1298673,-4.8049474,-0.33009276,-2.6414587,5.2052493,4.5642557,3.1144118,3.5246787,-0.73192394,-1.3961345,-1.5387595,-0.20041716,2.505535,-0.5767996,3.1307619,-2.3885753,0.77868265,-3.7489407,-1.2903574,-2.9515345,1.4881632,1.8149854,4.0798893,0.7268181,-2.6566067,-1.3668557,1.1798935,-3.2970262,-1.2183021,3.0299926,3.490755,3.3529916
<http://linkedgeodata.org/ontology/wikipedia>,-2.4437885,0.69782686,1.8829193,-2.9162526,1.5268731,-1.2587538,-2.0002005,2.922237,-3.1459622,0.37279326,1.8711914,-0.2830659,4.1079125,1.7866888,-3.9319015,3.0266347,-4.7563887,1.2491158,-1.0036877,0.45519868,3.4071636,3.4474285,-2.977465,4.7185063,-2.7347836,-2.4148395,-2.1083312,3.2276478,-2.6775603,3.3185925,-4.056612,-3.3081594
<http://linkedgeodata.org/ontology/bunker_type>,4.9387784,2.1797886,4.4392285,4.3380775,-1.8388301,2.4656,-3.9598966,-2.713702,3.132689,-3.097043,2.507597,-2.2776887,-0.42545593,3.0121906,-0.8355214,0.51664495,-1.9730879,4.2583036,3.7565854,1.4685305,-1.2561225,-2.9155066,-1.4682043,4.536005,-1.7869092,1.1194547,-2.4375997,1.5983992,-0.69961244,-0.8351682,-0.17735098,3.4151366
<http://linkedgeodata.org/ontology/disused>,5.7823243,-2.707631,3.4344697,-1.1852936,-2.1997259,-0.7615211,3.577004,-0.28737983,0.53451395,1.6837043,-4.098489,5.011744,-3.8903432,-2.870408,-0.7413431,-3.2316408,1.1988415,2.9827704,-2.2102013,-0.97747874,0.62109613,1.2302508,1.2192003,-0.7738824,1.937325,-3.7265244,0.24143855,1.0767617,0.60682243,-0.01798744,0.75471973,5.8276978
<http://linkedgeodata.org/ontology/ref>,0.15256554,-5.4723406,1.2693063,1.0360729,-3.1672187,0.45158315,3.2849028,-1.1764091,-0.39450943,-2.4879618,1.2666645,3.0768602,-2.019609,1.116494,0.20202227,-3.6969342,-4.5347185,-0.015817398,1.0427021,3.255729,-0.52101,-0.2024364,1.6022776,-2.7278254,0.80635244,1.6288581,-1.2111249,-1.8778965,0.065988146,0.9722635,-2.9742756,5.1348763
<http://linkedgeodata.org/ontology/nuclear_explosion%3Acrater_diameter>,1.1543937,-2.5207655,-0.017154252,-2.0160306,-3.6391592,-4.5090985,2.7750022,-0.5572548,-2.6188717,-2.530269,-0.9169027,4.5037246,1.9594961,0.39078733,-3.1583467,-4.8797674,-4.4048085,4.7682514,1.3160042,0.54990077,0.09142266,0.28399855,-1.0198267,-3.1957593,3.9899704,-0.44653136,1.0373869,-3.739339,-1.8608736,-1.0125202,-0.4351957,3.5602415
<http://linkedgeodata.org/ontology/location>,5.318484,-3.0163965,-2.585208,-0.3094746,0.5630166,4.073312,-3.6283095,1.9066433,-2.3200295,-5.4344635,0.6047117,-2.0795062,4.8584104,-1.9226741,-0.4363494,-3.4369528,-1.2013146,1.2926015,-3.9020226,3.4805768,5.135079,-4.3781204,-4.375288,-4.223121,1.6730331,-3.8710053,1.5408328,4.472017,4.731084,1.2691879,1.1595392,-2.5687273
<http://www.w3.org/1999/02/22-rdf-syntax-ns#comment>,-2.3166523,0.27629232,3.4386313,-1.3343223,2.9492865,-3.9012043,-1.9888282,-0.45051542,-3.5257123,-0.40867734,6.0414157,-3.5490236,1.2590901,1.731932,0.17778793,-3.101278,-4.9182863,-1.6907954,1.2277044,-0.7691259,-2.4580185,-1.5099177,0.9493149,-2.406734,0.59174496,-3.3047774,-2.4360838,-1.6830109,-3.3866355,-0.65952754,-2.1281912,1.6336867
<http://linkedgeodata.org/ontology/access>,0.5487079,2.3965702,3.2133937,-2.973866,-1.0943128,3.4856315,-1.6375889,-0.90054905,3.3559222,-5.610833,-1.9318025,-1.0703963,0.31276557,-1.2481518,-1.9451634,-1.3058429,-4.204149,1.5600165,1.5704169,1.6060644,-0.46886548,1.5031064,-3.5329053,0.8847595,-2.0242226,0.8795551,-1.447859,-0.6055409,1.1403922,-2.3162615,-2.9883635,-2.5566154
<http://linkedgeodata.org/ontology/ortenau_bunkermap>,1.5420531,0.009377509,-2.8034365,0.3395454,-4.327918,1.3479989,2.0593522,-1.2920934,0.6129424,4.2004848,0.7642303,-4.2763395,2.2160914,3.116189,-4.1639647,3.3333023,1.962919,2.0105467,3.4226813,-4.0606413,2.0483124,-3.3656297,-3.42805,-0.34961113,-2.0640595,-2.7236285,-3.1035714,-3.4583447,-1.5712668,-2.0632796,-2.1887045,-1.4469264
<http://linkedgeodata.org/ontology/ruins>,4.702156,-2.3736453,3.626456,-1.9585713,-2.4545033,-1.4871402,2.1279523,1.0267869,0.95588076,2.1368952,-4.0547156,4.825589,-4.415441,-3.4364996,-0.58902,-2.7533164,2.0743265,3.0147107,-3.0234134,-0.9790541,0.23648623,1.5288216,2.0543652,-1.7836223,1.3256828,-4.2670503,0.028605925,1.6542193,2.0934734,0.8991105,0.9939451,5.5184116
<http://linkedgeodata.org/ontology/layer>,1.0924959,-2.7248085,1.9278075,0.41688055,-3.760445,2.976681,-2.0077693,4.378978,3.5677865,-1.7960756,-0.021857765,-0.9753915,-2.1918938,2.7221885,0.07316822,0.944263,-3.8357863,2.89797,-0.7833697,-0.40573725,-1.2892967,-0.59877896,-2.227382,1.1623919,-0.8567579,0.9297423,1.4736469,-1.6370087,1.3400359,-0.6254449,1.4981267,3.8771408
<http://www.w3.org/2004/02/skos/core#altLabel>,2.3791025,1.9786351,0.7601658,2.5753133,-1.3041174,0.2461792,0.59928733,5.1869473,0.06341999,-2.9807436,-0.040718365,-0.2193961,-3.8414998,-2.5852885,0.15594149,1.7163042,-0.63237405,-0.24171294,-4.292719,1.4849969,-1.7746131,3.0657654,-2.332342,0.27504054,-2.7267523,-0.10862828,-0.47488824,-1.9182135,2.7962224,-1.7613684,1.6767346,1.5347139
<http://linkedgeodata.org/ontology/comment>,2.0227313,1.1895932,3.58578,1.5763711,1.610277,-3.3933296,0.8028196,0.63516164,-0.67284095,-2.252863,3.9554694,-3.1341665,1.4382095,0.46219966,-1.330915,1.9914652,0.99003345,0.72977847,1.4174296,-1.5379652,0.48376155,0.86137927,2.0277455,-1.4140728,3.7044737,2.1570985,1.2032231,-0.3571484,1.8261323,3.0917838,1.8452134,1.0023278
<http://linkedgeodata.org/ontology/ele>,-2.3125577,-1.2084292,3.4069076,-1.7044569,-3.8480458,0.5815822,1.5083836,2.4191163,3.3163226,3.9060528,0.70599514,-1.6922702,-3.046236,5.579724,1.4734422,-2.5683322,0.97637385,-1.8905852,-2.8310354,2.7024164,1.876877,2.6913934,2.2375865,1.4435049,0.94795597,0.20418167,-1.8824503,-0.33419266,-1.7752848,-1.980703,-0.3689503,1.1928692
<http://linkedgeodata.org/ontology/line>,0.7082357,-3.0695765,-1.1003804,-2.7303157,1.6863272,1.9251179,-0.7932817,0.8906885,4.201549,-5.056807,1.0489956,-1.8372018,1.1409976,0.28982875,-3.3289106,-2.8335671,-3.486776,-1.2667091,-2.5866218,3.1740735,0.18100344,-1.580449,3.4047644,-1.7812462,-1.7697114,-0.5367115,-4.2753434,-2.789349,4.3291154,4.534442,-2.0089946,1.9959741
<http://xmlns.com/foaf/0.1/depiction>,-0.7713574,-4.497444,0.048428748,-3.589714,4.6295953,-0.26766527,0.101431504,2.988341,2.3774369,-4.770427,1.9377073,-1.4481537,-0.9628111,-2.6272373,3.237576,1.0455256,-0.99155015,0.029282102,1.3857297,1.8679637,-1.743165,1.1737025,3.9907088,0.8963568,-2.4196203,-1.1194296,-3.1217167,-3.244449,-0.12006621,-2.340227,-2.6683626,4.272478
<http://linkedgeodata.org/ontology/fixme>,1.7619919,-4.529865,0.13775021,0.41479003,-2.0033503,-2.4741023,1.1345346,1.3860873,2.8664873,-3.8011951,-1.0544245,-1.560365,-2.3203158,-2.9324944,-3.7543108,0.9622815,-0.77775294,0.42465642,1.0234741,1.7153393,-0.9032837,4.034072,0.358869,0.626971,3.1397824,-2.8103309,2.279237,0.043683656,-4.2439256,2.968735,2.1351564,1.6805711
<http://xmlns.com/foaf/0.1/homepage>,-1.2980367,-0.59246665,1.7554055,1.7331485,2.0848377,1.4355288,-2.7740707,2.51694,1.0381852,-3.1769166,-2.54136,-1.781874,-0.43252888,-2.3981678,1.9682152,2.953171,-4.0142784,0.78350437,-2.6595976,-1.3187492,3.9966621,-2.9636054,-2.061976,1.3313048,0.7198692,-3.0190659,-1.9386274,-4.540856,-2.6587498,2.6135092,-4.482367,-0.8143686
<http://linkedgeodata.org/ontology/ref%3Aropiky.net>,1.8547661,-2.105596,3.5802228,1.4518129,0.5338681,2.0969234,2.393009,-2.315663,-1.0063769,-2.038533,-0.032180894,0.90417093,1.1217006,-0.051214896,3.0474167,-1.0228423,-0.5367477,2.2512121,1.3944687,-1.3132674,-1.6032425,-0.06411117,0.29205188,-1.1815263,2.321526,-0.20071164,2.5114665,-2.3087513,4.221587,-0.70293516,3.257177,-1.3748097
<http://linkedgeodata.org/ontology/destroyed>,1.9934494,-0.30227876,-1.9073557,1.9632592,-2.1410253,1.6552504,3.8874764,-1.5180888,0.10345357,4.2205153,-1.292119,-3.968985,0.959845,4.0305924,-2.7776546,2.4604049,3.363493,2.457871,2.9624455,-3.2807689,3.7294884,-1.6064582,-3.2087379,1.3258967,-1.0190761,-2.181583,-1.2952156,-2.9244952,-3.0283165,-1.9129477,-3.6120026,-0.7050258
<http://linkedgeodata.org/ontology/createdBy>,-2.701313,-0.1767634,-1.7647461,1.7430034,-1.2888817,1.5710713,-3.9218884,-3.097091,2.0801308,0.786409,-1.0481553,3.9987226,-1.0135578,-0.7464033,-2.4796019,-2.5182495,0.6932262,-2.6738095,-0.08868695,2.604614,0.5819258,1.7924151,-1.7449293,-3.035859,3.1086912,3.710632,-0.3545696,-1.8480324,2.5404232,2.6619425,-1.1327056,2.4263132
<http://linkedgeodata.org/ontology/note%3Ade>,-2.0046203,-3.0094602,0.13772869,-2.1336496,0.15902166,4.8909135,0.57805645,0.8778913,-2.9492328,0.014959642,0.0928482,0.8232199,-3.1299844,2.3699424,4.4125333,-0.93734014,-0.84872895,-0.74065435,-2.0534148,2.5734725,0.24997352,3.0953493,3.2874,-2.9893992,-2.7682438,0.7987182,-1.2302656,-3.3680959,2.3284445,-1.6348956,-0.50440973,0.18923385
<http://linkedgeodata.org/ontology/note%3Aen>,2.3630414,-2.9622736,-4.1906295,-4.003118,-1.4351687,1.7388189,0.43725848,1.7933476,-3.667819,0.25075096,0.034739494,0.5415052,-0.8847321,2.0637283,0.20510007,-2.6208467,-1.5259972,1.3667649,-0.39236382,-2.2414258,-2.0386531,-1.8011905,1.0178428,-1.4347833,-1.6805322,-0.21223931,-2.5019991,0.6916973,-0.4461512,-1.6147768,1.9691237,3.446056
