,0,1,2,3,4,5,6,7,8,9,10,11,12,13,14,15,16,17,18,19,20,21,22,23,24,25,26,27,28,29,30,31
<http://prop.org/bL>,-1.2947493,-2.2497146,0.3741397,0.59461015,-1.654111,1.479411,-2.719177,0.69112676,-1.0028028,-3.683268,1.6434659,0.5327356,1.7445313,-0.83196175,-1.1567018,-0.020557633,-0.6561131,-2.166005,2.0113037,-0.46429506,0.7794085,-2.3453162,1.9621236,4.310148,-4.4340286,0.99334043,-2.5387652,0.30099237,-1.375859,0.63245726,0.8663842,2.52237
<http://prop.org/ze>,0.16180705,-1.6087098,1.023692,-2.914491,0.83153445,0.7250974,0.18440509,1.2014006,-1.3346993,-4.6655307,0.26940218,-0.43131772,0.74573827,-0.7397349,-0.8685191,0.12489139,0.07033278,-2.37298,0.8005465,-1.4452773,2.7326398,0.4033103,1.0697768,2.2335453,-2.7025118,3.5836506,-0.96212095,2.579323,1.0128931,0.7817724,-0.9057522,2.4539912
<http://prop.org/Cj>,0.9125244,-2.804862,0.03552846,-0.0036604025,0.094715305,-0.3757674,-2.6597257,0.24503407,-2.746115,-2.485908,0.61756283,0.5895594,1.6120989,-0.78607047,0.45975712,-2.063054,0.33470398,-4.2631283,-0.059386928,-3.7134123,2.7476912,-0.8446853,3.5567322,1.6848451,-1.656421,-0.21764469,-1.9834353,2.9962435,-0.62950575,0.7000213,-0.0034023302,0.96037996
<http://prop.org/vi>,-2.0340235,-3.0893857,0.5632594,-0.68435067,-2.8080485,0.91847605,-2.3606613,1.417253,-1.387705,-4.602588,1.1084076,-0.78544223,0.8048184,1.0032198,-3.5099263,1.4366632,-0.49108782,-0.072378,0.23505832,-0.88142824,1.1786416,1.048073,4.4021397,4.0643206,-1.3508753,1.7855289,-2.1532714,1.250209,-0.62820137,0.81988585,-0.4358274,0.7072094
<http://prop.org/ws>,-2.7368417,-2.857227,2.1816156,-0.97134674,-1.5207013,-0.8239766,-1.6971353,0.34574768,-2.7176557,-3.518128,2.3554819,-0.71826893,-0.418054,-0.67939335,-1.1752381,0.3730603,-0.11627244,-1.1144292,2.241366,-3.6567674,1.4862449,2.2525513,1.3965865,1.9264181,-1.9240394,2.795835,-0.90351486,1.924213,-2.131672,-1.0041305,1.4447883,0.2331984
<http://prop.org/Wq>,1.1388012,-1.1362945,2.032256,-0.8159251,-2.4897766,0.08891759,-2.1185782,0.77167094,-2.7924721,-2.8248813,0.6340182,-1.4046206,0.74596345,1.0057251,-0.9802351,1.2128091,-0.36349496,-0.08452358,-0.08983332,-1.0532752,2.3201246,-0.41988465,3.039338,3.4954355,-4.6180587,0.9618194,-2.465901,2.8191612,-1.3992101,0.08560508,1.478971,1.2375046
<http://prop.org/dR>,-1.4372758,-2.3775778,0.3543344,-0.17552553,-1.3597126,1.1098067,-2.4749475,0.3600773,-1.9813166,-3.880467,3.8185444,0.86851305,1.1375294,-1.0913292,-2.34183,0.75221837,2.1629832,-1.4366935,0.09646657,-0.48031342,0.09070735,-0.032597482,1.9131006,3.0883818,-2.5835824,3.85389,-0.1944692,1.9347599,-1.2882601,3.0987344,3.2531173,-0.38536268
<http://prop.org/SK>,-0.98570156,-2.761684,2.3449833,-0.2567648,1.5291103,-0.47920996,-4.423685,0.81759155,0.12378315,-2.872716,-0.26340997,-1.4285747,1.0515966,-2.742417,-0.23386002,-0.73704493,0.22404525,0.20178369,0.3604964,-1.2536945,1.6395414,0.5544095,3.3133812,4.0601974,-2.8881738,1.2481912,-0.5060298,-0.7996535,0.6620301,1.5932406,1.5508078,0.4292512
<http://prop.org/lN>,-0.04641282,-3.3140044,2.3080003,0.36290273,-1.1325095,1.8445987,-3.098134,-0.23640135,-0.8733708,-2.6532986,0.39167875,0.16381459,1.1499327,-0.030606285,-2.0829577,-0.3745829,0.5352638,-2.919107,1.8092961,-2.1740162,3.0674732,-2.9642246,2.5734284,0.061308805,-0.7354664,0.5939808,-1.8121644,1.2307953,-1.0793071,0.5279252,3.513598,2.578742
<http://prop.org/bk>,0.96937525,-3.1341975,1.4637448,1.7233142,0.15555981,0.40825832,-1.613629,0.3612956,-3.7920423,-5.353187,0.40037516,0.48138985,-0.06991219,-0.63627577,-1.9969316,-1.1582936,2.8040972,-1.0433217,1.5416399,-2.8164663,1.5082463,-0.43303353,3.123639,2.2724226,-1.3004208,-0.008063271,0.97497237,3.7741506,0.40375894,1.1522449,1.2803464,-0.9376301
<http://prop.org/SZ>,0.42584693,-4.5085444,-0.27311465,0.6349704,0.70231533,0.962524,-3.140955,2.3826137,-3.6311834,-2.1885848,2.8514583,-1.041288,0.7155228,-1.5852185,-1.4978495,0.22709942,-0.6330501,-2.1719062,0.1428471,-2.5662942,3.5371923,0.018653397,1.5843164,1.6450481,-1.9884338,0.45107743,1.1190306,1.7300377,-1.346867,-0.39881086,0.63210243,-0.14608224
<http://prop.org/wk>,-0.22878969,-2.4936745,1.6319972,1.1604979,1.1176213,-0.9581053,-3.3196094,0.90790796,-3.6949782,-4.7056317,1.2193353,2.0697904,2.8638754,1.1190546,-0.55223763,-0.70592,-0.14778247,-2.2277975,-0.46983406,-0.7344044,-0.36632603,-0.64420325,2.2098901,1.711696,-0.9595242,3.5652566,1.2470319,1.4302278,-1.0054147,-0.25043693,1.2948943,3.1365228
<http://prop.org/pU>,-2.1697085,-1.4665351,-0.011800557,-0.6504021,2.127725,1.2805008,-2.7835,1.4811964,-1.5869997,-2.0959942,1.3606985,1.7184343,0.7000922,-0.9566795,-1.9550325,-0.09536608,-0.7294058,-2.7409806,0.9512367,-4.488462,3.9826467,-1.5050787,3.9856439,3.7743773,-1.4527551,0.11252524,-2.1786308,0.44452628,0.6269953,-0.25507203,2.0206816,1.1075574
<http://prop.org/hY>,-1.31615,-1.5348895,2.1615562,-0.33359998,-0.78200066,0.7162663,-2.8388247,2.3416212,-1.8985329,-2.8473322,2.0332708,-0.44660312,2.0161867,0.6296546,-1.5936031,-1.2391007,2.5738099,-1.8872389,1.0740215,1.2075968,1.7118315,-2.0356464,4.222054,3.706849,-0.01226549,1.4165689,-0.27747694,2.3687196,0.8829778,0.61880505,1.2508835,1.2461554
<http://prop.org/XU>,0.69820374,-2.9153345,1.4428157,-0.33913678,3.7149196,0.6498523,-2.5817866,0.3944907,-3.5671835,-3.7680392,0.42513004,-0.09406157,-1.4919324,-3.4464495,-1.8158747,-0.3861874,-1.1107976,-0.048142605,-1.8571815,0.25514796,3.0854626,-1.2067364,4.154456,3.2267883,-2.350735,1.8009126,-0.95700896,1.360577,-1.0995519,0.21966635,1.2897488,-0.071340896
<http://prop.org/rO>,-0.94191986,-2.1574514,-1.320409,-1.3759466,-1.4706235,0.41321415,-2.3932729,-0.593044,-4.771366,-2.5217173,1.7931008,1.4352589,-1.4387857,-0.43369737,-2.158355,-0.78266287,-1.6664163,-0.89987934,-1.5987184,0.56744593,1.4439462,1.3437163,2.9850807,2.6532829,-2.543799,1.920599,-2.7087815,1.448212,-0.7432355,1.0152861,2.7522552,2.2883887
<http://prop.org/eJ>,-0.2671389,-1.3775102,-0.5413299,-1.1634004,0.58504033,-0.78621453,-2.9143538,-0.27076027,-2.4481232,-2.9165006,1.5471647,-2.6198583,-0.54139143,-0.37075835,0.23187737,0.4543827,1.0980455,-0.5240051,1.4700451,-3.498594,0.81588084,0.15527433,4.6432033,3.965205,-1.2940251,1.4470973,-2.9493835,2.7730777,0.14459662,-1.9351246,1.1122808,1.2220038
<http://prop.org/YW>,1.1250267,-0.67427886,1.7260449,0.40690863,-2.0978596,2.0825193,-4.0491786,0.9410914,-1.1803275,-2.6760466,1.6400528,0.56151277,1.0467228,-1.2603946,-1.8212075,-2.2162116,-0.56967854,-2.1875563,0.63492495,-1.606506,0.037162654,-0.018000066,2.537013,3.8431864,0.3634615,2.085028,-0.1258531,-1.6059949,-2.1279252,1.1023697,4.602721,3.3108308
<http://prop.org/gj>,1.0164912,-0.48097196,-0.4186413,-2.0503697,-0.6282215,1.8791581,-3.1219504,1.3823453,-2.5700815,-3.379477,1.9951086,0.20770495,-2.6686902,0.26540378,-1.4109604,-1.0285816,1.3841703,-0.88857555,-0.03353357,-2.4489038,0.90822715,-1.0697376,3.6448414,3.040386,-2.6937838,2.0875158,-0.9849388,2.2683537,-0.13801138,3.7600281,0.29159483,2.0295167
<http://prop.org/dH>,0.36127758,-1.5015585,0.9884425,-2.141315,0.22833502,-0.22827779,-1.4592382,2.2779708,-1.5152488,-3.7430274,1.7556295,-1.2797123,1.0516677,-2.1282914,-1.5065035,-2.9702127,-0.82235134,-1.7342229,-0.8527984,-0.8123044,1.931716,1.216267,3.466662,3.3496356,-3.0021644,1.766292,-2.9327314,-0.21149981,-1.5984209,0.0736756,0.014830164,1.4662365
<http://prop.org/NH>,1.0818038,-4.426933,1.3134428,0.11186207,-0.4983745,-0.5629,-1.7295337,1.9515164,-0.15939687,-4.769089,1.152152,-0.36803505,-0.5279536,-0.34165186,-1.7073898,0.24341618,2.9471636,-1.4711854,0.27404085,-1.9643483,1.487088,1.9960183,1.2499613,4.6242185,-1.2253448,0.5707717,-2.7212808,1.7295647,0.68810207,-0.11139623,0.8898329,2.0655437
<http://prop.org/qY>,-1.0645512,-1.6018522,0.9784625,-3.0696955,-1.8152751,-1.0397485,-3.0575438,1.6125265,-2.3344724,-0.7409635,1.7463677,1.3209872,-0.16233186,-0.48290473,-1.7926642,0.53077346,-0.51815915,-0.8329275,0.65068054,0.6595167,2.2852142,1.8729147,1.7517782,5.581982,-0.11054464,1.7142748,-1.6822209,0.95996416,-2.864712,2.2290866,3.2518964,1.5745423
<http://prop.org/HC>,-2.170666,-2.3690407,2.106939,-1.9007652,0.55951005,0.122513615,-3.5598562,1.0757074,-3.389566,-2.4646144,1.4087362,0.7993231,2.176518,-1.064652,0.0022715186,1.254091,1.814276,-0.9260352,-0.2881666,-2.0660315,2.2272356,0.59858304,3.1570656,2.2983673,2.5740142,2.2026384,-1.4634535,1.7762649,-1.0995054,-2.0024076,3.1930223,3.4900935
<http://prop.org/Rq>,-0.23202977,-0.18979445,0.9872086,-0.33192864,-0.16906226,-0.08636633,-3.046244,3.0136976,-1.3046858,-3.6480162,2.7434754,1.5817689,1.7672532,-1.0095054,-2.413799,-2.7505605,0.89693075,-1.3371984,-2.4111145,-2.0635204,2.1234674,1.3808968,2.0333261,3.4559007,0.41242367,1.5410146,0.676365,3.8906593,-0.7577939,0.23769084,1.3827686,2.836348
<http://prop.org/WT>,0.2013306,-3.646963,1.1477956,0.27999207,-0.5372163,1.1042604,-2.7598598,0.8461727,-3.3432105,-2.2033486,1.9435679,-1.1583406,0.23305446,0.31274888,-1.5862694,-0.49599236,2.4194148,0.8058917,-1.2389512,-1.6641259,2.3096063,0.9775913,1.9505059,2.9647174,-2.8219235,2.1179194,-0.6168399,0.82029337,-1.4656512,-1.5569315,4.024408,0.72161573
<http://prop.org/dD>,0.901651,-2.8076518,4.0394406,-0.30983573,0.6722034,2.442297,-1.3660247,2.5730605,-2.6552548,-2.0086842,3.3630416,-1.615645,0.42781603,-1.1481962,-1.2435514,-0.7540013,0.95453405,-2.0188365,1.3449043,0.11188033,2.1983619,0.68115324,1.6843591,2.0782635,-0.99854213,1.4890999,-1.3020321,0.35050654,-1.5384538,2.1107013,0.93683165,2.3991613
<http://prop.org/wi>,-0.33991474,-1.6702402,0.8409993,-1.5824639,2.6187673,0.482037,-4.0055523,1.7095551,-3.8493478,-3.2086651,0.28168422,0.63478684,-0.2582517,-1.2716373,-1.4404231,0.5817975,-1.2467597,-0.96266663,0.8942909,-2.1287751,2.2259393,1.6977699,3.082857,2.3708422,-3.6371942,1.1151646,-0.83316016,-0.7420795,2.8646135,0.47014883,2.476718,2.2861934
<http://prop.org/KC>,-1.8411598,-2.9247642,-0.32840112,-1.3889005,-0.23415881,-1.0135672,-4.08318,2.359392,-3.1007254,-5.205898,1.8394246,-0.7662975,0.019141017,0.8742507,-0.4900206,-0.6931624,-0.61921495,-2.0503294,1.4418805,-0.1465625,0.40431204,0.39808327,1.1136003,2.9890177,-0.1880979,2.3769796,1.177989,-0.5432197,-1.1721925,0.003367189,-0.24810065,1.3050127
<http://prop.org/xw>,1.1562192,-0.71631765,1.7369043,-1.2124534,-1.3851074,0.2717356,-3.6732712,0.11002106,-0.63431805,-2.812348,1.2945472,-1.4877957,1.9551063,-1.8890654,-2.03219,1.1077628,1.4354746,-3.0290735,2.2833357,-1.720526,2.1475062,-0.14722076,3.796149,4.158471,-1.7104847,-1.5779535,-0.8314994,1.5452971,-1.358164,1.5519516,0.6194767,0.012389384
<http://prop.org/az>,2.0374546,-1.9449098,0.5805895,-0.97989714,-1.1853393,2.2525876,-2.063797,2.76872,-2.2210197,-2.0594907,1.7095389,1.1788377,-0.28926563,-0.34065655,-3.051701,-2.4343119,0.9076138,-2.5307887,0.9882155,-0.90547687,1.1348109,1.9566833,-0.6061119,4.3327484,-1.8513007,1.002382,-0.33718285,2.2839515,-2.0759535,0.9529316,0.80429214,2.4384773
<http://prop.org/Oj>,-0.6133573,-0.94686145,2.6265674,0.70880586,-0.7185398,-0.640673,-1.5548232,2.6753187,-4.7210383,-4.013287,0.053730242,-0.78975624,2.5229704,-0.3558044,-2.0234041,-0.37641022,-1.079437,-0.80101264,1.504281,-2.1125302,2.4096212,-0.49390325,1.4853314,1.6231306,-1.4026192,1.9241617,-1.162075,3.299333,-1.0149182,-1.5339593,0.31156433,1.3575108
<http://prop.org/Dn>,-0.54121196,-2.3493264,1.741493,-1.8659694,-1.9963115,-1.4439555,-1.2065578,1.7625222,-4.0682054,-2.1691191,2.2356582,-0.51067877,2.7807503,-0.14625229,-2.0191646,-4.6552854,-0.872726,-0.30068672,0.75004834,-2.3020117,2.3229733,-1.4180973,1.3904704,2.1089745,-0.58832103,0.19236647,-2.206556,1.0244175,-1.2383673,1.6343635,1.931113,2.0314162
<http://prop.org/vs>,-2.1996446,-0.021593565,2.8600738,-0.89008385,0.5928604,0.039651677,-2.69114,-1.1983597,-2.6562443,-3.329804,1.5931097,0.11045028,0.7648381,0.8956848,0.47281268,0.841521,-0.47338623,-2.379731,-0.2306933,1.2445449,1.7630283,0.49179593,3.5457945,3.869885,-1.4451629,0.4624069,-1.2340405,1.0738713,-3.511354,-0.17589365,0.8668731,3.025245
<http://prop.org/Ju>,-1.9680673,-3.9115288,1.1409217,0.26986292,-1.6657165,3.4235632,-1.4111742,1.6491629,-2.3487935,-2.3057683,2.4666722,-2.543551,-0.34708253,-0.9360744,-1.6707808,-0.3706341,-0.8496079,-1.0151304,-0.55754036,-1.6343116,2.595208,1.8990711,1.0354302,4.1180806,-2.4974012,0.3930373,-0.8878334,0.85260063,0.31364506,2.160023,-0.070420645,2.4789686
<http://prop.org/Vs>,0.3632448,-0.1858966,0.3914825,-1.1092206,1.6518368,1.5452665,-5.056231,1.4071219,-1.5849535,-3.4300833,2.8650472,1.9290929,0.6887866,-1.8090354,-2.2224023,-3.4702625,0.8462693,-2.7034872,-0.7107248,-0.80442977,1.3843683,0.389551,2.670365,2.7758622,-1.2722139,-0.76287466,0.51646274,-0.97239554,-1.1023842,0.034077104,2.4238906,2.1073165
<http://prop.org/qH>,-1.8197047,-2.1401856,1.2257826,1.0093061,-0.10690234,0.19497873,-2.7526698,1.1168836,-3.5687888,-3.1869793,0.7393867,0.050548352,-0.073680304,-0.83839756,-0.5587186,-2.4580505,0.64024675,-2.5046604,1.2530533,-1.3642852,1.7823836,2.0750566,2.0285826,4.6145267,-1.3827109,2.996945,0.28814307,3.183601,-0.4703062,-2.1553147,-1.9030895,2.1240277
<http://prop.org/sO>,-1.7899961,-0.34780577,1.8620042,-0.22154056,0.6053964,0.24904934,-4.3909264,2.4875107,-1.9403965,-1.1137527,0.7431096,2.3002992,2.4888418,-0.09158246,-1.3111756,-1.5861285,1.609186,-0.95531565,0.6257067,-1.6786458,4.5571866,-1.8691843,2.409002,2.0605228,-1.2309096,-0.39078718,0.33022976,0.53234947,-1.6051577,2.2212193,1.7996693,2.7506578
<http://prop.org/Mk>,-1.4684684,-2.618505,0.6313315,-0.35803443,-0.13947405,3.0581095,-2.7664354,0.11584587,-3.8367784,-3.491218,4.3436413,1.8429065,0.016615625,-0.57278734,-2.0107722,-1.5798794,0.319121,-2.2412343,0.8793243,-0.50842273,1.7467353,-0.4642823,2.8745234,1.802695,-0.44433117,0.88901687,-1.6092094,1.7718686,-0.8763597,-1.803184,0.3120387,2.0058236
<http://prop.org/LE>,0.57059926,-1.6150236,1.8292332,-0.58679175,1.9898278,-0.3084394,-5.08977,1.0389894,-1.6089908,-1.5962032,0.21328528,-1.2986189,0.17958862,-1.9296037,-2.290215,-0.39411497,1.4011153,-0.91403437,1.5358305,-1.2747384,0.13222262,-1.3494406,3.352998,6.334848,-1.8329194,0.0773529,1.0238341,1.6405636,-1.0440516,0.89898175,-0.5520902,2.0059633
<http://prop.org/Pa>,0.13892782,-1.1392299,-0.15323786,-1.674851,1.6481625,0.9858397,-3.8014042,2.161993,-4.009826,-4.0078397,1.8761795,-0.17751107,0.8958727,-1.0368905,-0.16110152,-0.15594637,0.24892028,-2.7611396,-0.399472,-2.7460024,2.380996,-0.77293646,1.6819046,1.5116528,-0.969628,4.142008,-2.0439692,1.0614098,0.51495004,0.1308304,0.023723187,-0.888653
<http://prop.org/kX>,-1.3425589,-2.8900082,0.76282525,0.06377499,-0.31525436,0.85463744,-1.4475161,-1.1797552,-3.5590043,-2.7980304,1.0262504,-1.41406,-0.5796964,-0.99112225,0.18851194,-0.6674524,2.9253838,0.1673803,0.7894183,-1.9489479,0.1275614,-0.29502037,2.5745664,5.8762674,-2.180252,0.66202193,-0.34446788,0.94733566,-1.3241152,0.8315032,1.8201383,3.5638523
<http://prop.org/Zw>,1.5086075,-0.603147,-0.04299106,-3.208766,-1.7347142,0.087959625,-4.0692797,0.7288971,-3.3098497,-1.8278626,3.6577077,-1.1854199,-0.62023115,-0.42299023,-0.47005054,-0.78615296,1.5211068,-1.0604868,-0.65695703,-2.0732708,1.0468153,0.7334989,1.7587452,3.564663,-3.2622035,2.3328466,0.34632424,1.359916,-1.2111297,1.2465055,1.6304935,2.7772052
<http://prop.org/Bj>,-0.42424074,-2.3433092,0.5595118,-0.60451823,-0.4318566,-0.5045736,-2.0880125,1.7250826,-2.7757013,-2.42473,1.452173,-1.6982512,1.2689794,-1.8361244,-1.8867512,2.0409408,-1.2341259,-3.4958463,2.0042586,-1.1061324,2.953484,-0.5933856,0.5604756,6.7245564,-0.09184774,1.1776644,0.39016545,1.7235038,-0.63117594,-0.73098046,1.0913275,1.248034
<http://prop.org/HE>,0.52376455,-1.3841074,1.7918756,-0.73116755,-1.7044569,0.8539667,-3.686747,0.3964475,-2.4870584,-3.052804,1.8962806,0.26724154,0.67049825,-0.16616498,-0.58278674,-2.2945125,1.7736537,-1.1797456,1.2132318,-0.992576,-0.29624534,-2.4103835,3.979616,1.2174989,-0.8591558,1.5960839,0.5333257,3.8329177,-1.6649706,-0.31243888,1.9781376,3.789377
<http://prop.org/kA>,-2.2357438,-1.9263471,1.0475229,-1.835946,1.4615926,0.36890483,-1.028088,2.478995,-1.4364202,-4.420045,1.0744468,1.0761904,-0.17455967,-1.4555347,-0.24517116,-3.0221682,-1.2254564,-1.4167708,-0.08178913,-2.713503,2.8417432,0.100861125,1.8299854,5.661208,-2.6343484,2.023902,-0.37226814,0.45416284,0.5874272,1.2805101,0.93683165,0.26126847
<http://prop.org/Tg>,0.45825395,-1.8362279,0.836478,-2.0198889,0.24099249,2.7954824,-1.4471691,0.5872056,-0.81840515,-2.869446,0.06933176,2.3727837,2.6636896,-1.4453425,-2.7171075,-0.45037887,0.32028255,-1.1901069,0.39657187,-0.9175659,2.7461116,0.014017576,1.0123419,3.099033,-1.9004686,3.310148,-2.117548,2.4748042,1.0601069,-1.3027426,0.64188546,2.6007483
<http://prop.org/JN>,-1.7271749,-0.6180495,2.020429,-1.2116007,0.118136354,0.6523798,-3.046964,0.33946785,-2.6261187,-2.9029627,1.3170667,0.61793226,3.1978385,-0.040337592,-0.20605765,-1.8240992,-0.9211233,-1.4721423,1.1734507,-1.9782172,3.1522007,0.7249228,2.853988,2.5264897,0.30141044,3.3423855,-1.2007889,4.080831,-0.11281246,-0.45967755,0.5758165,1.7380222
<http://prop.org/vG>,-0.13690323,-3.3902283,2.248953,-2.0445523,-0.59752643,0.8369438,-3.76666,-0.6807199,0.42345077,-3.5564578,3.7707176,-0.22886336,2.3142662,1.4035175,-0.88945013,-0.43340102,-1.1214501,-1.0598307,0.3205395,-2.0036438,2.3713665,1.7232561,1.5244523,2.696667,-0.84677875,2.6152022,1.5899578,1.3904697,-1.178879,0.89555943,1.6254078,0.7137645
<http://prop.org/zy>,-1.656984,-1.5529077,0.5247974,-2.0805051,0.6748419,0.999931,-4.9923005,0.2867696,-1.3121073,-1.9226216,1.6929811,-0.87351286,-0.9661737,-3.2106793,-0.2001808,-0.7566254,-0.52204216,-0.3952139,0.58126086,-0.3871869,1.7990265,-0.8823644,2.798597,6.028909,-0.71575105,0.6553829,-0.7106331,0.055070378,-2.2463856,0.41726565,0.81,0.25016233
<http://prop.org/LR>,0.85152996,-2.6932585,1.2348759,1.0583047,0.1583689,1.7449486,-2.9638083,1.1456528,-2.5172954,-3.147441,3.159704,-0.66947454,3.4421892,0.462436,0.2155885,-0.58613265,-0.09129056,-0.076508634,0.54041046,-1.5233115,-0.457482,-0.555283,3.4337661,2.4046924,-0.5785953,0.013911564,-0.43833432,1.2914075,-2.786541,-0.4673642,1.0147583,4.5957766
<http://prop.org/kZ>,-0.2429914,-1.5721922,3.5167453,0.0066883634,-0.37948683,1.5985494,-3.0035107,1.4440128,-1.2158421,-1.9318637,2.1084335,-0.02627818,1.2077773,-2.1039226,-1.275397,-0.09353313,0.82236975,-1.9764045,-2.4135706,-2.6500788,2.1576185,-1.0183766,-0.22678779,2.5464861,-2.5828881,2.1400068,0.23397171,1.5635941,-4.3768253,0.39117846,0.67649055,2.4737744
<http://prop.org/WZ>,-1.2236266,-1.9900697,1.3028537,-0.5626949,-1.7305416,-0.80553424,-2.1209345,2.58338,-1.250718,-4.1194353,-1.2837269,-0.15935381,0.70237947,-0.76398635,-0.92978436,-0.23156846,-2.2268493,-1.0083025,-1.7496969,-1.2509295,1.0091981,0.8869412,3.553784,4.890852,-1.6980659,1.697735,-1.8797429,2.255768,-1.8880558,0.87933844,0.926054,0.47939
<http://prop.org/yZ>,-2.077385,-3.6000974,0.45226285,-0.71554327,0.6889027,1.19697,-3.9531014,2.2086174,-4.2701793,-4.054934,0.07197054,2.852143,2.414517,0.6230173,-2.3535976,1.2134589,1.1478727,-0.3812982,1.1957291,-1.0062188,1.2921101,-0.542389,2.4167025,0.96348417,-1.7568464,0.8219854,0.7744717,1.2119362,-3.2350085,2.1718135,2.9046352,-0.08003377
<http://prop.org/eS>,2.0795748,-2.5472698,0.27730113,-0.19688591,-0.73858887,1.0908943,-4.554409,2.2185829,-3.7392087,-3.6614425,-0.88936996,-0.35029468,1.3939815,-0.27007815,-0.51721996,-1.6614752,1.1696799,-0.71040106,-0.6037961,-0.55404276,0.9685464,-1.1886139,3.6783345,2.2524114,-0.47493348,-0.27561432,0.08738305,1.3014681,-0.8050623,2.6602302,1.9224695,0.83241653
<http://prop.org/al>,-0.46602517,-2.3915448,2.8144734,-2.087862,0.03894743,1.0711417,-1.7128505,1.6659952,-1.0479456,-4.983908,2.9571095,0.69727725,-2.3415227,0.8630805,-0.40761566,-0.45179576,0.88562185,0.011196732,0.38403657,-4.0480313,2.2164176,-0.025906395,2.2872024,2.4925191,-2.3415165,2.9360104,-0.8817735,1.8452463,-1.110116,1.7196871,0.9162004,-0.1884579
<http://prop.org/aT>,0.3406037,-1.5422845,1.897997,-1.3118523,0.9855471,3.2386966,-0.96264166,0.61712426,-1.3241595,-3.165134,1.6071985,-0.5925441,0.99366176,0.21164787,0.0030754132,-0.28381047,-0.12131869,-1.1316764,-0.14608954,-1.856655,-0.2871823,-0.19278122,3.8412025,3.0947845,-5.5493917,2.483399,-0.38080814,2.5701914,-0.7078681,0.40287274,1.5874343,1.9912738
<http://prop.org/AT>,-1.3120984,-0.14349446,1.7751153,-1.535053,-0.7617882,2.422693,-3.284952,1.9810144,-3.7404294,-1.5007584,-1.0237236,-1.0633838,1.2515733,-0.84660965,-1.1691915,-1.2278783,-0.9149959,-0.52690583,0.85006434,-0.22819956,1.0926502,0.36307937,2.9215107,4.35032,-0.5438052,0.6160645,0.5357996,2.8620539,-0.19784158,-1.0216355,2.885728,1.1980581
<http://prop.org/Zm>,-2.0086677,-2.7536292,0.21629952,1.9853016,0.27058718,-0.33076712,-3.6375592,2.0635822,-2.1377325,-4.414269,3.4011934,-0.28161436,0.84095305,-1.0628201,-2.6245532,-0.15248789,1.3458452,-2.1392753,1.4869109,-2.9213393,1.1535249,1.5257027,1.875952,1.3828247,-1.304567,1.2065375,2.4353826,1.2794417,-2.5720875,-0.16993408,1.6366193,2.2189527
<http://prop.org/uH>,-2.022109,-4.376005,1.116425,-0.94214976,0.07132994,0.1852533,-3.095345,0.8034058,-1.6279954,-3.496004,1.304083,-0.61752605,-0.13935395,0.9932222,1.2825856,-0.9235253,-1.6882191,-3.6444366,0.46433556,-2.4329748,1.6013947,1.3055128,2.3407469,1.9463063,-2.5076473,2.0593889,2.3962693,0.10943018,-1.1193169,0.81254095,1.860652,1.9118226
<http://prop.org/uT>,-0.95704275,-4.153849,1.7810283,-0.5195632,-0.68580014,-0.29398268,-1.8580294,1.3385922,-4.372079,-4.519906,1.0511966,-0.32315648,-1.4237065,-0.92683095,-2.992928,-0.40550053,0.15076186,-2.2033234,-0.5805142,0.54285115,2.782681,-0.5851872,4.7277656,0.5630048,0.09099501,0.42148304,-0.85174423,2.8375688,0.70638025,1.7891412,-0.09684528,-0.056122884
<http://prop.org/cQ>,-0.6383967,-1.7253957,-1.3765177,0.6340182,-0.8355178,1.3269898,-2.5251577,1.067454,-0.43706495,-3.029264,1.7660621,0.43167645,0.33005112,-2.1212592,-1.3805302,-1.6542516,-0.6962979,-4.4140787,2.950219,1.0601896,2.866666,-0.5560155,2.032823,3.3254561,-1.0616109,2.0254529,-1.3183374,2.4257126,-0.8737958,3.4154487,1.2830507,1.4566907
<http://prop.org/mv>,-1.9693089,-0.90783685,3.059656,-1.7330388,0.34234077,0.65451556,-0.3988809,-1.7172344,-3.4400334,-5.779873,2.216159,-0.1685858,0.13779229,-0.1446357,-2.013489,-0.749586,0.28984928,-1.2769858,-0.27842817,0.009413507,3.1692915,0.37322834,3.5675602,3.8762124,-0.46861044,-0.6813259,0.15850392,1.3300995,-0.42434755,-0.14216097,-0.7036349,2.0375755
<http://prop.org/pE>,0.9024992,-0.36065397,2.0580273,0.26756924,2.4354134,1.3273734,-2.8888211,2.1369796,-2.7941158,-3.9169774,0.70048845,0.13812391,0.62081635,-1.8247175,-2.318155,1.2946764,-1.3912991,-2.1727095,-1.3676679,-1.4812982,1.9724469,0.9096641,3.762082,0.45901397,-2.9823377,2.0445993,1.4723217,1.90671,-1.3075877,2.1606147,0.37074184,1.6860952
<http://prop.org/oj>,0.7938421,0.8064841,0.24475336,0.038273767,0.17779845,0.18455532,-2.4421046,-0.27854064,-3.3397522,-4.6258836,3.119285,0.13236226,0.6451231,-0.31874087,-1.5496334,-2.8772035,-0.44999242,-0.5771074,-2.028108,-2.3134544,1.8182636,0.97373784,2.3566806,3.1797183,-2.6437664,1.4329906,-2.8500679,2.057167,-0.19376461,0.70623946,2.0991309,0.34278798
<http://prop.org/rd>,-1.4885969,-1.7270347,2.6436172,-1.4888171,0.33816302,0.16022933,-2.0569875,0.6388966,-3.201482,-4.2620325,-0.6983823,0.77666086,0.5546532,0.1832431,-3.669558,0.41852072,-0.77022654,-1.9484972,0.78740805,0.81709284,0.37081012,1.8772566,3.5831025,3.9098868,-1.3001003,4.8789277,-0.5398919,1.0888594,0.5518219,2.0470254,2.1517584,1.0796845
<http://prop.org/sP>,0.10339495,-1.7850789,0.5060705,-1.3712364,0.6358549,0.07625419,-3.2049234,1.3027611,-1.684767,-3.07848,0.6039779,-3.3133268,-0.01071651,-0.70663035,-0.64285946,-1.0018891,-0.55522203,-1.6085691,-0.40961337,-2.4021125,0.22752972,2.0043852,3.4813886,2.436307,-1.1822966,1.6376512,0.3105892,-0.30462974,-2.048518,0.17410961,0.36449742,4.194053
<http://prop.org/DX>,-0.95289063,-4.4471674,1.9899015,-0.75833976,-1.4365427,-1.7022866,-2.7489743,-0.48536745,-2.2963448,-4.4303656,1.2526679,-0.24261779,0.54027426,-1.9501671,-0.4549442,1.4572256,-0.14742447,0.04924593,0.22832607,-1.7220155,2.4312823,0.3528836,1.638965,3.758388,-1.3470727,1.9681708,-3.23626,-0.52424246,-1.3469285,-0.39249623,1.0699297,1.3694235
<http://prop.org/Nb>,-1.1187061,-0.81758964,3.599715,-1.2731192,2.1568196,1.3101406,-4.0411844,2.2960763,-3.7791114,-3.1831326,3.6575093,-1.7124923,0.30827162,-1.142443,-2.602474,-0.69601595,-2.0754738,-0.34534273,1.0530306,-0.29215425,1.0080074,-1.3126761,1.7448021,1.9604506,1.0397365,3.3210883,1.0209937,0.400418,0.9565283,0.40128306,2.6996894,1.8098772
<http://prop.org/ix>,-2.005969,-2.9140255,-0.27197945,0.43266794,1.3361511,0.5571644,0.21346569,2.2904902,-2.6721745,-2.5141613,1.7461344,0.49857926,-0.52642876,-0.5723281,-1.4916242,-2.1600146,1.442573,-3.1937184,0.10996638,-1.0474404,2.6464841,0.24021122,3.5657842,5.0166116,-1.0827963,2.4698,-0.041439865,-0.9453471,-2.6967058,2.1222956,2.0044274,1.9212236
<http://prop.org/WE>,1.0393417,-1.7727251,-0.11989773,0.25422046,2.3297944,-1.2527533,-1.5532109,-0.026321476,-3.8719592,-2.5836015,-1.0639578,-1.8102376,-0.37380642,-1.0403954,-0.3181475,-0.8589981,0.84633785,-3.5657916,0.31461123,-2.4707847,2.6455803,-0.024665212,3.4167693,3.6212044,-1.6024481,1.2694604,-2.0054736,3.2157304,0.21571903,-0.1492213,-0.20950747,2.0050278
<http://prop.org/eV>,-0.012644735,-3.427309,2.7482493,-0.37021148,0.61640495,1.2384036,-3.712272,-0.7224116,-3.9334188,-3.3354921,2.856252,-0.0075115524,3.004272,-0.64895415,-0.36567518,-0.2538639,-2.1130278,-1.5437022,1.0235182,0.61993015,1.7028521,-1.8622534,1.9101931,2.863936,-2.499387,1.2998987,-0.8680679,1.0985638,-1.8617132,-0.61774284,1.1774199,1.837922
<http://prop.org/Rt>,-1.7681723,-0.62745374,-1.0947738,0.7034303,-0.59113926,2.5332355,-4.175144,-0.021226108,-3.6867402,-2.0456753,3.4328542,-2.212943,1.0583922,-1.4452493,-2.4008088,-0.8335467,0.8654149,-2.360486,0.92819005,-0.15053391,-1.0654583,0.23689999,0.42042044,3.7177277,-2.1086788,0.268906,-2.3058448,1.6483507,-0.6926672,-1.53549,1.9392475,2.3621457
<http://prop.org/Nv>,0.143427,-0.7310256,0.9895889,-0.63872385,-0.8505601,1.2042923,-1.7756577,1.0910051,-3.2274652,-3.9127085,1.5722426,0.8994039,0.8480474,-2.4388568,-3.3338294,-1.927504,1.2799731,-1.28735,0.730532,-1.5284392,0.25583053,-0.058537897,1.1692822,3.9663846,-2.731059,1.5203421,-1.6228919,2.234769,1.894726,2.9435446,0.79597265,-0.7431505
<http://prop.org/JA>,-0.53000426,-0.92688835,1.364114,-1.023538,-2.1069558,-0.82811046,-3.8775566,1.686587,-2.2327974,-2.1730914,2.9382746,-1.5501812,-0.18168001,-1.4695139,-2.0509522,-0.61847997,0.23017907,-1.1054565,0.49012023,-2.32782,4.9407516,-0.7676066,2.0683165,2.352445,-1.6410922,0.34743667,-1.7253183,-0.8165769,0.19684611,0.7326289,2.4347394,1.5309998
<http://prop.org/qJ>,-0.07034986,-2.4171007,1.6307186,-1.4232574,1.539777,1.5538938,-1.7580426,1.2092826,-1.5788023,-3.4639463,2.210684,-1.0465636,0.87465215,0.53921115,-3.2300293,-2.7976956,-1.8623041,-1.0510482,-1.8162129,-3.509986,0.5308948,0.40902698,2.353877,3.104798,-0.991814,0.5124318,-1.863128,1.0953968,2.0236294,2.794083,0.7100281,1.3662815
<http://prop.org/Rk>,-0.38327354,-3.067628,2.9590397,-2.1942525,-1.2512404,2.1206014,-2.70077,0.51844543,-3.3826468,-1.4251864,-0.56640846,0.4571124,2.3627565,-0.23509458,-1.3398998,-1.6139003,-0.62595516,-0.7830089,-0.9024289,-3.678601,0.112164855,0.6377721,2.7583613,4.299068,-1.3655945,-0.3005022,-1.4633323,1.9107752,0.29303685,-0.478704,1.0305972,1.7682432
<http://prop.org/Zs>,-0.2177396,-2.1648784,1.4108008,-3.1000862,-0.9894169,0.553796,-3.7235973,1.2887638,-2.5765862,-2.2729564,1.0099498,-0.6550864,1.1659601,-2.574936,0.22869007,0.8629263,-0.06312559,-0.005642019,-0.15146501,-0.31618798,2.4254756,-2.7073512,1.541994,2.8607855,-1.2361317,3.2746112,1.555317,2.610387,-0.76966554,1.1913584,1.1444353,3.1139472
<http://prop.org/to>,-1.0527052,-2.1221511,1.8618112,-0.32412446,-3.097191,0.27790463,-5.3932223,-0.18326545,-1.903634,-3.1831915,0.4048339,0.29828003,0.45643082,-1.1403434,0.27486116,-0.92002666,-1.196874,0.8288042,-0.9857958,0.48335528,1.1663374,-0.064673975,3.0247488,3.3535235,-2.6125448,2.0268939,0.025336603,2.1803613,-1.5224189,0.048794735,0.30775017,1.6315621
<http://prop.org/GD>,-2.4427342,0.3407456,2.4844613,0.9296126,-0.057937387,0.8834583,-3.5256863,1.0841569,-4.400771,-2.6922505,2.2115364,0.57256365,-0.8807093,-0.752274,-1.0775676,0.96934795,-1.1634854,-3.3146968,0.9547071,-2.4810202,1.8215735,0.970398,3.1419544,2.7424088,-1.0596429,-0.8961677,-1.4437017,1.4196943,-0.45702633,-1.5601892,-0.38800815,0.34486553
<http://prop.org/vh>,-1.0925179,-3.4015713,2.431099,-0.77253276,-0.19051689,-0.2408263,-1.9392655,0.18364939,-3.3680646,-3.1071675,-0.05711536,-0.096934766,0.969816,-1.9329015,-1.5550255,-1.2097374,2.04352,-0.3609444,2.035865,-1.0466453,1.5541254,-1.6128769,2.5791292,3.5255022,-0.68864125,1.4513894,0.690201,-0.88229513,-3.6935756,1.708154,-0.38452572,1.7627038
<http://prop.org/OZ>,-2.4659545,-2.2474496,1.452243,-0.9552628,0.6324776,-0.2235408,-1.9057198,0.28958094,-5.0234666,-3.272802,0.09480568,-1.9290564,1.1143132,-1.118286,-0.8219252,-0.7872534,-0.5876366,-0.5238385,2.0138445,-2.77749,-0.9962786,-1.7401541,2.2136517,4.5394793,-0.98895997,2.5672612,1.0591707,0.6012386,-2.4531395,1.5546669,1.2280624,1.4159037
<http://prop.org/Je>,-1.4907472,-2.6325448,2.225164,-2.7689047,-1.014822,-0.937298,-1.8317424,-0.31769845,-0.8554414,-2.8049288,-0.015820213,-1.7099907,-1.4019572,-1.2505286,-1.5542423,1.5621693,0.82439995,-1.7568712,-0.9532699,-0.6262996,0.95175743,-0.12098213,3.0053468,4.699652,-0.60219544,2.5974817,-0.05922881,0.84881526,-2.621674,-0.7952504,1.7483889,3.2247374
<http://prop.org/qw>,-2.8404288,-0.5739719,3.294192,0.66237813,-0.18369724,1.2998985,-1.7842772,3.5065193,-2.6159985,-2.1625538,1.205375,-2.379908,2.1709106,-0.5810373,-0.77468956,-0.2793567,-0.12771192,-1.306918,-0.32535386,-2.344257,1.4541882,-0.011772786,1.4866515,1.671845,0.055406857,2.2088969,0.0017731226,2.2778766,0.5326039,3.3723984,2.3759007,2.878301
<http://prop.org/Yb>,-0.585346,-3.0189326,1.9103025,-0.51980937,0.053160932,-0.5259409,-2.5928013,-0.5834701,1.1822147,-3.2893627,0.2024388,0.7657748,2.0433593,-1.5802591,-2.0313623,-1.9317346,2.6187956,-3.002921,1.3223118,0.3023775,1.5244632,-0.72786945,3.2834287,1.0469335,-2.637943,-0.25361753,-0.66568625,3.4006739,-1.2679168,1.9607613,3.1901047,2.728973
<http://prop.org/ad>,-0.8081859,-1.8912426,2.8651059,-3.5626278,-0.72415555,1.9541801,-2.670674,0.80405015,-2.6401544,-2.7934988,1.6449188,-0.11470253,2.3189583,0.957887,-1.798132,0.23251155,-1.4837463,-1.8307039,2.2165258,0.13192967,0.8992793,-0.79667604,1.9954314,1.8499182,-3.44944,1.7952074,-0.7866528,2.3151114,-0.7122448,-1.2150561,0.54449874,1.5796845
<http://prop.org/FK>,-0.83843297,-3.0163832,0.36471072,2.0379155,1.4030362,-0.31997716,-3.6497633,-0.5858995,-2.1872256,-2.7752392,1.7243469,-0.21878363,0.84389377,-1.4276294,-2.5458534,-0.27447322,-0.4471242,-0.34081867,-2.217328,-3.6768408,0.038585525,-1.6765437,-0.05240228,5.3855853,-1.9662099,0.76021284,0.3020247,1.1078792,-1.0185338,-0.41394106,2.1530564,0.5211082
<http://prop.org/jq>,-0.7381725,-4.163116,2.8311582,-1.6374117,-0.74651253,0.28096572,-4.39502,0.46949807,-1.5975178,-4.339391,0.5354378,1.7333087,2.0640152,-0.8716643,-0.5824472,1.4781659,-0.8397509,-1.9830433,-1.1997879,0.15749702,1.9980097,-1.2009903,0.7933176,5.535679,0.13943323,0.6679466,-1.5790542,0.968234,-0.8537198,-0.34540316,0.85491717,2.6355393
<http://prop.org/Kp>,2.4555302,-1.8719034,0.9877583,0.4122771,0.7882194,0.65290606,-2.0505269,2.178562,-1.881972,-1.3833523,1.8221862,0.19420354,3.763738,-1.2658863,-2.4900124,0.84316814,3.354216,-0.50009215,1.0323629,-2.510323,0.44279787,-2.19916,3.961559,3.0863996,-2.6220167,1.8342032,-0.1178061,1.6589366,-2.0901544,-0.9081184,1.5965656,1.5753181
<http://prop.org/UQ>,0.38696402,-3.2106647,2.4065468,-1.2008994,-1.090997,2.2914557,-3.2250183,0.11364017,-1.3540417,-2.8094132,3.2254286,-1.5091782,1.7733523,2.2401726,-0.29548284,0.49720463,0.60563546,-0.76465374,1.5879593,-1.6348106,3.1231163,1.6914468,2.0478508,2.2603083,-0.45726404,2.469837,0.75218135,2.1400106,-1.0311121,2.3109465,1.0531747,0.2694256
<http://prop.org/yf>,-2.0521321,-3.1534183,1.9127461,-0.15947355,-0.82821214,2.4481106,-2.9272113,-0.15022145,-2.2115986,-4.3624783,3.0422182,0.5021377,1.2915012,-0.95877945,-3.0776222,-2.100609,-1.8619206,-0.10407588,-1.223143,-0.4751227,1.1501751,-0.60896796,2.330057,2.9260898,0.0077404305,1.9341828,-2.959875,-0.022121795,-1.6302072,0.4700035,0.92984456,-0.41814345
<http://prop.org/Az>,0.4717719,0.90369457,-0.8338377,-0.25208285,1.3545469,0.94162077,-4.157767,-1.1360333,-3.3138907,-4.021766,2.1207073,1.4390029,0.9144681,-1.2484158,-0.9330475,1.7797376,-0.3357206,-0.33865616,0.691525,-0.26989922,2.832978,1.4375395,2.6591964,3.1114743,-1.2710162,1.5183969,-1.4211565,2.78172,0.5882467,3.0670354,1.0365074,3.1543682
<http://prop.org/GW>,-0.5263688,-0.11128682,0.38476208,-2.5125747,-1.3519976,0.092350125,-4.614377,2.247224,-1.7560859,-2.853328,3.3723245,-0.23593846,2.1296086,-1.2989681,-2.0471659,0.57033426,0.8245119,-2.7272565,0.89867955,-0.55952245,1.0742254,-0.3994182,1.7289611,3.9496477,0.5960383,0.007657361,1.0009273,-0.13125354,0.3329763,1.0490937,1.6422442,2.2328944
<http://prop.org/rx>,-2.6342309,-1.7807316,2.3683586,-1.6380637,0.31348318,0.82423806,-1.6725196,0.5199741,-0.563559,-4.4815593,1.1558793,1.0016252,-1.0965414,1.2426974,-2.3341424,-0.4759239,1.2171503,0.06819142,1.7089871,-1.8544072,2.2770014,-0.36845338,4.296309,3.6423845,0.34823802,-1.8247288,-1.5538089,0.57688767,-1.3475039,-0.30524975,-0.2939907,2.948002
<http://prop.org/qb>,0.2217651,0.42474738,1.5619255,-0.44928715,0.7223773,0.04014542,-4.2030444,0.103510134,-3.5123153,-4.8991847,2.607712,-0.997471,-1.1300958,-1.7853804,0.8536027,1.2294319,0.68515325,-1.3284839,-0.40160397,-2.6451058,1.7860832,-0.8359294,3.015057,1.7832482,0.6831561,3.592147,0.32598293,0.17176285,-0.522472,1.3128796,2.2802193,1.5366817
<http://prop.org/Ri>,-0.42446798,-1.17091,0.71991855,-2.6984527,0.18978244,0.3638231,-2.8732088,1.9948317,-1.2771943,-4.2962065,2.039826,-1.8297882,0.96932226,-0.39872962,-1.210629,0.32473886,1.4632905,0.16094129,-1.3173218,-1.1582841,0.40578696,-1.3126793,2.2664857,2.7188947,-3.7875197,0.76517695,-1.0259147,2.7942584,-1.6752031,-1.3743426,0.39796755,3.1098046
<http://prop.org/ue>,-1.047215,-3.2284856,0.44244018,-0.7331941,-0.9234833,2.0712075,-1.2880837,1.9019157,-3.2872796,-4.050499,-0.2077122,0.005073863,1.4777311,-1.0216181,1.4784234,-1.1587477,0.30541444,-3.341387,1.2584331,-1.5662174,2.8843625,0.94240284,2.9306931,4.6917562,-1.0917004,-0.4741543,0.33988595,0.07803761,0.40928957,1.8401685,1.4932072,1.8084515
<http://prop.org/xL>,-1.3700259,-2.186409,2.940683,-0.67906207,0.090344995,0.3285949,-1.6554818,3.0715997,-4.265909,-2.0797126,1.6479474,-0.30273387,3.1924405,-0.07154282,-0.47175407,-0.8273896,-0.4004581,-3.7434878,1.4583005,-1.5037583,2.7701485,-1.5058147,0.40150067,3.378084,1.0679281,-0.7499855,-0.75170124,0.98419476,-2.500859,0.33915883,3.4277403,2.3761325
<http://prop.org/gI>,-1.4229087,-1.2467587,0.46178097,0.12058246,-0.2814804,1.8471905,-3.9049618,1.5974714,-0.72141993,-3.4894845,1.8988719,-2.5577257,1.7894864,-1.150111,-2.3482509,2.4560502,1.3240825,-2.6382382,-0.67632145,-0.61292225,2.3385026,0.04055998,1.896949,3.3363714,-1.549086,1.8013577,-0.33719984,1.4506179,0.26660272,2.909919,0.3879105,2.7787383
<http://prop.org/Hy>,-0.8595492,-0.45494768,1.9093629,-3.7566335,-0.25821197,1.6991055,-1.5551902,1.4543734,-3.3452418,-2.7060792,0.63819695,1.2990352,1.3216476,-1.1941985,-0.447241,-1.400361,0.31840655,-3.565685,3.393447,-1.57967,0.35246193,-0.49972332,1.7640634,2.5138724,-1.5928223,0.67860776,0.04865148,0.5840715,-2.4917092,-0.23895808,2.5464435,2.2445297
<http://prop.org/vT>,0.71573925,-1.6183157,1.1374403,-1.0736144,1.1933669,1.3701265,-2.9632795,0.8234801,-4.244541,-2.5822446,3.3815465,-1.3568827,0.9741513,-2.681583,-0.3126742,-1.1082214,0.22825636,-1.6090082,1.3875825,1.1553324,2.1921504,0.65440106,-0.25968188,3.9678564,-0.9196732,0.8277691,0.6182539,0.89173836,-2.406671,-1.4873124,0.6253179,2.683916
<http://prop.org/If>,-0.9158008,-1.6033778,2.7186258,-0.78970987,0.6390702,-0.48643002,-0.9739141,-0.67619514,-2.9060807,-5.5725093,0.43786108,2.306795,0.71861017,-1.568932,-2.349688,-1.1328175,0.5000806,-1.8324567,1.9153334,-0.6902046,0.7176734,-0.35816213,2.3809755,2.0980952,-3.096175,1.0275366,1.1681781,0.37445349,-1.1927183,0.0020152223,3.5461872,0.5952262
<http://prop.org/Kz>,0.7593566,-1.889672,2.8251212,-0.7287591,0.8704116,0.4180964,-5.964219,-0.4587608,-1.2878709,-3.3024197,1.8523067,-0.18513525,-1.2990816,-1.6847246,-1.627889,0.97342044,0.31887722,0.2758675,-0.6823302,-0.84853125,2.1714406,-1.3047066,2.6222227,2.896479,0.6522047,-0.3899421,0.4506287,-1.0385259,-1.0941714,2.6218474,1.7433922,3.2504413
<http://prop.org/Wv>,-2.340742,-1.4007939,0.3086975,-2.503004,0.36390126,3.6534696,-3.0927396,2.0931842,-2.1243992,-2.7602935,1.1892934,-0.96219337,1.2841245,0.77892196,-3.188213,-2.4741962,0.07460919,-0.77341425,0.18188259,-0.5741924,1.5529847,-0.22375119,1.4697156,3.1254644,-0.6195353,2.5352242,1.2842499,1.740849,0.75085175,0.2373125,3.1160312,3.8372462
<http://prop.org/Sd>,-0.15164372,-0.8864487,1.1622524,-1.6670066,0.4920158,1.2244741,-2.0871522,1.5453347,-1.175783,-3.8084838,2.1028152,-2.0694287,-1.2138538,-0.51671433,-1.3837448,-2.33245,1.3009901,0.7443502,0.0071487715,-1.839365,1.1693369,-0.27954522,0.4292272,4.8835087,-2.671229,0.4578727,-2.9633977,2.676664,-0.39673075,1.5690129,2.5449743,1.5999389
<http://prop.org/An>,0.06989942,-2.265504,1.4329123,-0.7408606,-1.2328848,0.61315453,-0.49440694,-0.035396766,-3.644845,-3.2622702,1.8186466,-0.71050924,-0.5635517,-2.4749272,-0.037012253,-0.7703122,-0.20759039,-1.4471915,1.1468637,-0.98840934,3.8482773,1.8751934,2.6928885,4.593231,-0.5798456,0.95574975,-0.3077349,2.5060296,-2.4738863,0.32153362,1.2797571,2.0272286
<http://prop.org/Ma>,2.8507297,-2.3682222,1.2895389,1.2328814,0.09681359,2.6675503,-2.283278,1.1830225,-1.9045374,-3.0526881,1.049384,-3.0493662,0.17854404,-0.54694355,-2.731915,-0.1670906,0.5788486,-2.5478575,1.9938145,-1.909619,2.0625134,1.0748854,3.1773276,4.2085133,1.0825269,2.437262,0.38414255,1.4402138,-0.7747812,-0.18898176,0.99428403,0.5352321
<http://prop.org/Ch>,0.73743063,0.17407466,0.7741222,0.7395947,1.0085458,0.9617199,-4.645039,0.0674771,-0.8178086,-3.0670266,3.574311,-3.2413316,0.9151405,1.1630329,-2.285596,-0.62983656,0.42311233,-1.874516,0.21453069,-0.35683864,1.5752492,1.3854048,3.371499,3.3463347,-1.5325757,3.004382,-2.5809095,0.15908112,-2.883119,1.2589035,1.897179,1.1240746
<http://prop.org/ip>,-1.9065621,-1.1676432,1.5156732,0.4044036,-0.41495156,2.5148695,-2.7649605,1.7718018,-1.6482447,-2.9840014,0.77574575,-0.77477103,1.8913186,0.7135494,-2.5420878,-1.2304146,2.889378,-0.3399599,1.3860956,-1.3370923,1.8113261,0.49075204,4.446206,2.5801227,-0.3228779,2.4733288,-1.4471745,2.8363688,1.6643735,0.21620983,0.4541781,1.119053
<http://prop.org/ki>,-1.2055078,-3.7031507,2.7011378,0.34792548,0.7384699,-1.0307795,-1.1629066,2.282647,-0.58535975,-3.8277907,3.0492504,2.1400528,1.1306409,-2.3046718,-1.9849302,-1.9134374,0.32589352,-0.21117777,0.4164242,-2.652882,2.5635,-1.6179123,2.1518707,3.5028684,-0.9200346,1.1201131,-1.2261275,3.3515618,-2.2581854,1.1961641,0.033495516,0.3783995
<http://prop.org/Nj>,-0.2515699,-2.5545099,1.3373847,0.08164564,2.3789942,1.3658744,-4.21057,2.1735206,-2.6088405,-3.1533196,0.79462713,0.09464896,2.3800192,-1.0435942,-2.2837691,-0.75054663,-1.521072,-2.2189045,-0.7544474,-0.65428025,3.992633,0.6129587,2.1195998,1.8716139,-1.1913911,1.7317905,-2.9383929,-0.50293076,0.7050552,2.145055,0.45814034,2.813884
<http://prop.org/Hv>,-0.80530596,-0.91097224,-0.5012871,-0.030414477,0.4204511,0.7686765,-1.0932318,1.212589,-3.381927,-2.5497985,1.6922996,2.3090641,-0.70018876,-0.80149335,-2.9674509,-0.22122246,-0.9572408,-2.495396,-2.2440941,0.42259717,2.0612135,1.5582092,5.4275293,4.9079347,-1.9987621,0.8893881,-0.11377336,2.4831536,-0.28194037,0.16533789,2.2460375,1.336842
<http://prop.org/Qw>,0.81363994,-3.4252126,-0.122736394,-1.2179456,1.0910871,1.6581635,-1.7366188,1.1950916,-1.7719803,-3.4167922,1.2613766,1.7115277,0.57892317,0.8136713,-3.388894,0.49632558,-0.6691252,0.18326834,0.35759994,-2.3274214,1.6313884,0.117443465,2.4056697,4.548146,-0.51929206,1.8615466,0.1229533,2.345147,1.8297573,-1.1269535,1.4785173,1.207285
<http://prop.org/va>,-1.8031094,-1.8736464,1.0586948,1.396311,0.19629392,-0.6202664,-0.73051655,-0.67187506,-3.559987,-2.3390145,1.333919,-0.16819367,2.0737336,0.9444545,-0.38385803,0.17043705,1.6173246,-1.4422196,-0.61205465,-2.2705812,2.7641191,0.38217136,4.1077576,3.2944043,-1.3329864,2.8057752,-1.0679909,1.261259,-0.5015703,0.06120266,2.3678734,3.8500106
<http://prop.org/cP>,-1.143841,-0.918905,-0.6914282,-1.231102,1.956812,1.3203679,-1.9923962,2.2536376,-1.2919816,-3.7764208,0.4181435,-1.2218364,1.1656246,1.159299,-1.7283044,-0.7088356,1.0971246,-0.0042848703,-3.1364555,-1.9171655,3.0926445,-1.5952697,2.9895878,3.445994,-0.9573135,0.68446,-1.9973019,2.6903195,-0.8443263,0.38228554,1.2116154,1.7922121
<http://prop.org/ME>,0.8215161,-1.1314,1.3342702,-0.15951201,-0.24331355,-0.8019808,-2.934529,1.3133672,-4.465294,-2.024245,0.13321812,1.6843315,1.4304143,0.95149535,-2.4968748,-2.7953913,-0.47490978,-2.0353558,-1.4308398,-4.4334393,1.6208153,-0.9084097,2.7090635,2.8916614,-1.5669812,2.5089765,-0.31096566,2.9235754,-1.5018091,1.028128,0.32677382,1.3935336
<http://prop.org/eX>,1.890722,-0.41812208,0.09241105,-0.96003705,-0.78252006,-0.53303885,-3.5230377,0.85633373,-0.9694581,-5.2586055,-0.5565906,1.2268367,1.0843778,-0.97103375,-2.2705219,-0.38346797,1.9164597,-0.6817601,-0.10250079,-2.363735,2.074221,0.7030945,1.753452,1.6178768,-2.9881623,2.711203,-0.7307935,1.5627719,-1.1349137,0.65357447,-0.038512208,4.3354616
<http://prop.org/aW>,2.742298,-2.245863,1.5074208,-1.8429683,-2.3089204,0.4206843,-4.2770844,1.4698049,-0.94911295,-4.3481402,0.24018914,0.15292154,1.147146,-0.5325914,-2.6132896,-2.0302818,0.38567293,-3.3322284,1.4485207,0.43445536,1.3550489,1.0559884,1.8073646,2.913243,-1.7866572,1.6300181,-0.06705343,2.0817711,-2.0093968,-1.664107,0.6520976,2.3283474
<http://prop.org/zF>,1.9484342,-3.0264275,0.10495027,-2.2713234,1.6257355,-0.308256,-2.6821773,0.59862506,-3.9332318,-2.003383,-0.10849554,-0.6469703,1.7996238,-1.3548476,-2.069516,-0.019612914,-0.29439873,-2.0882535,-1.2117394,-1.3758471,1.2756836,-1.6529691,2.5024219,4.3958683,-1.2495998,1.8094732,0.3569686,2.0736814,-0.7595716,-2.5713985,1.1139711,1.7868499
<http://prop.org/Np>,0.012278189,-1.5241567,-1.0469068,-1.2853044,1.2824025,0.7386198,-1.554942,2.7281666,-3.9336886,-4.3578544,1.9523422,1.7815971,1.5872043,-1.331054,-2.139023,-1.2461085,1.6730032,-3.0561898,1.1887137,-2.365613,1.281282,0.6121202,0.5166689,3.269572,-0.8946479,0.033556513,-0.82642716,1.2830651,-1.393964,-0.60847306,2.5557446,1.9855245
<http://prop.org/Za>,0.50960934,-1.0195113,0.21578614,0.42607895,-0.056955922,-0.023543993,-2.3866374,1.0070913,-2.4818091,-3.178513,1.5942857,-0.18101698,3.3137598,-1.4999706,-2.4855587,0.20591871,-0.08444667,-2.2149577,-1.1827714,-0.88159806,0.5040034,2.118099,1.7941959,4.470919,-2.8642685,0.16770951,0.58335996,1.4065386,-0.9490919,1.13629,1.7538832,4.908152
<http://prop.org/XA>,-1.4304854,-2.3122113,-0.32847932,-1.6998584,0.21195358,1.4438562,-2.450072,-0.91702205,-1.9801247,-3.983645,3.2801979,-0.042237405,-2.444225,1.2968696,-1.5324508,-0.9454392,-2.4481473,-0.8561249,-0.6179478,-1.5471433,0.48346606,1.3334148,2.3518739,4.6808853,-2.3032212,1.7073236,-0.9326196,0.7381688,1.3790814,-0.31174785,0.5793526,1.219172
<http://prop.org/pZ>,0.16768588,-1.075691,0.05614075,1.148314,-0.18835478,0.04813711,-4.741175,0.10338875,-0.08967716,-3.4222815,1.7660254,-0.64436144,2.046996,-0.56461203,-0.9308579,0.9905625,0.6252767,-1.4251499,0.054581802,-2.810643,0.74929214,-1.537239,3.3492408,4.8952336,0.83454955,1.6865788,1.3255007,1.0515171,-1.9595193,1.2240827,-0.4813857,2.875004
<http://prop.org/jv>,1.3078606,-1.9621408,2.1757388,1.779911,0.02798291,1.1700349,-2.094016,0.86041754,-0.21447423,-4.543201,1.9936123,-0.91585714,2.5504684,-0.10642149,-1.064442,-1.0008354,1.3770707,-1.5346353,-1.9523866,-0.7365973,1.2860478,0.6537906,3.2623458,4.871728,-2.0470042,2.8603065,-1.1777737,-1.1522475,-0.9115262,1.0822545,0.9589111,0.17421779
<http://prop.org/ve>,-0.7323339,-2.4900143,0.4119544,-0.016814116,0.4754633,3.0307698,-3.6527078,0.6361723,-3.1243167,-4.4516683,1.2178564,1.58802,1.8291227,-1.157668,-1.5915143,-0.73047614,-1.8116473,0.59921473,0.20900346,-2.4861836,2.1527548,-0.039157733,0.3494141,4.1978993,-0.90902364,0.88636446,-1.9664037,1.0188309,-1.9495969,0.2091319,-0.92553794,0.8900442
<http://prop.org/dS>,-2.217428,-3.3959231,-0.33535814,0.17652184,1.2546699,2.5161557,-0.9368461,1.3001553,-3.0397484,-4.0449557,1.757907,-1.4336585,-0.90052927,-3.4812908,-0.92888933,-1.0197412,-0.5302367,-2.4946487,-0.77204394,-0.65796685,2.4583027,-1.3271053,2.7365406,3.0144088,-1.3170007,3.1037092,0.43939975,-0.77528334,-0.62345034,0.02071904,0.84466606,2.1279597
<http://prop.org/AR>,0.27380776,-1.445464,2.5386066,-0.5968771,-1.2664888,1.753744,-0.78160113,-1.6497401,-0.8573124,-4.6582046,1.2021224,0.65392065,4.5976467,-0.4410399,-2.4173777,-0.5028637,-0.76529175,-1.6059873,-0.6682662,-2.2571886,1.8643521,-1.1656729,3.6977801,1.4435881,-1.5468857,0.7049807,-0.13789456,1.5138586,-1.1043261,-0.08930312,1.2437052,1.539474
<http://prop.org/cj>,0.40153134,-3.3523126,0.673153,-1.7606363,0.4095841,2.6558728,-2.8767514,1.0644722,-2.2539582,-3.5736313,1.951869,-0.10452706,0.46942437,-1.0770826,-0.026690638,-0.023397986,0.9224417,-1.2637779,1.2807891,-2.6322114,4.2501655,0.2806925,4.5980663,2.6848426,-2.0602822,-0.4598553,0.9868836,0.7448349,0.7090265,2.727278,1.4495589,0.58890575
<http://prop.org/Yf>,1.0132078,-2.471217,-0.8301506,0.77678245,-0.09587274,0.79084617,-0.7144213,0.7925985,-3.5908406,-4.700724,2.693663,1.1772306,0.6206447,-1.0492476,-1.8196456,0.05978139,-1.7905587,0.4138141,0.7974403,-0.5657074,3.5012217,0.41452223,2.4014556,4.0492053,-1.292121,1.3793309,-0.12789749,3.0805902,0.031114701,-0.21774432,0.3882192,1.502592
<http://prop.org/Eg>,-1.2687186,-2.0937216,-1.1314665,-0.45169908,-0.59040266,0.7975151,-0.79555017,0.7614024,-2.3624384,-5.43728,2.1554377,0.027380982,1.1853514,-4.01764,-1.8879126,-1.9762251,-1.3537269,-0.943137,0.30609563,-2.5256495,2.1190417,0.16103964,1.5158813,1.3309563,-2.2840161,2.165409,-0.80382425,1.2853875,-2.0995312,0.6943002,0.52099466,1.4311866
<http://prop.org/sz>,-2.377136,-2.9337447,-0.08985531,0.39104864,0.4266769,0.5736254,-2.357574,-0.92323357,-1.4595582,-3.4769983,1.103556,0.5067164,0.37969038,-1.6389446,-1.3755239,-2.7334905,-0.66340137,-3.4266658,-1.0713115,-2.4103625,3.8273277,-0.100972615,2.291236,2.8799906,-0.2563069,0.6979913,-0.81354696,3.1700168,0.8460373,-0.62423956,1.7150431,1.8732101
<http://prop.org/FA>,1.1905085,-3.6796072,-0.7211314,-1.8944392,0.52610284,1.6376238,-0.8118633,1.3947643,-4.631151,-4.419494,1.0889473,1.6579568,0.14182366,-2.2765486,-2.1274126,1.2291924,-0.11437175,-1.2554178,1.9541093,-1.4767814,2.867255,0.33645225,2.5471642,2.5475023,-1.2209953,2.0265348,1.0015594,1.9119538,-1.3534647,-0.05395685,1.2996733,2.0001009
<http://prop.org/Hs>,0.47007543,-2.4633408,-1.1084989,0.023963667,-0.16580284,2.6430223,-3.5351794,-2.0082393,-3.809152,-3.285408,0.235358,-1.1833402,-0.9532018,0.21463282,-3.266091,-1.9271426,0.19665498,-2.2601395,0.067767665,-1.559139,3.054879,0.92845374,1.8727767,2.6773453,0.7489229,1.8619148,-1.4240618,1.0657376,-1.2014592,0.97279966,-1.0278299,2.5528913
<http://prop.org/xg>,1.6263049,-1.5214176,1.1288278,-1.047814,2.47311,1.459718,-1.8614063,2.5573835,-5.8934464,-3.3510714,2.5589519,-0.22539116,0.21265374,-1.632513,-0.24537563,-0.7620091,1.0320573,-1.6964499,-0.36530387,-0.75725394,0.81187856,-0.45271972,1.0424422,1.4262979,-0.93695575,2.7346287,-1.598701,2.0607777,0.103891276,2.193169,0.6153547,2.1635842
<http://prop.org/Qo>,-1.6160583,-3.5300126,0.19066116,-1.298609,-0.27223876,-1.2842579,-3.2442946,0.5170179,-1.9404844,-1.9390262,2.0355227,0.51448166,1.5634296,-2.1831646,-1.3502136,-2.1774435,-1.0427454,-1.1985763,0.07681706,-0.061278988,0.1989615,0.16362472,2.4407768,2.4880233,-1.480959,0.9145594,-1.4186255,5.033343,-0.6957422,-0.5800612,2.6626034,1.6610515
<http://prop.org/Zr>,0.49186763,-4.070784,0.6998631,-1.4466041,0.4329797,0.4982737,-2.171206,-0.9799146,-3.9793463,-1.250103,3.0975466,0.8581645,0.17841236,-0.6884468,-3.116578,-0.3785,0.934652,-0.33300573,1.546167,-1.4918548,1.0241642,0.44089037,1.9575441,1.7435392,0.053769395,1.3501549,0.6754196,0.30604455,-3.2360463,0.49865788,1.7309643,3.5277402
<http://prop.org/tU>,-0.6406609,-0.550372,1.4690179,-0.6602907,-0.62712824,1.1242849,-0.89929485,2.5728095,-4.7495394,-3.5581856,0.48239627,-0.5104284,1.3863642,0.4691076,-1.8896551,-0.14382394,-1.9255092,-0.5011188,-0.4116098,-1.7267503,-0.4474075,0.36661518,3.016404,4.9432425,0.9135864,0.76099885,-2.3281047,0.819473,1.1325545,-0.46731707,2.322096,0.67926455
<http://prop.org/kq>,-0.63308936,-3.2264194,0.07812963,0.4466203,-0.22222152,1.6306508,-2.448797,-0.028963506,-1.8508244,-2.4105623,2.7426386,-1.5436001,1.0686619,-0.33347055,-1.7902647,-1.6276306,-0.9067241,-1.4767524,0.3178238,-2.5074322,4.1319933,0.24350786,3.017553,0.91697776,-1.0357618,0.6622586,-2.715439,2.4465692,2.0643399,-0.68866485,1.8854132,2.7172039
<http://prop.org/Xp>,-0.38817292,-1.6417184,1.4917276,-0.642355,-0.74983436,0.5668004,-2.2907734,-0.8303569,-1.500835,-3.7190938,2.7071846,0.31158838,1.909637,-1.1973982,-1.8652062,0.25219396,0.06384801,-1.3631613,1.2535698,-1.9106952,4.955715,-0.64896953,0.85868484,0.5256191,-1.9843397,1.60313,-1.9146297,-0.64608234,-2.640003,0.2804167,2.4296315,3.63458
<http://prop.org/Wi>,1.4251107,-2.3629,1.0126518,-1.6724896,-0.32912466,-2.54685,-3.4269173,2.036197,-2.376723,-0.836391,1.1968138,-1.7910801,-0.10377203,-1.8918633,-1.7404019,-1.3304803,0.73149854,-0.7162972,0.5567582,-2.884691,2.5376441,1.6411676,2.5326147,5.7104325,-1.5918112,1.0743347,-1.1492107,1.8999785,-1.1621412,-0.0097753275,0.25290835,1.3538136
<http://prop.org/jo>,1.9626582,-2.4159904,2.3784049,-0.33705568,-0.027144216,1.079055,-1.9475058,3.7407691,-2.6230812,-3.0751793,-0.5050254,2.1189983,-0.87937963,-0.58904845,-0.788511,0.7550717,-0.07161852,-0.6331767,0.24589266,-3.1878948,1.6595511,-0.6324709,3.7275753,3.525678,-2.2530262,2.798595,0.34909496,2.7249618,-1.6118251,0.46155107,1.7550286,2.4811726
<http://prop.org/Ry>,1.9958509,-0.26339936,0.795497,-0.6330756,1.1015935,-0.41318405,-1.6489967,0.93860686,-2.5341816,-2.7112234,0.4696751,0.0027867192,-0.8468005,-0.7415631,-2.5174725,-2.667836,1.0664656,-1.6696309,1.2804489,-3.1490781,3.3991098,-0.067272484,4.6272936,3.2448742,-2.5382206,2.7877662,-0.5047052,0.32513797,-1.1911225,-0.9523936,0.6670386,0.64534
<http://prop.org/eY>,-2.3427348,-1.6802399,1.0588562,-2.1638432,-0.45732003,1.0472652,-1.7784002,3.229101,-3.0040958,-2.4661617,1.0111607,-1.199068,2.0626335,-0.63261443,-0.462559,-1.4325185,0.046906255,-2.7038293,2.2426896,-2.1623042,0.8799593,-0.28132823,1.8524756,1.7301799,0.3556904,1.7950941,-1.8635767,3.9071724,-1.3215806,-0.5764323,3.090913,1.0430267
<http://prop.org/uw>,0.5457878,-1.6986966,1.0679376,0.10978972,-1.8369176,-0.3166467,-0.94572616,3.7162557,-2.3848214,-4.514018,1.6287887,2.7348783,0.7654912,-0.8871623,-2.7811615,-0.9794858,-0.6501222,-2.5470238,1.273003,0.88058394,1.356604,-0.6356811,1.2519846,4.8145714,-0.0324347,0.6621038,0.6996171,0.8542462,-0.66632384,0.5913754,0.7634608,1.4042661
<http://prop.org/PF>,0.47501528,-1.7515681,0.41472444,-0.40624008,0.85248107,-2.2909856,-2.8735464,-0.54212314,-1.3366249,-3.7109025,1.3552411,-0.16313986,1.2640989,1.070803,-0.97134185,-1.2622354,0.78945917,-1.3227379,-1.1154808,-2.497012,1.1366444,-0.5872276,1.784893,1.6171174,-5.373588,2.1053095,-0.37839422,2.8020415,0.5597294,0.1485175,1.6390347,3.4526422
<http://prop.org/CN>,2.1855743,-1.603896,-0.44399428,1.0193334,-0.5556308,0.029513732,-4.791191,1.7482672,-2.7189484,-2.4050984,1.5893251,0.20524953,2.489355,-0.73192835,-3.1271122,1.0783906,0.4449942,0.052141674,0.2579049,-2.3562686,1.5042124,-0.733393,1.8505746,4.257372,0.07559674,2.528786,0.65659106,0.2739801,1.1992642,0.988328,1.4125103,2.2392437
<http://prop.org/lT>,-1.6395223,-2.0174341,0.6362929,1.0611451,0.5083617,1.060962,0.12618248,0.6523769,-3.4806726,-3.6804032,0.17510031,0.39017135,0.8917735,-1.5187706,-2.1755033,0.25159144,1.0378174,-2.2156475,-0.8213024,0.9934859,2.7440417,-1.3240777,2.8638852,4.2749047,-3.8584116,-0.9126319,-1.2498399,1.7769061,0.60237956,-0.90256995,1.0723362,1.976329
<http://prop.org/rr>,-0.53278095,-2.7854705,1.0322655,-1.2849317,3.066224,1.7980735,-0.5413909,1.1823901,-1.7901701,-3.314471,-0.44993284,-0.9038504,1.1297791,-0.5852498,-0.6772591,-1.2877896,-0.20342676,-1.3747746,-0.5064156,-0.8641511,-0.10194545,0.63175046,3.9452538,4.624418,-1.4541509,2.4081416,1.1727352,2.5452569,0.28103828,2.674,0.68075484,2.2683914
<http://prop.org/UT>,0.1798238,-1.1437341,1.0236226,1.0995688,0.088156804,3.022732,-2.3079312,2.5628831,-2.2020628,-4.8011603,1.0874476,0.24925941,1.4316231,-0.8839995,-1.2405847,-1.337506,-1.4179552,-1.7682996,-0.29288855,0.08360051,-0.15278906,0.7726901,3.1882918,4.120846,-4.2939105,1.10509,-0.8424156,1.5721616,0.41260037,1.5902708,0.2976103,2.4291558
<http://prop.org/jd>,-2.6769712,-0.8444748,3.254772,0.08515065,2.5498154,-0.7182708,-3.5096517,0.5336721,-3.3838842,-3.5990474,0.34681663,-1.1711714,0.018739121,-1.7220782,-3.0000567,-0.7217832,-1.0773299,-1.1705569,0.76116204,-0.54371846,2.1642084,1.1807865,2.0218883,1.5956302,-2.6203785,1.5593537,-1.1797732,3.835714,-1.5825146,0.9348557,2.183575,-0.24292088
<http://prop.org/bg>,0.26977032,-1.8884224,3.3631382,-0.6626712,-0.71102494,2.3913534,-0.9520495,0.79959667,-0.8270245,-4.3041067,2.9629047,-2.4198062,-1.796432,-0.6663516,-1.1111665,-0.62227345,-1.6926587,-1.7058394,1.9276469,-0.60568064,2.845928,-1.1835259,2.66072,2.0366743,-1.7151066,0.36639354,0.058150917,0.105431214,-0.5544724,0.57955074,2.6029365,3.386503
<http://prop.org/IV>,-0.86682355,-3.0847826,1.3245795,-0.5701646,1.9135846,-2.3130887,-1.1376134,-2.7952218,-2.615007,-3.847414,2.4633024,0.020222167,0.044144377,-1.4450979,-2.3155465,0.6829406,0.17931671,-0.5059087,0.5342084,-1.9368255,2.3596652,-1.3674332,1.0073326,1.4236449,-2.5751379,2.0005398,-0.8607364,0.52497745,-1.9536668,2.5058777,2.1595726,3.5934026
<http://prop.org/Ar>,2.602644,-2.7717147,-0.014425731,-1.1637272,0.6185892,-1.146769,-2.8859465,-1.821156,-2.483279,-3.3819215,0.41217574,-2.0582633,1.3545529,-1.8523723,0.69473237,0.88670754,0.19341959,-2.1691654,0.65590656,-0.9345773,2.7581313,-0.37015522,1.9178362,4.9061303,-1.4623662,0.71879363,-1.7296386,1.4138708,-0.6897858,-0.72843087,2.2503436,2.2928705
<http://prop.org/Sp>,-1.4976004,-1.7935942,2.3625245,-2.1453536,2.959164,1.3698026,-1.6855453,0.15275651,-0.74299335,-3.8199298,2.5580535,-0.89753467,0.09345232,-3.260526,-1.7222784,-2.037391,-0.92669666,-1.3142769,0.7694867,-2.3756335,2.422033,-1.1104403,3.3424826,3.626032,-1.9854629,2.3015919,-0.8458991,-0.8754592,0.15246227,0.24237682,-0.7331946,0.94293123
<http://prop.org/ab>,0.3150592,-4.34475,-0.027347863,-1.0640074,0.49693307,1.6717863,-1.7088363,1.5929759,-3.8782508,-4.6031833,1.5228207,-1.5635096,0.44594663,0.8848643,-2.3651984,-0.20408447,-0.7208002,-1.7575895,-0.06803295,-0.85191065,0.95154274,0.71210104,1.262463,3.9026542,-1.0356236,-0.4157639,-1.3490148,1.263749,-1.9834833,-0.37214598,2.428753,2.996125
<http://prop.org/Wm>,0.59044117,-3.311923,2.283084,-0.5405749,0.014101675,0.9355418,-3.6199248,2.2295601,-2.9673002,-4.4796066,1.1250182,-0.8697998,0.41255042,-2.239146,-0.74127007,-2.3134675,0.4786894,-2.0877311,0.9047565,-0.10806377,-0.20216939,-0.686909,0.6205091,1.7061795,-0.56463724,1.4264086,-0.78507596,5.153599,0.5492135,-0.8984519,0.3991682,2.1512215
<http://prop.org/MY>,-1.8563515,-4.1511865,1.1832985,-0.19990294,0.04644706,-1.8953817,-3.1911232,0.44163287,-1.6621192,-2.0466027,1.6906443,-1.8449165,1.0253894,-0.791721,-2.8424296,-0.33065915,-0.1714105,-0.680825,0.8354241,-2.1586907,2.1291034,-1.9288753,-0.26721883,2.6692924,-1.9092581,1.1619296,-2.777739,2.0421822,-0.0006333663,0.14624958,3.6943073,2.4702148
<http://prop.org/Ny>,-1.6713861,-1.2548313,3.4027238,-3.2934544,0.92283565,0.385914,-3.400657,1.0916599,-2.2843788,-2.9428155,2.5426993,-0.17030714,-1.3533007,-1.9044892,0.0453387,-2.7684033,0.08374094,-1.9984034,1.6886002,-1.9606464,2.0038626,-1.0845604,0.6217855,2.043555,-3.024468,0.57639974,0.07691884,3.238392,-1.022641,0.87057203,0.7447943,1.0633411
<http://prop.org/Mh>,-1.706848,-0.73468846,2.6440363,-0.49262157,2.1213875,1.3135395,-3.997035,-0.6575141,-2.30995,-2.4665163,0.6418721,0.046080116,0.028366992,-0.056749508,0.008124701,0.04646332,0.54178745,-3.758347,-0.2004729,-0.9992418,2.879765,-2.3590705,3.997852,1.1594322,-2.668383,1.4146479,1.2441709,1.9337094,-2.1872425,0.88220686,0.3273603,1.376269
<http://prop.org/gH>,-0.5476421,-3.625856,0.80279386,-2.3908598,-1.5468848,2.885776,-3.0688426,1.4478744,-2.215061,-2.5589328,1.9961104,-0.8235083,-0.78226143,0.38010266,-2.432694,0.14065027,-1.4434991,-0.8921151,0.29169923,0.67608154,1.5653644,1.4675452,1.1464238,4.437466,-0.8811637,2.8114812,-2.2573032,2.5148494,-2.5136113,0.799963,1.4429281,2.7095845
<http://prop.org/rX>,-1.1515429,-1.3153372,0.49650523,-1.1171371,0.9947282,1.1263924,-2.7532597,-0.46751606,0.050666157,-3.3366055,0.44374117,0.36532062,0.27369475,0.3682879,-2.2192762,-0.8593866,-0.80922204,-1.4779476,-0.15214264,-1.6575785,3.1493638,3.5057447,0.23908298,5.257037,-2.5018287,2.3125288,-1.173933,2.8515804,0.21529457,1.5586808,0.7726204,1.6641734
<http://prop.org/vL>,-3.772312,-1.4216202,-1.4353666,-1.4018538,-0.46980634,1.2727301,-1.9292662,1.1968651,-1.2628701,-2.4516845,3.2780657,-0.40279195,0.061790314,-1.1722997,-2.7161567,-0.40636405,-0.9121268,-1.4549898,-0.0638157,-2.000448,1.8073937,2.8051403,1.7816212,2.6389947,-0.17016776,1.0766953,-1.895871,1.1716886,-0.44465354,-0.47095916,2.5779133,1.9511741
<http://prop.org/MD>,1.604334,-3.5001755,-0.6258638,0.58782274,0.5163553,0.150164,-3.5744028,0.16239625,-1.5440584,-1.3815465,2.1677012,0.9843139,0.6093353,-0.68179536,-0.98181087,1.9091918,-1.2443309,-1.2473898,1.088446,-2.5011914,1.5417084,-0.90695065,1.4806588,3.7427278,-1.3675519,2.668541,-0.29392812,2.0649385,-3.4956813,1.5173507,1.619224,3.0146663
<http://prop.org/oG>,-0.02807406,-0.28631252,2.860701,-2.6438618,-0.6343289,1.2983302,-0.48711452,1.7373111,-2.5351243,-3.1067443,1.5281088,0.5102621,2.1835794,-0.24355331,-2.9951453,1.0924202,-1.9768379,0.6218513,2.480916,-2.2189763,1.0169361,-1.1327306,3.6437354,4.002016,-1.6338478,2.830517,-1.0352436,2.2399755,-0.6397102,0.46844435,-0.21658109,0.95581365
<http://prop.org/br>,-0.76920956,-2.1348948,0.12656903,1.2090197,-0.27683103,0.3810057,-3.3468978,-0.37520164,-2.0895944,-1.5624043,1.7304701,-1.7408979,2.8639212,-1.4156446,-1.7841092,-0.37763384,0.263594,-0.7241221,0.10553191,-3.9224858,4.2365494,-0.09477713,2.4683783,3.136244,-2.696364,1.1219803,0.8708054,2.3975952,1.0900921,0.16777502,2.340602,1.0713761
<http://prop.org/jZ>,-1.7066476,-2.5629907,-0.7656762,0.22830822,1.3208148,1.0817744,-4.62255,0.19159248,-1.6752143,-4.0542903,1.1569111,-0.12509176,1.8572837,-2.3968182,-0.18846494,1.3569362,-1.3122351,-0.009932993,-0.4158563,-1.6555424,1.3490354,0.11980684,3.8033395,4.2227926,-1.8522363,0.1003657,1.1965557,0.9111659,-2.1351385,-0.3697117,-0.9386573,0.42361268
<http://prop.org/WN>,-0.5881941,-2.2142746,0.5420076,1.7214402,1.6870273,0.8906525,-1.0120298,0.5312818,-3.9142804,-2.2132864,3.297496,0.13137294,-0.5500269,-1.8930978,-1.9427304,1.6454265,2.0392494,-1.2299105,0.04853765,-2.3562536,0.90457714,0.54736996,1.5150685,3.8304203,-2.0227537,0.8570492,-3.3047185,1.765941,-0.99742335,0.38524374,3.2507489,1.6109034
<http://prop.org/Ld>,1.3486843,-2.6757202,4.1902556,-1.0065396,0.5706564,0.029884724,-2.327436,-0.79604626,-0.37816536,-3.5815072,2.0558805,0.22933674,-1.4258485,-0.5725677,-2.4779692,-0.7827331,-0.51949424,-3.3163157,1.0637048,-1.5668687,0.54015344,1.2258805,3.7319329,2.2569356,-2.209464,0.8988904,-0.83483636,2.5497234,-0.43334797,0.9359357,0.3721065,2.6598046
<http://prop.org/oL>,0.08732845,-2.5295885,2.323975,-1.3408018,1.2216717,1.70718,-4.7930245,3.1662602,-1.2419584,-3.065757,2.881675,1.4661362,2.0490596,-1.4492506,0.05064971,-1.3210671,-0.09852043,-0.5333654,-0.8287325,0.036768626,1.8861555,-0.6598142,0.27935293,2.3602743,-2.1139498,0.70799017,0.025962217,-0.088531315,-0.089767754,0.75356865,2.7018614,2.9976838
<http://prop.org/cC>,-0.51289594,-2.2383962,1.9622248,-0.7155414,-2.2689447,2.6410651,-2.673527,-0.7998648,-1.3346201,-3.8681765,3.3742347,-0.71363014,-0.59417486,0.5886575,-0.7508325,-0.6466263,-0.6202052,0.63230944,-0.85012305,-2.495834,2.8167608,1.0902376,2.3849971,2.9431427,-0.53593796,1.8889983,1.346319,2.5407193,-1.0183111,0.23293264,0.5937777,3.305534
<http://prop.org/Vj>,-1.7704058,-0.5596346,0.12086287,-3.9268408,-0.76747996,-0.35592535,-2.3764613,0.709305,-1.7900767,-4.290658,1.6372935,-0.15065543,2.265438,-2.5480487,-2.5457323,-2.794138,0.71683306,-0.42352483,-0.36095184,-0.92156506,1.247023,-0.9875743,1.2521316,3.1451554,-1.3488938,1.564313,0.6606746,1.6885935,0.12553297,1.7633336,-1.0131079,4.2885594
<http://prop.org/ys>,0.4084208,-1.6384469,1.232907,-3.151807,-2.5936034,0.2027378,-3.4189134,1.2920609,-1.35301,-4.349908,3.8076842,0.9695576,1.2484465,-1.9540683,-0.8678625,-1.0433162,0.688535,-1.2510343,1.2271359,0.7859562,4.0005383,1.4569072,0.75625896,1.6552286,-1.3115413,2.4869907,-0.30273548,0.6306171,-0.868296,2.2504933,1.9145815,2.093822
<http://prop.org/yy>,0.33810958,-2.0120528,0.426294,1.3714132,-1.3043039,0.89249295,-3.1421907,0.79148895,-2.987874,-2.0600917,1.7814902,-0.19024613,-3.0770416,-0.7714895,-1.5077212,-1.4289982,-0.2434607,-4.522931,0.30616224,-1.4343697,2.8050063,1.0244122,2.3654242,2.364173,-0.43094024,0.9026642,1.5255272,0.9477368,-0.035695788,1.7389338,2.9916697,1.9846542
<http://prop.org/ZD>,-0.7408502,-2.0126984,2.4796033,-0.8486867,-1.0413642,1.5838354,-2.090078,1.7804179,-2.3848536,-3.2032633,-0.2181814,-1.9733588,0.91554695,-0.55272275,-2.0215619,1.1479483,-1.7594905,-0.5468331,-0.007212655,-2.4938903,3.7486095,1.1555676,3.188214,3.4959323,-1.291708,0.49882683,1.4031314,-0.78001666,-2.3173528,2.69007,1.5275174,0.5392342
<http://prop.org/BX>,2.0368075,-0.40361556,1.6101562,-1.0579869,0.24153659,1.1307769,-4.262233,1.7137071,-3.6114457,-1.7345737,0.7065399,0.1859137,2.507955,1.9334812,0.5657068,-0.51067615,-1.1831433,-2.2057805,0.40587068,-1.3947446,1.8785166,-1.4131424,1.7529947,3.4420166,0.21739316,2.0216787,0.4558137,2.2070053,-1.8585114,-0.16458644,1.1713293,4.186732
<http://prop.org/IQ>,-1.3094965,-0.25694856,-0.20866048,1.1399775,-1.0780131,-1.1558739,-3.4254572,1.1477518,-2.158959,-1.4864321,1.4518002,-0.5111818,0.7739503,-0.95082724,-5.0937147,-0.79895675,2.1370158,-2.6010022,2.5413702,-2.0610585,3.762296,1.3998893,2.4977298,3.000138,-1.7878654,1.4024397,-1.0318546,1.9306258,-3.0310836,-0.3352583,2.281219,0.44947645
<http://prop.org/xf>,-0.19342476,0.13813026,2.1010323,-2.5658002,-0.50021034,1.6287295,-5.4682837,-0.12308835,-2.9974067,-3.2584496,2.3630304,0.3649933,2.4933727,1.1505613,-2.3522701,-1.4817395,-0.27509162,0.2997508,0.6382046,-0.78316396,0.62306285,1.0424055,1.7888036,4.1958485,-1.0618358,1.451103,-0.25596154,1.2143826,0.69314563,1.571604,-0.7370798,1.4155298
<http://prop.org/pq>,-1.0380656,-2.0952237,0.04261387,0.93038553,-1.2534443,2.06509,-5.1218696,1.4610252,-0.69746387,-1.2146981,2.4227316,1.4341145,1.7580644,0.49956694,-2.5053372,1.3507984,-0.3077723,-0.34713173,-0.7661023,-2.883982,1.7873365,-2.1321776,2.1117284,3.3287723,-0.26290014,1.7001141,-2.6162462,1.2871628,-1.4951696,-0.5169738,1.1797532,2.8035007
<http://prop.org/YD>,-1.1554599,-0.7580276,3.1273875,-0.31493956,-0.85249627,4.5181956,-4.0917745,1.4339782,-0.052677035,-4.0731044,1.6843781,-0.12680279,0.6858174,-0.13089225,-1.9677694,-1.7827022,0.024381682,-1.9577655,0.4188019,0.39570147,2.3626435,0.44079235,3.7849357,3.7216659,-0.2695485,0.4720487,-1.1769471,-0.53957695,-1.0815566,-0.23307359,2.21283,0.43163002
<http://prop.org/dB>,1.4861292,-1.7361053,1.2235515,-2.1930065,0.13009255,2.7375162,-1.3187686,0.42155942,-3.5785012,-2.8162096,0.17244983,-1.3090588,2.3898373,0.06855351,-1.2515512,-1.4010289,-0.36982396,-2.1259744,3.0357594,-2.449284,2.000687,0.6637231,3.627644,2.068067,-2.3797514,-0.3936275,-1.0486202,2.5614338,-2.0031598,-2.376153,1.5399673,2.340721
<http://prop.org/WO>,-0.45642236,-1.2529972,3.1042752,-1.8723248,-2.1067517,-0.8989946,-0.9376784,-0.3142743,-1.5271152,-6.295775,0.92196184,1.1538287,0.25882018,-0.9427415,-0.3989252,-0.146462,-1.9235704,-1.1060259,0.40970454,-1.2090775,2.0420802,-1.0428799,2.5266163,2.7838306,0.30411974,-0.39805034,-0.61159396,1.97754,-0.90892637,0.9535235,2.9301019,3.7368655
<http://prop.org/Gl>,-1.7535353,-1.6461906,0.9319116,-0.415421,-0.12695724,2.5353577,-3.6913729,0.7736069,-1.7581862,-3.2210069,1.391145,-0.2655094,0.30594233,0.031458966,-0.89325476,-1.946718,1.7466792,-0.279122,-0.09432509,-1.9800292,2.4638004,-0.98463553,2.1494858,4.485715,-0.44313005,-1.0283455,-0.5000204,4.566257,-0.32298532,1.5325315,-1.5211637,0.36638004
<http://prop.org/iU>,1.1090888,-3.3271961,1.3812296,-0.91332227,1.0132529,1.3793921,-5.1135063,0.38568816,-1.847233,-2.5830674,0.23063278,2.3439715,1.7428725,-1.6539416,-1.2548288,-0.09602948,-0.029672664,-2.0095994,1.9000194,-1.3681597,2.7843213,0.037274748,3.1076326,1.9781551,-0.5952223,1.1956173,-2.081569,-1.3573924,-1.0246826,2.0660143,2.86241,2.1887252
<http://prop.org/Jo>,-1.3372971,-1.6809776,1.472632,-0.2524813,-2.156881,-2.084984,-2.1913595,-0.08882207,-4.5273457,-4.442345,0.07470545,-0.68953735,-2.3176892,0.94884664,-1.2161313,-0.5789792,-0.50596064,-1.6493769,0.97060734,-1.4159008,1.1986113,0.2938518,1.6183329,3.919902,-1.2601392,2.225625,-0.76308924,1.8803782,0.8635204,-0.4992586,2.9669607,2.4173694
<http://prop.org/Wk>,-1.9836267,-1.3004787,1.746946,-1.6692504,-0.14951017,1.9984283,-3.6684995,2.5173752,-2.557939,-4.571247,1.0967913,-0.98760515,2.2811272,-0.5913854,-0.5154721,0.1421241,0.6816988,-0.71031785,2.074465,-1.8956432,2.2789204,-0.010931886,2.563904,3.231019,0.84816223,-0.83492625,-2.484788,0.06277911,0.30362427,0.178497,0.067292035,3.301821
<http://prop.org/Ay>,1.5667284,-4.0068655,1.704829,0.65418434,-0.39544773,-0.34077004,-4.0204935,-0.90677714,-1.1446518,-3.4616156,1.3152254,-0.7183178,1.9559518,-0.5110129,-0.6549517,-0.06264915,-0.8719894,-1.9070195,0.9594991,-2.0024052,2.2262719,-3.2229884,-0.09953874,2.9818387,-2.0054493,1.5795727,-1.2009836,0.7862879,-2.5744815,1.2027547,1.2800496,2.7083013
<http://prop.org/DV>,-1.1437327,-2.621189,3.345784,-1.7980614,0.73153645,1.3896755,-3.2907083,1.5719595,-0.8396806,-2.8082383,1.5675387,-0.34424746,-1.5646449,-0.16549176,-2.030575,-0.32568258,-0.03355483,1.5716968,0.29065794,-2.0119014,1.8128386,0.9815995,0.9232755,5.599832,-1.6705153,0.78331393,0.7859028,2.8367536,0.37426388,1.4644275,-0.727829,1.2728492
<http://prop.org/bZ>,-1.5318867,-0.75069183,-0.16868523,0.4423998,-1.5655967,-0.2750602,-1.4717464,1.9251201,-4.3817325,-3.0556688,2.3504002,0.1827962,2.534075,-2.0979218,-1.8885263,0.5750919,1.3226279,-0.7038161,1.9573501,-3.2023828,0.87866807,1.7053463,2.0057511,3.208513,-0.5582323,0.21959634,-0.140611,2.7747972,-1.7012624,0.2556913,1.7128307,2.5373533
<http://prop.org/Df>,-0.8977086,-1.4860201,-0.19094756,-1.674281,2.4348598,-1.0757924,-4.4863725,1.6713524,-4.3368893,-2.6851842,2.2987268,0.07832595,1.3914957,-0.13570783,-2.3925042,-1.7815655,2.794944,-2.251943,0.39416644,-2.2799559,1.788406,1.9441674,2.4599311,2.0586874,-0.66661155,0.6690913,0.68436515,0.32361293,-1.6663886,-0.34806603,0.90416104,0.6983197
<http://prop.org/xd>,0.9223483,-2.3355815,-0.34163317,-0.3461767,0.82494044,-2.2622325,-4.765618,1.6614907,-1.5090027,-3.1986077,1.9657215,-0.90491474,2.1160216,-0.5727279,-2.2902875,-1.9136682,0.942145,0.4950541,0.4855872,-0.4214452,0.87302995,-2.0117311,2.5313926,4.253761,0.4483925,0.59164184,-0.4583704,2.059503,-1.3576368,1.0313083,0.78012025,0.717829
<http://prop.org/TJ>,-2.4517326,-2.681719,-1.3086526,-1.5174195,1.5151403,-0.07273191,-2.687468,0.32638875,-1.6935824,-2.4158309,0.82302046,0.11805716,0.55589825,-2.203486,-1.7802721,-0.2398746,2.2685251,-2.3138604,0.6419865,1.6567019,2.990932,0.35065076,4.3769665,2.334511,-1.7367247,1.7843479,-1.1076416,3.6595106,-0.002333721,0.32476538,0.8863376,3.03566
<http://prop.org/GT>,-1.6782058,-2.6973994,1.5038183,-0.06943492,1.0640953,0.7217345,-2.3151603,0.28187352,-3.089325,-1.9648542,-0.14632285,-0.22898906,-0.90167356,-0.9879625,1.4250599,-1.8441882,1.3289527,-3.34699,-0.7368969,-1.6139957,2.5025318,0.627865,2.1622715,3.9735084,0.38742286,1.4368693,-2.3831892,1.6623749,1.1093642,1.9554058,1.1043433,3.1082
<http://prop.org/Na>,0.16125825,-0.8667894,0.5908856,0.18441218,-0.18202949,3.1743588,-1.8458279,0.13187192,-2.962538,-2.2643592,2.0180938,1.4257321,-0.84411365,-0.2763357,-3.7056644,1.7405403,-0.67728037,-0.95436394,0.081587926,-0.42169505,2.0173657,0.65438837,2.7866445,5.0938864,-1.16628,1.1564177,-2.8309631,1.5622433,-2.690938,0.89907986,-1.4400438,1.1193275
<http://prop.org/aU>,-2.0642233,-2.8922698,0.57628554,0.17383893,-0.47843248,0.6548825,-3.428242,0.5330072,-1.931219,-2.100424,-0.8012361,1.3860278,0.36398315,-2.3702958,-1.2864013,-1.2487723,1.1777618,-4.0470514,-0.77600706,-2.6124616,3.089033,-3.2910433,1.8586117,4.2154365,-0.3892076,1.2567014,0.11262101,1.4890597,-1.1989208,1.3361396,-0.0770961,2.0709777
<http://prop.org/BL>,-2.3330612,-3.8302803,0.5114142,-1.4439316,2.4929333,0.4893466,-2.142221,1.2657864,-2.6870816,-0.81565887,0.7388873,-0.2643456,0.618818,-1.3010547,-2.7067442,-1.4185679,-0.7843532,-0.7968408,0.6861201,-0.7742948,3.261346,0.083444975,3.089691,2.5146246,0.008789605,1.7620087,-0.08938567,3.197407,-2.8555021,-0.4967492,-0.053887755,2.926735
<http://prop.org/mb>,-1.1747597,-1.0491793,1.7208211,-0.02860325,-0.1614923,0.77462804,-1.6934832,1.8776923,-2.5898895,-1.9960473,-0.88207376,-0.70594734,0.5194486,-1.7590575,-4.072083,-0.024371738,-0.48054338,-0.32054794,0.5363621,-0.73543596,0.9848326,-0.1229544,3.1708965,5.583471,-0.24632484,0.6628998,0.32088846,0.0015889299,-2.0072958,2.776534,0.6670195,2.1860423
<http://prop.org/hs>,-1.649702,-1.2452223,0.6766551,-1.1385005,1.2526709,1.0936677,-3.236162,2.3469582,-3.841054,-3.2380579,4.5095654,-0.14223412,2.1708307,-1.2366061,-0.9135725,-0.22586627,1.5524148,-1.3650799,-0.8325456,0.8560854,1.273111,-1.3272265,2.1476521,3.2860913,-1.1893442,0.5080149,-1.068,-0.89033526,0.90963566,-0.59927285,1.7700168,2.7685826
<http://prop.org/Zo>,0.8125161,-2.4707155,0.005005699,-2.7454343,0.3438973,0.53079116,-1.6929575,0.096792676,-3.3932788,-4.0729117,1.0689744,-0.22134739,-0.35747397,1.8606818,-2.6730196,-0.3008793,-0.29787323,-1.8395519,-0.38655627,-0.9051049,3.8461072,-3.141724,3.019509,4.5149603,-0.7530014,2.5671313,-0.39587498,-0.6193389,-1.9181358,0.396275,2.7375858,2.4665897
<http://prop.org/tx>,1.1264642,-2.2768352,1.1606953,0.68732727,-1.4426231,-1.4590496,-3.2251005,-2.9745388,-1.2576152,-4.9037805,0.6358394,-0.03914693,0.5507115,-1.334011,-1.7792852,0.2881086,-0.035127908,-1.265017,0.94500405,-2.825636,1.5543379,0.7446404,2.4701874,3.24321,-3.0600286,0.20259479,-0.5765322,1.7821147,-2.5122013,-0.76037604,2.1419299,-0.0054008607
<http://prop.org/SQ>,0.47325382,-4.410605,2.1869094,-0.082094565,0.03508545,-0.10127529,-2.2995775,-0.86549425,-4.6436768,-4.4537973,2.585007,-0.19496036,-0.105603,-0.053912908,-0.21260396,0.13250683,0.97557044,-0.12809321,0.6340744,-0.37324387,2.7168534,2.3716607,3.4429173,1.6111214,-2.6491616,1.7524328,-0.9449259,-0.09695872,-2.506731,0.29751393,1.8016059,1.6123058
<http://prop.org/FJ>,0.44318548,-3.2439518,1.6814414,-1.3386995,0.75738096,0.14542688,-4.0927672,0.049827754,-2.1376076,-4.526788,3.6756825,-0.8936251,0.73477334,-1.0380008,-0.021894438,-1.9663309,0.36366266,-0.60501415,-1.0824124,-0.13060956,3.0797782,0.092017256,0.51548713,2.7850811,0.23983619,2.9156072,0.68266463,-0.33231393,-0.7930576,1.3756887,-1.4891992,1.1510828
<http://prop.org/He>,0.8385667,-1.0600708,0.99788946,0.015940864,0.91429687,0.87424535,-1.6275492,2.64296,-2.6571736,-4.27034,1.395063,0.40443486,-0.20514438,1.6613022,-2.7666998,-1.6860582,-0.45365316,-0.8128303,-0.7444892,-2.379405,0.9526039,1.8045279,4.3465853,3.3599875,-1.290271,3.3162398,-0.28903306,-0.7132665,-1.7719868,0.461766,0.041553166,1.8693796
<http://prop.org/pK>,-2.2940228,-0.15900593,2.8699398,-1.2439256,0.37901905,-0.2734201,-3.5476222,1.7483095,-1.3012218,-4.397512,1.3833561,-1.6158867,-1.56198,-2.439672,-0.20272967,-1.0005864,-1.0345429,-0.45854697,0.2074071,-0.71497875,1.4569277,0.30302536,1.896752,4.3164105,-1.7419063,2.538778,-0.5670213,1.1145873,-0.5422586,1.4271188,-0.23182416,0.70849955
<http://prop.org/cz>,0.10853517,-3.083282,2.2969677,-3.3827634,-1.5359195,-0.049028657,-1.0647389,0.026004141,-4.7451043,-4.604711,1.8327377,1.3705151,1.7142438,-1.1617695,0.02726109,-0.2832512,0.58027357,-1.7000189,1.0039818,-1.453442,2.5676506,-1.0164468,2.2576494,1.0263329,-2.8086236,1.5447432,-0.04633517,1.3494573,-1.6724792,-0.47129303,0.02380794,2.3919523
<http://prop.org/xq>,0.40970644,-1.4933466,1.221093,-1.2093853,-1.7731067,-0.276339,-3.521055,-0.37979424,-1.8582045,-3.8184748,0.30801195,-0.7022287,0.63137,-1.0846525,0.5445243,-1.9884231,-0.012253898,-2.6408548,-1.1305473,-1.9318432,1.968065,-1.4817915,2.2554529,5.0245795,-3.271925,-0.1931091,0.7488528,2.2337055,-0.92119306,-1.1243593,0.003640254,0.6923058
<http://prop.org/TK>,1.478733,-3.51052,1.5535145,-2.1785996,0.7179846,1.1601591,-1.7937018,-0.31274962,-4.2429233,-3.8576305,0.9323751,1.4713742,1.1893545,-1.683201,0.15026836,1.3724582,0.09020788,-1.3082947,-0.80041856,-0.75218004,2.22954,2.01336,2.4217923,2.4039865,-0.65248716,-0.16580029,-3.4552562,2.2605894,-0.03183444,-0.7784795,1.3694246,2.7552812
<http://prop.org/kF>,-0.38107735,-0.92654425,2.856714,-1.4599407,-0.24538183,-1.4311457,-2.0763965,0.43066046,-4.071895,-3.400688,3.034567,-0.7669344,-0.17262493,-0.43836066,-1.9025152,-1.2136024,0.94873923,-0.12888731,2.54055,-1.9473491,1.1294645,0.004220823,1.5286487,3.1507745,-2.1372573,2.3515394,-0.6701646,1.6681247,-3.626157,1.0568898,0.4967752,-0.06447531
<http://prop.org/Ac>,1.6318328,-0.4045834,1.7132336,-2.4499881,3.5074208,0.051742636,-3.0103693,2.3841808,-2.9423726,-5.238045,0.9850946,-2.3785846,1.6727896,1.6382232,-1.4462228,1.2216157,1.1997972,-3.1314788,-1.3329394,-1.2335197,1.6686381,0.57190895,3.1024444,1.4842273,-1.315805,0.37539682,1.0338588,1.7383974,0.46961972,0.023826685,1.3093929,2.848518
<http://prop.org/vj>,-2.626098,-2.462928,3.3452475,0.6055627,1.1126152,-0.18989457,-5.1087217,2.433194,-2.2275155,-2.8703537,1.5375663,-1.0634044,0.41962165,0.53269917,-2.430495,0.100554414,0.6101829,-1.8268188,1.5578336,-1.3663728,0.67839915,-0.27101654,1.4954883,3.0058434,0.9021583,1.4599775,1.2037529,2.6276681,0.49827006,2.892012,0.612304,0.34928
<http://prop.org/Bq>,0.084594935,-2.6173227,0.22691426,0.50840515,-1.2558296,-0.26254138,-3.7474232,2.333611,-1.5266726,-3.5751173,2.282324,-0.7721451,0.5237506,0.24663265,-1.4191797,-1.6565388,1.3719344,-1.4504358,-0.5250961,-2.2861269,1.0138096,0.5230526,3.464765,2.480122,-5.0227623,1.7992387,-0.3233021,-0.35801783,1.2025702,-0.019484676,-0.6276953,2.2645948
<http://prop.org/Bd>,-0.44283676,-0.72522163,1.7633129,-1.9836904,0.3662821,1.3741208,-3.9848065,-1.2246462,-1.7924577,-3.3420968,2.1861923,2.112429,1.8711773,-0.11306879,0.4235501,-0.37460437,-1.7171334,-4.505721,0.7377025,-1.8516191,0.9698961,0.59492636,4.0019855,4.7528143,0.134255,1.4158125,0.5525375,2.2317433,-0.9729769,0.28107864,0.4633016,1.9185145
<http://prop.org/nB>,-3.5325136,-1.8762447,0.6320664,0.42293414,1.321044,1.3819882,-4.1662755,2.399787,-2.0684454,-3.7196968,1.9817153,-1.7002393,1.5508903,-0.9060671,-3.58577,-0.4494165,2.0539374,-0.5953162,0.65652895,0.34926176,2.0240936,1.7464603,2.113513,4.5368495,-0.78702646,0.63471913,-0.21619779,2.9750087,0.13373232,-1.0575974,0.5478318,-0.34401444
<http://prop.org/Eb>,-0.099197365,-2.1017182,3.080293,-0.5294853,-0.4780058,-0.75308454,-4.123023,0.20972538,-1.8299459,-4.904272,-0.38685533,-1.1260842,0.1797925,-2.2433078,-0.71192646,1.9050181,0.122227184,-1.1628424,0.55792415,-1.7632065,1.7755,-0.13319293,1.4520096,2.5666757,-0.94582856,3.0601625,0.611826,-0.22555226,-2.6487298,0.7850193,3.5106568,1.6288831
<http://prop.org/CU>,-0.76532966,-0.37175587,1.2130154,-1.0354048,-0.92009157,0.5567871,-1.138242,0.41679093,-1.1349914,-2.8267426,2.1981635,4.2122383,0.051998474,-1.4617944,-5.229411,-1.7147673,-0.92329437,-1.7485383,0.9092917,-1.8754253,0.7534828,-0.7033438,1.2984725,4.109303,-1.9328531,1.755291,0.23698816,2.4780018,-1.4198371,0.62333095,1.2618142,2.628039
<http://prop.org/fN>,-0.9363008,-3.3250487,3.344231,-2.4895847,-0.07720487,1.0720747,-1.2658232,0.24951313,-2.1120164,-0.3451591,1.0261543,1.2423612,1.4999521,1.4492401,-2.6392844,-2.201786,-0.50376856,-0.7380658,0.22665912,-3.0553598,1.2521216,-0.7426173,2.0565088,3.2420466,-3.4579253,2.2150984,-2.0310743,0.95692545,-0.6564888,2.0891442,0.46108446,2.327233
<http://prop.org/Kj>,0.40726098,-0.9563351,0.24555995,-0.7774879,-0.0027467865,1.5621074,-2.4705195,2.2868142,-0.7038759,-3.1206148,0.5691361,1.0693297,0.32226658,-2.7508657,-1.4897395,-1.1476243,2.3012156,-1.7480909,-0.68482715,-0.9576067,2.9186203,1.0913953,3.436915,0.72765946,-2.5153027,4.3728347,-0.86946803,1.8341957,-4.4257445,-0.18099222,3.9677465,1.7168986
<http://prop.org/Da>,1.1233064,-0.17822082,-0.8576196,-0.12431953,0.3693413,0.20418462,-3.5701818,2.3274329,-3.2059863,-3.229554,4.8099294,-0.030520165,1.4578354,-0.13519569,-2.2513707,-0.7817988,-1.7301337,-3.028397,0.39117318,-2.711578,2.2189047,-0.1776588,3.5499084,0.7471986,-1.5530959,2.025748,0.43146017,1.9717602,-0.2329981,1.8535904,0.34121206,2.6557708
<http://prop.org/El>,0.8327976,-3.3034275,1.7468185,0.40419567,-0.6144748,0.7497744,-3.1196687,1.5533075,-2.452421,-2.2186396,0.417018,2.4426577,0.9902606,-1.2338015,-0.011838791,-0.9925104,-1.86489,-0.76750654,0.21162081,-1.6275468,2.116036,0.1489875,5.39989,2.0866435,-0.75323343,1.5946292,-0.23375668,1.315219,-3.0410752,-0.45316464,2.1736815,0.33002767
<http://prop.org/Hn>,0.22020492,-1.5624499,2.4402149,1.5856144,-0.33601376,-1.7210244,-2.8626676,1.1905632,-2.867469,-1.9018443,2.5463781,-0.41227093,-0.9830062,0.6544824,-4.043251,0.91927654,-0.7669411,-1.6529379,0.47344318,0.33251312,1.5875988,0.45103347,3.6852732,4.359672,-1.4401877,0.6099048,-0.29624766,0.51576185,1.072943,0.094703004,3.4068801,1.8111117
<http://prop.org/JZ>,-2.1140263,-2.5767167,1.386873,-0.6214662,-0.4478238,0.97278166,-4.8809514,-1.6986151,-1.3476986,-1.9588045,0.14511694,-0.06690602,-0.21225026,0.25595132,-1.5164847,-0.7529892,-1.0261395,-0.8285531,-0.71365845,-2.5011735,2.0991268,-0.17892604,3.2683156,5.177517,-2.0507503,2.1088226,-1.6782042,0.20891887,-0.68866247,1.8191551,1.5261216,-0.9199595
<http://prop.org/AA>,0.19955875,-1.6499221,1.4545729,-1.3856041,-1.3250626,-0.069458336,-2.7761283,1.4543161,-4.8071156,-1.2141583,0.023676526,2.587035,0.8028709,-1.294108,-2.34616,-0.15405528,2.105149,-2.957009,0.95509154,0.6453552,0.82348615,-0.47199118,2.1683688,4.087839,-1.1586761,1.0132661,-2.8243992,0.3389229,-0.749312,0.02785198,4.046544,1.879995
<http://prop.org/Pe>,0.6290987,-1.3388107,0.6679544,-1.5305556,1.6301988,-1.9371762,-2.8110301,-0.17429525,-3.0890443,-0.9390887,2.4794388,1.3610777,1.2797252,-0.6671594,-1.8921129,0.676441,-1.1840392,-4.1274767,2.0986276,-2.5859199,2.4088063,0.3757534,1.0995435,2.4099655,-2.2380965,2.2874517,0.5204064,2.32418,-2.4262986,1.291296,1.3126988,4.331581
<http://prop.org/cx>,-0.033352688,-3.6481514,0.7786831,-1.6136734,-0.9909139,1.7307758,-2.5231702,-0.19222178,-2.5282855,-1.5991229,-1.1594957,-1.2844265,1.2947668,-0.6837115,-2.8309665,-0.6462466,0.2708978,-1.437391,1.5744009,-0.5659389,2.0613797,1.3192531,4.2621055,3.287767,-2.5451822,1.7762604,1.2316092,1.4582942,-1.9514006,1.1861335,1.5269861,-1.5694383
<http://prop.org/rI>,0.3171719,-1.9154575,1.4403056,-0.6518859,-0.64963675,1.4029393,-3.9563117,0.7721344,-2.8888435,-2.4704783,2.327459,-2.516155,1.4359988,-0.26633012,-0.23355827,-0.57431084,1.792138,-3.2521098,-2.4027328,-0.3099599,1.7792472,-1.2641692,2.5919716,2.7609456,-1.9920129,1.2460366,1.5141466,3.550825,0.21365072,1.082941,1.5016956,-0.73636705
<http://prop.org/xK>,0.28739795,-1.97462,1.2101516,0.11193764,1.4115885,0.69112325,-2.682107,-2.2435603,-1.2593198,-5.148483,1.2686191,-0.4055288,1.5252438,-0.7020947,-0.16344778,1.3651241,0.41099024,-0.30100212,-0.14419734,-3.796619,1.9708681,1.5003785,3.6565413,4.061318,-1.8306303,0.28671306,-0.4411868,1.1744579,-3.0320737,0.76663357,0.65628755,0.85129344
<http://prop.org/QV>,0.67685866,-2.875268,1.034877,-0.5463553,2.7982082,1.8464816,-2.5530915,1.754468,-0.91687846,-2.8033073,1.5778959,-0.33993536,-0.4237796,-0.6234154,0.8234031,0.3243046,-0.01446137,-2.4518175,2.649664,-0.91456705,0.9639468,0.89627326,1.5970645,5.0444646,-1.0731659,0.9545359,2.054181,0.5284485,-2.5860348,1.092744,1.0417395,2.7015374
<http://prop.org/VM>,1.5423666,-1.9282601,2.118576,0.6530867,2.4378266,1.0225009,-2.1546195,2.3886163,-1.818149,-1.8819209,-0.51023495,0.9523846,0.45470724,-0.14129898,-2.797856,-1.8060085,1.7303929,-1.3690711,-2.2613833,-0.93192,1.6813695,0.09672334,3.7716453,3.9593887,-2.358983,1.1026255,-0.74708986,1.7426933,0.7923736,1.8770943,1.5936767,-0.048929133
<http://prop.org/Or>,-1.924679,-1.3125254,1.9809701,-2.3510509,-0.8914997,0.3768297,-0.82571566,0.3454647,-1.6432034,-3.49744,1.8754678,-1.0307848,0.53866607,0.50155723,-0.9792336,-1.7829882,-0.7377155,-2.5400872,1.4219637,-0.5212456,2.7329133,1.683498,4.009174,2.361798,-3.3581913,1.7513455,1.5168254,1.9028022,-1.774734,1.1560285,3.9063718,1.1490453
<http://prop.org/Kw>,0.16809788,-1.1905097,1.3206302,-0.6914629,-2.2611713,-0.35109577,-2.4917617,0.46953067,-3.3752415,-1.9413394,0.33616167,2.9511924,2.2291143,-2.4909067,-2.598146,-1.5682083,-0.47809684,-1.866385,2.2587984,-0.08190852,2.3563175,-0.47066277,3.174852,4.1610045,0.28708234,2.637686,0.24751045,1.8122791,-0.8882934,-0.8939356,1.9516062,2.944484
<http://prop.org/Vf>,1.4207225,-1.7151971,1.7388774,0.99390584,-2.6559615,0.9292181,-3.036047,0.51431465,-0.5260918,-4.5644674,2.5751882,-0.77711326,0.18834826,-1.0988407,-1.5808563,-0.50451314,0.55720896,-1.6044364,1.0887462,1.3277484,1.2150263,1.0084145,2.3798227,2.5989857,-2.1661265,2.2978284,-2.5730236,0.18551591,-0.20404802,-0.43938234,2.0519211,3.8460345
<http://prop.org/yY>,-2.2555676,-1.3598777,-0.35865527,-1.6737502,-0.30120197,0.78773373,-2.9798684,2.0967333,-0.5838042,-4.4869514,0.46992403,-1.3395592,0.34711713,-3.0273871,-0.77294403,-0.81075054,-0.4657978,-3.0486617,-0.13129054,-2.2506256,3.020648,-0.45811796,3.6874099,2.9944763,1.8737786,0.9869592,0.027127936,0.59491783,-1.187023,0.99866503,0.47045138,1.5027742
<http://prop.org/lD>,1.5687832,-2.6974642,-0.16595614,-1.1974939,-0.58032393,-0.7551927,-2.9917674,1.3943671,-1.1140809,-0.7881499,2.3236558,0.5504534,2.2747586,-1.9473994,-2.0684507,-1.6108521,-1.2562563,-2.8352933,1.8388929,-0.7985715,3.6989505,-1.9640892,3.2568505,3.2485833,-2.566932,0.7848634,0.4979073,-0.3035519,0.0315157,2.1382804,1.6546159,1.9778892
<http://prop.org/rK>,-0.092384525,-2.4900594,1.3756644,-1.180678,1.574713,-0.5663829,-1.8378063,-0.4788781,-1.3105719,-2.9630096,0.55492693,0.5346167,0.76455986,-0.25447363,-1.1222739,0.023400525,1.0847434,-1.5123051,-0.36527258,-2.191045,2.4463766,-0.2827091,0.115432896,5.4496565,-2.5950432,0.79866326,-0.97912765,1.0552605,-2.3357697,2.975079,3.3305075,4.1322803
<http://prop.org/QH>,2.1353328,-1.3875791,1.2709297,-1.9892242,2.056206,1.0557967,-3.0004299,2.0670974,-3.8288412,-3.851366,2.2857778,0.9112711,1.6351573,1.2408335,-0.3734852,-1.138805,1.2057072,-2.691058,0.6936919,-2.2600682,1.2199237,2.3517647,1.6747314,5.308595,0.08658336,0.47655392,-0.58278066,-0.46093786,1.298802,0.23098423,0.2124927,1.8781741
<http://prop.org/FX>,0.7790514,-2.0826378,-0.4132369,-2.8159325,1.3998846,-0.22348674,-3.5095644,1.4026221,-2.7408116,-2.846703,0.67443806,2.054216,1.8660285,0.10601855,-2.4337103,0.16293946,1.1867309,-3.9706266,-0.16091526,-3.0105474,0.30822092,-0.7165388,0.5051096,4.0806994,-1.6207675,0.44239414,-1.7577307,2.1800632,-0.5947883,-0.4741604,2.1039855,0.57018745
<http://prop.org/rq>,0.11924043,-1.9895967,-0.7162388,1.4194089,-0.79457146,0.15074673,-3.6240473,2.1308389,-3.3561504,-1.2785592,1.490528,-2.9351542,0.65360093,-0.9675043,0.024116617,-2.4943535,-0.18021722,-1.8908112,0.6115039,-2.0094187,1.4723125,-1.2440988,2.8950844,6.1471987,-1.6359849,2.0365462,-0.52424437,0.9223143,-0.23759775,1.8609998,0.6438436,0.67854905
<http://prop.org/Lx>,-2.9914114,-1.4898766,0.87216043,-0.19302438,1.271938,0.35788697,-2.1788821,0.47582752,-1.8005701,-4.2177258,1.1343718,-0.19146197,1.3657824,-0.0027599263,-2.16922,-0.4793006,3.5096972,-0.8835107,0.58425915,-0.03578939,2.4323204,-0.056229956,0.16721942,2.3862062,-1.1141967,2.659946,-1.5671496,3.5546157,-1.8701898,0.37060183,2.2333698,2.6166403
<http://prop.org/ez>,-0.83898765,-2.1574183,3.4463513,0.19653389,3.3492818,0.5338979,-1.992579,0.6406343,-2.0362191,-2.0996084,1.684402,1.0218976,1.4881604,-2.5903192,-0.5530562,0.67669827,0.81862694,-2.8577557,-0.36537352,-2.100942,1.0984327,-0.15642017,1.539546,1.4245163,1.6737441,0.8047966,-1.704051,3.6763926,-1.6394299,2.177066,2.0278215,3.7724566
<http://prop.org/ZZ>,-1.340141,-2.7507117,-0.8172507,-0.5726357,-3.256116,-0.68057644,-4.394311,1.7251192,-2.7386672,-2.3714068,0.8133131,-1.1795459,0.8431013,-1.13479,-1.3809313,-1.6051258,2.7902484,-0.6238371,1.5544598,-1.8562456,1.4341071,-0.37466797,2.9008572,1.8755264,-1.6748165,2.2966487,-1.2423537,0.9101854,-0.82691514,-0.05303526,0.7438325,2.329468
<http://prop.org/Xg>,-0.54791623,-2.9636636,-0.103332415,0.88920563,0.04867945,2.095483,-1.9090924,-1.14048,0.110404514,-3.9137857,2.7268186,0.63434505,-0.24743982,-0.42910504,-2.3506234,0.04282595,-0.91538894,-0.36155573,1.3850422,-3.9611208,4.417287,-0.37782198,0.9717567,4.3384895,-0.79087466,1.5987833,-1.4929827,2.1832573,-2.1856825,-0.7805459,0.5588524,0.9067002
<http://prop.org/ZO>,-0.32243672,-1.6277996,1.9874806,-0.91856295,1.5750303,1.2000188,-2.5912879,0.28508174,-0.5300487,-4.756283,3.4177809,-0.9375462,-1.29301,-0.34939617,-0.9521229,1.7460035,1.1945348,-2.7841728,-0.81512284,-1.4103396,1.3198346,0.04688336,2.3050823,2.991225,-0.67182004,0.3799918,0.60130876,2.850425,-0.5849877,1.6564848,3.6155198,-0.15402262
<http://prop.org/Hi>,-0.24119183,-0.8781082,2.1808007,1.355063,-0.32470345,-0.93103606,0.10134398,-0.8170683,-1.9199678,-4.883446,0.21052644,-0.52769256,0.94235915,-2.0554204,-2.3292239,0.017464489,-2.0808754,-2.3252113,0.73874176,-1.3733472,2.6582205,1.5295378,3.473439,3.47775,-3.5338821,2.3201542,0.46100575,1.0466726,-0.50326633,0.68083966,1.1522269,2.12464
<http://prop.org/Xu>,-0.20306447,-1.0361141,1.5629684,-0.70384216,-0.29903796,-1.3681602,-0.33233175,1.8257233,-2.0340102,-4.715037,2.810157,-1.0592234,1.0316572,-1.5129516,-2.2091124,-1.5123562,-1.4330143,-1.4094677,1.2470475,0.6647859,-0.39372653,0.36502016,2.1662424,5.8252625,-0.9581885,-0.02870426,0.039775793,0.5593313,-1.2626768,1.208006,2.1100695,1.4171473
<http://prop.org/Ji>,-0.2530716,-0.38047245,0.56099224,0.016852517,-0.3363637,2.7900448,-3.0154135,0.27839974,-4.3903036,-2.6796644,-0.51705974,1.0280943,-0.6169004,-0.5181293,-1.0460237,-1.2828325,-1.5893359,-2.7573705,0.47211844,-3.0719595,2.4554536,0.5691582,4.031546,2.0204813,-2.8547614,1.2218274,-1.4762921,0.99542665,-2.3794653,0.6639272,0.46041143,1.1175108
<http://prop.org/zX>,-1.4456083,-3.25055,1.6004518,-0.6950331,0.64437854,-1.5666548,-3.457919,0.8502929,-3.4281342,-3.533547,2.0226703,-1.0272832,3.699834,-2.4938421,-2.2082334,1.4030496,0.9102594,-1.1940553,-1.9764016,-1.6171592,0.07305407,-0.1184707,1.891748,1.5034262,-1.6076573,0.24601695,-2.233041,1.1424234,-0.59566426,-0.073851794,1.254814,1.6280595
<http://prop.org/OX>,0.27731982,-0.3874397,1.384666,-2.0316415,-0.6888286,2.1565728,-2.8134797,1.2647461,-3.4206483,-5.160023,-1.166635,-1.4816077,0.77729714,-0.44615608,-2.7707994,-0.18003502,-0.053421788,-1.2294399,-0.53559697,-2.1952708,2.7237256,-2.3139408,1.9697462,1.7511387,-1.5044035,1.8403788,-0.1376884,2.8522892,-1.5393399,-1.4053949,1.0126023,2.1448667
<http://prop.org/oq>,0.6150989,-0.11851097,0.19265176,0.7187075,-0.34549317,0.79347765,-4.901668,-2.433984,-2.198078,-2.851161,0.92491114,0.9605371,0.042477414,-0.42077965,-2.0468166,1.0264615,-0.40604198,-2.8056872,-0.8675255,-0.96611977,2.4166079,1.0593584,3.1782267,2.8253973,-3.33793,0.9241477,1.1338968,1.5693506,-1.1947069,0.9456217,-0.53925765,3.3572204
<http://prop.org/mq>,1.5998402,-2.488939,-0.11103215,-0.21470349,2.140199,3.364754,-2.9015052,2.240202,-2.2712607,-2.249485,0.35125247,1.5802675,1.7059431,-2.76681,-1.0329883,-0.05247579,0.40772027,-3.2396245,1.1838868,-2.3890107,1.1863266,-0.59207994,2.9290159,3.1150587,-0.9405566,2.9308805,-1.1356764,-0.213835,0.4307628,0.53913134,1.2804725,3.3590965
<http://prop.org/GG>,-2.3657825,-0.930595,2.511528,-0.55219096,-0.91342515,0.8741749,-2.211068,0.61087376,-1.98315,-2.1725082,1.9087677,0.5946408,1.4014893,-0.33463654,-1.5034956,-1.176694,-0.966773,-0.65049046,2.8455436,-2.9904838,3.8088856,-0.9618161,1.883313,4.379414,-0.38094684,1.5443941,-2.1613877,3.8019795,-0.30332118,-0.57873875,2.5977223,1.2663403
<http://prop.org/oP>,-0.5333538,-1.7257181,3.2479417,-2.0677538,-0.060355403,-0.2045781,-1.7543002,1.4860383,-4.453643,-3.5448287,1.5901957,-1.848985,1.9883342,-2.8740582,-2.0670245,0.60785085,1.9335666,-0.10634054,-1.4249039,-1.2985114,-0.23753309,-0.9630564,3.727937,2.8562753,-1.9819585,2.8011405,0.28143778,0.5844284,-0.24748725,-0.66290903,-0.7688482,2.0274289
<http://prop.org/ln>,0.19040409,-3.4375262,1.8388089,-0.043443885,2.0421526,1.1238121,-3.195631,-0.8486543,-3.98757,-3.571891,0.5389824,-0.60999507,-1.8773035,-1.2391771,-1.9175556,-1.088729,1.8202019,-1.6566241,2.53527,-1.695386,1.2204516,-1.9770608,0.78433263,3.4009378,-0.17296664,1.5139635,0.46465808,2.442898,-2.3782141,1.4680557,0.23362443,2.1205285
<http://prop.org/BZ>,-0.044550877,-4.8018456,0.33834624,-2.2452407,0.9528522,-0.5486481,-2.4762964,-0.0041001127,-2.449153,-3.7578812,0.51845676,-0.66831833,-1.276085,0.4989954,-1.6153581,-1.7350066,1.2155282,-0.52295876,1.8487378,-0.54658353,3.9227862,0.6986656,2.5322838,3.307724,-0.14424731,0.65036243,-0.78548586,0.7771107,-1.2063743,0.028045986,1.2082047,-0.42130882
<http://prop.org/yv>,0.4688752,-1.989086,0.64771396,-3.487609,-0.45363542,1.4314911,-1.5149099,-0.8860843,-3.7045326,-2.662652,4.0559278,0.24078734,1.7236364,-1.4828773,-0.5626568,0.25352347,2.4965205,-0.6039658,-0.57380664,-1.2109071,1.6167994,-1.3647765,2.9193811,2.1803749,-2.6912193,0.63051254,-1.0179187,0.38639796,-1.0671413,2.077279,3.5506773,2.1385555
<http://prop.org/SP>,0.26771545,-4.371594,1.3392502,1.2307187,0.2589535,-0.59570587,-2.9849906,-0.018821932,-4.4832373,-3.2567742,2.2021852,0.9028421,-0.8076753,1.1442609,-1.2222674,-0.40603003,0.6519213,-2.6246073,0.6666614,-2.0219493,1.7611405,0.45465088,1.9329507,2.7130194,-0.32184997,2.777666,0.122395694,-0.06745795,-2.2851348,2.8911357,1.8436742,2.4202962
<http://prop.org/Tx>,2.0831149,-0.9111933,2.0760248,-0.705746,0.920928,-0.3253341,-4.1024485,0.04158978,-1.4043964,-5.783986,0.66033655,0.087347955,0.31886515,-0.8350315,-1.3552079,-2.37892,-1.3107716,-3.3831666,-1.6549563,-2.2792332,3.4885967,-0.19569428,0.4197686,2.6904433,-1.1744262,0.045223527,1.2191373,1.6814601,-0.40285724,0.6826067,-0.5757322,1.2891562
<http://prop.org/IS>,-0.7266349,-1.2727015,2.8319578,0.11188694,-0.79705435,0.11865029,-4.054293,-0.0046062027,-4.0630193,-4.1465445,-0.0056373114,1.8188602,0.8593381,-1.1085352,-1.9355906,1.7577142,-0.5322778,-0.24846378,0.64145744,-0.9938179,2.0446463,2.3613775,0.940096,2.2178686,-2.4545279,1.4278343,1.9900374,1.2394384,-1.2757084,1.2878009,1.2083898,2.1070466
<http://prop.org/BR>,0.15893726,-2.9492388,0.047236085,0.86083657,0.84375477,-0.06786071,-3.1656272,1.6407279,-3.4741375,-1.7808177,2.805643,-1.4345821,-1.3964835,-1.8012359,-1.0961106,-0.6060199,-0.44257292,-1.9773028,0.9440396,-0.30085745,2.2690213,-0.35538238,1.8391596,3.2124622,-0.52573806,1.913168,2.7727437,1.6073874,-0.04921675,0.8914613,2.5439615,2.483526
<http://prop.org/SH>,-1.2230562,-2.469277,0.14262849,-0.4964675,-1.84027,0.5543672,-3.6772065,-1.03478,-0.7118356,-1.6204143,0.9805578,0.42814907,1.0175166,-1.6835184,-4.3860593,2.3643403,-0.033708498,-1.7466954,2.0611453,0.106344596,2.3050654,0.39923722,2.497243,3.5466015,-2.4524832,2.1019819,-0.6505414,1.6630963,-2.0502293,1.788298,1.9512938,1.6044055
<http://prop.org/cX>,-1.8059537,-1.6975359,-0.59984714,0.63792014,-0.054223765,2.15844,-1.4327585,0.94825405,-1.1974312,-4.989117,0.5678805,0.026969206,0.4484638,-2.0986476,-2.1801488,-1.353248,1.8179625,0.084510565,0.6477254,-2.5381474,-0.8657043,-0.2808303,3.793841,3.3466551,-1.9823407,1.0920907,-1.4567902,1.3647141,0.47201872,2.094716,2.1500773,2.2633326
<http://prop.org/mx>,-0.05282465,-2.7914488,0.03746333,-0.27123457,0.44105628,0.89271307,-4.3347206,-0.77160645,-3.1995025,-2.0804186,3.1814454,-0.7201308,0.79050344,-1.294485,-0.5691331,0.63574475,-0.40502548,-2.8848755,-2.6385744,-1.6045598,3.0063512,0.20502684,2.545964,2.5219972,-0.26505902,3.5043616,-0.6067416,1.8083661,0.16650087,3.1944628,3.5250413,0.9526463
<http://prop.org/wH>,-0.8372659,-2.5098646,2.064201,-2.6152813,-0.31067997,-0.08973134,-3.7635984,1.774745,-0.4200515,-3.2682874,0.24978323,2.5260446,-0.8027599,-0.09740656,-0.5833573,-2.3324683,-2.6152802,-0.53633845,-0.2209748,-2.6736493,1.5319633,-0.53570265,2.0683384,3.1118064,-1.5414953,1.897684,-0.08895505,2.0202022,-2.313259,2.4491463,1.6705861,2.0578754
<http://prop.org/Dx>,-0.8316372,-1.390933,1.1240845,-0.1634514,1.5732832,-1.2979137,-3.6371686,-1.3546357,-2.2105212,-4.113633,2.8652108,1.7349923,-0.20334823,0.29930043,-2.3782318,1.2405806,0.26783884,-2.4634957,1.4164408,-3.9961584,1.2962393,1.305856,0.46487194,4.357342,-0.051479362,2.3224947,-0.07702227,1.2794635,-0.1203049,-0.25891623,-0.2729963,1.3219929
<http://prop.org/eA>,1.8352352,0.15059783,1.1084855,-0.88973933,-0.50038767,-0.82796794,-1.6384223,0.94830203,-3.4165328,-4.906147,-0.03917151,-0.09184041,1.0217987,-0.978437,-1.5045658,0.17743193,0.81528723,-2.24781,-2.4088848,-1.0381236,-0.45179397,1.029774,3.737886,4.0226045,-1.2771058,1.4445257,1.5390931,-0.06968624,-2.5671282,-0.30082014,2.1669347,3.5530324
<http://prop.org/vS>,0.59881663,-2.133997,-0.10586083,-0.77941585,-0.6547103,0.4454341,-2.7432146,0.8343332,-1.8035713,-4.866776,0.850291,1.11638,-0.0058977436,-1.9503754,-0.17257367,-2.3132856,0.459845,-2.1184623,-0.7203714,-2.6558914,1.379978,-0.7095537,2.098605,4.580694,-2.4336836,-1.1697879,-2.1854572,-0.7876207,2.6783755,-0.019493802,1.3839349,1.0573133
<http://prop.org/zW>,-0.270313,-1.0260293,-1.9331429,-1.0541258,0.89634055,2.0616112,-1.6090446,2.2040818,-1.0211201,-2.8294077,3.0614178,0.27426243,1.196951,-2.4142315,-2.4502795,-0.406579,-2.3236642,-2.1698027,0.6525821,0.34914464,0.43564895,-0.08629347,3.496564,4.4629965,-1.9543562,1.7737916,0.35329476,2.6161127,0.05665989,-1.0712258,0.94096917,2.0483654
<http://prop.org/Nd>,-1.5720018,-1.3857131,-0.1438863,-0.57053775,2.1460738,2.5676312,-4.868604,1.970681,1.9253494,-3.120406,1.4261551,1.79894,-0.42797947,-1.6349808,-0.20977694,-1.5258362,1.2050432,0.13286898,1.5691366,-2.2249665,1.6237983,-0.7600715,2.5689294,4.8095713,-1.8197776,0.58375454,-0.7409351,-0.6328683,-0.6027865,-0.00899078,0.8257403,2.1586132
<http://prop.org/DG>,0.35991487,-1.6311102,0.97986466,0.5263483,1.0387064,0.9795263,-2.127309,0.81739837,-1.4756044,-4.454225,1.162808,1.8647798,-0.5147214,-0.8796638,-1.6587383,-0.37244684,1.3464305,0.37793782,-0.3009221,-2.201725,2.01608,0.27125424,2.9286764,3.7505016,-3.2891328,0.8428877,-2.6985023,-0.6544418,1.023839,0.89727265,1.4625717,4.7152057
<http://prop.org/DM>,1.2559549,-0.31814942,2.08118,-1.3455416,-1.8543732,0.40311438,-1.609287,-0.54248834,-2.765646,-2.7665646,2.2627838,0.15885039,0.5091292,-0.82026035,-1.0241737,-1.0296439,1.0510643,-0.35673684,0.77342796,0.7718805,1.8855267,0.61170864,3.4964762,4.973585,-2.3299909,0.480806,0.4646622,-0.27245063,0.6162876,-0.19306855,2.583188,3.4252975
<http://prop.org/gu>,0.4856484,-0.8571327,-0.28357068,-1.8970008,-0.16964069,3.273364,-2.9803877,0.5325648,-1.2396073,-2.7750683,1.8227,0.8917982,1.2132083,-0.93065494,-3.6022153,1.1327003,-1.4084364,-3.4817102,0.45700008,-1.0745946,0.85595316,-0.12326659,2.6821792,2.3175182,-0.9932809,1.5954945,-0.47588432,0.8349933,-0.6748252,-0.23357016,1.72809,4.2685986
<http://prop.org/Fk>,-0.8624401,-0.55239433,0.21841794,-2.0336359,1.5843903,-0.5461995,-3.1376216,1.0648218,-3.349708,-2.8077497,-1.0579764,-0.18106048,1.8242816,-0.93305904,-0.4325302,0.7114045,1.6315745,0.26413062,-0.25734642,-2.4263413,3.158457,-0.2659124,1.9347517,3.3110301,-1.5139989,-0.54553705,-1.3184379,2.3328388,-1.1905928,2.9244988,2.2174027,3.1702797
<http://prop.org/IB>,-0.22252859,-0.98656756,2.820378,0.5764937,1.0487887,1.442722,-1.0201417,0.8915304,-1.5733846,-4.454554,1.0927855,-2.8413193,1.043592,-1.5570537,-1.0507921,-2.9537523,-1.5704893,-3.1964874,0.82793546,-0.123158775,1.725288,-1.1029958,1.0836346,4.310638,-0.3940872,0.78772634,0.079979725,1.994502,-0.5720063,0.3317048,-0.3189707,2.6480446
<http://prop.org/Ga>,1.5763717,-2.179459,0.81259423,-1.4526724,0.13212648,0.77936316,-3.1295774,0.6966603,-0.5738168,-2.8479226,0.8174951,-0.57418334,-1.5578021,-0.34506738,-1.3613156,-2.1515312,1.3250586,-2.5312614,-0.70930606,-0.31268358,1.3852957,-0.8293319,2.9236305,6.1649456,-1.4411913,2.181062,0.47048986,2.7297845,1.1221318,-0.66564995,0.17356947,1.2234284
<http://prop.org/aK>,-1.4877049,-1.898773,-0.48717362,-2.417635,-0.20441169,0.9947674,-3.090956,-0.044946358,-3.4708824,-3.189133,2.0755565,0.8709062,0.14544472,-0.24702412,0.3085668,3.1529534,-0.11464908,-0.4599543,0.67483854,-0.9101794,2.0430622,-1.7884387,3.5437248,4.0139465,-0.96976185,2.5368388,-1.1283654,0.12161349,-2.4243479,0.5966027,2.192461,1.66595
<http://prop.org/pM>,-0.9298446,-2.1413882,2.2563632,-1.3820957,2.3881261,0.27759957,-4.228081,-0.39663747,-2.1412454,-1.5058109,1.6344972,-0.94654226,0.96001035,-1.3836651,0.048362147,-0.62073386,1.1872764,-1.383814,1.9155508,1.0268675,2.1685088,-0.57370174,3.8875437,0.9512506,-1.7000656,1.3703758,0.50985205,3.3235478,-1.3276126,1.4311537,3.2537649,1.5844017
<http://prop.org/sX>,-0.28490975,-3.556688,1.1553413,-1.4650837,1.1952153,0.6991012,-3.7689555,1.3085248,-2.3724637,-2.1766233,4.8680005,-0.18586381,-0.12772673,-0.2518162,-2.747358,-1.466753,2.1320453,-1.5037625,-0.08480137,-0.74006414,0.08534684,1.284534,2.6301181,2.2453663,-1.1957169,-0.0885467,-2.7530518,1.9254055,-0.539027,-0.56010437,1.2589147,2.3223386
<http://prop.org/fb>,-0.06072905,-3.010251,1.4819939,-0.26120982,1.1673181,0.16326638,-4.3325276,-1.6593338,-3.6684616,-2.6301713,1.6463374,1.0530789,-0.8837216,0.39731583,-3.118412,-2.6633413,-0.8316927,-2.1730757,-0.10345935,-1.3210659,3.1247551,-0.7207087,1.2968439,1.9639311,-1.703362,2.0696802,-0.98998207,-0.103658356,-0.9984962,-0.40096378,1.6535673,1.037428
<http://prop.org/um>,0.46716475,-3.0705614,1.10755,-1.2225306,0.5816459,3.934108,-3.0342467,1.046493,-2.0624843,-3.2272496,1.5815246,0.16569519,1.5312251,0.56957006,-1.3277154,-0.663818,-2.0030994,-1.2751004,1.7044934,-2.6209543,3.1271107,2.220779,0.4096195,2.772727,-0.5003687,2.291515,-0.9294011,0.32564992,-1.5617758,0.4975657,1.5187528,1.0226524
