,0,1,2,3,4,5,6,7,8,9,10,11,12,13,14,15,16,17,18,19,20,21,22,23,24,25,26,27,28,29,30,31
<http://linkedgeodata.org/ontology/nuclear_explosion%3Asite>,2.2962296,-1.4510889,-1.7606456,-4.0731406,2.0385504,-3.1642194,2.4792705,3.8825247,2.671726,-1.4577125,3.0585282,1.1188612,-2.6571097,2.035403,-2.748594,-3.4724772,-1.1624203,-2.9853714,-1.7848821,-1.7236398,-2.6968184,1.3523136,1.0739759,1.8041371,4.240234,2.0069997,3.2970707,1.911981,2.083919,1.396511,1.5184267,3.1757698
<http://www.w3.org/2003/01/geo/wgs84_pos#long>,-1.619329,-1.1756767,-2.7166522,0.008888447,1.8749996,1.2853061,-1.3791121,1.0601493,-1.8165104,1.767424,1.2767361,-2.7165773,-1.3266015,-3.4952993,0.9058412,1.4701388,-1.645061,-2.2751386,-0.06559142,-2.6052947,1.8635238,1.2947631,-1.9302814,0.23867822,2.0130067,2.089919,2.5338047,1.8031569,-2.4377718,2.8197634,-1.370494,3.1853023
<http://linkedgeodata.org/ontology/nuclear_explosion%3Aheight_of_burst>,-0.70331913,0.62129563,-2.4212651,-2.9071677,-1.9627382,-0.058606364,-1.4574479,-0.18979299,0.04745146,-1.3388557,3.1769354,-0.36081874,3.3749995,-4.058489,-0.73553896,-2.193099,0.049060557,1.9186072,-3.518136,0.20194605,-0.047233876,-2.0830383,1.2416036,-1.5796362,2.4875386,1.5303433,2.336854,2.481197,-1.1642296,0.70860046,1.6547579,-3.1087604
<http://purl.org/dc/terms/modified>,0.9434729,2.1673539,2.42226,2.7780075,1.2384061,-2.190513,1.5819836,0.50559807,-2.629893,2.116314,1.6996471,-2.4884503,0.50102156,-3.1191428,-1.4011708,2.2783911,3.1429129,3.0201278,-2.012008,-1.1730345,-1.9792752,1.461304,-1.5924122,-2.3251748,-1.8517878,2.2577102,2.2469196,1.3138322,-2.6482844,-0.07384139,-0.24561226,-2.4073265
<http://linkedgeodata.org/ontology/version>,0.6618101,-2.0711644,-2.4263017,-1.996466,-3.018023,1.7532982,-4.4987106,2.6220093,-0.93566424,0.97160834,3.9564846,-1.0926603,4.360144,-2.9890344,-2.4759686,-2.8929393,1.9897105,1.7791495,1.3511236,-1.4364368,2.375904,0.36035383,3.084242,-3.0571609,3.1591613,2.3516333,3.2286017,-0.6120603,-2.0600672,-1.9886253,-0.64176774,-2.8350203
<http://purl.org/dc/terms/contributor>,-2.5993276,1.7297523,-2.4343646,-1.3802168,1.6680977,1.4037358,-0.37403616,2.3766098,2.0592403,-2.189527,-1.25223,2.6112087,-2.56338,2.3065045,2.3528953,-3.490515,2.7073665,2.1713707,-2.413931,2.6150134,-2.6445727,-2.563927,-2.347792,1.6732483,-2.3383608,-2.3652875,-1.0685709,-1.7437607,-3.683381,-3.29236,-2.955357,-2.9729881
<http://linkedgeodata.org/ontology/changeset>,-1.9182407,-2.9932382,0.35742828,-1.3414354,-1.5433757,2.1300166,3.0088034,3.536728,1.6688823,2.077574,2.4428556,2.0641458,-1.6671385,-3.149543,1.5895542,3.3144174,3.1121964,-2.3951063,2.4474418,-1.5531006,-2.080441,2.24075,-2.3794777,-2.7388687,-2.013705,-1.851156,-1.6155106,-2.742739,-3.0918427,-2.5115185,-2.560497,2.3717468
<http://geovocab.org/geometry#geometry>,-0.6850364,-2.8853738,0.39392108,0.5674813,1.0458218,-1.8925716,2.7522078,-2.9765718,-2.0620213,-2.3831723,0.18539844,1.2486359,-1.2294618,-1.6139657,-0.60191625,-1.62439,-0.9159948,1.0780271,1.5292748,1.6559261,-2.221655,1.6322292,1.968043,-1.9128284,2.1803353,1.4778901,-0.05196544,-2.0366187,-0.7482926,0.11264274,1.5277755,2.0645838
<http://www.w3.org/1999/02/22-rdf-syntax-ns#type>,-3.4495516,1.8964326,2.0561764,1.2714534,-0.51599336,2.1057377,-2.363435,-1.9795346,-3.4847732,2.4216652,2.4661977,2.6829624,2.8917303,2.1797962,-1.8887019,2.6990287,-2.8907235,1.3266373,-2.6187224,3.3680801,3.5736358,-2.634025,2.3578703,2.1561065,-3.4942858,2.740817,-1.8961797,-1.5928798,1.5450087,-2.8586524,2.1382616,2.4059355
<http://www.w3.org/2000/01/rdf-schema#label>,3.041843,-2.462648,-2.9734995,-2.1021893,0.7455029,0.86573046,-5.7247253e-05,1.6753279,2.2673361,-2.2938695,2.6778004,-1.9784355,1.8055245,-3.2168787,0.8536477,-0.021898394,0.420079,1.7066936,-2.8918242,3.0125816,2.0163653,-3.5941975,1.0803645,0.13842802,0.20224655,-0.4787044,2.1087325,0.37306434,-0.77034956,1.2756393,3.1205764,-3.6029422
<http://linkedgeodata.org/ontology/nuclear_explosion%3Aseries>,1.6453001,4.1060143,-2.4674945,-2.9580224,2.642748,2.0050228,-2.571709,3.3644402,1.57612,-2.4219096,2.3444626,-1.4069176,-2.0612023,3.0005167,-2.217862,-2.2417548,-0.7273754,2.7734342,-3.585621,1.9456561,-2.175591,2.020719,-1.4369972,1.2892487,3.0950189,1.4926349,0.3917376,2.9702315,0.5963154,-3.1345978,1.4172431,-3.35117
<http://linkedgeodata.org/ontology/nuclear_explosion%3Aground_zero_altitude>,0.81170714,-1.6104026,0.037782803,-0.76541656,-0.6266804,-1.1267862,-1.6718278,-0.70952964,1.0585651,-3.0590863,3.6894863,0.8871523,3.8559165,-3.9230278,-0.2860351,-0.8313,2.0407746,0.30671537,-3.4862988,3.6251407,1.9336839,-3.5605931,-0.016808065,0.48929757,2.760558,0.4849221,4.1249347,1.3768172,-0.025534961,-0.83974683,2.4799392,-3.3992746
<http://linkedgeodata.org/ontology/nuclear_explosion%3Ashot_name%3Aen>,2.9936314,-2.452975,-2.9278662,-2.162294,0.8645453,0.8555088,-0.004721983,1.5741217,2.2427034,-2.338024,2.6866317,-1.920699,1.7986428,-3.194298,0.85517454,-0.018673843,0.4652716,1.7169973,-2.9642487,3.0352025,2.2002068,-3.6351757,1.1208421,0.22212845,0.15383974,-0.498207,1.9431907,0.37486225,-0.8183567,1.2249718,3.056799,-3.5989735
<http://linkedgeodata.org/ontology/nuclear_explosion%3Atype>,1.136594,-4.093429,1.867221,-1.465678,2.186896,2.7946203,-2.7533813,2.2505085,-3.629576,2.8801165,2.9618607,2.9329774,3.2619157,1.2164097,-2.7256134,1.9601367,-2.0317988,-1.9546788,-0.029274149,3.3289,-2.256481,1.738976,-2.3015726,2.8442152,-2.842398,-3.278529,-0.7036226,2.3848548,1.9507784,-2.0944576,-2.043308,-2.9119437
<http://linkedgeodata.org/ontology/gadmSameAs>,-2.2593741,-2.285743,0.56443506,-2.2588437,2.2833111,1.3367889,0.22761722,1.1941602,1.4177625,-2.4996321,-2.757702,1.5142865,-2.5023234,0.8123382,2.19915,-1.2411287,-1.9274458,-1.8355142,1.4768775,-1.9784508,1.2397654,-2.093909,-1.487097,-1.8257278,-0.08002729,-1.6763256,-0.9875095,3.0821679,1.3093457,1.9763662,-1.1686045,-1.2535114
<http://linkedgeodata.org/ontology/nuclear_explosion%3Ayield>,-3.0354059,0.8897133,-0.74512815,2.143756,-1.1445261,-2.2805493,-3.1844015,2.6900804,-1.9724798,-2.299957,-3.0314915,-2.5448334,2.9764423,-3.1414063,-1.6451328,2.5992434,3.214214,0.57691956,2.174409,0.9972441,1.8927752,3.1158738,2.474146,2.1521246,0.93975174,-2.0317578,-1.683479,1.0312982,-1.8468567,-1.7209715,-0.5308932,-1.8336678
<http://linkedgeodata.org/ontology/nuclear_explosion%3Awarhead>,-1.376792,1.7193749,-0.5546039,0.9500669,-2.0317748,-1.7283108,1.0793163,-1.8260041,-0.58963495,2.118075,2.3129096,1.5057,3.9694827,0.12621002,-0.32140335,3.1474624,1.6172756,-1.3774619,0.3341658,1.6883056,-1.7658339,-2.9120312,-2.119003,-0.33618692,-2.5153294,-2.0176308,4.1119685,0.36391535,-2.1716032,-2.428597,1.7325912,-1.4268209
<http://www.w3.org/2003/01/geo/wgs84_pos#lat>,-1.959187,-2.050865,0.75724304,2.6111252,-1.5242825,-2.250517,-1.9591168,-2.0968294,-3.1541898,-2.1685846,-0.719357,1.8119913,-1.591513,1.3499367,1.8177024,3.051082,1.6996725,1.5689684,0.8651131,-1.3207105,0.9896859,-2.1306057,-1.2230034,-0.5172893,-1.9065368,-2.324028,-0.37602067,2.5325925,1.5699762,-0.97377235,-3.2069416,2.135057
<http://linkedgeodata.org/ontology/nuclear_explosion%3Atime%3Autc>,-1.0770502,-1.3987737,-1.8683836,0.56051445,-1.1350121,-1.8691008,-0.55885905,1.440818,-2.1455047,-2.031149,-1.2782215,3.1743495,2.247244,-1.3535126,2.0062177,-2.9154472,-1.3418322,2.1485586,-3.3172076,0.26803237,2.1216369,-3.0212188,-0.15022942,-1.1324228,2.572342,-1.6509658,2.5435672,-1.5529332,-1.9180293,-0.67772955,-1.7378345,2.4191902
<http://linkedgeodata.org/ontology/nuclear_explosion%3Acountry>,2.539257,2.6514368,1.646556,2.2490127,-2.0570638,-2.9422433,-2.889,2.7217321,-2.8824458,1.9640237,-2.3405018,-2.6182363,-2.8042803,1.6068348,-2.2902734,-1.9663101,-1.5899415,2.5857131,2.0317938,2.504348,2.8392642,2.5105174,-2.5871198,2.5107746,-2.2783983,2.661228,3.2705538,-2.3649478,2.03705,2.2074466,-2.710017,2.4988282
<http://linkedgeodata.org/ontology/nuclear_explosion%3Adate%3Autc>,-1.205312,1.9917405,-0.8771837,-1.3420552,2.3665645,1.0176654,3.63517,0.14186563,-3.7838302,0.38609508,-3.0580115,0.724347,-0.24480571,-0.5322443,1.9340652,0.24064727,-0.08611158,-2.222032,-2.100619,1.233293,-2.7824488,-3.5553637,1.9641492,2.1635725,-0.9776361,2.1834838,1.7266823,-0.6023007,-2.0912104,-1.6204722,2.582003,-0.6111987
<http://linkedgeodata.org/ontology/nuclear_explosion%3Apurpose>,3.1675835,2.8077502,1.703234,-2.6385787,-2.6815863,-1.3134066,-2.3449965,-2.645891,1.4834646,-3.2565258,2.7959933,-2.7553337,2.8579845,1.9024734,2.9781134,2.7837968,2.963512,-2.2888465,-2.8860548,-1.7958921,2.2579854,-2.4132652,2.2591789,-1.799929,2.3635771,2.7102056,-1.1704977,-3.7800105,-3.0862095,1.3002844,3.4246836,2.2348955
<http://linkedgeodata.org/ontology/nuclear_explosion%3Ahole>,1.173787,-2.0259507,-2.4509084,-1.6514654,2.4362347,-1.2922869,-0.70854706,1.177549,1.3803345,-1.9283706,0.70989716,1.9131111,3.7677293,-2.846694,1.7149541,-0.9300606,-0.62267476,-1.1978813,1.4080305,3.0249522,1.3953906,-3.372261,0.8932439,2.2313054,1.1752028,1.209021,0.03753303,2.864759,1.9522518,1.565328,3.59657,-0.6576703
<http://linkedgeodata.org/ontology/nuclear_explosion%3Asalvo>,-1.5013038,-1.5007758,-2.7915375,-1.6665848,-1.9533567,-2.2442234,-2.4675658,-1.357139,-1.8492835,-2.775457,2.5352387,2.7796676,3.201741,-2.753896,-1.891952,2.7820113,-1.4193199,2.33242,1.6085793,1.9997545,-0.71321654,-4.1769147,-1.9594122,0.77101976,-2.0483663,-2.9173574,-0.40132913,-1.7332338,-2.0899456,-0.6905836,2.05919,-0.994894
<http://linkedgeodata.org/ontology/ortenau_bunkermap>,0.64213973,-0.9451278,-1.6732181,-0.92623305,1.8057588,0.08890138,-0.26189438,2.0614305,0.7615211,-0.19336541,1.1472042,-1.5298246,3.5804625,-2.1196256,0.32279548,0.18564002,0.91738516,2.6146612,-3.099604,1.1627042,-0.6229322,-0.41493973,0.86868995,-1.7428973,-0.9485055,0.57692385,1.6763916,-1.2373241,1.4919932,-0.20688829,-2.644359,-0.79771155
<http://linkedgeodata.org/ontology/nuclear_explosion%3Abody_wave_magnitude>,3.8763943,1.7283782,2.510079,-0.9327289,-1.7173458,-1.1111972,1.0320685,-2.4871597,-2.0440044,0.01132012,2.5894802,-1.8220125,-1.7508081,-2.4712067,-2.485468,1.2364881,-2.368356,-1.856971,1.877234,-2.3282773,3.6533697,-2.6170514,-1.0294801,1.2205318,1.3474337,2.7123802,3.567646,-2.6147878,1.4011271,1.698848,2.583779,-1.6238285
<http://linkedgeodata.org/ontology/line>,1.21509,1.0041022,-3.6646976,-1.1060456,-1.281176,-1.4529462,-1.3179355,0.043936346,0.24923731,-1.0056046,1.6503712,-2.118487,-0.21995702,-0.0011536832,1.2948003,0.9703781,0.12650397,2.2134802,-1.1819463,1.4431113,-0.13421516,-0.45029438,1.9574952,3.378668,1.362255,1.8085461,0.6123997,0.68474776,0.009163805,0.21795869,0.20551255,-2.6604352
<http://linkedgeodata.org/ontology/wikipedia>,-2.4685512,-0.5610624,-1.460376,-0.7733566,1.3743999,-1.4204385,0.40050727,1.266112,-0.25646517,-0.57013184,0.20807675,-1.7093406,1.5707767,-3.3894553,2.2275193,-0.48772016,2.7301679,-1.495154,-2.8704188,-1.5439905,1.812777,-0.72254014,1.1990008,2.1280997,-0.7160653,-1.2390395,2.027255,-0.37824786,-0.014226468,1.2908922,1.8164369,1.0787472
<http://linkedgeodata.org/ontology/comment>,0.73049873,1.8426654,-0.6007603,1.4614152,-0.28509676,-0.8126734,-0.68892914,1.2341378,-1.6303637,0.2931711,0.12520204,-1.5408446,1.2302814,-0.8119494,-0.90483314,3.6729925,1.8782254,2.2422428,-2.4611948,1.5682269,1.0011784,-2.2173316,0.5819838,1.8478445,-0.36717138,-0.18214688,-0.350792,1.2087578,-2.5589762,0.7496561,0.65190995,0.112643406
<http://linkedgeodata.org/ontology/disused>,-0.051387977,0.76062274,1.9156424,2.9311767,-1.4997874,-0.8290742,-1.6612263,0.40885118,0.7943832,-1.3694483,3.1789217,-1.8709586,1.486687,-1.8067291,1.9082774,0.7349316,0.81784,2.946913,-0.7484089,0.36102706,-0.49729982,-1.702159,0.38374484,2.7082396,-0.8401241,0.7826515,1.7251663,-0.0077396375,0.10692512,0.26966217,0.55975676,-0.6512694
<http://linkedgeodata.org/ontology/ref%3Aropiky.net>,-0.20666853,-1.011749,-1.0794234,2.0755348,-1.7232549,-0.34322637,0.41783422,2.4610784,-0.08735189,-0.13795508,-0.9790357,1.4318546,3.0328963,-1.5364097,-1.8744111,0.7947405,0.040491812,1.6204188,-1.3366858,-2.0553284,1.8453729,-1.6365448,1.8419161,1.2171513,-0.42222828,1.3927677,0.3671071,0.97480416,-2.9127238,-1.1935614,0.23309048,-0.7154969
<http://www.w3.org/2004/02/skos/core#altLabel>,2.3234613,-1.6770642,-0.76954025,1.0101933,-2.1816878,0.2682861,0.4740518,1.1354225,-0.8071144,-0.21589345,3.9262843,1.1432846,0.05886533,-0.5590731,0.64034945,-0.12055827,1.4134566,-0.06863707,-1.4929368,0.7895701,1.7024726,-3.3291118,0.28611648,0.154483,-1.6186471,1.2775241,0.081390895,1.3878752,-1.188984,-0.9788522,0.534601,0.25761637
<http://linkedgeodata.org/ontology/layer>,1.7992857,0.3763583,-0.18925498,-0.77502525,0.091201656,0.22249335,0.938148,2.1882398,-1.8616086,-1.0202056,0.31847873,1.2574857,0.7312255,-3.5429215,0.1701559,2.085467,1.4155874,-0.37271306,-1.1293613,-1.2359668,0.71133715,-2.3114579,0.91644686,-0.123680286,0.5144826,3.0570114,0.7720902,-0.7625441,-2.4774299,-1.326973,-1.1279643,-0.92650014
<http://linkedgeodata.org/ontology/location>,1.205978,-1.1085392,-0.551062,0.5097686,-0.99400073,1.923235,-1.6850643,1.1319796,-0.8382432,1.7605479,1.141628,2.4445014,2.8124874,-0.62420595,0.14987122,3.0917935,1.8815802,2.293108,-0.28437084,2.1390128,1.5331904,-0.10665228,0.61764985,1.5201054,-1.0390013,-1.8220001,2.0625906,2.19872,-1.5268661,-1.991084,0.40994492,-0.75046456
<http://linkedgeodata.org/ontology/note%3Aen>,-1.6290864,0.1254145,0.8755241,-0.30479118,-0.013248395,-2.4347298,-0.95333,-0.41936284,-2.938976,1.9857868,0.9847636,-2.171609,3.4557416,-1.402001,0.79949254,1.1857942,0.38138646,0.35898772,-1.1129541,-1.0535158,1.0023608,-2.110712,0.6245793,0.11001848,-2.2320132,0.42699534,1.5343597,-1.9746498,-1.622508,-0.86004645,1.3123262,0.12957211
<http://xmlns.com/foaf/0.1/depiction>,1.3776239,2.0766046,-0.4918512,0.34313503,-0.73401415,-0.029150536,-1.0734767,-0.8086718,-0.70909375,-1.4528583,0.8341835,-2.4981973,1.7833152,0.05964236,1.0745978,-0.0033612954,1.6241773,-0.09272793,-1.7372069,-1.3667006,1.7005695,-1.8141813,-0.42009756,2.3313406,-1.9822834,1.2890991,1.742917,0.84250516,-2.1180632,0.23470311,-1.1689425,0.08162687
<http://linkedgeodata.org/ontology/nuclear_explosion%3Adevice>,2.1900356,-2.0492666,-0.82571894,-0.2773419,-1.023004,0.7994597,2.321958,1.3304412,0.63702023,3.055166,1.8553998,-1.5947406,0.79436976,1.024339,-2.4395356,2.3838794,2.4053476,0.492346,1.5657412,-2.637614,0.8131893,-2.6603942,-1.1581748,1.2856894,0.16511649,-2.895818,-0.42163986,-1.2116071,-2.799986,-0.8558189,1.614165,-1.5774461
<http://linkedgeodata.org/ontology/note%3Ade>,1.4430437,1.4692929,0.2902961,1.342822,1.2445992,-0.15213527,-0.32998377,0.3824832,-0.008341934,1.7932402,0.3116148,0.16355021,-1.2788295,-3.1976404,1.0898061,-1.5644428,0.40135092,0.20930004,-2.8425555,2.4137237,2.7713416,-0.96968985,1.2026986,1.063897,0.26618403,-0.57331634,3.501675,0.053324986,-0.17259477,0.6611893,1.3568662,1.917732
<http://xmlns.com/foaf/0.1/homepage>,1.8378909,0.55935496,0.70724374,-1.1524832,0.9279178,-0.021520004,-0.31636924,2.0670388,0.9964518,1.330568,0.15768163,-1.5819373,-0.8457975,0.5130221,-0.91403925,2.1631339,-1.3886158,-0.12854399,-0.1125876,-0.1863475,-0.50351584,-1.9512867,-0.7532223,0.7592646,-2.1473677,-0.3727265,2.7849405,1.2341284,-3.2370205,0.41756186,0.36250085,1.0858877
<http://linkedgeodata.org/ontology/access>,1.9786843,-0.04932754,0.17522974,0.07955898,-0.14573193,1.088498,0.7130604,2.0202227,-0.6670093,-0.6122063,0.80421925,-0.28006428,1.9136485,-1.5773686,0.469923,2.0078535,2.4186869,-0.101128675,-1.6763476,0.87080556,-0.22925524,-2.415786,-0.76686794,-0.2871833,-1.1695603,1.9141259,1.3487071,-1.0541815,-1.0659466,0.96774876,1.9843147,-0.7531162
<http://linkedgeodata.org/ontology/source>,1.5285611,0.13741659,-2.6434608,1.0360489,0.088605605,-1.7999663,-1.4160237,2.190788,-3.208229,0.38091725,2.628495,-2.204936,2.6059015,0.7281208,-0.79652345,-1.3789033,1.5002528,2.0712833,1.3700573,-0.85582453,0.6995383,-0.04755757,1.6258886,-0.8208489,1.4294329,-1.7924416,2.6349201,1.8847741,-1.2828193,1.6619335,2.5472014,-1.8176881
<http://linkedgeodata.org/ontology/note>,-2.3387938,1.776032,1.5451874,0.16247216,-2.1077056,1.6336439,-1.4598361,-0.47446087,0.57604927,3.1433816,-0.510135,-0.5410763,0.9665917,-1.3357937,1.092387,-0.63218194,2.3545594,-0.09862911,-1.8786875,1.5775924,0.8105199,-0.0034965356,0.9712226,-0.32968953,0.07465311,2.4501736,-1.4100864,-0.38373962,-3.4976027,-2.0509744,-0.741931,1.4816847
<http://linkedgeodata.org/ontology/destroyed>,-0.94227827,0.13436286,-1.4142524,-0.32992274,0.7005679,0.02177702,-2.8928485,2.0733216,-0.031238385,-1.6609285,0.65021235,-1.9990047,3.121188,-1.8778499,-0.35800523,0.05079509,-0.019928565,-0.060034364,-1.7986733,0.11338503,0.05825411,-2.8364172,1.3971425,1.9647444,-0.49530312,-0.37009433,1.4873903,-0.50186056,1.3431913,1.7397444,-1.6153699,-1.3892188
<http://linkedgeodata.org/ontology/createdBy>,0.7172098,2.949892,0.059388332,-1.9893918,1.3169032,0.06685096,-0.58591,-0.40090352,-2.2276506,0.50937235,-1.2772045,-1.033086,-0.8361809,-2.1165516,3.4685562,1.152429,-0.95578134,0.29025063,-3.0179214,1.7393132,1.4379492,-1.4586076,1.5971487,0.96499664,-0.45042077,0.9108491,-0.06061378,-0.6781921,-0.5825639,-1.4109514,-0.6756383,-0.2695526
<http://linkedgeodata.org/ontology/bunker_type>,1.9046797,0.73589885,-0.77684325,-1.093384,-0.5295483,-1.6466656,0.22607964,1.1099159,1.0746137,-1.6845461,0.30581743,-2.1542127,-0.9293693,-3.314767,1.0020682,-1.0360446,1.4299428,-0.34284583,-1.5890563,0.22348739,0.089706786,1.0354605,-1.249822,1.9029831,1.9402988,-0.08022159,2.7923238,2.9411194,-3.9744804,-0.44260967,0.42037767,0.027903147
<http://linkedgeodata.org/ontology/fixme>,-0.30640125,1.0661182,0.6260348,1.2236105,0.015571343,-1.7362826,-1.5881433,1.4793164,-1.024275,0.13878222,0.99926215,-0.6960429,0.6722073,-1.8665168,1.1492425,1.2904245,0.049213253,-0.37888235,-1.6970792,-2.2150931,3.7181857,-3.086146,0.0040974026,-0.040135965,-0.64597875,-0.73525316,0.20281039,-1.2836666,-2.7764454,2.214613,1.0023872,1.2001259
<http://linkedgeodata.org/ontology/ruins>,0.54673374,0.11042288,1.459813,3.401863,-0.64699644,-1.055512,-1.69004,0.36702937,0.09825046,-1.1152891,2.2014005,-2.294674,1.1440821,-0.78639954,3.2273571,1.5899513,1.1372638,2.8836532,-0.93684286,0.26122192,-0.40267423,-0.805785,0.5624096,2.3987856,-0.3109326,1.2289773,2.428258,-0.23789859,1.7335448,-0.26446578,0.24846815,-0.34483698
<http://linkedgeodata.org/ontology/nuclear_explosion%3Acrater_diameter>,0.6060379,0.28971627,-2.9539478,-2.1903963,-0.13638201,-1.5054263,-1.1468333,0.27744284,0.90816045,-2.0418544,2.4120536,-2.0053208,2.7714636,-2.306904,-1.5712072,-0.97176826,-0.150047,1.961181,-1.5090362,0.05616904,1.2333047,-3.2678747,0.31588092,1.0077078,-0.3278931,0.8189898,1.5983388,0.7406627,1.1426315,-1.7998887,1.227568,-1.8759154
<http://www.w3.org/1999/02/22-rdf-syntax-ns#comment>,1.6284899,2.5365427,-2.795917,1.2661898,-0.016517747,0.57502776,-2.5554168,0.86648536,-1.5686663,2.1053994,0.22113144,1.1664994,1.0707258,-2.4739509,1.2388458,0.31246737,2.5151947,1.3512243,-0.7675981,-1.4261658,0.57216966,-0.5246838,-1.4416387,0.090147294,1.0743054,0.7255009,0.024967512,0.39269865,-0.355075,1.481612,-1.1936115,1.8645705
<http://linkedgeodata.org/ontology/ref>,-0.6268356,-0.89651394,-1.2265687,0.82758087,3.790322,1.0041796,0.29968524,1.0735427,-2.6225305,1.8980399,-0.084167056,-1.2759517,0.53734046,-1.5614218,1.8946848,1.3215649,-1.9520379,1.8533776,-0.19586049,-0.9570185,0.195771,-2.2042289,2.5647998,0.4532311,0.114835426,0.27839008,1.3320583,0.77979696,-1.8686845,-2.6060822,2.2576025,-1.155838
<http://linkedgeodata.org/ontology/ele>,1.8294007,0.9606828,-3.479627,-0.6761435,1.1361521,-0.4870454,0.12741333,0.6211905,-1.0964408,-1.492778,1.428553,0.54676837,1.0068377,-2.629075,0.20664805,0.16869278,-0.03691283,2.3727076,-0.9945497,-1.7542152,-1.2720587,-0.7391155,1.375941,-0.62878776,-0.112044044,-0.4727646,1.5014914,1.189271,-4.0120535,-0.00778445,-0.11192521,2.7848115
