,0,1,2,3,4,5,6,7,8,9,10,11,12,13,14,15,16,17,18,19,20,21,22,23,24,25,26,27,28,29,30,31
<■0■QCXjtgDyXkRpVMwMMpMpYLwRKVMEozGb>,-0.9545251,-0.69445455,-0.18810968,1.0649303,0.8746104,-0.25729513,0.936876,-0.82439655,0.5525829,0.046124153,0.3840062,-0.6878423,0.60706645,-0.045939032,0.9880069,0.5621248,-0.37948066,-0.14145209,0.6338377,0.5916555,1.0773635,-1.1843419,0.17839308,0.40231845,1.3781711,-0.39140645,-1.0062244,0.070152,1.1947991,0.41311708,0.7579418,0.24826899
<■0■OQAyhUfojCmXgHptEqRgFNzDjSJGGwxh>,0.8161992,-0.91132116,0.35270715,-1.2058353,0.42118624,-0.18248738,0.13905653,0.96562564,-0.61971986,-0.5366752,0.48614398,-0.32254228,-0.89233506,0.25653976,-1.3111182,-1.1717539,0.44657248,1.1499703,-0.39420393,0.031595875,-0.5155129,0.55794024,0.88595384,0.53935415,-1.8762431,-0.56938326,0.53142434,1.4800094,-0.3433011,-1.1237174,-0.19271708,-0.6156282
<■1■RAHJmYuWWkRxNfmqgeEBEoaPezSdZSpm>,-0.07478446,0.8609167,1.2058237,0.086691536,-0.5665748,0.9276356,-0.5043711,0.8594167,-0.8699306,0.072968535,-0.613766,0.32220644,0.6523683,0.6265837,-0.4117035,-0.7323216,-0.98448604,-0.59756273,-0.82340467,0.16240938,0.17925145,-0.50354254,0.5123324,0.6190561,-0.32661608,1.6653966,-0.48878986,-0.14124468,0.45512003,0.1246278,0.7760214,0.29323375
<■0■tNsKCwajiwsnLzXIfFlOpReZETukwwhT>,0.45944223,-1.1034024,1.7510931,0.28530377,-1.3713442,-0.034733187,0.0003080006,1.44224,-0.18691583,0.02706732,0.20227456,-0.7890189,-0.05328588,-0.9931281,-0.039096497,-0.43918833,0.33308142,-1.5176765,-0.082019396,-0.6415575,-0.016282013,0.45234266,-0.2075544,-0.5035332,0.3654525,1.5444251,0.5397517,1.4529049,-0.69706756,1.0563587,-0.60413086,0.8703943
<■1■QCXjtgDyXkRpVMwMMpMpYLwRKVMEozGb>,-0.9640413,-0.5963623,0.027807765,1.2157737,0.82652736,-0.42634988,0.78155625,-1.1996186,0.57939315,-0.35899523,0.2734642,-0.71637607,0.68862414,0.09594964,0.8612821,0.48093414,-0.5795942,-0.54112893,0.5683804,0.6545216,0.97016764,-1.1599952,0.19241937,0.81245756,1.3686755,-0.46615922,-1.2097315,-0.15820093,1.1591122,0.5109995,0.55563647,0.40698567
<■1■OQAyhUfojCmXgHptEqRgFNzDjSJGGwxh>,0.8767186,-0.9581041,0.3143488,-1.2778788,0.46727124,-0.3646853,0.1530653,0.7554301,-0.4232657,-0.7229209,0.39336857,-0.25930494,-0.77426565,0.5913341,-1.3626109,-0.9326102,0.44457093,1.1006564,0.03250929,-0.16755089,-0.6265742,0.23551497,0.6205628,0.6616463,-1.9303156,-0.5885112,0.4747587,2.0869203,-0.6906425,-0.8126636,0.37642756,-0.48308954
<■1■tNsKCwajiwsnLzXIfFlOpReZETukwwhT>,0.7390862,-1.1293828,1.6398802,-0.03180335,-1.9798177,-0.236846,-0.013791687,1.2263774,-0.19104466,0.2648093,0.27503198,-0.72325444,0.15848123,-0.9351174,0.027770737,-0.18384585,0.28419447,-1.8845769,-0.23542212,-0.7057695,0.098472424,0.29745176,-0.34486583,-0.44843328,0.36426038,1.5067796,0.7828658,1.2108085,-0.44461578,1.1007929,-0.4816275,0.66441476
<■0■WXIveRrcITAcUEfyjKTXAfWaXBdXlIXx>,0.22551085,0.3186886,-0.29050544,-0.9548152,1.0053785,-0.35185927,-0.15782496,-0.45484513,-0.17720164,0.78059894,0.31750447,0.5896731,-0.5389288,0.05741866,1.5147928,0.32094666,-1.6753794,-0.4339588,0.80183715,0.2271196,-0.91161454,0.55917805,0.8244619,-0.56370556,-0.314243,0.36273405,-0.121322826,-0.3500299,-0.88247937,0.6509821,1.5353724,-1.3716784
<■1■WXIveRrcITAcUEfyjKTXAfWaXBdXlIXx>,0.38036174,0.68400395,-0.4909283,-0.996072,1.1128939,-0.21751583,-0.26686025,-0.50475633,-0.23805058,0.8132132,0.3266003,0.5144722,-0.42736176,0.07593077,1.4342799,-0.17146797,-1.524643,-0.5248446,0.98445296,0.17087397,-0.34382507,0.62942404,0.851483,-0.7366042,-0.5029659,0.3323304,-0.02097194,-0.7694343,-0.81500596,0.55392754,1.5854592,-1.3155293
<■0■RAHJmYuWWkRxNfmqgeEBEoaPezSdZSpm>,-0.20947908,0.9968226,1.203732,0.24751823,-0.5156962,1.2360735,-0.31376117,1.376873,-1.0781754,0.24435428,-0.6831997,0.28441325,0.4124893,0.8568944,-0.11765862,-0.5643092,-0.405406,-0.25807783,-0.8738631,0.4904597,0.05660106,-0.28036842,0.707813,0.5460063,0.14176434,1.829043,-0.57958865,-0.020580683,0.19986445,-0.0066986927,0.66062975,0.009031785
<http://XsfHhOSlqLUkXgOAvcHv.org/dvgyLoeALfpUnupQKWLQ>,-2.501943,2.2412314,0.708949,0.9851671,2.4045677,0.83819014,0.6433725,1.7982029,-0.74814254,1.1657746,-0.02020067,-0.21306644,-2.2411628,-0.40664664,0.7323274,-3.2427933,-0.5574042,1.7109194,0.9825354,2.6323197,-0.5542604,-1.5375358,-1.9269649,1.7315662,1.8968629,-1.5934154,-1.9244355,-1.6813875,1.2216436,-0.24038221,1.8753432,-1.6873608
<http://CJARszBNUOJsIMcbolzh.org/eqrQjlBqoRrEpNHUaGXq>,1.2207868,0.90514755,1.0837425,1.1965582,2.183404,0.3170076,2.6136866,0.38945243,2.7694297,-1.8623561,2.0164647,-1.6986728,-1.2919041,1.1502789,1.1674806,1.7440132,2.2433434,1.387545,-0.37722838,2.3036993,-0.57979095,-0.24235302,-0.6666153,0.13970466,0.5682373,-1.9164199,-0.016046485,-3.0029593,-2.175517,-0.8577064,-0.25977504,-2.40271
<http://YzDCCbExypeDcTcmvzuM.org/etFsAiegjUePKgOXXAUi>,2.2735312,-0.17624821,2.4082818,3.5629134,-0.8450156,-2.0578601,2.1074789,0.067144364,1.8254553,2.0169249,0.7582964,-1.3312899,-1.0976843,3.0506861,0.4661808,0.32016954,-0.5092385,-1.2033043,1.2550519,-1.4485956,1.6407418,-0.14487101,0.8394572,-0.4694077,1.5126979,-0.588723,0.08034961,2.8997383,-1.3270142,-1.0254383,0.771095,0.702905
<http://giZpSpRwjwIymMXiZnCK.org/jDRHIujhpeMAGERZWHav>,-1.2205327,1.5765272,-1.7701558,2.4769568,-0.63411117,0.35241652,-0.37247533,-2.670264,0.012906387,2.355519,1.1019971,2.186534,1.902006,0.061236892,3.251882,-0.7448644,0.6122887,2.5545723,0.8173,-1.7608447,1.557231,-0.08382642,-1.2780719,0.9273753,-0.46621504,2.4913976,-1.4423271,-1.0193468,2.6883533,0.44620973,1.4281422,-1.9451135
<http://tUSwyZYODVpBSxyQHuue.org/KsVYNYImBoqjlHdjfHDn>,-1.428104,2.068173,0.7493808,-0.42036694,1.6384405,-2.3669398,-1.2017277,0.43488023,1.5869598,-2.40931,1.2995107,1.3574651,0.54620534,0.7797648,0.08501482,1.1736971,-1.3233647,-2.168933,-0.8024714,-0.82880676,2.286441,-1.2812417,-1.6199294,-1.7307999,-1.1338522,2.9189434,-1.5178441,1.6712167,2.022947,-1.8392347,2.7321,-1.3459097
<http://yRUBmfJwtAvBkQCNAAan.org/hzAFPwcsRhjAsDHQycFU>,-2.6396322,-2.018979,-1.8242601,-0.6133301,0.28426865,2.457476,0.7213411,-2.662201,-1.7801033,0.46037862,-0.20169675,-1.3475128,-0.04035445,0.323286,-0.014703728,1.3174075,2.5385108,-1.79772,-1.2890625,-2.6081104,-2.079265,-2.5847297,-1.0514067,2.0051525,-1.4587456,1.3964223,-0.57305914,-1.0932908,-1.4733248,-0.51882553,0.57712114,-2.1756163
<http://CTlulpLIyWrBgdwBxVTD.org/lGTxlhAHcnPpKBYXAHzb>,0.038355917,-2.8200634,-0.21319048,2.4056904,-0.69478923,2.2205555,1.4813503,-0.58248776,-1.3864595,1.2075652,-1.5055244,0.36637995,1.916938,0.6592566,-0.5381061,2.1597557,-0.030272769,0.036057487,-2.053364,-1.6621155,1.717422,1.3470491,1.0373292,-1.6692795,2.047223,0.56924266,1.4348589,-1.4890991,-0.46605,-0.26707265,-2.0843103,3.008052
<http://pletzPmPMEbilnlHavOK.org/alutLSSyAxALnmmTxMEe>,0.054706465,2.064771,-2.509771,-1.6807013,-1.651851,-0.8610228,1.6452284,-1.9962709,2.3243847,3.4099035,1.1106884,-1.3463315,-0.015354117,1.6047873,0.41181672,-2.203196,-1.0601765,1.5908818,3.0661786,2.4848075,-2.5145757,1.3601236,0.24887867,2.4412565,0.054092497,-0.38063017,0.39520988,-0.6287317,-0.7678457,2.1264365,1.0184774,-2.2775483
<http://cMFllYppAYMgdGFwVVvP.org/jncQhxUaUKUHWRuWVTDa>,-2.2507925,-1.1124352,-1.9035759,0.07042446,1.9246367,1.7926863,0.71238035,0.91888744,2.6465435,-0.11357414,-1.1203032,-1.7972765,-0.74674594,-1.3095988,1.2103379,-0.0039022774,-0.3655079,-2.5742538,2.0865276,2.8795567,1.7220216,-0.061998796,-0.010124955,1.3460972,2.5050027,1.5912567,1.1852604,1.0875641,0.92824125,2.806434,-1.0607585,2.8528562
<http://dwxhjCTSALRMGbcuSpzI.org/IAvKaDExabDIWxhQJbhG>,-0.5159797,-1.5639191,0.0354671,-0.61476177,-1.9039892,1.2723727,-1.5607154,1.0657641,-0.49353454,-2.4320931,-2.3144484,0.2876145,2.2314532,-2.2581773,-1.438268,-0.7699316,-1.7087258,-2.7147627,-1.9498717,0.17048407,1.9125869,0.8911492,2.82783,-2.587967,-2.0474014,-0.44671628,-0.18516879,1.7576449,-1.5809753,1.8510582,2.6966536,-1.331714
<http://tldfOWIRhhRUATgsHXbx.org/tIdyjOFgPQrNabGdKNiT>,0.22979215,-0.2559509,-1.7797545,0.95549756,2.9542234,0.75345796,-0.010952828,-1.8868947,-0.0033822865,1.1797838,-1.8045071,2.348613,1.2942884,1.535416,1.517205,1.7180372,-1.8566074,1.9747221,-0.3738937,0.4271657,0.74388254,-0.20177029,1.5258931,-2.3003418,1.48072,-1.1890744,2.161677,-3.2368166,0.60676587,-1.4514005,1.1112229,0.30821273
<http://KPIstRdEVhKgOMneqlAh.org/xGKGcxlHvykmkFLXYHQr>,1.9453416,0.75818145,-0.81854206,-2.4623592,-2.3621554,1.6250001,-1.0531723,1.677601,-2.6598458,2.3947482,1.0591232,1.7863696,-2.1038697,0.058948047,3.17703,-0.11804363,1.6884569,1.4749429,-0.75836253,-2.0749674,0.28138736,-1.8406826,1.0816283,1.6184926,-2.4975114,0.19157264,-0.58510697,1.2423769,2.053304,-2.2104518,-1.0673896,0.49494922
<http://jQoPxHacJxVqoHkUovPM.org/XoxeVEypMwBWfzIZEDVM>,3.1282418,2.5797486,1.2500467,-0.32051498,-2.5394912,-2.4356742,0.01731782,3.2486682,-0.035001684,-0.88116497,-1.8915136,2.0844903,0.12836568,-2.808359,-2.562975,0.6985098,-0.23192371,1.2782696,-0.37515587,-0.4564846,-1.5700433,-1.1742047,0.6603322,0.31931305,-1.5761179,1.9588203,-1.2431508,0.7398537,-0.5290694,-0.4556179,1.5152664,-0.021612989
<http://DBQxPtYYvxFviceHZhQC.org/HGHQAAAIgsXhHuvArWDf>,1.8173767,-0.9635196,0.5365088,-1.4347016,-2.394689,-2.661074,1.1621517,-2.1158516,-2.1808646,-0.66495097,-2.7288885,-0.31852406,-1.4973216,0.05062733,1.4086248,0.9836034,-1.1615043,0.5853351,3.3581996,1.1438417,0.21520428,2.12905,-2.236427,-0.63403517,-3.182783,-1.8368782,1.0274146,-1.9573036,-1.9201328,0.6689187,1.4629548,0.9453246
<http://YGanbbptjtizbjdFmUky.org/xxbmileakSrbjavLDthI>,-0.051997688,-1.6251736,1.975873,-2.0113692,3.3358784,0.038501576,-1.9782788,-1.2942897,-2.0339665,0.49950317,2.5594006,2.151211,-0.13100058,-1.2715826,-0.64514863,-1.3676938,1.4130541,0.30118763,-0.0027573458,-1.5793912,1.13964,1.607614,-1.4678599,-0.9259937,-2.555123,-2.2768698,1.0890993,0.5119144,0.3425837,2.6938543,-1.8187364,-0.42449927
<http://dbyFlwyCILHPtaooBmPl.org/deGyrTKtCfLqwLxGJPIh>,-0.46422264,-0.11720253,-2.3807335,0.71803147,-2.6061914,0.19534734,-1.5636809,1.6973163,-0.99820787,-0.4457772,1.146866,-0.98825276,-0.8925988,1.0262401,-2.281797,-2.0515606,-0.30135122,-1.8531225,-2.74433,0.33494294,-1.2440417,0.008101105,1.1682714,-0.6047266,-0.40042463,2.4950893,1.4006438,4.2692003,-1.0273453,-1.2028986,-2.03373,0.17171073
