,0,1,2,3,4,5,6,7,8,9,10,11,12,13,14,15,16,17,18,19,20,21,22,23,24,25,26,27,28,29,30,31
<http://linkedgeodata.org/ontology/nuclear_explosion%3Acountry>,-2.5657425,2.6420677,2.1451879,3.6632807,2.903011,-2.9935083,-3.0495281,4.3366327,-2.1885123,2.799632,-2.6212616,2.7499738,2.4687212,-3.2244072,3.2068884,-2.7681382,-2.5905464,-2.4384937,-4.352882,3.2917907,-2.4637058,2.8370712,3.3829372,2.7666023,-3.345753,2.6961462,3.536933,2.7723804,0.65726674,-1.9348066,3.1524072,-2.4933884
<http://www.w3.org/2003/01/geo/wgs84_pos#long>,3.3212514,-0.5225744,1.4352758,0.8818279,2.2803447,0.083006985,-1.8923708,1.1164993,-0.70213586,-0.5117119,-1.4445105,2.3342412,0.9098878,3.3044448,-3.0389569,1.6435131,-1.2387936,-1.4784403,-2.395189,-2.3775089,0.47441512,2.1037793,-2.028671,-0.4607362,-1.050219,-4.242936,-2.6252275,1.6056046,1.8143501,1.5697451,2.695483,2.2910483
<http://www.w3.org/1999/02/22-rdf-syntax-ns#type>,-3.0623994,2.647431,-3.876303,2.7621126,2.3587763,2.3997767,-2.4293675,2.6004672,-2.476933,2.59195,2.815678,1.7671081,3.0861554,2.860405,3.1964552,2.453729,-3.0248003,-2.4328067,-2.8776019,3.6554055,-2.6556723,2.5063474,-2.2905238,-2.8352125,-2.5575004,3.0854769,-2.3967762,-4.3719354,2.3706148,-1.9640133,-2.6657085,2.4222262
<http://linkedgeodata.org/ontology/nuclear_explosion%3Atime%3Autc>,1.5974933,0.0012090582,2.4655292,1.1629587,-2.024553,-2.1429842,1.7643157,1.9221658,1.8349228,-2.4419937,1.5786002,0.79053223,1.5235296,-1.397472,-2.9059775,-1.4619648,2.3843703,-1.4266628,0.30265388,-2.7196987,1.6734103,0.9481469,2.223763,-1.3540593,1.7574432,1.3329403,-3.5127962,-3.223281,1.8823109,-2.349727,-2.175082,-2.2072341
<http://linkedgeodata.org/ontology/nuclear_explosion%3Atype>,-2.810499,-4.4906034,-2.7839963,-2.093762,-2.5266907,-3.69197,-2.2995687,-3.1648335,-3.0998495,-2.4316945,-1.0050471,-1.5870548,3.7911274,-2.2180388,2.6927278,-2.863053,-2.1326835,-1.8748076,-3.5971074,-2.4038835,2.5147395,2.3890793,-2.797511,2.7239819,2.7323036,-2.7494266,3.2478933,-2.6110892,-2.8799133,-2.6321473,-3.6803412,-2.64863
<http://linkedgeodata.org/ontology/nuclear_explosion%3Asite>,2.8576088,-2.5358932,-3.1305969,3.4980245,-2.8003223,-2.8953648,-2.4447236,-2.5953157,2.5244799,-2.638971,-2.1744192,-2.6277344,2.4981604,-1.8232635,2.2333097,2.952331,-2.4590309,2.8999403,4.0800653,-2.81149,-2.3155606,-1.5452939,1.4576961,-2.5595138,-1.5263448,3.310128,2.9936411,2.4656253,-1.7173774,1.9537339,2.5761464,2.50447
<http://linkedgeodata.org/ontology/nuclear_explosion%3Adate%3Autc>,1.3713487,-3.319562,-0.71104074,-1.0512214,-2.9016395,2.0310466,2.0667806,1.4492573,0.8493778,1.7751961,-1.5933366,-0.60788244,-0.65445507,2.5746717,0.8417843,-2.9440062,2.0986903,-0.8974007,-2.472711,-3.2062013,2.9799614,-1.7396748,1.2872037,-0.8783617,-0.5212222,-2.2624855,2.3460722,3.100995,-2.0623257,2.1615329,-2.1007304,1.6089915
<http://linkedgeodata.org/ontology/nuclear_explosion%3Ahole>,1.5429431,-0.5786268,0.80359274,-2.7799613,-1.5473679,0.4594235,1.8265967,-1.1008598,2.6293194,0.44963828,-1.8195063,-1.4195856,2.4942987,-2.5690417,-3.3404715,-0.86880744,-1.6838907,-1.8998052,-3.0564637,1.2674848,-1.7525904,-1.142058,-0.52322197,-2.2120028,3.124668,2.0892515,-1.5211316,1.6412574,-1.1855943,-1.1124097,3.0297842,3.5009186
<http://linkedgeodata.org/ontology/version>,3.6712658,2.5268145,-2.8895226,-2.4984813,-2.7970853,-3.079129,-1.8905945,-1.9846183,-1.2456846,-3.5329466,2.6873233,-3.1871703,-3.4166155,-2.8921552,2.2126691,-1.927663,-3.2018642,-2.602636,-2.7693253,0.95988643,1.8031833,-1.8977728,-0.98137826,2.9948063,-2.3469803,5.8774447,-3.1087358,-2.2676747,-1.328203,3.6035557,-2.0723825,1.8608565
<http://linkedgeodata.org/ontology/nuclear_explosion%3Aseries>,2.7197552,2.5322907,-2.8105023,-0.6148161,-2.8621688,-2.8550308,-2.9144127,2.3610876,-3.7814558,-2.034166,2.6040866,-2.2503417,-2.2538035,3.4151354,2.3948355,-2.569072,2.2696013,3.438076,3.5360904,-3.1413198,1.5770227,-1.917434,2.2633684,-1.8395715,-2.6650593,2.3858118,2.2020571,2.993703,-1.5316696,-2.949324,2.4047716,2.1270497
<http://linkedgeodata.org/ontology/nuclear_explosion%3Ashot_name%3Aen>,0.44990447,1.9507059,-1.920843,1.0504708,-0.062350966,3.315549,-1.8772178,-1.0232565,3.269741,0.13472198,2.4268847,0.034798097,0.8809375,-0.36412877,-3.3696105,0.16915365,-3.1346471,-1.3721294,-0.9257892,3.0654776,-0.6505229,1.6924084,1.0286089,-1.7888551,-0.48578098,2.8383906,-0.5486051,-2.2118611,2.7987428,2.8516145,2.8494158,1.0570083
<http://www.w3.org/2003/01/geo/wgs84_pos#lat>,-1.8200661,-1.8736672,1.9696693,2.313428,2.2438397,-2.9117002,2.345537,1.6719354,2.2806764,2.2359586,0.6500439,2.8590105,-1.7753824,2.4134982,1.8876746,-2.1183255,-1.6608073,0.6484278,-2.2879317,1.980733,2.661803,1.4466603,1.6555734,0.6738927,2.305608,2.5589526,-0.88173085,1.8416029,2.4699497,-2.10189,-1.4909854,-1.5779716
<http://www.w3.org/2000/01/rdf-schema#label>,0.47843775,1.940816,-1.9841954,1.0872508,0.06297714,3.6202245,-1.7276218,-0.9976713,3.2699058,0.25962418,2.4897733,0.0375479,0.8512163,-0.23630361,-3.407584,0.13069792,-3.2164557,-1.3346813,-1.0276144,3.0810108,-0.6477868,1.7638607,0.9640571,-1.7465155,-0.56345993,2.843382,-0.44659472,-2.1970654,2.7199566,2.8704238,2.8263137,1.0812163
<http://linkedgeodata.org/ontology/changeset>,1.9720316,-2.3198786,1.4298484,-4.005795,-3.0973756,-2.8782074,-1.8159633,2.147366,-2.2863977,-3.369207,-2.7544851,1.7644608,2.6672475,-2.4096284,-1.7452201,2.7298155,2.32965,0.47041366,2.9007752,-2.0143955,-2.334151,-1.6936225,-2.2880402,3.280945,-2.5871701,-2.1774695,0.72882193,-3.1326005,3.085811,-1.7557602,3.4437246,-2.689619
<http://linkedgeodata.org/ontology/nuclear_explosion%3Aground_zero_altitude>,-1.153607,3.3929832,-0.7997701,-1.2899013,-1.9904668,0.34455302,0.9957807,-1.9138138,1.1203079,-2.270342,2.6304684,0.062013615,1.308281,0.8870794,-2.5027251,1.1553726,-4.73088,0.4152619,1.5073524,3.837891,-1.5104963,2.341728,0.028310878,0.9959104,-1.3034688,3.5739079,-2.1382062,2.3812084,2.7775888,2.6640203,3.3723474,2.9057314
<http://purl.org/dc/terms/modified>,-1.2538544,-2.2260833,-0.6993389,-2.0897124,1.8077137,2.5799336,-1.9534618,-1.8905175,-1.3109945,-2.2550375,1.1737729,1.0676372,2.5993102,0.7198881,-2.1846232,3.172187,1.4131007,2.4631467,-1.5459869,3.7623324,2.3728743,2.1023743,-0.8838031,-2.3248336,2.8860602,-2.922705,-1.4079151,1.9588333,-2.7179046,1.8190829,-0.052870415,-2.341895
<http://geovocab.org/geometry#geometry>,-2.9695232,1.1176156,2.732727,1.8658135,-0.60235506,2.3192673,1.6247222,-1.04201,-1.5510814,1.3673576,-0.76038855,-1.3059344,-1.9065,2.782389,0.86085933,-1.5988163,2.8645258,2.2849889,2.3648577,1.4444319,-2.1052022,0.90927386,-1.9823049,1.6985737,1.9734669,-1.639963,-1.3082954,-1.6856583,1.9022768,1.6407156,2.1666524,-2.9965887
<http://linkedgeodata.org/ontology/nuclear_explosion%3Apurpose>,-2.1683278,3.26818,-2.0221205,-3.69355,2.2239673,3.3190506,3.1146889,4.1184354,-3.8030636,2.5666583,-3.6936438,3.9269648,-2.761739,3.7833931,-3.731068,-0.6631134,-2.2630465,4.0022864,2.7777388,2.9335604,3.1560445,4.664285,-0.37100637,-3.6591172,0.41513726,2.2893927,-2.463543,-3.2378097,-1.1347799,-2.228068,2.558175,3.0807245
<http://purl.org/dc/terms/contributor>,-2.4749577,-3.060418,1.3433163,-2.405052,-2.4673061,-2.5422134,2.769843,1.540217,1.8876355,-2.7520728,-4.503051,-1.8265959,2.8292148,-2.6046982,2.4217086,2.1508648,1.9801263,2.6831784,2.2773774,1.3605677,-1.9711013,-3.339537,-1.8088367,2.6604776,1.7951016,3.7363214,-2.7730439,0.023337843,-1.4721067,-1.9094424,3.4581754,-4.2779737
<http://linkedgeodata.org/ontology/gadmSameAs>,1.777413,-1.5241132,-1.3774098,-1.5082202,1.9483205,-2.0910084,2.0111065,-0.95138913,-1.8058661,-1.9144552,2.3128526,2.116205,-1.1399395,-2.2486649,1.2209096,1.7666684,-1.7985932,-1.57901,2.1781707,0.93938476,-1.9553977,-2.801373,1.5537477,-1.8277655,-2.9211931,-2.9765577,2.108195,-2.3775525,-2.271218,0.8710663,2.942041,0.30970183
<http://linkedgeodata.org/ontology/nuclear_explosion%3Aheight_of_burst>,1.7400191,2.8408234,-0.9596557,-0.022105351,-0.51643056,-1.2926738,-0.7595056,1.0442209,-0.6127705,-1.7765566,2.6267867,-2.705108,-2.628598,-0.35249034,0.09518733,1.4138248,-3.9439888,-1.8933251,-1.5542036,3.1015368,-2.1043193,1.064413,1.784469,1.7079816,0.12714277,3.666192,-2.1554375,2.2168257,2.0844731,2.5878778,0.7806709,1.3571411
<http://linkedgeodata.org/ontology/nuclear_explosion%3Abody_wave_magnitude>,-2.1321015,2.6173463,1.7203374,2.8741086,2.1871943,-3.4001653,-1.3810129,1.6345884,-2.5016792,2.007163,-2.0918338,-1.7096,0.7558626,-2.0666134,-0.9511337,-2.0814502,-1.6570091,-1.9521466,-1.7860881,-2.9508119,-2.0081642,-1.2773075,-1.7647321,-2.6132085,-2.2513008,-2.6824663,1.0871509,-3.332813,1.6217891,1.6254356,-2.9395113,-1.614051
<http://linkedgeodata.org/ontology/nuclear_explosion%3Awarhead>,-3.631965,-0.97274566,1.0142672,1.7417389,-1.7824774,2.4879012,1.9657205,1.4769423,2.047106,2.515273,-2.8316298,2.3775277,2.2797136,2.1595988,1.8211775,-2.1672547,-3.2576377,-2.0249574,-1.1553967,1.9422554,1.8648524,2.342793,-2.0218747,-3.818389,0.053551335,2.2554657,2.9648168,3.8828382,-1.900019,1.6752787,1.923682,2.40909
<http://linkedgeodata.org/ontology/nuclear_explosion%3Ayield>,-1.6361893,0.77771974,1.8932627,-2.2714427,1.1441815,2.5848925,-2.0009215,-1.3039857,3.3734517,-2.4230018,0.7066714,-3.431926,1.7507477,-2.5578382,1.5875552,-2.6006422,2.987979,2.3685052,3.0957932,2.7566202,-1.6216811,0.98984575,-1.3923134,1.851925,2.1775317,3.1399112,1.671232,2.8806534,2.8008413,2.0277832,-3.0687096,-0.13652477
<http://G.org/Pnr>,0.5295045,-1.9785936,-0.103215866,-1.6666174,2.2975214,2.650244,-0.53565234,-1.398254,-2.6751623,-2.5453613,-0.51724994,1.286754,0.51320726,1.3668941,2.2711658,-1.2047594,1.0624489,1.2549468,1.1382557,0.6772538,-0.17774136,0.4395088,2.9779303,1.8312887,-0.37972054,1.0825462,0.91694146,1.7554483,1.1828915,0.094692916,2.3260076,2.198802
<http://linkedgeodata.org/ontology/source>,1.3862212,4.376771,-2.8226316,-4.306858,-2.6543262,2.095841,1.8303486,1.485036,-2.9736085,1.4746928,0.19679606,-3.536866,1.5033937,4.1930275,2.817067,-0.64183325,-2.44996,-2.7834055,-1.3269356,-2.0646393,0.80527973,-0.3553716,1.3091179,0.9781679,3.1390224,1.7207512,-3.0032215,0.0002471199,-2.166356,-1.5594043,-0.81966954,1.8142824
<http://linkedgeodata.org/ontology/nuclear_explosion%3Asalvo>,3.5385349,-1.3213549,-2.927202,2.3090062,0.8545158,-2.5223475,-3.3266828,-2.5835721,-2.587996,-3.2269464,-1.6621096,3.7669523,-3.6414855,1.0589315,-1.6417713,-3.4865384,-3.243591,3.7791264,-3.1938107,2.9458404,2.300793,-2.5929484,-3.7686963,2.4361012,-2.5548072,-3.0937004,3.7783785,-2.8740337,0.7623278,-2.7793205,-3.3323975,2.356669
<http://linkedgeodata.org/ontology/nuclear_explosion%3Adevice>,0.6902138,1.6079811,3.1964366,-2.161228,-2.0718749,-0.90965605,1.7012377,-1.7847725,-1.5880744,3.381386,-1.934837,1.4802884,-2.8126516,-2.497739,2.594518,1.355226,2.8901165,-2.520534,1.8660619,-1.7115699,1.1997468,-1.7151107,0.34189764,-3.7350273,-0.060474902,2.3910844,1.6507237,-0.61404836,0.36404622,-2.8838837,0.31300905,1.2468959
<http://mWt.org/>,0.1722224,0.09897342,1.1087178,-2.5324192,2.5277152,-0.04051225,-2.2963717,-2.2108173,-0.43686733,1.914595,1.6740928,-1.9595306,1.2243819,-3.6593332,-2.5129685,-2.1332932,1.8851309,2.9297519,-0.64791715,-0.57263356,-1.7991427,-1.3772868,0.07920749,-0.69472826,-1.109179,1.5732795,-0.70169175,-3.3783894,2.8369474,2.2491093,-1.7568673,-2.16012
<http://goOr.org/glIYsKdDGxsJaBPyS>,1.8878144,2.3536766,-1.1319827,1.5669643,-1.4645011,0.28955987,-1.997469,1.274869,1.5399032,-2.5021849,1.1468161,0.64422446,-0.5382438,2.6272836,0.5147449,2.5615408,-0.32391018,-1.2391808,1.0151,0.2827563,-1.1880676,0.835567,0.31156692,0.2794681,1.109854,-5.3655424,-1.9650367,-1.6102358,0.07849486,-0.1252489,1.8177254,-3.7964456
<http://ZFXgvSqiQMBkdey.org/EeqgykuiniiC>,1.8693203,-1.3027514,2.2549996,0.857131,1.2369529,-0.6210894,-0.15606698,-0.016173089,2.2672987,2.0150046,-2.02942,-0.35512128,-1.6014652,-0.940925,-1.2642597,3.155385,2.0156233,-0.19586813,1.0639328,-0.9031825,1.4614555,-1.4726765,-0.8001406,-1.7897174,-1.1055954,0.8874488,-2.832085,0.6666565,3.3977156,1.8846834,-0.12960874,-1.731513
<http://PbwQeAUkJqXDN.org/lplYEBqdyZTUcx>,0.83511984,-1.057277,1.3860099,-0.3135117,0.8865493,-0.24960497,2.1972156,0.6040568,0.15429924,0.26413065,2.7902505,-1.1369781,0.9380467,-0.6321705,0.44644266,1.1718316,0.7675204,-1.9639174,-1.0078946,-1.9425713,0.75384253,1.2420452,1.3264792,-0.71018684,-0.18511146,-0.28899336,1.2607219,-1.1625388,-0.24095862,0.5151671,1.1450343,-0.15685868
<http://xZjcB.org/THOcBEnAtisV>,-0.55700946,-0.76208705,1.2619324,-0.6594001,-1.0865852,-0.7254689,-1.3199493,-3.208609,-1.1024113,0.5711726,-2.832242,1.842075,2.642135,-1.1633742,-0.1548,1.939591,-1.9504849,-1.8432999,2.9376285,0.36186644,1.2431878,5.0397463,-0.2576267,3.0097566,1.2649742,1.5070453,-1.0901297,2.9847603,0.99176425,0.015963368,1.9742908,-1.2200303
<http://W.org/PXFPRaKMwHZGKIMzg>,-0.4546164,-0.1618547,0.015498651,0.67629534,-0.3478561,0.3854939,0.9316248,1.0381674,-0.18319087,-0.41989714,-2.4789214,0.2812628,-1.0464349,-0.39661577,0.050161365,1.6993337,-0.23654547,0.28980875,-1.223411,-1.4749451,-0.5519911,3.1271973,-1.774774,0.86377627,0.13355885,0.5417067,0.8241739,-0.012946237,0.6999672,-0.41991797,-1.7859551,2.3000755
<http://qUpRHEJhQmJsrPyzXP.org/XRoIQmFMd>,-2.319398,-1.5222543,-0.049050283,-0.8267285,-0.9436636,1.5971227,-1.9869545,-1.9674677,0.52455515,-1.2593156,1.0103208,0.6882556,0.6621642,-1.388884,0.46034244,2.55941,-0.59480685,1.573145,-1.3551539,0.107121274,-1.6392834,1.2980543,-0.7635791,0.93940693,0.3059448,-0.12817332,-1.6819822,0.14989555,0.68163514,-1.5837172,-1.4106877,-2.1115494
<http://linkedgeodata.org/ontology/fixme>,1.1095229,0.07087912,1.1928098,1.0772156,2.233898,-0.79457074,2.461999,-2.5434482,0.88199437,-1.2320931,1.5427531,-0.37928742,2.2409928,0.81852597,3.2152038,-1.1646242,3.821867,2.869443,-0.20097253,-0.09150349,0.6613141,-0.6926524,-1.9440303,1.6983137,0.5772834,0.85801667,2.9059863,-2.6068828,-3.252772,-2.3139176,1.299956,-2.644623
<http://gRnrRyqJBBDsgM.org/me>,1.6028239,1.4156439,-0.9784415,-0.26822147,-1.7131708,-0.7595377,4.0497293,-2.1120582,-1.1727337,-1.2288665,0.802012,-4.2064857,0.13460095,-0.07855964,-1.646553,-1.1861452,0.5310298,2.72925,1.933828,0.60378134,0.9667581,-0.56551296,0.4068637,1.1076413,1.289815,-0.49386996,1.2732986,-0.32451802,-2.6922576,1.4036691,2.5651555,1.526368
<http://dDtuSLARaKrEmva.org/WZhJz>,-0.8285872,-0.6089649,0.4099901,-0.748342,-0.06866203,0.9200356,-0.91523147,-1.041252,2.9907446,2.4157705,-0.98191696,-1.2958238,-1.1923919,-0.26462117,1.3099416,-1.2379239,-1.4978527,0.4742991,1.2809376,1.3416412,-1.9753897,0.18729809,0.7274897,0.17756562,-0.0036381711,-0.21030733,-0.08473645,-0.48471493,-0.429659,1.1133646,1.1888896,2.0613666
<http://t.org/QLaMdbNRfnOEPFVsJe>,2.1149313,-0.73418087,1.8578613,0.16789319,3.0215716,0.9519557,2.1548336,0.023297185,1.79907,-2.7930512,0.6941392,1.1520023,0.639781,0.8468113,-1.859363,1.0136627,-1.4587271,-0.8403149,1.2569852,2.3894882,1.0938959,-2.5423505,1.5224621,-2.3157113,1.6295398,-0.030725628,-1.2352482,-1.4480901,-2.4244647,-2.633299,-3.523396,-2.6429217
<http://OnpiubUydZPoy.org/qdDsvcwkzCmsAsG>,-0.21067007,-1.0872345,0.38149968,-0.7019034,1.7887789,0.7284159,-1.5835204,-1.5093056,1.1779149,1.7357666,-0.79068744,-0.849168,-0.27435303,0.42287195,-2.4018314,-1.5151364,-1.5313783,3.4155178,0.20112804,0.48581952,-0.78305894,-0.3064784,-0.35400718,1.4120071,-2.1775851,-0.7085048,1.3821735,0.5794,-0.19050518,-0.5430221,0.12890095,-2.1997497
<http://MGuRJCNeT.org/VuTPeKPpxQTpIGRiASu>,-0.22941852,-1.5428563,0.84400994,1.7845222,2.1583252,-0.9190316,-2.4083881,0.35837147,-1.6282667,0.5724687,2.2616746,-1.9532601,-0.66418105,1.9066336,1.566879,-2.2791636,-0.3160217,-2.3953576,-3.141231,-2.8420064,0.023283293,0.030397004,-1.4689175,0.5875978,-2.265869,-2.7580051,-1.08357,2.3907056,-0.13201311,-1.9559684,0.89455557,-2.107808
<http://hTygiASAhWIXE.org/KzV>,-0.10948231,2.3783355,0.08948131,-1.3946748,2.3064027,-2.6640291,-0.8322198,-0.24605897,-1.454155,-0.2205559,-2.7356448,1.4082407,1.2240472,1.6903344,-2.857002,-3.3650863,2.4927657,0.45209157,1.8799747,2.565918,-2.4475026,0.16057777,-2.5465715,0.99682325,1.3102303,-1.9585919,2.2086272,0.628548,-0.63896036,0.105625354,0.11492802,1.011591
<http://Tk.org/DXOaWjKnChMv>,2.2767382,0.70175946,2.4376578,-1.6736456,0.1038918,1.9099007,-1.4027388,1.5133871,-1.3932788,2.1426015,-2.2063575,-1.5307425,-0.09113303,0.564577,-0.8080793,-2.036164,-0.6630494,-2.6789749,1.1819121,0.65325016,-1.3878914,-1.5017487,2.134506,1.3046466,0.063818224,-2.599458,2.6435995,0.78621835,-1.1313967,-2.280715,-1.3883424,-3.0178692
<http://YMairUmcIOHrlnsE.org/xUTWrLGwZzuymIwuogF>,-1.5433878,-1.9442294,-0.63311285,1.2862095,-1.0199202,-3.2988691,0.20601198,1.1115471,-1.819992,3.2581291,-2.1928947,-0.3112864,-0.322496,-1.2328252,0.7904721,-3.068637,-1.1195608,0.25932243,2.908606,1.5257193,-1.6161237,0.29606944,1.0222731,-0.105466135,-0.6618343,1.5136216,-2.3003297,0.90420073,-0.8846903,0.1739422,2.3574343,-0.4406264
<http://BUl.org/>,0.16223764,-3.1079702,0.6240874,-0.09616676,-0.14451501,1.3985084,1.1998045,-0.5365172,-0.50669616,0.19706267,-1.162253,2.269624,-0.51771754,-1.3492178,0.31896853,-0.73642766,-0.08281917,0.27997062,0.30975315,1.9282063,0.56503946,0.7147497,-0.8208726,-1.3962612,-0.49603343,0.4824166,0.59767264,-1.078209,0.8527097,-0.116647504,0.069063455,-0.9604832
<http://kYZNrIjXgKJMD.org/oXw>,-2.6094198,0.11593965,-2.1075754,-1.5510905,-0.18536596,-0.0664997,-0.3652204,-2.5376935,-2.5842,0.22345234,0.43471575,1.3641493,-1.2460885,1.7126031,-3.562035,-1.4673598,1.4653049,-1.5512818,-0.039263822,-1.7497865,1.233587,0.26066566,-0.73768437,2.1683404,-0.26890442,-1.3519449,-3.9664114,1.0679175,2.7359428,-1.1316026,-1.8527133,-2.7911994
<http://qDlvfOxdIeoSMJjGSa.org/DH>,1.7368823,-2.0483124,-1.6353225,-1.5477365,-0.4566059,2.2576053,-0.37063563,-0.4585388,2.4535615,1.5617409,0.99113804,0.3382009,1.2246416,-1.9059204,-0.45438313,-0.10004464,1.6023908,-1.2091099,3.470994,0.24564339,-2.429879,-1.8892685,0.11160075,2.195596,0.09091137,-0.9133836,-0.8506757,0.6371797,-2.5910664,-1.9417684,-3.379273,-1.4385521
<http://tE.org/vPxyRMhEaiEbcU>,1.6248305,1.0414649,-1.4798049,-2.7472105,-0.21817245,-0.60217255,-1.8533669,1.0846052,-2.32708,1.7926083,1.8441418,1.5154865,-1.4954772,1.3169682,-0.29387644,0.7100605,1.3071975,-1.6984767,-0.6806133,2.4071097,-2.3965416,-0.20412154,1.8106496,1.2882982,-0.68292177,0.37168935,-2.0491953,1.4994197,-0.8300958,-0.33463678,-0.7337926,-0.47945523
<http://DTxDqRrfnl.org/ksItJZzMZqmGodQd>,-0.4163635,-0.5986921,1.0634499,0.2688085,0.3724312,1.5971909,-1.6499169,0.41258225,-0.84243494,-2.3373141,0.39278638,-0.14356996,-1.9793843,0.1545962,-1.4820373,1.6245298,-0.0052718576,0.6812882,-1.0243328,-1.5093119,0.28119007,0.819913,0.27677876,0.8381382,-2.0816677,1.7119884,-0.37654385,-0.6668276,-1.9208066,-1.1494521,-1.1119969,2.406134
<http://kse.org/uDrMwYeNFBvfpGdDgN>,-0.75257784,-0.7236256,0.8283475,-0.86485404,0.03388168,-1.5963196,1.567346,-0.43879324,2.0167568,0.528045,-1.6276125,-0.9896423,-1.0728624,1.880746,-2.4080274,3.448714,-0.5393596,0.15736082,1.0508602,-1.3108724,1.9390564,0.90562576,1.5461577,-0.13811679,1.74361,0.734921,-1.494305,1.5541466,2.6371047,-0.7424211,-1.6253054,-1.4531627
<http://wASweRnGNSYI.org/UjjTY>,-1.6925392,0.22314414,-1.0616004,0.64616996,-0.8648137,-0.13712244,-0.86117536,1.050617,1.922307,3.410537,-0.36366293,1.8387773,0.034517657,0.98780286,-0.2597818,-0.45941338,0.71816623,-0.769976,0.06012186,-1.6630015,-0.85010755,-0.21626541,-0.71147805,2.643511,-0.5937808,2.1257994,0.04886137,-1.3186619,-0.17955358,1.6668566,-1.6200184,-0.3348284
<http://wBRUXzbVOuaLQdqLrqD.org/WeU>,0.7933452,-0.28094214,1.9989634,-1.1809592,0.81017125,0.32232183,-1.7492795,2.3178556,1.5747428,1.9279392,0.22781068,-0.33563286,0.01118349,-0.31814957,-1.4966828,1.0939819,0.15777679,2.6869304,-0.107372664,-0.44656628,-1.5984037,-2.1925075,3.102912,0.0654656,0.73995084,1.9172649,-0.37527102,1.9881228,-2.7666948,-0.015029276,-0.18583295,0.55070955
<http://dgXBns.org/UpXkfshThjI>,-1.5018338,-1.1737819,-0.18100071,3.1259365,-1.448359,2.068355,0.10722001,-0.33589908,1.1062294,1.4860333,-0.4089601,1.2471893,1.5228188,-0.5709118,-1.2211642,-0.6002158,-0.06756312,-1.3237407,-2.1277075,1.5320969,0.2671705,2.0548892,1.969884,2.2003932,2.942208,-0.2689521,-2.4909787,-0.14917305,0.27414456,-1.7801559,1.8885671,2.3988042
<http://vYOyaHusmp.org/gkASK>,1.5253386,-0.5646163,1.6338054,3.4413533,-0.6808849,1.0298026,-1.8856452,1.9568355,0.008707587,1.419976,-1.4813064,1.0680814,-1.7945681,-1.3972064,0.21847345,1.1736481,-0.7413776,0.47002876,-2.0834286,-0.64235723,1.7735008,-2.5941248,0.20411177,2.307904,0.44117022,-0.58038145,0.4154884,1.4724228,-2.3114588,-1.0652865,0.6750499,0.9605327
<http://.org/U>,2.7888281,-1.1747268,1.7497164,-1.7519052,-1.8283086,-0.8406218,0.2535496,-0.083830476,-1.254733,-0.7102118,0.8279531,1.7776006,-0.9576972,1.4982145,-0.06708091,0.37840167,-1.9643456,-0.22223487,-0.18451071,-1.4684154,-1.4037067,0.9190529,0.74705344,1.1167684,-2.7189093,1.489979,0.01884874,-2.8107896,1.9206269,0.91200465,1.1651146,-1.8866489
<http://.org/eEUVFqTKeGAJbByvGEa>,0.4830801,0.92418176,0.85640734,-1.3921185,1.1560874,0.84062445,1.8243952,0.09691708,1.7662182,1.77846,2.2853608,-0.97334695,-2.3854363,-0.272389,-1.5045005,-0.5991803,1.124384,1.0952419,-0.27753574,-0.82411605,-0.9512119,-0.8403326,-0.11838718,0.78688437,0.006603433,0.048384726,2.1771307,-1.7060416,0.94846624,-1.8778068,-0.45769408,-0.47815993
<http://aYiKSEsKQxxIkTkJ.org/XOIzCwvhxkZOJiv>,-0.094116725,0.87888294,0.65400827,-0.017386971,1.660544,-0.6188435,0.41432422,-3.3124235,1.3323888,-2.6589565,1.6274898,0.6100563,0.18118864,-1.3586326,-0.86156064,1.1382341,1.6133966,-0.4865601,3.542493,-0.61337703,-0.7252515,-0.3363434,1.0702572,-1.8743012,-0.23769926,0.32603928,-0.20474163,1.0264732,-1.1931825,-0.3492598,1.279399,1.5432165
<http://linkedgeodata.org/ontology/wikipedia>,1.8745008,0.50841326,-2.102565,-1.9886323,0.9847662,-0.80973166,0.7224634,4.8420534,0.6678493,-3.1994395,3.1288989,0.82662433,2.129775,-1.9975545,2.577286,3.18638,-0.5893578,-0.87567115,-3.4528222,-3.168026,2.616922,3.602056,0.62097305,-0.4567942,0.8414927,-2.2557263,0.025160285,0.5707779,3.082425,-0.15039082,-1.4662557,-3.1405506
<http://WLDaZGufHXq.org/kdeY>,0.327487,-0.39082992,-1.2269809,3.0653677,-1.258671,1.0624245,-2.5388093,-1.1693393,-2.0962772,-1.4251624,-2.030116,-1.0134565,0.8596743,-0.54659426,0.70497775,1.3827555,-1.0414573,0.025094086,-2.1532338,0.06845738,-0.074725434,-0.9770759,0.00831392,-1.111691,2.778495,-1.2841109,0.45729598,1.2258722,-0.07619132,-1.0045574,-0.18439071,0.8765728
<http://SSSeShERmzbjFRkRxs.org/ADpUtzlU>,-1.613379,-3.3537097,-1.1966463,-0.23408255,0.8151429,1.1676701,1.328739,-0.45421246,-2.0866964,-3.923829,0.5342877,0.12247185,-1.425273,0.8171032,-2.6500583,1.7280118,2.8625488,1.2094133,1.9357694,1.2302055,3.3282006,1.7070401,2.470731,-1.3569734,-1.2656335,-0.32359397,2.901666,-2.0222242,-0.6919577,0.2697227,-2.7424715,1.447324
<http://gmtsbLcwnNla.org/ggpgZOwNbEi>,0.20642188,-1.405766,2.152086,-1.0749453,-0.6598362,-0.08564843,1.3065368,0.10667216,1.8013734,-0.7460222,0.47084758,0.42804548,-0.73261386,-0.088896856,0.061871655,1.0785241,1.6683372,0.7638847,0.7217164,0.15252922,1.5803906,0.19625285,0.282029,-0.8525117,1.5427641,0.97638893,-1.5881412,-1.5395197,-0.024528624,-0.5265982,0.41051766,-0.11827437
<http://ZAVlQQJaRIAq.org/KbikGjWpsN>,-1.7095174,-1.2215296,-0.98654014,2.3532503,-0.30750054,-0.3882119,-1.9062864,-2.6525154,-1.8457797,-1.3568927,0.0028254092,0.54547507,1.6552861,-3.1602073,3.7610793,-0.107897535,0.09854618,0.22812532,-0.15382545,-1.8593335,0.8745137,-1.1234426,1.4722023,0.97023576,1.0068517,-1.0499967,-0.31294096,-0.5037521,-0.08425631,-1.2540747,-1.0771372,2.271935
<http://F.org/rnFqoVl>,1.149704,-1.0685892,0.70712674,-1.0152378,-0.3614727,0.18388997,-0.2352226,1.1458092,-1.9369586,-1.1544992,-0.37715858,-0.21055225,0.329852,-0.29158115,1.765583,0.07246191,-0.5273662,0.20275897,-1.439292,-1.2813338,1.5737388,-2.5432382,-1.2047019,0.38683838,-0.52169603,0.49644244,-2.8957078,-1.617698,1.0872499,0.78687745,-0.11674433,0.27429336
<http://kuTfll.org/fUQrLssbb>,-0.6410621,0.06593603,3.524786,1.1498901,1.2827117,0.34761557,0.9369216,-2.772205,3.1864033,1.7948589,-2.487668,-0.064111866,-2.9087174,-2.3779628,-2.3563974,1.860665,0.47132123,-1.5915442,0.4762663,1.2736815,2.090678,1.4177103,-0.36648715,-0.19463326,1.3992504,1.6624846,3.0084558,0.11993189,-2.3369434,-0.12658535,-2.0625377,0.48196837
<http://mPxPLcHd.org/LvtHOgl>,-1.8249427,0.52290124,0.48429763,0.7384901,-1.2366078,-2.8122602,2.847291,-1.1238227,-0.6933858,1.880002,2.2258434,-0.924801,2.543816,0.4970245,-1.3771157,1.7102932,1.5939765,-2.2524314,3.0208158,2.2591898,-2.1179323,2.760852,-0.5078479,0.06968294,0.07771081,-1.3670355,2.4051604,-0.61398953,0.2238099,-0.36384103,-1.3129053,-2.5931273
<http://jJownGcATNLcmSGgmr.org/lLRCwA>,0.71329635,0.11762156,1.0250365,0.78806466,-1.4056262,-0.2933942,-2.022279,-0.17150621,0.919491,-0.8186318,0.25753966,-1.9514867,0.89660704,-0.6720244,-0.17173027,2.7556932,-0.41086182,-0.5744957,-0.7331459,0.8326511,-1.6155889,1.2357324,-1.1164423,1.7210922,-0.9818929,2.3009439,-1.1138262,-1.5301496,-1.8967533,1.3461596,-1.8883257,0.6559106
<http://fPgSimlRKAWrqZJ.org/bLBqRjiZNOiTW>,0.80148697,-0.7366081,-0.4609058,-2.4726777,0.88806087,2.542821,1.3518198,1.7553437,2.5399928,0.36537275,1.9972917,-0.57224274,1.4669899,1.5138876,0.22597532,-1.600537,1.9027003,-0.589801,-2.4910905,-0.5676724,-0.51112574,-0.1497003,-1.7899203,1.8615081,0.6545182,0.7800092,2.5570521,2.5803638,-1.3977324,-0.739442,-1.2148844,-0.32454267
<http://xtDHnAwxbQPaZ.org/iJ>,-0.9076977,-1.0912097,-0.5648965,0.860972,2.0872555,0.9897439,1.3628387,-0.06606471,1.3927492,-1.1762708,-1.3563681,-0.0680613,0.00884751,-1.4179553,0.8609263,0.4193535,-0.94660985,1.3514224,-1.1251051,-2.4381824,1.4311196,-1.0288771,-0.82432175,2.299976,0.4610237,2.7420304,-1.1265,0.12318606,0.80924535,2.3360786,-2.1763246,2.7656484
<http://EQoVQsejyhTRhloe.org/PsOZUPy>,-0.19527973,-0.27186507,-2.1152992,-0.5726606,-0.78806055,-0.93136084,-0.15144613,-0.74131227,1.3494664,0.11790289,-0.386676,0.20447128,2.246064,3.2851672,-0.27299216,1.721448,-2.268007,0.8515906,-4.251464,0.051795207,-1.635409,-2.7732513,1.6792837,-0.23432694,1.1283442,0.78580904,-0.32463792,0.4491929,0.48390803,0.3913755,1.5823127,-0.42684066
<http://linkedgeodata.org/ontology/ref%3Aropiky.net>,1.5896578,-1.2338356,0.33107173,2.996944,1.7076823,0.56129843,0.3274595,-1.3472524,-0.26556593,0.01088502,2.2764645,2.4106753,3.839884,-1.0299153,-1.0724635,3.736354,-1.6121873,0.9746681,2.1927915,-2.337237,-2.9281151,3.803094,3.6202455,3.118178,2.49268,3.5026484,1.0323905,-1.5262316,-0.8814919,1.1465819,1.814523,0.026299348
<http://.org/BE>,2.5121696,-1.8507302,-0.08061803,1.3637714,-2.6849647,0.5441126,-2.650634,-0.2106506,-1.4293563,1.6301326,-0.76052314,0.16862538,1.7322484,-0.931424,3.31763,-0.5602672,-0.72093236,-1.7816368,-1.049377,2.9918077,0.8911737,2.726741,-3.1537583,2.9254663,-3.4100847,-2.1077156,-2.9024518,-1.184292,0.8509901,-1.6106375,-2.7730298,-0.9994323
<http://xmlns.com/foaf/0.1/homepage>,3.0141797,-1.3769437,1.2375594,0.751621,0.43402112,-1.8148701,-1.2104232,1.5933801,-1.0832766,-3.1435044,2.8319795,-0.03704873,-3.1455734,-3.096193,0.8623027,-1.6627702,4.751296,-0.3006858,-2.5404096,-0.6209646,-0.10817147,1.646689,0.2966406,2.9181476,1.6471813,0.99045306,2.780488,-1.0783798,-2.4256153,3.677,2.5289097,-0.24403222
<http://linkedgeodata.org/ontology/bunker_type>,-3.365279,-0.14882974,2.4193342,-3.6681683,0.13711803,1.8980074,0.318443,-2.7017825,-3.2395017,-0.5164944,2.5925934,-1.2221113,2.6203501,0.7411491,-3.4756095,2.7646577,-2.4562688,-0.932992,0.7009345,-1.437412,3.7248697,-1.2079612,0.16716716,2.6759548,-3.280548,3.921177,-2.821593,3.3366048,-1.805028,-3.5908544,-1.2960162,2.9527018
<http://linkedgeodata.org/ontology/nuclear_explosion%3Acrater_diameter>,1.8233637,2.4796147,-2.9319136,-2.6120212,-0.16041812,0.24859579,0.30995345,-0.5700717,0.6709264,-0.06861519,4.711218,-1.3138152,1.0334398,-0.2874971,0.42606992,2.2585742,-4.8223963,-1.469784,-0.5461672,1.6353897,-0.1317713,-0.18061134,-0.35240808,-0.5975117,3.318529,3.3860102,-0.401502,1.6801529,2.5001488,0.60357493,3.4790833,2.179128
<http://QdUQcQFp.org/KKiPTsbq>,1.5917588,0.15074666,-0.7099789,1.0768515,1.5208745,1.3692663,0.36607334,1.3403021,0.7979767,0.74086607,0.4798432,-0.7791473,-1.2841277,-1.0879055,-0.63972205,-0.17411982,0.83742064,-0.48321095,-1.516831,1.8058167,2.079612,-1.8956413,0.8825509,0.22623987,-1.7686024,-0.4676214,0.16068304,-0.020537395,0.2930226,-0.82160956,1.037614,1.3953139
<http://VikJtpVvgLtSwiFBlM.org/KvRWVfkViHq>,1.6064175,0.8804649,-1.3906066,-0.19570385,0.06424658,-0.23695433,0.283854,0.42556033,-3.0693114,1.304317,-0.37488097,-1.5892152,2.4679372,-1.8707038,-0.4910379,-3.309398,-0.07945837,-0.8434675,-3.2384822,0.13090126,1.1264958,-0.37404865,-2.146394,-0.06307744,-0.05161209,0.84345967,-0.76252025,-0.73769903,-0.23474033,-0.64768314,0.5128433,-1.004287
<http://vwLJDOVgyJQfdDhC.org/EiXCrfiyXSzTx>,-1.1306342,-1.1971587,-1.2890562,1.1402156,-3.1935036,-0.51067674,-1.1428726,1.9516302,-3.051254,2.9851265,-1.7406728,-2.163863,3.020505,-2.4043336,-1.86103,2.0611267,0.9852911,-0.9337782,1.4470757,0.586614,1.3306886,0.71005327,1.06522,1.5246627,0.3986004,0.3256771,2.110869,1.7583541,-0.55206096,-1.6674607,2.3928878,-1.2970066
<http://.org/aQcCs>,-2.6557217,1.6405084,1.3670582,-1.2306455,-0.16708031,0.32926702,1.7779883,1.0305209,-1.2316555,-1.1894976,2.2306373,0.5299429,-0.5666467,1.0998616,-0.020435406,-0.24229455,1.6793427,-1.945895,2.054343,-1.0498579,-3.067741,-0.5946238,0.4690708,0.75352514,-0.91267824,-0.07111394,0.87518454,1.734278,3.4872391,-0.039284687,-0.5718931,0.5926895
<http://YenWBa.org/hrDJvStzBfLzX>,0.017474167,1.4264282,-0.33488783,-2.3737524,-1.3467692,-1.345516,0.5165744,1.6807818,0.6803888,-1.3135504,1.5106455,-0.15844776,-0.081074506,0.9395793,3.0487485,0.7570946,1.6215532,1.1362444,-1.0617229,-2.1125464,1.6439631,1.4986625,-2.1372542,2.4006789,0.86233884,1.8362604,2.5312636,0.34876832,0.12602329,-0.97587365,0.7543878,1.0877886
<http://VUdClNGSSLWYzY.org/VoGVxPDZ>,-0.82248896,-0.40478605,0.83203113,1.59935,2.8647716,-1.2499878,-2.2641532,-1.7477783,1.0398626,1.2047812,1.3814393,-0.8874204,-1.080261,0.05578878,2.0770962,-1.602579,1.1072551,0.66823864,-1.7503896,0.8213387,1.9314799,0.1890334,-1.7199693,0.7648889,-1.2315757,-1.2556413,-0.8362174,0.5082633,2.232631,1.2603934,1.5019306,1.5141
<http://SdYNKUALES.org/E>,-0.5760877,1.4437804,0.573414,1.8157227,0.60804886,1.0644485,-0.5251556,0.31428197,-1.2603176,-0.5186842,-2.1101246,-2.9419384,-2.3166702,2.155727,0.22612515,-1.2473019,0.25004125,-1.7339464,1.998385,0.42053103,-1.0162231,2.6519094,0.25061992,0.7599905,-1.8096046,1.4265666,-2.4916756,1.7336895,1.1154742,-2.4828343,-0.0013826396,1.8361611
<http://linkedgeodata.org/ontology/ortenau_bunkermap>,0.20060383,1.1115645,2.90279,-0.8848168,3.6836102,1.008158,-2.6887896,2.557178,-1.0137936,-1.9478309,-0.17208613,-1.4685453,2.9427156,-1.0568033,2.280573,2.6820142,1.9225676,-2.0233138,-0.39201152,0.95272475,-1.797263,2.9576104,-0.27684802,1.8359805,-0.56897885,-1.4984304,-3.6901848,2.1760743,3.580365,-2.884971,-2.106416,2.1144404
<http://linkedgeodata.org/ontology/ruins>,3.4006236,1.8782648,2.6850986,-0.81356007,-2.3158832,0.23377755,-1.4501218,-1.5116042,-2.3761592,-1.6610597,2.1483886,0.85991263,-2.9168818,-1.4951416,3.0348272,-3.3369489,0.5744005,4.935465,-0.37392703,4.988476,4.8475375,-0.46396694,2.544965,0.8693196,0.81531,1.5589446,-4.4345145,0.009793243,-1.6947355,0.9420159,-0.24344426,2.7829382
<http://lVbsQatraVhwQiyu.org/DL>,-1.2728273,-2.240301,-2.5756934,2.875524,-1.4581629,-1.5764766,-1.042722,3.0233994,-1.2380418,0.087609895,1.4788907,-0.9588136,1.4579669,1.2854308,-1.6268204,0.6932073,1.4904144,0.433716,3.2024386,0.89675254,0.13305041,0.922563,0.71567637,-2.3886838,2.4282265,-1.8268236,1.1810248,1.7960335,-1.1538808,0.5137847,-0.10602601,1.2815914
<http://ZT.org/Gtc>,-0.58529806,-0.9972314,2.671441,-1.0403126,0.3544133,-0.6739771,-1.9860381,1.0674115,0.70768774,2.044748,-0.67766976,0.9153571,0.4876075,-0.44898525,-0.22907194,-0.58199614,0.7636306,0.7537521,1.2668058,0.39423397,0.3815806,1.2701623,-0.96226555,-0.7400773,-3.0882096,1.0200087,-1.5538105,-0.7106163,-1.0304302,1.4090636,-0.3944135,1.4442774
<http://.org/Q>,2.3440974,1.8953421,-0.11162001,0.2948897,-0.20853554,-1.1817254,-1.1346008,-1.7912003,-0.09011125,1.2940842,-1.4371327,1.215285,0.88631314,1.8845158,-0.07663761,-0.47451004,0.1310029,-1.9979471,-2.8498344,0.40815294,-0.21349046,1.4479035,-0.237431,3.3125868,0.08759266,1.3904607,0.12475801,-3.9561067,0.5575446,-0.9965654,-2.7381203,1.774461
<http://Fv.org/ARfLaxGcHGIzbF>,-1.0678693,1.3673235,-1.6898999,-0.6099086,-1.5722312,0.76409745,0.04036449,0.52333105,-1.2590774,1.3111556,-2.9733653,-2.0141504,0.65821075,0.8247015,-0.95576596,1.4715098,0.7662189,2.5449007,1.4502076,-0.32507145,0.19346769,-0.43789458,-2.1695626,-1.3279715,-0.06581723,-2.1956785,0.28028348,0.9422194,-1.1522712,-1.241824,1.3251877,0.2923984
<http://GlyyNkzyCgZnGF.org/AUEPWCfQi>,1.0363325,-1.0228473,-0.2415439,-0.2771643,-1.6642876,0.9459689,1.4240611,-3.068428,1.460774,-0.560488,-4.1883817,-0.52550936,-3.7210596,-0.51127017,-2.1032906,1.8823329,-0.27064708,2.7733142,-0.9865845,1.7715155,-4.510338,-2.123559,0.7879843,-0.66955346,-0.73648816,1.2417971,-1.2706048,3.157717,1.3331603,3.929272,-0.0578068,-1.8921928
<http://cot.org/ReMyJgQZgVHXO>,-2.0590599,1.6579081,2.922094,-1.348984,1.7316825,-4.081012,1.2314966,2.1304188,-1.4678577,0.05669164,1.1469573,-1.9226109,0.8954045,-1.8376323,2.2639215,-0.45366028,-1.4103026,1.5503078,0.20730372,-2.3011577,1.4848917,-2.6202862,2.0074298,0.788733,-0.895993,0.3633173,3.1586537,0.58608073,2.4065316,-0.73488796,0.63674104,1.1773214
<http://ITZyHcnPDt.org/WfMJj>,-1.188326,-0.63082945,-0.15646064,-1.9983029,-0.58312815,-0.030026587,0.4566629,1.7436093,1.1004785,1.7390543,-0.5656109,-2.1546683,0.98880374,-0.83654004,-1.0940142,-0.109642565,-0.59372956,-1.4365097,2.0748706,-2.539674,2.1585648,1.5735286,0.90980554,-1.0644299,2.5785193,-0.22161962,1.2313507,0.41322732,-1.4698716,-0.27324894,-1.644952,1.1446364
<http://.org/tkt>,0.6647252,2.7162628,-0.80592453,-2.1699626,-0.7477058,-0.454586,0.9967827,2.5286136,-1.0709602,0.14494479,-2.7005491,2.3568845,0.37952918,1.3277957,0.1864497,0.46212912,-1.8032714,0.58104545,0.08604008,0.62045085,-0.44616607,0.71593994,-0.5104179,0.6064197,-0.28142822,-1.0911326,-1.1735458,1.8988098,-1.1189575,-2.7755055,-0.021048298,-0.8874074
<http://lwQprCadAR.org/FLZfnlc>,-0.52217215,0.73669696,1.2340871,1.7207236,-1.3360734,2.318952,0.82773393,-0.22562106,0.36392453,1.0604904,0.6210317,0.2860345,-0.52960247,-0.19159031,-0.5641923,-0.46676713,-2.3405392,-3.1347706,0.74384254,-2.382594,0.69848967,2.822991,-0.08046445,-2.1043196,0.30885014,1.7986734,-1.9145601,1.6079282,0.8169029,0.73272324,-1.786375,-2.1440828
<http://NlFketUyP.org/wuHh>,-0.7405403,-1.4983306,0.43230683,1.3079649,-1.3484784,0.10242808,-1.4069823,2.6709743,3.2746675,1.5479344,-1.3632649,1.3239073,3.3621175,-0.12745185,0.63391757,0.38853547,2.3229256,0.9230079,1.9241308,2.2730625,1.1530125,-1.6017952,-0.6758539,-2.5364158,-0.89137816,0.8328148,-1.1371213,-1.0893542,-3.495254,-2.5897577,-0.9652738,0.6296914
<http://bSnuJKJAFOHhzLNFd.org/Jn>,2.1240528,3.7212806,1.8078189,1.2332015,1.25887,1.2772783,-0.17327867,-0.42341986,1.8389539,0.21762513,-0.2906866,1.2515912,3.3664954,-1.2954715,1.216654,0.43469217,0.74286133,0.17195225,-0.8216822,-2.1295063,1.8696749,-1.1083707,-0.67318714,1.6610899,0.49886557,1.6682649,-0.34870693,-4.726217,-0.17253497,-1.6512825,0.34416562,-0.6853687
<http://krBGV.org/KzpdnRDrqdVilymBBwY>,-0.94733936,-0.13561797,2.3872924,1.0893042,0.98926777,-2.7345066,-2.7431386,0.8287863,-0.7894954,-0.9470409,-2.5601888,-0.14180584,3.058674,-1.7156361,-0.38786495,-1.107917,-1.0288794,-0.18048534,0.62385714,-1.1120542,0.38894698,-0.1282405,-0.74233687,-0.7795503,0.4223699,-1.5405467,-0.38441053,2.6376333,1.172497,-0.80152357,-0.91763204,1.4563252
<http://yrjtwpJIksky.org/YHNQr>,2.7266543,-0.3872393,-1.6063656,2.18462,0.40548635,-1.8733059,-2.4768906,-0.49762577,-2.6144006,-0.37675825,2.2166169,-2.888674,2.1753736,-0.8401207,2.7114775,-1.6795261,1.0723158,-1.4484018,-0.27167153,1.4430726,-0.5799547,-0.9863159,-0.9096159,-1.7964143,2.7220714,2.7402027,1.1663549,-0.18910073,1.85557,-0.18531296,2.219281,-1.0449947
<http://ytg.org/jpgRnPyiZFov>,0.37906486,1.925024,-0.69816256,-1.4686425,-2.1197834,-1.7877116,-1.8987557,-2.438291,-5.290245,-2.3658304,1.6795624,-0.32644743,0.6972578,1.2615294,0.47657987,-0.2669624,-1.5311966,2.0491502,0.8456099,1.8439255,0.7074617,1.7193158,0.4635619,-1.24237,-4.1974006,-3.3555574,-1.0920472,0.81408006,-0.3382345,-3.014906,-1.7629472,2.5607672
<http://OWIRhhRUATg.org/HXbxtIdyjOFg>,-0.13455966,1.519594,0.620738,-1.5675074,1.518304,-2.6170018,0.6058599,0.18473612,0.5428079,-0.58329684,1.01831,0.4395407,-1.0071455,-1.415261,-0.7033791,0.7419033,0.7191603,-0.7500318,-1.4584374,-0.5076571,-0.84475034,1.6105623,-0.6003615,-0.7000816,-2.3239982,0.21117046,0.28151143,-1.3839914,-0.9353763,1.2292813,-1.1273901,1.5695143
<http://PtaKaQ.org/n>,0.8489302,-2.1308467,-0.22731899,-0.5736567,1.175936,-2.6425147,-1.0132158,-0.0061326367,-0.8310997,1.8923631,-1.1342973,0.20438242,1.146799,-0.42114028,-3.116861,-1.6999779,-0.052455943,-0.34142196,-0.9776089,0.8950641,0.61259216,-0.81036127,0.8147373,0.32983682,1.2886652,0.23296617,1.0154322,0.20451026,0.27506462,1.5137042,-0.04669309,2.1748743
<http://JbLgQmZqDJYDdFMad.org/CYS>,1.8391715,-1.4076059,-0.8055759,-0.7750119,-0.22165076,-0.2519464,1.5385398,-0.54117316,1.0350466,-2.867567,-2.4482975,-0.7450912,-1.4209667,-1.5659485,0.014343231,1.4425995,-4.355128,0.6277734,1.2282258,-0.7189672,0.99057996,0.48844293,0.43815994,2.2832024,2.3133428,-1.1491132,-2.3760567,2.7624128,1.9232482,0.33026463,-1.2615495,-1.5802993
<http://qgRoEHakAmLxofzme.org/rrcriB>,1.2048662,2.3946931,-0.17026322,0.5001753,-1.1634166,-0.44701076,-1.6557885,-1.7979282,0.96921927,-0.9200633,-2.606107,0.8787246,-0.05988982,-0.83469814,-1.8476834,-0.0146179255,-2.4026616,-0.5422617,2.678807,0.25345165,-0.45791396,0.27639335,-1.8509738,-1.5212438,-1.6733525,-1.3676894,0.12162401,2.2457132,-2.1102755,-0.44591647,-1.0134006,-1.0896527
<http://MvhVZ.org/VmbDkAkKgObTinPy>,-0.51127344,-0.1840015,1.1521938,2.2857225,-0.2566462,2.8162587,-2.995321,-0.7259606,1.1245908,-0.20160677,1.2998753,-0.5856995,-1.4038004,0.122540995,-0.35059106,0.035693128,-1.8489199,-1.7089571,-2.1548128,2.056763,0.05018317,0.37533095,3.3548598,-0.77719456,2.8370452,1.7498319,0.4076013,3.0243626,-0.49580047,2.4240196,2.3488123,2.66862
<http://dtNy.org/zfdSIDz>,0.37260658,-0.2906372,0.85478795,-0.120132655,-0.051761124,0.06287377,-0.14284699,0.7767313,-0.74433076,0.8049271,-1.1026263,0.77694046,1.7452357,0.04776089,1.2919369,2.4496176,0.8414246,-0.6572847,2.4133432,0.5049259,-0.06704133,-3.8929186,-0.595783,-0.8723517,1.9203451,-1.8382086,0.49125046,-2.397667,-0.13400227,0.49492982,-0.5122068,-0.5239958
<http://KlzhlfS.org/QxEdj>,-0.7933204,3.395471,-1.7697687,1.8323994,-1.4583536,0.9356025,-0.42661488,2.381018,-0.7158287,2.1978924,-3.2021964,-1.3422343,-0.091933906,-0.15483199,1.794107,1.5774101,1.2796004,-1.3677956,2.70486,-0.9602119,0.12389107,0.29787603,-2.443593,0.032390542,-1.9213578,0.85155636,-0.31661588,-0.6896118,1.9079393,-2.9222336,-2.5930066,0.055100605
<http://.org/HnoKcZyugJKwgrtMS>,2.6916287,1.6343895,-2.6318245,-0.41900885,-2.9351375,0.17404535,0.5553931,-0.268818,-3.6449342,-1.0896306,-1.1486621,2.188422,0.499716,-3.1997948,-1.3541663,0.44104457,2.7351441,-0.21056639,-1.5798135,-2.924598,-0.23955554,1.0825753,-1.7738181,-3.1254776,-0.45253962,-1.0023289,-1.118361,-2.4039376,-1.065148,0.055206295,1.4639308,2.2413142
<http://QZrblIrTBkCwLa.org/vvxlWoWsZjoF>,1.3584267,2.225014,-2.491735,1.4572991,1.5729158,1.2437892,-1.1349188,-2.3804607,0.30633447,0.5521839,-0.92847526,-0.6141162,1.156749,-1.7540156,-0.74343914,-1.637157,1.1837083,-1.0352498,-0.457811,1.4750894,-2.7234344,-1.7315048,2.0756066,-1.1267962,0.9203991,2.6123655,-2.6105824,3.5792947,-2.5640264,-0.4219321,-0.045608792,2.371108
<http://linkedgeodata.org/ontology/disused>,2.8531146,1.6388344,3.007132,-1.1780456,-1.9862503,1.7129581,-1.5396165,-1.4318367,-2.5286515,-2.202435,2.877295,0.9294861,-2.5404212,-1.4645609,3.2580297,-3.195988,1.5069356,4.0646305,-0.22085667,5.0126753,4.52418,-1.0744119,2.4931333,1.3311971,0.16492744,2.0592828,-4.5970926,0.6516492,-1.0310798,0.69393563,-0.4363137,2.991133
<http://linkedgeodata.org/ontology/note>,2.3061836,-1.9537113,1.0527368,1.6904398,-3.134199,0.89176637,-1.7635888,2.2948537,2.653609,-1.8108339,0.5904684,-3.4918227,-1.0500906,-0.83047235,1.1108463,1.0960803,-1.4498007,-1.7511127,-0.54546535,0.7761961,-4.2589765,-3.927264,2.1714883,1.4606864,2.71635,-2.8566127,-3.5356848,-0.010105727,-2.3290162,-1.1659042,0.5490601,-0.5013071
<http://Ha.org/eHITjmuXnZWS>,-1.3390242,-0.20132458,1.4639723,0.73670846,-3.0432398,1.2315516,-2.5650036,1.5635387,-1.4502445,-0.5605034,-1.1981128,2.6678607,1.4792353,-0.6709176,1.0041125,0.41698804,1.4452304,-1.713427,1.7481196,0.6681534,-0.18985772,2.2601295,-0.06933716,0.6138311,0.03283835,0.63228554,-0.91587436,2.205819,-0.24300146,-1.5345441,-0.35742468,-0.08387397
<http://VywYTodaHrBDdzeB.org/lofOMZtusnYRjP>,2.0099554,1.2760766,1.2842281,-0.96016294,0.0057553547,0.15243231,-2.1487153,-0.009012889,0.35427636,1.6511,-1.4753032,1.5464381,-1.2225523,-1.436941,0.85561097,1.6021352,-0.6211783,-0.04731167,-0.7161073,2.2913132,0.745317,-0.6369141,-0.025441708,-2.2828937,-0.54408616,-0.11222454,-0.5721458,1.3748778,-1.6840464,-0.77402467,1.2292162,1.9684912
<http://eyhGJeatTvZic.org/qilHfydZPFkQyQUav>,-0.026405422,-0.57975006,-0.8268295,2.3432138,-0.44175047,1.2693664,0.26815844,0.49792254,-1.2281377,0.44350833,0.029382428,-0.6512042,0.4271366,-0.6619455,0.8195662,2.956549,-0.07092874,1.4450272,0.5689993,-0.94842654,-2.3453605,-0.41262323,0.42366174,-1.3080267,-2.7061203,-1.7963578,0.093853876,2.8344824,0.47868702,0.46314952,-0.96247953,-0.7923245
<http://N.org/FVxbBOQXpMKGCYfIs>,-1.8311268,2.4014704,-0.00887852,-1.9202323,-0.9274908,1.0192246,-1.9971852,-1.5822097,1.2064598,0.2067942,-0.14412647,2.7334223,-1.8960695,1.7614609,-0.10633711,-2.1887956,0.8364797,-2.3920288,0.89630777,-0.16050431,-1.9248999,-1.9770354,-2.4022546,1.315769,2.9392023,-2.0084274,2.1197643,-0.95656466,0.7959881,-1.3402718,1.5605643,-1.3047073
<http://pDFhuml.org/GFuMkpZaX>,-0.40853223,-0.5982515,3.499538,0.36379343,-1.9831178,-0.2621329,0.7813799,0.44577923,1.2480754,2.194927,-0.4833291,0.51287025,-2.557284,0.012413699,-1.6433105,0.002720718,-2.0104182,0.7445636,0.24089323,0.34427965,-1.7024851,-1.0180598,0.24821536,-0.80681515,0.60431683,1.5676343,-0.7652251,1.1247426,-0.90812105,-2.0037725,-1.2570343,0.38213506
<http://dyXS.org/hiUsUaOCVKheoRVPTk>,-1.2062994,-0.35941127,-0.69711417,0.46790144,1.4076275,0.09118532,2.4470394,1.3087689,0.88765347,0.37176913,1.4877622,0.37046373,1.4743557,1.328983,0.8946752,-2.079691,-3.0877604,-2.44749,0.8287179,-2.2170749,1.0294948,-1.5588522,1.523599,-2.672763,-0.3039281,-2.0718863,-0.40061396,-0.78738546,-1.1617265,1.5962379,1.5685227,0.303728
<http://KP.org/WmVrSCU>,-1.7794446,-1.9334162,0.9198471,0.15642458,0.91595745,-0.84739375,1.6550932,-0.06048273,-0.21270005,0.3799001,-0.2527803,-0.21529321,0.003985223,0.16520727,-1.0878799,-1.6276516,-1.6081694,1.3398116,0.4205123,-1.4867063,-1.0947839,-0.96514314,1.0840343,-0.21280695,0.9066137,-1.7845367,2.0053024,-0.6018529,0.41425827,-0.0087739695,1.549963,-0.3542966
<http://mbUplKlwhn.org/>,-0.32000452,-1.5781991,-1.7485285,0.6356275,-0.42934325,1.0862473,2.7287612,-0.92024225,-0.95338017,2.6968274,-0.8073936,-0.19287172,-0.13650097,0.5413485,0.64031005,-1.045042,0.015456421,-0.6467878,-1.1245528,-1.4944594,-0.943691,0.17621613,0.9045035,-1.3065739,0.24009493,0.05730722,0.067763776,2.2619214,0.4744506,3.1335883,-0.6581312,0.50829476
<http://xJ.org/QFUSZnF>,-1.9778869,-1.3084198,1.0714545,0.2021828,-0.56882113,-0.5847393,-0.34135723,2.9052904,2.1851614,0.69135445,2.4080358,-0.61657864,0.13215661,-0.5330239,3.4378357,2.4258168,0.7134108,2.4323227,-1.3369826,-2.363795,0.9273647,-1.1655128,2.9288063,3.39052,0.02370361,0.48186278,-2.3127205,0.6751478,0.04499017,1.9418399,1.0809374,-3.497658
<http://linkedgeodata.org/ontology/ref>,-0.9623132,0.5831803,1.747921,-1.6964425,-2.7398348,1.0811706,-2.5760763,5.1346292,-0.8959359,-1.2191942,1.4041183,-0.02666486,0.5068104,0.81388444,-0.24640527,0.7644399,2.0474055,-3.6869287,1.516383,-1.9835311,1.0302922,1.3170495,-1.8200902,2.1286793,-3.2279868,1.2111139,-0.39365232,-1.1191928,-2.510738,0.24817246,0.7348518,-1.6739901
<http://PtRplQAbQ.org/fFcdccz>,-0.31961456,1.3683388,-1.2008662,-0.5823028,-0.81274253,-1.3017834,-0.3883166,2.3961923,-0.28083307,-0.71147734,-0.35484463,0.40940374,1.8660942,1.4016821,1.7302531,-0.76444054,1.1492507,0.14359981,-2.21123,-0.30162352,1.5003359,1.4085243,-1.8822936,-1.4478033,-0.67292756,2.6785069,-2.730722,-0.051563043,0.57032865,-1.5480214,0.16025613,1.2627437
<http://epiVRmGrJjbj.org/DASroeH>,0.7885204,-0.2328242,-1.461488,-0.26300442,1.6097251,2.8516831,-1.3133954,0.4919362,0.045753624,-1.9719771,0.13072278,0.11734388,-2.0092194,-1.6974559,-1.6511538,-1.7712594,2.3977554,-0.6459925,-0.36894992,0.05926272,0.3220187,-0.15977362,-2.0903456,0.073514394,-0.1678232,-0.3795711,0.606983,0.9323365,0.18138787,-1.2499477,1.2645139,-1.2885672
<http://ALdOxQmj.org/>,2.2078948,-1.0736974,0.20860718,4.2768083,-2.4638774,-2.4082713,-0.6019128,-2.3693984,0.9547163,0.48205084,2.3482533,-2.7548873,-1.716303,1.7586424,-1.1990769,1.8792443,-1.5078614,2.252757,-2.9556658,-0.6424734,0.24023749,-2.5080166,-1.0169375,2.9826543,0.9625031,-3.182076,2.0926468,1.3669816,-2.4186265,2.231935,-0.73062605,-2.3367739
<http://aXVgpEqGelZuSSEQfKE.org/SGhHJFJIpfnWvt>,1.7076033,-2.4536815,-0.46744224,1.4013664,0.05981151,0.98408693,-2.298111,-1.0822393,-0.9990276,-0.6452079,-1.0678684,-0.6351077,1.0283732,0.1489251,-1.5061606,0.80045277,0.23445693,0.32826787,1.0790498,0.8844858,-1.8213143,1.2907484,0.60343236,3.0328085,1.8470933,0.29290068,0.64242786,0.33193564,1.4389833,-0.21739995,-0.7136556,-0.7804894
<http://JdmnUDio.org/DeHtQnHCOSUjJzz>,0.4862671,-1.1668817,0.9672269,-0.37287632,-1.5608515,-1.537168,0.07174902,-0.5541885,1.9841717,0.8239477,1.9721215,1.2225591,-0.85210633,0.10817488,2.397152,1.0923474,-1.6982698,-2.261556,0.8776226,-1.2725128,0.11519635,2.046128,1.5143248,-1.6062866,-0.2284995,-0.6502089,0.15537032,-1.0497373,0.80140436,0.09182188,0.62644744,-1.4439342
<http://WAZbHiOVhisovLgaC.org/KquLfSaCXfHEXuhPlE>,-0.67827755,-1.8141062,3.5550709,-1.4027313,-0.57111037,-2.1207488,-2.754399,-0.6867398,-0.24512997,-0.08095923,2.0155575,0.2748933,-2.056187,0.41619825,-0.7348354,-0.78288305,-0.14286698,2.13001,-2.3479595,2.2637339,-0.8131967,-1.25303,0.981316,1.372353,1.9733324,1.6942772,-0.41803887,1.8214418,-3.6716998,0.1765145,0.11140561,-0.5897398
<http://bAOydKPgUHwkv.org/ZrVjRVGpEPKEmELz>,0.10348025,-0.4295477,0.34504503,2.4253552,-1.5581748,1.0650778,-1.2764603,1.7466676,-0.0034702066,0.719358,-0.68410987,0.35527098,0.67029333,0.10682171,-2.462567,-0.85235703,0.015686655,1.1691855,-0.9185847,1.6809787,0.18528229,1.5728575,0.6180502,-0.0920117,-0.28437665,2.2513268,0.062941,-0.5810148,-2.4484708,-0.25923222,1.2509875,1.8604608
<http://lfMPAN.org/DyBT>,1.8649769,1.896507,0.8858005,-0.7144602,-0.5190819,2.4748645,2.7389166,-1.3943154,-0.52399826,-0.35032886,-0.22628562,0.6137266,-0.6137626,1.6401567,-2.413663,0.11236793,-2.0953543,0.9870569,-0.41308367,1.4502766,0.909533,-0.1297185,1.1440243,0.97922057,0.3690054,-0.492484,2.988114,-0.28813934,0.9036221,0.5456765,0.026881693,-0.43833795
<http://linkedgeodata.org/ontology/destroyed>,-0.3788348,0.6908112,3.152586,0.5332008,3.1070476,1.7429734,-3.4182425,2.3073175,-1.669869,-1.1718382,0.47485745,-1.9692001,3.0228775,-0.43579924,1.1600198,3.082016,1.959225,-2.8578346,-0.3066413,2.0165777,-1.5584811,1.0880125,0.17990364,3.0428216,-0.09534843,-1.1243154,-3.6161969,2.3627234,3.5021677,-3.2314675,-2.2228189,1.2818296
<http://tfIhjw.org/g>,1.9680246,-1.9884408,1.4625429,-1.687529,-1.3518461,0.000271839,-2.237473,0.59297454,1.5225357,0.98002356,1.0085863,-0.06644948,1.2315139,1.7705896,1.3782489,1.3045726,-2.5231752,-0.7167123,-1.2922647,-2.0926025,-1.3278576,0.6536153,1.4212191,-0.09866344,0.6449897,1.061787,-2.8292098,0.65457594,-1.1225393,2.2590625,0.96641177,0.2748395
<http://bKlvLgwGMNLBwQli.org/pPLDqtaIMlDklqL>,-1.59715,-1.359552,-0.77967566,2.107368,-0.36363032,-2.1697817,-1.9472818,1.9011579,0.52742934,1.7697405,1.1126832,0.04451075,-0.72648025,-2.297907,-0.9331929,-1.1363066,-1.810683,0.075881824,1.2792978,-1.1373799,-1.059109,-0.46016717,-0.88352054,-0.71895236,0.027413303,-0.48158464,-1.0902569,-0.009631478,0.4523225,-1.2825551,2.683254,-2.4173388
<http://XIfFlOp.org/eZETu>,1.1214207,-1.0476767,-0.2578165,1.8852531,2.453779,0.0110403225,0.8660881,2.0470607,2.9049823,-0.84427667,0.14347783,0.19661449,1.6829854,0.3461849,1.1034253,0.062023886,2.812028,0.23631169,-1.0089654,-1.1735066,0.5600794,0.75473726,1.2284651,1.650035,-0.45193416,-1.2850912,0.44009072,-1.1544266,1.0571458,-1.9601213,-2.7947612,-0.13095552
<http://TifwxBGwDt.org/yRLuLgbBiCtVwp>,3.0836112,1.0356784,1.0088922,-0.48182213,2.9343698,-1.8671409,1.0577954,-0.06201533,-0.5170686,-1.0769621,0.41915283,-0.5131903,-0.7765017,-1.6809056,1.8902262,0.5824271,0.048851814,-1.2397653,-1.2254512,-0.8246985,1.3981646,0.30193445,0.19990484,2.0668116,1.1166947,2.2043524,0.52279985,0.009234289,0.49456444,0.5895818,1.3514972,0.5339954
<http://xYYIJEjZ.org/tLPTMJzlheEkgwWn>,-2.3033195,1.607144,1.0537142,1.6585542,0.36367702,-1.9498112,1.1081144,2.0655553,-0.6194291,0.5047332,3.1156182,0.63438517,0.7333026,1.5344676,-0.55015665,0.07115519,0.23479706,-0.7165087,-1.6415989,-0.9087876,2.0064237,-1.6834228,-0.26305267,0.57094103,0.91956294,0.2831978,-0.97637606,0.7940088,-0.76508784,2.8690343,1.3941015,-2.184632
<http://gGlrpWOcKxTf.org/xmjRDORZYZzOWtKbNbR>,-0.33635584,2.1605635,-0.5115195,1.0492598,1.2982647,-1.1920401,-1.0233544,1.5191455,-0.5210581,-0.49478683,-0.4731352,-0.3082342,-0.21615553,-2.1956294,0.48532447,-0.09871739,1.8171806,-0.62956357,-0.35521737,2.8667617,0.80712533,-2.295363,-0.79913336,1.6298652,-2.1597388,-2.2823927,-0.36943224,0.48864022,-0.628907,1.1027797,1.0638703,-2.0141337
<http://KgQ.org/vPl>,-0.45636773,1.9495665,1.2731308,-0.4240615,-0.23247375,-1.594837,-2.76368,1.3349079,0.55306035,-2.7377312,0.34364054,0.58806866,-1.8348339,-1.0816284,-1.381629,-0.031119674,1.9184434,0.3960257,-1.3731916,-0.92492783,0.86441463,2.7232726,-4.1261897,1.9119695,-1.0396647,2.270906,1.1663417,0.8618779,-1.4406785,-1.9300971,-0.90579724,-0.74548924
<http://txEhJEjKcSQSDTtp.org/QAJiIwJFUh>,-2.7651348,-1.0001084,2.1029522,1.2335398,0.25419095,1.9258807,-2.410472,-2.3447456,1.7486621,-4.240915,2.806381,-1.8838722,0.34824762,1.46357,1.4342102,-0.12152971,1.5594368,0.11108124,0.3729364,-0.33567125,-0.66919434,-2.3860426,-2.466832,0.26836726,-0.91138893,-0.6767734,-0.056597132,-0.96639264,-0.41785103,-1.1021756,0.21610153,0.28297162
<http://Ao.org/QkS>,-1.7222906,-2.6444268,-2.19815,2.0101345,0.40224454,-0.75446296,-0.8076936,-0.5510531,-0.13327995,-3.0976052,3.797512,-0.47942036,-1.5628488,-0.43729475,0.75592524,-0.97335035,-0.7284425,-0.66453326,-0.53787154,-2.207858,-0.45798233,1.3352262,-2.0990884,-1.6500484,1.7009424,0.96360606,-4.057409,-1.5926273,-2.023211,-1.0252564,0.022056751,-0.25349265
<http://FvCrNslNWulcRVbHy.org/osVLOZe>,-2.7291858,-0.23369294,1.6078484,0.5662979,1.2957369,1.52195,-2.4803438,0.012793979,-1.6694582,0.16737539,3.2505927,-0.076875485,2.7376335,0.31325212,-1.1143725,-1.325783,-0.71855855,2.3447754,-0.52382416,-0.33765408,-1.3143934,1.6639131,1.554499,-0.29735088,2.9333134,-0.9076491,-1.0665157,0.50072646,-0.9196891,-2.3693938,2.376564,1.6735839
<http://hFDYvDoSjRT.org/bCUFbydpbgyGXe>,-0.30963326,1.1121391,-2.9382353,0.06709039,-0.30345255,0.8982295,-0.8649744,1.1519367,-0.8358529,0.82375085,-1.2573818,2.3314683,1.0447822,0.5055229,0.8505971,0.37800378,1.0461286,0.37410548,0.19412301,-0.4906659,-0.88441646,-1.0882989,2.0501623,0.23380631,-1.0580019,-2.11318,1.3549607,-0.24974333,-2.2709963,-2.301045,0.80968565,-0.6234984
<http://lJd.org/>,-0.13855198,1.6490887,1.7025698,0.38428417,-1.3929939,-1.4028538,-0.49832112,-1.3487121,-2.402137,-1.0710851,-2.825834,-0.872585,-2.049376,1.2255765,0.13260491,1.3398552,-3.5787628,-1.4820458,0.048399054,1.5835335,3.1094413,-3.1980114,-2.6058373,1.8235065,1.6678021,-2.6820111,2.774595,-2.5136344,-0.64216757,-0.3018328,1.8587186,1.2936972
<http://ZiKLgDzbIw.org/gWhijpgvUUwWZcOQei>,-0.14428459,4.1236906,2.7674372,-0.62067825,1.7148116,-0.9216099,-1.6612009,-1.3754122,-0.2557157,-0.4196227,2.6124837,-0.22070757,0.20820284,0.130168,-0.6172211,0.98593235,0.34945494,-1.062728,0.0958323,0.53856695,-2.172756,0.5210026,-1.0290349,0.47563672,1.6087323,1.1377994,1.158453,-0.29089084,1.2133102,0.30739972,1.7281039,0.026377875
<http://Gd.org/FvTNQQ>,1.2889996,-0.72101295,0.39143556,0.8052981,1.9629037,-0.056451015,-0.90931934,-0.8428747,0.728126,1.3792746,-0.60160065,2.5174615,-0.8741948,2.223773,2.0545547,-0.54568166,1.704731,-0.43445307,0.22735661,0.3698139,0.580165,2.4516306,1.1996967,-0.4128429,-0.23164178,-2.206693,-0.3765999,2.149623,0.19407037,0.68596154,0.8701665,1.321218
<http://ouAqS.org/blVUwxGrZvUi>,-1.9824947,0.9441483,-2.111958,-1.0593793,-0.19030929,0.65252626,1.9285338,4.3387003,1.4877236,0.9482901,-1.8305703,0.88081276,-1.1634585,0.49482596,-2.6864517,-1.1139262,0.334119,-1.6416097,1.4719244,-0.4995981,-1.072738,3.176395,0.0118221585,0.25171506,-1.5750157,-1.2239931,-1.9599478,2.592869,-0.4214472,1.6965321,2.1065152,1.0399766
<http://dgvohvEkKCUwB.org/MvCYLmlHdGDOWzEgM>,-0.14489391,2.291956,0.66085464,-0.77924985,-0.9432405,-2.314019,0.81656015,2.1555197,1.8196785,-0.47088912,-2.413172,-0.02627467,0.29095984,-2.1971629,0.16836596,-0.35670918,1.8844693,0.020766431,-1.6834174,-0.66217077,-0.2151769,-1.6898795,-0.24384278,-0.20296063,-2.8462477,0.8052694,-0.7069948,-1.9304967,-0.14046143,1.0376867,-0.9276091,-1.4461031
<http://MoRlqLe.org/diYUjZ>,-2.5863123,0.8033598,1.7187531,1.3485,-0.78806394,1.4549713,-0.62350523,-0.052851655,-0.4363469,-1.1963272,1.0287902,-0.2993294,-0.70745915,-1.7750762,1.2919415,0.014856845,-2.118107,1.5558656,-0.3427074,-1.8283398,-0.10605216,0.10020335,0.14501292,0.94873035,0.7585692,1.0312922,0.08670029,-0.8304941,1.6992431,-0.732281,-1.2280042,-0.5085751
<http://eSLpbvOCL.org/HjRRxeCi>,-1.2052522,-1.8403859,1.1849881,0.013375151,1.1726403,1.2749323,-0.8752153,0.44881594,-0.28800476,0.8988773,0.2806123,1.9878724,-0.39056236,0.9814826,-0.24237151,1.4009062,-1.0646583,1.1150978,-0.9604819,0.9038336,-0.4328722,-0.67809016,-1.1189134,0.6832887,3.423596,0.10834749,-1.7443371,0.8068851,-0.5833792,-2.4921355,1.5563513,-1.2610502
<http://.org/UOiHrUGidcXjTqeajo>,-2.8777888,0.81503767,-2.177592,3.5679364,0.48993132,1.237442,0.16444385,-1.5410415,-1.1433889,0.8465399,1.2862662,-3.308706,1.1066018,-0.0027064194,0.9079984,3.9985478,-2.0782065,-1.1060697,0.4935885,2.0503392,0.4643928,-1.8650782,0.10386006,-2.0496771,1.3596311,0.093703866,-3.9680378,-2.192282,-0.64950675,-0.63441753,2.6863656,0.3747357
<http://PCK.org/eFnggCBznIPFKbpfTNB>,-0.963701,-1.1585317,-1.7216619,2.828509,-2.1590772,-0.09262766,-0.73899275,-2.4951851,1.36011,0.9572094,1.4455212,0.7702889,2.6233866,-0.6172946,-0.8229539,-2.3476205,-0.15299809,-2.365823,1.6872725,2.8098445,2.9202561,0.16310047,-1.9361185,-2.2968714,1.1949975,-2.5945506,-0.5041533,-0.7223604,-1.0061376,-1.4096707,-1.7131314,-0.98100376
<http://PzIkyOjfbV.org/NRpghQgMqeQ>,1.217271,1.2448428,0.7878287,0.23674083,0.77106684,1.4605614,-0.22879675,-0.2961178,-2.0619547,0.45782712,0.15976225,0.75733495,0.78406274,-1.6810727,1.3428358,-0.0008127413,1.5821799,-0.8565923,-0.7245908,-0.013424725,1.0155323,1.546526,-0.4778233,-1.2487226,1.3110019,2.768251,-0.118768014,2.1507394,0.11461565,-1.1519254,1.3107585,0.15609974
<http://vn.org/rTDizJMCgDVpes>,-0.37189448,-2.456741,3.8660514,-0.14467637,-0.97823226,-1.8765454,-3.0511253,-0.18027025,-2.2710032,-0.8153116,0.8205268,-0.7248202,-0.7578183,2.4720435,-2.2636018,2.443001,3.8160188,-0.41694966,-1.6978955,1.9634199,-1.5444013,1.304354,-0.88902545,-1.2729785,-1.1472417,-0.18314296,-3.9243963,-1.2394756,-2.8752222,0.26417333,1.170179,-2.7341542
<http://nxEdhMyVINVDbxG.org/SIQOtwlOFtveJOuDvzr>,-3.4350934,-0.8825102,-0.042890705,-2.9970496,-1.0758594,3.502288,-1.371775,-1.2049917,-2.8971212,3.405754,-0.8413292,0.8961629,-3.4479506,-0.13926889,-0.4205032,-2.0507665,0.988443,-2.0245585,1.4533749,-2.0445924,-0.20736063,-0.43094936,0.628231,-1.4431725,2.899877,-2.8252304,1.1087605,-0.20316648,-1.5069734,-0.7846542,-2.2395482,-0.7790849
<http://lpuEX.org/ERtdxHqlerEXIxyub>,-0.59021753,-1.0301859,1.8293816,0.78698796,0.23386838,0.13582103,-0.4378291,1.0880591,-0.30710897,-0.36203602,-1.3289922,0.11286545,-2.8021853,-1.0393336,-3.2987301,2.9674795,-1.1907679,2.4436684,0.7138024,0.9779959,1.4974324,-0.60227776,-2.492432,0.082144834,-0.28326815,0.5991946,0.80211854,-0.71707183,1.5792618,-1.8240091,-2.0682755,-3.6103015
<http://AwzNKAPZqrECBvGAj.org/ywPxiqIvtH>,-0.81183666,-1.593149,-0.14166011,3.3812885,2.24426,-3.4439323,-0.85240996,1.5823998,-2.907842,0.30670348,0.06650526,-1.7501637,0.7491295,-0.8400027,-1.1150621,0.6256101,-1.8176668,0.8689894,-0.63273954,-0.6607175,2.850671,-2.2298858,-2.7817838,-2.068828,1.2160662,2.5234668,-0.4849425,-0.7831009,-0.35196286,-2.0499046,-0.06048445,-2.5461779
<http://SZNO.org/r>,0.5454613,0.816357,-0.8432284,0.4673531,0.038056783,-1.7122744,0.32900414,0.63863665,0.26845366,-1.0263411,2.7201562,1.8633612,2.2755754,1.8440151,-2.9250376,0.13925666,0.9798024,0.5193894,0.03299507,-0.6074768,0.5615353,-0.67742246,0.06769703,-1.1227154,0.09110958,-1.0538545,1.7583122,-0.70774025,-0.61282086,0.37918836,0.13058655,0.41727763
<http://linkedgeodata.org/ontology/access>,-1.8501881,1.7023407,-3.4353259,-2.1766036,0.6962358,0.9868452,0.10994035,0.42572615,0.100411914,0.25407952,0.13094422,-2.9017808,3.5081825,3.0465443,0.91427284,0.35546124,0.9177385,2.5733929,-2.22065,0.3760484,0.64835685,-1.9142876,-1.9756484,-0.911934,-4.1448927,-3.2948675,-0.31383446,1.6368414,0.4844773,4.5371013,4.867638,-2.2999516
<http://ncfHFZYrpvVXB.org/QTIbG>,-0.1645153,-1.7145295,-0.6695908,-0.09091948,-0.35201877,1.5561726,-2.136159,-0.49815923,-0.537332,1.759197,-1.5815692,-2.527564,-0.9295628,-1.1560128,-1.8131142,-2.0857868,0.15024535,-0.31305537,-1.1812795,-1.5699612,-0.74278826,-0.584838,-0.6515459,-0.80539316,-0.77326554,-1.4455818,-2.2788558,0.47825244,-0.31426805,1.1770511,0.5155703,-0.6240365
<http://WRFdtY.org/ep>,-0.45810094,-0.52659184,-0.5886326,-1.8138186,-2.3913534,-0.34471065,0.38010904,0.30768985,0.36639017,1.6550514,-0.97815,0.42797068,-0.4333427,1.4748709,-1.8294091,-0.36985394,0.36716643,-0.8291552,2.243078,0.97425216,-1.7746922,0.2893195,1.7028596,1.7664039,1.3596835,-0.5563227,1.2644565,2.6652684,-1.2428387,0.3258587,-0.48118028,-0.92022645
<http://linkedgeodata.org/ontology/location>,-0.9939125,-2.0365012,-2.793426,-2.9594603,-1.822692,-2.3956895,-2.6098838,-3.7854266,-1.7166468,-0.48029062,-0.48746336,-1.9575195,0.6363498,-1.3012104,2.1051319,-1.7632883,-2.8308756,-0.66338056,-2.8271282,-2.4681718,2.3203945,2.9657428,-2.9888363,1.4352031,3.193617,-3.84132,3.1345496,-2.9389672,-1.6431975,-3.313262,-4.9992824,-0.18336499
<http://ZWJTSfm.org/QQR>,0.3093466,-1.0265788,-1.4714702,4.0467734,-0.81675094,0.46257144,0.9567254,-0.27600646,-0.60861886,-1.1812071,0.6265643,0.014158204,-0.23090127,-1.1666489,-0.36373633,-0.31108052,-1.3834497,-0.17522025,0.40773916,-1.2557919,1.1918361,-0.6054978,1.2043978,1.276672,0.09809262,-0.5872089,-0.047385916,1.8465159,-0.8859525,-1.607424,-0.37560824,2.904245
<http://vNjAj.org/JWoFBadvJUNknL>,0.3404485,0.9133432,2.488251,1.0019237,-1.2788217,0.9645896,-0.42135373,-0.17761467,-0.15117174,0.25339442,0.8474379,-0.92000806,0.7772749,2.411489,-1.749983,0.0041775214,2.0785334,-1.2785167,0.53244984,-1.301778,-0.89116627,0.58649904,0.47070926,-1.0150657,0.20784247,-2.4335046,-1.4228568,-0.7085419,-0.29681623,-1.9883072,-0.759362,0.36282945
<http://gvErDHuRXMWCnLmhaaD.org/gbBxnnVySeXwQw>,1.2012709,2.5739431,2.628014,0.3586076,-0.44228747,-2.2991512,1.7717885,0.34060428,2.261168,-0.37135777,-0.6310646,-1.584192,1.7869688,1.1694239,1.1072656,-0.12289459,-1.3911179,-2.1143477,2.1211276,-1.3346403,0.84816563,-1.274428,0.31971672,0.7010116,1.2379557,-0.4738231,0.8302324,0.7078844,-0.39029825,-1.5676292,0.8758483,-1.3305205
<http://PTdoLJQBoK.org/wDxmjxPzgwXxGmQ>,-0.195882,-1.00948,1.062034,0.43042254,-0.11326351,-0.58282036,0.2534696,-1.0187923,-0.38281807,0.47303447,0.3306018,-1.7635903,0.21047103,2.1605628,0.214041,0.3949592,3.4115374,1.1122755,0.85641676,1.6941625,-1.3706121,0.6757712,-0.77862185,-0.12129166,0.901596,-0.43021402,-0.7013842,-0.41317126,-2.2755122,0.29218915,-1.6695852,1.155183
<http://uISKQLYislwMFGveKan.org/FZVlhe>,-0.43774244,-1.0157404,-0.67446905,0.81569576,-0.6261851,0.23616734,0.6925184,0.9760674,-1.430127,-0.22046499,-2.2741497,-1.109055,0.51050735,-1.9022644,0.6143914,0.46879286,-0.009614834,-2.4887867,-0.7890805,-1.4091482,-0.3414145,-2.1775985,-0.37514567,-0.061536975,-0.29231307,-1.3439152,0.10512082,0.40088272,-0.77547413,1.3892144,0.788472,-0.64648724
<http://.org/fanePeFyKjUCLtIaX>,0.22751798,-1.4689081,-2.6360502,0.8790484,-0.1861395,-1.1652819,1.4328905,-1.6430653,-1.9576111,1.311271,-0.06714124,2.6223795,-0.43928796,-1.9283221,1.6379403,-0.7986944,2.246853,0.8925062,-1.6317378,-1.9468042,-3.7098286,0.08233767,-2.5103822,0.34863943,0.6131239,0.45359677,2.396809,-2.4822836,3.1182685,-0.03559691,1.1866508,-1.4925508
<http://wAYLXFRjUxpeXiwz.org/ZUsIBeczaIarCeAr>,-1.3711683,2.5304153,1.3723286,0.49508375,-2.7643752,-0.4845652,-2.5260396,-1.2612064,1.6571605,0.8443893,0.45567876,-1.5365852,0.33717588,0.86656404,0.2660438,-2.2373571,0.90443504,2.1878269,-1.2123863,-0.7758136,0.030179093,-0.4865479,0.7026671,-1.814549,1.4455895,1.0578591,-0.61115545,-0.24270211,0.4245548,0.91090864,-0.49945098,4.6620126
<http://rqJjghMJHRZNGUzD.org/jspNsyXi>,1.065147,-1.0999246,2.204185,0.31595248,-0.50240284,1.3962855,-2.5696816,0.08692161,-0.62870985,2.0010517,-0.3009923,0.09549024,-1.9638146,0.6972315,0.18290421,-0.39310962,-1.827291,0.25585997,1.4893013,1.2526945,0.40322378,-1.6937276,-1.1197765,1.773447,-0.87307554,0.5088582,0.89500463,0.97641945,-0.6023661,-1.9696901,2.4402742,-1.5849103
<http://WxrVaZjX.org/>,-2.0694654,0.82305604,-1.9468704,-1.3920168,2.0174286,-1.6898828,1.589571,0.58670306,0.16162665,-1.9398158,0.98630685,2.2883253,-0.19806597,-1.475376,-0.24215098,-1.2655303,1.8561502,-0.80330354,-2.3226273,0.43310812,-2.1585963,0.5516033,-1.1343089,-1.9847093,-0.71188885,-0.96970767,-1.8172616,3.180494,-2.0233736,1.2662808,-1.3102847,0.4059765
<http://hi.org/ejkyeFSUxKLc>,-2.2327852,-0.31072527,1.0213531,-1.8654927,2.4855452,3.314923,-0.26817977,0.040595498,2.0454438,1.7012297,2.3573704,0.28286088,-0.34422612,-0.80664927,-0.51184493,1.4888152,0.68254995,1.1135198,0.47519094,-2.4674165,0.6501367,0.32096308,-1.4439842,0.4161503,2.0947971,-0.2950008,-2.9761834,0.12308487,-0.52932954,-0.79903626,-1.891826,0.14107166
<http://p.org/HtqGNdJaYMbGYzPjyk>,1.7476897,-0.6688203,-2.1431627,-1.0871437,0.3618116,1.3825464,-1.008799,3.5746427,-1.5403713,-2.0690415,-0.768429,1.689217,0.02764852,-0.54244405,-2.7941997,-3.0121849,-0.18456891,-0.797617,0.84397197,-0.9796247,1.1791533,-2.2140174,-1.3688718,-1.5554372,2.6797435,3.024685,-0.75816464,0.8744154,-1.281883,-2.4281256,2.1999607,0.00028289715
<http://.org/lkOMUcWT>,2.0640333,2.2596173,0.025793469,2.0027263,1.728307,-1.0984261,1.1973014,-2.440551,1.0324646,-0.40038756,-1.6985637,-1.2261444,1.0410411,-0.64559996,-0.46484694,1.7386484,-2.5357673,-3.109687,2.207583,-0.053138576,-1.3490248,-1.4332099,-3.2899873,-1.8497465,0.65316,-0.87417364,0.51915646,1.6577779,2.0762486,0.60000765,0.6849177,-2.1444721
<http://NFchqaMzAw.org/kxrGFdPGPzV>,1.5226921,1.3979095,1.3216591,0.4936169,0.6773082,0.5153746,-1.23274,-0.16954711,1.6403078,0.6591097,-1.653665,-1.6066722,-0.39397648,1.1523764,-2.4171705,1.650664,2.1410918,2.555647,1.5654423,-1.9020795,-0.0874679,2.267633,0.1832009,2.3405502,-0.61388534,1.1908094,2.1338525,2.0833817,0.4588303,-2.5391762,-1.5830835,-2.0395803
<http://RRAFIvJXQ.org/qDGDifk>,-1.3277652,2.0670958,0.29439372,0.37516946,-1.6550605,1.5877377,-0.62174284,-0.029721266,0.2030946,-0.41432706,0.8716471,-0.9707788,0.7554033,1.0942245,1.7956918,0.5931038,-3.8299088,-1.5069834,-1.9753295,0.7693913,0.32133254,0.5217645,-3.00432,0.8199985,1.9094477,0.33128935,2.6991713,2.5708072,-0.5801586,-0.31539014,-1.0145084,-0.18530148
<http://.org/aquzPNLNLSObT>,-0.7008736,0.18998973,-0.4449669,-5.560622,-2.4793756,0.71105504,2.0811858,-1.2812047,-1.094935,2.3143985,-0.46988362,1.875497,-1.6766107,0.86454105,-1.4654862,2.0370746,0.2700419,-0.7364966,0.892223,1.3723187,-1.7553905,2.6739433,0.021264715,0.58579975,-1.281105,1.3027787,-0.930844,1.1086715,-1.1048136,2.5227523,-2.3588853,0.19905725
<http://hCQu.org/EQTRADto>,1.210705,-1.6980175,-1.0541584,-1.8327658,-1.1271441,-1.702206,-0.1754732,1.7359129,-3.389018,-2.288787,1.1680081,0.29450545,1.4260124,-0.63502306,2.8471372,-0.889566,-2.2882597,-1.1344599,-1.4754683,0.93427175,-1.6221361,0.059204534,2.6031191,3.878875,-0.075854465,-1.1749752,-0.9084764,1.525973,0.50708044,-0.7538453,0.7538308,-0.43839464
<http://.org/alSKhiuNIIFmXGh>,2.1197546,2.682502,3.4732945,1.8562329,-0.75336504,0.03418645,-2.6724858,-0.8795586,1.2457232,-1.1210811,-0.56601405,-0.096183166,-3.9031427,-1.2371218,2.3131094,1.5335699,-1.2632511,-2.9371,1.529081,2.8631496,0.26632383,-2.0479965,1.2597873,1.8767266,1.1493578,2.287636,1.377154,-1.948441,-2.1134913,2.1113777,1.8561476,-0.9067733
<http://G.org/urkH>,-0.36214566,-0.18404615,2.9833276,-3.175515,-0.14888337,-0.50887203,-1.4305904,0.8763673,1.8525072,0.42037874,-0.5909505,0.18375108,0.1288327,-0.6512698,1.9222535,-0.8490243,-0.052081425,-0.4474659,-0.42603517,1.2633474,-0.5550243,-3.0020146,0.5972198,1.6289588,0.7448974,-0.5908517,0.723517,-1.3311085,0.9210475,0.108530015,-0.5141849,2.132844
<http://emoNHiEUbolAWNXz.org/LPMpExfUsubZwB>,2.454105,1.5361557,-4.763179,1.5637629,-1.3631976,3.3898623,2.0687368,-3.104958,2.369828,1.086138,1.051019,3.869922,-1.4159182,-1.0341951,1.699352,1.0089698,0.629268,-0.1205175,0.18064873,-0.99998504,2.9542117,-0.18266515,1.6097381,1.0341262,1.5505612,1.9146371,-1.0009881,-0.12959482,-1.0927088,0.29412493,-1.7378111,2.05359
<http://AzzutBYZ.org/gEOjIzG>,1.0546546,-2.1502817,0.01420351,-0.4496397,0.006456342,1.1083031,2.5483098,-0.7150096,2.042961,-1.7033966,2.876505,-0.48223394,0.8056941,-1.1832306,0.93320143,1.1536962,-0.9164539,0.43623298,0.94719136,-0.37645903,2.3586764,-1.5751832,-0.6477868,0.0636419,-0.8717072,-0.90242153,0.6440552,-0.0068498054,-1.8060614,-1.2022206,-0.089035444,-1.3563911
<http://wYvmG.org/MWLLSOsJedznwEYVV>,-1.1606776,-0.8293054,1.9136312,2.180856,-0.037076745,0.4402148,0.651936,2.8222058,1.6357096,0.2333016,-0.37329262,-1.739053,0.971372,-1.8108212,1.6516521,-0.42118677,-2.817264,1.7926848,2.5396261,-2.3952923,0.26761407,0.5127318,-0.16090494,-0.30875242,0.45513305,-1.2795789,1.1373092,1.5295984,0.330899,0.03419277,-1.0874337,-1.4157332
<http://OEud.org/gXUEPkkIrzG>,2.2272968,2.9643185,5.428077,-0.43864432,1.3031466,-0.18102802,0.5461311,-1.3235819,1.551212,1.2046075,3.9656174,0.4495429,-0.8565442,1.4905368,-0.45743945,-3.1188486,-0.4169308,2.406958,2.4047768,0.4112894,-1.3539238,-2.026872,-0.880778,-1.7466389,0.71498585,2.5068958,1.1276709,-1.7757117,-2.256562,0.26408628,0.2980083,1.6103573
<http://n.org/uwfDYuqxomNFC>,0.8574006,0.4058655,0.07478646,-1.811411,-1.1987807,2.388425,-0.85999674,-0.39373642,-2.7687066,-0.27038693,0.27352393,1.3143766,0.05303469,-0.4215626,0.5000753,1.2800653,1.062973,1.7144437,-2.1740787,0.0651098,-1.0516764,1.5419927,0.38629076,-1.4414622,0.70966697,0.9114362,1.2354435,1.1180582,-0.04754978,0.68587404,-1.9764954,0.103810586
<http://WgMzpZZnUIwoS.org/FSB>,0.6672659,1.6196024,0.9840135,-0.14115496,1.9529269,1.4745333,1.2003795,2.4133408,2.442676,0.65189034,-0.52139544,-0.20276462,1.9029157,1.3717934,-1.604237,0.65882975,0.7300283,0.44339073,-0.37560895,2.0202858,1.3216196,2.0023699,1.3068845,0.45036438,0.2845614,0.44008532,0.52010506,-1.796828,1.384826,1.6162894,-0.25458205,-1.7841679
<http://WtWKgthG.org/FuzMLvamizJy>,0.048096582,-0.7762436,-0.5609384,-2.7988517,-0.057272825,0.40000057,0.49114418,1.2479439,2.5404584,1.0769804,1.1806566,0.6382854,0.24370168,-0.4737158,-2.1056495,-0.7894646,-0.75729007,0.31520727,0.33538023,-1.4420569,0.123490795,-2.290797,2.5970755,-0.804094,-2.1446607,1.4648072,-2.1231098,0.59830415,-0.80573636,-2.4691167,1.4689859,-0.8074587
<http://nVzYeKXEEFIz.org/nvLYJyKLVyphxtsIL>,0.7479065,-1.7304709,-1.8223373,-1.3275663,0.889686,-1.9591862,1.7144599,0.38147965,0.72191316,1.060972,0.8998734,3.6206558,0.9658093,-1.2087493,-1.2179971,0.8214049,-1.1801329,-1.0463843,0.4947071,0.8081304,0.1289112,-2.5566285,-0.8494385,-2.4126105,1.0012485,0.5610769,-1.3607028,-0.331255,1.5742388,1.3020755,1.7580962,1.8607262
<http://YoNFygHEEj.org/Bt>,-0.020646023,1.2126985,-0.36270493,-2.231401,-0.2151046,0.5050388,-0.98286366,-0.7224551,-0.011988082,1.7065856,-1.4342418,-1.8540462,-1.0728475,2.6064055,-0.29984212,-1.2364765,-0.4598461,0.9058713,-0.19356155,-1.100592,-1.6488442,-1.352408,0.82872623,0.5347248,-0.06411392,-1.9024291,-0.68440914,-0.24505164,3.1093338,-2.4209514,0.433292,-0.06649021
<http://zLQKXfWxk.org/qBxMNn>,-0.3912205,-0.26071817,-0.060826436,-1.9458148,-0.7843276,-1.1626195,1.3481369,0.9165592,1.2645617,0.1778428,1.5417079,1.0102974,1.4875476,-1.4367191,-2.2085042,1.5193845,-0.3908664,1.6778672,0.039739173,-1.444913,1.0908067,0.4570782,-1.0052524,0.04886898,1.2302952,-1.8298812,1.0020633,3.6304395,0.2435971,-0.44540972,1.2341919,0.4827813
<http://OWRyYmqubR.org/pEYrbbmHg>,-0.10891105,-1.8909919,-1.441915,0.06439874,0.11288372,0.45935592,1.0728905,1.9278518,-1.2598858,1.1498225,0.20866142,-1.3641554,-2.168878,1.75002,-0.85217345,0.072296716,-0.15073654,-1.6973997,0.9522097,-1.0547147,0.9804827,-3.0448306,-1.8989464,-0.27134073,-1.9862472,0.2574244,1.5980581,0.07496736,0.779076,-0.53772336,-0.99002886,1.0962094
<http://qGkbmKnrhJrB.org/EoZeuDdX>,-0.2772556,0.457423,-1.1818664,-0.19938137,1.5365238,-0.94145375,-0.12036066,-1.0296072,0.76794505,0.32985756,-2.538727,0.012462608,-3.930812,1.146052,1.5366948,0.9821959,0.4130644,0.83782744,0.1341367,-0.4454544,1.7481955,-0.544331,1.3488067,0.7250784,-1.4458501,0.46408316,-1.5547554,-2.4464796,0.043516576,0.108964756,0.73192203,0.22224417
<http://xWCzGEWvSUbvxlpa.org/QN>,-2.3188875,-1.249932,-0.96550363,0.8263725,-1.2475739,-2.5979908,-0.28153357,1.5906117,0.9486666,-1.0336102,-1.4715118,-1.9766793,-2.0744343,1.2066505,-1.5846245,2.1282275,0.6128771,2.387129,2.886977,-1.6465786,-0.5706339,3.5373151,-1.6374043,-2.5486526,1.3156574,-0.08543181,0.5012534,0.05637602,-0.12834485,-1.3880302,-2.4559205,-2.4834116
<http://IOQkgwb.org/LFFYctC>,-2.922585,0.07319582,-0.5814857,-0.93178815,-1.5001539,-0.5508951,-0.592434,1.2579689,-0.05151519,2.0753734,-2.4527123,0.7264242,-1.7651783,1.666745,0.96395254,0.7541132,0.036052454,-2.3796177,0.27557775,1.1123784,-1.0246786,-0.7374962,-0.91746926,-1.2006708,0.39459264,-1.9586867,-1.927792,-0.20473132,0.8450373,1.5241342,-1.281527,1.2682925
<http://iJHW.org/KnZmJyVFfidIlfAuV>,-0.52964497,0.04500701,3.4187968,0.10144495,-0.40572837,-0.1996998,-1.7325202,-0.3170969,-0.3781461,0.61704093,2.1138597,-2.2590876,-0.26480934,-0.5940894,-1.5685391,0.023344148,2.114358,-1.8628732,-0.6628059,0.57321215,-1.3897486,-0.91750145,-1.3801826,2.2732363,-0.8409844,-2.3278508,0.16171075,3.0703554,-3.0736125,-0.11820817,-0.73805386,-2.0614715
<http://.org/VKQmJFkTFXTWG>,0.51084566,-0.3361071,-0.9336818,-1.7515973,0.047469277,-0.08278363,-0.24546753,0.3492193,-0.3276914,-1.8345965,1.265959,2.3184905,-0.31749272,0.8784544,0.21181922,0.56136125,1.0079006,0.1883615,-1.8240093,-0.107892685,-1.081976,-2.2081478,-0.6451231,2.0072455,-0.6675151,-0.07038653,0.13752066,1.4819913,0.16517091,-0.35557994,0.93234855,-0.8606984
<http://wHYXGsgcVmAeYeOFSYd.org/KUvViihkih>,-0.5444752,-1.383109,-1.6081244,0.8102262,-1.6596289,-0.31834427,-0.144801,-1.2892417,2.20181,-1.868686,-0.51731545,-1.1345187,0.20754862,-1.658815,-0.7161168,-0.99133885,-1.3831778,-1.2214957,-0.02415922,-1.383724,0.44602257,-2.152259,-0.2553859,-1.202973,-0.26085234,0.5559012,-2.0332248,-2.011874,-2.0957613,-0.2075315,0.016668787,-0.77661884
<http://gzaUTk.org/ieVheYsxfOnc>,0.55705184,0.18990244,1.5662099,0.3839183,-0.018271301,-0.48818544,-0.6454974,-0.34382793,0.49945402,1.2991303,-1.3149775,-1.1159893,-0.46140254,-1.3366872,-3.183716,-0.120861135,1.6506972,-0.04014879,-1.9618134,0.67877233,2.227125,-0.9667011,0.18735278,-1.6384673,0.41382542,-0.85296685,0.130542,2.8656833,0.3786378,1.2591586,-1.1299741,2.2650461
<http://eRGupfMwuwNbu.org/mWjmUYZTXbsJuITYmz>,0.19365352,1.0399523,-1.7312632,-0.18737186,1.6288732,-0.66866916,0.7365911,2.8896303,-0.5256078,2.498089,-1.8361295,0.40348598,0.9214527,-0.796492,-0.15503547,2.7846239,1.6443784,1.8563757,-0.8185977,-3.7187145,-2.851833,0.525536,-0.6472579,1.8790009,2.5186753,0.18875115,-0.050033778,-0.3151339,-0.7908169,-1.1009152,0.34690705,1.1103568
<http://tobnQmTep.org/gWxZ>,-0.68288666,1.8147697,0.38632235,1.9428241,-2.296217,0.079652436,-0.7841817,2.4913573,1.4781247,-0.1848651,-1.133571,-0.53367984,-0.5121688,1.6397073,0.22663571,-3.0007112,-3.4433875,-2.7316728,1.8300204,1.3795378,-1.1104183,-0.5360539,0.6604462,-0.92116755,-2.5919292,0.24144734,-3.3309832,0.06508727,0.33880222,-1.2889717,1.3012335,-1.1782429
<http://kzuRsIflA.org/nJrPmmBSHhDwjhi>,1.193583,-1.6664808,-1.3961548,0.6325539,-1.4238892,-1.0845832,-0.4831212,1.7227724,-0.34629098,-0.1467498,0.04333072,2.4865236,-0.4537103,-0.049249243,-0.34157515,-0.68507534,1.1275128,-0.62432873,1.1409199,0.8980079,0.63759434,1.3263526,0.55340564,0.02480835,0.24291131,0.6403394,1.8576269,-0.7243256,1.7094777,0.1269233,-0.12902474,3.9422183
<http://bGERRUPrTdebgYSqcWz.org/moNwjGJE>,0.3051852,-0.49717695,-0.07464762,-0.08782629,0.70151436,-3.5708985,-0.3129962,-0.22728011,-0.8835589,0.054101955,-2.7518854,1.1088866,-3.4842432,1.2226477,-1.4718912,0.064847715,1.6161509,0.32085705,-1.138961,-0.62270296,-0.43954843,-1.408498,2.3581288,-1.6257823,1.5381603,-1.019109,-0.5548662,-0.2139631,-0.8515359,-0.567554,-1.0132229,-2.8114593
<http://mEyFvqTdfSfrsySynqW.org/mGKUOqrD>,1.385867,-2.608537,0.12504575,-1.069837,0.38008744,-0.7544593,-0.9681197,1.1828834,-1.9795913,0.65803516,-0.23623997,-1.9729753,-1.2932603,-1.6931661,-2.3295305,1.7458154,-0.07244498,3.4647648,0.8994313,-0.420128,0.3549844,-1.1747161,3.3760517,2.4906528,-0.71189547,-4.1163397,-2.3725793,1.9125681,0.9398529,1.0563117,-0.7795424,-0.477215
<http://BuJwaIPewHXxeROxGs.org/QQVnVdtkc>,-1.1470213,0.66985595,-3.2677226,0.4243984,2.546088,-1.2306664,0.9435681,1.2887396,-0.83256966,2.1212053,0.82472,2.4557617,-1.2536182,1.0834689,-2.6468456,-2.5703394,2.8674061,-2.4417274,-0.9619202,2.5484922,-0.60069376,0.80896586,1.0870358,-0.35494873,0.07460784,1.0410035,-1.0776602,2.245748,-0.8455,1.5851971,0.1942908,1.0805795
<http://mqCgYYxrPAhY.org/rFeuPOUUhu>,0.13846421,-0.7787595,-1.2716887,1.303335,-0.44424048,0.99764127,-1.8724247,-1.7940942,-2.233549,-2.5542204,1.6779879,1.7118695,1.1083367,-1.7057585,-1.043233,-2.0151396,0.57284087,1.2883859,2.3487692,1.4749516,0.4095847,0.9198063,0.24122754,0.20490262,-1.3198522,-0.61266106,-1.7956725,-0.1279393,-0.85493916,-1.1452984,-2.0040402,1.753849
<http://linkedgeodata.org/ontology/note%3Ade>,-1.1342424,-3.1915457,2.1646917,1.9381808,-2.4449246,2.4049811,1.5308349,1.9545497,0.43098804,0.9917557,2.5433176,0.7597749,1.1143183,0.771219,-1.5667216,3.3846393,1.174941,0.20697306,1.3454052,2.220783,-2.959494,-1.0527834,1.7478869,1.340615,-0.88330364,-1.0634965,-1.9698538,-1.5786119,0.01656961,-1.2468626,-1.1570786,2.376191
<http://linkedgeodata.org/ontology/note%3Aen>,-3.1665375,-0.51123214,1.7825121,0.7763121,-0.40776387,2.5017533,-2.3115242,1.7183279,3.9313555,-1.2115283,1.9935253,-0.09924857,-2.6780543,2.6676342,-0.7032715,-1.4718891,-1.348686,-2.778245,-1.9073422,-2.391674,2.5282214,0.013619102,0.888581,0.105685905,1.5276986,-0.41502827,-0.9274533,1.9102737,2.5375051,-2.440931,-1.236259,1.5677527
<http://QLnbZctXQawQnGV.org/DMEQsOPeJopdCsu>,0.4365389,-0.74712884,1.0418898,0.14912172,1.4438071,0.16681203,0.45173085,-0.1669861,-0.8742822,-1.6465043,1.0787492,0.41815066,-1.3838823,0.551453,-0.18639396,-0.84580284,-0.99707025,0.49892846,1.7892992,-2.2130408,-0.6393817,-1.8614886,-1.5120183,0.84672767,2.363978,0.84787476,-0.66888773,1.8477733,-1.6588933,0.5713452,0.54253274,-1.9037809
<http://Ea.org/hSBFb>,0.3167319,2.4249663,-1.6447953,1.1214864,1.4987789,-0.19443877,-0.4862145,-1.2518917,-1.2923901,2.9117594,3.0084312,-1.467374,0.83239174,0.3901128,1.5346774,1.8482058,0.6711303,0.93381107,-1.1469965,-1.0666641,-0.14485212,1.3177652,-0.78304654,-2.3557916,-0.19325282,-0.6530239,-0.29823202,-1.1849407,-0.6223076,-0.9982542,-0.8485853,-2.327423
<http://WWVBUHbSXgeBdPT.org/jzNfkpMxFCnlsf>,3.0932002,0.04735119,3.2570932,-1.0071769,-1.3303341,0.9131575,-1.3585095,0.68278486,-0.6243596,0.40083817,0.6568588,-1.8065801,1.0805664,-0.22286421,0.382275,0.11334322,-0.8758322,-1.341882,-0.15240791,-0.8865698,2.1109397,-0.34651318,-2.4217105,-1.4012759,1.977477,-0.61217374,0.9023037,-0.8008809,0.8241511,-1.9617082,-1.3278606,0.107471175
<http://BCPMECReUgUHs.org/mgFUFFRmk>,-1.3839971,-1.2601235,1.3444989,-1.1488336,-0.53779817,-1.8705382,-2.330131,-1.0662014,1.7754291,-1.651085,0.7075405,0.34603298,-1.1226311,1.4403163,-0.74630564,-1.1600766,-1.6853864,0.5825818,1.1177692,1.3970642,1.4432138,-1.8200759,0.36237875,-1.4610425,1.3284976,-0.6733708,0.55731964,1.234982,-1.7082045,-0.19329897,-1.8450462,1.0111109
<http://gRaSKMjwIPjjbpqEfpM.org/dFuCznl>,-0.591499,-0.92365575,0.0015074223,0.5850704,-2.681398,1.3893492,1.4808896,1.649,-0.9536335,-0.54996914,2.4639595,-1.1388596,2.0178707,-0.70420873,0.8298269,0.87123346,1.17435,-1.144948,-0.31416008,-1.6839718,0.61357063,1.8194203,-3.2480838,0.79322225,-0.04731226,0.7065157,1.4377809,-0.45590663,2.0768356,0.33269173,2.3112147,1.0480349
<http://mVzgFeXIgWncSSh.org/mxCz>,0.43464065,1.2406133,1.825799,0.66139513,1.4333302,1.2256186,0.5519954,-0.7171622,1.6852015,0.42665148,0.31804746,-1.1474167,1.1098322,-0.41559353,0.8198286,-0.45162997,-1.6350043,2.0333276,0.16668782,1.6498928,3.5782464,-1.3000916,1.2452542,0.942081,-0.12235357,1.829044,-2.446497,-0.81368226,2.2662244,0.53074753,1.8113022,1.0042858
<http://ZNJU.org/pJoq>,-0.40455258,0.85377926,1.303494,-0.73943716,-0.54411995,-1.4973831,-0.8642415,-0.3211308,2.574244,1.0689901,-1.084964,-1.0759985,0.46326825,-0.3681375,0.5769875,-1.3480848,1.9718431,0.27668935,-1.5499237,-0.2288974,-0.42263508,1.8084108,-1.233898,0.5797451,0.58304405,-1.3294747,0.33700237,0.89193094,-3.841993,-2.2603076,-2.2608533,-1.5353236
<http://qengzNRD.org/vBrqFzf>,1.0489616,0.43587637,0.4138926,2.6796734,-1.8686184,0.13944745,0.37510985,-3.0895984,-2.878552,0.67853534,-2.3292775,-2.4952524,1.0634855,0.39421895,-1.8877051,1.1871467,-3.2291887,2.5573812,-1.8160398,-3.0415893,1.0663483,-3.224584,-2.855365,0.07204122,1.5795144,-0.22353616,1.5778285,-1.7886347,0.043487728,1.6706196,0.90901566,-1.0082464
<http://VioMVwEmcedazRm.org/Yz>,-1.8362194,3.0550733,0.43268266,0.47737843,0.42354718,0.12434345,0.7848693,-0.92695886,-1.4390872,0.94674736,1.155511,-0.15572673,-3.7186663,-2.1979997,-2.2875438,-0.4862362,-2.0352645,-1.0605853,-1.4277247,0.544835,-0.11099432,0.3134439,-0.9991466,-1.2102375,2.724677,1.9365281,2.0854416,0.26986384,0.22640896,0.20254245,-0.43918908,0.38480082
<http://xpTxkoEqNh.org/cqgLTQDlCP>,-2.3006527,-1.0024503,0.47293946,-1.486614,1.3822161,2.8366148,-0.18269955,-0.79688776,0.27719742,2.3329327,-0.28053868,0.8735952,-0.39955637,2.715314,-0.095466636,-0.7149831,-0.80951035,-2.2533886,-1.0636652,-1.2546545,0.11899828,0.3831897,1.1234832,-1.5171578,0.94429743,1.591675,0.13306719,-0.6400852,0.79906213,0.08143348,-1.0820013,1.944131
<http://VYikxfnnBLunEU.org/TXOf>,1.2052087,-0.59686506,-0.11607196,0.34544545,-1.5792904,-0.8909176,-1.9854497,0.46890268,-1.1429893,-0.635348,0.08551238,-0.4686266,0.61248,-1.4710255,-1.9050885,-0.7131697,-1.5349504,1.9016191,0.1494166,1.3735378,-0.7283609,-4.2647457,-0.10585753,0.881001,-1.4074718,-0.6771398,2.6406534,-0.37059334,-2.2414742,1.5415614,-0.10840309,-1.4204004
<http://UkfhVDzZplkZp.org/ZgeHAE>,-0.16315377,2.3041215,0.20223354,-0.94097793,1.7272297,-1.5714955,-0.3969532,-0.001814662,0.93126464,-0.4524004,1.0863624,-1.8888568,-0.011265198,1.1215245,0.78798264,-0.16004927,-2.3675406,0.56292075,-0.05971157,-1.8083699,1.5714447,1.0526402,2.2103636,-1.6873192,0.7339658,-1.2172816,1.5104848,1.4905633,0.8022524,-0.009499872,-1.4110875,3.615084
<http://aqF.org/dmHFoWPgQhsTgAgA>,0.71640116,-0.62657195,-0.31393373,1.0231755,-2.2964807,-1.1339974,0.3451835,0.79028493,0.94548047,0.5890422,1.3677477,0.82603955,2.1011114,0.6187398,-0.6593239,-2.4575174,0.81110835,0.793951,0.170074,-1.2314177,1.717026,1.4611598,-0.50982744,0.037024178,0.9769537,0.22589576,-0.570872,0.67177516,-0.76264477,-0.10035806,-1.8050023,1.7760174
<http://.org/ii>,-2.839511,0.77468264,1.1455742,-2.805701,-0.6017455,-0.8377321,0.796543,2.5421927,-0.49311584,-0.2075397,-1.5530438,-1.1435167,1.4559779,-2.329408,-2.0316093,2.4641604,-3.1651928,0.08821439,1.5820659,-1.6132832,2.581462,-0.102130294,-0.79744655,-2.230636,1.9921385,2.3968527,0.2124918,1.782939,1.2001679,-0.71878433,-0.52340835,0.45152643
<http://yyOkAPpJZfGSiz.org/Z>,-0.5790929,-1.4236174,0.6071081,0.32251334,2.3216102,1.6618434,-1.0455275,-0.8607136,0.86588275,-1.5766132,-3.8228254,-2.4868152,2.3210998,-1.2574033,-1.2404901,-0.77452993,-0.121893585,-2.9937024,-0.7068393,0.23732884,-0.8024917,0.96231335,0.7835214,0.87506324,-1.9349544,1.0038673,0.17759746,0.34198293,-0.3827563,-0.79361284,-0.6012846,-0.40884504
<http://BlPSvHd.org/blpzTdspTX>,-0.4701066,-1.7326999,-0.30212525,0.7385355,-2.7341692,-1.6618994,1.3679799,-0.6016997,2.4511483,1.0021635,1.3089627,1.733221,-1.6317097,-0.90290385,-0.1329577,1.4354489,-2.1278996,-0.4423694,-0.94717216,-1.1618034,-2.2103267,0.9153103,-1.5923444,-0.285407,-2.6480176,1.023831,1.2986815,0.8577168,1.3594798,-1.0859191,0.44161892,-0.025129601
<http://BadjEImuYc.org/nUNGKW>,0.65631574,0.5534286,-0.040083773,2.3670561,-2.4780424,-0.74081135,1.2143351,1.7620976,0.2434856,-0.16894424,2.3761306,-0.9074401,-1.7557348,0.81167597,-1.3487172,-0.9059167,2.9618428,0.2474546,-0.064552024,0.44059023,-1.550915,0.38370213,-1.9516996,-1.127788,1.5889866,0.66791964,2.6539009,-0.16959254,-0.9478855,2.4161546,1.4225689,1.0542886
<http://tyondghkb.org/OFLXPegn>,0.022806237,2.9616034,0.7811102,-0.21513847,-2.5241432,-2.401078,-1.4227712,-1.8928261,0.6916165,0.5082905,3.0126672,1.9375188,1.8310022,1.0427907,-0.8324906,-2.131228,0.25062954,0.8017792,-0.4121031,0.24053323,-1.4201231,-1.1026644,1.6797538,-0.5183551,1.5577672,-0.18347882,-0.47282466,-0.33806586,-0.691557,-1.1344767,0.28604832,0.7788402
<http://elJDORtCWOEKtemnkOc.org/MLCxqvMpozfGEvLZl>,-0.17964879,2.1511655,1.5798845,2.230897,0.313926,2.3117833,1.66747,-0.9700575,-0.4841579,0.46927384,0.68923146,-1.8427529,-1.1136012,0.4231085,2.448542,1.9396733,-1.116473,-0.25684753,-1.6008452,-1.6371266,-0.67256796,0.77503616,2.7860126,1.3972834,1.5982853,1.8112277,-1.6276513,-1.8257447,-2.1867652,-1.06993,0.5035349,1.2233628
<http://rxYQsXUePFcYmCeGB.org/SuKzZovLmdVlFxyqRsH>,-0.5202843,-0.74907583,-0.98040384,-0.21820922,0.0011509779,-0.15046611,-0.4897715,0.67212343,-1.2721379,-0.710527,0.7576188,0.77481455,-3.235816,-1.9806036,-1.978083,0.61464596,-1.0879563,-1.1401181,0.20199452,-1.9048878,-1.2324691,-1.2111163,2.189239,1.7721487,1.5800581,-0.79520667,-0.3386422,-1.6610304,2.115082,-1.1098639,2.066973,2.049157
<http://QNgrYtWPhm.org/vTkCrDiHmMcPvOzXCZ>,-0.1283023,1.0476674,1.8381009,-0.08456095,0.87717533,0.8136674,-0.31813455,0.8916814,-0.5088943,-0.085008875,-0.42659143,-0.3189716,1.6144334,-0.7732442,0.99782497,1.9611474,0.2477659,2.1246018,0.29044428,-1.1242862,-0.55371016,-1.3512919,-1.3478518,0.8406574,-2.3135595,0.4902048,-0.3321001,1.8094592,-1.5851245,0.46834728,1.1626437,1.4079081
<http://JfuGDThYbiGdntGjiu.org/FOhhrvW>,-0.7953229,0.6737996,-2.5841835,0.12315501,-0.619283,0.19358437,-0.5513297,1.3004608,-1.3357011,-1.2932346,0.3706775,0.34115192,0.5401362,-3.1506214,0.87141025,1.0790777,2.4491975,0.8916501,-2.1328125,-1.0226123,1.2058382,-0.4863394,-1.9933094,0.06904665,-2.0265036,-0.29808566,1.049805,0.5133822,-0.9530782,-0.018888606,0.6927187,1.3657227
<http://jEdy.org/gvQjqFsRqKhpiMNFWh>,-0.6036413,-0.530467,2.264856,-1.0755775,-1.1112523,-0.3784767,-1.55324,-0.54544675,0.58338183,-1.5095242,-4.20176,-1.7767645,-1.9168518,2.7694402,-0.011079178,-2.21329,0.37030312,-0.024872161,0.8453966,1.2429961,-1.954205,3.4241278,2.233256,-1.2843974,0.3311226,-1.9423692,-0.46841767,1.982524,-0.8031869,-0.9791198,-0.8767133,3.8183255
<http://MaOseqrjyIicZPv.org/sEfisUAqpgYNRbUz>,0.051830452,1.3494307,0.96903884,0.3017895,0.48195332,0.70661575,-2.320613,0.780692,1.8142896,0.51700175,-0.86541384,2.5132332,-3.8783126,0.37306175,-0.12994125,0.19410175,0.8489904,1.0297298,1.2148117,0.30735445,0.7287326,-0.6197602,3.4490516,-2.0585356,1.1494645,1.422199,-0.8071916,-2.4422565,-0.9123054,-1.1192687,-1.1402116,-1.1765757
<http://ClHUKvsglup.org/GuXXGgqKVtSxYdETdUN>,0.39778787,1.2210968,-1.3003939,0.22153075,0.38957122,-0.25983456,1.1406565,1.174337,1.7082156,-1.3945042,0.6828317,-0.34048554,-2.3325198,0.16073264,0.9933924,0.90958387,1.6942072,0.49926668,-1.7967252,-1.4884721,2.4177554,0.023455668,0.37356958,0.32279503,0.6061393,-0.45710912,-0.8635675,0.90285695,-2.1183245,-0.97852534,-2.9337394,-1.6021426
<http://.org/BwTwdRfRvGlzmvovo>,-0.58554167,1.0897481,0.50162876,0.61367947,2.577056,-1.3340347,0.7900059,1.45449,2.6919112,-0.9187901,0.70213014,-1.5830972,-0.7566008,-1.5266426,-1.7469479,2.3204708,1.521468,0.519152,0.30233195,-0.4966119,-0.4787486,-0.57643354,-1.6388608,0.7543925,-0.37223235,0.35510924,1.167084,-1.3812788,-1.0348464,1.4280056,0.7632167,1.4169402
<http://BqqJoDjbhLDYZvDJu.org/dadI>,-0.88361573,3.6951003,-0.033035886,-3.8102157,3.575033,0.34125498,-0.23655713,0.35588008,-0.26866502,1.9711757,-1.1816206,-2.8684971,1.443635,0.3745803,-2.251394,-0.55488634,0.79545397,3.095014,-0.52300376,0.52644414,-1.9135222,1.2094333,2.319942,1.836451,-0.00847132,-0.3406691,-2.3492618,0.8726695,-1.6147202,-2.2830768,2.8374212,-1.4960377
<http://CBRQYPDuPNMEwHdSCJ.org/EFSTsGVF>,3.4320703,-0.3407282,2.3325822,-0.46663174,-0.08836116,-2.566494,-1.4353863,0.52573466,-1.4205905,-0.08743847,1.5332049,2.2733994,-2.5449119,1.1479074,-4.014408,-1.666606,3.7027938,3.3832588,1.4320703,-0.2727129,-0.3832362,2.336499,-1.178897,0.78107846,0.9020797,-1.0097982,2.065113,0.028975317,-0.3842303,-0.74815536,0.21718094,2.4700353
<http://QtnBmdUmjIvSdeCD.org/h>,-0.039267115,1.9484996,0.07064727,1.3456361,-0.3123382,-1.043171,-2.4673762,1.3491113,0.8596642,1.4104571,-0.38558093,-0.966691,2.1230152,-1.2004757,-1.7959018,-1.49908,-0.6305316,-1.0306306,-0.04300473,-0.43642065,0.8061572,0.97664636,1.1595619,2.1501105,-2.5599165,-1.8321995,1.2969528,2.325291,2.2451072,0.5942023,1.421091,0.16241817
<http://tQVIWxXKA.org/sjKC>,0.3887176,-0.072466224,0.9427009,-1.2107434,-2.0067286,-2.3163292,-0.28923663,1.7329001,1.0460398,-0.043620266,0.072028235,2.425603,1.5622104,0.1422798,0.25878984,1.0632281,-2.2059495,4.233668,-2.9016733,1.6714696,-1.393387,-2.021846,-2.395324,-1.3378942,0.82556105,-0.041868288,-0.46262646,-0.14483137,0.38845417,-0.3389052,-2.2700624,-0.4341968
<http://LtmZCX.org/opOZCdqWoOCvBfEVmM>,-1.8838426,-0.76127774,-0.38687757,-1.4703175,1.5542436,1.1962975,0.89023936,1.4493771,0.77581817,-1.7662096,1.2891445,1.2070711,0.20760782,1.3917247,-0.013172313,0.23149647,-1.129038,-2.6824596,1.2703803,-1.3865083,2.256372,2.6268728,2.3586535,0.12107008,-0.43669388,-0.5146446,2.9892743,1.1881968,1.3464386,-0.9674078,-0.87232566,0.67384356
<http://ahAjchzPAc.org/b>,-0.5658877,2.127887,0.86093885,0.16592173,2.3205328,-0.36556008,2.0179164,-1.4657086,3.1257071,-1.3234632,-1.9981674,0.9249127,-0.553334,-0.56057394,-0.56190497,-0.4722483,-2.0523107,-1.3278298,1.4737959,1.2285892,1.9402556,-1.0263851,1.3911256,1.573037,2.3433244,-0.060112916,1.1772444,-1.4369237,-1.1746778,-1.5367811,3.0661876,-3.1106207
<http://JrCmzsz.org/R>,3.5350025,1.206923,-0.43080872,-1.0537992,-0.18815169,-2.3692942,2.7522979,1.3269621,-2.1565654,0.46957067,-0.019886333,0.9413592,-3.0310898,0.2974414,-1.2698593,-1.7153603,1.5552803,-0.45712954,2.2849128,-2.4411938,-1.4215746,2.7588315,1.7934443,-2.665461,0.65688735,0.9292206,-1.9765711,0.7684358,-3.7118156,1.1434855,-0.2984265,0.493222
<http://zQbBqDtKKhyDPR.org/ssernqzqHTnDFJlAF>,1.1319997,-2.2794847,-0.8176406,0.576078,2.0480666,0.46702945,0.23918986,1.9786687,-0.35743484,0.085740134,-1.15478,2.0576878,-2.1406794,-0.41571164,1.260944,-0.9724399,-0.032233905,-1.5093732,-1.4420766,-1.0855021,-1.0613283,0.27212542,-1.134316,-0.9625901,2.3370752,-0.3222196,0.38084224,-3.0822997,-1.4318159,-0.99259573,0.2871909,-1.6533014
<http://.org/jek>,0.578251,0.17959006,0.6212498,-2.77821,0.0889309,-1.2669011,0.3861932,0.97019136,3.6921968,2.2331662,-0.75090134,-2.7984054,-1.9632617,-0.18163143,0.5404398,2.7123396,2.2156038,0.44414946,-1.5079969,-2.169181,1.6377,-0.79405695,-3.1757257,0.27077055,0.7347898,1.4998531,-1.097036,1.6511124,-4.1523895,-0.6899324,-1.7590282,-1.2697678
<http://OClxOh.org/WmIgVtPlAaWTs>,0.2763089,1.5874211,-2.691904,-0.436609,-0.7331074,-1.2406608,-0.95459205,-1.7194955,1.8989079,0.61565953,-1.5993278,-0.76181734,0.6670791,0.32640624,-0.47546896,-1.2170169,-0.2533659,0.17764571,0.7331894,0.6289846,-1.7342483,0.74050945,1.7960876,1.1268357,-0.51609564,-1.36673,0.91208005,-1.3105154,-0.35075548,0.9336601,-0.11269152,-1.4046347
<http://eYgNbnWKUnTlu.org/H>,2.0873897,0.23564336,0.9887154,0.6286319,-0.10194442,-0.6404825,-0.50904816,2.391746,-1.6343178,1.368174,-2.4091318,-0.520383,2.7249794,-1.2915694,-2.1215317,-1.6362183,-0.07443278,-2.3951094,1.6843599,-1.2415718,2.2448862,0.16087726,3.7872097,-2.2063565,1.7287177,-0.710737,-0.55956507,0.55673933,-0.60134256,-1.6526874,-0.33687755,1.3636509
<http://DMrpd.org/NMrXnUeeHvrVhBnNGl>,-0.18979858,-0.70291,2.1881444,0.63666034,0.7591455,-1.2822156,0.77719533,-0.4327766,-2.3094296,-0.6743129,-0.0573534,2.2535574,-1.6354619,-1.286397,0.7795955,2.241717,1.2468287,1.2136291,-0.030550981,-0.8428649,-1.6321731,0.48913497,1.9966779,0.7469825,2.686058,2.6504755,0.26958704,0.5173198,-0.6742217,1.312658,-2.94995,-0.28636727
<http://glYMsS.org/JxHhDnegfoTPMqoVnDD>,0.5882771,-2.5971029,1.7043964,0.3611609,0.5013215,-1.4598145,-1.0010428,0.84081066,0.088926576,1.1718943,-0.60993725,-0.87095284,1.258958,2.2317212,1.3442982,-0.039839383,-1.9652885,-0.13852069,-1.1260933,2.7617936,-0.4474658,-1.4578685,-3.5246751,-1.1271411,-1.5862273,0.14905314,-0.032166917,-1.7069622,0.3005964,0.40407425,-0.90851074,-1.2128366
<http://EHldzGqapnDyfVdLra.org/C>,-1.8677176,0.34557584,1.4493425,1.422072,1.0921277,-1.4052143,-1.4396856,1.1669275,0.28238904,-0.6419513,-0.8953781,-2.2864635,0.24641566,-0.353091,0.7257665,-2.240138,1.7477261,1.616108,-0.33379826,1.2108387,0.9088709,-2.0685499,-0.89047176,1.1396414,-2.0255527,-0.55613035,-2.0384278,-3.0825112,0.6514055,1.8777652,0.41141066,0.24480785
<http://XRgCuDVZXSmawcahukd.org/sn>,-1.6831309,1.6150554,-0.51535434,0.24831045,-0.24521421,0.8546075,-1.7356827,-1.8915912,-1.9542058,-1.9890891,-0.08019975,-2.4201481,1.2179964,1.1803327,0.92010784,1.0102094,-0.12064381,0.35946286,-1.4332,-2.371398,0.15551324,-0.998491,0.041519146,0.3241248,-0.8463356,-0.23629887,1.0157619,1.1271983,0.7229797,1.2060229,0.24824995,1.6464708
<http://rnckEslfXAoYURUIgWN.org/zQeIcbSZexUWY>,-0.08719527,0.06241171,1.8503473,0.60081226,0.120029666,1.7726893,-1.3081585,3.5402966,0.6206812,0.0002492079,0.22943872,1.8236058,-1.8171245,-1.0020245,-1.5383829,-1.6967019,-1.1460772,1.6460651,-1.0634658,-1.459509,-1.0749389,-1.0400255,-0.20312113,2.2178311,1.3387524,-0.028421419,1.8924898,-0.60202754,1.1067048,-1.5810164,-1.4586242,0.6108111
<http://aXBdXlIXxdwxhj.org/TSALRM>,-1.3049209,-1.8181822,0.34196854,-3.2293224,1.7430323,-1.2966673,-0.75099826,0.5550673,0.022665285,0.7390742,0.67745686,-0.52840126,-0.6302516,0.33577603,-1.4222283,1.0706844,1.0257224,-1.6159751,1.0746863,1.772925,0.44350636,-0.96134317,-1.9651319,0.89726365,0.64142597,-1.4402484,0.41408205,1.3874441,-2.9191651,1.4856316,-0.58433414,1.2518631
<http://oCmG.org/UGJMHBWrMPHXV>,2.0350919,-0.9371361,-0.51627964,0.2980745,0.8136781,-1.1163056,-0.75995606,-0.116214335,1.897256,-1.4198123,-1.8753198,0.45532525,-0.9411033,0.5069388,-1.0087342,-1.0057306,-1.4390212,2.6344523,-0.69845605,2.8406477,2.0357735,3.49446,-1.5161463,-0.40200827,-0.3660414,0.36090282,1.7855817,2.4603927,-0.95767474,0.24980548,1.0919544,-0.58965445
<http://GdOXzyjyAVeKKcFj.org/VXdQgtgKMO>,-0.18886401,1.5118699,1.8466018,-1.7884835,0.95786256,0.90987766,0.7410277,2.2403326,0.32891595,-2.6296835,0.72761875,1.9068385,-0.47121432,0.726783,-0.13354185,-3.8164248,-1.1063294,1.6599041,-2.2832992,-3.319542,0.13383992,-1.6845309,-0.76577306,0.55726093,2.455733,2.6403105,-0.31393254,0.28235078,-0.31526235,-1.6039091,0.87716305,-0.8111182
<http://CgXCqbAz.org/lp>,0.465692,-2.372585,0.6152036,-0.8236637,0.15957446,1.1273799,-1.9157751,-1.969233,0.3592282,-0.097544074,0.18029861,0.1689548,0.4241101,0.13381912,0.5704448,-2.500014,1.0671366,-2.0721874,2.202854,-0.49265924,-0.5980906,-0.8699525,-1.0132265,-1.794335,1.8868953,0.23480716,1.8723686,0.16091016,-1.3000649,1.0885471,-0.17208523,-1.1115154
<http://GToKOQoPuqEFgKpaY.org/QUPiWbrAuVzwwBd>,-0.30122972,0.7244525,3.4575357,-4.377446,-1.2026955,-0.09753797,0.3474568,0.7570692,-3.0584724,1.9193819,3.303982,0.27980512,-0.68766683,3.7485404,-0.84384966,-0.52867573,0.21124439,-1.1353018,-0.25155836,0.9723135,-0.7562888,-0.6870146,3.8940148,-0.5916511,1.1075263,-2.3695903,-1.2441708,1.1525365,0.85694134,-1.6190894,0.314292,-2.0958369
<http://dCrHuruET.org/yorVWbNEOOxMqSUq>,1.1537688,2.2098484,-1.3098997,0.11727407,1.5788391,1.5111455,0.26409483,1.0984639,0.34658495,0.26645085,-0.91723555,1.6390213,2.0273118,-2.6922965,-0.3524316,-1.421391,1.6699731,0.8530322,1.255645,0.951622,1.8211346,0.45306948,-2.776692,-0.15405428,1.3543568,-1.1065068,-0.9905568,-2.2641895,-0.7027289,0.57184744,-0.78437823,-0.20027444
<http://GypOOUXBGFQaKvlMyk.org/IpOUrFndVvblEuo>,1.38004,0.46513012,0.865733,-2.572469,0.26894155,-0.9244744,-2.3672466,0.85908777,0.33162802,-0.57040256,2.8645072,1.769557,-0.17809917,0.019814674,0.71589345,0.7865636,-0.38636145,-2.3107934,-0.5456318,1.5341868,3.5582044,-0.8411281,1.157527,-0.10348137,-1.7685379,0.13065551,0.53735745,0.23226781,0.7174396,-2.7471929,-2.0181065,-1.2051463
<http://Vov.org/WMgBXKSYpCkVSPpL>,0.9316953,-0.7764234,-2.6826367,-2.5721753,-2.6399558,-2.075489,-0.6732748,1.7908392,0.99421066,-0.89997566,-0.6510856,-0.9861066,-0.19726004,0.21678598,0.12874724,-3.1368606,-0.9397096,2.4996123,2.169741,-3.064805,-0.039623562,3.8619492,3.4570143,0.12721345,-0.10852541,-1.8634433,-2.106996,-1.1169126,1.4672183,0.01570058,2.509595,-1.7885573
<http://XDEATspC.org/MxmKKeaHLwIA>,0.71468127,1.1531615,0.6246766,-0.92896897,-0.46665382,1.1040859,-3.0135276,-1.738802,2.000205,1.906297,-2.2083168,0.42513815,-0.8107145,0.61972433,0.7677344,-0.2685776,-1.3438745,-0.12349353,-0.34670016,0.59425944,-1.8296572,-1.8211309,-0.18092376,2.4794748,-0.3632373,0.99770963,-1.4761505,1.8013941,1.3994149,1.3975099,1.858048,2.1567452
<http://syvxibSaB.org/D>,0.8482888,-0.024200404,0.54132396,-0.33010417,-0.8057193,0.5657165,-1.7695141,2.9703758,-2.4967945,-1.3522339,-0.66236305,0.30615655,1.2578689,-0.91246843,2.4866428,2.3064685,-3.025197,-0.0918653,-1.1787924,-0.43364185,-1.2765481,-2.6896105,-1.8956679,-1.0292834,-1.3444802,-1.0333576,-4.942277,1.2653382,0.78161865,-1.1649675,0.6810971,-1.8972791
<http://HkUovPMXoxeVEypM.org/BWfzIZEDVMXsfHhO>,-0.77985775,0.5755172,-1.0024734,-2.7054665,0.23182502,-0.32489523,-2.0061555,0.25383952,-1.3169085,1.4853508,-0.48029396,1.920967,-1.8172269,-1.6540743,0.96965045,0.91285896,0.87947506,2.1248372,-2.0619137,-0.0857355,0.55519706,-1.5475138,-1.4899021,0.9930518,-1.2439878,0.49257228,1.016779,1.0641795,-0.5069662,1.691371,-0.27755144,1.075823
<http://EdjnqPDSsP.org/WHmgcCUxymEYOx>,-3.1457322,0.04178873,-1.3476685,-2.068407,2.514774,-1.2500771,-2.8204992,2.2520468,1.459981,-2.6462233,2.2350392,1.869264,1.0751538,-0.8673553,-2.0263062,-1.1762112,-1.219901,-0.5466943,-1.1420548,-0.7738186,-0.42810935,-0.244473,-0.49088666,1.6297959,-1.2290796,-0.007842214,-1.1115916,-2.2200665,-2.633188,-1.3871763,-2.0655107,0.5722387
<http://rDHrFBfD.org/GzabuZjNc>,-0.8550181,-0.56890273,-4.163568,2.8523161,1.7326871,-0.6573192,-1.4333385,0.8234469,2.1559527,3.0807042,-0.05867744,-2.6129634,-0.102780014,2.4565582,0.113987766,-0.3265975,1.3287269,-0.4936029,0.86680543,-0.42167512,1.1654196,-0.5855404,2.0099175,0.15431994,1.2496395,-0.9731369,-0.23121807,-1.3260908,-2.8091486,2.298712,-0.034253348,-1.558818
<http://EJDCZTKFoWqOHxqROcU.org/xKMqPzt>,-0.26435208,0.14785342,0.11862902,-0.48438925,0.37743443,-1.3997072,0.23222807,0.83857375,1.3280307,2.3913279,-0.06125813,-0.2914166,-2.6806188,1.3068578,-1.0646852,-0.9587193,-0.28576764,-0.56402564,0.5632521,-0.33340362,0.11567651,1.2671815,0.04881952,0.43986925,0.6814415,-0.6269474,1.4489179,-1.3776301,1.8508372,1.0632416,-0.49642646,2.5023663
<http://mzrOa.org/OcdVGh>,-0.91263163,2.5087025,0.4537989,1.6069716,1.8068225,1.5775084,-0.4000608,-0.15425624,-0.117129065,1.4688956,1.8365875,-0.24441162,-1.3976319,-0.4597953,0.33751324,0.19036153,2.616218,1.4342967,-0.070994884,1.542099,0.2050276,1.1511991,-0.50791574,-0.010663167,2.1011374,-0.28719226,0.8740378,-1.462945,-1.3122243,0.44366845,-0.64153886,0.4769439
<http://WB.org/MXkQjwNRofKQQw>,0.8897056,-0.39741552,1.4660704,-1.2983778,-1.7292693,-1.6027157,-1.5547261,0.2794217,1.3784271,1.004114,-0.7082101,1.6832273,0.5298114,0.07120761,-2.1703126,-0.6750018,0.6292486,-0.94385386,1.907461,1.5883528,-0.86127853,-2.7153912,0.8635288,0.4314162,0.55769324,-2.373108,-2.2366567,0.6877342,-1.4961222,-0.035986196,-1.3386898,0.7025623
<http://PgYQYLmIrdvuD.org/gxXePHhj>,0.6660692,-0.23915367,-1.4203899,-0.07298313,0.35712925,-0.52647126,-2.0360343,2.350211,3.2369385,-0.34375873,0.65189904,0.009554005,-0.1937379,0.8960428,-0.019966263,0.3621235,1.2544059,-2.8545113,-0.8348134,-0.40397778,1.3509274,-0.6173142,1.6083616,-0.7416565,1.0108498,-1.321691,-0.9364124,0.5619404,-1.7578633,-2.1583712,-1.290464,0.35401976
<http://QWbxd.org/CTqf>,2.9471002,0.0015752873,-2.140246,-1.0707707,-0.5897387,2.1690474,-1.2874085,0.7338239,-0.74086887,1.8098805,-0.45780414,-0.47257537,-0.48965886,0.6831581,2.1430824,-3.3150363,-2.1156445,0.52811396,-1.3929068,-0.105798684,0.017425517,-0.034409385,-1.5978059,2.5698223,2.6287887,3.8203557,-2.6109736,1.5307617,4.5512342,0.9170803,1.1637369,-2.2886252
<http://linkedgeodata.org/ontology/ele>,-0.6038275,-1.8170282,1.8313485,0.3773811,-1.2597415,2.9090614,-3.529293,-4.9284015,2.8867767,-0.40218392,-0.5548841,-1.1234597,-2.8283973,0.31783757,2.0577242,-0.20021603,-1.459125,3.4632702,2.2646883,-0.72249115,0.57772654,-1.0374296,-1.6370313,0.7597735,3.0650833,2.9137084,-3.2243397,-1.49632,0.6441125,0.858796,3.2152586,-0.8404031
<http://nizINZdDuUMtn.org/WiYbFVUGLUzFBzUDUS>,0.8758424,2.2072685,-2.0988123,-1.4393128,1.3116354,3.0628223,2.4582002,-1.8087544,-0.20497209,-1.419919,0.20986116,0.013187364,-1.3821793,1.9284847,-0.5899794,-2.2444925,0.4276807,-2.5736625,0.3280216,-3.258389,-0.33210948,-1.2518709,1.9286494,1.0148478,0.031862047,-0.74390286,0.4186956,-3.0796769,3.3694365,0.37459663,-0.8043481,-1.987745
