,0,1,2,3,4,5,6,7,8,9,10,11,12,13,14,15,16,17,18,19,20,21,22,23,24,25,26,27,28,29,30,31
<http://www.w3.org/2000/01/rdf-schema#label>,-1.8145616,0.5355256,0.008767601,-4.257371,-0.99216175,-0.88155836,-1.8055164,-1.5728945,-0.92000484,0.5406632,2.2894015,0.4088788,-0.6002444,0.065656416,0.7097403,-4.1335745,2.4118042,-1.5415902,3.1383038,-2.3562388,0.9702141,-1.5695305,-0.21285853,-4.5059566,-2.8540654,2.743296,2.6552541,-0.3509549,-0.2510932,2.557911,-3.5565987,-2.1972396
<http://www.w3.org/1999/02/22-rdf-syntax-ns#type>,2.7901902,-1.1064129,4.215574,-2.1150038,2.8806064,2.6333678,-2.895535,2.9154997,-2.134506,-2.8759313,-3.4591284,-2.6333454,2.925661,2.6569319,2.4409246,-3.238673,3.1545584,2.513198,3.2680972,-2.0488126,-2.7987154,-3.050105,-2.234977,3.2276974,-3.3685346,-2.9011762,2.6863415,-2.4012642,3.2368205,3.2844002,-3.1998105,-2.583495
<http://linkedgeodata.org/ontology/version>,0.10355743,-3.2060719,-4.3503222,-2.2908173,-1.353149,2.4433515,-0.8154415,-1.7541274,-3.8671017,-0.98117965,2.2607126,1.6782885,1.4014386,2.1855066,-2.646671,-4.587155,3.742505,-0.93768376,6.956233,1.9412683,2.7699924,4.711071,-0.47908074,-3.3552802,-0.6878018,-0.97283417,1.9849898,4.137479,-2.6345193,-1.4623281,-2.7382946,2.235521
<http://purl.org/dc/terms/modified>,2.2443755,3.0246766,1.1024857,2.165517,0.40691945,2.2173347,-2.0321057,0.5576302,2.7844102,-1.6714567,-2.2053647,1.8407565,-2.1442668,-0.24415395,-4.013261,-3.0737028,1.8287097,-1.3984601,-1.8484062,1.5589834,-0.48101616,2.1500165,2.67892,-2.2546868,-3.2415607,-1.952827,2.4597461,-3.8155098,0.31592074,2.7297668,1.1172792,1.494609
<http://geovocab.org/geometry#geometry>,1.8293476,2.8887565,-2.3104825,-2.1915743,0.22192217,1.4503952,-1.2543515,-1.846763,-2.038006,-0.990227,-1.2141776,-0.053845886,1.9349349,-1.459622,-0.60447955,1.0123808,-2.8650398,-1.992413,-0.93736476,-2.4962075,1.6134499,-2.5035186,2.8165445,-1.7805301,-0.9639626,1.5771358,0.024907226,-1.9053088,-1.3264986,1.3326926,1.0850688,-1.1645734
<http://www.w3.org/2003/01/geo/wgs84_pos#lat>,2.1809287,2.858063,-0.31075296,2.1515303,1.2769682,-2.5509307,1.0044714,-2.265565,-2.1134818,2.4048784,-1.2115846,-1.8793485,-2.3425326,2.0826705,2.1643975,2.3848536,2.31378,0.85314226,-2.7020655,1.2072068,-1.3095747,-2.8428738,-1.9049467,0.6779045,0.20861697,-0.49913764,-1.8720657,-1.9549018,2.36206,2.5165963,2.1624472,0.6503431
<http://linkedgeodata.org/ontology/gadmSameAs>,-2.9306366,-1.2854642,2.6210876,-2.8590374,-2.3248248,-0.67826474,-1.301898,2.4179378,1.4928734,2.3084707,1.20999,-1.7909621,-1.5814066,1.3530223,0.34764454,-2.3598506,1.1574397,1.932053,-0.7027686,1.5871167,1.8019344,0.25515145,-2.3718305,-1.9871074,-1.7303289,2.4011118,1.1106201,-2.002288,-2.6968796,-2.217112,2.3050344,1.5973002
<http://linkedgeodata.org/ontology/changeset>,-3.7194579,3.1803148,-3.2971265,1.3283591,2.242924,-2.9079905,2.1921577,2.016552,2.2578452,1.9479184,-2.889506,2.4616451,-2.1677778,-2.619613,1.0275812,2.232137,3.0294707,-3.401588,-0.22297403,2.3658233,1.5160913,2.595906,-1.9870418,1.7645717,-3.5957327,2.9923668,3.010455,2.6947463,2.4396904,-2.2438204,1.556528,2.5738082
<http://www.w3.org/2003/01/geo/wgs84_pos#long>,1.9583621,1.9770582,3.1594307,1.9335504,-2.1582353,-3.0533667,3.6601508,-1.7893043,-2.627209,-1.494892,-0.013891005,-1.277223,1.4861268,3.2118962,1.6710203,-3.1175768,1.1445668,-1.1403207,1.67896,2.1857054,2.0570924,-0.35989282,0.069197066,-0.6955111,-0.48005557,-1.0908512,1.6790242,1.5723686,-2.3652844,2.1723878,1.2456417,-1.8684895
<http://purl.org/dc/terms/contributor>,-2.079893,-1.9558296,-2.9255664,-2.1008976,3.3783853,2.0991304,2.3961024,-1.8455108,-2.6761432,-2.7518919,-2.7684295,-3.1767015,2.8723505,1.3648282,-3.1422417,2.0609953,-1.1665308,2.2206707,2.9817698,-2.4502006,-2.8793833,2.3695605,-2.6290662,3.2198083,-3.881694,-2.516499,-1.9225826,3.0409815,-1.4545693,-2.8712473,-2.1079543,2.2162952
<http://linkedgeodata.org/ontology/ref>,-1.1223297,-0.6068645,1.3676252,-0.64503676,-0.07613026,-2.126054,0.30146492,0.731957,-1.6551182,-1.4817697,2.197662,0.6982806,0.6531607,-1.9197881,2.407365,-0.68405586,-1.6119334,-1.90286,1.3021554,-0.6038262,0.50438356,-1.7466841,1.4358227,-2.9084923,0.27195132,2.5967128,0.8320403,1.3415639,2.205841,4.764603,0.92450184,2.1150036
<http://linkedgeodata.org/ontology/nuclear_explosion%3Apurpose>,-2.3832216,2.8365152,2.8182697,2.5694983,2.3849838,-3.7811556,2.314621,2.5756178,-3.4166892,-1.4578875,2.3710136,-2.599373,1.4516585,-2.0693128,-3.7684178,2.89404,6.3205996,2.497113,1.8219166,2.45487,-2.265322,-2.6884487,3.0053372,2.6819336,-1.4433482,2.5551012,-4.6797476,3.598563,2.5528526,0.9445702,2.8135953,2.3341413
<http://linkedgeodata.org/ontology/nuclear_explosion%3Adate%3Autc>,-2.136535,1.6456167,-2.6576545,0.13539296,1.3898435,1.7230958,-2.4239783,0.2588718,1.8560674,2.8330624,2.5070715,1.8544357,-4.3382635,-1.5879645,-0.2130729,0.6958403,-2.8250947,1.8467293,-2.0594258,-1.9707063,-1.7245978,-2.217769,-1.95438,0.6099103,-1.3913225,-2.0350351,-1.4858192,1.1368558,-2.1141646,-1.5363262,2.0214212,1.7971355
<http://linkedgeodata.org/ontology/nuclear_explosion%3Atime%3Autc>,-1.7554957,-0.34424746,-3.3093297,1.78059,-3.2622547,-1.5112945,-1.2634319,-2.3907063,2.010186,-2.3122191,1.6679974,2.458345,1.3155757,1.6583061,1.4235483,2.2428896,-2.5512052,1.2368015,-2.5123696,2.5511575,-0.85822487,2.373544,-1.5758492,1.5099036,-1.6293623,-1.7099758,-1.2947754,-2.2752674,-0.50749034,-1.3035676,-2.1751068,-2.6393397
<http://linkedgeodata.org/ontology/nuclear_explosion%3Awarhead>,2.139656,-2.2239316,-1.7809753,2.497121,-2.7906706,-1.9266466,-2.0737088,0.41670144,2.6776967,1.9878962,3.5649152,1.094426,-3.0482452,1.5816098,4.259561,-1.7979724,2.5424984,-2.8778808,-3.842926,-1.9311352,-2.8002036,2.870728,0.5833578,-2.131558,0.8456204,3.0632122,2.8730369,0.3667683,1.961187,1.0841681,0.457399,-1.6951854
<http://linkedgeodata.org/ontology/nuclear_explosion%3Acountry>,2.5705767,-2.4894953,2.4227626,3.8729093,2.682612,-3.6225965,-2.686451,3.087407,2.5433183,-2.3961926,2.8995075,3.1947455,1.9879965,-1.6282233,-2.9591558,3.029733,-1.8965223,-1.4937935,-3.1726575,2.9995315,2.7501833,2.1479824,-2.4991026,-2.5451353,1.8631088,2.3913562,-8.709679,2.3855872,-3.7187538,-2.6947327,-2.6950943,-1.7813092
<http://linkedgeodata.org/ontology/nuclear_explosion%3Asite>,-2.8989592,3.5905802,2.5356834,-2.8485537,-3.0027485,2.4787157,1.9266102,-2.3628182,2.4692643,-3.2688224,-3.1113842,2.670411,-3.418981,0.24166733,0.47513536,-3.4855545,0.64123255,-2.9768157,2.7590759,-1.4654092,-2.0174553,2.2452345,4.212414,2.5856514,2.5316398,-3.5019553,-2.6149583,2.7830024,-3.6427674,2.1147773,3.1384196,3.29013
<http://linkedgeodata.org/ontology/nuclear_explosion%3Aheight_of_burst>,-2.7404914,-1.386658,-3.1314921,-3.64497,-1.7771419,-0.6847223,-0.45770094,-0.11398238,-3.3487086,0.90215254,1.8082851,0.99923676,-2.4002805,-1.2300013,0.37126642,-4.1132336,1.770262,-0.4051526,3.8612554,0.8027094,2.77047,1.691974,-0.6253256,-2.7078366,-0.101466835,1.8436645,-0.5463969,2.5570216,-0.95580256,0.28454018,-2.2442846,0.56446266
<http://linkedgeodata.org/ontology/nuclear_explosion%3Atype>,3.4778767,3.0014787,-0.07702351,2.5527444,-2.3825285,2.973385,-2.4673696,-2.471151,2.6541471,2.5157044,-3.602378,-3.1846595,1.9907155,3.1550298,-3.2528567,2.5753074,-2.7514803,2.4439118,-4.12982,-3.0684903,2.5422623,-1.7309769,2.6250193,-3.3127837,-3.1299758,2.7810824,-2.900729,2.1199863,4.5765324,2.937805,-4.418564,-3.328324
<http://linkedgeodata.org/ontology/nuclear_explosion%3Ayield>,2.3648007,-2.911177,-2.8822753,-3.4664018,2.5833738,-2.6688852,2.861934,2.2186382,-1.5080277,2.2702234,-3.1053045,-1.4123783,-3.1919713,-1.0447717,-1.9839453,2.4563878,-2.5192838,-2.591978,-2.0038407,-1.948614,-1.1821433,1.9347718,1.2410353,-2.2804081,-1.6030256,2.3722274,-1.5685908,-3.574383,-0.2667485,-1.5203917,-0.1419261,-4.179512
<http://linkedgeodata.org/ontology/nuclear_explosion%3Aseries>,2.6194751,3.0867908,-3.026604,1.2072957,2.3080904,2.758624,-2.928206,-2.5565553,-3.3556237,-3.078103,2.9932842,2.1314728,1.7110939,-3.2097375,-2.5279717,1.9988679,2.914366,-2.6033714,2.204856,-2.4872303,-2.2325156,-2.8213477,0.6580834,3.2161112,-2.1040058,-2.750746,-3.2772713,3.2923987,2.2496989,-3.4022875,3.0792232,-3.1720304
<http://linkedgeodata.org/ontology/nuclear_explosion%3Ashot_name%3Aen>,-1.8866092,0.374499,-0.13176087,-4.229591,-1.0164684,-0.9461902,-1.9102641,-1.4183396,-1.0293808,0.49038962,2.3446968,0.3805594,-0.5490366,0.075306445,0.73373187,-4.3372703,2.2671337,-1.4400138,3.2006257,-2.2885582,0.80209213,-1.4791805,-0.13255161,-4.572508,-2.7817972,2.6312485,2.7232366,-0.27958342,-0.21828547,2.4500093,-3.5608985,-2.0144873
<http://VP.org/>,0.042101175,0.9992913,-0.08711407,-1.671338,0.6449682,-1.1417849,3.8878279,-3.450431,0.8217971,1.498241,0.90447533,-1.6753361,-0.42475453,-0.26424018,-1.0060296,0.81137973,1.0627406,1.2323366,-1.3637247,-2.1983685,0.18663095,2.7774594,-0.1280379,-0.30870077,0.5362004,-2.2158828,-3.9044929,-0.25209215,-0.40725636,2.299685,2.0343537,-0.0633918
<http://IDHUXBfe.org/YreAQspatj>,-1.3037001,-1.3041018,1.3666561,-0.07437325,-1.2281148,-1.1939292,1.5648303,0.6950266,0.5662878,0.26589268,-3.462247,2.0188122,1.1420962,0.0078402,-0.5936107,-1.6779118,1.2248225,-0.9241469,-0.45661306,-0.7581557,0.7743728,1.1564999,1.2025772,-0.9719682,1.6257493,-0.9214155,2.862426,-0.14326921,0.101185754,-1.059379,0.3322884,0.92607844
<http://OEud.org/gXUEPkkIrzG>,-0.85546404,-2.6724253,0.85134304,-0.74628407,2.3537865,-0.21349289,-0.11759335,2.6945934,-1.9947473,0.90630615,0.31416786,-0.8048835,1.0710586,-2.0099292,-0.45408848,1.1204833,2.3356206,0.0041116984,-1.2816248,0.3650526,-0.2594187,-3.1817513,0.20834233,0.3574994,0.93259305,-1.7620965,-1.0242218,-2.087495,-0.703354,0.69268507,0.59309155,-2.5837846
<http://HbJ.org/dO>,-0.25383094,-1.8626412,-0.2037238,1.0029979,2.0614223,-0.43220744,0.6628215,1.4464486,3.3294468,1.7370323,0.5340895,-0.41118053,1.6856899,1.7119478,2.5197365,1.4765444,1.3162438,-0.78266233,-0.29451886,-0.39362854,-2.6281946,0.4814789,-2.5711818,0.6846315,0.72450674,0.8376666,2.8512797,-1.740022,0.69821787,-2.267368,0.23433769,0.72798026
<http://EJDCZTKFoWqOHxqROcU.org/xKMqPzt>,0.8759007,0.80333626,2.3670428,1.2825717,-0.8084787,1.412638,-0.9493224,-0.52282804,0.60369706,-1.9007035,-0.39917812,-0.023579976,0.035975207,2.0853667,0.9626677,1.8386204,0.03765383,-0.875269,2.3481464,-1.1434344,-3.1606877,-0.8039382,-1.1971649,-1.6854212,-0.12971133,-2.9806697,-3.2794871,-0.2434996,0.8539125,-2.4151268,-0.1067542,0.17277399
<http://jdTwHOuVLS.org/keYgaAxwVndKt>,-0.5877604,-0.13244334,-0.53389823,1.6816789,3.4716432,3.2476377,-1.4750164,-2.0253775,1.9144171,-4.2106357,-2.9194436,0.6951795,-0.8139797,-0.7808136,0.81712914,-1.7081685,0.76803833,-0.7433318,0.6253099,0.045290478,-0.8022112,0.112598814,2.7952447,3.1845336,0.030451922,-0.29612264,-0.25000194,2.0219913,3.342748,2.251199,-2.4250374,-0.5194121
<http://phITMlIOcYuHGUizV.org/XugDIZckOL>,2.793166,-1.5375218,-0.56724614,2.1556516,-1.4261996,1.1075937,-0.510057,1.8987559,-1.8011396,0.4808397,-3.2252495,0.38327032,0.3979736,-1.8732034,0.63257515,-0.035037786,0.87161636,-1.5895178,0.077668,-0.733072,0.12075573,0.18825693,-0.63523436,-1.3281837,0.48995045,1.3012865,-2.324673,2.4895122,-1.0005245,2.8809042,1.3425711,-0.8242105
<http://fpXzaTcSEGYGE.org/EoaNjDQEFj>,-0.4132935,0.15077437,2.0644538,1.4505817,-0.91397136,-2.0604103,0.5099419,1.5099955,1.2182457,2.2516587,-3.068103,-1.2478243,1.3337276,0.29192355,-3.1415994,-0.43458566,-0.060646124,3.1870503,-2.0147939,1.9946985,-2.3922231,1.6013596,-2.5820003,1.0335588,0.32428595,-0.7013852,-1.7245449,0.28694028,1.2650476,1.603795,0.086183615,-0.7381795
<http://linkedgeodata.org/ontology/nuclear_explosion%3Ahole>,-1.0055249,-2.204442,-2.1267517,-1.0942332,-1.6246067,-0.8033931,2.0577028,0.49172422,-0.009836864,-0.88416874,-0.45030057,2.6968687,-1.4403896,-1.3313619,2.24965,-4.2711535,1.4537805,-2.8575037,3.273402,-2.873206,1.4217858,1.2864031,0.1194082,-3.604094,-0.6523363,-0.79614896,2.468016,0.3861411,-0.87664497,-2.4465988,-2.8029215,-2.2323196
<http://linkedgeodata.org/ontology/nuclear_explosion%3Asalvo>,3.3560686,3.3897154,-3.374366,1.4612004,2.2877452,3.354784,3.5707037,-3.5888815,3.5680072,-2.5642915,-2.6178117,3.5911098,2.9218254,3.5762782,-4.6855183,3.5163531,2.7518823,3.7289762,-3.333181,2.1756651,-1.5745137,-3.026569,-3.0444305,2.8066833,2.6085405,-2.221119,1.8595868,3.2485805,2.498356,4.0309167,2.855552,-3.2981164
<http://linkedgeodata.org/ontology/nuclear_explosion%3Abody_wave_magnitude>,3.3179686,1.775566,2.659006,-3.2864263,-0.24607158,-1.1119692,3.8064282,-0.034437202,1.6536174,-1.394972,2.70675,2.7451894,-2.8772457,-2.5123124,3.2089334,0.0783987,-1.3892374,2.0635602,3.0960414,1.5643897,-1.8058602,1.4130658,-2.736704,1.3400788,-1.1924131,-1.5107541,3.041177,-3.9892375,-2.7257872,-0.9019211,2.1151667,2.9886363
<http://PvEDlUKptkx.org/PhYYbqwOVGQIza>,2.2462804,-1.4667346,2.018812,-1.0200033,0.007713156,0.50580984,-0.20924674,0.7518337,0.55320406,-0.40335906,3.1132793,1.805363,-0.82243896,-0.8688947,-1.0175369,-1.5270392,-0.12466105,1.4833463,-1.218533,-0.75602955,-1.6561219,1.0678029,-1.0290523,0.29867163,-0.6992782,-1.0668169,-0.034010977,-0.10983304,2.7417154,0.86055094,-0.73004544,-2.6032171
<http://OXkphCYBjWHhgXAWVL.org/WwCBOPfZPWryWyvwCYA>,1.8661085,2.064242,-1.5931798,0.70121515,-0.63718474,-2.8003976,-2.6615107,-0.98756003,0.56315184,-0.36437124,2.0803611,-0.43067026,0.33235592,1.9913874,0.5390115,-1.4753982,-2.170497,0.24993849,1.346155,1.7537239,0.60297066,-0.39128098,0.22706293,2.3653214,-0.4991969,1.3862793,-0.3801426,2.5705128,-0.9684911,-0.14902152,-0.8331571,-1.8842324
<http://cyRKLQsdmLQwJWKN.org/sWLUkwBrOx>,-2.2775962,1.9259193,1.2275002,-2.7683225,1.4098314,2.0717144,1.7603506,0.32385066,-1.633311,-2.3428097,-2.4534032,2.9671967,1.4707375,3.2710588,0.120243676,-2.9757178,-2.4112153,-1.0743414,-1.1535246,-1.1863203,0.9344203,1.5735445,0.6259884,2.1193886,-1.2006497,0.79403293,-1.5111305,1.3001124,2.0365572,-0.34129468,2.6368413,-0.027568683
<http://WgMzpZZnUIwoS.org/FSB>,-0.88582814,2.1486819,0.51994294,1.4594218,0.8287464,-0.3104786,-3.1844263,1.0543247,-2.9866986,0.08289709,-2.9620764,1.2003851,3.3069701,3.8931422,-0.59710544,0.93619865,-2.754124,4.6022186,2.5626192,-1.9106284,-0.003992388,-0.5102633,2.0527687,-2.7439044,0.12503274,-2.6221545,-2.8725758,-2.622767,0.30088994,-0.03955673,1.7119154,-1.2022653
<http://sJEVbS.org/OwS>,0.32124838,0.8404032,3.346904,-2.1589043,3.4476998,-2.2717667,1.2297179,-2.9809978,-1.8342084,1.1369731,-3.264937,0.59277666,0.9828536,3.0482032,1.7622763,3.217949,-2.6229508,-0.4058515,0.068350166,0.5412633,-0.75236654,2.033888,-0.5045003,-1.2799131,2.7073357,1.5684217,2.258691,0.8133444,0.54746026,-2.5442543,0.7609736,-0.54648954
<http://linkedgeodata.org/ontology/nuclear_explosion%3Aground_zero_altitude>,-3.3524034,-0.91777605,-2.4813497,-5.0584726,-0.37328762,1.0502712,-1.5726067,-0.086569734,-3.0123284,-1.0244545,1.448973,-0.62742406,-2.9908907,-1.0975823,-0.5686315,-5.340952,2.5250158,-1.1598624,2.1335223,-0.8864732,-0.76753783,1.2059667,-0.7218084,-3.52098,-2.917901,-0.08490021,-0.511751,2.599676,1.0505878,2.0706248,-3.4117215,-1.1482046
<http://eqFAvPAhsawn.org/cKcYODLw>,2.0485566,1.784583,0.866315,1.1596514,-1.8447471,-2.9275348,-0.20223138,0.45465374,2.0666716,1.2201388,-0.47528446,1.1256043,0.09932772,-0.26075304,2.221137,-0.8460862,-0.9104666,0.05119504,-1.5586107,-1.5072583,0.87832505,-3.5210693,1.4329957,1.9265394,-2.5306416,2.579763,2.1047153,1.3997297,-2.7795005,-3.795237,0.5452677,0.29802755
<http://SnSsdStb.org/nypnPd>,0.97818774,-0.85472316,-1.4876158,1.9054809,2.6641443,0.91550004,-2.782498,3.9710176,0.9517264,-1.6633222,0.6465791,-0.33677343,3.7590706,-0.5357451,0.76613736,1.9670552,1.1586787,-0.2672477,-2.7117329,-2.230408,-0.900597,-2.5148177,0.3322116,3.633996,-0.5989208,3.7234082,2.8251028,-1.280544,1.3281409,-0.54564214,1.9232272,1.0418262
<http://L.org/EeJpeTVHQSd>,2.2871916,1.7894068,0.9328923,-2.0196311,0.9248554,1.8451008,-0.040088523,-2.5640347,-0.85764545,-1.0332466,1.7996017,-3.0770917,0.1142125,3.1906474,0.92312163,2.312282,-1.6059436,0.94996506,1.9331927,-0.49226722,-0.10283581,1.6908494,-0.41884825,0.14372607,0.71550256,-1.6850382,-1.4986256,2.5939817,-2.62231,-0.3515814,0.40941885,-2.2183404
<http://cSdhkabesbKB.org/gOjlmZccjLHsa>,-0.97951025,-0.8565842,-1.4859531,-1.1507057,-0.37488073,-0.83143204,-1.7503997,2.0585716,-3.2262943,0.9945769,4.267586,-0.57297206,-2.5883737,-1.9150472,1.1920433,2.0044606,-0.89386696,-2.5255194,-2.8182034,0.20141248,-1.3461971,-0.09308435,-1.2525796,0.8560002,-2.0009723,0.57701045,2.5002587,-1.4892378,3.2128918,2.8145487,-2.8299713,-0.9609222
<http://.org/wmYkwbI>,2.4767299,-2.8051512,-1.3590403,0.032591302,0.17329134,-2.0136366,-0.26179472,-0.3764397,0.26166683,-0.30227053,-0.19146055,-2.5025022,0.09005826,0.56902266,1.3687556,-1.1783751,2.073781,-1.7300885,-2.3273106,-1.1962671,1.1523405,1.0930536,-2.8638165,-1.3812249,-0.14244692,0.5147913,-0.85735565,1.233185,-1.4797617,-1.8646575,-1.2720811,0.6160143
<http://MsZGUkTdOKkBPl.org/ndGSnPs>,-0.6734088,-1.781604,-2.3131788,0.12368971,1.8502854,-1.447281,1.2257768,-1.3150241,1.0468638,1.3001074,-0.2226905,0.072558075,-0.5358834,2.0043247,2.0281715,-0.84974474,1.4835489,0.2755156,-0.9080895,1.5356389,0.1877702,0.06996975,2.6636481,1.7468433,2.082878,-1.9383624,0.4500606,-0.45657322,1.0316699,-1.2922385,-0.846674,-1.0954508
<http://ciGupnPM.org/agiFxrEwZEl>,-0.7227922,0.2151512,-0.4237859,2.0324109,-1.0968832,-1.5848281,-0.97045946,0.7067962,2.941523,-0.12003034,-0.2085555,0.15847267,-0.39314765,0.89558035,-0.14857432,-2.9218304,-1.4018564,-0.86565536,1.1669031,1.657883,0.55877924,2.747893,0.700976,4.001306,0.05213113,-0.13701963,0.46494138,-0.28752968,1.4972259,1.9826458,-1.6621933,0.019496085
<http://LBQSyqFhBJxlc.org/eBgq>,-2.1047225,-1.4054294,-2.028725,0.46502843,1.356533,0.4765794,-1.7000568,-1.4829905,-1.5014259,-1.0424696,1.9649354,-2.9868433,-3.2930403,0.16279803,0.119119704,1.0010812,1.3716614,-2.2300792,-3.0392957,-0.42716143,4.307147,-2.2003875,0.68783754,2.9940352,2.4500165,0.37203497,0.83117175,0.101047315,0.55440587,-1.2692114,-1.3221923,-2.69776
<http://KMyfTaV.org/DOLQitoJzpGisLs>,-0.079508424,0.69535506,-0.36629817,1.6561044,0.44718114,-2.7442076,-0.8005149,0.6089267,1.1940295,1.3102049,1.3970585,1.4164398,2.3095303,-1.930543,-1.4612051,-0.09034017,3.1430092,-3.0861418,-2.220668,-2.4215894,0.12964532,2.165011,-1.1859215,-0.14623494,-1.7362039,1.7904135,-1.0598181,0.8184047,-1.5890174,-3.1973715,-1.0614593,-1.9015758
<http://Eqw.org/zfsmtBcHFQCu>,-3.3287108,1.1455821,-1.160503,-1.9566326,0.45197412,2.6494284,2.401081,-1.5400296,-1.7620637,0.7634096,-3.5607517,1.6910048,3.715952,-0.74494475,-0.9910714,-2.646321,-0.8328237,0.6224857,-2.161063,2.4060128,-3.1464942,0.78611165,2.5643542,-0.94245106,-2.8404045,-0.70215696,0.39347693,-1.1307366,0.6827611,-1.1020888,0.5538367,1.6685735
<http://HyRw.org/RHtU>,-2.8235366,0.9948341,1.0985352,-3.2125397,0.94393855,-0.7071726,-1.671224,0.49152145,-4.1974416,-2.782043,0.303889,3.5397701,-1.7325597,1.3790132,-1.0025293,-0.70406735,0.739776,1.6995236,-3.0601287,0.93717045,-1.0274788,-2.2968752,2.4148707,1.0381159,1.902903,0.84210825,1.3501958,2.4196928,0.05113803,-1.1927894,-2.5054097,0.6049089
<http://KP.org/WmVrSCU>,-2.194928,-0.6163972,-1.4351251,3.3641262,-1.3410393,0.29949835,-2.213352,-1.0753918,1.4956256,-0.63455117,1.0204792,-0.9560071,-1.29521,-1.2249829,0.35389724,-0.52663296,0.09749458,0.23650907,0.19630681,0.22829296,1.2406125,-2.8037388,-1.3218868,0.62712055,-1.1534942,-0.6059244,1.0088482,-0.99375486,1.8156757,-0.67501116,-2.1424859,-2.806713
<http://mEyFvqTdfSfrsySynqW.org/mGKUOqrD>,-1.782081,0.47177175,0.9652911,1.0901475,1.2711346,1.1931155,0.8646294,-0.27368578,1.0748086,2.244972,0.5301464,1.770738,-0.82158303,-3.3034866,0.8477033,-1.2419158,1.2368656,0.12935464,-2.302454,2.2316275,-2.347076,-0.025079872,0.8153773,0.23051362,0.085286014,-0.6909536,-2.6263616,-1.3747776,0.7121971,0.08994096,-2.6849496,0.009539487
<http://TBNBVq.org/O>,1.4448843,-1.4263581,1.4836482,2.4557798,-0.68689287,1.2483222,-2.9451506,-1.7719209,-1.0826249,-1.7084668,-0.602066,1.2654246,-1.686756,0.78088474,2.9691186,-1.5855217,-0.92071086,2.6299827,0.33495665,-2.1111484,-0.9831566,0.9985261,-1.4901408,-0.83033043,0.21321218,-1.0043744,0.10640281,3.8485675,-2.3546913,-0.014909218,-1.32312,0.5125591
<http://lfH.org/xlGPQozl>,-1.705514,-1.2124698,1.569516,0.59902257,0.53222823,-1.3607676,2.1911292,-1.540866,0.17992884,0.53134483,0.32168117,-1.2168577,-2.7411344,1.2561285,0.025065651,1.1899244,-0.2910424,-2.479577,0.9765528,1.7475071,-0.38352212,2.4820032,-2.3281927,0.18404123,0.690675,1.7369173,2.8050578,-1.4173135,-1.671855,-1.2126706,-1.2433591,-0.92615753
<http://OcyUHRotNsuplXIg.org/FqkFgBenlECTyeHBwno>,-4.345049,0.33095625,2.386544,-0.28780288,-1.8358608,-0.3994766,-1.1883469,0.8392372,2.0015476,-0.8126341,0.104525305,0.3002447,0.115278885,-2.626391,-1.3933808,1.0029275,0.23312148,-1.1864995,-1.1941249,0.9917064,1.7533082,1.4890264,2.586101,2.2852027,-2.5782702,0.10047076,-1.921274,-2.0709963,-0.33114707,-0.87704855,3.2346358,0.07020682
<http://AwzNKAPZqrECBvGAj.org/ywPxiqIvtH>,1.3282187,-1.5786297,-0.2277546,-0.3507481,1.3799725,2.4079905,0.34543517,-1.7393477,-0.9236343,2.5795379,0.20498738,2.3008256,-1.626304,0.07269073,2.897295,2.4562273,-0.82760805,-1.23101,1.054192,0.06841067,-2.2609055,-2.5084348,-2.2515676,0.24627618,2.0947638,-1.5437058,1.4575194,-2.8146625,-1.2160951,-0.03263091,-1.8880461,-1.1166251
<http://lpuEX.org/ERtdxHqlerEXIxyub>,-1.2607725,0.9378037,-2.9483242,-1.0193079,0.453554,-0.8927422,-0.15555793,1.0430847,2.213438,-3.000522,1.4551332,-2.930287,2.9664812,-2.1106825,1.2934204,-2.4592576,1.3181403,-2.08591,-0.01522127,-3.5902438,-2.011117,-1.2875909,0.46820533,-1.9594023,-2.8300798,-1.7801709,4.071555,-2.2215455,-1.9831585,3.3463066,-0.29587352,-0.31296054
<http://PCcibDRarwhQmg.org/JksAxJNhivm>,-1.3512334,1.1268396,-0.82848364,2.0333967,-0.6594028,-1.6727879,2.568902,-3.0377228,0.14305037,1.2079815,-0.71520674,0.44457135,-2.6965876,-1.662404,-1.2483788,0.32148653,3.2484026,-1.6942692,-0.34930718,-1.3112553,-4.347374,-1.1033211,-2.1098826,-0.6627051,2.4702735,0.70961905,1.3989804,1.5051497,3.3483489,4.198485,-1.3726065,-2.0735564
<http://foBDyPVbNWlDShaMua.org/AtoOAE>,0.10547163,-0.8221775,-1.9468564,1.4777608,1.3816643,2.5652835,0.5756527,-2.9809,-2.238663,2.0708845,-3.6554055,-0.12675196,-0.85340387,-0.83658236,-0.07234811,0.39691496,-0.14969996,-1.4917235,0.06709328,1.1504569,0.13121395,-1.4353763,0.307773,-1.405622,0.09926732,-1.2431226,0.3873356,1.870284,5.032907,0.32617867,-2.293985,0.28123927
<http://d.org/uoT>,-0.5800598,-1.3194079,3.2595642,-0.17770754,1.0401356,-2.0391464,-1.891815,-0.748663,-1.1415964,0.9493061,-1.9153104,-0.74179405,-1.9892257,-0.7149756,0.32667598,-0.49815252,0.20598976,1.9870613,2.8348255,1.9983429,-1.9741957,-0.0216206,0.5497134,1.6678263,2.2167964,1.1439357,1.032674,3.0767581,-0.2047688,0.5191789,0.38319078,2.853093
<http://i.org/VuPlHHyTtNkjNaxa>,-0.25701958,0.7181196,-0.470365,2.8164842,-1.722898,-0.4614342,0.814277,2.7402616,1.134005,-1.0578705,2.2023034,2.0824058,-1.4937791,-2.0264184,-0.530015,-0.39340743,0.47330752,-0.5406003,-1.6925842,2.4040186,-0.33688605,-1.6362433,0.8684172,-0.7001414,1.7060548,-0.30338132,-2.500058,-1.0852331,1.5125372,-2.3520114,4.160437,-1.0005474
<http://aonfEPfUYidsnJ.org/exgDAdQx>,-0.07889165,0.1179689,-1.6388744,-1.4306372,-1.645942,-0.5009767,2.3760195,-0.92701423,1.3065321,-1.1768798,0.3767831,2.2678971,-1.6927406,-1.1672404,1.2865891,-1.2819716,-1.0130861,1.3238764,-1.5149039,1.1606562,-0.6991247,1.7048389,0.36237475,0.27327505,-3.3576307,0.60779524,-0.7181351,-0.6156693,-0.87857395,-2.0048468,-0.6150611,-0.6851163
<http://N.org/>,-0.4556651,0.78369504,0.19777735,-0.11916386,-1.2771854,-1.6736809,1.945444,1.2101024,1.2633497,2.6850042,0.103638895,0.26031312,1.0601522,1.0473719,0.999167,-1.3246967,-1.7799425,0.53748983,-0.66099846,-0.7174608,-3.0367749,-1.114067,-1.2148467,0.8230945,-2.1935608,0.9036837,-0.18480115,-1.9507344,1.0539001,-0.95457536,1.972118,-0.3129147
<http://dMYSIjRKaMMgUQ.org/VfsjjEUNh>,1.2683097,0.58816993,0.8197363,0.16890591,2.6452043,-2.4219623,1.4383384,2.4980419,1.1352535,1.9018972,-1.3920581,-0.77722186,-2.7511537,0.79056454,-0.86129475,0.3097274,-0.16238098,-1.9886307,-2.442188,-1.5448593,-0.58603853,-1.6780865,-1.8580883,1.7268263,-0.94771117,-2.1671565,1.2476839,-0.71628565,2.4361405,0.8483735,-3.108327,-2.1032875
<http://rrpEexz.org/yVuzDKbaiQjBbJTkfs>,-2.1381671,1.7068074,-1.074269,-2.0140347,0.4229652,-0.71551406,-2.134783,0.34060982,1.6463125,1.6522832,-1.5438102,0.11533485,-1.0567168,0.7880036,-0.1930769,-1.1518767,-1.265094,2.2017345,-0.7484327,1.6995589,-0.6637059,2.064223,0.00811729,-2.0138173,1.8177086,1.9067212,-0.7445165,-1.3527044,1.9333926,-1.1343015,-0.6477064,1.6288857
<http://p.org/HtqGNdJaYMbGYzPjyk>,-1.230077,-1.4129426,0.57292247,2.7348115,0.9309101,2.9449854,2.1066816,-0.8990981,1.4104362,-3.3427556,1.1966941,1.9242735,-0.5031359,-2.5118468,1.4374708,1.758621,1.0937407,1.8679323,1.7327479,1.0713867,0.9057818,1.4054459,0.27067488,1.9526985,1.3670266,0.15865271,-2.0515468,0.36017984,2.1134858,2.2018697,-2.7720838,-3.1200888
<http://fQoSPvumKidFMc.org/Z>,-0.16090722,1.0445564,-0.86245704,0.8345816,-0.17302525,-1.2064451,-3.348055,-2.8532603,2.4064174,-0.25667363,-1.0809311,2.4889936,1.3169621,1.8038313,-1.7204189,0.30125326,1.0517423,-2.5971603,1.7454664,-0.34792766,-1.6046832,-1.2729224,-0.39207268,0.2333943,2.114734,0.63090515,-1.7709074,1.3363342,-0.42469206,0.3323602,-0.60310185,2.7177281
<http://linkedgeodata.org/ontology/nuclear_explosion%3Adevice>,2.0491567,-2.2130454,-2.6360543,1.0168309,-2.4421885,-1.947273,1.3057722,-3.2243931,-0.38488638,-1.9252825,1.4167069,-2.652039,-3.2768345,-2.5463986,1.6163472,2.874304,-1.0147923,2.1128325,-1.1245352,0.4951843,1.1306447,1.8853093,-2.6863348,-0.0030930622,-1.0864736,0.93874836,0.5846463,0.98835313,-1.3177478,4.423841,0.3518785,5.2249627
<http://linkedgeodata.org/ontology/nuclear_explosion%3Acrater_diameter>,-2.420512,-0.5051073,-1.8076267,-3.6153383,-1.2195907,-0.44727314,-0.76189893,0.5140471,-2.2214763,-1.8837698,3.4566817,2.792572,-0.97929627,1.7610978,-0.18090849,-2.910918,2.8205886,-0.3749394,2.7782857,-1.322586,1.1700481,1.0886668,-1.2398998,-4.9549932,-0.23785265,1.602804,1.0301255,0.62002367,-0.4923931,-0.86123127,-4.0004206,0.01672582
<http://HZjSXOQaW.org/iGQWCi>,1.4051222,-1.9399151,0.55998045,-1.4652494,1.5114038,0.8537064,-0.49868953,0.6357273,-1.4629532,1.563856,-0.82907224,1.9797788,0.9026732,2.5117464,-0.44029754,-1.2370334,0.47043052,-1.3173993,-2.4220603,0.82380193,-2.24798,0.8735164,-1.8969107,-0.009387614,-0.6228893,-1.023227,2.5434935,0.58746123,-0.9835337,-2.1358132,-0.6504555,-0.5833229
<http://vE.org/>,-1.2395688,-1.1595882,2.705033,0.083949886,-0.1461882,-1.2601472,-0.090597935,-1.5047599,-2.5841079,1.0165528,-0.5231274,1.1405419,0.103531145,-1.1280289,-0.7551707,0.6454616,-0.3246084,1.9888463,-0.13335636,-2.1033785,-0.742312,-1.195433,-1.628007,-2.7560697,-0.9622286,-2.011359,2.1514668,-2.9418395,-0.72908294,0.24405655,0.8986896,0.30654582
<http://mAxrTkfpEQWpqrz.org/mRuSJ>,-3.1515715,-1.4177064,1.671313,-0.4701656,-1.9548782,2.236306,2.1831808,-1.1441864,1.1168443,0.93083066,-0.20970024,-2.7526953,2.5259125,1.0942091,2.5009518,3.8814192,1.6227273,2.9437642,0.72355837,0.72075534,-1.5788062,0.2697085,0.95808655,-0.7617115,2.347641,-1.2099756,-0.82772595,0.6120911,-1.2422229,-0.30513343,-2.4393,0.28185213
<http://LQXXltsPwPhOGKlFC.org/YazNduWlymvW>,2.0641189,-1.408956,-2.2335532,-0.5466923,0.09578382,-0.46863908,-2.4863071,1.7426945,-2.2157354,-0.09045044,-1.9702413,-1.3732706,0.8490453,2.868566,1.2906302,-1.1833643,-1.8942549,-0.4146372,-1.2206464,-1.3810184,-2.6915545,0.13783142,-2.444969,1.5513153,0.7328522,-0.99969894,0.5367582,1.2950885,-1.9629319,0.8329482,-2.588418,2.101023
<http://PtaKaQ.org/n>,2.104239,-0.60656804,0.43188956,-0.7792203,-2.99477,0.04627569,2.3071434,-1.2030536,-0.21574187,0.9755218,-1.6765908,-0.72208464,-1.926965,2.4190447,-1.2073772,1.3216168,0.1475451,-0.38247564,-1.428907,-0.6153344,-1.6644812,2.0197997,-0.86287344,-1.0233269,1.5179309,2.456556,1.8199544,1.9226464,-1.3430014,0.1564756,-2.9003124,-2.968294
<http://plHcBsmOrjNGgOfz.org/ZHVAe>,-0.11360407,-0.72187865,-2.775252,0.21181569,0.18047352,-1.7669692,-1.8823532,-1.6969931,-0.18333608,-2.1220803,2.240251,2.2534661,2.8381178,1.3508866,1.9113779,2.0046,-1.6105993,-2.374884,1.1933227,1.3642172,-0.16206379,0.609343,-1.380721,-0.8027446,-1.5022124,-0.2940844,-0.9618026,-2.6461458,1.7313638,2.7742193,-0.070165694,-0.25221142
<http://vWZlqKVhZPj.org/UOCpxQfBIDpvuWUiT>,-1.5695732,-2.7843494,-1.3208711,-0.90730405,1.6854224,1.8776536,-1.486774,2.3296404,-1.9153088,-0.4924389,-1.6332772,-0.8616945,-1.2205905,-1.5477946,1.5186429,-1.2510295,2.5826118,1.9288244,2.0150213,0.55751204,-2.2188668,1.1198184,-2.202502,-0.08761896,0.104692966,-1.2185688,-2.5500271,2.162165,-0.13746676,-0.46740806,1.4474912,-2.0218923
<http://rGraNYdlFlckAoVuVa.org/CHnb>,0.5056702,-1.5104043,1.705455,3.477401,-0.46315384,-0.22910547,1.4169985,-0.24812162,1.8838464,1.9461495,1.122888,-0.17070921,2.880444,2.3626673,-2.5568504,-0.17413655,0.0973341,-1.0382588,-1.1917317,0.1777079,1.2163776,2.2890427,0.7680939,1.3444505,2.4631367,0.32890734,0.62327325,-0.34910467,0.6923998,-0.80786544,-2.4851105,1.9020009
<http://ndczxdfNyOk.org/IsFsKf>,-1.2631731,1.8600729,-1.1042877,1.4991114,-2.1783917,0.772074,0.2565296,-2.4058309,-3.2675042,4.55043,2.7088733,3.0696764,-1.6851093,0.26661018,1.0892302,-2.770767,-1.169848,0.061535157,0.6627951,-0.4826735,-1.8155745,1.6899464,2.7927759,-2.660433,-0.5981859,4.401191,1.1247864,0.050432157,-1.6656538,0.5412154,0.9481732,0.6589884
<http://wbWLMXILgmMblg.org/ucaa>,-2.6167274,-0.21540403,1.1090866,-0.84189904,-1.524934,-1.517074,-1.9253805,-1.4262227,-2.2135534,2.606958,-0.91290164,-2.417457,1.9528153,1.2289189,0.49919194,-2.1987774,-1.9209276,1.4930958,1.5372013,-1.0799196,2.4652882,-1.6974123,-1.6593314,1.2598795,0.6701971,0.5509912,-2.2506046,2.121343,1.290859,0.21825452,-0.14763613,2.526893
<http://linkedgeodata.org/ontology/source>,-1.9574959,-3.987081,-0.25588387,3.5370657,2.30097,-2.833026,-1.3405551,-1.445961,3.6559224,-2.2607543,2.3931794,1.392198,-5.139735,2.0104718,2.1504676,-0.025816305,1.9173161,-1.7757183,-1.8819894,0.14575942,0.26812956,-1.6751974,-4.436722,4.7567306,-2.5432665,-3.1491334,-1.1007509,3.4187489,0.16208254,1.7360377,-0.94457895,-4.4356346
<http://ptTOKQa.org/w>,3.0877764,-2.0845883,1.3484907,0.6823795,1.3539404,0.82772005,0.80969423,-1.650245,3.8170733,-0.6565881,0.93473977,0.10176297,-1.0066401,1.487313,-0.41592687,-1.1518184,2.5703058,2.4909418,-0.6645871,0.11785723,-0.13815317,-0.38484702,-1.7194283,0.38427022,0.7884208,3.4410217,2.0973585,1.8826346,2.364913,-0.06318628,-1.1380359,0.7824891
<http://linkedgeodata.org/ontology/wikipedia>,3.03101,-2.158173,-2.8441813,-0.4814383,3.3292835,-4.185392,-0.04476995,-3.0692394,-1.5207642,1.2041365,1.1995238,-0.6953241,-3.4629555,-2.1117277,-1.8933544,1.0093154,3.473875,-0.9609184,2.743717,-0.28906077,2.0721338,2.1364152,-1.462914,0.3420431,1.1832803,5.254968,-2.3549542,0.5522471,-2.488206,-2.476809,2.0564883,0.83892906
<http://OgzKTacS.org/yIawOeeUeiGn>,-0.86603135,-0.5661616,-0.25617468,1.8932929,2.4593737,1.2186639,0.97733057,2.6305108,-0.036547422,-0.1579051,-0.5652704,0.3558301,-0.7542088,0.83575743,0.8916694,-1.8303546,0.24229884,1.2796967,-1.5026706,2.8071103,0.15588553,1.5243165,1.1138952,0.11715426,0.30211824,1.9200721,-0.054701995,-0.72664154,1.7249557,-0.34504926,-3.194579,-0.1626677
<http://sIknDRoJT.org/dSmSoXIr>,0.5448357,-1.8697784,-0.44916168,-2.6535027,0.6833559,-0.11111589,-0.26519704,-2.5015938,0.013831256,2.0484173,3.1823332,3.3578894,0.5208456,-0.74571955,-3.0699682,-0.6559933,-2.3885217,-1.0836345,-0.020708365,0.84659046,0.63985914,1.0463774,-1.0375378,0.66657734,0.4028954,1.1118289,1.8706552,1.1960793,2.5162795,1.8155017,-0.57214254,-1.8232124
<http://qLSSw.org/tLiCvuwK>,0.65925956,-1.0840555,-1.2444079,1.399211,-0.8851315,1.1693403,1.3752028,1.8327614,3.618498,-1.9980608,0.5725707,-0.6491364,-1.8379334,-0.6535843,-0.6552436,-4.3554826,2.1452045,3.7442844,-0.79327255,-0.30226448,1.4243574,-1.5378276,-1.2662311,-2.4124815,2.499269,-0.1605132,-1.9232812,-0.31847015,1.5174652,3.2743378,2.8164172,1.1401017
<http://.org/>,-1.2359108,-0.6730947,2.7332602,1.2498006,-1.5768086,-0.39164978,3.9455578,1.2922486,-3.0263746,1.7154417,-1.5838708,-3.2574627,-0.22955307,0.11555552,1.3677086,1.1091486,1.1921371,-1.4835095,0.39164817,1.1862727,-0.31375986,-3.2173676,0.8189463,0.49642786,-0.58844995,1.1374315,-0.32862312,-3.2473605,0.53923976,1.2260046,-1.2235518,-2.1998708
<http://FIhiOXAy.org/nYgncbCwL>,1.3177365,-0.743086,-1.7291145,-1.3502989,-2.3983023,-1.6433529,2.0723155,3.236912,-3.2245562,-3.9379647,-1.8274255,3.904062,0.7907828,2.3027368,-0.83807397,0.7421825,-0.7191726,-4.1412396,-0.0047585233,-2.1986961,1.6870104,-3.3203006,-2.31719,1.8072203,0.99560815,-3.020265,-1.3573163,1.1867635,-2.175987,1.1516633,-0.08406454,0.71329176
<http://linkedgeodata.org/ontology/layer>,2.8987045,0.92259103,-0.4684275,-1.2747433,3.0471344,-1.1807706,-0.9416158,-2.2939491,-1.0903627,-1.162916,0.019309515,-1.9108274,2.9591205,-1.1582996,2.0617318,-2.6935856,-2.2527225,1.6953301,-1.8858916,1.4887903,1.1439395,3.9096994,3.02416,0.7889804,0.88772124,-2.1068823,1.2503847,1.2788441,3.8045115,0.69518816,-1.5820777,-0.94820476
<http://qUpRHEJhQmJsrPyzXP.org/XRoIQmFMd>,0.97937006,0.5987554,1.270225,1.1763917,-2.4693165,-0.6963718,-2.1698248,-1.1726577,-3.618958,-1.1594893,-1.7186927,0.4417586,0.88447684,0.1684586,1.479595,0.43990743,0.47287217,2.5593016,3.0832262,-1.8212835,-0.87988275,1.5815016,0.02062643,1.7788137,-0.53943264,-1.2396334,0.9943159,-0.95316154,-2.7520466,0.14439702,1.2481852,2.4667237
<http://www.w3.org/2004/02/skos/core#altLabel>,-0.71905607,-1.505892,1.3710222,0.4175799,-0.007827152,-1.0491229,-3.8817194,1.6587166,4.921581,-1.2295392,1.7075465,2.1947494,-0.5510959,0.015332737,-1.5240595,1.5193367,-2.3192332,-2.407037,-2.8180714,-0.6912007,1.8538343,0.86691904,1.9746091,-2.3511643,2.0393534,-2.192056,-1.5904225,2.0493612,0.4915249,-0.52652526,2.1882346,0.6172253
<http://JbLgQmZqDJYDdFMad.org/CYS>,0.70835304,1.4696627,-2.1566463,-1.0718149,1.4624352,0.28151873,0.12568393,-0.2020357,0.62440217,2.0204675,-2.6073148,1.1436604,-1.2600162,2.2448502,1.4135729,1.2210212,-2.5433886,-1.5565172,0.503199,-0.86178976,-2.0268362,-0.867093,-1.5818616,-2.0923486,1.8838742,-0.062289763,-0.8438928,-0.55231273,3.3959253,-0.67764115,1.962981,-0.14357057
<http://JaqBFDqZovu.org/X>,2.4382033,-1.7230855,1.8043864,-1.6318595,-2.7608888,-1.5257493,3.1591876,-1.7520936,-0.5405093,-1.6068808,0.27065492,0.41005588,1.5264947,-1.2189413,-1.8326916,-1.0634212,2.09177,1.5688024,-0.65123945,0.353748,2.0132072,-1.4228915,-0.79319674,2.1537807,-0.6384408,-1.9564538,0.3039095,-0.6315143,0.8913919,-0.5996448,-3.1179185,-0.7250873
<http://.org/Q>,0.21267878,1.9031925,-0.87528133,2.8723683,1.5236409,1.0387384,0.8575575,-0.3630398,0.094828516,2.793724,2.2094615,0.6122442,-0.24540116,0.8906193,0.7699641,-0.5440542,1.6658069,-1.8890898,3.9596646,-0.75558954,1.4474467,1.596226,-1.1478193,2.2215765,-2.1857052,-0.48952207,0.6449961,1.8916565,0.9820177,1.0013784,0.6887068,-0.6157311
<http://Fv.org/ARfLaxGcHGIzbF>,-0.21508262,0.314629,-1.0940323,0.5559832,0.02249032,0.7460006,-0.41951218,-1.4542263,0.96566224,-1.7608267,-0.30620867,0.50288105,-0.9140035,2.9538016,2.25626,0.33068818,0.56819516,1.4497466,2.1650755,-0.67460454,-0.61069816,-0.6257025,-1.0835966,-0.13307355,3.1757274,-2.0193584,2.5519679,3.000364,1.7212752,-1.0749049,1.0750997,0.7332088
<http://fzdGNiiFfiMGopSRKA.org/AUy>,0.9627174,0.24637626,-0.8272377,-1.1772109,3.4616735,2.7504113,-1.0382191,0.4994657,1.3932482,-1.6119118,-2.4987955,-0.69348294,-0.8470861,-2.514423,-0.8710147,0.7592095,-1.0625912,1.2330357,-0.13595608,3.7317555,-2.304806,0.55603915,-2.1801672,-0.22517729,-0.45664796,-0.2683253,-0.68020636,-2.3814995,-0.6233131,-3.0940056,-1.0026067,0.6133182
<http://yWHUyu.org/dZTFfvPrgVDEYmcsH>,-1.5904121,3.1329696,-2.723116,0.9936002,1.6202717,0.6330014,-0.6147994,-2.0169864,-0.14494075,0.6618903,-1.4026343,1.8493637,-2.1290576,-0.13763726,-0.4851893,1.2365127,0.2749098,-1.515077,0.595587,0.106159076,1.4662278,1.5780177,2.5523193,1.4975259,0.09241726,-2.1481047,-1.9340422,-1.8288229,-1.7308161,-1.06499,-0.36448455,-3.8702774
<http://FfHQbvjFH.org/EymugJXqPjtRxNmm>,1.7773193,-2.774296,-0.9160459,1.4679852,0.91662705,-2.692739,-0.22747856,-1.025286,2.5239,2.797887,-4.2067814,0.24749452,3.257967,0.3195355,1.9386288,-1.463405,-2.4842093,0.13952832,-1.7311991,-1.4174103,1.5991187,1.409254,1.1342769,2.2337615,-0.585885,0.96867424,2.0042446,-1.5189835,-2.6000662,-0.085952975,-0.42330438,2.7000597
<http://mzrOa.org/OcdVGh>,1.6768037,-1.9733577,-2.435633,-2.0060136,1.7010554,3.0053313,-0.79506403,-0.47410247,1.1811295,1.5817136,-0.13872693,2.095315,3.0588338,4.046945,-0.7420413,0.029018179,2.154249,0.9028383,1.3427986,-0.24467157,2.4143066,-1.866425,-1.144928,0.570106,-1.4985299,2.109859,-0.9828826,-1.9007733,0.0022888451,0.52686596,0.75837475,-2.503643
<http://bQNowDvYHiv.org/bbPtMHtE>,-3.2157643,1.165697,-0.14461552,-3.7682965,-0.3094521,-0.49578068,-0.78105557,-1.2403542,1.8790734,0.57441074,-0.5768031,-4.301,-0.24200948,0.40312895,2.0886376,-2.5172393,1.9570466,0.8687503,-2.2286193,-2.8639808,2.4104521,2.3358953,0.48510796,-2.2563758,-2.1633778,-1.2180882,-4.516731,0.046218418,0.15660593,3.1239586,1.6719942,-1.1925347
<http://cQBimfeXg.org/Sy>,1.5456283,0.23516361,-0.58690655,0.45532852,2.131752,2.2881954,1.5548902,-2.86123,1.2809616,0.49599913,0.25160968,1.3438332,0.20909692,0.36996272,1.362034,2.4093022,-1.0795336,-0.4473507,1.372709,-1.935893,0.39618427,-0.5946406,0.62979037,-2.5963488,1.1297735,-0.8184173,-0.42465556,-1.8493885,-1.0418607,0.958175,-0.7376872,-0.95518565
<http://mQuwC.org/nkiaULoKnqa>,1.8258777,0.8140089,-0.43060836,-0.26330882,-0.31126863,0.8779978,0.22982304,1.2073936,-1.7231243,-0.8568617,2.467521,-2.4992955,-0.1311278,1.1399112,-1.3880504,-0.49668264,2.1732705,0.78016555,-3.1969485,0.9301105,0.58826166,-1.8123703,1.2486719,1.0105672,-1.7043155,2.6083708,-0.7093999,-0.12320356,-0.6627371,-1.795816,-0.72324574,-2.4470818
<http://GiJLSERY.org/>,-0.28479823,-1.2668974,-2.3660429,-1.9370593,1.3819488,-0.042187445,-1.8035288,-2.2112658,-1.4339961,-0.41140044,2.7665157,1.1646745,2.3907137,-1.5719622,-0.3447694,-0.25832444,-0.34980348,0.9344751,1.727534,-1.0774999,-0.15959352,3.1852098,2.8711689,-0.23440456,1.2371705,-1.9610014,0.59636563,-0.5530087,-0.99897796,-2.1427267,-0.05433514,-0.99096864
<http://dWbWYsrkAyUkRLwPi.org/WPZaYlFZiqHWH>,0.837316,-0.065777175,1.578445,-1.4467739,1.9019524,-1.4489098,-1.362912,0.6622514,-3.160314,0.92585355,1.9886512,1.2590737,-3.0797472,-0.081934795,-0.16075124,-1.9776437,0.44032338,2.300774,0.67482585,1.9394069,-1.1411767,1.7962102,-0.18542127,-2.0597432,2.3453631,-0.69327897,2.364409,0.73222804,0.49116927,1.3624127,-0.7940107,-0.7112175
<http://xYYIJEjZ.org/tLPTMJzlheEkgwWn>,1.2986642,1.4471862,3.0534399,1.2207754,-0.4283406,-0.45150533,1.3223873,4.1378326,0.09639066,-1.2316463,-2.737117,-2.2721179,-0.051489867,-1.6417204,0.2615923,-0.44810414,3.2974606,-2.574273,-2.8483741,-1.3776283,1.1992218,-0.01347277,0.49072036,1.9268317,-2.29333,-1.4783694,0.48607686,0.40429837,-2.0435324,1.0860195,1.6829342,-1.0778551
<http://fZuRXhkkSIkIldpcd.org/gLTQvzvGuxPCUvOYfzf>,-1.5345429,0.8406372,-0.04071727,-2.4815412,-0.76983976,-1.3466284,-2.0695364,0.42553607,2.3957987,1.6092832,-1.1296855,1.3859066,-0.12573433,0.6514814,1.2458419,-0.4401102,-0.769222,-2.2942173,0.17218524,0.93466145,1.3454831,-1.2017566,-1.8342575,1.1096542,1.4125446,1.0581304,-0.040392783,-1.6655316,-0.00892453,-3.0050743,-1.0388602,0.9425328
<http://MmFBHsjVaS.org/cfwrOxcZjXoftS>,1.1292368,-4.9233055,0.98601013,0.51850367,-0.45607457,-1.330189,1.2744714,-0.65513295,-1.7094796,0.092720054,-0.51977646,-1.1958447,-0.16979314,-1.217615,5.2474957,1.0165223,1.3579215,0.23864192,-0.9790931,3.3164108,-3.7798176,2.1331098,2.4516883,2.221662,-2.477541,-0.88893867,1.3062044,-2.0876658,-0.64370245,-1.1503763,2.6394448,1.5055876
<http://taY.org/JMklCk>,1.1115129,-0.045409583,-1.2481517,2.4559977,1.6475277,0.77416074,0.25190893,-1.7870203,-1.4606273,0.29554585,-0.25578162,0.7938728,-1.4602723,2.1248765,-0.10046498,0.6418608,0.5870186,-0.16441776,1.0374148,1.3037096,1.4598689,1.0574366,-0.06459783,0.40559104,-2.266175,1.0253208,2.8300595,2.7791743,-0.0694106,-1.9373304,2.743175,0.38856536
<http://UvjJAtCESaKpUW.org/QNmxomsHGQjeXD>,3.8813248,-1.7682304,0.72202563,0.49121055,1.819854,0.57444096,-1.196277,-0.8341625,-1.4283764,0.07906457,0.72376245,1.8681743,-0.13537979,0.24780482,2.787119,2.3346608,1.6778237,-2.724327,0.77869666,1.3317298,-0.011248696,0.2506668,1.4670142,0.58575696,-1.5683037,0.004554229,-1.8222227,-1.3966559,0.70710903,0.05339983,0.5141815,-0.98638797
<http://SPiifPlhRnjHYBZDkCN.org/>,-0.538501,0.6453204,-1.3776716,1.7418431,-1.5692376,2.5484455,-1.0574131,-0.79316014,0.9942013,-1.5401157,1.9816831,-1.2481844,0.5991806,3.0997174,0.8381113,2.362875,0.17163508,-2.6282125,1.6484582,-0.07330696,0.42045802,-2.0797052,1.0188062,0.47225747,0.73343325,0.8074555,2.1579869,0.9895568,-1.6780449,-1.088939,-1.376627,-0.09206582
<http://Eyg.org/>,-3.8482015,-2.6634264,-0.061973114,0.40118152,3.1242006,1.8708715,1.6758481,-2.3921173,-1.9617256,1.0758553,3.5052695,-1.7870768,1.3420128,0.145857,-0.1727414,-1.3696967,0.97695994,-2.7482321,0.92891216,-1.0145229,3.1044767,0.08460638,2.399358,-1.9481444,-0.6411683,-0.3745909,-1.0795873,2.3852603,-0.97811973,-1.5337491,-1.8300692,2.9829178
<http://idDJnEmRxLaLbpP.org/tYSPwNPoguV>,-0.05612638,-2.6466827,0.7939504,-0.16869137,2.565635,-2.169841,0.9281996,-2.5875342,-0.04461745,-1.3088337,-2.2838807,1.2103181,0.27937388,0.8559672,0.50538635,1.4527075,1.7697101,-2.1213365,-1.1113889,-1.7968372,0.32050145,1.4390246,0.7249224,-0.28685385,1.1592019,-0.99327517,-1.754113,0.7023541,3.3315675,1.5645295,0.8094741,-0.3229098
<http://awM.org/grupgFlkhyrHNxln>,-1.9462675,1.2388766,-1.7277403,-2.1170785,-2.1887028,-1.3962992,-0.354385,2.49537,-1.017147,-1.3416507,-1.5365533,0.3767162,-1.1685061,-0.97980773,-0.7050275,0.12822829,-1.0297078,-0.9421534,0.68521184,-0.24005868,2.365263,0.53722334,-1.4669343,0.087203324,2.5720143,-2.8449228,-0.05249288,0.36905602,0.23937692,1.651623,0.71732396,2.2118604
<http://.org/LAUDIA>,0.96577907,-2.1157591,1.6180186,2.9696186,-1.2762592,-2.4607596,-0.5332654,-0.007838438,-0.9990517,1.4988925,0.19096547,3.5737028,-0.40743786,-0.87478757,0.21681553,-0.98706406,-3.378074,-0.82427675,-2.2328806,0.69606596,-2.4592257,-1.8442004,3.3487682,5.1160483,0.16963351,0.72084755,-1.9288217,-2.6367338,-1.1658169,3.0401855,-1.9988339,0.95769405
<http://GXKJIlLhJ.org/lDXBOkVvJ>,-0.68726015,-2.9773533,-2.623049,0.84404784,-2.112612,-1.6523868,-2.9486947,1.6278542,0.45596,-0.96561456,2.177618,0.9717927,-1.6135421,0.098978214,2.9014473,-0.47556618,-0.3270201,-1.7654299,-2.6665933,-4.861621,-1.1243263,-2.1732426,1.6935794,1.7359148,-3.3038275,3.0458956,0.85103935,-1.9801333,-3.216903,0.7716469,1.1533972,-1.0248688
<http://linkedgeodata.org/ontology/bunker_type>,1.702109,3.371537,1.6781024,0.3948718,-1.3404975,-1.3369914,-0.013513649,-2.08563,-2.866156,-0.20793721,0.47935855,-1.7326324,-3.8604126,-0.45267284,5.0255923,5.74231,4.1460924,0.35684815,-1.1057364,-3.6503723,-1.1066978,-3.0492342,3.7520273,3.803465,-2.9461281,1.2223992,-2.3050003,3.46866,1.4130648,-2.03752,-2.177001,-1.6033579
<http://NhPCFm.org/sCujrTjvcnKRkMJxS>,1.091135,-0.029153103,0.28481543,1.2064093,-0.4871605,1.095591,-0.11740702,1.3745809,1.0671015,1.2244165,1.2475752,1.9171573,0.1450659,3.4709678,-0.18472102,-1.93201,0.07926115,-1.0060204,-1.2804347,-1.9677783,-1.1379302,1.6749618,-0.1278157,-0.37303412,-1.1937709,-2.127719,-1.8525248,-1.9680508,0.041818194,0.4817759,-1.8896672,-1.0400409
<http://BTCg.org/lIoHgfOp>,2.470003,-1.6715596,-0.6342604,0.39356023,-0.17784245,-1.4399884,1.5746659,-0.4385466,3.381765,-0.023839697,-1.251086,2.0150273,-1.0279896,-3.2216272,-2.7078373,-0.11412843,0.64284056,-1.2853403,-0.25923964,1.3465892,0.3887916,0.25870976,2.5621872,-1.4487102,1.6831309,1.213226,-0.24660307,2.3283722,2.262564,1.2944365,-4.3132205,-0.5075382
<http://MGuRJCNeT.org/VuTPeKPpxQTpIGRiASu>,0.4308501,1.1853713,1.9814165,-0.22499758,0.9095264,0.8148687,-1.9222244,0.22047019,-0.017811304,-1.5400976,1.3150716,1.8005574,2.564327,0.37274536,0.5708774,0.028699482,-1.4657853,0.383675,-2.1550343,2.194189,-1.8243307,1.8734175,1.7481838,0.99669236,0.49495152,1.5356537,-2.9747524,0.2725572,1.1370276,-2.314961,1.7938116,-1.1444893
<http://hTygiASAhWIXE.org/KzV>,1.7580754,-0.077339604,-2.1766481,-0.6208432,1.123168,2.2041817,0.17695802,2.1561759,0.2696634,0.34782252,-0.9509206,0.2808781,-2.6935694,-0.6422078,0.73115003,-0.8796279,0.8176505,2.7695405,3.1153324,0.5896423,1.1477147,-0.641909,0.5157116,-1.7488084,-0.77004963,-1.0756156,0.7452165,0.7198696,-1.9796406,-0.8530027,-2.4442673,2.2682304
<http://Bhtmpl.org/zXkgtaICBSAcmtkbwkp>,0.518255,-1.0890968,0.72182006,0.6221225,0.55852324,0.12491528,0.6142477,-1.2718258,-1.3367112,0.15132149,2.57909,-0.13985574,2.3534977,-0.8412692,-0.110681415,3.64186,1.6651254,0.7973017,2.2317452,0.36505342,2.7028394,-2.8719602,-0.12710354,-0.7763373,-0.16643232,-0.28576526,0.38136697,0.25880498,1.6438943,-2.59588,-2.3703134,2.4266248
<http://qBypEqTdd.org/MhhxKeGVHgPkfl>,-1.3600746,-1.348724,-0.6609454,2.2011662,-1.3752784,0.5002596,0.7010475,-0.3244371,-0.71075314,-1.4044058,-1.8915825,1.3665631,-0.17807376,4.465579,2.273307,-2.8183744,-2.1556284,-3.0486677,0.2626229,-1.5063089,2.1203315,1.0290821,-2.596063,-0.05227923,-1.81285,2.7613218,1.6260744,-0.9895395,-0.5192646,1.4582685,1.0423046,-0.29675287
<http://hi.org/ejkyeFSUxKLc>,0.13874245,-3.2171965,2.6306446,0.9351867,-1.6222986,0.3284923,-0.252596,0.23569451,-0.9344981,-0.33113873,0.069540195,1.6265205,-1.6086359,-0.6521775,0.34326428,-1.5631759,-1.3757968,2.6488533,1.7135532,-2.471863,-0.5289205,0.38599634,0.34732634,2.0835416,0.05834894,-2.2933536,-0.67468154,0.3361297,0.4457605,-0.5344867,2.3274422,0.37858838
<http://.org/alSKhiuNIIFmXGh>,-1.4553864,-1.7885855,-0.57822424,2.6237676,-0.78608024,0.5344796,1.3965489,-2.8972602,2.399013,0.74197185,0.3305011,-0.4366659,1.9318587,-1.6556816,-0.90647906,-1.0081122,-2.585614,2.066134,0.94752795,1.2446196,-3.0603988,2.6545157,0.4510969,-0.24278106,2.432672,-1.2783823,-1.2801858,-0.85221726,2.696963,1.0755938,-2.256989,-0.8412795
<http://fkEluiNCAwrivyMy.org/>,0.26216626,-2.7699356,-2.3891203,0.074126,0.2025279,-0.30146867,1.289854,0.55379397,1.5917265,1.1402938,0.02626602,0.80862886,-0.7894379,0.79596555,-0.32916147,1.1249384,0.7690289,-0.46506995,-2.8673277,-0.07208207,0.874472,0.9897258,1.006956,1.7789594,1.8133394,-3.2345111,-2.0869677,-0.40138343,-0.36191225,2.5580728,-1.5199565,-3.787786
<http://zVaDWekSfJgvMXRG.org/jLvsyfuXMsw>,-1.5058147,2.8385768,3.9370244,0.9945943,-4.315346,0.04623166,-0.9223693,-1.3332473,2.0538874,2.8401928,-1.4225134,2.1820772,0.6754092,3.4838037,3.8714979,2.6600645,-4.1405926,-0.66613543,0.3174439,0.28855467,-2.3847709,-1.4136131,-2.2788382,-2.3425765,-1.7416186,3.6661627,2.1212242,0.56768143,3.3758478,0.16177203,2.5661914,0.4919742
<http://ltHZQMNQ.org/zSSV>,-0.31164098,-0.96035695,-0.42950562,0.43026647,0.25879514,0.76133233,-0.5767203,-0.6637808,0.41272742,-0.5054521,2.5099015,-1.0077934,-1.0489104,0.005066774,1.7004384,2.297407,-1.8449153,-1.6993095,-2.4644322,2.9038923,-0.67362183,0.030222451,-2.9284387,-1.3594003,0.67151004,1.7159382,1.0593241,4.3099966,-0.21164317,1.3281741,-2.9130256,0.089022554
<http://P.org/xRUmHKbKuFkgENQzw>,-1.0090802,-0.45564958,1.9741181,-1.2555346,2.2233365,-2.9241447,1.0902771,-0.5441483,-1.2690206,-0.07829828,2.3974478,0.5063243,1.501761,1.8172417,-0.2473932,-1.6081101,0.3555114,0.036023676,-0.5353146,-2.0341308,-0.3592986,-1.8830242,-1.4558655,0.270987,1.8708347,0.30325592,-0.84282464,1.7002853,-1.1067872,-1.9441111,1.0345948,1.2502155
<http://XWqeQcUEAVVnjo.org/EM>,3.3878741,0.44727284,-1.4070936,-0.033008616,-2.3750708,0.96292835,2.5704954,-1.7457471,-3.4089422,-0.30076414,-0.86789197,1.6928743,2.7339911,-0.2481174,-0.23520774,-0.44932392,-1.4777557,-0.8024173,0.8253011,-1.54819,0.638651,1.3954637,-1.8082105,0.8372931,-0.9709202,-2.1962416,-2.1284451,0.06396947,-0.9184228,1.7351665,0.1707409,1.0886294
<http://hdNdXVz.org/YziYNaLBlUNAuWdsJYh>,-0.6585407,0.056995586,-0.34726253,3.0321581,0.15879962,0.6379887,1.6160465,-0.7458582,0.0855566,0.38436332,-0.25853974,-1.1773127,0.7775031,-0.68444973,1.3178664,-0.6129605,0.45264,1.6260787,-0.9111715,-1.9680798,0.6632803,-1.0051274,-1.5620059,-1.9286917,-1.5852475,-0.96984565,-1.183449,-0.24119431,0.18938236,0.5136853,3.4230826,-1.2289001
<http://mbUplKlwhn.org/>,2.2165723,-1.707668,1.1831908,-0.3452237,-0.50528014,-0.45135665,-0.18873896,0.19728257,0.0663937,0.3552185,-1.3278427,1.3457457,-2.1921296,2.879065,2.3867326,1.4645424,-2.7762542,-2.841645,-0.9685663,-1.0341942,0.70048356,-1.5115124,-0.28431466,-1.9179795,0.90060025,-2.2202914,0.43157804,-0.5667961,0.060795903,-0.5243947,0.24964437,2.4646335
<http://uwhaL.org/OvwbmhVNRNniIFO>,1.8730754,0.89593065,2.8716283,1.1115472,-1.8529006,0.49934426,-1.010036,2.432453,-0.71238357,-0.04237956,-0.02046826,-1.6673926,-1.0712001,0.51991117,0.33649957,-0.18698202,1.0509667,1.384094,2.4933171,1.8213308,1.0754107,0.34188226,-1.4226605,0.1677344,0.39091977,0.31831652,1.0384293,-1.8837073,-0.20088482,-0.07583013,1.5505899,-1.940897
<http://fnoNzonRbhLiJtWO.org/vXDyiD>,2.6791983,0.995815,0.6646164,-0.50129354,4.3837767,-0.59092027,0.58834124,-1.2796818,-1.5758241,-0.02684786,-1.0164186,1.4776595,2.2944353,-2.0220492,2.983418,0.36223912,1.1358724,1.1515466,-0.64748055,-0.21593356,-3.1386144,0.77764946,0.36146164,-2.3512754,-1.1128235,-2.3216813,-2.715118,2.4975495,-2.4513202,1.0864614,-0.7951026,-0.6917635
<http://QppiW.org/PPtwuhlcCIuN>,-0.63600737,0.39761075,0.30180228,-1.1872793,-1.2537029,-0.13197857,-2.1513693,0.68756014,1.2836722,2.4122667,2.1125019,0.06975473,-0.9143916,1.5408252,1.8319284,1.1366321,1.6602226,0.5148719,-0.568855,1.0567437,-0.34867945,2.8092418,-0.04308041,-2.71484,1.2253119,0.2196595,-1.10351,1.8040127,0.608416,0.7724532,-2.271531,-1.7393802
<http://TpJTZQwBo.org/zFaNlivWSxUs>,0.31370544,-0.8430554,0.82977444,-2.18774,2.5237136,1.6111166,-1.7920308,1.8874183,-0.2035991,0.42161286,3.5436723,-1.5412979,0.3173424,1.8929372,-0.3188678,0.43469256,2.7190304,-1.0947647,-0.26460055,-1.6510104,-2.3124151,-0.351533,0.39790964,-0.3858011,1.6419295,-0.40150544,-2.7459202,-1.1133693,0.55912834,-0.47088796,-0.29966065,2.2009773
<http://WZarCnoJQkSyi.org/ZuOOCT>,0.28956342,-0.2606626,0.70198035,0.7558111,-0.03146178,2.2158074,0.22388123,2.4089813,-1.6972857,-1.3804325,-2.1738126,-1.1723968,-0.808705,-0.5873904,2.54473,0.46569794,0.5176231,-2.554874,-1.9379914,0.38615268,-0.46533868,-0.91937494,2.6466897,-1.5629933,2.360417,-1.4244325,2.7161365,0.6251279,-1.5961479,-1.2505313,3.738988,0.7823475
<http://lTudM.org/XKWe>,-1.6478533,3.573915,-4.2302356,2.668164,1.0788374,-0.44489896,0.9674831,0.19437507,-0.68845654,0.57222176,-1.0869071,-0.3885137,-0.94356287,1.2130121,-2.6565428,3.218543,-2.054801,-3.7313528,-0.10983975,1.9051666,1.3485013,-0.501974,0.8240709,-1.2730641,-1.4086443,-2.6057065,2.3807042,-0.81253755,-0.20445108,-0.41746545,-1.8141088,1.4565766
<http://mKsbzdR.org/olAXjbk>,0.23022276,-1.2997882,2.8856018,-1.7275542,1.6219597,2.5327506,0.17321388,-1.7519399,-1.1760981,-1.9290459,-1.4259226,4.1875324,0.004867995,-2.3955562,1.0363842,3.0468702,0.32574782,1.3830533,-0.57056266,1.0364034,1.7542591,1.0391577,2.2654452,-0.43741965,1.6734158,2.4584336,-1.0582123,-2.5013087,0.011246152,-0.8012015,1.8624849,4.486622
<http://jHTDWLpjAAdRStSXsTD.org/LIKmQTwSVepRiHc>,-2.92136,-1.4168775,1.3167747,0.78072,1.3272218,2.3596735,0.5586651,-0.28275588,1.4326333,0.36826503,0.8938629,0.13587134,-0.048404455,3.0412207,0.21764334,0.4934532,-1.5797429,-1.266068,-0.3658673,-1.4087507,0.72572964,0.4975047,0.6033677,0.45004278,0.012416141,-3.3447986,-0.98152626,1.5343441,0.21104522,0.43896613,1.4725422,-0.19587064
<http://.org/eugrN>,-0.059469778,-0.46716017,-1.5897614,0.9289511,1.0797405,0.7476859,2.49307,-1.8149006,3.7155678,1.499839,1.8235656,-1.0773064,-0.94029665,-0.83886766,0.69202167,-1.4386115,1.6359949,2.2579212,0.39377165,-0.63418424,0.661465,0.732526,-0.5850832,0.96367764,-0.17562206,1.6837593,-1.2160698,-0.14503141,0.5196251,3.7478735,1.9384559,-2.4505243
<http://SVz.org/jKVlqfmtxtW>,0.9487221,-1.7548815,1.7612258,1.0396459,-0.9142998,1.2749852,-0.1540292,-0.8291155,3.1242235,1.7900338,0.93191314,1.477289,-1.8614198,0.6392872,-0.08449198,1.3291649,0.24516693,-0.04664692,-0.2808977,1.0487466,-0.31640837,-0.5073888,-1.5099657,-1.0720996,-1.2707325,-1.5684797,-0.4043639,0.6877556,2.2955718,-1.6907507,1.8101462,-1.2908182
<http://chRRVRHRM.org/PXgzSnCnzKPHdosTKjy>,0.3965004,-1.9180391,1.3556466,0.38035253,0.12307401,2.6327832,-0.6523048,-0.5032773,-0.14097446,-1.5561465,-1.1875167,1.6054343,1.2859341,3.8376186,-0.54510444,-3.4560483,1.1488771,2.4397311,-1.7762678,-0.804712,0.14008544,-2.5271232,2.787411,-0.102313116,4.437427,-2.4691255,-2.3247123,-0.21824698,-0.27582037,0.43138823,1.7770187,-1.4073408
<http://uVnuddpFyZfsbqhn.org/quouMdfK>,0.86798614,-2.2484949,-0.6679232,-0.3771179,-1.5475752,-1.6741734,1.6379858,-2.76716,0.026191227,2.9782238,2.8641713,2.9835553,2.9753575,0.5015122,1.9170132,-1.5131391,1.0649575,2.3695862,-1.4568664,-1.1223669,-1.0853142,3.179069,-1.1404872,1.8800511,-2.1670818,-1.0896348,-3.230856,1.2175184,3.3733747,0.098881915,0.25394166,-2.3921287
<http://mWt.org/>,1.3874679,0.9306,0.9903688,-0.063261844,2.4043865,-2.221618,0.55043155,-2.3281744,2.010008,1.3294103,2.274724,-2.3825943,-2.1831384,2.0439367,-0.05414761,-1.0423692,-2.0590985,0.2056861,-2.1522086,3.5079427,-0.65441394,2.7281733,-0.46489882,2.1588387,2.188967,0.4258026,0.23137496,2.1721423,0.024317965,-0.32359415,0.62502116,-2.2862365
<http://UHyXxU.org/zayBYhoIY>,2.6141858,-1.2060875,-0.29005328,3.0139573,-0.3663384,0.03690186,-0.88094217,0.64585817,-3.2647545,-0.053416062,-2.4138117,2.1368742,0.5207262,0.06628291,1.2644389,2.4461641,-1.7325724,1.1802435,-0.32789683,-1.4292973,1.3393638,0.5181047,1.1538683,1.2127953,3.9175026,0.37079433,-0.36016628,-2.1320317,-1.1107274,3.1252122,-0.37863308,-3.6712031
<http://fReDorvUNZZbFsUZLXO.org/snjwaIe>,1.1286086,1.5246675,-0.61180985,0.42269415,-0.49079815,1.6056733,0.5571238,0.97203773,-0.1987519,2.483876,-1.3347905,1.1133255,-1.2647724,1.1027557,2.4671586,-0.20936939,1.0579945,-2.4464498,-0.34079665,-2.6612685,-1.1305486,0.07630513,-0.43025854,0.6936713,0.47803682,0.6895023,-2.9347327,-0.043225512,1.9038987,0.19304146,-2.1495583,-2.0214157
<http://tNiHBFJZQJPE.org/oBFyiliRVjgqlv>,-0.26929516,2.0857508,-3.1353393,0.34781244,-0.7305729,-1.9880669,0.87347096,0.76372564,-0.30717865,0.84339434,0.73301655,-0.05811501,0.2151903,1.778974,-2.0900333,-1.3029183,-0.9064942,-1.7222676,-0.51725465,-3.9047399,1.0116749,-0.4537108,-0.20962389,-1.9146622,-1.7718645,-1.5312037,-0.70811385,-0.7745129,-1.2030542,-2.5713458,-0.6078401,0.6759594
<http://zaWeSuDqr.org/eAnheQJiaWQPglOkGg>,-4.3745623,-4.496098,-3.2374735,0.35497713,1.5262324,-2.4311414,2.1982272,-0.56055987,0.1303686,1.3042567,-0.18094431,-1.8338223,-1.332197,-1.4964948,2.9816086,0.44273552,-0.74862826,-0.916495,2.055836,-0.37103665,-1.3675804,-0.063144825,0.6578139,-1.0542063,-0.25243863,-0.5160045,-1.4481826,-0.7964945,2.6230183,-2.4632354,1.8962258,4.273064
<http://JmcrtwYgX.org/>,2.1032524,-1.4120111,-0.5359391,1.003577,-0.35705465,0.41010755,0.41683054,2.035639,-1.8080821,-0.18753317,0.78127944,-0.9936809,-0.16889808,-1.5062245,-2.090194,1.6128086,-0.99185365,2.0620139,0.70793766,0.50734186,0.89867914,2.6209388,0.23583284,-1.9209678,0.8299441,-1.0667083,-1.8160958,1.868132,-2.0333862,-0.7484843,-2.4481459,0.07577332
<http://ojnmhrFJaAgLWTCJx.org/GzUbYfnOrByF>,2.6875668,0.9591859,-0.1371813,-1.2157928,0.9387388,-0.6491256,0.6451648,-0.43370232,1.2084168,-0.46633583,-1.1783969,-1.4492326,0.56253237,-1.0737188,-0.37177047,-1.4503503,-0.49388632,0.6806774,-1.0166807,0.28112003,2.6762466,-0.042516142,1.9221901,2.90306,-0.4616156,-2.208596,0.22670119,-2.3549118,-2.1570022,-0.18876639,1.6604991,-0.68986213
<http://llkdqAqRw.org/Sp>,-0.22774757,1.985447,2.0741458,2.579412,-0.09123072,-3.8091094,-1.6095481,-1.5650793,0.22358136,-0.9199766,-0.41850883,2.5856347,0.50200397,1.1598237,1.1481717,0.44043255,-2.8040764,0.5582603,1.3769399,0.35511282,-0.6715394,1.3304304,-1.3590946,1.4640126,2.8247743,0.30931017,1.1355535,0.453033,2.6424,-0.89042526,0.6958167,0.064613715
<http://KUMPsqIntFf.org/WqkbUJ>,4.902987,-2.7514632,1.3806698,-1.9322288,-1.0439692,-3.4563828,2.6420338,-2.3635786,1.3257483,2.2472656,-0.91796595,0.4971136,-0.6148694,-0.6871422,1.2008858,-1.8764904,-0.5438791,1.0596132,-1.1390724,-2.5848765,-0.92946315,2.3590798,0.5487798,3.3621912,2.5708394,2.0102534,-1.6525143,1.0102268,1.308461,1.14139,0.29279983,2.3919933
<http://PImmuoH.org/Jd>,-0.92798644,0.55068195,2.6693962,0.45628023,-1.4168665,-0.15678109,-1.9922187,-0.5573722,0.3583073,1.7121222,-2.4540317,0.49301845,-1.5593791,-0.81638426,0.7845319,-2.5635538,0.36959863,-1.5800064,-0.33500022,0.25381333,2.3404598,-2.1224058,-0.97880554,4.9032493,-3.608413,-0.86972314,-3.882711,-0.62855023,2.0009375,-1.7527214,-0.93238723,-1.6398523
<http://QaXGwFErDzm.org/bBbOpDAe>,-2.3407059,-1.2029488,0.9521086,-0.96996284,-1.6365235,-2.2490675,0.7953161,-2.3301659,-0.9213055,-1.6041495,2.4614108,-1.0168974,-2.726033,3.262553,1.2005075,1.0971138,-1.5794529,-3.1966252,4.2435193,1.2107795,-3.4351263,3.6149821,1.2741818,1.0919863,3.1983526,2.2040734,-2.5662434,1.6331486,1.3002287,-0.6550724,-3.1226726,-0.33821368
<http://jHh.org/OmFMzPTBnVCztRSw>,2.7483852,1.1841033,-3.0058668,0.18649383,1.348729,-0.8694234,-1.7956309,-2.9531338,-1.7786095,1.0186375,-0.87187105,-2.3648849,-3.8954585,2.2221873,-1.4689139,-0.009659271,0.2605431,0.7424921,-1.7357368,1.6672521,-1.6403613,1.3045444,-0.35540402,-0.9704424,-1.1108245,0.8324849,-1.0987982,0.62222505,2.1853757,2.1979327,-1.466409,0.009408749
<http://QGkCRWqzcIBQV.org/blHRev>,-0.24174656,-0.46846232,1.4212548,-1.9729018,-0.5767037,-3.6986036,-3.088834,1.5033714,0.041990373,0.3809144,2.4984183,2.4026933,1.1189653,-0.3250423,0.04843493,-0.34160757,2.5759468,0.4297464,0.7574034,-0.667047,0.08801749,1.4998101,1.3120528,2.5393388,1.0374016,-0.74038976,-0.69092846,0.33466136,-0.75428,-1.9145702,-1.2105647,-0.8445809
<http://RrvHtZFy.org/QcWLWrHHWLX>,-1.9351397,-0.57578605,0.6331159,3.7249124,0.057893127,-0.95039374,-0.54594624,1.1941524,0.7089324,2.3328667,-0.5268706,0.14172743,-0.93251944,-1.6815801,-1.6811714,-3.0976481,-1.6553946,0.25024965,-0.06692761,-0.33192083,0.011318131,3.2945075,-0.12104129,1.7545205,3.02743,1.507794,-0.0822399,-0.7416503,-0.31829444,-2.443056,0.52477306,0.8711554
<http://aFChZz.org/zta>,2.1679668,0.07843084,0.46995485,-0.9385167,1.1479868,1.8358264,2.7770076,1.1424395,1.8925176,-1.7980361,-0.08552714,-0.1431805,-0.5335145,1.6242778,3.3298993,0.6616552,-0.47549775,-0.49545065,2.3541691,0.33311757,-1.9369448,0.60230976,2.32261,0.15395604,0.39721206,-1.9870231,1.1896919,0.32080185,0.6748989,0.5232708,-2.2117655,-0.38615826
<http://q.org/okyMWseAhXIv>,-0.6312024,-0.2099051,-1.3103737,2.6346195,1.6912105,-1.8510777,0.16716611,1.7247024,1.2649357,0.7997038,0.7021399,0.2138929,-0.71204746,1.7254727,0.9687257,3.830039,0.5760935,1.6810293,-0.588099,-0.49256253,0.32317623,-1.5951624,3.1833775,0.35755917,0.75350785,0.72717386,1.4281456,-0.55139333,0.01873959,4.6677856,-2.3752718,0.071376346
<http://nwbIgMm.org/O>,3.4003773,-1.0670173,-1.7315848,1.5618511,0.42685723,2.3973277,0.119394764,-0.5420739,2.174638,-0.9614474,-1.5730461,1.6928898,1.0297637,-0.23835757,1.117053,1.9276353,-0.22229996,-2.884411,2.2969944,1.1930051,1.5389926,3.3163948,1.933952,-0.45144615,0.76807004,-1.9531204,-0.74347854,-1.7474959,1.6332194,-2.6818867,-0.74610084,1.1126145
<http://GECDDCbszZTfKoFKqET.org/PEAesEfoEVEmzVoFnU>,1.1820515,-0.17765245,-0.0031302308,-1.8704724,0.8855788,2.480775,-1.3993803,1.5717086,-1.7247124,2.0348105,-0.68324924,1.7607384,-2.4752915,-0.2108207,0.23674285,-0.83614767,-0.88756984,1.4580725,1.3609651,-0.59743494,0.4381324,-0.12262761,0.8181639,0.4230623,1.0354397,0.5464462,-2.0243824,-0.739086,-1.5801276,-0.9439265,-0.73227024,-1.0262272
<http://pArUphN.org/iw>,2.3982563,-1.2410086,2.4922638,0.114144444,-1.0625448,2.3311417,0.33490378,-1.4624581,-0.9693497,-2.8421936,-1.9147124,0.15029828,1.0874336,-1.9890115,0.08092837,-0.44032335,1.9409221,0.7831125,-0.056495093,0.71191263,-1.16711,1.2932025,-0.090229206,2.0776496,-0.22515063,0.90661436,1.1518397,0.15547791,0.4264402,0.6450742,1.0960472,-0.10764457
<http://L.org/bkhQyEGM>,-0.04761979,-3.4752915,2.5612605,3.5162456,2.9427197,1.710172,-4.1931744,3.151945,-3.9921792,3.4391491,-0.9531236,4.3147655,-1.1563578,-0.24819496,2.8992548,-1.0197606,-1.2758111,0.65049404,2.2203462,-2.5460026,-1.5343082,-1.9083353,-2.0023506,-1.3030277,3.2336392,-0.8755836,3.4764752,-3.5338967,1.6018349,3.8337708,-2.5798016,-2.003706
<http://WhhVQdbodZY.org/xXNyricamD>,-2.0164573,-0.99383056,0.97572774,-3.0543256,-1.0473967,2.8198912,-1.4883671,1.376165,0.14662099,-1.7935444,-0.6440082,0.3116442,-1.680645,1.9062457,0.53465617,-3.1766698,-1.9677979,-0.89523935,0.25259247,-3.2072482,1.0106765,-3.3136928,-3.2248588,-0.03685597,1.1360309,1.772982,-2.2573256,-2.2016902,-0.44274923,-0.36813188,-0.07190441,3.864137
<http://mzAFpGisk.org/OmGZeB>,2.585642,0.95930517,-3.076434,-0.89791805,1.9307377,-2.2850544,-1.1883136,1.9277177,0.7741834,0.05721675,1.8034654,-1.4265332,1.2973759,-0.05473546,-3.418383,-1.5774295,1.5357311,-2.0178013,-1.7569879,-1.5452682,3.2362325,1.0104446,-3.967461,2.184098,3.4778285,0.29092124,2.9826612,-0.5763301,-0.21041146,0.5506265,1.7106534,0.6115393
<http://xHcXjeHfxk.org/gYEgi>,4.264493,2.0085692,-1.3569285,-1.4794377,0.114289455,-2.8685858,1.0193006,0.8177807,3.4505408,-2.8015652,0.26463804,1.5482329,-2.6713083,-1.1583341,1.6343678,2.3529682,2.0889895,-2.3749492,1.4412793,3.2389774,0.96333027,-2.080436,-2.0599136,-2.3830905,-0.09936127,-4.6932607,-0.39207634,-0.23492667,-1.6733142,1.6553521,-1.4111819,1.4798437
<http://linkedgeodata.org/ontology/ruins>,0.87192404,1.845867,-3.168234,-1.0809054,-4.756141,1.7533492,-5.477638,2.9792833,-1.7003593,-0.7586465,-1.1959301,0.8636329,1.2481291,0.7396176,6.0792747,-0.35134798,2.4632256,2.9115348,-0.23039971,2.0049124,4.842457,2.62631,-0.406715,0.8589333,1.5974238,-1.683708,-1.3301438,1.1100607,-2.3949203,-2.1240253,0.14322026,1.4629167
<http://linkedgeodata.org/ontology/ortenau_bunkermap>,-1.9133661,0.25600797,-1.8970098,-0.060087387,2.4200046,-2.3717043,-2.670446,2.4601521,-3.1812289,0.16509266,0.8656727,1.9350809,3.6997223,-2.5999033,-4.5397167,1.7477549,-3.736333,3.2314167,-0.5171282,1.2772516,-2.3301353,-2.830847,3.00558,-4.902329,-0.8697343,1.9153655,3.012343,-3.243274,2.6312876,1.1185447,1.8754436,-0.6378154
<http://UBAIEbQsJNpdPc.org/GuH>,-2.55494,1.0801679,-1.0118794,2.9393368,1.0874661,0.13487096,-0.03154339,1.1121881,1.1487434,-1.0027176,-1.0419049,0.36980987,-0.21212754,2.1076348,-0.56243336,3.5389311,0.41030514,-1.4625771,-0.179208,-0.001773818,0.014496735,-1.4569792,-1.9454626,-0.6907411,1.9812013,-0.02716094,-1.3558018,0.25656876,0.14761822,-1.4581653,1.7117175,-0.16022304
<http://GFPqxXqjCyM.org/UbuVSE>,-0.26485205,0.52787036,-0.027228633,1.6471789,1.3005162,2.820123,-0.57031804,-0.058134843,0.31431553,0.29583102,-2.074563,-0.8312859,-0.059990823,1.7765918,0.77042407,-3.2810566,0.029955266,-1.5545886,1.7501702,-0.84488946,-2.0513012,2.0741334,-1.0801308,0.6609374,1.8197169,-0.14628604,-1.1499215,1.914985,0.2274727,-1.7385772,-0.43315727,-1.3176247
<http://FwSJxdHdtWEdzTVSl.org/tqftURoKRDFgKSKr>,2.410091,-2.3563347,0.55461895,2.9280527,2.198889,3.4780314,1.2856884,-1.6007773,-2.1955838,1.7240741,-2.5739903,2.5856338,-0.6184904,-1.3454535,-0.8710793,0.2639412,2.471449,-1.4727583,1.5738083,-2.21598,-3.1469471,-0.33584654,0.38677076,-0.08788388,2.2326055,-1.9894135,0.34099862,1.8006393,2.8576863,-0.7295253,0.028227666,-0.02851236
<http://yyOkAPpJZfGSiz.org/Z>,0.553302,2.2622154,1.1978302,0.8014051,-1.4607607,-0.9590312,0.26109147,-0.7964681,0.30987966,-0.46400285,-2.2220838,0.7936896,-1.4927738,0.018636411,-1.8647668,1.1697427,0.74447924,0.40125898,2.185902,-2.643143,-2.7871463,1.7684143,0.09228724,-1.140959,0.7537879,-3.0305061,-0.72505546,1.715959,-2.7630484,1.3475803,-0.7032255,-0.5570568
<http://FASOgKWLyzstdkbL.org/djMGdsnBwaPgL>,-1.4102174,2.3563793,2.713224,1.8015125,2.5586064,0.19790949,-0.8076345,2.396182,0.9671958,-1.3178746,-0.41117606,-2.9728928,0.15303057,-1.6265763,2.0089178,-1.8221252,2.488064,1.4575377,1.4880958,-1.7508614,-0.785503,2.2883794,-1.0040519,-1.7862015,-1.9071946,-0.0050586797,0.4371085,-3.5178468,3.5051808,0.093886584,2.8909955,0.6633378
<http://linkedgeodata.org/ontology/location>,2.9166179,0.83129776,-0.4641032,3.2917159,-1.4116393,6.1461983,0.7518616,-3.701205,3.7464466,1.7360579,-2.2819629,-5.552864,0.8207278,4.474591,-7.4404964,1.2317648,-3.1004379,3.937795,-3.6723735,-4.435453,1.8806298,-0.85962945,1.016819,-3.927469,-2.6306405,0.7793342,0.6418805,0.41970614,4.6939664,3.7425327,-2.3952003,-3.067601
<http://qDlvfOxdIeoSMJjGSa.org/DH>,3.338669,1.780412,-0.9415873,1.3481364,-1.9160808,-0.46686727,-0.0493773,-1.4991744,-2.1382797,-2.4320095,-1.27376,-0.6410787,1.2451577,-2.0380435,1.6222451,2.0391834,-0.1359392,0.62681127,0.09668051,-0.680758,-0.40238723,0.6030978,1.1076953,1.9725238,0.449754,-1.7746729,-0.71194315,2.936427,0.053186253,-0.9767251,-1.2467116,-2.4388852
<http://r.org/xKBwkAcxLrBQz>,-0.72544336,-0.46209753,-1.5511804,0.47048718,-1.6922952,-2.307115,2.7582006,-0.70736235,1.3962944,2.3873882,0.044528052,-1.8799777,-2.1672406,-1.728462,-0.28945154,-1.3654819,-0.039513886,1.5127233,-1.7150779,0.80815804,0.0793125,0.011462092,0.1766551,2.0253797,2.0045323,-0.83139086,2.1414297,1.245138,-0.69438505,-0.46725863,-0.9448334,-1.8401103
<http://MqrGffqP.org/VsWqYudT>,-1.3140544,0.933785,0.60324985,-0.07851662,-0.8225541,1.8205132,-0.88932765,-0.13975784,0.48065013,1.4126732,-1.4100426,-0.087195985,0.16470395,-2.1334102,-0.4414509,-0.33251387,-1.1306726,-0.54738635,3.2686062,1.8616291,1.5152223,1.4802336,-3.0343544,1.7913773,-1.8245223,0.28890437,-2.090871,0.8834139,0.17818265,-0.7673765,-0.884436,0.082305625
<http://MpiVxGCo.org/XkIJBTao>,2.3418255,-0.19968186,1.2029939,1.6147025,1.5950415,-0.016899643,1.6399139,0.9482438,0.35363358,-3.0378954,0.14107789,-0.55937356,-1.025856,0.61243844,-1.6013786,2.3171475,0.13841738,1.4157672,3.0983431,-0.7225247,-0.6667275,3.0276983,2.2751598,3.0525632,-1.3000742,-0.12691939,1.0986704,0.5929117,1.7055292,0.13398615,0.8990936,-2.0770278
<http://pjuNySHgTOxWGQ.org/c>,0.22967558,-0.666269,0.6408882,0.70680195,1.2670527,1.3946661,0.1715725,-2.1365128,0.28508472,-3.4687824,1.1122502,2.903016,-2.524081,-3.3313377,-0.6002789,0.18505278,1.1597581,-2.713151,-0.73413116,1.3865074,0.12284406,-1.3489239,-0.4079888,-1.0942427,2.431034,0.19759123,-0.12134347,1.2366103,1.8294265,-2.3521006,0.34407508,-2.1475122
<http://umBc.org/oaB>,-0.18491447,-1.3827598,1.788688,-0.18310192,-0.59702027,0.40154555,-1.8334501,2.0953221,-0.3096086,-2.8581023,-1.156951,0.18773551,-0.14830884,2.9722533,0.4850753,1.0902505,0.63362473,1.2481716,0.56251323,2.1830366,1.2514156,3.2110987,0.0889803,-0.6307878,1.3065431,-0.25812095,-1.0502949,-0.27540258,0.7157891,1.9062786,1.4098928,1.1309654
<http://wjHJZYYuZc.org/>,-1.830417,-0.0901184,0.6410946,-2.9055672,-1.6211331,-0.89441,-2.6238184,2.0968757,2.9396558,-1.0439963,0.48114434,1.4272441,-0.072215885,0.3051241,0.4642839,0.77533996,1.7577777,0.48939005,2.2806187,2.554006,-2.3374634,2.278408,1.8042454,0.2319428,-0.30387846,-0.754978,-1.0232452,-0.6575348,0.5404321,0.7884699,-0.60955745,1.263436
<http://AivJoWouUdFaK.org/yAvuhVasVmVdBRC>,-0.16074307,1.1915172,-3.0642822,-0.3283206,-0.40492475,-1.6594344,1.3371047,1.8210016,-0.35595077,-3.2748487,0.014579513,-0.8482499,0.11099688,0.46529323,-1.7057486,0.31728756,-0.73120123,-1.9949546,-1.0809946,0.6592102,-1.835806,-1.9219049,1.3030124,-1.0273247,1.8921636,-0.45029497,0.879073,0.38839468,0.16930154,1.7249469,-2.1823978,-2.6432483
<http://RuSkYIOD.org/FuDKqloFRe>,-5.3449993,2.7655423,-0.5706248,-0.7667524,-0.81944025,-1.731785,1.585368,-2.665434,-0.6350488,-1.6178898,-0.5385485,2.0820763,0.53988725,-2.3627357,2.334282,-0.46724,-2.292396,1.9618211,-1.2365135,4.278467,2.147572,-2.1280267,-2.1440718,1.3916154,-0.7882221,2.532291,-0.8934898,-0.99552053,0.27026123,3.9656174,3.3388214,-0.52716374
<http://RiShSPyjToKpOC.org/YRDaTpo>,-0.5422142,-2.0996091,3.2950506,3.2248504,0.25175443,0.768651,0.60953563,2.7585762,-1.326108,-0.28782558,-0.40140682,-0.630236,0.6560154,0.60196424,2.970387,0.6224835,-0.9086454,0.060839888,2.3796918,3.4469292,-3.5044596,-0.1793022,0.63897645,-0.035351913,1.0908898,-1.5768121,-0.9895938,1.1064863,2.1786187,0.8509175,-1.0061364,1.3706115
<http://ayrg.org/Q>,-1.9509857,-1.1433262,-2.9793732,0.28408834,-0.08441703,2.2784617,-1.0631473,-2.8506844,-0.78217566,-0.33301014,-0.8825932,4.04119,0.1302284,1.4855736,1.4474092,-0.73760545,-1.7695607,-2.397409,1.3851174,-0.5491547,-0.028202238,-2.0311124,0.85050964,0.53308296,0.49924308,-0.8066498,2.1501734,-0.9310671,1.0001146,0.775879,-1.9374661,-1.5394487
<http://oFxxouRPoqsRvDPDgQT.org/biSfWXUVhD>,-1.4068394,0.8063603,-1.1302375,0.09272337,0.38907403,-0.3445823,2.7765164,-0.9397545,-0.9565193,-0.34525946,-3.0610733,-1.2638048,2.7755907,-0.64387435,1.6490446,-1.7243962,-1.5394919,-2.3056855,-0.23460457,0.38092142,-1.3068268,0.3568548,-0.72394866,-0.2536788,1.0999702,1.3618279,-0.94134265,2.6435401,-0.46668494,-0.31654596,-2.5857453,0.7140356
<http://xkbPMvm.org/rUXGUs>,-0.0074687162,0.10076365,1.4825175,0.663533,-2.8114128,-0.68649703,2.1587002,0.03160102,-0.14076933,1.4010504,1.0514673,0.17793427,-1.5427514,3.089189,-2.344428,1.303508,-1.3288964,1.3916601,2.0207524,-2.0117202,-1.061479,2.8026595,1.5591675,-1.0969309,1.6833538,-0.5462728,0.13533612,0.5658411,-1.2483565,1.7517257,-0.4651544,2.3253772
<http://FyHQXffnJMnTQDX.org/Llr>,1.1396466,0.4921494,-2.3183959,-0.46985304,-1.9840031,0.9229316,-1.7859082,0.9865722,1.0677425,-0.6035443,-1.0589477,1.455241,0.70938444,-2.5342205,1.4144211,0.65829813,-0.82704365,1.6150019,-1.0010644,1.017658,2.1329594,0.85642844,-0.26777086,-0.24139592,1.3601816,1.4901521,2.3843746,-1.9732107,0.3967806,-0.8961661,-2.4729483,1.2926136
<http://Ooe.org/KmaeeDyU>,2.9877956,-1.9240233,-1.7087185,1.851299,1.1884195,-2.8820648,-2.9864812,-2.6674938,-0.77404076,0.8064773,-0.8602305,0.89521587,2.5838265,-3.6530774,0.7849524,-1.3768022,2.16255,2.3981824,2.8620737,-1.273579,-1.194933,-1.3416655,0.18370491,0.14058861,1.7386895,-0.078621455,2.321025,0.14723016,-4.0688868,2.7418108,-1.2207654,1.7018327
<http://Xi.org/geVgwxLswakuiX>,1.1704295,0.62096804,0.471684,0.13083833,0.24187332,-2.1052475,-1.1686344,-0.4802158,1.6627364,1.9101502,0.16769215,0.33951372,1.2604579,0.48854208,-1.6834078,1.8204439,1.5202396,-0.63048404,0.19908819,-0.94983053,0.9700956,-2.1657267,-0.76116353,-0.5585667,0.95314527,-3.569993,-0.41020763,2.2065022,-1.2169054,-1.9804949,-2.7942433,-1.7368733
<http://yeUlMvzAPXobJPTke.org/fViJNyMuTLc>,-1.8053006,0.14774948,-1.3615932,-1.2646984,1.990156,-1.2306288,0.16527973,-2.0767756,-0.77579254,-0.014876468,0.5507417,-0.87985814,1.9339621,-0.7382383,-1.3010613,-2.2891111,-0.23804311,-0.4831667,-0.15516075,-0.38048166,-1.9016368,1.6795845,-2.5437653,-2.6377661,1.5629184,2.4735043,0.86257607,-0.11135755,0.75155324,-0.49958366,-1.2210379,1.0432177
<http://AUqSWhoJDbbg.org/yM>,0.6250245,-1.19519,1.7283347,-1.9324507,0.8465406,2.4277132,1.7368494,-0.7676038,1.2923344,1.8302761,0.39299154,-0.25081548,-1.7218475,0.30445343,2.1538136,0.48239866,2.1230423,0.68836737,-0.08383436,2.0651917,-0.8828611,0.81654936,0.03637012,-1.1859556,-1.8912045,-1.178041,1.7827863,1.7729688,-0.66856706,0.47445095,1.4696112,-0.38618752
<http://RSZadNOLM.org/WUFAakBOslamjHlkH>,0.25900424,-0.8976403,1.2187434,-0.6296437,-0.010962452,-2.0360618,0.84263647,1.409322,0.2909177,-0.78686404,0.51754284,-1.5266398,1.2858698,-1.7046205,2.6747367,-0.23045479,0.17743148,0.92478687,-1.4710313,3.354206,2.1583471,1.1571143,-1.4546351,2.51121,2.7727258,-1.7090049,0.19278292,-0.24857138,2.004063,3.6842344,-1.1728327,0.33487955
<http://linkedgeodata.org/ontology/disused>,0.54388803,2.0490594,-2.4458327,-1.4964223,-3.978951,2.2330003,-4.323878,3.807855,-2.4610577,-0.872845,-1.0969291,1.3203832,0.9577113,-0.83075565,6.588024,0.037507262,3.0998766,1.8706691,-1.073197,3.1822174,4.220989,2.2228906,-0.60956705,0.56661016,1.2684668,-0.45118153,-1.1300782,0.89598465,-2.207325,-2.1127613,0.035242144,1.5439935
<http://sDUjKYJeVGrKfbklUNl.org/fRukoPtLpW>,-1.8349425,-2.3208642,0.7703821,3.2392194,1.1772611,0.24032526,-0.20902579,0.7332952,-0.7799033,-0.3851993,0.051997446,0.28658754,-0.52989084,1.8540902,-1.736235,-2.1395402,0.49070972,0.34694737,2.0569737,-0.6774865,-0.6662751,0.20478167,1.8947285,0.4380577,0.96386355,-1.3540876,-2.8719234,-0.5732934,-0.6197964,-0.23311399,-0.5587198,-1.4796082
<http://RmNfRECHYJunfK.org/ryqMKUnfKyMnSxSt>,-0.43430793,-0.91650695,-0.74851745,0.34886658,-0.048786614,3.2775555,-0.22683163,-0.11559845,-0.16712281,-0.15966007,1.6748744,2.500628,-1.3268194,0.68920016,-2.630944,1.9572719,0.28018817,2.229348,-2.8914921,-0.9580642,-2.497453,-3.0953832,0.68900037,0.7193355,2.4364693,-0.022107609,-2.750112,2.377764,2.1796827,1.584233,-1.9993148,-0.19468525
<http://cOrpHHElnSIKiMo.org/GqzGKGzZCexYJtCs>,2.4643397,-0.99139804,-2.270814,0.03962392,0.9529861,0.3593404,-1.3088846,-3.087909,0.1060473,0.4877511,-2.255659,3.431854,-1.2924592,-2.4271865,0.06169968,1.2546858,-2.9763432,2.458969,-0.09325875,-0.019017668,-2.3991568,-0.07091042,0.81924534,3.3435137,2.340899,-1.7119733,1.9306535,0.6569356,0.74057573,-0.7864663,-2.3828351,2.7599785
<http://PtRplQAbQ.org/fFcdccz>,2.6007798,-1.6313357,1.2833277,2.7035558,-0.43512222,4.3611426,-0.5087084,2.6669898,0.7460684,2.4590573,3.4967268,1.2950132,-1.6418245,-1.9968932,3.8374107,-1.2565253,1.0404701,-0.30971667,2.2624185,1.7257466,-0.51974404,2.0831246,3.495244,2.9106128,-0.62030476,-0.5356444,-1.0854703,-0.16154599,-1.1275909,1.660014,-0.79357564,2.2985024
<http://rxYQsXUePFcYmCeGB.org/SuKzZovLmdVlFxyqRsH>,1.9416171,2.0804799,0.7905116,-0.039355475,-0.1598861,-2.5809321,-0.7245944,1.4320438,-2.534231,-0.5804986,1.2943373,2.8760018,-0.60451156,1.4221388,1.1689932,-0.5745479,-1.6174566,-3.3592196,-0.015083773,-2.2663114,-0.8714468,-0.04370847,0.121883,-2.9289145,-0.8401748,-0.27263433,0.3715275,3.0807703,1.3310263,0.39562365,1.3644143,-0.74378157
<http://QNgrYtWPhm.org/vTkCrDiHmMcPvOzXCZ>,1.4478263,-2.1952753,-0.10300839,0.94374734,-1.7040733,4.1691303,-0.7070335,-1.1083441,1.2630243,0.2204486,0.7884791,0.48257604,-0.90176946,-2.302008,1.086424,1.0293082,0.70625913,-4.1613264,0.01820124,-1.9590597,0.61611485,1.6733803,2.3523936,-0.62292534,2.0917728,-2.816364,-1.9039639,-2.4051208,2.6526973,-0.5201572,-0.2891757,-0.72320056
<http://eXswmQrLIbF.org/Efs>,-0.8010124,1.3864061,0.9784809,-1.9131826,-1.5041484,-2.3190098,1.5270122,-5.1743846,-0.4778525,4.4809585,-1.7701404,1.6955463,-2.555127,0.29799825,0.8286387,-1.1362013,-3.5557935,-3.2122703,2.7294226,-2.9297287,-3.656242,1.9600302,-1.3411232,-1.8094617,1.5375636,-1.341188,3.5799239,-0.4341838,0.68852746,-0.24972023,-1.6252406,1.7385497
<http://zZHQDicKMLnBPajSoaH.org/xafGAzloeljadUOUiM>,-0.7966218,1.0533694,0.49287552,-0.5177712,-3.0575664,-1.1706675,0.58454764,-3.6555657,-1.7083058,-0.88806677,-2.2998722,0.7720293,-0.19475742,0.9131111,-1.2162327,-0.1947361,-1.8135732,4.6721935,-1.859364,-2.1963959,-2.6275983,-2.7117028,1.1015018,3.6799161,0.40017945,-1.1168748,-0.8225192,-3.0112681,-0.26776403,3.243883,-1.6130158,0.30449885
<http://linkedgeodata.org/ontology/note>,0.22623432,1.0570761,1.0851885,0.33527923,2.368264,-3.0526536,-2.5667374,-3.0304828,2.9452302,-0.32803386,-0.75301856,-0.6880291,-4.033008,-2.6309063,-3.3425555,-0.48869276,-2.1064355,-0.16126944,-1.6235127,2.1751335,-1.2907389,-3.1522334,-1.1418756,-1.1231937,-0.107755125,1.0997595,0.17668328,-2.455752,-0.7016354,1.7651279,-2.8672154,-1.9750324
<http://tTluQgNkkytRByycqkr.org/VdGnAscdelCkdAtwh>,-0.7011666,-2.2434907,-0.2256009,-0.12028187,-0.9534197,-0.08690492,-0.04557831,-0.9213586,1.9511579,1.5827831,-0.13955864,-2.0757992,-1.3021531,-1.9452146,0.19751912,-2.7662547,-1.4298588,0.63377464,-0.5686634,-0.0546823,0.47903496,-0.8718508,-3.5713015,0.1950825,-1.3297004,0.12088655,-0.89554816,-1.2044266,-2.4206638,2.0673587,-1.3338732,1.211215
<http://wFQC.org/hZOEY>,3.3158617,-1.8393224,-1.0410701,0.1066367,0.38210505,0.40902033,-0.3927166,-0.47708696,-2.137641,-3.023255,1.1766088,-0.039263315,-0.1303487,0.176211,0.7663884,-2.8522308,1.7684427,1.452574,1.5810308,2.4363873,-0.57644504,2.0501812,-1.1938504,-0.27619424,2.031744,0.6879151,-0.5342946,-2.0973756,2.7641075,-0.4652802,0.62705845,-0.95290715
<http://IW.org/>,-1.1371056,0.44207215,1.097382,0.73563385,0.9702487,1.5574031,0.0536039,-1.8282876,1.644311,2.8828273,-0.3967976,-0.8371199,-1.5915946,-1.3636994,1.1701745,-0.6499387,-2.647224,0.5436401,1.5102977,1.5711908,-2.0160449,1.199449,3.2223194,1.6766553,-1.1014566,-0.90728897,-0.9133754,0.8636188,-2.2433925,3.535319,-3.3481734,-1.1165223
<http://UjjmLa.org/RgfreMVq>,2.2853613,1.6764566,-0.8113427,-0.42953452,2.013314,1.0329626,2.066583,-2.72421,0.51297,0.9387434,1.8682146,2.4014091,-0.66860974,-1.7388932,0.81133497,0.08511832,-3.3424025,-1.0393476,-0.18940711,0.45734882,-2.0871818,1.8216214,-0.21128507,-1.1460463,-0.17248125,2.5934024,-1.7353779,-0.027395237,0.045331903,3.5071743,-0.80393124,-1.4380713
<http://zCbDkjISZJTfa.org/EaRCFueKSadhM>,-3.9344163,0.8162515,1.7265325,-3.1737459,-1.7833276,-1.8717301,1.0902133,-0.89727974,-0.71373314,-0.73282933,0.39544514,-0.4328204,1.9803244,-1.0558642,-0.08349747,-1.9348911,0.050423104,-3.629348,-1.0340326,3.8292863,-2.5185714,2.2307546,-1.987405,1.4047186,1.7948095,-0.15249571,0.9224012,-0.8878332,-1.2198793,0.75107527,-3.2748184,0.7194713
<http://.org/pTzzElHAtAETIvi>,2.381318,-1.2327783,-1.1294787,-3.3893507,-2.3175025,0.3288683,-1.0461311,-1.4654615,-1.9711097,1.9201224,-0.8541565,1.279649,1.3630716,-1.0146734,0.058836963,1.255586,-0.474068,1.1962047,-1.4337362,0.35821798,0.41037506,-0.8676222,0.16116397,-0.071200095,-2.3354669,-2.7169094,0.71896267,-2.2406547,-1.5291122,-1.6926011,-1.1321973,-0.63269913
<http://.org/wnFXnWwJpGIuXzqAWm>,1.4752072,-0.58443487,3.1840308,0.27596387,-0.5997292,2.9316142,0.66761947,-3.765944,0.22451596,1.9101217,0.30144024,0.4743687,1.4947401,-3.1606712,-2.4324954,1.6213398,1.9445306,-2.1144166,1.4021667,-0.4168971,2.4350147,-3.2826226,0.7960019,-3.1567726,-0.8514984,-2.6503417,2.5018935,-1.7398065,0.9639845,1.4422348,-0.44010645,-0.77683973
<http://YXQEXvLJQLlMfZIpi.org/aICge>,0.30199102,0.55285126,-2.5617766,2.1467211,-1.5593897,3.3956153,-2.6417172,0.11077128,-5.017269,2.6981475,-0.35434428,2.495482,-2.268766,-0.20044436,-0.48748562,2.2056873,0.80027634,0.81075585,-1.5388991,0.10822627,2.4949472,0.41116118,-0.624401,0.086556666,1.7886872,-1.7967654,1.9752004,1.4339705,2.7739043,1.5042924,0.22775039,0.09053177
<http://zQD.org/ZnMvlXbJsUKhEFvu>,0.7871484,-1.5295324,-3.0641422,-0.416616,3.322716,-0.8085321,-0.015300136,-0.084678784,3.80156,-1.4466959,1.2181574,1.30365,-1.2168087,-1.6398805,0.5412019,0.16496553,1.2402754,-1.8750392,-0.695038,-0.00052888657,2.3210855,-3.3640618,1.3130997,0.6766474,0.44107008,0.82847846,0.2486561,1.9705954,-0.6374269,0.95269555,-2.4413898,0.8635895
<http://aviRtqpJYVjeAIa.org/>,-0.8414489,-2.516321,-0.78164786,0.4628197,-2.4292047,2.0433247,-0.7646396,-0.47559234,0.066663235,2.5316386,0.73455864,0.037304867,-1.5579133,-0.6297698,-2.498199,0.22578134,3.8395782,0.3405611,-0.89926946,-1.0630374,0.086788185,0.83028245,0.84206504,0.40726933,2.844497,-1.7346412,-2.8837676,-0.63420504,0.19122285,-0.937618,0.9458628,0.14086998
<http://dCrHuruET.org/yorVWbNEOOxMqSUq>,1.7942677,0.39281276,-2.603004,-2.6322193,0.8393632,-0.16835074,-1.5196172,1.5287299,-1.1195953,-0.48279473,-2.528627,0.9553075,0.66879356,1.616023,0.79542166,2.313368,0.60114014,-0.6435127,-3.3163683,1.4818858,2.1977046,-1.945279,0.8448674,0.07139043,-1.4362475,0.09905306,0.98186666,-1.2054282,1.4301271,-1.6640127,-0.9335234,-0.5191346
<http://ZBHyqprbQRNHAOHwREh.org/hzlEMFvyDF>,1.8593065,0.5373853,1.3738438,1.7483227,1.1155819,0.36966535,0.7716796,0.19589424,2.7423062,1.2695098,0.15636727,-0.29403457,0.48809743,0.5495411,0.47770742,-1.356047,-0.25939912,0.3172262,2.7413352,-1.9147629,-3.2280078,0.4189752,1.0817531,2.2071652,-1.0859785,-0.34505782,-1.8506149,-0.2780463,1.3627504,-2.2369556,1.7113299,0.5156113
<http://QxePKVZEvi.org/xDtVDwmbUnMBg>,-0.100805946,2.817912,2.0381746,-0.7155537,2.3723629,-3.4919865,-1.2420202,-1.7094434,-3.159894,2.1622603,-0.25856975,-2.8857844,-2.0468743,2.0578454,-2.2005322,0.8564579,1.5304308,-2.3574088,1.0626146,2.2311673,1.3297914,1.8603572,2.734965,-1.5456343,-1.7611377,0.9308014,-2.0593407,-1.0638888,2.5256903,3.4732976,-1.1135635,-2.0697465
<http://HU.org/xfWLYvR>,-1.0173395,-0.54645663,0.5449326,-0.4068451,-0.3462916,1.4525104,2.3633962,0.3062605,-0.6351872,0.42250896,-0.6859533,-2.107295,0.67862636,-1.1956887,1.0293446,2.0092797,1.9872968,1.419471,0.7756737,1.3095719,2.1250527,1.8188033,-1.079081,1.8268367,0.32807094,-0.92761713,-1.4664369,1.9470453,-0.22917487,0.9850457,-1.5352198,-1.6459212
<http://D.org/hTIaSGjZqOSSGpnM>,0.7306293,-0.8440012,0.020665085,-1.3925854,-1.0235498,-4.1195703,1.4460838,-0.34687796,-1.8515797,2.1871262,-1.2179998,-0.10403759,0.26202273,-1.5606337,0.2588229,0.49903026,2.8496838,-0.7947026,-0.13652155,-1.7650135,1.7147884,-1.1794095,0.8664172,2.7156968,-0.8945884,0.15123385,0.68027323,0.65862495,2.3526912,1.0701077,-0.031384334,-3.2133102
<http://OiFqgluBpnFvlrB.org/NtPXDZUpS>,0.35114944,0.08698479,-0.1576528,1.0593415,0.34034622,-2.5238457,-0.74234515,-1.2525977,-0.6779098,1.0363654,-1.8986357,0.16121092,1.0026718,0.6799419,-0.9008836,-1.1986691,-1.1947732,0.69247985,0.49792877,-0.597871,0.6481944,3.4239044,0.86602217,-0.71625555,-1.4785422,-3.893392,0.021188691,-0.42201847,2.6439545,1.4144851,-3.2399814,-0.6701773
<http://linkedgeodata.org/ontology/ref%3Aropiky.net>,-0.5974811,-2.471864,-3.6548328,-0.6882144,0.43629578,2.3200328,-3.074083,0.080891185,2.5540643,-0.92061585,-1.6960968,-1.7589881,-0.9688874,3.9180071,-3.683707,-0.7908267,-0.89016145,-2.6045568,-0.71474934,-3.9841945,-0.15462781,0.7460546,-2.4655116,-0.48328823,0.7975133,-0.6778916,-4.195575,3.5470514,-0.76083416,2.0386164,2.9521651,-1.342423
<http://rKzX.org/cbDLYfybLVf>,3.489975,0.13469149,1.6403664,-1.3554474,2.3492756,-2.5713801,1.0581459,-1.0904553,1.7679051,-1.4513326,-2.07434,3.769718,-1.0221874,1.2970871,-0.30302343,-3.7554116,1.5368444,-3.202744,-1.9945965,-0.42075515,2.2592504,-1.4860276,2.0782442,0.42502955,-0.9428907,1.041462,-1.6830322,0.33130005,-2.7657263,1.3909814,-2.5096915,1.9217666
<http://xmlns.com/foaf/0.1/homepage>,0.001713293,-1.33949,0.7979109,-1.4442225,1.748601,3.402954,-0.27151775,-1.2208725,-1.6546266,-4.4760814,-1.981567,-0.88507986,1.5398263,1.9483083,-1.3239836,3.4312372,1.9844017,1.5412803,0.012160493,4.6531568,2.6027164,0.8080161,3.268597,-0.5604724,0.1076407,-0.41362417,2.6294396,-0.4907913,0.63285863,-2.333139,-0.7768267,-3.5190659
<http://iQanuDeSGEYJG.org/Rzn>,0.8578977,0.10861769,-2.555972,-2.5049222,-2.2709088,-0.82815284,-0.12841831,-3.312306,3.832284,-2.302973,1.7814686,1.7552675,1.4051236,-1.3535899,2.9975927,0.4643601,1.7111791,2.385313,3.6232007,-2.1110575,-1.9229664,0.9934475,1.9812229,1.2616899,-0.57691735,-1.767794,-0.8206664,2.6040723,-0.94111216,0.31303418,-1.8943412,2.170046
<http://u.org/CsmpGCmsIpRJ>,-2.561571,-0.0013648405,2.5669494,0.4576553,2.277184,-1.9563392,0.48847428,0.9605501,1.7118851,-0.034793217,0.27454036,2.1797044,-1.7563815,-1.370403,3.4858565,0.22102855,0.9101454,2.0982206,-1.9420254,3.1585917,-1.2672956,1.6177877,-1.4770478,-0.8969911,0.5260657,0.5884084,0.41701165,-3.1759543,0.81255233,-0.641939,-2.797966,-0.8075037
<http://lncnNYkgWqd.org/E>,-2.0821617,0.49190742,2.7089403,-2.93114,2.0512023,-0.57067984,2.8430505,-3.2569764,0.2883712,0.4107111,-0.99766946,1.2995462,-1.8805586,2.9588532,-0.13236053,-0.29599258,0.5504401,-0.40831885,-1.2152734,1.205909,-0.4731264,-3.9332857,-2.070333,-1.7123423,0.49270034,1.6534346,-3.3491106,1.6888438,0.7057667,-3.4233482,-3.356465,-1.8775125
<http://sMvpHRrSsMSE.org/diBXe>,1.2438095,-0.030877622,-2.4724505,0.5679528,1.5598668,2.152919,-2.6135035,1.1552325,-1.8497103,0.33674088,2.2158675,3.2075806,-2.036298,-1.3506435,-0.8505237,-0.49407804,-0.72386336,-4.6342783,0.08676219,2.2176757,-0.06528011,-2.000308,-0.042037096,-0.08813256,1.0672232,-2.201529,1.1288956,0.8866357,2.262814,0.806533,-1.2569371,-2.4769666
<http://bvHnSaMurvI.org/FCMqZyVlNormk>,0.64348155,1.7610362,-0.44202018,-1.5780816,-2.6370366,-1.0496496,0.3855206,1.9085773,-1.0234294,2.9669724,-0.42764568,-1.4525641,-0.20062721,0.50783956,-0.6319405,1.3512399,-0.66580236,-0.45106745,-0.27380735,-0.7150852,0.24927108,0.7264638,-0.06905656,0.7212543,-0.69411814,-1.6939671,-3.2363403,1.7264264,0.8190402,1.2509662,-3.246996,-1.7828659
<http://a.org/lztPAfTOP>,1.5637984,-0.356915,-1.0413325,0.10598518,2.6725829,-1.0827907,1.2047473,0.37401083,3.4661553,-0.30175906,-0.057812955,1.9597744,-1.4741465,1.8925272,0.17863782,-1.8575014,-2.6570647,-3.0030382,1.880252,-1.8173581,0.669062,-2.369411,1.8143995,0.59839314,-0.4143731,-0.65832597,-0.28157884,0.71850735,2.625913,-3.461703,-3.372288,0.096025825
<http://BkxlCJhJrleydoRd.org/MDToh>,-0.11803687,-0.10323296,-0.39714774,0.31413302,2.7245545,-1.0555358,2.243557,-2.209465,-0.019410044,0.7290902,-2.3015895,1.3885893,-0.37967128,-1.3468165,-2.139069,1.6406721,0.54046524,-0.13951199,3.1286728,-1.6659052,-0.53151107,1.3423902,-1.7667574,-1.1653973,-1.7905959,0.8013006,-3.7053425,1.6054509,-0.6000029,2.9985936,-0.99046695,0.24531296
<http://rEzvGIqmkKhyJVp.org/>,-1.4558606,-2.4280884,0.92490274,-1.1588048,0.6378641,-2.613958,0.26638895,-0.79087746,-0.8747039,0.37782553,2.7740533,0.17006305,-0.6256594,-1.833626,2.144945,2.4747655,-0.19932665,-0.04284834,0.17666493,2.6102722,0.28918114,-0.9941663,0.030230515,1.1380931,1.9021716,1.4578538,2.1704946,1.7242019,-1.4571155,2.043873,-0.5444604,-0.053177524
<http://MJZxcdcxGPkS.org/CdpFxcfkxw>,-1.1360642,-1.5639501,-0.8525184,1.7086796,0.9786907,-0.78913224,0.038768943,-1.8764827,1.4858911,2.8675227,0.27002674,0.29184595,3.6701558,-2.6558418,0.75496536,-0.7319991,0.13250726,-1.4554298,0.17339471,1.8891937,2.1910605,-1.3109357,-0.94438404,0.36485067,-1.7716501,0.1900989,1.1938238,-0.40392625,1.2321,0.55260456,-0.36529434,-1.4734517
<http://SPaXMhoKTkkUpDJabH.org/HHuFoGdyWor>,-2.868849,-1.7462554,0.47539917,1.6780957,0.39190695,-1.7812059,1.8364674,-1.1625872,-1.5014721,1.2175584,2.457501,-0.5144818,-0.0947645,0.16697858,1.6092407,1.6299537,1.0175933,-0.10309547,1.1247295,-1.4605976,-1.323169,0.44336942,-0.4724382,3.0669553,0.06054781,-0.5049768,3.2382183,-0.41086546,2.9473507,0.38936013,2.2100368,-0.84960127
<http://EFOPKPyz.org/RfxgYTfI>,-2.4650652,0.5691793,0.7699642,-4.085008,-0.17911248,-0.9887164,0.12939161,0.055617485,1.5888664,0.057719186,0.7226552,0.64678246,-0.34419665,-1.1505747,-0.64874554,-0.48501557,0.9330975,3.4902127,-0.28720388,1.4021213,-0.31712013,1.0104147,1.584267,1.7206551,-1.6535208,0.013755024,-1.1323566,-1.0726284,0.93087995,-0.33419237,-2.1610126,-1.3665755
<http://omTlGdKpOSKWVpt.org/PLDApgAi>,1.1788647,0.5260452,1.3933886,2.0093017,-0.71218497,0.39034674,0.85882825,-1.5103527,1.5137801,-0.72578835,0.6156507,-2.0894496,2.0284817,0.26567763,-0.884755,-1.0267621,-0.5968338,0.68625104,1.0194978,0.38956183,-2.2934108,1.6366129,0.70079666,2.8367033,1.6218182,0.08143864,-1.0169708,-1.2858416,2.748598,-0.5766784,0.47983834,1.314579
<http://.org/cHoddCswvtVeRt>,0.24894865,0.2070404,0.2457673,-2.3375034,0.3604616,-2.6246805,0.8924046,-1.4745423,-1.4794488,1.7788141,-0.4348777,2.0057764,0.64448154,-1.5031171,2.47107,-1.6917981,2.0885646,2.4430497,1.6157525,2.0816016,-2.7732127,0.8576792,2.7276843,-1.7132546,0.65108407,0.03088965,0.5896571,-0.47398573,2.5570283,-1.707749,-0.123790555,1.0470479
<http://zJqhbZaWhIbEJ.org/>,0.606855,-2.58405,0.033046965,0.5582802,-1.8118403,0.054631084,-1.2250623,1.1515527,-2.0623596,1.0181545,-2.1393921,-1.4753377,-1.0320777,0.6476899,-3.6442816,-2.2222862,1.1379668,-0.611602,-0.37256113,0.95020205,-3.0248997,3.7617948,-0.8569368,-1.3742895,0.84894985,-0.52759767,0.8737869,0.50215477,0.6427476,1.866529,-0.43886027,1.761131
<http://xsyyxnObzZJkw.org/acjGpkDF>,0.06408164,4.036578,1.6334577,-0.92244595,-2.0231392,-0.69107246,-2.1508179,-0.49143884,0.6812415,-0.45551306,-0.31393996,-0.4470144,-1.5510846,3.7016273,-2.6628716,0.21480937,-3.0166204,1.3162032,-0.050616816,-0.41180032,0.14628744,2.3309472,2.7238948,-2.1081548,-0.27483043,1.8608131,2.0212111,2.427628,0.48221433,-1.9070438,-4.3658686,-1.133502
<http://wGTdpjcVl.org/e>,-1.4859554,2.1539972,-0.27858192,0.40775782,-0.51509005,1.7619714,-1.8794347,0.5812525,-1.2527658,1.6013074,2.8661072,-0.8679633,-1.5707237,0.7905999,-1.8925622,-1.6879224,0.63509375,-0.3115533,-1.256415,-0.43827218,-2.3089404,-2.6017485,0.7647295,2.7078876,1.2917217,1.244606,-0.118334904,1.4648641,2.6198077,1.1841456,-1.5744683,-2.509576
<http://RyAVzVkpbx.org/sQhUvMttUEy>,0.1312929,-1.8416119,0.30769494,-2.5875053,2.4758413,-1.3011247,1.3097552,-1.5713716,0.75969535,1.0044959,0.22267479,-0.6377529,-3.1592057,-1.2504739,1.409223,0.55083907,0.6834186,1.8451253,-0.3920679,1.7971281,-1.6037031,2.0031326,1.3624357,-1.8892413,-1.7060328,-1.3123891,0.38564345,-1.9429857,0.53019285,-0.76855254,-0.8292017,0.8618552
<http://oUJEuQwAx.org/Xw>,-2.2768445,-0.16982526,-3.172079,0.27830368,0.4958655,1.0958917,0.8580971,-1.0313044,1.9192377,2.5603833,-0.6236925,2.5795107,0.72853726,1.7097105,0.48099735,-3.8865564,-0.1727517,1.8886148,-1.3430531,1.0021886,-1.3502029,2.0343287,2.1715357,0.62868214,1.3309269,-0.07323122,1.2413785,-1.1209097,0.595575,0.8628225,-0.11932397,-0.06677975
<http://l.org/HHOkUrUTwjcPmDqml>,1.4556701,-2.7511969,0.9036671,0.555845,-1.9408686,0.54919446,0.78638405,-0.7569776,-0.25465676,1.4371469,2.9261246,0.60871786,-0.6627941,-0.8609515,1.3529305,1.169611,-0.070036724,0.7830763,-0.051333565,-0.7692679,1.7189224,1.3190944,-1.895257,0.9981987,0.08368956,-2.645068,0.13749011,0.9806587,-0.7409645,1.4704498,1.1891559,-0.9358802
<http://xUFeSUftuS.org/sbM>,2.3731177,-3.0410385,1.8223593,-0.09002664,2.2439935,0.16115089,-0.3484635,1.8586413,0.13101302,0.18635006,0.864376,-2.039177,1.5765195,-1.708867,0.9600598,1.46042,1.5755379,0.17133644,-0.30493072,-1.2248156,-0.3056491,0.8886493,-2.3385973,0.6435202,0.26523668,0.5611312,-3.2764924,0.5464765,3.0475767,-0.81381816,-2.1631005,-0.31870815
<http://EHldzGqapnDyfVdLra.org/C>,-1.7577479,-3.2683005,-2.5709488,-0.81495416,3.4878132,-1.5642252,-1.524687,-3.141825,-2.5349884,0.03774947,-0.124905325,-2.2092402,1.3188303,-2.36763,2.4893973,3.4488592,-0.17050464,-1.5083594,1.9723591,0.22562653,0.26531276,-3.0556946,-3.360765,1.9020902,2.4800818,-1.2940686,1.6085473,-1.3951112,-1.0754606,-3.6458242,-2.3862913,0.98278224
<http://MH.org/rbOZTTnAb>,1.8114176,1.8926767,-0.17737108,0.99230975,-0.81235635,1.07957,0.6458331,-1.2147223,-0.062455047,-0.13262032,-0.4560966,1.2956656,-1.9319772,0.8482217,0.8012346,1.2803746,-0.8424571,-0.18469307,1.389775,0.1657972,1.2792611,-0.9814435,-0.067592025,-0.7564305,3.0357425,2.0415769,0.5777596,1.359884,2.8071349,-1.8442085,-3.7051444,0.64395154
<http://nUWzsxTmS.org/uYIfCoWiOatfLPkJv>,-2.262901,1.1479663,1.687311,0.116450034,-0.12853843,-1.1504868,3.0865169,0.9752579,-1.5549177,0.8733498,1.7038412,0.68715984,-2.1468656,0.86864114,1.9512051,-1.2869471,0.5297483,0.9334179,-0.10388065,-2.2985146,-0.057898276,1.8510344,-1.5705901,2.0141454,0.56810385,-0.8064591,-0.35363585,-0.8218589,-0.69355494,-4.0700245,-1.3945379,1.1873506
<http://xmlns.com/foaf/0.1/depiction>,-0.466732,-0.9636532,-2.9557388,-3.4307587,1.1481009,1.8628949,-0.6127176,-2.5546596,-2.9142485,-3.4719965,-1.6239272,3.564259,-0.26087794,0.07330762,2.5330381,1.4850681,2.1313422,-1.8139324,0.1744882,0.74593794,1.1080652,0.5737176,-1.9089913,-0.711546,2.3578644,1.9181699,-1.5127103,-1.5502893,-0.09419243,1.5090864,0.34876576,-0.7131798
<http://linkedgeodata.org/ontology/line>,1.8284553,-1.346507,2.2144923,-1.2502091,1.1669812,1.2225813,1.6355175,-4.3090453,0.19110045,-1.5230643,-1.0275348,1.0312264,-1.8851705,-0.308667,-3.7716143,0.5630908,4.7258387,-1.2014759,-3.0967376,-2.1460934,-0.4665556,4.781206,-1.3259703,1.4405946,2.5440154,1.4594623,0.700588,0.9037652,-0.2160974,0.27347192,-1.4366236,2.067838
<http://trqypNbFkUWzJLuRX.org/a>,1.3168023,0.643915,0.6463529,-1.4279581,3.0555253,-2.305878,-1.7243403,0.57747334,-0.3835785,1.0641694,2.5310037,-3.1666088,-0.7981674,-0.23564896,2.3681207,0.24166834,1.2751573,-0.28536513,0.9522568,3.305617,-2.0045602,-1.9031464,2.0342512,1.6062597,4.5078025,1.5696886,0.963858,-0.21953896,-2.3996763,-1.7552762,-3.0827734,3.1833043
<http://ngJqCwcySnoGxbKA.org/BEqyvxkAJeqhzpg>,3.0966153,0.468109,1.7862486,-1.198969,-0.4977939,-3.1016393,-2.438441,-2.1755803,-0.32945532,3.0657532,0.3861658,-0.4780891,-1.7375785,-1.3503307,2.123968,-1.1781698,-2.6639786,0.8458179,-0.147441,1.2644153,0.117786184,-1.1110109,0.15365459,2.7333727,-0.85251,3.5085292,0.70399547,-3.140552,0.51273924,-2.8105862,2.7842171,2.0496294
<http://BbUtBBoVgOTNDxFIB.org/nBlyhudQKHhFIIvVr>,-0.8580784,-0.7761317,-2.5968938,-1.8512079,-1.3034213,1.5713204,1.6701065,-4.61072,1.397699,0.12778279,-0.31645808,0.09810085,2.4691498,1.4777513,0.15353082,1.4430176,1.1448653,-0.83369404,-1.3361502,-1.3044279,3.1115682,-2.6625302,1.666018,-2.0300822,-2.9890091,-0.92891,0.15443818,2.5210366,-0.99822575,3.2099483,-2.8601062,1.418603
<http://GKHDluGuwukbNz.org/HcaSinJEFrqzWzgQ>,1.8844582,0.4930983,0.8340308,-1.791925,0.25907528,-2.7637439,0.23007126,3.2737155,1.1161681,-1.3578457,1.7499456,-0.22048646,0.27170324,0.5665493,3.1629949,1.4407034,0.22768365,-0.4452296,-1.1211416,-1.7913002,0.82137245,-2.2699962,0.41217253,-2.2935214,-1.0007136,3.379483,3.566763,0.039262403,2.5767176,-0.9115726,-1.3897933,0.006386948
<http://GozrEHmtwmioULkjGr.org/IpEm>,-1.7337183,-1.9564255,-0.19543405,0.0019163525,-0.13229716,-0.74061936,1.2042375,-0.56831163,-0.46591753,2.0032547,-0.23348266,0.71222,1.2232178,1.741555,0.15467212,-0.14765131,1.4470036,1.003255,0.73428416,-1.0925437,1.3764514,1.9449066,-1.2426286,2.4259882,1.522716,-1.5226194,-1.9207616,0.087639734,2.5698154,-1.5835326,0.9459711,0.6805177
<http://JnepdbDxjQeXp.org/iTmwgCG>,-3.6412234,-0.92759174,-2.0038884,-0.809152,5.3643546,0.83871955,1.9022563,-0.8510116,0.24660313,1.9264098,0.49242756,1.2739023,0.4042458,-0.044101257,-2.6517048,1.1435553,2.94189,-0.39027992,-1.3910638,2.9732509,2.5443318,1.6462549,2.4601219,-1.7975008,1.4027065,1.781465,-1.0194261,-2.8893616,-1.8825339,-2.8665874,-3.5120504,-0.29483116
<http://gBPvRgyknG.org/hzvUboHamZ>,0.74406075,-0.4630096,-2.8255782,0.11079429,-0.8935304,2.6596847,-1.2865492,-0.9503795,1.7210572,-2.196078,-2.2069142,-1.2730223,-0.81867534,0.27445018,1.6818975,1.1965537,0.28731045,-2.9227638,1.1056684,2.1418173,0.06860906,-0.25695798,1.8248949,-1.847353,0.2727448,0.6001525,0.050522644,1.0641947,-0.3796221,0.9073667,1.9114507,-3.6251202
<http://WUvSLHSflYNcpDSH.org/ZnoWomTSr>,-1.3395127,-1.2555478,1.5165473,0.80237156,0.046485715,-1.8402901,2.0128577,-1.0186436,0.4244701,2.7253325,0.68565166,-3.4586961,-1.505669,1.9614592,-0.81962895,0.34730086,-1.4643807,-0.969307,0.28198949,1.4314151,-0.91664386,-2.003179,-1.3823962,0.48796636,-0.68227375,-0.41537234,1.790177,0.31702906,-1.5059897,-1.6529791,1.7728195,-1.4670693
<http://NfzqQfhU.org/L>,-0.43478617,0.30722013,-0.08425563,-1.8025879,-2.5419483,1.6892629,1.4269106,3.043764,-0.64830405,1.2824317,0.47072804,-0.35779706,1.0063413,1.8845874,2.3198864,-0.94274473,-2.2614427,-1.3673251,-0.7983148,1.4223257,1.8891685,1.9519243,-1.363502,-0.5362546,-0.59121174,0.026325747,-1.0510012,1.7033067,1.529401,1.0365984,-0.5112662,-0.25891957
<http://NyOHXjRCoc.org/fjnCWbPAXMTBb>,3.3379135,2.1703117,-0.12536348,-0.6695879,1.8868294,-1.2463605,-1.3370082,-0.5820824,-3.4803529,-0.1267487,1.6641175,-0.76911384,0.15269805,-0.7315563,-2.922766,0.37774622,-3.1087263,-3.2609048,-0.30480275,1.4888265,0.430075,-1.1088207,-0.4474392,4.2066503,1.3427294,-2.4225206,-1.9649355,-1.0979867,-0.5129624,-2.471227,2.466963,0.9095172
<http://ipvxxrpmgIBlnHxF.org/dcWfDz>,2.1988273,-3.5269887,-3.7460036,-2.5385997,-2.1743267,2.617002,0.47240877,2.5366023,0.0025138347,0.14032327,-2.4384842,-1.864483,1.9778808,2.2716687,1.2761232,2.19885,-2.4021244,-2.8046758,-2.5157065,0.45847243,1.4616235,0.15197416,-0.0505559,-2.3886123,3.4646525,-1.4967735,-1.3363667,1.9738113,-3.3677008,1.2254194,-1.8359854,2.6147444
<http://VxrQPVOrtMvo.org/CVDI>,0.67832243,-1.0587736,0.68274546,-1.4074252,1.6284388,0.49102384,-2.7448418,0.5637924,0.80775154,-1.6290144,0.06900537,-1.0141041,-3.5070565,1.1304537,0.22714078,2.5396564,2.5283723,0.24090676,0.17139176,-1.479181,0.73564553,1.6541882,0.92556006,2.481544,1.228429,0.32151592,0.66091585,-0.5576472,-2.347806,-0.38864502,2.1039402,-0.5376623
<http://tBrRu.org/zbXjVzaXl>,0.4366615,0.9074061,-0.03937766,0.9664486,0.90853095,-1.0491004,2.2727206,-0.8053003,-0.8710714,-0.9646346,2.7545009,-2.8145,0.04508566,-0.26986325,-2.848446,-0.15027262,-0.96652496,-0.31510445,-3.5661502,-2.1123805,-2.0952902,1.2926012,-1.3700894,-0.92335194,0.36266875,-1.4281551,-1.348886,0.3638578,-0.73816633,0.9205962,-0.055671148,-0.4317945
<http://fWSnYojLASMngUwRtD.org/wZb>,1.8017123,0.29210573,0.9023475,-1.4973438,1.9955931,-3.582031,1.3154979,-1.3251808,1.5004735,1.045705,1.7680936,1.6178328,0.35278752,0.8570085,1.3136667,1.7285247,0.17493646,-2.3160596,-1.4936446,-1.4317173,-0.19366407,-2.9789097,-1.7013813,2.756007,2.9582334,-0.76766616,0.96520877,-0.5747622,-3.1582055,2.314825,-0.48026565,-1.2022473
<http://CQCNgUXCSkrcEVIC.org/OwYSnl>,1.6766293,2.187477,-3.5175993,0.55045974,2.533366,0.32202202,-2.592433,-0.65631485,1.32757,0.20411856,-3.3165405,0.20386273,-0.58581495,0.53694475,1.012194,-0.35215607,-3.300296,0.15299878,2.7304323,-0.06629211,2.7751753,-1.4542946,-1.5496658,-1.7570847,5.522592,1.2128612,-0.33738357,0.28553504,1.15774,-0.92974925,-0.39261055,2.6520982
<http://VsjdfFBRXyf.org/yUqeWzBELrrumvMcsDR>,-3.3412974,0.94532114,2.8573341,1.4172533,0.21021478,-0.4768858,-0.1523167,1.2253407,4.825757,-1.7173264,3.3151464,1.3494116,-0.096347034,-0.9458074,1.4199766,0.723642,1.4490689,2.1777754,2.8467026,3.0230489,0.55973,0.7093839,-0.19994392,2.3497894,-1.388105,-1.2345072,2.757183,1.5088762,-1.8724016,-1.1046796,-2.8826082,2.6158657
<http://QhFfoxRNf.org/lRhDVj>,-3.6258562,-1.6445686,2.0417578,0.36784026,0.46240982,1.2780528,-0.9197954,1.011297,-3.1952446,0.6426874,-2.8989909,-1.2616946,-0.06646922,0.6335106,-0.5557457,-0.579826,-2.1013649,2.5826144,-2.369402,-0.19246426,2.5970173,-1.1539812,2.7778518,3.019835,1.458724,1.9539082,1.9387152,-1.4784328,2.6404285,0.22804837,1.6677885,-1.1543553
<http://UIeKY.org/OolLhYOfRIJdminobx>,-0.6218177,0.107739925,1.15149,-0.045945197,2.0813684,1.4548147,0.08483258,-1.1048626,0.07762442,-2.5756314,-1.8786103,1.8167143,1.1363021,-0.17717578,1.508843,1.4766282,-0.8974764,-0.6416428,-1.8859198,-3.3919559,1.6809397,1.7511545,0.6966203,-0.013205082,-2.3332403,-3.9384618,-2.6848347,2.3691318,-0.38034612,-2.036978,-1.5252885,0.49263117
<http://rssetnAvztmTgDSWru.org/UCEUKpUQdBTlsYYFFyP>,-0.9114078,-1.4944128,0.5276066,0.89094824,0.58974135,0.67423755,0.70881414,-1.6029555,1.7912872,-0.8334853,2.2856066,0.099349864,2.0982187,-2.0579896,1.868417,-0.5608131,-1.0303893,1.1149168,0.5926981,0.5016455,-2.006918,0.16154571,-3.264981,0.508264,-0.81359494,1.1033456,-0.51642704,-0.763707,-1.9540054,-0.39895204,-1.0217295,1.9259336
