,0,1,2,3,4,5,6,7,8,9,10,11,12,13,14,15,16,17,18,19,20,21,22,23,24,25,26,27,28,29,30,31
<http://linkedgeodata.org/ontology/nuclear_explosion%3Abody_wave_magnitude>,2.0678668,-1.9003991,-3.997827,3.797805,-3.6696615,-2.9549928,2.9961963,-1.7346582,-2.4810462,1.8174856,-3.0247524,3.3926985,-1.6318259,2.0344217,-3.5533357,0.20406489,4.536204,-1.5392988,-4.042994,-1.259639,0.5979304,-2.561934,3.5841506,-3.128679,-2.384887,1.9914219,0.6953922,2.376772,-1.3652459,-4.669314,3.5981305,3.4605796
<http://www.w3.org/1999/02/22-rdf-syntax-ns#type>,1.989903,3.7520366,3.3071542,-1.4829212,4.1830044,2.0991685,-2.1312833,-3.2536552,-4.41408,2.284089,-2.4566863,3.865273,-1.9415716,-1.9876986,4.0004106,-3.378069,-2.8221219,-3.696275,1.8710995,-3.7961392,-2.809991,-3.6930299,-3.4031458,3.7324014,3.2322874,-4.503988,-3.38692,-2.8158538,2.549497,-4.316485,3.500968,-3.115811
<http://linkedgeodata.org/ontology/nuclear_explosion%3Aground_zero_altitude>,-0.2724588,1.2624716,-4.3278327,-1.5900879,0.9557617,2.4578583,3.1866438,0.2829712,2.5992305,-3.6169522,2.8241186,0.09740953,1.3096869,-1.9653019,0.90597934,1.7047895,1.5178651,0.6120108,-5.320866,-1.2347503,6.1449428,4.05414,-1.1329956,-2.37126,4.9132075,1.4787576,-0.5024487,-1.6750622,3.2880402,-3.5526457,-1.7602036,-3.6625628
<http://linkedgeodata.org/ontology/nuclear_explosion%3Asite>,-3.329759,-2.3111353,-4.752137,-3.3380148,3.2579336,-2.4227185,-2.596007,3.390877,-1.5749776,-4.0142255,3.010034,2.224246,3.6092126,-2.7601533,3.780224,3.436631,4.321191,-3.0909555,-2.8140771,3.5084713,-2.8446393,-4.968365,-4.3036227,2.7377279,3.7579374,-4.2384896,2.38728,-4.0242605,-2.8191922,2.5199254,-1.7418063,3.779645
<http://linkedgeodata.org/ontology/nuclear_explosion%3Atype>,-3.7059147,4.31364,-4.237362,3.3324544,3.0253484,-3.0305216,3.5488508,-2.6603987,2.7279732,2.7816372,-2.381327,-3.1057048,3.971907,3.3504019,3.715037,-2.2552757,-4.024991,3.0886877,2.9565117,3.4810405,-2.0564249,1.9052407,2.6848018,3.0616453,-2.9271684,2.5333512,3.1897795,1.4256549,2.894018,2.4823625,-3.045024,-2.847504
<http://linkedgeodata.org/ontology/nuclear_explosion%3Adate%3Autc>,-2.4056516,4.299875,-2.357357,0.76595056,-2.2514338,-3.4743237,2.7903535,-1.9353014,-0.6395554,-4.0765686,-0.6733127,-1.5539757,2.4307888,-3.7110808,3.090153,3.8320794,-1.145993,2.626619,-3.797318,-0.62492085,2.9733555,-3.4371073,-2.790048,2.5698926,2.7560875,-2.5307686,1.688378,0.18875077,2.9199457,2.0842314,-1.4285454,2.0717413
<http://linkedgeodata.org/ontology/nuclear_explosion%3Acountry>,3.2153935,4.155033,3.0106385,-2.277299,-3.8908114,-3.293322,-2.474692,-2.1775613,2.3710186,2.9103754,3.1349218,5.534039,-2.7053697,-3.989569,4.453464,3.7946863,-1.9721824,-4.0175447,-3.8055134,-4.2332664,-2.6447508,2.5380619,-2.8714633,2.7343957,4.111575,-3.8712454,4.063454,-3.4674664,3.165977,3.531443,-2.9499865,-1.8675851
<http://linkedgeodata.org/ontology/version>,-0.058974147,2.3628578,-0.45511365,-3.5202537,3.1243615,4.438752,3.273486,-1.2492517,-0.95312446,-4.059683,5.1469383,1.2068818,-1.0123644,0.89635587,-1.1720473,-0.5969833,-2.2545235,1.6719719,-6.2423353,2.648587,6.223189,4.695922,0.5779628,1.3339497,6.644898,-0.34763163,0.5088917,-3.4181309,-0.28752208,-1.5649506,0.9999913,-3.6714134
<http://linkedgeodata.org/ontology/nuclear_explosion%3Ashot_name%3Aen>,1.5540545,1.9956613,-4.818008,-0.77346003,2.7559083,-1.7656332,4.0048404,0.1015824,-1.4193032,-2.6728623,3.6260114,1.0492411,1.6212213,-4.4324036,-0.018477459,0.09634123,1.3586959,1.3695831,-5.1339593,-0.5691593,5.2676387,3.5654838,1.1644499,-2.5872142,3.9469001,0.6578715,-1.1324024,-0.17683682,2.438803,-3.3991375,-1.830763,-1.124676
<http://www.w3.org/2003/01/geo/wgs84_pos#lat>,-3.4981875,-0.689193,2.306636,-4.076328,-3.522066,-1.6553807,-1.9866219,-1.2601391,-0.44413528,-2.4944108,3.243249,2.6504421,0.7577179,-0.95369226,-3.2656431,0.18986008,2.6036716,-2.6038842,-2.1587036,-1.4235867,4.25201,-3.9630234,-2.7015839,-1.9204211,2.5549164,-4.23959,0.8778164,-0.8556882,-1.8625438,-1.5232241,-1.0421387,5.2104263
<http://linkedgeodata.org/ontology/nuclear_explosion%3Ayield>,0.71016896,-2.157983,-2.5738719,2.7050395,-0.28774953,-3.4563875,-3.4198003,-1.558393,0.80627674,0.40309885,-1.2072619,-1.7294468,0.64567393,3.835967,-3.2082849,-3.6441479,-0.6284915,-2.5678673,-0.10284183,-1.9296104,0.61615866,-3.7879,2.0173528,3.0518289,-1.5256948,-3.7847297,3.6658165,4.912626,3.100395,2.4961092,-1.3065771,4.5527444
<http://linkedgeodata.org/ontology/gadmSameAs>,-2.969805,2.8295994,0.85430616,-2.8208745,-3.3261602,3.3125331,1.4988437,-1.9536152,2.7055495,-2.1356988,-1.0282463,0.96863574,2.608008,-3.613157,-1.3357183,0.3168425,4.3860664,-1.8632835,1.6639595,2.3204849,-0.8730894,-3.122727,-1.0328109,2.8113647,4.0390873,-2.4161258,-2.9966512,-0.3065197,-1.1665372,-3.3651245,2.6644,1.2741972
<http://geovocab.org/geometry#geometry>,-2.6985772,1.5942165,-0.75815284,0.5754999,-2.3585835,-0.8646315,3.0207272,3.2281432,-2.4406667,-2.6975987,-0.7727776,3.9194913,2.15928,-0.5886422,2.0079339,3.6096299,2.1890583,-1.6060768,-2.486705,-2.3441007,1.3814173,-3.535857,-0.3888937,1.7309078,-0.6371649,-2.2892284,0.4035045,3.0232193,-0.08801148,-2.1101215,2.429486,3.237728
<http://linkedgeodata.org/ontology/nuclear_explosion%3Aseries>,-4.358827,-1.1263633,2.3286195,-3.4220579,-0.115697876,2.0243711,4.458859,3.115392,-1.5417931,-1.436587,-2.7936392,-2.0557184,-1.6089544,-4.2316375,-3.607264,-1.6684105,-1.9342492,2.0577455,2.1333683,2.3746502,3.3823326,1.9673958,-2.8618793,-2.7327147,-1.9561621,3.918867,-4.904995,-3.0326655,-2.3048065,-4.4688096,3.22496,-2.6001384
<http://purl.org/dc/terms/modified>,-3.6916835,-2.534249,1.8938034,-2.970702,1.7552046,3.0028079,-0.9380179,3.723748,-2.9001982,2.048579,-2.07025,2.933535,2.5107224,2.1834347,3.239297,-0.7241398,-1.9888386,-3.0893025,-1.6866614,-2.147362,-1.1478002,-4.2199397,3.099563,1.3324815,4.1787696,1.3509612,-1.5004495,-2.8188913,2.302477,1.7424008,4.1922674,2.7782743
<http://linkedgeodata.org/ontology/nuclear_explosion%3Atime%3Autc>,-2.5451963,3.3547971,0.76804435,-3.2628465,-3.2581122,1.9132696,3.5832417,4.171878,-1.1520408,-1.1753222,-3.3076506,-2.29798,3.4082131,0.9451156,-3.378622,4.4496074,-0.10765285,-2.9303186,-4.0204268,1.4914649,-0.929377,0.65079015,-2.257486,0.24539489,-1.7297616,-1.969828,0.5186338,3.2225976,-1.9083465,1.7541717,-2.5523372,-1.026064
<http://linkedgeodata.org/ontology/nuclear_explosion%3Ahole>,-2.084555,2.1388028,-4.474844,-2.329388,1.0135494,1.5943505,0.20250799,0.7378088,0.9117937,0.4322845,0.88450015,0.17120594,0.82492733,-5.629444,0.7245361,3.218896,2.5278618,2.2241447,-2.9562142,-0.3815935,5.819328,4.504814,2.7752268,-1.5619351,2.5231102,-0.05589484,-2.2290292,1.4152493,1.9149439,-3.468917,-0.8580689,-1.9534445
<http://www.w3.org/2000/01/rdf-schema#label>,1.5134842,1.9059557,-4.743493,-0.66907066,2.522684,-1.8327906,4.1337023,-0.012779265,-1.2890593,-2.960364,3.6763093,0.9831259,1.6094596,-4.435669,0.07589269,0.42835906,1.4194291,1.4261605,-4.9851685,-0.5614604,5.1759763,3.5573475,1.2366762,-2.5009048,3.9241128,0.8619907,-1.1762441,-0.25350115,2.4546268,-3.1187425,-1.8473057,-1.0756438
<http://linkedgeodata.org/ontology/nuclear_explosion%3Apurpose>,-3.628128,-2.8312414,3.0888836,4.35949,-4.0987024,3.0711286,-3.110697,-3.3452606,-2.936607,-4.6356416,-3.7108932,3.2338943,-1.033874,2.2539806,4.089485,4.5679746,-3.5166109,-2.9192004,1.4661343,3.3040438,-2.7555177,-4.2398047,3.022017,3.2517529,3.4008949,3.2686083,-3.5116804,4.094379,-2.9800305,0.79097426,3.796665,-2.7760084
<http://purl.org/dc/terms/contributor>,-4.389482,-0.63930774,-2.9666743,0.20636222,3.0076034,2.3621643,-2.4518995,-4.2400737,-4.475527,-3.739495,1.7687867,-2.040691,-2.2768164,2.4485285,-1.0635018,-2.6331258,-2.1470628,-4.4825087,-3.087866,1.6050233,4.153295,0.9082155,-0.6845761,-3.346399,-1.9977376,-5.0388846,3.7406642,-2.610201,-2.6634102,-4.428301,2.207949,-1.4163194
<http://linkedgeodata.org/ontology/nuclear_explosion%3Asalvo>,2.0304377,-2.0104733,3.4014356,3.3510466,-3.823681,3.2915144,-1.7874087,-3.4274538,-3.7198896,2.6550288,-2.8281715,3.0901334,-2.7743948,2.0387335,3.6068215,-3.0249178,4.0751324,-4.032893,3.2711964,3.3392682,-3.0821576,4.5453887,-1.7423148,-3.4956744,-3.1109736,-4.294087,2.9128973,-3.3083448,4.828305,2.1228647,3.4776185,3.6505063
<http://www.w3.org/2003/01/geo/wgs84_pos#long>,2.4323454,2.925452,-2.1772757,-2.8774564,1.9022418,-1.1413453,3.4967957,-1.1858267,3.5707874,1.1437049,4.082634,2.476451,1.5221132,-2.929286,2.6756973,3.147942,3.410344,-3.0083296,0.16847262,-2.7102146,2.3103743,-3.7532322,1.0213511,-2.6496255,2.5217552,-1.9286647,1.2510201,3.0669675,-0.71493196,-1.7195283,3.0292585,4.363375
<http://linkedgeodata.org/ontology/changeset>,0.66991717,-2.1339896,2.7032607,-3.855373,2.140688,3.772324,-2.4293735,3.7504501,2.8494368,0.85133314,-4.2815337,1.1646296,-2.1507463,-1.5064268,3.4997451,-0.85909194,-2.257179,1.1914828,1.182624,3.1248791,-1.8357109,-4.6816416,-1.8688803,-3.0779765,-1.5904711,-4.652025,2.421906,-3.5067132,3.4124732,0.68845046,-4.3192306,3.8342676
<http://linkedgeodata.org/ontology/ruins>,-3.6201751,2.729108,-2.9940882,0.23494169,4.5015535,1.4560344,-2.4988651,0.27455688,1.9069571,1.9677008,-2.2914546,-1.1186163,2.4662712,0.76411396,2.9935205,0.43088838,4.1549006,1.1820397,1.399886,0.46258554,-3.0901508,4.7893863,-5.2304697,-3.438841,-3.4188738,1.0543811,-2.6557927,-4.9211164,-1.1626383,0.90004534,4.080081,-1.9116869
<http://linkedgeodata.org/ontology/ortenau_bunkermap>,3.91931,4.653343,0.58131295,1.6844403,-4.0305643,1.4189396,-2.2651706,-0.010492464,-1.4179946,0.52503127,5.5130553,0.9756411,2.246765,1.4065174,1.0867535,1.147232,-2.8163638,-3.3146815,4.5271664,1.4466163,-2.9047208,-3.788308,-3.3450336,-1.935906,4.1070323,-3.4627085,2.0045474,0.476878,-0.17328545,1.3215476,1.6911838,-2.5425682
<http://DfDVvGeSSBAEjMSq.org/fuZxgKf>,1.228604,0.66398144,-1.9855165,-0.9724316,3.9217787,2.851887,-1.1417793,1.6767247,2.9321158,-1.5713552,-2.6373308,-2.4007993,0.07712416,-2.49459,-1.530816,-3.6953204,0.27547896,-1.1094441,-1.6403766,-2.6196454,-2.472808,-1.6657268,-2.354437,0.34720927,3.3183007,-2.5748975,2.7600358,2.683026,-0.65428734,-1.5413013,3.235603,-0.6142843
<http://w.org/wnpbknLQfHJvzio>,-1.7020808,0.055740535,-3.7857378,0.8484303,-0.64971805,-2.9090557,3.9627614,-0.7326291,0.31868497,1.8168592,-3.5455234,-0.7739765,-1.2170243,-1.5843805,-1.7543615,-1.780932,1.465513,-0.8932791,2.7491539,-2.317049,-2.6294937,-1.8148782,-1.0792952,-1.3769135,1.8504622,0.8756702,3.4092126,1.8439488,0.27415666,1.6995554,0.9716647,0.35057154
<http://qLSSw.org/tLiCvuwK>,-0.52628636,-0.39389458,1.1395624,3.3779378,-1.6436377,-0.10837907,0.9296418,-0.10201363,-0.50093096,-0.17125803,-0.18985043,4.686634,-1.991229,0.8947733,1.8872861,-0.69870543,1.0967778,3.2525756,-2.0917094,4.202684,-0.22681859,1.2219331,-2.5952911,-1.3596277,-3.164546,2.00921,-3.032401,1.819164,-2.0939746,-2.289929,-2.285248,4.0422163
<http://sIknDRoJT.org/dSmSoXIr>,-3.812349,-3.0341258,0.70248723,-1.868884,-1.8654124,0.82091427,-3.1341226,2.959749,-3.6147857,-0.013509713,-0.25606743,1.7162793,-2.655727,0.789997,-2.552055,-0.155135,-3.7548761,3.7469318,0.44738194,1.9020373,2.0895693,-0.627828,-0.6733762,0.08049832,0.62002796,2.796633,1.7712874,0.76202965,-0.9759796,-3.22269,-3.0757115,2.394452
<http://.org/>,-3.4089832,-1.8308865,-2.5726454,3.423675,-0.8080057,0.9199625,1.9537904,4.4785795,-0.3320822,2.0319383,3.279592,2.4844873,-1.461688,0.55260134,-1.0051978,-2.8763273,1.1682822,-1.6881125,-1.2370709,-1.9733574,2.4382243,2.9850883,2.561976,-0.26939532,1.454989,1.299268,0.9065009,2.6986122,-2.0353296,1.7656344,-4.2952666,1.3418949
<http://uISKQLYislwMFGveKan.org/FZVlhe>,-3.0919685,-2.9076219,-1.3078219,-1.3261244,-2.74331,0.81206775,0.27789325,-1.4232632,0.11875101,-2.0115807,0.25527155,-0.39377162,-1.4119846,-3.9918697,-0.62004036,-2.1586905,-2.2815924,-5.3965282,-0.14643899,1.6475447,-0.4927496,1.6732817,-0.4429741,0.86980784,-2.398822,-0.18066226,-2.421051,-0.10209855,1.7431908,-1.9069752,-0.5245387,0.66453964
<http://CPFqhPK.org/FOJdw>,3.6708658,-2.5081058,0.2958657,-1.6726443,4.9428854,0.5757213,-3.1285665,0.08880499,-4.3076096,1.0189548,0.69754714,-2.9509048,2.4520047,-1.871425,1.345337,-0.7852107,0.25469482,3.9203448,1.912622,4.6004305,1.6650698,-2.3963425,1.6964159,1.5344417,0.6981204,-2.7624085,-0.95374566,-0.9063687,-2.4427948,-0.19457106,2.9539993,0.35411346
<http://linkedgeodata.org/ontology/nuclear_explosion%3Adevice>,-5.0976825,-0.5069919,-4.023869,-1.7292697,1.4080899,-1.5533596,-1.5537243,3.4030092,3.743172,-5.082392,1.1637064,-0.44902006,-1.8286281,-0.45195353,0.47354662,3.9308736,0.5715328,0.47876495,-1.8448296,-3.7139494,3.7194805,-6.076229,3.1932716,-2.274438,-0.78414434,-2.2962945,3.0430417,1.3900447,1.835205,2.512218,-0.8710519,1.865646
<http://linkedgeodata.org/ontology/nuclear_explosion%3Aheight_of_burst>,-0.15871397,1.9522393,-3.8835354,-1.1899225,1.7831147,2.0095484,4.37711,1.5003008,1.816721,-4.035244,3.8199234,1.8053925,0.7547592,0.32142082,0.02368866,1.2920841,1.209038,1.7318823,-3.9055822,1.5971458,5.6510696,2.3046415,-0.028063174,-1.9876295,4.4662557,1.7982392,-2.2840796,-1.7464179,1.0216386,-3.3461068,1.4932181,-2.93205
<http://drMZvoXdDvYpa.org/LBnrCzhZ>,-2.288592,-1.3687533,0.14155813,-2.4635606,1.3399326,0.89613736,-2.3037844,-0.9861526,-0.9445671,-1.6696538,1.943468,1.2901607,1.731311,-4.02131,0.83012956,-2.039682,-0.11899231,-1.6651013,-1.729428,5.6317086,-2.640686,0.035835013,0.09265067,-2.2382503,0.33071822,1.3758693,-0.18716419,0.8782764,2.411991,0.47931343,2.35913,0.0035223076
<http://.org/OpViCWDAvF>,2.1219347,-0.053411566,1.001091,-0.29177648,-0.5666436,0.3172168,-2.2610865,1.0575085,-4.3677945,2.0128326,4.1517587,3.167556,-2.9803743,-0.9212752,5.77508,-4.737935,-0.07713283,4.6132016,2.0395517,0.87485766,-3.7989364,2.1999989,-2.3701277,-3.5013335,0.7648286,1.8374491,0.3122764,0.93425566,2.6137466,0.198413,-1.3775866,-2.4978971
<http://zHTt.org/RwZjNBYwJELXWSFcBH>,1.6757468,0.9986339,-1.2328649,-4.9795523,0.08934914,-3.9728699,-1.5055199,3.6655533,-4.7842135,4.952625,0.7921782,0.8316957,-0.8270787,1.6377795,2.5619674,0.55841106,2.844771,-0.18184283,-0.09637245,-0.07146549,-2.8141456,-1.0050863,1.2620835,-0.66376233,-3.9396071,0.88862413,0.8882963,-0.6221824,1.0854332,2.416318,-2.4650557,0.878146
<http://qEQ.org/gSbuQ>,0.91868967,-1.9614328,2.642262,2.756814,0.7314745,0.31677988,-0.7510456,-3.6849005,1.9007813,0.79236805,-3.2393622,-4.3882027,2.7833602,-3.2726016,2.6452968,-0.6270619,4.0339904,1.7460444,-1.7611488,-0.33524972,-2.614948,4.1925397,1.2860049,-1.3675506,2.237423,1.0102321,0.5147712,-3.8082507,-0.96684366,-3.541508,3.1271992,-2.6290164
<http://linkedgeodata.org/ontology/nuclear_explosion%3Acrater_diameter>,-1.0779384,1.7837217,-5.885394,-0.28085336,3.1120224,-0.017105715,3.595401,0.82846075,0.55330646,-2.4096313,1.505488,1.7666693,1.1879904,-0.49584994,-1.3420525,0.27491114,2.6333349,2.3117907,-4.0349755,0.46341845,4.453893,3.9838145,3.2343829,-1.5439607,4.082672,-0.8144559,-0.457139,-1.719263,0.3830058,-3.6223416,-1.1800907,-3.3130703
<http://UeLldRiJQWByYWnJo.org/zPmxkzlVQGkcy>,1.8027287,0.5356446,-1.5272005,1.403378,1.3567868,-0.7936972,-1.2501138,-2.0856605,-1.017804,2.4682982,-1.3694882,-2.4748178,-2.7188022,3.0973973,-2.8606741,4.0846148,-1.076384,-2.4843876,-5.5155306,-2.1224325,-0.27170613,-1.2696551,-0.44388705,-0.54368377,-1.3109283,1.7008573,-0.3603878,3.4218385,-0.5812898,0.64135927,2.1244314,-2.1402216
<http://GLlcp.org/wPUmqO>,-0.8415277,3.453314,-2.6068306,2.037681,0.14909463,-3.0441844,-2.7236726,-4.2039523,1.1634219,2.8619921,0.026604759,1.0901332,0.49899814,3.450575,-0.21770631,2.3817239,-3.5598726,-2.8151276,-2.5241833,-2.4557455,-0.14917211,1.0834798,2.3009515,0.5874346,-2.6665041,-0.312801,-3.048877,-0.46434584,-1.2675866,-2.1702414,-0.36262527,3.9567342
<http://emkDMMOtLq.org/AMuiRv>,-2.2666528,0.6260715,-0.21817791,-1.6552688,-0.9703157,3.8380358,3.638202,-0.68738884,-4.641779,-0.030509923,0.97772187,-1.4000934,-0.48823893,0.808836,1.7629564,2.844372,0.6944016,3.2844312,1.0397904,-2.1250694,0.59741455,-1.3882673,-0.062509775,0.9169743,1.4692051,-3.23302,3.284701,-2.471911,3.3855011,-3.746486,1.689321,2.6846533
<http://aqxK.org/ljBV>,-1.1836951,-0.3610145,-3.3861418,-0.8758047,-3.197421,1.9163439,-2.8096244,-2.1692872,0.86754483,1.3049941,-2.668822,3.5384686,2.6333249,-0.21675779,4.937227,0.8126682,3.994813,-1.0151628,-1.6106137,2.6468174,-0.26562214,1.1337687,1.3923113,-0.99824685,2.0283184,2.1234803,-0.86611915,-2.5210545,-2.106263,1.4825462,0.79179066,1.3348513
<http://gtlNIAMNjBzeFoXj.org/gUcEkntCbNiyLY>,3.3339806,0.6551161,-3.8212721,-1.603752,2.2919307,2.0666876,-2.95297,-3.4395866,-2.1686254,1.6581336,-2.3836455,-0.46985957,0.13075145,0.37209505,1.8141048,0.88632727,2.6821504,3.7022882,4.431487,-1.8784822,2.5839422,-1.9219681,-2.633261,-2.7658105,-1.5704517,0.34976834,-2.7605038,-1.6574056,-0.6499131,1.0282712,1.6284722,1.4692262
<http://KaF.org/qDSkykOoM>,0.7641356,-0.8797279,0.9236659,-2.1326988,-0.75555676,0.7393463,-0.6383699,-0.4627691,1.9317006,2.3718827,0.81770205,-3.0754905,1.3246163,-4.2553325,-0.82011473,-1.0408416,-1.8729799,-2.3695378,2.9993186,-3.0457067,-2.3269606,-0.63951427,-2.2578876,2.427687,-1.5137143,0.6597633,3.6876519,0.098330334,0.9732637,3.1724517,-0.030347457,4.7875676
<http://linkedgeodata.org/ontology/nuclear_explosion%3Awarhead>,0.010832567,-0.37284777,-4.6973186,-2.175398,-0.1397516,2.7923481,3.1202967,4.268148,-3.1940863,1.8035357,1.3802308,0.1696464,-0.5612086,-1.4268715,3.511033,1.4340563,-0.86605793,2.980025,0.55031264,-1.9524775,0.020547932,-2.8199368,0.26253873,1.8659893,3.02482,-4.162837,-3.835537,3.6430385,-2.813809,-4.830263,-2.8700976,4.267315
<http://uMaWwtYs.org/noOZndmMoYkAyMcs>,-0.19581267,-0.10833159,-0.8116612,-2.0405364,-2.377806,-2.8375084,-2.6509194,3.4841616,-0.09617213,-0.79804075,3.1945658,2.38946,-1.0157199,-3.439649,2.6293354,-2.1136694,-1.4562992,-4.1837234,-1.2705761,-1.5173104,-1.1835145,0.6188532,2.7924602,1.9826437,3.6781168,-2.429723,2.5501792,-1.9141525,0.960579,-1.7579652,-1.5731882,1.3312702
<http://YVHRgeFWscK.org/mz>,-2.3530226,-1.0120888,1.2320466,-1.475073,4.3089094,1.563379,-0.26938102,-0.6171084,1.589251,3.6132295,-1.4799025,-2.3897173,0.00054433354,1.4094421,-1.6968783,3.3321636,-0.5006503,0.66136765,-1.9056047,-3.8289866,0.37842798,1.2484239,-2.3697257,-0.04125184,-1.8676332,1.0166558,1.674927,1.1775655,3.153373,0.87844604,-2.2986834,2.2828865
<http://IL.org/ZRfEeP>,1.4650924,2.3336468,-0.085767314,-0.9462499,-2.9142861,4.3490753,-2.8202333,3.7332015,-2.9644752,-0.35778934,4.555503,-0.42498708,1.7158742,-0.58908325,1.3086426,0.8863864,4.4432864,-1.0229235,-2.6832178,1.7618845,-2.2190075,-0.14806631,2.7873473,-2.180377,-0.8499445,-0.33998197,3.6290128,3.61198,-1.0271292,1.8014144,2.0613492,-1.5851986
<http://IRXCEZle.org/QJlSWsqQVblVir>,1.6615896,-3.7440326,0.06893665,2.6812627,-0.9848714,-0.26814583,3.3543017,1.1497197,-2.5639281,-5.0404525,-1.4649836,1.0867113,-1.5531489,-0.4775011,-3.4821181,-0.22305483,-1.7333163,0.39697695,-2.4089553,1.6830928,-3.2937179,-2.2014916,5.270773,-2.4689205,-0.22877294,0.23076059,1.6938286,-2.032622,-1.3991315,-1.8365114,2.29793,1.7016505
<http://RtgTvlAJVibUp.org/yXMmTGGOcHTpq>,-2.2532096,0.15002486,-0.4780623,-1.0369241,3.4028974,1.345844,-2.036555,-0.027385259,0.85331374,-3.0680773,-2.2863648,-0.32956707,3.795555,-0.8246284,2.8209026,1.1409384,-1.9718302,3.1220016,-0.016073719,1.7842497,0.9934299,-0.36977,-5.4123673,-3.7644846,-0.50791913,2.4357166,-1.610207,-1.7005197,-1.2134074,-2.8837433,3.2889993,-0.08699268
<http://PtaKaQ.org/n>,-1.1178132,-0.1726744,3.7027268,1.1889545,1.9316672,0.7261187,-1.9880706,-0.069215246,2.501447,1.7602311,-1.0652024,0.035131518,0.13314207,-2.6807919,-3.0097642,0.9708189,-2.6904726,1.5254902,2.122546,-2.9486804,0.025372768,3.1179924,1.976084,1.0609506,-0.95688105,1.5298892,-0.83729565,-3.3946617,1.4360511,1.082227,-2.892914,2.7860131
<http://plHcBsmOrjNGgOfz.org/ZHVAe>,1.7938945,-1.2251852,3.3648384,-1.6504352,-1.3826284,2.137321,0.25060773,-2.7229714,3.0175672,1.1338333,0.029058455,-0.33901858,-2.0772796,0.7410849,-1.1485416,1.230187,-1.7409261,-1.3163142,-3.1074862,-2.681698,-0.6622886,-1.4611305,1.4584975,1.0053421,0.56481206,-0.88942254,1.9343561,-2.655025,1.3839761,0.71934307,-1.9738224,-0.6591768
<http://flCwmZkXapm.org/vMuYRXNYZMw>,-0.12698464,1.3219434,-1.2993191,1.7589691,-1.4512236,2.9351523,-0.64637727,4.4413433,-2.650899,-3.0622973,0.29583168,0.273306,2.1071603,3.5497952,0.88425,-1.5566713,2.9448733,5.5059795,-0.84544456,-0.42688647,0.33419818,-3.2493463,0.44169313,-1.5118405,1.2710747,3.8145964,-2.0928,-0.8614205,-1.8409705,2.4234366,-0.78901184,1.4226254
<http://mgGENeytKBLJdvaQ.org/rI>,-0.64256746,4.666585,-2.0279806,0.7219675,-3.0309331,2.4451404,0.9137515,3.0283942,-2.1500807,0.40734315,-2.2534897,-2.4075503,-1.8619561,1.1347924,4.306686,-2.3834143,1.3071203,2.2809992,-1.706847,-3.5532887,1.6539629,-4.4455233,2.5432062,-4.331573,-0.23914768,-0.7453627,0.08863782,-0.8875393,-1.1706371,0.10032351,0.26442644,0.48320395
<http://pg.org/rTYzkFOvsMoibkS>,1.032669,1.7117143,-2.7284846,-2.0156674,-3.419812,1.3407476,-2.1796794,-0.36274135,-2.9332185,1.467459,-2.5969372,-3.350778,1.0305183,1.8397918,-0.8141481,-2.8103566,2.0420616,1.1444334,1.8836385,0.5598458,1.9542856,-3.2127118,1.6478882,3.4916253,-0.05862099,-0.51004857,2.6140597,3.8531058,3.607731,-4.337249,1.0397016,-2.513877
<http://XVPGfR.org/MeTUyKi>,1.9267501,0.068315245,-1.1136119,0.6732878,0.18459639,-1.7494222,1.0781151,0.20898956,-0.8989173,-0.8183729,0.34745988,-3.803579,-4.4140205,-0.25081688,1.8685496,1.5725588,-1.1024588,3.5885901,1.9743934,1.2110051,0.3256997,3.4090688,0.63444334,-0.73781615,-2.7233603,0.3403872,-1.9544817,2.6225755,3.7389867,-2.5733519,-3.8184907,5.1134477
<http://xcGovw.org/lZmJGBZuY>,-1.2982202,1.0131178,-2.659897,-1.8925207,0.95324045,1.8566133,-2.4151988,1.6082656,-0.94778734,-1.649275,1.0089343,2.5670514,-0.26477313,-2.8659587,-0.5823728,3.7039888,-3.6539228,5.0310664,-2.2735474,-4.5641937,-1.1320924,-0.6634273,1.0421778,-1.752697,-4.4295216,-1.8346677,-0.13108417,-1.4325905,-0.067498624,2.2770889,0.24419601,-1.781006
<http://linkedgeodata.org/ontology/ref>,1.5940204,2.9534833,-2.9324543,0.06277578,2.2407017,-1.658855,2.6759777,1.9432155,-2.5546236,-0.03496901,0.5215478,-2.4647417,0.96533465,-1.3350391,-0.14797328,2.3425765,3.061221,0.23527254,-3.2391229,-1.6322856,4.9670124,2.564609,2.617756,-3.0703907,4.8856974,0.35284325,-0.090718925,-0.8078555,0.013417224,-1.8356861,0.12628427,-0.9171747
<http://YRvxFtepoUj.org/Sh>,0.69761103,-2.081513,0.17237514,-0.26967546,5.222858,-1.4853222,0.2719557,-0.1033243,0.036145713,-1.8273823,-1.2826252,-2.653681,1.5791538,-0.896256,-1.4824677,2.4859118,2.561532,2.4574702,-2.0253737,-4.7878747,3.877082,2.1889427,1.7880007,0.7710796,-0.58503544,2.0085418,2.2029777,3.6226988,-1.1073139,-0.04211499,-3.0019004,4.3323627
<http://mtgCBinEJhSact.org/onkHlVwxwEcQmmOR>,0.50007594,-1.3096592,-3.3832104,0.18959951,0.42012224,-2.3712983,1.8788238,-2.1298895,-2.5489867,2.9529214,-1.0064421,-0.8513978,-2.0978053,1.9524696,-2.171969,0.3598023,1.643581,3.3126998,-2.9672565,-2.9954083,-1.040284,-0.80555874,1.8165747,-0.38255876,3.3365483,0.37759915,3.5603316,0.61324126,1.0806518,-1.1093502,-0.8136717,0.28272763
<http://ciGupnPM.org/agiFxrEwZEl>,-2.292733,-3.053112,-0.1260249,-3.2478228,-1.7116978,2.5428998,-3.5270386,3.918426,0.022430291,-3.1405053,1.3853049,-3.2268667,-1.7578354,-1.6452066,-0.2812392,0.42421767,2.5998776,0.42381492,1.717277,-5.6206017,0.38307047,-4.4255943,-2.1984394,-2.8446653,-2.9171462,-1.0046638,0.6423392,2.5253196,3.5325098,-1.3175426,1.2512494,0.57959425
<http://linkedgeodata.org/ontology/bunker_type>,2.0516355,-1.3515005,-1.0810977,1.8552928,-1.981124,4.4656096,4.0500693,-4.097038,-2.3912258,-3.222245,0.4673563,-0.7992323,-3.224254,1.918985,-4.270845,0.44076017,2.6758368,1.9981151,2.4198961,2.9935632,-1.893323,-3.9341218,-0.13583246,-4.971694,3.528419,-1.5741217,-1.3118702,-5.576281,-3.9941134,-3.0969853,0.6825138,-1.9154586
<http://xmlns.com/foaf/0.1/homepage>,-4.1521416,2.8398519,2.3540125,-0.77463245,0.00022248084,0.28020048,2.729892,-2.8685846,-2.4641185,1.0503258,4.5645547,-0.07358743,-2.7628496,-2.4574904,-3.3882816,3.8052418,-0.8204387,-3.3769562,-0.5812719,0.040030915,1.4335697,-1.2160044,-0.88543576,2.313936,-0.7835406,-2.171233,-2.0103846,-3.5815794,5.0500164,-3.1896236,0.0015860423,2.410674
<http://linkedgeodata.org/ontology/ref%3Aropiky.net>,2.068894,-3.840593,3.103598,-2.1362684,1.5889683,1.9663955,2.2906764,1.2506051,-4.631408,-5.614409,0.73070884,-2.54935,0.20703673,1.7473321,-1.3974233,3.2465096,0.76206636,1.7842765,-3.2892983,0.032803163,2.9485333,-1.2311947,1.5318022,2.0649464,0.5265408,-3.5535295,-0.74253315,0.12683034,4.0111594,-3.436985,3.40449,0.88480985
<http://linkedgeodata.org/ontology/source>,-0.48586205,1.5087028,-1.9923778,-0.25305772,-3.756441,-1.0117416,-2.7423573,-1.0551203,3.1170948,2.364385,3.6092615,3.9883115,-0.91096014,2.6597004,-2.4419587,-3.113627,-3.418545,-2.4423797,1.7423426,1.5648549,-3.340989,2.6228502,-2.3727121,3.967957,-1.9070243,-2.7916691,-3.038434,-2.6725292,4.0212445,-2.178246,4.297237,-0.8609973
<http://abDIWxhQJ.org/hGYzDCCbExypeDc>,1.2265948,-4.7943506,0.5798902,0.6937132,3.013227,-0.7106405,-0.6776984,-0.47688866,3.7909184,-2.752024,2.8108268,0.96506923,-1.7824966,1.5187284,3.5552766,-3.1676226,0.37228853,-3.2723603,2.2681422,0.61396796,2.4639924,2.2810566,-0.050828714,0.24646474,0.8255331,1.1381391,-0.38323256,-3.4222841,2.4307725,1.9228302,-3.1489763,-1.8136591
<http://ukH.org/FrjWXWerFsveU>,1.7417979,-4.5777497,1.5313088,1.5736803,2.2477784,-1.6891361,-1.2391456,1.788814,4.7544694,0.9869332,-1.3982952,-2.1899004,0.41738883,1.1164801,-1.0000832,1.87254,-4.872266,1.0083392,-0.6211118,-2.9162076,1.8503274,2.579067,2.2284453,2.2079268,-1.4450626,0.91152745,2.167303,-2.272898,-0.8961007,-0.08896204,0.77571034,-0.44871554
<http://kmeCaPyvIKEBgtHlrEY.org/wNMfhtXMKenKTD>,-1.9419738,4.710952,-0.5712469,0.631025,-1.249211,2.890669,2.9928057,1.4704131,0.724227,1.8040495,2.6820369,-1.2794604,-0.46557605,3.1009774,-0.93153435,-0.57291496,-3.03794,-1.0072759,2.3553705,1.8358984,1.2121866,-2.317067,0.56897914,-0.8444676,2.951876,0.35025123,-1.8104695,-2.7146873,-1.210033,2.4647434,-0.08847313,-0.25461292
<http://PAJPLrmjXH.org/JmZTaoHFhOsQvyaGEc>,2.8739557,-0.24471171,-0.5796343,-1.0946177,-2.1154742,2.8023274,-0.039354738,2.122102,-1.668434,1.4098984,2.4762566,0.9979195,3.396002,3.380776,-0.5711443,2.4123292,0.34489945,1.9443971,0.8821207,-2.2142243,2.0453537,-2.3768697,0.12758808,-2.208823,0.7461607,-1.6425893,3.3529508,-1.3119801,2.4745874,-1.3580996,-2.475346,-0.69437087
<http://KalRjE.org/CoaRrojAZjWC>,-2.372719,0.6388676,2.0498965,2.5264559,2.64456,-0.2585377,2.0170486,-0.2154794,3.1454043,0.3875884,1.2878325,-2.2829354,3.1101754,-2.8472323,-5.20222,-2.1431925,-0.68251157,-0.9336131,1.3087931,-1.2444745,0.75206697,-1.1136369,0.30355668,-1.2734848,2.2149885,1.8002326,2.7123628,-0.520012,-2.3416193,-0.84221506,2.194234,-0.17110868
<http://eSpFxpSDB.org/CNtKNarKUlAKeVnfT>,1.5225586,1.6955832,0.29067433,-1.4641049,1.7685454,-2.4201505,-2.4562402,0.7967976,1.631143,3.4084454,0.048309263,1.1051058,2.9820197,1.1338466,1.4672132,-1.2405313,-2.5124037,1.1582078,1.7864089,1.4530425,1.8102791,3.7563617,2.997735,-1.4668547,-1.1449529,-1.4697275,4.1284733,2.5114326,-5.100398,3.4250314,-4.521953,3.894314
<http://PImmuoH.org/Jd>,-1.3946158,1.3425651,-2.8440883,-0.14542,-1.8207113,-0.7310497,3.0844285,2.0742638,-0.6352923,-3.5375564,-3.7705739,-1.448655,2.1373284,0.4445466,-3.3541894,-0.7556496,-2.3867126,-3.6905987,1.7825032,-0.10786956,0.6793189,-1.4428467,3.2066002,-2.514793,1.79551,2.1679614,-2.855546,-1.8354505,1.5466576,-0.61274564,-0.16710863,-0.31395298
<http://KUMPsqIntFf.org/WqkbUJ>,-2.9921043,-0.395485,1.9960835,0.19999592,-1.5831361,-3.5435905,4.030277,-0.3857994,-2.6485796,-0.8424538,-0.43119767,1.0382491,1.2260798,-1.4862065,-0.97876304,0.37954953,2.404107,-0.42378232,-1.1941763,-3.2428107,1.2895796,-1.6464182,0.4958089,2.5039093,3.8900428,5.3982196,-5.354182,-1.3947537,2.5756173,0.14490375,2.5515442,2.2411978
<http://mrZuxKGtD.org/V>,3.279204,2.4514835,-0.9286674,-2.5691943,-0.7441448,1.3127319,1.1881627,-0.2754126,-1.4270589,1.7591516,0.4623941,0.64354366,3.8529804,-1.5791236,3.9790685,0.37641326,-0.94824547,-0.5574098,-0.42594302,-2.9437013,-0.76823366,-4.037707,5.768163,-0.008985568,2.4777787,-0.6574093,-0.5570844,-3.595033,1.4846288,-3.4470377,-1.8370675,-2.6922953
<http://XdsWtzPiqtRtdtBE.org/ff>,0.96900874,2.827637,2.586561,0.25526148,0.7638985,1.31231,2.396871,3.4681427,1.5279529,0.87580425,-1.5130836,2.4012182,1.3611376,3.8209686,-2.132283,-0.9706731,0.30493444,4.393267,-1.6912796,-1.5147256,4.0137415,0.64454496,-0.66264933,-2.7969508,1.5469892,-1.4421543,-2.9659379,0.9170607,1.2950538,-2.2077723,-3.8423848,0.74643487
<http://KZpUStsrJPVVJRoY.org/sMoL>,-3.4700963,3.780707,3.1054654,2.218965,5.0752444,3.2004287,3.1693099,-2.3221128,-2.1706583,0.12416243,1.6343724,2.9767046,-3.651737,2.6720119,1.5111357,3.5280976,-1.720353,1.368824,-2.5763562,-3.653459,-1.3146979,-1.4781307,-1.1789719,-3.1959016,1.5558821,1.1604341,0.3217356,-1.594159,2.6755328,-0.27132678,-4.3480406,-3.1919563
<http://linkedgeodata.org/ontology/disused>,-1.995834,3.4836893,-3.381434,0.66813654,4.625142,2.013876,-2.2577202,1.695792,2.022329,2.285627,-3.2897005,-1.5131823,3.1780283,0.62539464,3.081654,0.046550933,4.6430874,-0.1656677,0.94922394,0.5293548,-2.8970356,4.7580004,-3.60832,-4.5316124,-2.9436977,0.8791698,-2.4181974,-6.0989175,-1.8227643,1.8753165,3.904745,-2.5023274
<http://YXlipmXamL.org/QvzIAUZBczM>,1.4256989,1.641716,-2.0179582,-0.2338685,-1.0066576,3.581215,-4.4726334,-1.0933703,2.6558084,2.2120516,0.055683233,-1.6258652,-5.4321785,-1.4757003,-2.0469086,-0.7468234,-0.8630022,-1.2480621,-0.26514062,2.2828739,-0.0068856217,1.3677726,-0.078729354,0.64225817,-0.49978334,3.9366553,-2.6832702,-1.3972107,2.2568774,1.1576254,-0.13336667,2.584745
<http://dWEmpDtydVgUQsdpp.org/IzNNUjvMeeGXbg>,-0.6311332,2.7961411,-1.7973816,-0.8652948,2.3798678,-4.218994,-2.3042085,-2.257901,-0.6794438,-5.2917066,0.16714306,1.4890956,3.7509255,1.4367406,0.24972628,-3.2047064,-0.48077455,2.7130353,2.0668507,3.1672583,0.88089085,0.68934715,0.4364604,-3.463706,2.214045,-2.3821242,-1.1122594,1.3747466,-5.4170456,1.9711776,-3.3228288,-0.004949657
<http://yj.org/JAcBGnUuLTsIYOcTc>,1.5900059,3.2947261,-0.11590334,1.1511768,1.20158,-2.5346544,-2.7284968,-2.7141821,3.2013323,1.4259042,-0.38717046,-1.9161164,3.552582,1.193105,-2.3362203,-1.7311759,-0.9112152,1.2555968,1.530003,-2.4097042,-1.381367,-1.258308,-2.6841295,-0.46747386,-0.6000434,2.8146932,-0.16994299,1.7107948,-1.7617313,-1.4606014,-1.2298503,-0.44917825
<http://ZKhalwxXZBrE.org/cEYKXQTcVSN>,0.60995775,-0.8001302,-0.017771944,2.5510845,2.7873242,-2.7118723,-2.507393,0.2504523,-4.258425,1.0723269,3.2019076,2.2618082,-1.0112559,0.8977615,0.52994376,1.1802982,-3.1914792,-3.221393,-3.493656,2.236393,1.625158,-1.820403,-0.15307556,-4.665125,-2.0902128,1.2435066,2.401813,2.8965507,1.2666194,4.322901,-2.664739,-0.438866
<http://MsZGUkTdOKkBPl.org/ndGSnPs>,3.6710896,4.989307,-0.2819439,1.8135794,-1.4219093,-0.9580952,1.4183772,1.847914,-1.0786979,-1.847111,3.700258,2.4069743,0.97799265,1.8895998,-1.2116287,-1.1717182,-1.1300826,-0.9315873,-2.7291849,0.82832974,0.044789255,-2.7597327,0.9595579,3.1365542,-0.4211586,-2.4297166,-4.1326528,0.26000783,-1.0024705,2.207459,-1.1667936,-4.438019
<http://qUpRHEJhQmJsrPyzXP.org/XRoIQmFMd>,1.7811372,0.43573934,-0.29183626,2.6177094,1.4948435,-3.284598,-0.47527656,3.2504177,-3.0611813,1.5956092,-0.6035918,0.93450826,-1.5371319,0.95378834,0.43183905,-2.6124878,-2.8312464,-1.7311054,2.4616082,-5.3470016,2.247364,-0.61888343,0.6039593,-2.395106,-0.9994618,-2.7329552,1.5132654,-1.1395608,3.7573931,1.1982208,-3.9039257,-2.270555
<http://onnSye.org/sgxHdQPpiZ>,-0.48919716,-2.4957256,-0.24883349,-1.559742,4.522128,-3.6180656,-0.023528714,5.078443,-1.5106646,3.5197732,0.9074383,0.7315807,1.6729378,2.8648171,-1.6039513,1.2404615,-3.133626,-1.5489395,0.055004034,-3.3802009,1.739818,1.8870982,2.1648104,2.812871,0.6062602,-2.7722344,2.0928812,1.0715628,2.9767952,-0.8382256,-2.9996972,-1.2239445
<http://vDvZfrToljBKwx.org/dSsgysy>,0.59921116,-1.9940128,-0.7181633,-0.38565123,-0.82063127,1.1029006,-1.0959107,-0.5173079,0.17532705,0.6560982,0.014988559,0.5361485,-3.112899,3.5463824,-0.5470109,2.6044858,0.13776183,1.9952884,-4.124622,-3.9288366,-2.1929035,3.714086,0.5500058,2.9458182,-1.2293322,-0.8376056,3.916192,0.7953229,1.5328037,1.2515206,-0.697249,-0.36842975
<http://PxZmjWFJZ.org/BVV>,-2.2810416,1.4430852,-0.21484125,-2.619995,-2.8785343,-1.6579627,2.2565455,0.9679306,4.2171144,-2.1347542,0.08402953,3.1687553,1.631999,-0.91485906,-1.6395433,-0.93764406,1.5340668,2.2671897,2.52475,-2.5999506,1.1407868,0.92169327,-1.7637159,2.7870646,-3.2568252,-1.2492677,-0.40189943,1.0482165,2.043787,1.8041016,-1.7864364,-2.053252
<http://ldlMPE.org/FUeLXzmQCFCFyFosH>,-5.073862,1.8845712,-0.43245173,3.6282077,-1.5950084,-1.008659,-2.1429381,2.3579524,-3.1540892,-3.050161,3.4179983,-0.68825305,-1.3153391,1.6493149,-3.931167,-0.9002192,1.132501,-3.1071017,-1.406074,1.8709887,-1.6951025,1.4249499,0.32913807,-1.1502559,0.5815036,-1.1514869,-2.378311,-1.8525585,4.2296534,-1.4048538,-1.1138048,1.7960846
<http://BNcLPiEQZyFYDrq.org/oRRiHojJqrwNcchOG>,2.082044,-5.1984067,-0.22708413,2.3626208,2.1839955,0.8409093,3.41578,1.5553892,-0.9464682,0.087529816,3.4409416,-1.9400148,-1.4444685,3.8139546,0.5622464,3.9586387,0.26386693,-2.0202603,2.1875372,-0.54619586,3.4207475,-2.8649952,-0.04936455,-1.820472,0.16642211,-3.3235366,2.2621944,-2.3240044,0.07058659,1.5907171,-2.7222362,1.5525051
<http://N.org/FVxbBOQXpMKGCYfIs>,0.09125783,-0.5348246,-0.3202961,2.150758,3.450007,-3.4491513,-0.6470115,-2.2726614,-3.306421,-3.0619884,-0.6581234,1.0763956,-0.9655988,3.953186,1.0244021,2.828552,1.7252777,-0.4704899,-0.19647484,-0.74129045,-0.37303248,-0.5463012,-0.30468816,-2.2168775,-0.39486787,0.64579797,-2.4911773,-3.5674155,3.7022545,0.42264372,1.1206633,-0.42752945
<http://BmPBc.org/WVnuXMfpSXT>,-1.0965124,-2.3518112,-0.2980984,-2.2595358,-1.0374926,-1.7794285,-2.702119,-0.08853896,2.2365274,-1.850674,2.7665606,-1.0220186,-1.1500227,0.19201387,2.0106568,-0.6444272,0.7114557,-2.406264,0.17177254,-1.0817742,4.652325,-3.121719,3.6421435,2.0190544,0.08981156,1.7722068,-3.4257462,3.1231194,-1.1007648,-0.68593574,1.553489,1.2711949
<http://aRyAiEwtKAq.org/>,-0.3398837,0.57834893,3.7336798,-0.9687031,0.2392064,-2.6775243,2.1531453,-0.7380649,-2.5498,-1.1807668,0.45772427,-0.010952984,-4.020939,4.3729987,-3.7236328,-1.5666232,0.5672017,-1.5738598,-0.099128455,-2.0824802,-3.0919547,0.28578717,3.527853,0.5243365,-3.5492582,-2.740881,-2.0785885,3.3744357,1.579755,1.4787111,-0.3320863,-1.3337047
<http://sQqLPntLfMU.org/ccvuwXxWuMki>,-2.2153955,-4.2644854,2.177356,2.7066207,2.7720873,-1.1766137,1.7684915,-1.0808265,-2.1918006,-0.6502891,1.9498909,0.4530451,-0.1564533,-2.1289608,1.3150405,1.4638649,1.3630503,3.531679,-3.4739025,0.67481774,-1.8103727,1.4862679,-0.33875662,-3.7002466,-2.3049147,0.934882,1.0820832,0.031330276,0.21373627,3.5542712,3.4019666,0.5927973
<http://PQWsykhsQUUd.org/TPrWGzWjgFHLTxpgK>,0.40972528,-4.3663836,-3.814839,-1.6523818,2.1532278,-3.7291007,-1.5688583,-5.6778584,0.61586124,-1.5784193,-3.7140136,-1.4673458,0.71301967,3.8949797,0.17350638,1.2965977,0.24509887,1.6631212,-1.7355722,1.0252624,0.40292683,-2.002274,1.8741825,1.1414082,1.1397508,1.2649434,2.7019193,-3.4877586,-0.2870182,-1.3553805,1.0945117,-2.217619
<http://mlttslIHhQn.org/RxRqqIuXVmxzaV>,3.2161944,-3.2142675,-4.5386143,-0.10848536,1.3251141,2.1816704,0.21453437,-2.2560372,-3.0492089,1.9696707,0.4109952,2.223409,-2.138396,1.3649108,-2.2620704,-0.61234117,-0.34052843,-1.0388193,2.5284986,-0.45092583,-1.0291116,0.4627167,1.4212376,-1.5093067,2.1810544,-2.5329628,-2.1692564,-3.4117162,-1.1052098,2.6436753,-4.6409483,-0.3477459
<http://PgqKZUqllqGLid.org/fWrclPd>,1.6127522,-1.8124057,-1.7542619,-0.31678414,2.738854,4.401788,1.2445518,-4.2804723,-1.077965,-4.2124066,2.3961468,-2.8247647,2.8878462,-1.5962682,-1.2369763,1.0429529,-0.061949562,2.8377435,2.492915,-3.3819892,0.8136661,-3.6102889,-3.1312852,-0.96423787,2.1719809,2.3655374,0.75717586,0.14436394,-2.2519026,-3.658773,1.6198697,-1.5163158
<http://uIgvQcobncNbSE.org/jWgGnfjYssmcEjFnZb>,0.46107176,-0.7919904,0.24897578,0.91555226,-0.18654943,1.1375673,-0.38022533,-1.0466884,-4.055812,-4.617646,1.583309,-1.5160786,-1.8306578,-0.4193009,1.8043497,-0.9052319,1.8178333,-1.472019,-0.5455675,-3.7666588,-2.0060933,1.5439751,-0.62148315,1.6882644,3.6469104,2.289743,0.18880442,6.4125967,-3.5406642,-1.1611013,2.1151628,2.4465802
<http://NvzXICAFcziMlLb.org/fSGqmctCcBoGKgjyN>,-1.2416719,-0.24118198,0.32608283,-0.7675661,1.7092491,1.5269951,1.2952929,4.3779993,1.6606364,-3.9397154,3.6925745,1.079528,-2.2029467,-0.3259092,-0.07909343,-0.43890688,-0.98579013,0.26213765,-0.91858226,-1.6242813,-3.2297866,-0.5612776,2.7792723,0.08459194,-1.1513697,-1.5859139,-1.7946223,-2.235969,-4.658473,-5.037286,3.442935,1.6683786
<http://Jkrf.org/s>,2.6078935,1.8116686,1.8062483,1.4761323,-2.3120506,-1.9997722,1.8609865,0.020693645,-2.6258886,3.3286393,0.67891204,3.141117,0.7917017,2.2811677,4.2425056,-0.21260072,-0.1575318,0.123273976,-3.208096,0.989975,-1.5536305,0.9393127,3.7996268,0.8041032,2.248853,0.70739764,1.3323952,3.3709137,0.06959724,-0.025660127,-1.5621026,1.9234585
<http://KmTvJWWvRVjaBGUp.org/REjLlSNnLHyeRCO>,2.6690702,-3.9828935,-0.86569977,-2.8705924,-3.1219323,2.510416,-3.1303818,0.43697447,1.0636786,1.7177709,-1.188383,0.9966536,-1.8697178,-1.5386872,-2.2632163,1.9641589,-3.773637,2.8662152,0.56136715,-0.5000052,-1.2951769,4.1915627,-0.6934713,0.41510302,0.35695717,-0.8541788,-1.1821907,0.6906162,-1.6561635,0.4625039,0.1986609,0.37597144
<http://zQD.org/ZnMvlXbJsUKhEFvu>,-0.6357049,-2.9939928,-2.0902457,1.2788885,-3.0166247,0.19928084,2.8032525,3.9835708,0.4066189,-2.8379502,1.0795714,0.48066938,1.8906587,-1.1116092,2.3176627,-0.35475367,0.7599839,3.9478106,3.913413,-1.8001243,-2.1413789,-2.78196,3.0417356,1.05153,4.4982786,2.6131313,-2.9221923,-0.10453987,0.83111936,2.7863662,-5.0928764,1.4378251
<http://nYnNFZLEEilMmT.org/HFNjQE>,1.1582376,0.86495626,2.4453766,-0.8202431,0.60066855,-1.9206805,2.5679655,0.34325,3.866056,3.0617898,1.5718155,1.9352591,3.4554956,3.0895069,-2.4116578,-1.2448753,0.70936877,0.28079915,-2.7642624,1.8190321,0.02193278,0.46388787,3.649221,-2.9272382,-0.6387875,-1.5103508,1.1832893,-4.554242,-0.0030117135,0.55182964,0.21941839,-3.3690522
<http://dwurtCBI.org/XTUHAmOTC>,4.5437026,0.012503851,-2.514482,-1.9704964,1.7072493,-5.229831,2.0866497,3.3113856,-1.1136676,-1.0683994,-3.0269608,-0.377704,-0.8331618,2.1275606,1.6623191,1.7322464,-0.12925564,1.6423447,0.6118096,1.2384795,0.7654648,3.845564,0.797463,1.3679261,1.6361158,-0.7637883,1.1707743,-0.45023617,1.0989772,-0.83397305,-0.41228944,1.6346881
<http://p.org/YJNFyRSKSANJhTQe>,0.6455347,3.4662397,-3.986049,-0.53242964,1.4917291,-3.2500653,0.20782395,0.42848104,-2.2813942,0.44714934,1.8321731,0.75703204,1.8436044,0.59840447,-2.1013095,2.015377,-3.5439568,3.0071857,2.289877,-0.7420619,-0.19970514,1.4537634,-0.5310132,-1.3993257,-2.4833326,2.1949217,3.3887494,-0.9830846,1.6945202,1.3982412,1.8954631,1.7195176
<http://KWztVjkplcCviVxTgk.org/hwerZicLchGuTZL>,-1.5357846,-0.99983406,1.3607159,3.4459736,1.543629,-2.203166,1.0650431,-1.358259,-1.2003957,2.1837385,3.1029806,1.5145689,3.4105694,-0.7407623,0.45080742,-0.5022855,-3.3890562,-2.098675,-2.3690934,-1.8854064,2.8071978,1.428451,0.17917937,-4.989448,-5.479777,-2.3539593,2.3841622,0.9372563,1.8436235,1.3259946,-2.4902277,-0.89547235
<http://qGstULEos.org/>,-1.534549,-3.4820883,1.3953476,2.9207585,-0.85607195,-1.9377576,1.3964213,2.9472475,-2.942584,-0.2716495,-1.5084639,-1.0739926,-1.9273396,-1.4401584,-1.4441406,0.008302434,1.5640492,-1.8668351,-0.98215884,0.44105995,1.6981888,-1.8229586,0.051074054,1.3581327,2.5357234,-0.13076065,2.6356115,-1.2669774,0.694148,2.799506,-2.6165688,0.85731554
<http://ldCPTSQTgEnkLmyQB.org/NS>,-1.9946977,-1.816699,-0.8619867,2.5295134,2.2642078,1.2769445,1.2630492,4.3140187,0.93695205,3.2964413,1.2262535,-0.20428902,-0.4761184,-1.6260059,0.02804836,0.31896493,-2.2286334,-2.736106,-0.93968374,1.3344321,0.8729508,3.9673197,3.4419205,0.7210247,1.9506989,0.9932948,4.1753798,1.0148773,1.5920501,4.42666,2.63522,3.446076
<http://Ru.org/iJfiPWZhwhxgXnvZ>,-3.2892148,-3.239134,-1.8745065,1.4605693,5.061855,-0.8255141,-0.29708967,2.3340473,-0.38048556,1.9970344,4.983875,4.2807174,-0.798694,1.843665,-0.3249416,-0.8242368,0.49880528,-3.4473445,-0.64571536,-1.9573902,2.0442104,2.056544,-1.8476992,2.3539789,-1.4522882,0.008143877,1.4615563,0.66758615,3.0481868,2.4939382,0.97045434,-2.8992298
<http://ywMouXTeQorP.org/zhZfWsLgZl>,-3.9306927,0.82311165,2.7953627,4.367982,-0.50919026,0.13518749,0.8637377,-2.231544,-0.7850885,-2.2487493,3.2625394,0.6548863,-1.69725,-0.49133775,1.6683105,-1.8754144,0.9973834,2.3221362,0.6012014,4.030814,1.1982358,3.0663362,-0.85514086,2.4580414,0.28687513,-3.6021023,2.247332,1.6335834,0.091344185,3.1605113,0.058533516,2.053988
<http://QghSHrsosIxUFg.org/>,-1.9451859,2.997018,-0.771697,1.8403244,1.310689,2.2041836,-0.34557393,-1.71422,1.7926652,-1.8848542,-4.0048213,-0.9822597,-0.52887636,1.6591933,-1.7408975,-2.9641886,1.1356125,5.044491,-0.825914,-1.9729435,-0.22363485,-0.1314977,1.2525942,-3.1963148,-0.61823624,2.622518,-3.5716562,-0.84757346,0.29830095,-0.6883487,2.1606963,-2.5281692
<http://sDasMhoRnbsHaFAEUkp.org/VmYErhTdzMoIAPI>,3.286425,0.5219802,3.2546165,0.13504413,-4.907843,-2.345514,-1.8541697,1.2722137,0.28629047,-0.35448468,2.2836292,-3.498909,0.35428214,-2.1070163,2.3158972,-0.88074017,-0.75339913,6.0489564,-0.48842758,-0.27420768,-1.9055542,-2.8530643,-0.13338578,1.1483531,0.40817606,-0.43720338,2.2831612,3.9741533,1.6423712,-1.4491469,0.010729138,0.69242865
<http://.org/AmikH>,1.840713,2.341658,0.8375183,-0.6544934,0.37398523,-3.9638584,-2.7718885,-0.113793045,-3.5013878,3.029266,0.4499522,-2.9303515,2.401915,0.5934461,-2.7181845,-0.56579936,-1.8665193,0.23324645,-0.32767615,-2.1370704,-1.9465615,2.9056053,2.7770045,0.28087327,0.035934407,1.3990192,-1.7689639,-2.7084565,-4.1116915,1.0856589,4.501931,-4.6302314
<http://yHggBByHq.org/BilmTjQYRRQAct>,2.8593214,-1.7828814,1.7791944,1.0256728,0.7149268,-1.0087098,-0.7365604,-0.29040468,-3.0117843,-2.1989892,1.9416502,3.7357996,3.4955528,-0.96280974,1.8135316,0.19180211,-0.7862985,-1.6993788,-3.03917,3.5069697,-2.5367332,-2.6274781,-0.7268533,-2.197136,-1.0612271,-1.6755775,-3.8765767,-2.0076315,0.8186996,-0.22887087,1.5087706,-0.45793852
<http://Crwmt.org/VugwbuwdmWYtZ>,3.0970507,0.013888215,-0.18027173,-1.7516208,2.229224,-0.36934316,-2.5453415,-2.56357,-1.4459507,0.2130567,2.678517,2.1306276,1.2960657,-2.7448623,0.7960452,1.7588938,0.35090402,3.2996194,2.4357553,2.7998571,3.6154668,-1.5119258,0.52859694,1.5559216,0.95113087,-0.28195098,3.1947708,-1.324438,-1.0898411,-1.6322545,-2.4832993,1.0288407
<http://OrjCUzCn.org/MjkGbBZrYtD>,1.3931797,1.20922,-2.6060545,-0.31902748,-1.9427303,2.1479504,-1.6084538,0.98908013,-0.6114255,2.630441,-1.1174592,1.1478255,1.4382164,-1.7657548,-1.8919927,-0.033622,2.4409971,-3.9432063,-3.5404704,2.401908,3.7829401,-1.2309135,0.9848331,0.21834493,-1.2830111,-2.5294914,-2.9455926,-3.715866,-2.8388004,0.75943756,1.088196,2.4879975
<http://NxWQAqSAud.org/lnWwHiP>,3.4096704,-0.7879159,3.0517728,0.9648765,2.0657418,-0.6265273,-1.3180484,1.4178615,-0.114831015,-0.03470684,-2.8518798,-2.7614548,-0.6706372,-3.8669543,-2.069116,-1.8862288,-1.4248013,2.4958894,2.9379504,-0.4858972,-0.22908083,-0.0073693707,0.25409573,-4.1083765,-0.10144029,-0.76796293,1.6068463,-0.026207142,0.90338457,-3.3245144,0.6442417,-1.5869294
<http://MPl.org/e>,-2.8715036,-0.24100031,0.59626186,-1.4238214,-2.4714465,-0.022048442,-4.1058717,-1.8107182,1.1890237,1.2551064,4.384548,-4.3111553,3.3019187,0.19349453,3.0340939,2.3431497,1.6420681,1.0459832,2.2296336,0.50856483,1.6866682,4.0260506,1.8030756,-2.2238455,2.2372313,1.5836455,-0.07924371,1.2078905,-3.0176184,4.1813107,-1.9168413,-1.5625722
<http://IsFhPXoQkaerEnWAbTL.org/vfQiMQqfmmptT>,0.100587636,1.3674977,-1.0148935,1.6605995,1.1529645,2.8920443,1.0680006,2.6702993,0.8831478,-1.2314216,0.597407,1.9080648,2.5601478,1.2331796,-3.0841148,-2.4502609,-2.038631,3.536936,1.6779133,-2.3794308,-1.2251012,-2.571971,2.7381675,-2.7344253,0.9413156,-4.753084,0.100939006,3.7171156,-2.2809362,2.4747663,-0.42758512,3.1833584
<http://xWCzGEWvSUbvxlpa.org/QN>,1.1136237,1.1580924,-4.7934427,-3.6538732,0.99134535,4.539542,0.008405784,1.7787502,2.7411149,0.8975304,-1.301115,0.9353742,-0.37882018,2.080837,0.20139705,0.6644891,-0.14654118,-0.41015813,-2.8262157,-1.8369213,1.0282869,-6.122332,-1.4582411,2.7152383,2.7198417,2.195723,-1.3055539,1.552133,3.683644,0.56431717,-1.2847947,-3.5441256
<http://GuzNWFRspWsCHyr.org/fBZcrseIzetL>,0.10469893,-2.497128,2.9955845,-1.4352978,0.2681582,0.64095724,-0.8167312,-3.8883128,3.069631,0.24057308,-0.030972125,-0.1733689,1.2204988,1.6778003,-3.7827084,-0.16877435,-0.6222278,1.1488655,-2.3526495,4.1713405,-0.150298,1.0937214,-1.0382885,0.71406704,-2.3444908,0.83709645,-1.3704455,2.9419703,0.6557977,0.5902544,1.1154232,1.0643102
<http://Oiv.org/HfpqPIfJCTB>,2.8277943,-1.5332686,-1.3165213,-1.6496952,1.5953674,1.4802839,-0.4485047,-3.128939,4.125483,-1.3398734,1.3339783,-1.4359483,-3.0345395,-0.85534513,-2.518918,0.9529543,-4.8766,0.8735822,-1.9355735,2.6911752,2.2585282,-1.3717483,2.8596933,2.0577893,-0.031627066,2.1322436,0.24157257,1.072485,-3.3635144,-0.6617319,-1.507535,3.6561115
<http://becwrVFTCGzYbn.org/bdSWyCORyOZBle>,-0.42119917,-0.27036577,-0.22254874,-1.6180646,0.6378241,-1.5523083,-2.526168,0.7226209,-4.0251603,-0.4238669,2.4916456,0.041973602,-1.3079942,-2.3334837,-1.5083551,0.006023472,1.1229038,0.54053056,-4.0174465,-1.0044769,-0.042306904,-0.6771729,0.6353995,1.3700528,-3.2657237,-1.0381331,1.0390974,3.5100186,-0.62428373,0.56561077,-2.2871711,-1.1744094
<http://TTenhsaNdenaLKAJXv.org/jKCdpnZiWrg>,2.8477304,-3.5473444,-0.59151685,0.9211181,-0.9777469,-1.6900069,-0.85116625,-3.5179052,1.7129946,-0.81429857,2.3226504,-0.016516944,0.4666001,-2.4545162,-1.033779,1.296661,-1.7788422,2.1501203,-0.17662767,-2.935115,-1.8374447,-2.4674048,2.346636,0.40253288,1.5306305,-0.5420752,-1.0106564,1.4191878,-2.7513,0.759239,-2.8502588,-3.1607323
<http://PbwQeAUkJqXDN.org/lplYEBqdyZTUcx>,3.8691924,1.7619022,-3.3523612,4.122068,-4.205109,0.4510038,-1.8694435,-1.1854246,-2.371458,1.7365147,4.6338744,-1.6134657,0.8632843,-0.07737022,2.580346,1.8194463,0.31750843,-0.91739196,-3.824671,0.2595825,0.66962147,3.2912273,1.3934703,-0.11157343,-3.9217017,2.3118005,-1.2451602,-0.9364226,2.2666976,1.9302938,-1.404155,1.2661266
<http://FZaRJCOoKeUBHyXwjfQ.org/lofuzKQ>,2.823652,-0.82491726,-2.0395417,2.97328,-1.5229656,-1.936725,0.9931387,0.53935,-0.33482414,1.994671,2.2607925,-0.384801,-0.22400258,2.5199895,-0.7137776,1.9831245,-4.97961,4.610393,1.2522187,0.368694,-0.47414607,1.3725129,2.440048,-1.4842412,-1.429953,0.06054117,2.3730628,1.0394009,-3.9021187,-3.3485804,-1.886243,0.04836593
<http://.org/nAVXetFqraPQogb>,2.9332817,-0.74621034,-1.363176,2.427692,-2.4147196,-1.7852407,-0.01131507,3.6594987,-3.526991,-0.8352591,3.5460658,-2.3100543,2.6761994,1.0938529,1.5736318,0.33457336,0.15605652,0.16580783,0.008620827,-3.3171375,-0.18709083,0.26893738,-1.0040516,-2.657972,0.25241363,2.5273433,-0.92798644,1.4916695,0.26561773,-0.16663201,1.9620608,-3.0576081
<http://vxfxhQLDDcXOlbaC.org/eljZDomQQIp>,4.330765,2.2485833,-0.24673636,1.431448,1.8250502,0.23618175,-2.672713,0.8247326,-0.098180816,1.4335335,1.3385582,-1.7957726,2.660677,-1.420561,1.6360812,1.1021519,-0.39082497,3.7637997,-4.804388,-4.3828173,-1.384793,-1.9403081,0.021236563,-2.0505166,-1.9462109,1.1127241,3.2420456,-0.6640149,3.2782626,2.6594203,-1.52212,-2.1760569
<http://JQxGXbMpDtbSK.org/ceHMdPdUYGHQbK>,2.9708798,-3.718494,-3.6626267,0.9115537,-0.100773744,-0.7879564,0.637453,0.8296887,-3.1331718,-3.2054358,2.1838753,0.69552225,0.06958421,1.4122366,0.27725372,2.313115,-0.043028206,-1.7197891,-4.7907686,-3.8865888,-1.3024663,-1.2835357,0.47058767,1.1911954,-0.080100715,-1.1283321,1.8148019,-1.3372884,1.2479738,-1.5504761,-2.8039792,-2.3164592
<http://fPFzrMxdscQPvVok.org/BnrUz>,2.0109813,-1.3751905,3.0983174,2.08881,-0.1877433,0.9545295,-0.59968156,-1.7057518,1.280333,-1.0143977,1.7782271,-0.89852446,-1.3945832,1.9372439,-3.5371747,3.1192243,-3.7897122,-2.377308,1.9606127,-0.5942005,1.5583,1.9399542,0.04766508,-1.6256585,-0.0007002222,0.14800099,-2.835928,-2.2565203,1.7259123,0.30955717,-0.8192327,-0.3016845
<http://THOZZfpBaLZMvAu.org/pSgjsvsLtOObIir>,-1.1390048,-3.0389407,-1.1686363,-2.758759,0.84494805,-1.6244807,-0.8427151,-2.9696267,-0.487031,2.1704466,2.740205,2.9829564,4.796882,1.3102735,1.380113,-0.13877822,-0.6542991,0.34022158,-1.0827341,2.5732484,0.33887413,3.9366682,0.11428443,-2.174207,-0.85017926,-0.4226697,-3.4415314,-3.2822356,-2.2078717,0.42277753,0.19891775,-1.6167235
<http://aENTKyGRK.org/uL>,2.769397,-0.2705849,2.0974374,-0.47973728,1.7913074,-2.5136304,2.0658364,-0.51758975,2.2740343,0.37703148,1.2286636,-0.6282815,-5.758446,-0.2766515,0.06656586,1.0021553,-0.615888,-0.046372138,-0.046116363,2.1591778,-0.8227996,1.4346567,0.6027066,-0.59731865,3.0207999,1.1299821,-3.8705246,-2.40108,-2.0726995,-1.830936,-2.1099951,-0.28482962
<http://nKleiZYXnogdmp.org/>,1.0238552,0.26998213,0.9508772,1.0122732,-4.1746125,0.072953254,2.754562,3.5488582,-3.2290976,-1.3843979,-0.5730313,3.8778698,-1.0462778,0.19035849,-1.5242888,0.1493845,-1.0923778,-0.6588763,-3.615203,-1.00061,0.5135491,-1.4938629,-0.9487243,-4.884667,1.7888515,-1.8734025,1.1127973,3.3698485,2.448213,-1.0843849,-3.6135156,-4.340917
<http://kcfiEdWtEyEonNBVbR.org/vgvdWoyzycpyLnZR>,1.9639525,1.883865,1.0365479,0.11595178,-1.7995801,1.5696833,2.9197829,0.55965436,-3.2028043,-0.61817515,2.8761177,1.215137,0.9441893,-0.21196198,-4.284514,-2.0235827,0.33505645,1.82549,-2.8856933,-0.6994076,0.076404,-0.6613471,-2.0230377,0.5818148,-1.0410479,-4.1415496,-3.4987383,-1.6136954,1.7614223,-1.91619,3.576074,-1.1038849
<http://AHJmY.org/WWkRxNfmqgeEBE>,-1.6565403,0.6902929,-3.771128,0.9201899,-0.65668863,-0.4967244,0.73699164,3.1483586,-0.7727965,3.5735097,-0.62370193,2.3854094,-2.1398072,3.8823657,1.0687759,1.0552739,3.1354494,1.6184274,-1.1975961,-1.198674,-0.66266036,0.08859288,-0.13466161,-1.3417846,1.9108269,1.3818107,1.4846292,0.6932101,2.3767629,0.6248327,-3.5453575,-0.04085086
<http://OBPrkDmckWgTKNf.org/JCUCApdUwNwWG>,-0.3129555,1.4594749,-3.1860578,2.2035606,2.505387,-3.2252364,-3.3889418,0.90983725,1.2860025,0.82929254,-1.2226765,-1.314846,3.016409,2.8086753,-0.3653504,0.4319712,0.3419117,-0.81340826,-3.814426,-2.455808,1.4724451,1.0777876,-0.18138492,-1.6614846,-1.4838284,0.95835817,-1.9391699,-1.1935753,-1.9173585,-3.3142762,-2.8554604,0.6967528
<http://XJgD.org/>,-0.96379405,-2.236041,0.77421176,3.5698874,-1.6355305,-3.5422413,-0.4985331,0.9312591,-0.08825892,-0.060525227,-3.6491039,2.242361,-0.015419715,-1.5134869,-2.1224182,1.086238,3.2083585,3.2685785,3.1670897,-2.7996042,-1.4140631,-2.8096325,-1.1419952,1.3227426,1.1654447,-3.0823674,-0.02097049,1.5173064,4.8670516,-0.44224823,3.4193919,-2.8217545
<http://.org/xjxgPOdIZjDA>,0.29034102,0.96428233,-0.44444463,-0.52841705,2.1603653,-2.530927,-0.44793856,-2.3860111,3.8186018,2.3044496,3.9138508,2.2936194,1.579583,0.649591,-5.8704214,-1.7720724,-1.0848446,3.1631672,0.15800199,2.4639754,-2.0650985,-4.5789385,3.0505702,-0.008063306,1.6778231,2.2341268,-0.6944033,-3.9744337,-1.0377597,-1.7653227,-1.1572174,-4.7469435
<http://INEYlQUfQsJw.org/CCFiMpuClAI>,-0.46235797,3.4658945,-0.68139476,0.51597667,0.6223954,-0.3083022,0.11490871,-1.575012,2.3382568,0.8633626,2.5633814,-5.49027,0.9109101,-2.2762952,-0.24118724,-0.41703597,-2.9557984,2.4614987,0.980239,-1.5138735,-1.1211219,-2.1666253,0.03207345,-1.5788386,0.21231358,0.8506459,0.70981586,5.244553,-2.8411422,-2.8700836,0.81519306,2.1828613
<http://U.org/upQKWLQ>,4.9192257,-0.74745953,-0.24595651,0.83348036,2.5411863,0.21088499,-0.59972495,0.7744984,-2.4622974,0.52660334,-0.6357503,-0.6847971,2.2208064,3.506224,-0.07456185,1.6083757,-3.0942202,2.1495605,-0.43500352,-2.9790502,1.9289432,3.7664154,-2.677446,-1.7337818,-1.2595732,1.7277731,-0.12853278,-1.8238292,1.5972706,-1.6148621,2.3507926,3.75022
<http://LUIIvfckWHM.org/pANyrzNkizscbkm>,-2.505384,0.21055081,0.49225497,2.6911552,0.2667884,1.390776,4.119495,2.8422728,0.55285,2.786768,2.0072856,-2.6674984,-2.5821588,2.7301192,3.7332902,-2.66093,1.6722159,-0.9295488,-1.7765193,-0.37023085,0.952734,0.26397502,-1.238748,-3.6479237,-2.7694864,3.7062938,3.657163,2.9379883,2.2624953,2.5248015,-1.7930846,1.6873832
<http://HHAaaX.org/DcCfGUraFfLqbR>,0.10049299,0.15907264,-0.073840775,1.3351142,0.10072302,0.8898012,-0.9605831,-1.745385,0.68318313,0.20107886,0.19155093,0.47665697,-0.6127331,0.50917876,-1.706653,-4.5671163,-2.0750191,-2.4503763,-0.20061205,3.1914053,3.3092895,-2.0081825,-1.3348839,1.6644838,-1.36171,0.3116857,-2.5921023,-0.24404906,-3.3410013,-0.8373163,-5.330778,-0.72606015
<http://GpsFcQaco.org/RKQiMqtNp>,-0.27539995,1.9131019,0.73921335,-0.23494811,-0.40282714,1.4024786,1.3653967,1.0083749,-4.511708,-4.318454,1.7362926,1.9434893,-1.1771215,-4.459555,-1.6278402,2.170364,-3.1383817,-4.5995584,1.3406744,-0.89536667,-3.5381787,0.18768835,4.0821695,0.40462038,5.403998,0.2596011,-2.5015922,2.8421357,-0.42579663,-0.35610056,-1.0482484,-1.2712198
<http://.org/mddGmchehC>,-0.52724177,-0.9137493,-0.23521666,0.6656271,2.5110486,-0.017395983,-2.4183762,-2.2824166,-2.9766407,1.0730027,-1.8128616,-3.7532873,0.16285448,-0.56234175,0.9079182,0.43995073,-1.7437606,3.7896383,1.4244876,0.9575366,1.2766783,2.3374665,-3.0976763,-2.91542,0.9682467,-1.906263,2.492646,-1.3470963,-3.9008567,2.4128969,-1.0188307,-2.0509565
<http://YXGrwoPjLgjYNn.org/IxkXHjlPsPpYvOi>,2.9364657,-1.2964119,-0.3494434,1.6720572,0.47165015,0.15104502,0.23542815,-1.0990798,-2.5892823,-2.7043579,-1.8130696,0.09030459,-4.4417725,3.096952,-4.3655047,2.8484612,-2.0789368,-1.8980699,1.4521965,-0.27547964,3.760894,0.73715365,1.6261927,2.0902,1.2651266,-2.0550945,1.235079,-1.6010741,-4.436936,0.7143127,-3.2947643,2.5527902
<http://WZarCnoJQkSyi.org/ZuOOCT>,1.9028013,0.5977893,-1.5951545,2.2894025,2.0107408,-0.36785433,-1.3626384,3.084114,1.6745089,-2.2874403,3.9467256,-1.6207194,-1.3930641,1.8408402,-2.1129923,2.807681,0.7094733,-2.3160958,0.5416358,-1.3059249,-0.67940277,-6.7120743,0.32975653,1.7778648,3.3305259,1.5266509,-1.9379207,-0.8651128,1.3490278,-2.277643,-3.1352456,-1.2312087
<http://NcbBSmCmQwrAbX.org/wPEAnozZsnfMcxjrzuZ>,2.2095559,-0.84885746,-0.32623148,-2.408021,1.4574692,-0.78288156,-3.0699646,-2.379798,-0.6855649,0.7747016,3.613296,-0.18840533,4.314518,-0.1961952,-1.5591129,-2.291638,1.9725912,0.50935906,2.3763525,2.9975233,0.5809392,0.9376809,1.1323756,1.960264,-1.8478534,1.282786,1.0966328,1.0187299,-2.0849307,-3.879403,-3.1479056,-0.70822203
<http://tUSw.org/ZYODVp>,2.7817416,0.33970925,2.071946,2.6771157,1.9936888,-0.23923685,1.9598429,3.2750146,1.1203048,0.5121814,-1.7799836,1.2207791,-0.25531143,1.9901063,0.14823166,-4.5127273,-1.8614411,4.6344037,-1.453489,1.3180842,-2.4153702,-2.892279,-4.508237,0.95100576,2.6123104,-0.8111362,-1.2501422,1.6981988,-3.5219827,-2.4321957,0.12813416,1.8016856
<http://FEIpgqpidSI.org/>,0.8917113,2.6125805,1.7645087,-1.6546414,-0.9513753,1.9456333,1.6378171,-1.9767222,2.5869946,3.604512,2.376765,-1.9705698,-1.2452883,-3.0299382,0.39889425,4.872759,2.858984,0.41466546,-1.249651,-0.7102189,-2.8136082,-1.2219853,-2.0827942,5.316287,-0.8792268,1.1791111,2.133672,-2.758212,-2.338409,2.3714306,-1.7552278,2.5946884
<http://CwiiErvuQVKgrOupm.org/sXRLzafFpjqGepGVu>,-2.0605521,3.0819144,-1.587313,0.82722557,0.841637,0.6446254,3.486795,-1.1505189,-0.4489495,0.53745794,-0.7986517,-0.646256,-0.6219285,-1.5196795,-2.2866848,-2.9623206,-2.655855,-0.12571613,1.8686091,-2.7864938,-3.837036,3.787599,2.9900274,-0.87709033,0.30021662,-0.11601298,-0.40909287,-2.3360813,-2.7929473,3.2118902,0.57767224,-2.6774576
<http://bufCyiLrJNnkv.org/UaeOIeIcjE>,-0.44888026,1.4243394,-0.8846104,0.76367486,3.3978846,-0.96884394,-0.5634544,-1.2285783,1.2570074,2.224324,0.81959337,0.9169332,-1.8238125,0.06708754,-0.5378708,-3.5739172,-0.031221706,-0.75802326,-1.6787753,0.93167084,-2.5939298,-0.28432217,-1.6182958,-3.5368986,1.9527311,-0.51866627,-2.3219717,2.736688,-0.7372666,-1.3272171,0.25019217,-1.8516729
<http://JEddgKOtYr.org/tSUvd>,-0.40196094,-2.7487655,-0.85641664,0.031635504,-1.1020594,-1.5090698,-2.360374,0.23278634,2.7396321,2.1296856,3.372303,2.2322397,-1.7921735,-0.6229417,-1.789846,4.314227,-3.6930938,-2.8022683,-2.6014812,0.6010536,1.2620362,-4.2408834,-3.6806467,2.1088312,-0.35056287,1.2583369,2.3339274,2.0854597,1.6552559,0.061722156,0.76682657,0.15421076
<http://.org/sorqpGJPaQUB>,2.0271056,0.7632745,-3.013104,0.10913606,2.6907156,-2.2977002,-0.60424584,-0.7408858,0.68691254,0.5171821,-3.1914878,-0.5393567,0.97373855,-5.0314603,0.55491877,3.6416152,2.4712098,0.25567093,3.2003396,-0.8742184,1.5409648,0.4522134,-0.42192695,-0.42417023,0.9940877,-1.4229972,-0.5503508,1.2683883,1.3393182,4.2758656,1.543019,4.702841
<http://HbJ.org/dO>,-0.091438845,-1.7830944,0.1127026,-1.8511028,-1.2421943,4.4170938,0.15618056,0.8692646,3.2760844,2.6087725,0.8607446,3.2803202,-2.0789742,-0.008164853,1.060655,-1.3894144,-4.179619,0.7233104,1.027879,4.003389,-3.0394266,2.9220433,-0.1535152,-3.9594312,-0.992113,0.91345924,3.8851085,-2.9447734,-0.37049666,-0.88685,-0.38591373,-1.5953516
<http://SnSsdStb.org/nypnPd>,0.27779204,-0.23868056,-3.4009962,2.2918768,-2.5821536,2.7876906,-2.0602636,3.269025,-1.7473972,0.5678234,-2.552512,1.6066571,-2.8488052,-1.9204187,-0.55850744,-2.105062,0.31067175,3.6845617,-5.137751,-0.9752652,3.2805238,-1.9621761,-0.10106477,-2.0483496,0.6365272,-0.14554806,5.600154,0.61373734,0.0031131962,-0.057101134,-3.053417,-0.7403462
<http://eqFAvPAhsawn.org/cKcYODLw>,-1.2293879,-2.9234867,-4.178066,-1.5436579,0.3938391,2.885927,-2.6314359,5.7917566,-2.789648,3.559497,2.3921788,3.8037663,1.0644956,-1.5911683,-4.4445014,-0.13965948,-0.9005695,3.601741,-2.5662498,0.037117522,3.586484,-1.8728373,-3.8854635,-2.3799236,-4.3116007,1.3735944,2.2047698,2.1186898,0.7184884,-1.4802245,0.91179913,0.23325622
<http://ztXOX.org/EaNwQgevXgNtj>,0.278085,-0.9457761,3.1453846,1.5445883,2.0813706,-0.6895416,2.295722,-1.1917456,-1.729933,3.3333466,3.598371,1.9832802,0.06607087,-2.340534,2.965946,4.1323013,-2.3011727,-0.037084967,-1.6251842,-4.2917356,1.4146682,0.14214763,1.3275932,-0.8507932,-1.3215667,3.6368673,1.2007946,-1.7598581,-0.593276,-2.082774,-3.14358,1.3700479
<http://DgW.org/aFXmYDoMi>,0.16104439,0.71446866,-0.7638486,1.5254048,-1.2932237,-2.4027915,0.6836851,-0.9961604,-0.32257316,1.6993377,0.10457078,-2.8555193,-1.691259,0.6530997,5.1904726,0.16602105,0.9589483,3.305281,-4.454089,-0.73633665,1.2059263,-2.104325,2.5475788,-3.7296486,-2.9356644,-1.3094438,-1.1177976,3.6427126,3.263621,4.4389415,-0.7465088,-2.1869879
<http://nJcVpV.org/AfBQOraAoKENV>,-0.9818466,-0.722991,4.6301928,-1.8421315,-3.1622796,-1.841463,-0.69713897,3.0308766,-0.36501753,-1.9586717,-1.7036862,1.9300054,-3.459077,-0.24252443,-0.2733828,3.349122,-3.229435,-3.2428107,1.6841934,1.5401521,0.7455429,0.47232214,2.8231683,-1.5596373,-2.83019,1.3668393,0.094184704,-2.416157,2.9269078,-1.5352743,-1.8308088,2.133193
<http://linkedgeodata.org/ontology/wikipedia>,-3.0138526,2.5520592,2.6590052,-0.33952838,-4.686394,-1.8677335,-2.7658463,2.61976,1.9838324,1.7451726,-1.834121,3.496881,2.5948489,2.439347,3.3289065,-2.9199975,-1.7604303,-2.4347777,-3.7982736,3.6855743,3.2210357,-4.2025027,-3.2740026,3.1834726,1.3349669,0.30757982,3.8153665,-2.3671815,0.97620666,2.250346,-2.051063,0.57428217
<http://XpIwueQTRJqEXIwhWn.org/mqXkJtgwjvlPw>,0.35645604,2.8155863,0.99708736,1.9705604,-0.36911872,2.035395,-2.1497548,-5.4261904,-0.5823571,-2.566813,-0.6562579,-1.1939306,-0.9988331,1.4671232,-3.3724127,2.4522521,3.907554,0.9364353,0.5953422,-0.21899368,1.2099284,-3.8206344,0.8920109,-4.133374,-1.4680557,3.067317,-1.6278183,-1.9872495,2.765061,1.5494844,-2.0409894,0.047188405
<http://jWYwNlZRPWxoYBknCGp.org/P>,1.9549137,2.7652597,-1.0107733,0.60311896,2.6588461,0.8100154,-3.1103137,-1.9892064,-1.2133007,-0.9846896,4.0437326,-3.9251637,2.5598612,2.8129263,1.0639559,0.9009734,-0.76947844,-0.37095153,2.4367242,-0.86368316,2.2118685,-1.3067683,-1.8877857,-0.02270667,-1.3401597,2.615745,0.78728026,0.012612801,-2.2106736,0.17707117,0.08858244,2.2439067
<http://.org/jc>,-2.8440728,0.2031829,-2.084497,2.7922735,1.0713251,0.1261128,2.7699957,0.42613286,1.4718531,-1.0271344,-1.325421,-0.58008516,-1.1811492,-0.20371076,0.34171003,4.060315,-1.5219628,1.8328056,0.71031487,-1.8577025,2.1278174,2.1677918,0.9065592,-1.080256,-5.2481856,2.581849,0.09826271,3.465353,-0.041364405,0.4666833,-1.415421,1.3557435
<http://RYMprki.org/c>,-1.5117564,-3.4643192,-1.4447094,-0.87719584,-0.99111515,-1.4909117,-2.775162,4.0257897,1.0190338,-0.20820579,2.552239,-2.1355731,4.481762,-3.1798856,0.28485656,-0.013417513,2.2887788,-2.1948097,0.7054692,-2.1126156,1.4423662,1.4246348,2.874292,-0.6792328,0.92067254,1.4246415,0.38618156,1.7681384,0.72900486,-0.67783916,4.010559,-0.11438417
<http://krBGV.org/KzpdnRDrqdVilymBBwY>,1.8285431,-3.0232499,-1.3806621,0.18111396,-0.905786,1.7315147,-1.7111138,-1.3591375,-0.15882885,0.41742113,-1.7447119,-1.0433513,0.23924488,1.0680523,-4.069088,-1.4941117,1.5680577,2.5428119,-0.785477,-1.4057722,2.895032,0.9766421,-1.2533206,0.9039821,-2.687466,0.22295721,-2.6561344,-2.2672594,3.9353077,3.9337804,1.1724385,-1.432614
<http://mmcQvIAWjBZjYfDcwR.org/ODWfrGlFCqORodbXUQV>,1.2106409,-2.5402286,3.5982783,-2.343946,1.7889036,2.4620378,-0.7314468,0.8135927,1.7227694,1.8174183,2.5566723,-0.0964349,0.9724321,0.8865462,-1.057001,0.87636894,2.4314826,3.58232,-3.2868702,0.753087,0.70286024,4.601563,-2.3537333,1.4759852,-1.3068068,-2.4586365,-1.3566759,-1.2316458,-1.7837267,-0.19099438,1.3401115,0.488098
<http://OSdOgfUfHS.org/>,3.2951012,-2.3959355,1.2235676,-0.8455985,-0.8481055,-2.9716096,0.02621449,3.2751114,-3.064705,4.4807453,2.8750794,-0.41760382,1.4416045,-0.6834728,-2.3616226,5.5620837,0.3235205,2.3762982,1.3230642,-0.84368736,2.1269617,-1.1691016,1.4251199,-0.16427082,3.0918076,2.0224872,2.8196557,-3.4979498,1.1660761,-0.49413726,-4.6073775,-3.1705997
<http://JnpCoGNEZTchh.org/qaLNjr>,1.4390706,-2.6595569,-2.1407683,-0.45360747,1.4303786,-0.4598911,-1.2611024,-1.9638792,3.1516225,4.2138906,-3.152443,-4.1692615,2.6534524,-2.3452396,-3.4328108,-1.8062539,-2.3890688,-2.7236536,-3.0784264,-0.28717187,3.4318151,-0.9055989,2.2307625,2.026758,-4.3776546,2.9667358,-0.36498812,3.0057454,0.4740023,1.2589073,-0.018999737,-3.4440515
<http://ncfHFZYrpvVXB.org/QTIbG>,-0.7767812,-3.3403397,0.06550661,1.4378123,0.8557015,-2.5978682,1.9065676,-1.3654221,-2.4999194,0.3566789,0.7555013,2.8307328,0.08205767,-1.5773661,-1.2926272,-1.9946921,4.5942645,4.7000175,-2.0204015,1.295332,-1.1665733,-0.17797531,1.6504003,4.2695413,-0.6734863,-2.9353092,3.6158133,0.7700368,-2.4913685,-1.6827787,2.4745085,3.8048105
<http://EgmPMIQAgowNuQztj.org/wrwRxiZWqxFsCG>,3.4218857,1.1511846,-0.076084726,-0.68215156,4.9566355,1.2466695,-3.9768896,-0.14920805,2.0346208,-0.015264338,0.19683522,-1.6141495,0.7711716,-0.067826696,-0.25402126,-1.7495471,-4.2370095,-1.6980369,-0.8702329,2.8324559,2.2854936,-0.7927448,1.8702519,2.79049,2.467115,-2.6525009,0.95852566,-1.202452,-3.2401774,0.9878351,-0.7247161,-1.9452158
<http://ZRZkeMyq.org/>,1.7086343,1.6746088,0.3123662,-0.2857393,-0.32970396,0.08513154,-1.4751363,0.04321218,0.5726256,0.8430721,-1.5128009,-1.9690793,0.5950404,0.8511148,-3.6079319,-4.2675605,2.2171612,1.5060099,1.7624553,-0.49771225,-0.060385097,-1.7881943,-1.9503046,0.66339,0.91058725,-0.04822116,1.1495215,-3.1350868,4.95577,0.9728432,-1.6126313,0.6990436
<http://AYvSzGWGYbwBGsemhg.org/xaTURJOypcabVq>,1.7831923,1.9628788,2.2862523,0.77144134,-0.771848,-0.877296,-1.5590898,0.7026727,1.6785716,-1.3081471,-2.2947114,-4.325021,-0.8970377,-2.1988466,-0.58690625,-5.23673,-3.2129261,-1.7664908,-0.4115878,1.7834216,1.8069762,-0.2874796,1.268318,0.45946538,4.3140154,1.4207609,-0.40435663,-2.5528536,2.5141766,-2.0609717,-1.2300845,1.9305388
<http://drpgddsYhXJbLR.org/KpFM>,0.4708824,-2.498335,-2.6035757,-0.79938376,3.5557678,-2.84373,-1.2290108,-2.8504393,-4.825726,2.0162244,-0.0017868056,0.64960724,0.9679421,0.863591,4.56275,0.57388103,-0.25210103,2.2516544,-0.13273288,3.215728,2.744124,-1.2215282,4.6486406,-3.6339073,-1.3380665,2.6171026,1.1365908,2.8169653,0.9122304,4.4249535,-2.5518212,0.8219077
<http://wDAQNluU.org/RerugNUukb>,1.6142728,-0.7973499,2.3973844,-1.1556609,-0.50237536,-0.6998415,3.205978,-0.20156957,2.3191307,-1.9308469,-1.1219894,-0.5658288,3.4527264,-3.649115,0.8297744,-1.8667327,-3.1804755,2.7956953,-2.9542387,1.1506426,1.7172096,-1.7495216,3.028138,4.6302133,2.8026474,-1.4888657,2.4893405,0.6047783,1.0440193,-2.6597602,1.6035926,-2.4798841
<http://FhODADdtIQGjiIs.org/QDLYv>,-1.5067166,-1.4111599,-0.56409764,-1.4285331,-0.6622915,-0.21781386,-3.3692038,2.6964386,-3.0737624,-1.8257867,1.4646841,0.8947052,-1.6303699,-0.25504974,-0.70320195,-0.27338013,-4.8399525,3.9482117,0.5749599,-5.0300546,3.067204,-0.49507043,-2.1907077,-0.72415334,-5.0387774,1.9083282,-0.5831336,0.034930807,4.101903,0.73119044,-1.8769109,-2.5283506
<http://tQVIWxXKA.org/sjKC>,-0.16119394,1.9754865,3.8923154,3.0167968,0.0074087447,-0.7899446,1.7829602,3.1717029,1.6444399,-1.6443411,-1.0105869,1.4714899,-1.3623406,0.86809427,1.2965125,1.2750541,2.2622774,-2.999307,-2.2206435,0.12930898,0.7361428,2.696922,1.5821359,-3.044827,-1.1462934,1.1894181,-0.34933707,-3.8469796,1.1114336,2.3690588,1.562637,0.30387634
<http://LtmZCX.org/opOZCdqWoOCvBfEVmM>,-2.795725,1.0258961,2.6929421,2.3754075,3.140214,-2.202263,0.48005095,1.3899047,1.1923482,2.7707224,0.2609305,0.21053013,-2.168126,0.13097993,2.0259373,-0.009274005,2.231239,2.3452215,-2.1774743,-0.44248682,1.4494075,-1.7356929,-1.0091375,-0.30667943,-3.1947489,0.65867835,-0.8451113,-0.105796926,-2.139964,3.291906,1.1601627,-1.7108117
<http://sjWRmWkSyqzezw.org/Aqnu>,1.231816,1.8918122,1.283343,3.7870226,0.9270227,-3.6345334,-1.0700929,3.9444401,0.76821345,1.7605858,1.4658859,0.6323634,-0.73497796,-1.1069709,3.303931,-0.019630969,1.3936865,-0.7484845,-1.7865334,0.16651157,-0.43819496,1.4864142,-2.2721121,1.3507494,-1.1909113,-2.4876616,-2.9130845,-0.51419646,1.0237716,1.1073586,-3.7710652,-0.7895068
<http://Tk.org/DXOaWjKnChMv>,-0.5123202,-1.8778327,1.4195791,1.7606784,-1.0936918,-0.041084185,2.9553912,0.46726036,-2.539027,2.7716324,1.2837497,-1.2372109,0.83652896,1.9423239,-2.6967566,-0.40256172,-3.6874971,5.6264935,-1.7907524,0.37537128,-0.7969676,0.27932715,-1.3313216,-3.4093816,-2.4547448,3.1623816,3.6252615,0.15278742,3.9107265,-1.6819245,-0.09963577,-2.7543752
<http://wXiZM.org/tCoojKKiWHHrCqXdTin>,-0.8324843,-3.5292363,3.2384353,-3.1225188,1.3083147,-4.090949,-1.280265,3.049382,-0.67837405,2.3371887,0.20915036,-1.2210908,0.0011350139,-2.6734805,-2.40875,-2.3455057,1.138978,-3.5796297,0.8322991,-1.1501588,4.1423087,-1.4949272,5.1240826,2.5019038,1.3788902,-1.7616132,-1.5563554,1.0605993,-0.17967461,-3.7471242,-4.796824,-2.9209125
<http://QLnbZctXQawQnGV.org/DMEQsOPeJopdCsu>,0.03619732,-0.3213609,-0.95556897,2.0721874,-1.0612139,-1.3867649,-0.33204383,2.1413856,-2.2125566,-0.018177507,-0.25932056,2.5032625,-2.3495657,0.89275837,0.8200718,-3.3291194,-5.061083,-1.8752261,-0.062331803,2.5113847,1.7053016,0.91930604,-0.28562766,1.0531272,1.5211704,-0.6169074,2.9569104,1.2148998,3.7808807,0.91852283,-2.413786,1.0322211
<http://tVOy.org/RaLRoQtDkTNBCwrbKXA>,-1.6616246,3.1753347,1.818826,-0.5588963,1.4774852,-0.92478764,-2.997295,-2.0393507,-0.3561712,3.2416646,-0.11778643,-3.2879682,-0.82280415,-2.7348003,1.4267775,-0.69596666,-2.4217916,2.8820293,1.1950586,1.8567345,1.137311,0.5446958,0.39641422,-1.0483953,1.6702662,-1.2249143,0.59469825,0.4898947,-5.0487924,-0.021248037,-3.4736059,-2.4397113
<http://jguWZggKyYpJYnXb.org/skLltfDr>,-0.32859677,-1.4199411,0.7435226,-1.6619848,1.9814727,-4.9424505,4.1290154,1.8074378,-3.0938282,-0.75373226,-1.0521679,-0.32594603,1.0601602,1.8942263,-1.0919068,-3.4884083,-1.1207331,-1.2972385,-0.3429094,-4.057451,-0.8352347,-1.9300634,-0.476033,-2.4486816,-3.514356,-3.4448721,-2.8948278,2.2399242,-3.5480943,-0.29211956,-2.9722612,-2.0749807
<http://WTIOBiw.org/RbtaSgWQ>,-3.0015924,0.4306898,-0.60974795,-2.358087,-2.490947,-1.1433598,-0.5397537,0.26256916,2.3702283,-0.7793233,3.2233837,-1.7462502,4.1401095,1.0273644,4.5230846,-1.7967256,2.2542827,-0.72464687,1.203169,-0.5679948,0.98088497,-1.2070346,1.7159256,-0.52062774,3.7075934,1.812224,1.623473,3.3421757,-3.7722433,0.96216697,1.8322128,-0.91951025
<http://KtHebmiNsOs.org/u>,0.09448462,-0.9904692,-3.7439926,0.37432298,0.25265315,0.27280253,0.28899422,0.58385146,-0.3661237,-1.4009551,-1.939812,-2.800867,2.1101563,0.1425611,0.56920516,-0.077898525,2.8187628,2.0363045,1.3200706,-3.2914355,-0.72607064,-2.0892715,0.47047225,-5.0968447,-0.6047917,0.8371768,0.95315343,1.6101723,-4.1300063,2.2032247,0.49321222,0.2815075
<http://ULCVEGwK.org/XMegmb>,0.07134527,-0.49983564,0.91830724,1.0302185,-1.6734873,-2.5772333,-2.014638,1.476141,1.3785866,3.2436635,-0.6221523,1.1225796,2.7548137,-3.0741272,-1.4765632,4.067466,-4.3879075,-0.5562187,1.9203099,0.075169094,-0.28475857,-3.001552,-0.51313144,-3.8187554,1.364008,2.8190181,-0.83522373,-4.0138354,0.12933286,-0.7048311,-0.39697605,-0.19199957
<http://qGezIqxlvWx.org/aE>,3.1905725,1.7895473,-0.03818374,2.1270676,2.1051219,-3.0773654,-2.2918754,-0.3172929,1.5501947,1.442639,-0.18747504,-3.6275826,-4.2926536,-0.9928514,-0.885802,-1.7152814,-1.6513331,1.4095871,1.5519726,-2.7636464,2.5141892,0.43334457,0.46646914,2.0456848,-2.7331777,0.35960013,2.1848857,-3.0838099,-5.9907446,-0.96511054,0.148706,0.5931467
<http://wvfDmcgac.org/AtSosR>,-0.51555854,0.98445374,-0.31160885,0.2174908,3.6371,0.3046467,-0.9536543,1.1576935,3.3019347,-0.8690755,-0.15447287,-1.3234401,2.4738727,-1.3488598,-3.36298,0.15434183,-1.0321794,4.427624,0.15603381,2.2989123,-0.4073357,-3.4104793,-3.1527252,-2.1584566,0.5603838,0.58517903,-0.08176141,-1.4841775,0.27624676,1.4159229,-0.14054897,-0.91456157
<http://xwCkZdWzzBxU.org/bzsL>,-1.1343606,0.38952705,-0.93868506,3.6461692,-0.42822996,-0.3869544,0.15758128,2.4545615,-0.9052992,1.7733052,-1.2330192,1.249818,2.4927034,-0.70641184,-1.6118882,0.56902486,0.44342357,2.2669816,0.5098188,-0.37830764,0.68153805,2.51384,2.723612,-0.45271513,0.42814058,2.2325702,3.866721,0.45043176,-4.2277255,1.1816547,1.7178403,0.076439336
<http://MrLscbtSuM.org/W>,3.6963089,0.7131949,-1.4015595,1.4692318,-0.14631897,-0.9386659,-2.8663473,1.8522931,-3.7479808,2.1824422,1.346637,-1.4014503,0.7599177,2.3847175,-1.0097121,2.7728786,-2.2727592,1.3651395,-0.105311,-1.8131933,1.5274681,-0.6043934,-1.011777,-1.9446287,0.9330001,1.0346328,3.1020813,0.49581677,-2.3006232,0.70760727,-1.8100507,-2.2338974
<http://.org/wFxxhOiOuEolhZ>,2.5677476,-0.36022234,-0.035863582,3.692591,5.567241,2.0981112,-0.32967803,1.7564143,-0.68354875,3.7835066,-2.0455678,2.1075568,1.7452546,0.3544617,-4.660553,-0.024800122,0.45421696,1.315261,-3.296217,0.227282,0.69902337,-0.82987124,0.2466722,-4.5438027,-1.8993834,-0.27731952,2.3786645,-1.4515581,0.6261718,2.016186,2.3086715,-1.8028773
<http://rzofTyLmDiyAfLXSlp.org/tzcmu>,0.39893678,-3.4362047,0.82004464,-2.2017395,1.3720489,-0.76109594,0.544272,-0.9604311,-0.8834624,1.8894037,-1.8417742,2.6390383,0.33109882,-3.8326836,-1.8712432,1.9409517,-3.1028621,-0.5147848,1.2480193,1.1323451,-0.6178453,-3.249736,3.0208845,-3.1282985,-2.411702,2.3079295,2.426078,-1.6327316,-4.3619967,2.9069293,-0.0656521,1.0290837
<http://wMTFLkUQNajl.org/nLlk>,1.0379112,-2.072399,2.1429644,-2.3844614,0.46656102,-4.295697,-2.0709438,-1.1203129,2.5742483,1.328245,0.4375497,-0.14255334,-2.301767,-0.030391261,-1.2628522,0.8016467,-1.5807925,1.5521349,-0.87806654,2.6270218,-2.6118057,1.3015729,0.11353563,-4.776755,1.9654588,-0.5950635,-1.8019634,2.246166,0.45904148,0.19290197,1.6942933,0.23588833
<http://xSCGRGONFDdTzCeqg.org/mw>,4.1850114,-0.61834013,0.7938594,0.27572003,2.9204845,-1.2124951,-3.1365194,-0.9527662,0.6404345,-4.1633325,0.9147963,-0.4607953,-0.6957546,1.2234991,-3.1102755,-3.0314784,-0.093581095,-0.6682112,2.8759916,2.526886,-0.11087423,0.15446517,-0.10728684,0.31083798,3.5605786,0.44044182,4.002512,2.790276,-0.7320658,-1.2556685,-0.38519943,-0.80707777
<http://A.org/uvkMGRtevdCSsM>,1.4595678,-2.5371053,0.58700895,0.96879566,-1.4561219,-1.1823006,-0.6471926,-2.9472368,-0.27328193,-4.0881987,-1.8400749,-1.2880979,-0.92061985,0.5810806,2.078381,-2.500023,-3.7789578,2.0185297,-1.4480462,-1.5894656,-2.3586228,1.4701308,0.32644138,-3.2775245,4.0026507,2.0798204,0.5170636,1.3951375,-3.3751438,-1.9678434,1.7439047,0.03287242
<http://mGNLzDiFpP.org/WpJKfJKrNKicJLYxycB>,0.3901407,0.32336164,3.7427728,-3.2075558,-1.4564277,-0.046207983,1.4422877,-1.6553737,0.5845565,0.7341105,4.439802,0.0018510212,0.91225606,-0.09142016,3.323,2.5562265,1.406192,2.3040788,-0.8298694,2.301,2.2527845,-0.97287494,1.8591988,-1.8657517,-0.060987767,-3.4059105,3.0347962,0.60586655,-0.90570086,-0.43101656,4.261954,-3.0745912
<http://OYtf.org/dLuecpxlqwufiLk>,-3.7312632,0.29257804,-4.1166043,-1.7685688,0.3446224,2.2396631,-1.1715204,-1.0935519,3.737066,-0.6467954,2.0042758,1.3211036,4.0683746,-3.0211942,1.4978778,1.5409784,-1.390027,-1.7991624,-0.553859,-3.198721,3.0022144,-2.3192425,-2.4307575,-1.5779915,-3.5119157,-0.6439779,0.11455036,-1.9894687,-2.6365476,-1.7359191,-3.165298,-0.18201321
<http://VQkPEnJNuWUwI.org/>,-5.7171125,3.435456,-1.1610873,-0.3246092,1.0191388,0.4645691,-2.129229,0.20060107,-0.116814665,0.064540885,1.1771408,3.2240725,4.518876,-0.42916942,1.2076963,-4.4514737,0.35470062,1.4003468,-4.685005,-0.8913558,-3.6009905,3.0696282,-0.73452455,0.827292,3.4067512,-2.1508026,-1.3556826,3.7412524,0.9142939,0.97363317,1.7097582,-1.0566436
<http://fWEv.org/yYmXEkib>,3.0274546,-1.3503221,1.0912519,-1.4929589,3.7552617,-3.758175,1.3833514,2.0915997,1.4132749,-4.247768,0.9996425,-0.4329179,2.1119373,0.75446296,-1.1313843,-4.4132943,-0.2681084,-0.5463352,1.433046,2.010842,-4.1214437,-0.89029366,-2.5213473,1.6296134,-2.1396177,1.8824664,-2.8366523,-1.9458542,-1.3427465,1.1199073,1.7730519,-0.17014796
<http://EsFAIqeqbiewzbg.org/tXYAirLqrgoiaOLxfq>,0.98724306,1.6954871,-2.380375,-2.3754861,5.6245704,3.7395248,-1.0593916,-1.2777784,-0.33961406,2.082719,-2.61862,1.1339722,0.6719208,-3.0926764,-2.5720346,4.3280687,-0.3017085,-2.302317,-0.030625505,-1.7160895,-2.636266,-0.19686471,-0.34834597,0.17397702,-0.1769117,-0.9581117,1.108182,1.4771457,-3.8327708,-4.6023455,-1.2549874,2.747094
<http://iSG.org/gkCVzANqb>,2.728845,0.024775382,2.8070471,3.2156549,-0.44746944,-0.08267739,-2.6587045,0.60484254,0.032941505,2.176925,3.193966,0.870385,2.7249873,0.014556736,1.3933586,2.319867,1.062681,0.5631201,-3.5136826,-1.3564416,-0.14072235,3.2627661,0.46629736,-1.5444536,2.4056034,3.6182745,3.4393141,3.8797257,0.82673985,4.1357517,0.9325471,2.3019238
<http://BadjEImuYc.org/nUNGKW>,-1.4038451,3.9564264,1.558976,0.3358587,0.14613292,4.642721,1.2673457,-2.7125459,-0.3692127,0.21263297,-0.17420548,1.1091659,-2.0247147,-0.36186326,-1.7607933,0.5526642,-2.306217,0.14988674,2.815546,-3.1155915,-1.0941352,1.3177627,1.8157388,-2.0517783,-2.6404717,0.08180202,-1.2956126,1.0844843,2.2392411,-0.18463276,-2.9511993,-1.9724982
<http://tyondghkb.org/OFLXPegn>,-0.8908466,-3.0043714,0.1451026,1.8915912,-0.5212267,3.4997833,-5.0852876,-4.409634,0.62053305,0.08727835,1.8623703,-0.9340987,-0.6176189,-1.9438236,3.0505936,0.08226099,-0.28684187,-0.27982572,1.212733,2.075695,-2.0928948,0.9623621,1.1211015,-2.1521971,-1.0107728,2.5839174,0.83722,0.24791878,1.2474949,0.7059745,1.6765374,-0.9078758
<http://elJDORtCWOEKtemnkOc.org/MLCxqvMpozfGEvLZl>,0.8387654,-0.06459689,1.0933272,2.077309,-2.9859357,1.655334,1.7551926,-0.6597075,-1.8793441,-0.48645034,-0.013811702,-0.69870377,-3.2197838,0.9398335,-2.996317,-0.30608457,2.1102886,1.816074,-0.09228827,0.107585154,0.11030352,3.4278316,-1.4101473,-0.8643563,-0.7329589,-1.2010893,-2.4036746,-3.124515,2.467782,0.96478176,-1.0872333,-3.7144427
<http://fYEemeVif.org/>,3.2963386,-2.0634847,1.1889999,-2.9404166,-1.4533957,-2.4783978,-0.8178133,1.3332866,0.20634913,2.9140832,-3.4306636,-4.722925,-2.8377378,-0.19132446,0.9370454,-1.2494618,1.0530562,-0.062762275,-1.6361363,0.62319505,1.6898755,0.8949891,3.220504,-2.7283425,0.98991716,1.6731554,-4.8271613,-3.452537,-1.1316017,-0.9194475,-1.1282765,0.51090777
<http://QpmnmzBaZpnQpS.org/tRpBwIvNXftjL>,1.864332,1.9066739,1.3621398,-1.3757155,-3.1493165,0.687708,2.0947163,-1.0138847,2.7958019,2.487048,-0.35029957,-1.7776314,0.34456554,-1.9098665,-3.2835648,-3.4697852,-0.7482986,-0.103425294,0.17751122,1.9802372,2.9548388,2.5333304,1.4118607,-1.1799304,-2.2356668,-1.6925181,0.5770318,-4.5045757,1.0472678,-2.2827442,-1.5417651,-0.00910065
<http://XwkInhhthYp.org/aocijjrpOsNhVsCCH>,-1.8800632,1.1034237,-2.345533,-1.4571404,0.20547111,-3.957983,0.53786206,-0.64477557,-0.33865196,6.135015,6.196071,-0.23242311,-2.9302132,0.027598824,-0.7886755,0.7260462,0.702035,-3.5421038,0.07338223,2.3491418,-1.3761253,-0.35314018,-1.1978594,-0.342379,1.3364868,-0.91764015,-5.248417,-2.411752,1.0746881,-1.5859802,1.5754286,-1.5193869
<http://JDpppvPFAjtioUBtzd.org/bYa>,-0.18738721,-2.7119823,-1.3702203,2.2674596,0.12222912,-1.8621088,-1.4115994,0.24405973,-1.3047713,4.2188344,-0.7976075,-2.9998667,2.1682534,0.8369813,1.0410142,-1.5768199,-0.8058663,-1.3069872,1.6978737,-1.810125,1.756665,4.794492,-4.2717986,1.6923186,0.22438587,-1.0681704,-1.6751846,-2.0818832,-0.50516737,-2.0224447,1.9887825,-0.81717527
<http://PMtmnzIHHQXnhwn.org/ChXdrPHqCnj>,1.6924244,0.12400689,5.095679,-1.3408484,2.56573,-2.4534876,-2.666642,-4.415485,-3.877664,4.274547,3.7229314,0.07048237,2.866203,2.5701492,1.0170188,1.9081086,-4.430964,-1.0154448,2.0958455,-2.1104715,1.2962681,2.676641,-0.57299685,-3.749391,-1.1210517,0.5831291,2.4798908,1.5553746,0.17471454,1.9834071,1.1052697,0.91942954
<http://dN.org/YdQ>,-2.5564594,-4.6646023,-3.2015965,-2.7443898,-1.4734694,0.9123076,2.0855012,0.11187176,2.0033557,-0.91693157,0.7877312,2.1093845,-0.73078513,0.5736166,2.3682122,-0.3150019,1.157905,5.0575614,-2.4020436,-2.6494584,-2.2818177,2.6473315,-1.3312626,0.13832605,-1.310515,2.4524891,2.2762525,0.27764648,-2.1275434,-0.95960724,-0.809771,1.4184216
<http://FfHQbvjFH.org/EymugJXqPjtRxNmm>,-1.013094,1.0760369,-0.47331065,-2.2627,-1.2532822,-1.5678078,1.6897988,0.89464134,1.5967082,-4.1452737,-1.5994407,2.6905656,-2.5720675,-1.9465488,1.6023886,2.1787524,0.23058507,-1.0404963,-0.5276215,0.33484635,4.750526,1.7162361,1.5991594,-0.7484829,-0.63509333,2.760198,2.4315279,-0.60707,-2.6823254,3.1737916,1.645558,-0.50044245
<http://xynnv.org/>,1.8957257,1.9088776,-1.7128614,-0.43364882,1.1456983,-3.2290058,-3.7496033,-1.541888,0.6451304,-1.4507478,-0.8627911,0.4427051,-2.1777205,2.1444867,0.0014210859,-0.6124139,-1.0048027,2.6638653,-3.0941608,-1.2130054,-0.63078886,0.8129823,1.6875287,-1.8580592,3.7001996,2.3760004,1.1860561,1.1467723,1.5213894,-0.93333036,1.1695902,2.7995727
<http://nizINZdDuUMtn.org/WiYbFVUGLUzFBzUDUS>,-0.5238168,2.0507965,4.310245,-0.9903758,0.6712696,1.596317,-0.086151175,-1.9729174,-0.5436561,-1.1856024,2.072774,-1.0426203,-3.8043506,0.86394626,-4.033627,1.4330714,-3.27155,0.7816202,4.444395,1.3457404,-1.6268497,0.47604448,4.850831,-0.2232559,0.4940086,0.13909186,1.9812894,1.4334576,0.29867882,2.523293,-0.48212776,-1.6151788
<http://vDpSFBCZKTSenxcj.org/tPJ>,4.7431893,-1.7187523,-2.2849069,0.20675045,0.28496686,0.6772775,3.7535129,-1.3368927,0.6251217,2.675256,0.81040245,-1.6815034,-3.2973032,2.9807985,1.5525265,-0.33109152,0.7745696,-1.8999246,3.8924952,3.564544,0.84923226,-3.9839408,-0.7464818,0.8912093,-2.6238658,1.4701619,0.83333504,-2.1234522,-0.9329454,0.95157075,-2.535308,-1.8301582
<http://pHrLzHpZlVHPNA.org/pKzJgqSymuAh>,-0.857478,1.9369663,2.6482027,-0.41135648,0.096141376,-1.4579382,1.965515,-0.24261028,-1.8010697,-0.076333836,1.3024653,-2.5233917,-1.0239768,-2.7310307,0.008496201,-1.1463813,-3.2590775,-0.07968267,-1.4043773,3.8673105,-1.8230811,-1.4223336,-0.15349992,-0.3992576,-0.17110308,5.3921967,-0.432722,-4.2621336,-1.8870935,1.4926054,0.5558701,-1.4168932
<http://EWdVWpAzS.org/ugDpdHIngbJEo>,2.217572,2.87739,1.5776423,1.7242624,1.010859,0.44032523,0.51481485,0.80547243,-2.1692626,2.0312948,0.38208395,-1.5034133,-1.8333968,-2.243937,0.7590459,-0.8323154,-3.0824027,1.0077405,5.1991577,-0.1665696,1.6746023,-1.3722323,3.1804366,1.9537944,0.023572426,1.8976713,-0.56733453,2.1199596,-0.11604576,-0.4345206,-3.6503017,-3.656044
<http://jogBJprWChkA.org/AzKDoONd>,-1.7062259,-2.0250633,-0.9122096,-0.062169243,3.4663515,2.667272,-2.029965,-2.7591197,-1.1969082,0.6011695,-1.1352751,-2.0638125,1.9456226,-2.3472085,0.855117,-2.316274,-3.7793272,-0.4936351,1.0044862,2.5094085,4.0967627,1.5163583,1.9980819,1.7487245,-0.759156,1.0126334,-0.091369465,-0.7589707,0.24228577,0.4366943,-1.191266,0.64151967
<http://JukkuoBABUmncCvVCET.org/VfRYxIWpv>,4.5238643,1.018345,3.2459168,-0.9525083,1.3710737,-2.2325275,-0.10481321,0.24367476,-0.91343576,1.0661877,1.1396974,-4.6459074,1.4376525,1.9580098,0.8894555,-3.8658426,2.0663428,2.221585,-1.3603745,1.6642824,4.1088448,-1.850328,-0.105706364,2.1949232,-1.2150247,1.0289814,-1.3041638,2.6173508,3.854296,3.006199,-0.42814177,-0.5531684
<http://EmhAxqXdiAHgJcp.org/A>,1.0182158,-1.372986,2.7985349,4.2805557,1.2895024,-0.32108033,1.83026,0.39219883,-3.5137696,-1.236795,1.5145022,0.036106244,-1.5871099,-0.96869034,-0.27397054,0.9550494,-2.2211995,-0.8534077,0.5191216,-3.614623,-0.45679983,3.4359593,0.08113867,-3.2899346,-1.7892227,-0.9583335,-0.928656,1.491981,1.4621549,1.1994553,-4.4809923,2.3235614
<http://uhPVzyu.org/KMKoatBPWRXhIAY>,-0.55925494,-2.0596051,3.2407067,-0.48022473,-2.1150448,1.4997544,-0.2806417,0.25871083,2.160937,-0.56253,-2.6742258,1.1758128,3.775188,-3.1284418,0.26101312,1.3529907,1.1822066,0.16909187,-0.7036341,-3.0696993,6.4987116,-1.4546431,-0.17255986,-0.9831721,1.3130704,-2.3006966,-1.2036308,-1.0175754,-1.9456033,1.0169773,1.9084439,-2.96282
<http://CBRQYPDuPNMEwHdSCJ.org/EFSTsGVF>,-0.4825159,-2.8525395,1.1608306,-0.9879424,-0.01742941,-1.2470907,-2.4993205,0.9252732,1.588521,-1.5031459,0.38187757,1.1639951,0.47709665,-3.2415361,-1.1901112,0.571209,-0.42182866,1.8078293,1.7829329,-0.5485572,0.23405774,4.6481094,1.1426992,2.690374,-2.0875564,1.2262938,2.3331566,-4.2229905,-0.7089604,5.0247545,3.3763545,-0.8373111
<http://BqqJoDjbhLDYZvDJu.org/dadI>,-1.1218635,-0.30241314,0.23022935,-2.8912039,-1.1031379,-2.1098711,-2.1055398,0.7806564,1.1890382,0.0070656263,5.0809093,1.2108335,1.5649276,2.118718,-2.90237,-0.616465,3.2267737,0.8126673,0.06845359,1.0460808,0.12716098,5.303634,0.21789365,1.4488349,-2.0612938,-1.4895009,0.071876645,0.5813663,-1.5532204,3.690632,3.2811596,-2.2907755
<http://iml.org/qOxslgcIJ>,2.5796142,1.0614507,3.6830757,-1.7409997,1.4556012,0.5253859,-1.0448849,4.550733,3.5007093,1.423849,1.2503843,-2.8378954,1.3526917,-3.7985277,-0.034862798,-2.7350123,1.5061821,0.07301213,-1.0996282,-1.3053777,1.8574178,3.385091,-1.7716113,0.030702973,-2.4287102,1.0052391,1.4026217,-0.13163567,-2.3038151,-0.041733686,1.3141465,-0.96276695
<http://vQKJYVjYqVaSDjDNR.org/fnrcnv>,-2.0222387,3.3946326,1.8290237,-4.890987,2.3817327,-3.7232006,0.49421147,-1.6630545,-3.9832935,1.5258533,-1.5977846,-1.7359064,3.2006361,2.4476297,-2.8020568,-1.8739594,2.0786088,2.7197728,0.26562333,3.5005603,-2.4068134,-1.0517684,0.88116187,-0.3118266,1.1849608,-4.1754503,-1.3690269,-2.5358124,1.3689926,0.8740527,0.85799426,-1.0430509
<http://Lxcpxdskrhzi.org/ysTeHGbWn>,-2.9124262,3.7606986,-1.057251,2.0328305,0.72581685,-0.036719266,-1.1705693,3.8614652,1.7302694,-3.096479,0.69486195,-4.0735636,0.001986431,0.06523438,-0.45737958,-0.8282674,-0.19540018,1.0701596,-3.5952415,-1.9078159,-1.3686136,-1.074871,-3.5588026,5.356526,0.9241222,-0.45475066,-0.57339084,-1.9928674,0.2253069,-0.37907228,3.7890275,-0.36169985
<http://hNTPmAvkiZNrh.org/vlabtzcpKKCfhtPDmz>,-3.6837325,1.8052957,-2.3518405,-4.139125,1.7582603,-2.1025722,-2.711398,-1.9205577,2.3544188,2.469472,2.6636932,-2.6026773,0.30272445,-2.3848212,-0.14128628,2.0846522,0.17980261,0.1002469,0.09584022,2.0765076,-3.0202975,-2.1318634,1.334529,-1.6978369,2.041,1.1142277,-1.3713639,-1.4278826,3.997244,1.7104071,-2.6444108,-0.27022094
<http://HLYHDgX.org/GKK>,-3.487586,-2.680118,-0.53097814,0.5571654,-0.56553984,1.0329092,-4.0170684,-1.2599131,3.3395534,-1.6796186,0.38701496,-2.7551293,2.2234254,0.7569479,1.1590426,-0.10016802,-1.9879845,-1.6748434,-0.754075,-1.7945346,0.8764085,0.9484176,-0.442838,-2.6757658,1.4618891,-0.4367551,-0.34799942,-3.8285341,2.5292315,-3.9946976,2.291515,-3.778678
<http://pd.org/NFERTGJJKpwSsv>,0.89154625,-2.7000368,1.4113739,-2.4281394,4.239593,-0.18713993,1.9316971,-0.9944986,-0.29136795,0.9185238,-1.4785222,1.305026,-2.253654,-0.23840833,-1.207182,1.987973,1.929944,-2.0259564,-4.3457317,-0.6423223,2.4557078,0.6204946,-1.3726633,-2.7257519,2.8882108,-2.3242426,1.9110359,3.6935854,-0.9935574,-0.59761596,-2.3074071,4.372857
<http://VgrTwgdcDarEYRHvcSU.org/oSUeedMX>,-1.1266257,1.4378316,2.1229856,3.4485977,-1.5903751,0.5361993,-0.7876196,-1.8963325,3.217849,-1.4361767,-1.4730138,0.1340391,2.7584512,1.5306315,-1.3609203,4.2707577,-2.3673613,2.903625,-1.2992718,-2.7208319,1.482304,2.6169834,1.1780468,-0.8681723,0.116997145,-0.028719584,0.7683532,-1.5870895,-0.78700465,1.5312399,-4.674606,1.7486315
<http://aFChZz.org/zta>,1.3399324,0.09242377,-0.76845163,-0.6075788,-0.6341974,-0.822675,1.4766681,-2.542918,-1.0894054,1.9555167,2.5052104,-2.5951583,-0.2040627,-2.6500983,1.1110767,-1.5216701,-4.1705065,-1.8083175,2.0450113,-1.8054475,0.5430019,-0.818901,4.854359,-3.7927969,1.1270957,0.2155768,-1.6110405,0.62968665,-4.88663,0.62154096,-4.8076725,-1.4932909
<http://BhXeW.org/LFmU>,2.9930563,-2.6159503,2.1996913,0.2874198,3.909235,-0.3539687,1.3979225,0.5445133,2.06814,0.66918945,0.66848963,0.70866394,0.020612989,-2.679223,2.5623775,-1.1994865,-0.25030857,-0.27880582,3.1263433,1.7978011,-2.2840154,3.2924335,0.37251413,-2.4454772,3.2288623,-0.45418385,-0.7339419,1.0953652,0.49159616,-2.8383245,0.2894745,-1.6235934
<http://KCmxugEjVTNV.org/q>,0.76983094,-3.0176404,0.41836056,-0.68906164,4.6022153,-3.4100041,2.467698,3.9051006,-0.94846123,-4.4609976,3.2333975,2.400814,-2.274035,1.3538766,-2.4487584,-2.2896006,0.2024303,-2.5543144,-3.7245324,-3.0324519,0.88164884,-1.2456471,0.6821988,-0.075315066,-2.5393088,3.7503,-3.3814652,2.116516,-0.7398234,2.837738,-2.4786077,-0.19516449
<http://KHZdUhNHJUx.org/x>,4.1016974,5.4695034,0.69900596,-3.0762832,2.2096748,-3.5636191,-0.887475,1.706044,0.683954,0.116163515,-0.44857454,-0.9053215,1.8947963,2.8354769,1.5956433,-1.0620476,0.84886587,-1.2223095,1.8131622,-3.1644526,1.7249292,2.0553038,0.42054954,-2.4948492,-3.0027878,-0.6308015,-2.8629138,-0.28864375,-2.1073463,-2.8443627,1.0315845,2.014581
<http://gE.org/VtWgoEvTjQWfLKxDT>,4.6514077,-0.88459086,-0.026718099,4.85057,-0.21577163,1.7240049,-0.15150131,-3.3248718,-0.26720804,0.03596725,-0.22071517,3.7932303,1.1706064,1.6940558,3.2583594,-3.8919463,-1.6137282,0.17605816,-1.1662006,-0.94425833,1.4814236,-1.0137944,2.0162325,-5.710854,-3.6961513,-1.0969758,-1.3540897,-1.2783184,0.9054298,5.412516,-4.6331143,0.05206703
<http://znAXMBuFNuQ.org/zGCTaUiqK>,-1.9014249,-2.0988731,1.104326,1.4045529,2.2297232,-1.6073085,-4.0786486,-2.5510728,3.7518146,0.27839756,1.0273285,-3.790918,-3.8141186,3.400238,-2.8262584,0.05967668,1.6371841,0.9645873,0.8840771,0.94012606,1.2913878,2.4838529,-3.7441473,1.6144528,0.30751467,3.6258576,-3.153112,0.84158105,-0.8788058,-0.41466635,-0.24856071,-3.8822675
<http://zRDJseODr.org/EyxKsrbzNj>,2.3824387,-0.65760607,-2.843543,-0.03995202,-1.3336494,-0.09161624,-1.8917104,-3.1638215,1.933172,0.08406217,-1.5604068,1.1539944,-1.5473788,1.6350187,-1.2026211,-4.18063,-2.8468328,0.7230793,0.26163897,2.2856748,0.8266526,1.5141722,2.9860365,0.9700144,-2.6374962,1.5871989,1.1169235,-1.1170111,3.013392,0.4445992,-0.9312111,-2.5511885
<http://gGlrpWOcKxTf.org/xmjRDORZYZzOWtKbNbR>,3.0374355,-3.145256,0.23283854,-0.11270591,-1.7185813,-2.0690358,2.429187,3.756998,-1.2228808,-1.619727,-2.0655413,0.81357265,-4.442312,3.9146276,-0.03847413,-2.291138,-1.9854057,3.169929,-1.2891951,-3.2547302,1.6794533,-2.237516,2.9571426,1.130772,-1.2651142,0.77121747,-0.60262203,0.5858519,-0.70166963,-1.6697516,-2.7010684,-1.293407
<http://.org/GLjJMtomVHzFNPry>,3.181098,0.30104983,1.8921232,-0.032756954,-1.9461828,1.6101489,-2.3600805,1.0071025,-2.821271,-1.7617928,2.8765266,-2.5506682,-2.487899,-0.7387906,3.2423868,-0.8060703,0.35631278,3.4519355,-1.8324753,-3.4366322,0.6871724,-2.178451,-0.8968745,0.34447265,-5.2371025,3.6846402,1.590457,0.5760483,-2.9879992,3.3748546,0.06679182,-1.0194227
<http://VDwjzDwCicqwCCjkr.org/CKnxx>,2.00682,-2.6014867,0.11314381,1.5972959,2.978803,-2.9746683,-1.3446331,-0.4070518,-2.073421,0.10626203,-0.20516093,0.23991299,-2.5565426,2.21978,1.6068183,1.1069483,-0.6257141,1.7472118,1.806755,-1.9853691,0.8252145,-6.5298343,3.2958233,-1.219139,-3.6310508,2.7510285,1.6703805,-0.3071659,-0.6690457,-2.239402,-4.0567627,0.15982497
<http://vpnKmgWH.org/THzZjVR>,-0.35769337,-0.9530046,0.2920542,-0.47139344,1.7060244,2.8468637,0.9574843,0.008585032,-0.57912815,3.928085,-1.9123054,-1.9213208,1.0185851,1.4342377,1.1342379,2.1489742,1.5369061,2.3756392,0.17674404,-3.0579622,1.1098794,-0.8846055,0.5118494,-2.3809762,0.5066308,0.7024448,3.1282089,1.825179,3.0971098,3.6707027,-2.1710289,-1.2551742
<http://ckyov.org/RodfNOVoHfPyyrbUf>,-4.2086515,4.0452633,-0.7566415,-1.9247774,0.12624303,-1.8832521,-0.74479604,2.7869794,-5.600013,2.9941664,-0.6529533,0.84215397,-2.8573303,-1.288545,-1.7809701,2.1397443,1.456302,-1.5020007,1.8030723,3.3480647,-1.9129655,-1.9980271,-2.2702148,0.32776684,-0.88401,1.7249585,4.3208156,-0.78993726,2.496672,-0.1413377,1.435489,0.29509556
<http://linkedgeodata.org/ontology/access>,-2.8476536,-1.2148101,1.2659533,-3.0665884,-1.5847584,2.657254,-0.06811187,-3.7544734,-1.1413537,1.6236792,3.4043837,-0.27372167,1.94341,0.6449427,0.974753,2.2706409,2.458909,1.521556,-2.0770254,-1.6026063,-1.7024723,-1.8441293,1.4794426,-2.6122577,3.0239215,3.39237,1.8000405,0.39449763,-1.5259858,0.5463101,2.6536856,-3.308586
<http://TOgMRjzYaZrKq.org/ayaWgIrkP>,2.8488667,-0.107389525,-2.6634846,0.7434706,1.8259202,-4.281488,0.042575724,-0.38990644,-4.2828484,-1.6095994,-1.5829813,2.5895226,-3.5233502,0.070905745,-0.70371616,-0.6839947,0.46529984,-1.714603,1.0101283,0.70698106,1.1720005,2.6098256,2.142715,-5.6290617,-2.3249657,1.7243665,-2.6916988,6.180942,2.000666,0.83916605,1.4277883,-0.91185707
<http://jFfaPv.org/bOcsU>,1.2498932,-1.1611547,-1.4593168,-0.18461353,-0.8538864,-5.203737,0.4370974,2.0033646,-0.77850217,4.135753,2.6901472,3.626389,-4.0772552,1.9170282,-0.11884834,-2.722295,1.7294043,3.874129,-4.353266,-0.6970971,-2.7485886,1.2319069,-2.8492434,-3.3781488,-2.9972138,0.6727531,1.5283744,-0.5846686,0.5047409,0.51443905,1.1365634,1.2687804
<http://CyiNyOMJKcF.org/RkupgCnIsx>,4.623355,-1.166357,0.95628566,-1.4563632,-3.699437,-2.6919758,-2.261931,-2.7691998,0.14295009,-1.306725,0.6784625,3.1228557,3.1055171,-1.180146,1.2743362,1.6448743,-1.1708605,1.5914522,-3.2564006,-2.0654297,-2.4095829,-0.62959397,1.7567798,-1.1580137,1.795556,-3.917806,-1.3183385,-1.175563,3.7197943,-1.1412673,-0.35601407,1.8826832
<http://NOKoSjcB.org/npmsRJ>,-5.6777306,-3.6627352,2.179432,1.6236272,-2.5870488,-0.4088603,1.1459217,-6.008355,3.5751493,1.0145153,0.8508569,0.6218007,3.1844246,1.5850924,-1.3608744,2.6956604,-0.8578731,-1.6686449,-1.2742724,3.0951805,1.3980538,3.0865324,2.3592277,-1.3960555,2.4496787,1.7563647,0.030699441,2.5258837,-0.9333134,-3.5321891,-1.8739059,-1.1105081
<http://GfAjKqOZc.org/rCMFFjfQz>,2.3175292,-0.30392426,1.4971397,-3.2467024,2.5134115,-2.755975,-1.5739232,-0.0720852,1.0880585,1.1678088,-1.3299787,0.6757572,-3.4797285,0.9497117,0.551859,1.5766277,2.3345878,-1.5483167,-4.365301,-0.015248515,2.9825568,1.6776497,1.6212946,-3.3292851,0.84577286,4.2822337,1.0884565,0.20527455,-1.2481134,1.9899256,-2.9037552,-1.1116804
<http://vTjWhAxEBoP.org/xxeDljCpxM>,-0.8720491,-3.08803,-1.7697104,1.1577461,-2.2741728,-2.050454,-0.981292,3.2501853,-0.09679588,-2.062039,0.63778466,0.99797225,2.2064955,-0.90770364,-3.551675,-0.445143,0.88019866,1.1919106,-0.4379223,-2.7624059,1.8212197,-1.4566267,-0.5281106,-0.29819003,-1.1617721,2.7241814,0.18723044,3.7308643,-2.5975559,-0.9273311,-3.4215126,-1.6158295
<http://HTT.org/ALvuPpcwqsNeq>,-0.57699573,-1.8974996,-0.5987745,1.2247121,-0.010722969,-0.6737044,-0.98609537,0.13377805,0.8514102,-0.36897102,3.2808406,-3.3152392,1.0399725,0.25098214,0.34257203,-1.0114058,1.5333419,-1.9481043,-1.6093038,1.5304139,-0.7869164,1.4721119,0.7257204,-1.0510894,0.072460495,-1.8034557,1.3206949,5.440222,-1.6465474,-1.4007856,-4.5401154,2.1340852
<http://KP.org/WmVrSCU>,2.5909042,-0.115263075,-1.3027517,-0.6400222,4.5699754,-2.6669514,-0.81608427,4.2615976,-3.6699939,0.17950839,2.7367609,1.7884754,-0.5794885,1.3735099,4.3945656,-0.3128091,1.5469697,2.0865457,-2.0243528,0.76237476,-0.26643345,-0.35741362,-1.2433798,1.7107172,-0.2051743,-0.62541986,3.168309,2.3736234,-0.2987602,-1.5999049,-3.8570113,-3.2988312
<http://dhPwMxPXKYtcI.org/vrD>,-0.27724376,-0.9068155,-1.0706537,1.4833121,3.021247,3.5183086,2.8740592,1.3899105,1.3179232,-2.0141032,-0.9077087,-1.368409,-2.5654204,-0.38473696,-3.5336561,0.4112894,-5.413456,1.9265082,1.2678169,-2.880488,-2.612841,4.499535,1.1903553,-3.3573244,2.12058,-3.2612627,0.64494556,-3.5363262,-1.7180912,3.0220058,-2.6409073,2.0966287
<http://tobnQmTep.org/gWxZ>,-0.082469486,0.21281068,-1.8540605,-0.2095938,-2.3729823,-1.1510646,1.9437544,-3.7211912,-0.30452812,0.97628343,-4.6181684,-0.21936372,-0.56300664,-1.4302992,0.3489574,1.0963763,-1.3787806,-2.1008806,-3.916758,0.432162,2.5802674,2.3862028,0.50264823,-0.46764648,4.564254,0.03757084,-0.36759993,-3.258904,-4.157076,3.623204,-3.222013,-0.7562378
<http://DeTriki.org/pOGDwREKDLcGUEtDm>,-1.1916976,2.1351495,-1.3723295,2.4105175,1.0832378,-4.157236,-0.056293212,1.2630507,-0.7166373,4.274073,0.001357312,1.5326551,1.3934672,1.8606124,-4.334395,-0.9047131,-2.0762844,-1.0161014,3.6017137,-1.3847685,-1.3701642,2.1673362,0.9346973,-4.658906,2.390158,-1.6679977,-4.86281,-1.7656944,0.8022905,-1.0890188,-1.0048496,2.8652434
<http://O.org/TUKjGDGPGmJYRgPYWII>,-1.2695159,1.7321091,-1.0191445,1.3511025,-3.923334,2.2114332,-0.09794948,-1.2393075,3.043187,1.6077329,2.7444043,-2.9772034,-2.170842,-0.37593868,-3.0057032,-2.352792,-2.5038931,0.066980556,-1.0855714,-4.1694894,-0.64981,0.20277892,3.3714056,-0.10272658,0.52283823,-0.739073,3.9988093,-3.7576215,-0.84104174,-2.4035232,-1.4690748,-2.4138684
<http://WkYc.org/mbRZrNLAzqNblSrhD>,-2.865895,0.47139677,-2.102375,4.028443,0.96723264,4.5967298,-0.119955644,-0.88727814,1.3048986,-0.048770588,1.9458194,0.7569637,-1.5333728,1.5139163,-2.589861,-0.34480864,1.9342794,2.0604565,1.011167,1.8128045,-3.2797735,-1.8497063,-0.36959645,-0.9243722,1.3485794,1.1824518,-0.16587472,-1.4057997,0.16896443,1.8681818,-0.06969142,-1.7571247
<http://mBds.org/VNqbay>,-1.0902845,-1.9584211,-4.188171,-2.9110656,-0.7030669,-2.1020484,-0.20711055,0.71537274,1.1696554,-0.0728215,1.6256776,-1.1685125,-3.9634442,2.5890484,-1.0230474,2.9750147,1.6087244,0.6916856,3.7148924,0.0037722855,2.203216,3.1067283,-1.6083555,0.91685426,4.28004,-0.07695614,-0.62412494,-0.45923775,1.6990445,1.9430722,-2.3124352,-2.677282
<http://FHSJBJvkUNPCh.org/fYeixQKnsBbN>,-1.3408582,-1.6635619,-0.37894633,3.454177,3.1552086,-0.47084093,1.0237923,-0.7749271,-1.1734881,-1.1354824,-1.5458796,2.805726,0.6883236,2.2808583,-0.79027605,-2.8414295,-0.54941934,-1.2809178,-1.0880353,-3.856907,0.81904817,2.192406,3.368187,2.3300126,-1.2092819,2.2293534,1.375395,-1.2634904,-0.17751183,1.8445228,0.9199834,-2.3788154
<http://PQpxoCxb.org/nbkPBRb>,0.43205383,1.3984637,-1.7878635,0.5350141,0.15274292,-3.1920621,2.0600092,4.1574945,-1.872972,2.8561583,0.33811244,0.72092175,-3.4624639,3.1502578,-2.2725725,-2.104588,0.4206785,0.20658238,1.9958422,-1.9302254,1.430779,-0.6926715,2.4969125,-0.2149638,-1.5207633,-3.3430622,-0.15375869,-0.6614093,-1.3628352,-2.7005298,-5.7975507,0.8649518
<http://EQZEeiVuubuUtMy.org/lisvZiIOJybWcaycTFA>,-1.0329008,-1.867179,-4.3021126,-4.809009,1.9492879,-0.9881971,2.181665,-1.3675884,-2.5066032,-3.506052,-1.8650515,2.4731894,1.7889006,-0.2589244,-0.37873104,2.6165252,-0.33622077,-1.6152673,1.8017248,1.627561,-0.58999074,2.5646377,2.0308454,-0.9744023,0.5675666,-0.46322036,-0.67866427,0.5421439,0.721576,0.4839639,1.7626601,4.566421
<http://NfCRMVIJFMXRVaAVZ.org/LLtdYHzdcIXayBE>,-2.8688142,-4.658453,-1.9988216,0.60606694,-3.243119,1.0761523,2.3984118,0.2703589,-1.265998,-4.637812,0.10684592,-2.7774692,-1.295926,-1.3991128,0.1854771,-2.444184,-0.58730775,1.046512,1.8441734,-1.0016443,-2.0884058,1.683172,3.4376616,1.2848437,1.0085891,0.4813609,1.7294008,-1.343658,-0.92046916,3.027872,1.5871537,1.1716237
<http://sjgSamQypxMFXs.org/fSCSdW>,2.4624257,-2.4683976,2.4617844,0.45749965,3.9223921,-4.2787294,-0.17393878,0.74788964,-2.0509872,-3.2418916,1.3147743,-0.30011255,0.6755317,-1.7302061,-0.64289147,1.7617807,2.7099123,1.4926537,-1.0316049,-2.6316483,-0.031861853,-1.5114855,4.2311196,-5.310141,-2.2423701,-1.4527494,-0.5187947,-0.9384317,0.35420728,0.2901836,-1.1144962,-2.5884466
<http://egPKopWjlcFABtnA.org/wQnjF>,2.4262524,-0.9453092,-0.7505653,-1.4904507,-0.22277406,-0.5605691,-2.287583,2.0354888,-1.5850985,3.4595323,1.4820518,-0.051113255,0.3638233,1.9710808,1.9055113,1.6828789,0.8844008,2.4410222,-0.74907845,-3.4692595,1.9185646,-2.157616,4.8087287,-0.09610213,-4.305165,-0.7540999,0.26090887,-3.0251195,0.5204117,-0.61628854,-2.5645416,-2.7579868
<http://CmsaDVTXfseuQI.org/cgYwSR>,2.5840054,-2.5044858,-1.7971755,2.074832,-0.54913706,-2.9173706,0.1467692,-1.6554971,-0.29332966,-1.6754361,1.7838005,-0.89037424,-2.5370462,1.9633862,-0.1546353,0.5122937,0.03557869,0.22048578,1.5412844,-0.40219006,-0.43177387,1.9291055,-2.0653367,-1.7836308,-3.9487886,-1.4583644,1.1733593,1.1903911,-0.027644498,3.8083422,-2.1212163,-0.09040969
<http://linkedgeodata.org/ontology/ele>,-5.6022573,1.7479614,3.4370737,-0.50426745,-0.65214944,1.8822287,1.5363243,-1.2857156,1.3555253,-1.5579401,3.9988382,-0.01236212,0.75682074,0.74629927,-1.0845337,2.230725,-6.1204743,-0.58053684,0.9188417,-1.85293,5.972091,-0.6517129,3.000226,3.6253917,3.4541342,-4.3162327,0.73435366,1.4715899,0.753298,-1.9669738,2.453818,-1.2341267
<http://mEyFvqTdfSfrsySynqW.org/mGKUOqrD>,-1.1155205,-1.9264115,1.4431422,4.536627,3.8351965,0.5432997,-0.36445016,5.5195026,-2.118832,1.1317396,-3.5903335,-1.9749153,0.26335567,-0.31298536,0.34997642,2.754674,-3.7104282,1.865425,2.656857,-4.133228,-1.9454958,1.4815544,2.4543252,-4.070645,-2.107579,0.6204451,0.4140104,2.3041162,-0.7498895,2.7094655,-0.41728118,-0.3472136
<http://duMYiDBNipWcHIEkaa.org/JfwYBS>,-0.03455181,-2.0955396,-0.02628143,0.4358256,-0.47030723,-1.8849013,-1.4421899,0.8020569,0.3001994,-1.2233794,4.6114836,-5.0279536,-3.8523412,-3.3735132,-3.6090527,0.30157283,-1.3018287,0.121887386,1.9405496,-0.3844413,1.3414916,-1.0050867,-1.1872668,-3.715266,2.9893987,1.706233,-0.60069877,2.756264,1.384541,0.5349077,0.2132176,0.5709744
<http://JOBXiAbesyAl.org/yDpTVLsjrIQ>,-1.5980916,1.5775061,1.3292415,2.1427162,-0.24559906,-1.69527,-2.9931183,-3.5560002,-0.66090816,3.385334,3.0685327,0.36995122,0.9234998,2.801914,-1.9084013,-1.0865456,0.29818982,-1.9390646,0.5629495,-4.4879956,0.3814508,2.4864569,-0.049019795,-1.9683874,0.1476001,2.138577,-2.3381903,0.53544134,1.3521249,0.06741824,-0.8034556,-1.9635373
