,0,1,2,3,4,5,6,7,8,9,10,11,12,13,14,15,16,17,18,19,20,21,22,23,24,25,26,27,28,29,30,31
<http://linkedgeodata.org/ontology/boatyard%3Atype>,0.7885908,-0.8357011,-0.22939241,-0.072163045,2.975064,1.2603251,0.3232266,-1.0122191,1.0310637,-1.7623751,0.5910898,-0.53337675,2.5117524,-0.9620545,-2.3255937,1.2706661,-3.362282,-0.85375524,0.15179965,-3.6974154,-1.2692575,-0.20633087,-0.22515588,3.8852522,-1.1544509,1.9497931,-2.0948484,3.9454515,-1.0374649,-2.7711945,-0.23342332,-1.5628848
<http://purl.org/dc/terms/contributor>,-1.2080017,1.7307582,1.5095013,2.4774196,-1.769756,2.0433838,-1.6793554,-2.2640462,-1.8939583,3.024872,2.5048378,-2.780339,2.1382134,2.1584666,-1.3116481,-1.7754912,2.2024806,1.3092766,3.523491,0.5050422,-2.74589,-1.7578952,3.0730548,1.1746925,-3.441095,1.9720914,-0.78235745,-2.309264,2.2966373,-1.3499304,1.007289,-2.2360122
<http://www.w3.org/1999/02/22-rdf-syntax-ns#type>,-2.374837,1.9232593,-2.3633173,-2.412231,2.2821565,-2.6253316,3.1956275,2.3448646,3.0726998,-2.9507508,3.015338,3.9275942,2.5607073,-2.4274447,2.028074,2.859438,2.9960315,-1.2343559,2.3259237,-2.3137631,-2.6103208,-2.8441846,-2.6458454,2.7533593,2.0053763,-2.6386716,2.5563047,2.291138,-2.706685,-3.2560782,1.5377777,-2.605949
<http://www.w3.org/2000/01/rdf-schema#label>,3.4400034,-1.3554529,-0.3102135,-1.5801451,-1.9627509,1.9149231,-1.5134416,0.43547335,2.3350995,-1.6359655,1.1428418,-1.6488822,-1.3543258,-2.4481356,3.9849315,2.162248,-2.2539213,-0.21208747,3.2019625,1.6090752,1.754581,3.599383,-1.5834905,-0.39213043,-2.57433,-1.7098614,2.5234504,-2.775023,-3.2320282,-1.8747015,1.2818086,-1.6641483
<http://www.w3.org/2003/01/geo/wgs84_pos#lat>,-1.5857089,-1.8222796,2.247054,1.7685242,-1.7951847,1.9661813,-1.6619363,-0.2458235,-1.1720389,2.1929512,-2.9625778,1.5775179,-0.9384396,2.7437813,2.0644724,-2.2119465,0.9112688,1.2837569,-2.3886273,1.8373923,2.7730958,-2.1100307,2.207427,-2.7560916,0.6795767,2.5742483,-1.1841121,0.99466485,2.6387975,4.984735,-1.6498678,1.7917717
<http://linkedgeodata.org/ontology/gadmSameAs>,-2.0090952,1.732058,-2.5981512,-2.3300087,0.7894645,1.8776397,-1.6369424,-2.9589374,-3.7883847,2.112291,0.37434074,-1.4717537,-1.2061958,-1.508562,-1.8600934,1.3140591,1.0790459,3.788645,-2.0183465,1.8167343,1.9126456,2.6749058,-1.8088212,1.971453,2.689208,-1.114736,-2.2755623,-2.5896714,-2.0414188,1.6660638,-1.7228099,3.0065863
<http://purl.org/dc/terms/modified>,2.2047477,-3.0989106,-2.1504316,-2.6904564,1.5911381,-2.6011205,2.306696,0.72222865,-1.5142872,-2.7741375,2.524469,-1.4919977,-1.685824,1.6515249,-3.161358,2.7767882,-1.3766036,-2.6615448,-3.1557703,-1.3441615,1.4262084,-1.7060086,-2.4903197,1.7706907,1.7197527,-2.0546944,-0.4534019,1.1619772,-2.0500848,-2.6656392,-0.20413204,2.2366536
<http://linkedgeodata.org/ontology/seamark%3Asmall_craft_facility%3Acategory>,0.9611321,-2.2913249,-3.3408566,-0.3970102,-0.41181538,3.668613,2.0094144,-0.99997425,-1.7307227,-1.1018468,1.1717895,1.6644726,-2.6843045,-1.2873181,1.2696964,0.19771299,-1.2246404,-3.539004,-0.57097596,1.3090698,-0.79133713,-2.4050634,-0.5933618,-1.3530482,1.5250267,-1.9619638,3.4578655,0.51839155,-0.76888525,0.58427227,-2.4757736,0.667264
<http://geovocab.org/geometry#geometry>,2.197217,2.9547849,-0.5120416,2.7926552,1.7641947,-2.76399,0.20456582,-2.4058585,1.5694172,0.8395325,-2.1543195,1.2438267,2.9197385,3.0129294,-3.1047146,2.0763984,-1.9908484,0.44572213,0.67725205,-1.0171691,0.06080216,-2.5273945,0.83364755,-2.7690628,0.0743926,-1.7520429,-1.5090969,3.0929017,-0.54479575,-2.135526,1.9360846,-2.2431197
<http://www.w3.org/2003/01/geo/wgs84_pos#long>,-1.8443793,-1.9720678,3.5461211,-1.9047015,1.7830553,-1.4353048,-2.4836147,-2.567857,2.2864025,-2.1010058,1.3795035,1.9422619,1.7401642,0.9528881,5.3171754,-0.6759116,1.7965336,2.262871,2.4819815,1.9709696,1.5215127,1.6938382,-2.2376714,0.5665328,1.0857803,1.5696002,-0.8219537,1.0968581,2.8334148,-2.4992416,-2.0849464,-0.059665967
<http://linkedgeodata.org/ontology/changeset>,0.52072865,3.045169,-1.4308233,1.8946728,1.8683854,-1.5018053,1.1801857,2.4252446,-2.6004908,-2.2068927,-2.7459679,-1.9638273,1.0501878,-1.8240714,-1.7176594,-1.5838622,0.7890024,-2.6566513,-3.3299313,-2.4573164,-1.8375635,-2.2419205,1.472969,1.6895196,1.0124162,2.5291147,-2.3923247,2.797567,-3.2166283,1.42361,3.1848316,2.4705727
<http://linkedgeodata.org/ontology/contact%3Awebsite>,-0.3398485,-3.387351,-0.7728057,-1.3493567,-2.7147207,-0.48657638,-1.037307,-1.888958,0.9192091,-1.2906988,1.2621082,-1.9068832,-1.949558,-2.942526,-1.3187156,1.1371694,-1.6684703,0.35646504,-0.6707897,0.9250765,-2.1927998,-3.5812137,-2.4661326,1.8238391,-3.733895,3.3381748,2.2877672,-1.731185,2.105833,-2.061936,1.6628467,-0.90498114
<http://linkedgeodata.org/ontology/seamark%3Atype>,-0.08642286,-1.405097,1.2043698,2.634685,-1.7587825,-0.9630711,3.266763,0.53433406,2.6203434,0.7397589,1.466154,-3.1402369,-1.9536017,2.3623345,1.5501064,-2.0973055,-0.41601926,2.8393993,0.33626035,-2.6043816,-1.8100013,-1.1357335,-0.7553819,0.9007698,-0.3681802,0.8811381,-0.4541498,1.425309,-0.03459734,0.62210935,0.45148796,-0.940075
<http://linkedgeodata.org/ontology/operator>,1.2567093,-0.33996326,-1.7418339,-2.2639189,1.7225634,3.149524,0.27976632,-0.8570125,2.5498583,1.7007402,-0.40313265,-1.1059955,-1.3589575,0.8366739,-2.695508,3.3131943,0.5995187,2.5503294,-2.4346263,-2.1323614,2.056771,2.7206976,-2.1481335,-3.0027585,-3.1354544,0.7287892,2.903725,-2.1126115,2.1653817,1.2575719,0.83672655,-3.2509966
<http://linkedgeodata.org/ontology/version>,-1.9931823,-2.1085095,-1.6823457,2.179825,-2.6322417,3.49776,-1.461109,-3.1555328,-0.3688103,3.8199158,-2.3853636,2.8533516,-3.5229423,-1.4813803,-3.3332071,-4.509185,2.876789,3.3910346,2.6224506,-0.035340324,0.4035905,4.077717,3.6479654,3.4677927,3.483727,-0.76315296,1.0877932,2.466014,3.4365695,2.1175005,-3.2874372,-2.4324014
<http://linkedgeodata.org/ontology/addr%3Astreet>,0.34181088,2.0215485,-1.6275464,2.625716,2.230532,2.923047,1.8243423,3.2950706,0.18483467,-2.0095804,1.5773295,1.7811204,0.87551016,-2.1247299,-0.5749483,3.0442708,-2.7682421,-0.07123414,1.7509863,-0.3210353,2.459939,3.006393,1.6887503,-3.580562,0.21654382,-2.9628086,-2.8005853,-0.8781971,-2.1064117,1.4683616,-3.0783796,2.782437
<http://linkedgeodata.org/ontology/addr%3Ahousenumber>,0.07868348,0.5831022,-1.9742366,1.1698059,-1.9826431,3.139052,0.504925,-2.5974283,-1.3443313,3.218879,-1.5968384,0.62600636,-3.1986225,-0.80942816,-3.0743933,-4.409988,1.6162612,2.9229193,1.8855358,1.4734354,-0.5758747,2.9388938,3.2170434,3.349501,3.1774962,0.47776482,-1.4782261,1.8082576,3.495125,0.6126839,-2.723714,-0.34054986
<http://linkedgeodata.org/ontology/addr%3Acity>,-2.0174322,-2.6469798,-0.7928061,1.2491277,1.2303495,1.0611862,-2.0906012,3.0777926,-3.6990712,1.4925525,1.6026164,1.9414746,2.1120474,3.2760375,2.3827515,-0.9392556,2.225304,-2.40427,2.8262098,-2.6144907,-2.223204,-1.5409575,-1.632458,3.381823,-2.7081337,-1.4960093,-0.74395347,-1.7996646,-2.3010402,2.4161289,-2.138182,1.2869179
<http://linkedgeodata.org/ontology/note>,-0.42472067,1.6154444,-0.7643303,-2.4269722,-1.2653505,0.7971038,-5.1468654,-0.5450797,0.8404426,-2.7606447,-0.09301263,-2.303967,0.38537183,1.6923754,3.724106,-2.2099218,-0.84996665,-0.23666646,0.04811087,1.1235417,-1.6208762,0.8627609,-0.8009826,4.2302446,-2.002346,-0.06807672,-2.3470278,-3.9786496,2.254071,1.7786351,2.4738257,-2.607243
<http://linkedgeodata.org/ontology/note_1>,-0.48483709,1.2397597,2.351494,4.42765,-3.5067549,-1.6093947,0.6757537,-0.5843795,-1.4072487,2.2799628,3.8975413,-2.6317148,2.1125786,0.8572328,-0.4192609,-3.5560384,-2.1503792,-3.5231164,-3.052367,1.4657109,-3.1587207,-2.614864,-4.0262713,-0.38458085,0.38181314,-1.3973835,0.8664061,1.1520996,-0.22664985,-3.4465842,-0.25230068,-1.047201
<http://linkedgeodata.org/ontology/contact%3Aphone>,1.1531574,3.2356403,-2.2903588,1.5919205,1.6818359,1.1391433,1.1848215,1.9728842,2.1615477,1.4824347,-1.0960419,0.043190885,-2.0888348,3.1636748,3.8828654,0.5348858,-1.617809,-2.9426029,-2.7548063,-1.5999101,0.9936047,-0.6113697,1.7758279,1.4044918,-3.4205542,-1.3568884,-1.7408252,2.1798677,3.8983517,-0.062272385,3.0078928,-0.40143508
<http://linkedgeodata.org/ontology/addr%3Acountry>,2.00878,2.5961187,-2.9075496,-4.178775,-3.619943,-2.7404325,-2.0391617,2.8900142,2.108143,-3.2675905,2.5698807,0.8021864,-2.5548444,-2.3223038,-2.7150316,-2.7426353,-2.6878657,-3.866964,3.4804242,-2.638917,-1.398985,-2.946973,3.3107855,-2.2317915,2.9048603,1.9676112,-2.2029073,2.6142669,-2.4575691,2.83973,-2.2433715,-0.6820218
<http://xmlns.com/foaf/0.1/phone>,-1.1999375,2.2772205,1.8402113,2.9110246,2.2141545,1.7766452,1.2683648,2.0959494,1.6028962,1.8912469,1.9845674,-1.3244236,-0.8261755,-2.3317308,2.1510751,-3.3055847,-2.8293054,1.7468766,-0.4031844,1.2721947,-1.8082466,2.668338,0.9630466,-2.7833967,-0.8390993,-1.4031826,2.7256715,-2.8095834,3.044598,-1.9902393,1.1162194,-2.7827814
<http://linkedgeodata.org/ontology/source>,-2.0139465,-0.37962207,1.8462728,-3.1943295,2.9490845,3.4865515,2.980192,1.6713029,-1.182295,2.4826493,-0.39184794,1.613119,-1.9882209,-1.9041655,-2.6101124,2.8453581,-0.7331398,-2.8963299,1.3645959,1.8274608,2.4120755,-1.8929193,-2.4640982,-3.1733532,2.1526995,-2.8800247,-2.41144,2.3614142,1.8700318,-1.6425563,-2.752965,-2.328983
<http://linkedgeodata.org/ontology/wheelchair>,0.16969535,-3.7828214,0.85594904,-1.1070201,-0.63273686,1.9516708,-2.543472,-3.648002,-0.736236,-2.1987102,-1.6873449,-2.6395335,-3.513194,-2.4603498,-1.1887918,-4.879744,2.0826461,-0.8426949,0.6255103,3.0222087,-4.9089494,-2.9229035,2.3122163,1.1128979,4.7393565,0.61475503,1.6911137,3.8377364,0.4917028,3.5019815,1.6209201,-2.5692968
<http://linkedgeodata.org/ontology/opening_hours>,-2.8091173,1.094323,1.3315744,-1.9527588,-1.9531193,-1.2939745,-2.686611,0.53738886,3.0710523,1.2739424,1.3705617,-1.8224136,-1.5129657,-2.1242719,-2.0080209,-3.1231716,-2.7738008,-3.1008039,1.8287606,0.9603592,-1.1764348,-0.04806378,-3.5494037,-0.83345336,1.4814178,-2.981478,-2.4299269,-2.150247,0.4743688,1.6535279,2.0697262,-2.735667
<http://www.w3.org/1999/02/22-rdf-syntax-ns#comment>,1.39237,1.823589,1.2773395,2.7027023,2.975857,2.1675198,-3.119594,-1.1798844,-1.4171156,-0.25024268,1.8312315,-1.4276575,1.9042864,0.3826233,-1.284343,0.98138857,-2.5761445,-2.2344928,2.1332932,2.1194217,-2.6352787,2.630318,2.4625535,3.8552816,1.8465463,0.1964431,-0.3593409,1.2558765,1.6190811,-2.9908094,1.6585093,2.7137797
<http://xmlns.com/foaf/0.1/homepage>,-1.3100401,1.9154891,-0.8261087,1.1872467,-2.4057388,2.127484,-0.31491956,3.2570174,2.4268274,1.6340374,0.59360296,-4.3961735,-1.4517047,0.40094104,-2.823655,0.1293247,-2.5024173,0.22867574,-1.30424,-2.5178497,-1.5672235,2.5884252,2.1813405,1.7273769,1.7079928,2.4515061,2.0082648,-3.2720277,1.1478397,2.6461349,2.6195219,-0.8376389
<http://linkedgeodata.org/ontology/ref%3Avatin>,3.0702817,-1.3136859,-1.1280869,-1.6720251,-3.1966226,0.33380538,-1.7710255,1.9625129,0.46630466,1.4853091,-0.9794933,-0.949526,0.3242945,-0.4332676,-1.270728,2.0100124,-1.588864,3.50944,-1.2072719,-0.9243238,-1.1536193,-0.85013837,-3.1856463,2.9572983,0.45026898,0.6760325,1.0684944,-2.2452369,0.72038597,1.6979911,3.1153948,0.37173858
<http://linkedgeodata.org/ontology/officialName>,0.13653968,-1.1453629,2.038034,1.658016,0.106173486,-1.3852375,-4.2723827,1.3393071,-3.57561,-1.783281,-0.44625953,-0.78633827,0.57535905,2.4312851,1.5815611,2.585397,2.0072045,-1.5289191,-3.2859013,-3.4896913,0.11338768,3.3344994,-0.44425803,-2.1790187,-0.3900388,-1.3009841,3.3411424,0.26971483,-1.1119543,1.4765152,-0.9536694,-0.9757324
<http://linkedgeodata.org/ontology/second_hand>,-2.7787478,1.39186,2.837121,-1.308439,-1.1168278,-1.9626294,1.1383986,-2.4886484,-1.2132632,-1.0316505,1.0312775,-1.5169815,0.30243066,1.1686171,-3.024168,-0.00240967,0.18301962,-2.5871089,3.499934,4.5973372,0.5521958,-0.18558602,-2.0127034,-0.020479549,-0.030094821,-0.97140026,-1.2541718,3.1017158,0.28431746,2.2557278,0.50738686,-0.9450337
<http://linkedgeodata.org/ontology/level>,-0.16544385,-3.6463153,0.4025389,-1.0862304,-0.7249813,2.0597918,-2.5912926,-3.198031,-0.88876855,-1.870509,-1.5686083,-2.9501977,-3.4267612,-2.3053398,-1.1772474,-3.925219,1.9633694,-0.5476577,1.4383084,3.1010363,-4.8410854,-2.4495854,2.137915,0.94434494,4.4212894,0.65189993,1.7251949,4.044809,0.49906027,3.7265568,1.3059295,-1.8267056
<http://linkedgeodata.org/ontology/entrance>,-4.7151303,2.418416,0.42550963,-3.3245595,0.3083371,-1.5567182,2.3401597,-3.7357013,-2.9255424,-0.58422303,-1.5931392,-1.7114892,1.8206573,1.4569795,-1.3909413,0.6600317,1.1556472,-4.911568,2.8460014,4.8061547,-1.0488124,-1.1844537,-0.3051224,-1.0625582,0.3094888,-0.9871694,0.25494602,3.4788306,-0.7209498,2.4754689,2.635439,2.7262988
<http://linkedgeodata.org/ontology/addr%3Aunit>,1.2345147,0.9566872,-4.6351027,-1.499548,-2.0766916,2.065894,-0.5462178,-2.566037,-0.23570089,4.4593015,-1.301206,1.2113012,-1.3110638,1.0564073,-1.6997582,-3.6125598,-0.753564,1.3213017,0.39924273,0.9536131,-0.46931034,-0.6750832,-0.23537372,1.0056903,0.64596254,1.4188926,-3.5170321,0.47221333,4.185576,1.143826,-2.015075,1.2184116
<http://linkedgeodata.org/ontology/todo>,-3.2977824,0.18811506,3.9255247,-1.2919863,2.5925686,-1.8749526,1.6208453,-3.1805782,-2.5043826,0.27954513,-0.37583256,-0.93651754,0.8982541,0.6217968,-0.2098371,-1.8098674,0.91141206,-2.7786694,-0.77990925,3.1930637,-0.79481775,-1.0050706,-0.3899026,-1.2445035,2.3419855,-0.4337385,-2.1139867,3.059205,0.7422225,1.8331085,0.9118346,2.7221148
<http://linkedgeodata.org/ontology/outdoor_seating>,-4.1878905,2.079749,1.2878053,-2.7360413,0.7976991,-1.77188,3.1704416,-3.0884664,-0.4269232,-1.4957736,-0.3627073,0.14420515,1.484053,0.03759285,-0.90009063,-0.8270516,1.8486558,-3.884005,1.9966011,4.1402917,0.71766496,-2.0846636,-1.7686837,-0.9104178,1.5182883,-2.4404917,0.20567577,3.3811936,-0.4621772,0.84197915,2.403229,1.9162958
<http://linkedgeodata.org/ontology/name%3Adistillery>,1.0522058,-1.4125909,1.2586147,-2.1714525,-0.1192722,-2.440125,-1.1579955,-2.5117145,-1.0293769,-1.7731494,-3.0494497,1.8022888,-0.23515317,-1.8121022,2.6155112,-2.1617134,-1.0854278,-1.3599085,-3.0843341,-1.1406261,-3.0791962,-0.70953315,-3.4721954,-0.9316287,-0.8229798,-2.7747378,-0.6659242,-1.9368039,2.7443092,1.4151119,1.1235155,-1.561644
<http://linkedgeodata.org/ontology/microbrewery>,-3.9911597,2.0208457,1.614824,-3.0289261,0.24061415,-1.5130069,2.3397038,-3.4724176,-2.3628278,-0.39472425,-1.3861337,-1.157736,2.0443857,0.5998946,-1.4080777,-0.31708813,1.5146047,-4.8493667,2.2257378,5.222965,-0.31314886,-2.143656,-0.97624856,-0.1358884,1.6556008,-2.6838055,0.05686501,2.8526886,-0.49725676,1.9239329,1.931129,2.4209576
<http://xmlns.com/foaf/0.1/fax>,-3.2262428,-1.1838356,2.8126552,-0.3148486,1.1042521,1.9612393,0.6166798,-1.4171721,2.4914978,0.18086119,-0.5617644,3.0693302,1.9625896,-0.30669114,0.18130179,-1.3952957,-3.7797458,-3.5243192,0.0293284,-2.583963,-3.3678117,-1.397162,3.3140004,-0.055156495,0.14427345,-1.4239744,2.1807332,1.5059675,2.2951636,1.4349028,-0.926653,0.48046747
<http://linkedgeodata.org/ontology/ID_SLH_IMPORT>,1.171831,-0.9513361,3.0958092,1.1197758,-3.1166542,1.7212272,0.36548713,1.1083397,-1.5873922,-4.1794124,-1.4603891,0.51369226,-1.466227,-2.0459483,-3.7431498,0.85026103,-0.85508406,1.5236269,-2.143752,-1.2230856,2.5981834,-2.1912084,2.3335383,-0.13639775,0.40239462,1.6425568,-0.6797531,1.6991864,0.9523566,1.8717,-2.563801,-1.2642208
<http://linkedgeodata.org/ontology/description%3Ade>,3.6044,-2.0504026,1.057515,-3.1523209,1.3745122,-1.7705777,0.776523,1.8589422,-0.9280728,1.9525851,1.9281917,-1.2253723,1.0189469,1.8140215,-0.9985418,-2.1274946,-1.554154,2.1302297,-1.386814,1.368266,-0.3986592,2.476988,-1.1273947,-1.9217631,-0.5400432,-3.707801,-1.4639883,-2.595217,4.646096,1.3648446,0.27334768,-1.3761398
<http://linkedgeodata.org/ontology/addr%3Astate>,1.0744733,2.4577084,-3.3284829,-1.3313732,-3.1334007,-2.230683,0.08022374,2.9093323,-1.2575992,1.5694028,-2.2200727,2.5931149,0.8329203,-0.055126138,-2.2241616,2.6724467,-2.7816644,-1.0310354,-1.1009831,-2.5334678,0.51055104,0.06123469,1.6874033,-3.2707305,-2.3443437,2.3455217,0.83976984,-4.3189,0.61677957,0.9234949,-2.9022691,-1.572576
<http://linkedgeodata.org/ontology/addr%3Aplace>,0.7202221,2.1311927,2.1229162,2.014971,3.1753445,-2.743182,1.0201464,-3.797094,-0.6729716,-1.7240086,2.643199,-3.3518221,-1.0003351,1.7266634,-0.005045234,-2.5859272,-1.705394,0.5131166,-1.1158223,-2.453281,-0.4638168,2.73273,-2.8240604,-2.349602,1.1730434,0.78887016,0.23446926,-1.0529342,-0.36842817,-0.71517074,-0.8772941,0.32068768
<http://linkedgeodata.org/ontology/contact%3Afacebook>,-0.8094834,1.7246892,3.6202233,1.6338587,-0.77084774,-2.9692864,4.110696,1.0968794,3.1280694,2.389408,0.42808115,-1.5513486,0.8185274,-2.2989466,-0.35151508,-1.48232,-3.7945132,2.23681,0.6479107,0.47470704,0.21607518,0.75242853,2.0188005,-0.19601531,2.5920806,-3.0994978,-2.821168,0.9748316,0.79007095,-0.429242,1.0467405,5.3686776
<http://linkedgeodata.org/ontology/source%3Adate>,1.7537724,-1.7087815,1.4809346,3.968596,-2.34974,2.5104373,-1.8138751,2.2729027,-2.823181,1.3645809,-1.5728836,-1.5306345,2.3856318,-0.9803598,-1.3923248,2.374034,2.0535994,-1.5838311,2.7337158,-1.3531436,-2.8632934,3.0275254,2.9092379,-2.5664015,-2.4870305,2.9574838,-1.4050488,-0.85860294,-0.69804454,-3.974937,-0.18505384,1.0192876
<http://linkedgeodata.org/ontology/contact%3Aemail>,-3.0988266,-2.0885584,-1.4670733,2.6146119,-2.6371505,0.22153875,2.5871642,-1.189171,1.5953379,3.4403012,0.34381714,-2.5115843,1.4391989,-1.136215,-2.2997541,1.30729,-0.9997669,-1.0285025,1.5220854,1.498345,-3.5387964,3.8723328,0.3349831,-0.08064896,-0.027957402,0.14656672,-1.3252225,-1.8732582,2.5648713,-3.9297307,-1.769933,-0.46498495
<http://linkedgeodata.org/ontology/fixme>,-1.1563892,2.1993039,-0.12998208,-3.0716345,-1.7463305,1.7915117,3.4520054,1.1617079,3.763902,2.0728948,2.9624586,-1.3964849,-2.2988431,-1.7895969,0.35101923,2.912278,1.2229571,2.0416095,-2.2429461,2.0611546,-4.375492,-1.8720884,-1.5805581,2.5437248,-1.6848955,-1.9191259,-2.2643583,2.2248013,-1.7467229,-2.3215322,-0.46385768,0.60500443
<http://linkedgeodata.org/ontology/name_1>,0.39488062,0.9095832,-1.0917192,-2.5185223,-0.80017495,0.36694774,-3.984401,-1.2318546,0.95430523,-3.3784242,-0.54599607,-2.1828392,2.3398893,0.98475,3.3587155,-3.0038922,1.0135592,-0.52266455,-0.3520768,2.4840324,-0.3321916,0.7032626,-0.7221402,4.4719954,-2.5420635,-2.8590283,-3.0631936,-2.9548974,2.4794736,0.87672865,2.183788,-3.1695995
<http://linkedgeodata.org/ontology/addr%3Aprovince>,0.0134171145,3.2494547,0.71464723,0.9171648,2.9824107,2.1655424,-0.86066985,-1.6343416,2.8615575,-0.8171138,-1.1703985,-1.4467212,-1.6937846,1.9764546,0.630586,-2.6041312,3.2556787,1.1892422,3.7032156,-0.84211916,-0.5847754,0.7529815,-0.4468098,2.1370778,-0.41565752,-4.6362886,1.3719774,-1.2029116,2.442771,-2.682591,0.8826707,-2.160625
<http://linkedgeodata.org/ontology/addr%3Asuburb>,1.7237451,1.7085931,2.8642008,-2.8838506,-3.5357585,0.2423843,-3.5789351,3.1060266,2.6222484,-1.797757,-1.6374217,1.2040483,0.03084544,-1.9194264,-2.7825239,-2.1235502,1.9427947,1.2081637,-1.8083032,0.9959128,-3.0994864,2.8298433,-0.50726426,-2.955943,-2.0477948,0.31592488,-1.9232816,0.98927695,1.2392554,-0.40196478,-2.9545147,-1.5711458
<http://linkedgeodata.org/ontology/contact%3Afax>,-1.4324944,2.9445007,3.0039456,-2.095385,1.7504303,-2.092815,-1.404568,2.9699347,2.4993386,-3.5208561,-2.8168292,-0.2521902,1.3710765,-2.0595384,-0.029945193,1.4477417,-1.3983002,-1.3036196,-0.4591626,-0.22196227,2.5547972,-1.6483438,-0.13354775,-1.8433889,2.0526953,1.6956298,3.527107,-1.8987219,-2.5227225,-1.5434934,-1.6635538,-3.1107032
<http://linkedgeodata.org/ontology/smoking>,-3.1355634,2.023661,1.1886811,0.9863189,3.8143895,1.0120848,2.3933196,1.3168461,3.1734762,1.8490192,3.4263873,-0.088776454,-0.66339445,-0.6904868,-1.3151765,-1.6938084,3.7479312,1.1846474,1.2008202,-0.75660896,-0.17691295,-0.28666183,0.7615104,-2.9132855,0.93895733,-0.91912717,1.0279434,2.6894867,-3.0744083,0.07279184,0.98873633,0.5025353
<http://www.w3.org/2004/02/skos/core#altLabel>,-1.2256213,1.6529822,-0.48638904,-2.2481232,3.4197757,-0.8981411,2.6087596,-0.79571044,-2.4040577,1.3198923,-0.36014393,-1.4915498,1.1047258,-2.5138438,0.070859104,2.421705,-2.2254043,3.6225734,-1.9671727,-3.1603916,0.8629223,-1.7381911,0.8143903,-0.8122345,-0.68905216,-2.632062,2.4083357,-3.6262598,1.8934604,3.4599898,2.3647306,-2.3190904
<http://linkedgeodata.org/ontology/brewery>,0.32985672,2.2523077,-2.775877,-2.2025168,-0.74583334,-2.3180537,2.3482356,2.4923537,-1.4050546,-2.542697,-1.9150395,-0.34889975,-0.7691175,-2.7174103,2.1154644,-0.72171074,1.15171,-1.2698841,2.6984575,1.9387748,-1.5189459,0.926088,0.42495075,0.39332762,-2.621371,-4.1625423,1.048895,0.8639099,2.5316632,1.305046,1.0797613,-1.5474807
<http://linkedgeodata.org/ontology/carpenter>,-1.6291268,-3.1041331,2.9353573,1.8399225,-1.729366,1.0106844,1.4391259,-0.4116532,2.5457013,2.271844,-1.6676053,2.5152855,1.5403765,-1.6692795,-0.550601,3.8905017,1.0657507,-1.1605504,-2.314117,3.3012412,-2.7617543,-3.0942378,-1.494431,-0.00018390088,-0.9163031,0.5907987,2.4065013,-1.3324864,1.7738465,-3.24495,2.2170193,-3.2643776
<http://linkedgeodata.org/ontology/contact%3Amobile>,0.777162,0.75690645,-0.69296753,-1.3295679,1.5544418,0.4838962,-1.5120163,1.5148937,1.3502986,0.085661486,2.5111616,2.8950758,0.8273293,0.029793298,-2.3734708,2.7829216,-2.9358933,0.26062354,2.4629745,3.3639429,2.7530198,2.247432,0.16705298,-2.1582673,1.546274,-2.3186612,1.7562274,0.33260483,0.60233223,1.9018328,2.5909615,-4.854701
<http://linkedgeodata.org/ontology/dataset>,0.05104665,0.76148343,2.803657,-0.93462104,2.6756432,-2.73258,-1.4253948,-3.022449,-1.219059,-1.0201854,0.90904385,0.711398,-0.85287035,0.30606395,-0.42042074,-0.7591389,0.951301,1.6271428,2.0807233,1.645437,-1.2229282,-2.5865066,0.08348969,0.6745015,-4.4446964,1.6551391,2.3911412,-1.1658267,0.3020701,-2.0352705,0.23494942,1.3401169
<http://linkedgeodata.org/ontology/dcgis%3Asquare>,-0.51319635,-0.7012778,0.55846107,-1.009913,-0.7927432,-1.933926,-0.51798946,-3.0376093,-1.8642197,-2.8736646,-3.3625026,-1.1939313,-2.7554188,0.5953434,2.0542629,-1.6586975,0.8628804,0.17968947,0.7040366,-0.39598152,-1.624195,-1.088488,-0.6478907,-1.1946195,0.296742,1.7703059,1.4224992,0.4901936,-0.95599276,2.4641569,0.5126225,-0.75739914
<http://linkedgeodata.org/ontology/dcgis%3Alot>,-1.3043423,0.96839195,2.5608678,3.1227117,-0.15530282,-0.7141153,0.2136031,0.4518788,-2.966923,0.23603301,-0.5129176,-2.2873876,-2.7664125,-0.09985445,0.9958583,3.4409027,2.3364134,-0.8123768,0.93569046,2.5490618,-2.0510998,-1.8172753,-0.14769892,-0.39475915,-0.4057657,0.07269692,-0.7605854,4.572879,0.46666554,0.60458314,0.2902148,-2.0901031
<http://linkedgeodata.org/ontology/logo>,-1.5264347,1.0024264,-3.7852092,1.9963832,-1.5332607,-0.9370867,0.25199148,-2.1275964,-0.9676603,-0.465722,0.76557857,1.4746218,-1.2094225,-0.9942094,-3.9424028,-3.2908576,2.0622835,-0.33646703,0.8433689,-3.9504204,-1.894121,-2.6845243,1.432344,2.9189012,-1.1129837,0.051053863,1.3137242,0.8866443,-1.5228739,-1.5736164,2.3557155,-2.4168625
<http://linkedgeodata.org/ontology/historicalName>,-1.4569899,-2.8844168,3.154222,-3.3211324,1.8186736,-2.8603551,3.4621313,-2.0019543,2.6003954,0.9595063,1.0979259,-0.25252053,-1.3722405,1.8837341,0.8644082,0.99432045,-1.986549,1.6091608,-2.482732,2.0237792,-2.6282773,0.8603081,0.12306841,1.7232847,-2.0173612,1.8772792,-1.3340302,-2.9944823,-0.83976996,-0.90844524,-0.22181499,-0.91216373
<http://linkedgeodata.org/ontology/ref>,-1.3861856,2.3614564,3.0124352,-1.7927455,-1.6388017,0.3579612,-0.17137836,1.7294556,1.5660874,2.7181005,-0.19696796,1.4600604,-0.04224049,1.0038937,-3.6277483,-3.3560255,-2.2564151,1.1942384,0.28704834,1.118934,0.013115569,-1.0431226,1.2087604,0.62418187,-1.9813038,-1.6603445,-3.006611,-1.2274313,-1.6666148,1.8864696,-2.7614505,-1.9419056
<http://linkedgeodata.org/ontology/wpt_description>,-0.29267448,3.5121624,1.5546353,-1.4812411,-0.01580256,0.7817942,-0.6672486,-2.5273268,-1.2747952,-0.4856896,-2.5725884,-1.0601549,2.3651664,0.30060843,-1.6422197,-3.519433,0.1330064,-0.55430657,1.8307654,0.47185367,2.1467185,3.8398376,-3.1386695,-2.506694,0.51020616,-1.2002571,-1.8792577,0.7876055,0.09662215,-0.55213994,1.1928394,-1.4332445
<http://linkedgeodata.org/ontology/ele>,-1.554149,-2.1362417,-1.8817724,2.3657389,-1.4456594,1.7711662,-0.12011027,2.7152321,1.5556717,-0.92467755,-2.042293,-1.9496214,-0.021933736,1.4799473,-2.0278995,0.905349,-2.5811005,-0.3374474,0.40303576,-2.1768708,-3.17225,1.7381386,0.0077597774,1.3883295,3.0283098,1.0656121,0.64958596,2.7775428,-0.85020894,0.9721844,3.7176583,2.3938777
<http://linkedgeodata.org/ontology/contact%3Alinkedin>,-4.2249017,0.78655773,-1.4049358,0.021268127,-0.038382635,1.9861934,3.3042462,-1.1026886,0.64829403,1.1630464,2.1041179,1.4340446,-2.6181848,-0.5918212,-1.7269604,1.9572449,-0.001415611,2.2691855,2.6473083,1.5456717,-3.4925542,-1.6919006,-0.92734706,-1.0163372,-2.4660683,1.5603805,-1.4280294,-0.8535418,-0.8928098,0.5711572,1.5225914,0.24841173
<http://linkedgeodata.org/ontology/clothes>,0.039835434,-2.2442868,0.5718841,-1.2768688,-3.7297065,-1.2283747,-2.5753982,2.4925678,1.8274472,1.793883,-0.72150445,2.8166811,2.5359824,0.23606656,-1.6108018,-1.9212059,0.90973175,-1.1041176,3.1202147,3.0205917,3.066054,1.5169013,-2.5738645,0.31159562,1.4931604,-1.3459666,1.5874871,-1.7603315,-1.1405374,2.7187498,-1.2015817,0.31507453
<http://linkedgeodata.org/ontology/distillery>,-1.1098644,0.23201297,-2.5786004,-2.2032502,1.0119859,1.4444959,3.8031197,-2.1105378,-2.477083,2.482755,2.367833,2.7035742,-4.2103014,0.57710284,-0.0647158,-2.315962,-3.030581,-1.5041469,-2.356854,3.4423444,-0.3387951,-2.828535,-0.2367863,-0.64383745,0.25922108,-2.2034178,-2.4209228,-0.62855667,-1.3567647,-2.1178362,-0.35639307,-2.912911
<http://linkedgeodata.org/ontology/survey%3Adate>,2.2467442,-0.28149837,1.5905102,1.127272,-3.0643752,1.1981292,-0.6666986,-2.3071144,0.47254232,-3.4842153,3.8117828,-0.40698624,3.455012,-3.2281077,1.5350857,0.59074765,-1.9375811,-1.1638404,-1.988504,1.2351217,4.347261,-3.2831073,2.5418792,3.3464909,1.953474,0.4424933,-0.91387165,2.256917,0.42670676,-0.8428608,1.3801531,0.5552888
<http://linkedgeodata.org/ontology/brand>,3.9533803,-0.48007518,2.98901,-1.457498,-3.9805322,0.40895402,0.8343727,-1.1880366,0.6472625,1.0179691,-1.3851839,-0.5923792,0.8736911,-0.19243564,1.4506011,-0.8123604,-2.6482844,0.7601992,2.1312575,3.670522,1.294117,2.8585248,1.2770922,2.2302284,-0.6056917,-1.1913188,0.602575,-3.8261695,-1.3147235,1.1110674,2.0718646,3.4258282
<http://linkedgeodata.org/ontology/addr%3Ahousename>,-0.39532828,-1.0835923,-0.8518466,-2.1998255,-1.5322882,0.34117424,-1.2510499,-2.91328,1.3262073,-2.0483975,2.1442149,1.1661676,-2.0135732,-0.50955814,-1.6522318,3.4438796,1.2129186,-0.18997844,-0.98453075,2.0197995,-3.6071098,1.1792828,0.119075224,-1.7516875,-3.5961998,-3.2545104,-2.9264784,3.3379328,0.55995506,1.7681365,-0.18943414,2.0610569
<http://linkedgeodata.org/ontology/addr%3Afloor>,-1.2408702,-4.424378,0.22192241,2.3221939,-0.9620265,1.2148108,-2.3993504,-0.97259283,2.3499622,0.50902057,1.448473,1.3257943,0.026756613,-2.7889268,-0.11047215,0.91605747,0.14732157,-0.26345932,-1.4462657,-2.8503795,3.0770433,3.987571,0.6944156,-1.7078872,0.13496871,-1.5055702,0.85740006,-2.256598,-0.20495944,3.510681,-1.6630601,0.72046286
<http://linkedgeodata.org/ontology/osak%3Asubdivision>,-0.1079999,-1.9353601,-0.35580704,3.2747138,-1.8275948,-1.4941214,0.8526376,-0.23988567,2.4371533,-0.5690818,0.82078916,1.0670118,2.079379,-1.3355657,0.025289303,-1.9628265,-0.23576094,-0.8758259,-0.65673643,2.8760748,2.650277,0.7902075,0.9213095,-5.1012783,0.31523547,-3.110715,0.8478826,1.4756942,0.91320306,0.11999363,-1.7273067,0.77430964
<http://linkedgeodata.org/ontology/osak%3Arevision>,1.732512,1.1617512,0.26187745,-1.0503353,-1.7343209,-1.4624411,2.473955,1.0352086,3.2012942,-2.5718846,-0.5145955,-1.4146303,0.88473433,0.8361226,-2.2826836,-0.46929505,2.0072448,-1.1371757,0.44581845,-1.3221403,0.66379863,-0.5710938,4.0070605,-0.06615509,0.97696155,-3.020585,2.3508017,0.50254506,1.5839238,1.882571,2.6352234,-0.12112433
<http://linkedgeodata.org/ontology/osak%3Amunicipality_no>,0.042476892,-0.9422114,3.3041441,3.5169039,-1.5190119,2.1752014,-0.297201,-1.2322209,-1.7108155,-1.9889925,-0.734683,0.49606103,-1.4732975,1.4854016,1.1054438,0.35322896,-3.0634844,2.7833178,3.0927951,0.9106879,-0.68502665,-1.7023822,0.7633638,-1.0478256,0.07659439,-1.291996,2.743134,1.9343626,-0.7256795,0.22625338,2.262817,2.176541
<http://linkedgeodata.org/ontology/osak%3Astreet_no>,-1.2036097,-3.1028616,-3.0417266,-1.3543584,0.5306836,1.4669682,1.4615924,2.8306713,0.33060554,-3.0720708,-1.6931317,-0.45497578,-3.461608,-1.0153037,2.7293038,-0.93491656,-0.8772583,1.1666857,1.1160585,3.8943458,0.35903293,-0.90548813,-0.5012562,-1.3716013,-2.1034098,2.435529,1.6813077,2.6623354,-0.019127415,-0.010713542,-1.3883023,-0.35576457
<http://linkedgeodata.org/ontology/osak%3Aidentifier>,-2.2312539,-2.1420698,-0.90204096,1.429107,-1.7678291,1.5540444,2.1857882,0.5676362,-1.0881127,-1.582191,-1.6926984,0.472591,1.7634283,-1.4233614,1.4678146,-0.584039,1.9888551,-0.880779,1.2947438,-0.9163665,2.6832378,2.543158,2.0594919,-0.15663756,1.4355822,0.32072318,1.9222983,1.3412039,-3.7848117,0.7512716,-3.6576724,2.433705
<http://linkedgeodata.org/ontology/electronics_repair>,4.137313,2.3583999,-3.2836535,-1.1420608,-0.87432575,-1.0971746,2.495719,-1.5337129,-0.4535941,2.2717273,-3.0008473,-2.120422,1.6092046,3.556206,0.031657036,3.4393034,-0.7703346,0.08047566,-1.1151165,-2.3749833,0.75727314,-0.1283549,-0.089766,-1.0448772,0.066584215,1.6341327,1.3080508,1.2545775,-1.8002188,-1.9997245,1.755234,2.68031
<http://linkedgeodata.org/ontology/wikipedia>,0.121041365,-1.3940439,-3.254721,0.08353089,3.2461665,-1.7208318,-0.51336914,0.9887324,-0.23112068,3.8023098,-4.219026,1.5200826,-1.1132524,-1.932623,-1.1549952,1.0636013,0.23958616,0.74002814,-0.8992586,-0.98966366,-1.8881913,1.7101134,-3.127876,1.5146382,-0.81739175,0.007720099,1.9561,-1.2609168,1.5334904,-0.68003136,-0.3988755,1.3187841
<http://linkedgeodata.org/ontology/plant>,2.9261596,0.70910656,-0.56132203,-1.2157952,-2.0161817,-0.16482022,2.4414456,0.60247827,-2.2728968,-3.5406575,2.7221565,-0.47956395,-3.4204476,0.30992252,-2.977993,-2.8561566,1.4442805,-0.15324381,0.9114221,-1.296098,2.877318,2.3772378,-0.8488878,-1.9607081,0.15952584,2.133098,-0.19414775,-0.19825567,-0.7826798,-1.8802236,1.545551,-2.399439
<http://linkedgeodata.org/ontology/source%3Aaddr>,1.9359158,0.761573,0.90174264,2.697758,-2.0252652,0.24486189,0.8778504,2.496984,2.5547965,0.5814695,-2.6996782,2.3613725,-2.165404,2.2438717,-2.250606,-1.4025495,-0.21056569,0.6395687,1.9271189,3.2353835,-1.6851524,-3.3663301,-0.49393553,-0.33953336,0.43945482,-0.37420025,-0.6807094,2.4785097,-0.7098956,2.3958073,3.8963296,1.5056156
<http://linkedgeodata.org/ontology/type>,-1.7009035,1.0443404,-0.46800473,2.6566646,1.802887,4.003823,1.4124774,1.5569185,0.90544796,-1.7762152,-1.2197418,-2.4091842,-3.1088958,-2.3438017,2.5513859,-0.89061403,2.2724206,-0.85730094,1.9376984,1.1008043,0.8755673,0.65583086,2.2205076,4.2669153,-1.1352003,0.9027269,0.4010154,-2.7383294,-1.3665645,-2.9605134,-2.4083982,-0.5799371
<http://linkedgeodata.org/ontology/url>,-4.329988,1.5834717,1.5218656,-2.2295377,-2.899936,-1.0653365,0.95369506,-0.24901773,-1.5781932,-1.0212202,1.8366995,2.5597227,2.4338787,-2.8921046,-1.760294,-0.7608217,-1.5482095,-2.89811,0.60187304,-1.1941539,-2.3959577,-2.7350485,-2.4785872,-1.3894371,0.09131079,-1.9982748,-1.6797078,-2.4506242,-2.5495455,1.3434807,-1.1341395,0.23078272
<http://linkedgeodata.org/ontology/layer>,-1.0734994,-1.0143816,-2.4535284,-0.3095352,-1.3772905,2.5478303,-2.2689965,1.9511945,1.6303419,1.8261636,2.936984,0.3445448,1.3109448,0.2638088,-1.8246242,2.8195748,1.978331,0.14759918,-2.5044522,-1.310969,2.2567735,2.1633465,2.567159,-0.7890481,-0.38290527,1.9300213,-0.1109012,1.0264183,0.45996803,2.7018409,-2.1975214,-2.7306871
<http://linkedgeodata.org/ontology/rooms>,-1.1600524,-1.6487129,-3.2122283,2.0999212,-3.482638,2.8411465,-0.06729442,-0.18757342,0.3446838,4.96568,-0.37611687,2.7672615,-1.4332801,-0.7654581,-2.524783,-3.2759316,1.6502689,2.241745,1.1725988,-0.2898867,0.6045902,2.290046,1.1275117,3.4681106,2.5074756,-0.44518209,1.6718118,1.5554479,2.2877445,2.810814,-2.5942037,-3.1989758
<http://linkedgeodata.org/ontology/cuisine>,-1.226688,-1.2080506,-0.6662075,-0.6035192,-0.10188463,0.056977328,-3.3986106,2.8049853,-1.8462169,3.4085188,-0.4379405,0.9739331,1.5949302,0.84882736,-1.8940741,-0.74439824,1.6132233,-4.3908234,-4.039949,-1.8621893,-0.36784795,-1.5418196,0.6692145,-3.6504524,1.3954406,2.2442937,1.8112088,-4.141888,0.3024434,0.049203604,-0.8686069,3.2418594
<http://linkedgeodata.org/ontology/closed>,-2.5724692,-0.62963885,-0.083320424,-2.7406213,0.8526626,-2.7519999,2.184431,-1.6939204,0.3892027,-1.125836,-0.42427474,-0.5066855,1.2286665,2.2417245,-0.19687186,-0.36261463,-0.4332098,-3.3828907,0.03521075,4.7861266,0.1897394,-2.553626,-2.8653398,1.5055046,-1.6832752,-1.3309947,1.4660727,0.34927008,-0.6748121,1.5160578,-0.580127,3.0465944
<http://linkedgeodata.org/ontology/note%3Acraft>,-2.7796624,-3.908546,0.7471583,-0.3741363,1.8100015,0.2832994,-1.0842419,-1.7878195,1.2764157,0.7803444,-0.566649,-1.1429206,-2.7435896,0.6529886,-3.2188613,2.4109082,3.267713,1.5232297,-0.1491449,-0.33970496,1.0503896,-1.0655876,-0.39541903,-0.7616741,-2.6352475,2.5321736,1.7393194,0.77152175,-1.0116854,-0.89207727,-1.2692691,1.4011441
<http://linkedgeodata.org/ontology/note_1%3Acraft>,1.8989667,-0.38721853,1.2473813,-0.48626924,1.163506,1.7461047,0.2573063,-1.2693971,3.3593426,-0.9035229,0.25963065,2.3013163,-2.0399742,-2.9308453,-0.6300543,1.1214982,0.35258508,-1.9004381,0.8653175,1.8556596,-1.3216035,-0.92378587,-2.9710572,-0.19834952,1.8753321,2.8026547,-1.7958484,0.23556855,-0.33178622,-1.9790802,-0.20507461,1.9116485
<http://linkedgeodata.org/ontology/stars>,-0.7975379,-2.29119,-1.0158844,1.9400655,-1.7842374,1.9092251,-0.45789668,-2.1595721,-1.3328602,3.7169628,-0.29863375,3.745471,-3.9568253,-0.33021975,-2.7614381,-3.8787444,0.13517322,0.5129693,-0.092622936,-0.34815365,2.359141,0.07473081,1.8836999,0.82842845,2.1460586,-2.0401595,-1.4080101,2.5044227,3.230328,2.4079514,-3.4871187,-1.0421546
<http://linkedgeodata.org/ontology/beds>,-2.5507474,-2.3733633,-0.40374956,-0.9742672,-1.3052313,-2.5777688,-3.2003136,-3.3956559,-0.10122168,4.346062,0.24972682,-1.7877095,-1.835109,1.0373238,-0.45763123,-1.2771871,2.3944056,2.419967,0.7666794,-0.55052704,3.3803844,-0.3118905,0.8486082,2.3080683,-2.0702868,1.3624071,0.64692986,2.698463,0.036151208,0.6935394,1.9888315,-3.9223986
<http://linkedgeodata.org/ontology/currency%3AEUR>,-3.9188592,2.1525414,1.5668441,-2.5199606,0.2355757,-1.6387447,1.9740844,-3.890184,-2.3033664,-1.043275,-1.7359896,-1.63086,1.6675252,0.1780578,-1.1412401,-0.06100554,1.3546876,-4.1948905,2.0616968,3.7867188,-0.69055474,-1.8449202,-1.6371568,0.2151351,1.258041,-2.4468656,-0.5285606,2.7009726,-0.32648,3.0680394,1.9381078,2.0349195
<http://linkedgeodata.org/ontology/payment%3Acash>,-4.0159745,1.6046227,1.173402,-2.1832128,0.265417,-1.6400747,2.1493645,-3.608413,-2.3206697,-0.99394125,-1.4794122,-2.0286012,1.05056,0.24027476,-1.1857806,-1.8967233,1.3253945,-4.4404945,2.1769733,3.6793687,-0.6580979,-1.5266275,-1.6331943,0.12381666,0.48449957,-2.3819077,-0.5368783,1.6564318,-0.24381992,2.8661358,1.9205605,2.173014
<http://linkedgeodata.org/ontology/currency%3Aothers>,-3.143976,2.3156662,1.9065909,1.5642707,3.8900216,0.32055724,2.1569073,1.7200627,3.5729058,1.0051508,3.0157492,-0.39973742,-1.7826868,-0.7518351,-2.6414254,-2.231362,4.804596,-0.16733813,1.7460245,-1.7692024,0.80987024,-0.6382294,-2.0168643,-2.6725137,1.6543742,-0.6670088,1.4033463,2.0961947,-2.7026935,0.5740556,-0.47950915,0.9765981
<http://linkedgeodata.org/ontology/real_ale>,-3.807365,1.8162667,2.4496202,-3.1233592,0.16533414,-0.35633647,2.0811625,-1.0003839,-1.801561,-2.457791,-0.10237119,-2.5266776,1.6486117,-0.26972255,-1.3110414,0.684874,0.760926,-2.7004647,1.2805935,3.5571706,-1.2679356,-2.850391,-1.5283064,-1.6859614,0.8242538,-2.251535,-1.1511146,3.304841,-0.23905776,1.5357844,1.2136137,1.8343933
<http://linkedgeodata.org/ontology/dispensing>,1.1742525,-0.39571187,-0.6657852,0.38685223,-0.29437664,1.4380895,-2.8541727,-4.0504804,-2.1978288,-0.6578424,-1.453156,-2.2926586,-1.9661127,-0.9675976,-2.385913,-3.9679456,1.088541,0.62000084,0.31443304,1.8138251,-2.3550122,-2.5125601,1.5530269,-0.70185715,1.4383228,0.12931535,0.8632397,4.4789443,1.9269882,2.311592,0.3727932,-2.908592
<http://linkedgeodata.org/ontology/air_conditioning>,0.22105902,-0.27228284,-0.5886529,-0.040087424,-1.4611276,1.1276251,2.294009,-0.4042564,-2.493665,1.6444352,1.7135797,-2.3804932,2.1647651,0.88744074,-2.4338193,2.0366504,1.0044518,-0.038263608,1.8824315,3.7359114,-2.8964362,1.4995317,-2.3020842,-0.41483042,2.650266,-2.1100698,-0.10018208,1.9787495,1.7374094,0.31967854,-0.50072867,0.28790498
<http://linkedgeodata.org/ontology/owner>,-2.8727026,-0.8987163,-1.4102005,0.06594384,2.7720723,-2.750336,-1.9124002,0.20788875,-0.23248643,0.5927364,-2.9271283,2.522453,-0.8943525,-0.4801083,-1.8321154,-2.7759533,-2.9463813,-0.43310902,-0.066509314,-2.5492682,0.18024555,0.42854345,2.432557,-0.72836643,-1.3663222,1.9860713,-2.4781368,-0.945933,-1.7522874,-2.8559213,0.81531906,0.43778574
<http://linkedgeodata.org/ontology/phone%3Amobile>,2.604075,-2.0565531,1.4636314,-1.5895861,-2.1436715,-1.4102771,0.050760258,-0.68558586,-1.7008014,-0.5176074,1.0669652,3.7421393,3.2877784,0.948907,3.2014792,0.6309073,2.7578077,-1.8153538,-3.01634,-1.6259931,-3.3816502,-2.202744,-1.9577546,2.8964577,3.0782425,1.3045396,1.7523609,-2.2586324,1.0990494,0.061656214,-1.2609091,-0.056482874
<http://linkedgeodata.org/ontology/note%3Afr>,-2.3456144,0.97416085,-0.3533514,-0.30860147,-0.837319,0.5743679,-0.6147344,-0.49479577,1.9823574,1.2710316,-1.3431668,2.308143,1.492116,0.005909792,-2.4094744,-2.6777732,-3.1353633,2.4675424,3.0716481,2.7650077,-1.6130245,2.6256487,1.110296,-0.21682198,-0.1972639,0.41423997,-1.6577111,-1.1059185,1.3098098,-2.800057,0.1982303,-1.2426367
<http://linkedgeodata.org/ontology/start_date>,0.7633925,-0.1621829,1.9314399,-1.2698251,-2.0845757,1.5392677,-0.41178277,3.1541011,2.1829844,-2.886164,-0.05802714,2.1621199,-0.7352108,-1.5750643,1.935517,-2.234733,-0.8629413,-2.2572546,-2.5509536,1.3774371,-1.1439376,0.9598953,2.2081792,1.7550102,0.62241226,1.1161087,-0.95046854,-0.8323875,-0.66703886,-0.9844809,2.2481759,2.2207556
<http://linkedgeodata.org/ontology/healthcare%3Aspeciality>,2.7867017,0.8646927,2.8745005,-1.4013655,-1.1573354,-2.1911106,0.0957237,1.3840607,-3.182874,-4.053423,-0.864704,3.5967042,1.6400243,-0.31090957,-2.919493,0.94647324,-0.5165754,-0.8644525,0.8777377,2.0652325,-3.0859609,0.02095723,0.9232966,2.380406,1.5259196,-1.1583477,-0.75941026,2.5012372,0.13698837,-1.0311433,-0.047952805,1.6287841
<http://linkedgeodata.org/ontology/opening_hours%3Alastcheck>,-3.005655,-0.12977439,-0.15358478,0.4048855,-0.83104575,-2.346469,-1.1857369,-0.24664572,-2.03206,4.256911,-1.6195077,-0.3306883,-2.8360567,0.09218142,-0.58535796,-1.9613514,-2.2294328,-2.6587415,1.428301,-4.473822,0.20375632,2.2864532,1.4622376,-1.4578187,-2.3772936,0.5744989,3.655129,-0.5053075,-0.46606243,0.8283521,0.15436727,2.8010159
<http://linkedgeodata.org/ontology/b5m%3AurlOrto>,-1.8611466,0.89811844,-2.7213104,-0.6151424,-1.4053395,-0.7056086,-1.420269,-2.0789964,1.6596289,-0.13296369,0.54157466,-2.948007,-1.2373761,2.861838,0.5345048,0.493143,1.864609,-0.52186286,0.10812687,3.1474257,-0.9403036,-2.8743024,-1.438619,4.6715736,-0.43315372,-1.4657261,2.5990956,-1.693811,-0.25109103,1.2781035,0.25079998,1.8039823
<http://linkedgeodata.org/ontology/b5m%3Aurl>,-0.08818411,0.28535452,-0.017817838,0.4707892,-0.9681315,-1.8735825,-1.1651738,-1.7721626,-1.2879399,3.4738336,4.21633,-0.09303943,1.0039294,-2.1876369,3.6846209,1.3188494,2.7670906,-1.0222472,2.2174277,-1.3014435,-1.935248,1.1596802,-0.1263999,1.6061989,4.878654,-1.6225634,-0.9442023,0.6417901,2.2657382,-1.3019457,-0.6790422,-1.1380019
<http://linkedgeodata.org/ontology/b5m%3Aid>,0.7595559,1.5939006,0.16502634,2.7221656,1.0896007,-0.84823596,-3.4387145,-1.2205704,1.8459092,-2.5460505,-1.2673998,2.1472087,2.4057157,-2.5653727,-1.1433948,-3.4886456,2.1249385,-1.6813382,2.8498402,-0.12247169,1.3286138,0.8593097,0.98151046,1.7605069,0.11155892,-1.7081748,1.1871474,3.0206263,-1.2350943,-1.8570062,-3.1770146,1.0511938
<http://linkedgeodata.org/ontology/wheelchair%3Adescription>,-0.47774115,0.96735233,2.4557366,2.0910587,1.9711428,-3.7990124,0.201802,2.1263442,-2.690136,3.3061357,2.0296595,-0.9090285,-1.7437605,-0.12049242,2.0658662,-3.371443,0.5409629,3.0002456,1.04319,-0.51398945,0.71692276,0.28028265,1.3846824,2.687246,-0.24390069,-0.26430145,1.7567362,0.7913505,-2.4379063,-1.1622736,1.967694,-3.0290465
<http://linkedgeodata.org/ontology/FIXME>,-1.9667689,0.3834739,0.3206563,-2.3955884,1.9404601,-3.3481586,2.3159873,0.4339855,4.5964465,-0.43771225,-2.365689,-0.8328088,1.5530684,-1.298478,1.6643361,0.81608355,2.4256718,4.23635,-3.0342352,1.1478832,-4.0138993,-3.2356029,-0.22400355,0.34823728,2.7419298,0.085319184,-0.43208218,-1.5451902,1.1534109,2.531318,-0.2336927,0.49702373
<http://linkedgeodata.org/ontology/note%3Ade>,2.9600854,-0.71665114,-0.33073357,-1.1614152,0.767907,-2.1226854,0.7382132,-2.6227477,-2.0622945,-1.5829216,1.7313391,-1.3688313,-2.8377872,2.8765814,2.8094318,1.4220185,-0.5407464,-1.0094907,-0.14244887,2.3156018,2.3820558,0.84479016,1.504762,1.3362402,-4.675354,0.23965007,1.2699302,-1.7786641,0.50018764,-0.36408556,1.8534299,-1.5652465
<http://linkedgeodata.org/ontology/former%3Ashop>,-0.010511036,-2.2659,-1.6018649,-3.5902352,-0.18219772,-0.33450046,-0.21878393,-0.9216444,-3.0923638,-0.005212862,-0.97146595,-3.076536,-2.5586643,-2.9720175,-0.9193753,-0.37499145,-1.2647551,0.6883347,0.28376678,3.2918189,-2.41952,2.5094688,-1.0191971,-0.99587744,-2.1474414,1.3134025,0.7300349,2.0664442,0.3552412,0.2856439,-0.46178925,0.8117858
<http://linkedgeodata.org/ontology/source%3Aopening_hours>,1.4930531,-0.6427593,-0.7329771,-0.8620798,0.16341889,0.20867962,-0.8860878,-1.3457868,-4.5812573,1.3754019,-0.030763602,-1.6552482,1.004358,0.9617458,3.2482772,-0.30853164,-2.7540872,-0.60986435,-0.20751095,0.5400966,2.5462813,-1.8024864,-3.3464618,2.8298454,-1.1705151,2.2242439,-3.5335205,1.7775105,0.572669,0.20569152,1.8255221,-0.7610582
<http://linkedgeodata.org/ontology/organic>,-0.16328563,0.18105541,-1.2230823,1.934949,2.7284875,-0.19466878,4.5351734,-1.2332578,1.272598,2.6239111,4.553652,0.44533965,0.18525046,-1.205457,-3.319693,-2.0421765,4.1917963,1.5969799,2.3754308,-0.904011,-0.52402705,-0.6693401,0.6969498,-2.3292181,0.82631993,0.77837735,-1.2733192,-0.6413009,-1.2721084,-0.910305,-0.040190507,1.7043986
<http://linkedgeodata.org/ontology/lastcheck>,2.1469846,-0.27153668,1.717134,2.568628,-0.30923298,0.011623538,0.79966825,-2.5822496,-3.1574447,-0.18709522,0.7966296,0.86068076,2.7685688,-1.7551922,-2.0170462,2.2626917,1.6305808,1.9524523,0.5231777,-0.42644292,1.6850816,0.81757027,0.627073,-0.66518176,-2.460693,1.7717109,-4.8402095,-0.6796685,-0.6548702,1.6350529,1.6533722,-0.4568111
<http://linkedgeodata.org/ontology/wheelchair%3Adescription%3Ade>,1.9634839,-0.6682486,-1.296113,2.871868,0.8691516,0.2943057,-0.757776,-0.82628506,-2.1932096,-1.1905358,-0.8231347,-1.6321548,-2.7496223,-1.6784501,2.2943652,0.16773665,4.958392,-1.5609307,1.8782371,-1.3640417,-0.9461548,-1.9857082,1.9346083,-1.9315226,-0.864737,0.89154434,0.1728062,1.8146975,-1.3784027,-2.828801,-1.5933281,-2.811896
<http://linkedgeodata.org/ontology/drink%3Awine>,-1.6800253,1.3248835,1.6297662,-0.10544399,1.0810176,1.563421,2.3099122,2.233407,-0.13918383,-0.6290448,-1.0519884,0.9463845,1.5398742,-0.7803416,1.9686632,1.4181495,1.703905,3.3815713,0.26774183,1.1529839,-1.7028186,-2.1785696,-0.71221316,1.5743787,-2.0878747,-1.6490881,-3.4434407,-0.70244414,0.24261887,1.2381164,2.1216896,-1.5469732
<http://linkedgeodata.org/ontology/service%3Afleurop>,-3.0642962,0.5102484,-0.6665082,-1.7335155,0.3524816,-0.58196574,1.0916023,2.4780214,-1.7281007,-3.1602707,-3.41531,1.6562996,-0.5249595,-1.5142001,-1.0125183,-1.1770802,1.7370608,0.36917067,-3.176413,-0.1600182,0.9544557,-2.2672532,-1.7233824,-2.2050653,2.4788637,-0.5852475,0.15701629,0.25580466,-0.90117276,3.5985823,1.9079952,-2.5550847
<http://linkedgeodata.org/ontology/addr%3Acounty>,0.6599062,-1.0071039,-0.8323512,1.808168,1.8855381,-2.2766662,-0.40197176,-0.74966073,0.50681555,3.8104646,0.21435012,-0.90580267,-2.355003,-3.8625913,1.9013497,-1.5060349,4.060137,0.01847998,-2.6271656,1.5050092,4.4695697,0.082525544,-1.5958223,1.0071944,-0.15375565,-1.7283877,-0.19712757,-2.5364747,1.6778604,1.6136415,1.7020036,0.1838282
<http://linkedgeodata.org/ontology/craft_1>,-0.8779935,1.9803681,-1.338349,0.59916776,0.4745325,1.9781204,-0.6235826,-2.9168591,-2.1390698,-4.4148893,-0.5499578,0.9228055,-0.6625364,2.0189273,-2.0418894,-0.51171064,-0.2833365,3.1911054,-0.0028052414,-4.1271133,-2.561811,1.9069741,0.8671834,-0.6629753,-1.7090498,-1.0481706,-2.8935957,1.9379002,1.5859581,-2.2504044,2.863645,0.39481863
<http://linkedgeodata.org/ontology/tailor>,-2.700462,-1.0395563,-1.849487,0.10177778,-0.3174758,-0.40694994,-0.8161775,1.260864,-2.4982965,-3.5062506,-1.8949857,-0.5250792,0.93368495,0.44607577,0.86623365,-2.741839,-0.28968516,0.09026986,2.4497094,0.28202996,-3.4119668,-2.3254752,-0.80075884,0.8602924,1.1007305,0.19576836,1.2830677,-0.742674,1.818234,-3.2806954,-0.5489102,-2.138856
<http://linkedgeodata.org/ontology/product>,-0.7547794,0.26369038,-1.9200014,-1.5313896,-0.019239238,0.9055979,4.2207737,-0.9502212,-2.3853772,2.5574927,2.027243,2.9348598,-4.477062,-0.013358043,-0.057276376,-2.2971148,-2.8380857,0.09681799,-0.80285186,2.9540772,0.752194,-1.9609952,-1.2923005,-1.3741951,1.0460002,-1.6994903,-0.41151968,0.43338874,-1.170944,-0.59081256,-0.8404943,-1.7973628
<http://linkedgeodata.org/ontology/long_name>,-3.8126702,0.12018281,0.175537,-0.9542294,2.6707518,2.9980073,-1.2973378,-1.5487391,-1.1023667,-1.3866577,0.9428194,1.1898724,2.4485433,1.7965723,-0.5981725,2.7114105,-0.011696497,-1.2749158,0.54980654,-2.863088,-2.2598999,-0.3165157,1.010364,-1.0250463,1.310787,-1.6308666,1.6783525,2.2536204,1.7171875,-2.2061477,-1.8754185,1.1372353
<http://linkedgeodata.org/ontology/internet_access>,-3.3883858,1.7799766,0.84341216,1.805763,2.6612551,0.41827235,2.634338,1.7351416,1.9436224,2.1090143,3.4219022,0.21137418,-1.072635,0.56804043,-3.0410757,-2.5036833,4.0713277,1.0470213,1.4119401,-0.9661938,0.19649619,-0.96682155,-1.7862115,-2.6783757,1.1066442,1.1480238,-0.7665064,2.226182,-1.5009134,0.024224387,-0.52369255,1.2657068
<http://linkedgeodata.org/ontology/check_date>,0.5379323,-1.110714,1.8363423,-0.093901016,-2.2768857,-0.2622835,-0.4929045,0.21125434,-1.637341,-2.494469,2.1244466,-0.55166656,1.5317076,-2.8306406,2.087412,2.2974799,0.0272476,-2.0301573,0.45561114,0.76042855,3.4347935,-1.7633502,-0.64674175,-0.20311637,0.9244394,-0.7703869,0.6039309,1.9591435,1.8345361,-2.0542114,0.9008266,-1.8715429
<http://linkedgeodata.org/ontology/health_specialty%3Aoptometry>,-2.207145,1.6253815,0.9947938,-2.3641882,0.45554897,-1.2453036,2.7612262,-3.8150094,-2.328369,-0.18678635,-1.016247,-1.0043086,1.6071544,1.0107377,-0.8934942,0.05275543,1.7066765,-3.052583,2.1934936,2.514731,-0.11623146,-1.840985,-1.132944,-0.4387089,0.9509707,-1.6614734,-0.6626563,2.526676,-1.5154779,1.5051628,2.1723645,1.7482601
<http://linkedgeodata.org/ontology/health_service%3Aexamination>,-2.9710226,1.6792718,1.3512743,-2.0862186,-0.21521287,-2.514958,1.3757428,-2.0554507,0.56870764,1.0965924,1.4177984,-1.3493215,0.9258059,-0.304204,0.39619863,-0.04517352,2.200748,-1.060688,1.3741577,4.9421124,-0.32526165,-1.221259,-0.112336434,1.8869973,1.2140265,-2.9689,-1.1082879,2.288346,-0.8975801,1.1748273,1.3207395,1.2078056
<http://linkedgeodata.org/ontology/medical_system%3Awestern>,-4.0000668,1.8211533,0.81106186,-2.2120697,0.21950719,-1.5265446,2.1816506,-3.6970332,-1.9958316,-1.0972884,0.0033595017,-0.9332645,1.2578864,0.10665054,-1.3421704,-0.669011,0.87323487,-3.2050805,2.238785,3.1824286,-0.23317914,-2.4149323,-1.6667634,0.40648183,1.1048818,-2.4696386,-1.0087914,1.8960396,-0.24214059,1.5997477,0.52649903,1.9320935
<http://linkedgeodata.org/ontology/name%3Aja-Hira>,0.016657839,0.4551733,-0.6740144,-1.1077604,2.1939957,-1.5363121,-2.121995,1.388302,-0.9272847,0.6441932,3.3312662,-0.6354551,0.859641,-1.5744529,-0.34245226,-3.9451532,-2.5136626,-3.2401438,3.4491653,-0.120174095,-1.20083,-2.1770341,0.5626957,-0.28293446,-1.4038043,1.2534642,2.3033457,3.7730901,-1.4962099,2.248756,1.3438056,0.18966942
<http://linkedgeodata.org/ontology/payment%3Avisa>,-0.2966867,1.1139598,1.1511956,-2.2529325,0.07215286,1.738299,-0.47511947,-3.2384684,0.6104638,-2.640126,-1.570277,0.056823898,0.18863814,0.8528676,0.085420914,2.8316147,1.4677938,-5.5194716,3.5452487,2.4126878,0.6165302,1.0670272,0.10799307,0.5690048,2.2678812,-3.3169672,-1.50835,1.3889029,-0.5922245,2.1669345,-0.43458828,2.65949
<http://linkedgeodata.org/ontology/isIn>,2.7771068,2.638392,0.31471005,-1.0366347,-1.2041442,-1.8164381,1.8670877,0.68306386,3.13554,-2.618895,-0.030200161,1.3613228,0.9709638,0.58019614,1.5109923,-1.4864298,1.8965918,0.48603284,-2.7236283,0.07612635,-0.601687,2.4723992,-1.5035319,-1.4131411,-1.9179635,-3.06273,0.03846996,1.6285492,-3.9518461,0.9859508,-2.4891095,-1.714392
<http://linkedgeodata.org/ontology/education>,0.84553516,4.1786847,-2.2104566,2.753098,-3.4165733,2.204687,-3.0404363,-1.21136,-0.10516848,-1.3400561,1.1518564,-0.592775,-3.0525172,1.0973934,-0.03721038,-1.9543787,-1.4475832,1.9677558,-3.173466,1.9179648,-1.079941,-0.627853,0.47320363,1.2774054,1.5323033,-1.5285525,0.18006724,1.1184658,2.8133328,1.4469138,1.5419362,1.065523
<http://linkedgeodata.org/ontology/source_ref>,-0.7436718,-1.2048206,1.0278747,-0.16070245,-3.2867858,-1.9485016,-1.3183643,2.5509088,-0.65367675,1.1717944,-3.0996437,1.6679928,0.6089213,-0.05965997,2.8267167,-1.5626891,2.5820146,0.07991865,1.0618943,-2.3324447,-1.6713035,0.36027434,-0.044375297,-0.011274486,0.51531565,0.4149515,2.233299,3.4441745,0.4417009,0.85413545,-1.4138374,0.5828761
<http://linkedgeodata.org/ontology/takeaway>,3.6350496,0.23314002,1.3965483,0.7839657,0.3565727,3.1205437,-1.4173387,5.0218744,-1.402007,1.4711701,2.3438408,1.1435941,-0.42928636,0.81793183,-1.9919395,2.1112945,1.8228382,-1.5213054,4.702606,2.8525167,-1.0314934,1.1062806,3.121961,-1.3528372,2.2144587,2.6550841,-0.3789845,-1.5283335,0.5396294,-2.268738,1.2313414,1.3677608
<http://linkedgeodata.org/ontology/postalCode>,0.8236284,2.0924492,-0.6726916,-3.6349957,2.0723848,-1.1089319,2.0612528,2.13157,2.4492345,-0.80950344,-3.8625002,2.6226466,0.9707591,0.6002261,-2.3067424,0.45723814,-0.08209005,1.977369,-3.1870518,3.0159016,1.9715196,-3.906122,1.7084005,1.3624195,-0.09563844,-1.9761766,-0.89499855,-1.629773,0.04720549,1.4311104,2.2448719,-0.09662858
<http://linkedgeodata.org/ontology/source%3Apostal_code>,-1.9744064,-2.9120476,-0.8204809,-0.9749831,0.29336163,3.116946,1.912432,-3.545625,1.9998194,0.5990464,0.33605236,1.6432279,-1.5497582,-2.5893276,-0.75548595,-1.49937,0.8673298,0.47472873,-0.8553444,0.87498116,-3.5584822,0.7122315,1.5969608,0.32035,-0.085724175,0.07061188,-1.4821273,0.48976392,-0.2918825,3.276053,1.6595192,-2.4313846
<http://linkedgeodata.org/ontology/craft_2>,1.8783462,-0.1788643,0.29407042,0.91282934,-0.93123424,-1.4156166,1.0954776,-1.1369667,-0.49227938,-1.221136,0.5969615,0.84717727,-2.0346649,1.2283819,-1.8780073,0.7693141,2.3149815,0.4378991,1.1355973,1.0084605,-1.7798195,0.22898802,-1.6863978,-1.0752515,1.0785632,-1.6569692,1.9088261,1.6357957,-1.1027861,-1.8027785,-1.6949725,0.9968896
<http://linkedgeodata.org/ontology/name%3Afull>,3.040362,0.5071548,1.6772566,-1.3353786,-0.649958,-0.0090955775,1.5697011,0.878178,-3.3718657,1.689306,-0.46552527,3.9408064,0.40321547,1.0984737,-2.403321,0.8025353,0.16904476,1.0416543,-3.1190085,0.9221438,-0.6685729,-0.30333108,0.3320506,0.21931976,3.1650736,1.9062523,-1.8046589,3.241356,1.6328058,0.89643717,1.4912841,-3.7516932
<http://linkedgeodata.org/ontology/wheelchair%3Aaccess>,-3.2726986,2.1400156,3.1628706,0.5337915,3.0426733,1.7201605,2.2988307,0.31269437,2.445492,0.8252206,2.1412895,0.78772455,-1.650218,-0.3760828,-2.7796285,-1.102708,3.5983274,-1.4930652,0.8604584,-1.2207192,0.8507507,-1.7551475,-1.0199293,-1.9845169,1.367966,0.041669622,0.12687303,0.88291496,-3.8220763,-0.12632263,-1.0268908,3.0299282
<http://linkedgeodata.org/ontology/wheelchair%3Anote>,2.3094199,-2.9434807,-1.4073925,0.057374235,-1.5256314,1.5270358,2.184399,-0.8843789,-2.078551,-0.5974209,-0.19778189,-0.3322621,-2.3327198,-1.3044213,0.32981056,-0.40828022,-1.1676196,-0.9163137,0.72623587,0.27302346,2.2806258,-3.604991,-2.2136447,4.1760697,-1.8326659,-0.5417992,-2.1462479,1.237833,-1.657705,-1.4171393,3.300272,-2.3092744
<http://linkedgeodata.org/ontology/repair>,-4.5876527,3.5166197,2.4965208,-1.0386473,0.55090755,-0.34292358,0.75657165,-3.7349055,2.1024463,-0.7957853,-0.89820695,0.62867194,1.4971445,1.5521477,0.6109731,-0.4960695,1.0555575,-4.2301965,2.1833277,4.0949817,-0.98446554,-2.3173854,-0.019471858,0.1364332,1.7330892,-2.2175808,1.1328284,1.7033064,0.4961516,2.8704054,2.4978874,1.4902816
<http://linkedgeodata.org/ontology/_waypoint_>,-0.26784438,-1.9020458,2.1162477,-2.2061658,2.042589,-2.473225,0.9517484,-2.7324743,-1.8489711,-1.5573803,-2.4409688,-0.30506933,-0.74258065,-1.0137912,0.21712239,-1.024228,-3.4566567,-2.819498,-0.08111298,-1.7043866,1.3981131,0.37384346,-1.8865442,1.2110983,1.5237321,-0.2242839,-1.7077514,0.45352986,0.61019105,0.3894139,-0.005770728,-1.0155715
<http://linkedgeodata.org/ontology/_description_>,0.75528145,-2.5554569,0.6040473,1.457078,2.64894,-0.6770012,-1.0690898,-1.8240526,1.2218268,-0.37342685,0.30272496,-0.64597255,-2.0411348,-1.1326662,3.0756488,-1.2256126,-3.623878,-2.3372443,0.8702109,-0.67528075,3.3703353,1.1594591,-0.64769316,-1.6342609,-2.182639,-1.8472602,0.52007234,-0.9257097,-0.46359396,-2.5554335,2.1797638,-2.0576346
<http://linkedgeodata.org/ontology/addr%3Aflats>,-0.016410848,-0.12225126,-1.9575764,2.079177,0.4479944,1.5989743,-0.73828083,-3.7260015,1.3917714,-3.3165894,2.1475255,-1.9716879,-0.7438808,-1.5343678,0.34578517,1.6382779,1.6384941,-1.7251726,-0.048515685,0.8031077,-2.0136993,2.758908,1.5808904,0.82052374,-0.38569975,1.307087,-3.1996691,-0.65730196,-0.5751255,2.145821,-2.0801682,1.8418224
<http://linkedgeodata.org/ontology/comment>,-0.14505981,2.4068248,-1.1092622,0.3121813,-0.5132263,0.32447425,2.6253743,1.8351192,-2.3188088,0.55116975,-2.958669,-0.62280166,-2.9257128,1.1557639,-1.5569783,0.65642476,-0.7550429,-0.8663017,-1.3532258,-3.169265,-3.4922907,1.4159539,-4.227473,1.5505023,-0.52786064,-0.72046286,-1.0972556,1.4413867,3.692416,2.8761754,-4.1553197,1.4897506
<http://linkedgeodata.org/ontology/motor_vehicle>,2.228227,0.41898495,3.885256,3.2319953,0.7705471,2.0055883,-1.1614416,3.834203,-0.5023685,1.4394245,1.9241204,0.9317639,-0.68800545,1.24495,-2.2416382,3.0309293,0.2633647,-1.8899508,2.185301,2.304139,-2.7221153,-0.03220392,0.9431451,-2.9784155,2.8633099,1.3784823,-1.002949,-2.043382,0.4353925,-1.6757746,2.1532507,0.2562576
<http://linkedgeodata.org/ontology/restaurant>,-1.7199571,2.8129604,1.2555214,-1.9803079,1.958666,-0.5235804,-2.5437791,-2.4481792,1.7639959,0.21638295,1.5481906,-0.91579044,-0.71916556,-0.8034454,-2.4510338,-2.0725298,2.1059222,-0.5159123,0.43437973,3.4541678,-2.0313056,-2.018561,-1.5640464,-1.6413463,-0.636877,-0.95990187,1.1031075,0.20948222,2.4885674,-0.8934235,1.941086,0.18290907
<http://linkedgeodata.org/ontology/name%3Aja-Latn>,-0.24127507,-1.4422911,-2.8752594,2.7917202,1.8182298,-2.2952886,-1.245362,1.29103,1.7440938,-0.9074015,-3.8996582,3.688165,-2.6288178,1.8546315,2.808697,-1.170394,-1.0070561,-1.6164947,-1.4410099,-2.7366955,0.5691337,-2.5764852,1.9693826,-0.935998,0.50673467,-1.7769345,0.28579736,-0.32570112,1.3747255,1.2536405,2.275455,-0.3220824
<http://linkedgeodata.org/ontology/industry>,-0.9624253,-1.9674047,0.3530542,1.7380011,-2.6520433,-1.2022662,-2.174423,0.5281549,3.371493,0.18072839,-0.45851734,0.15783712,-1.8546019,0.90667593,-0.7231368,-1.3127983,2.652539,1.0065773,-0.8605169,2.2347353,-0.5118489,0.23795769,1.4622025,0.98951274,1.662456,-2.0673673,-1.199737,2.1851652,-2.0795856,-0.6532124,2.7867317,0.7633674
<http://linkedgeodata.org/ontology/addr>,-2.746621,-1.782732,3.447879,-2.1315498,2.2492142,0.49691555,1.7431661,-1.97468,-0.74974,2.405118,1.6692868,-0.49927756,2.5835688,-2.8640957,0.312626,2.9185562,2.8084116,-0.40458414,0.48959404,-0.84661764,1.3431222,2.6326096,1.0742316,0.9563027,2.0938268,-1.4683983,-1.6515882,0.9025937,-0.9897507,-0.5835111,-2.3090775,-2.4240637
<http://linkedgeodata.org/ontology/us.fo%3AAdressutal>,-0.05786316,-0.15772463,-1.2683935,-0.3535219,1.8022968,2.1411934,0.28636748,0.112365365,1.6591641,0.21718836,-1.9858955,0.25141457,-1.9804231,2.5502772,-2.2001867,-2.3854632,-2.004122,0.65582836,1.8399302,-2.293673,2.6451082,0.8638826,0.53951854,2.7935636,-0.9457119,1.5733318,-0.11303519,1.0365698,4.6091123,-0.83709526,1.7620337,-1.3217884
<http://linkedgeodata.org/ontology/us.fo%3AVeganr>,-4.2014318,-0.774966,-0.28878063,-0.1259818,-1.797816,-2.1482458,0.97998005,2.1004882,1.9012638,-2.4362192,0.85062116,-2.864565,1.0360478,2.9423535,-1.3371305,-0.51237583,0.61899793,-3.1958232,0.4802706,-2.2116375,-0.03353361,2.0652957,-2.9730368,-4.187223,1.6123811,-2.393445,-0.89916414,0.7237754,-1.0207864,1.676292,1.3519382,-1.1377108
<http://linkedgeodata.org/ontology/us.fo%3AGaldandi_fr%C3%A1>,2.383214,-2.537206,-0.9691227,3.124467,1.1952606,1.9742838,2.1022117,1.5981698,0.54388964,0.74162316,0.27646464,0.4828954,0.543555,1.426499,1.8667133,-1.7591968,-0.84875935,-2.4141645,-2.7292216,-1.8227869,-0.790266,-0.44566303,-0.98515606,2.19975,0.2557886,-1.1498343,-0.66642237,-2.7236884,-1.471473,1.7591008,2.2995036,-2.3054307
<http://linkedgeodata.org/ontology/us.fo%3APostnr>,-0.05812114,3.5146346,-2.9395816,-0.84858084,0.89650464,1.150921,1.4784471,2.8812616,2.1432304,-0.5571326,-0.6967243,-0.96035665,0.5753305,1.7203662,2.2531338,0.7512079,-3.4461322,-2.6871724,0.53976566,-1.2724203,-1.6516256,0.27160126,0.53474265,3.2828784,2.4336514,2.967668,1.4502138,0.42808065,-1.2415775,-0.78977597,1.5726913,-1.6528609
<http://linkedgeodata.org/ontology/us.fo%3Akommununr>,1.2827549,2.7140884,-2.1580026,1.1319398,-0.14334354,1.8485044,3.013393,0.8624969,-2.3047602,1.058713,-2.5301065,-2.2423918,-1.458376,0.48994854,-2.7921326,-0.7493322,0.15222077,-1.7249757,3.296985,-0.4205548,1.1041344,-0.1375174,-0.42939013,1.0488231,3.0495098,1.2336234,-2.8244143,0.72211534,1.512889,-2.6068807,-0.6145372,0.014942777
<http://linkedgeodata.org/ontology/tailor%3Afor>,-2.3409088,1.2091022,-0.79259557,-1.1901746,2.0772886,-0.28098875,-2.0232615,-1.7442615,-0.21483457,2.3368537,0.26127955,-0.32036838,-1.5861979,0.120488435,-0.053734526,0.39790842,-0.5526266,-0.79826885,3.0866246,-4.6609125,-0.56056124,-0.8573821,-0.2999198,-2.6299531,1.3422009,2.1286054,-1.3244734,-1.6703573,-0.11350723,3.1485553,2.1235318,-2.298883
<http://linkedgeodata.org/ontology/tailor%3Abespoke_tailoring>,-2.7664266,-1.8140831,-0.6569978,-2.031767,-0.23213987,-1.3393223,0.049489666,-2.1227443,1.7441849,0.20789438,-3.4387598,1.7263181,1.1459432,0.55232525,-0.17486438,1.006809,0.05026,0.32561547,-0.4332685,0.9260725,-1.4512565,-2.2666206,-0.27785048,-2.3425791,0.9608762,-0.07320856,0.20384304,1.3040854,1.2339264,-0.017299911,1.9446973,-1.8230238
<http://linkedgeodata.org/ontology/tailor%3Aspeciality>,0.027459357,1.8792932,1.9979987,-1.3631552,-0.8142256,0.687129,-3.3047104,-2.1281211,-2.8280325,2.2693942,-1.2457948,0.02042433,2.7233706,-2.5729792,-0.027910486,-0.032266703,-0.8909448,2.238368,0.38104448,-2.7772949,0.85433275,-1.5104806,-0.31339595,-2.1382916,0.8859806,-1.1735353,1.9217821,-2.5211189,2.3505561,0.7539925,1.5156292,-0.1001426
